{"learner":{"attributes":{"scikit_learn":"{\"_estimator_type\": \"regressor\"}"},"feature_names":[],"feature_types":[],"gradient_booster":{"model":{"gbtree_model_param":{"num_parallel_tree":"1","num_trees":"600"},"iteration_indptr":[0,1,2,3,4,5,6,7,8,9,10,11,12,13,14,15,16,17,18,19,20,21,22,23,24,25,26,27,28,29,30,31,32,33,34,35,36,37,38,39,40,41,42,43,44,45,46,47,48,49,50,51,52,53,54,55,56,57,58,59,60,61,62,63,64,65,66,67,68,69,70,71,72,73,74,75,76,77,78,79,80,81,82,83,84,85,86,87,88,89,90,91,92,93,94,95,96,97,98,99,100,101,102,103,104,105,106,107,108,109,110,111,112,113,114,115,116,117,118,119,120,121,122,123,124,125,126,127,128,129,130,131,132,133,134,135,136,137,138,139,140,141,142,143,144,145,146,147,148,149,150,151,152,153,154,155,156,157,158,159,160,161,162,163,164,165,166,167,168,169,170,171,172,173,174,175,176,177,178,179,180,181,182,183,184,185,186,187,188,189,190,191,192,193,194,195,196,197,198,199,200,201,202,203,204,205,206,207,208,209,210,211,212,213,214,215,216,217,218,219,220,221,222,223,224,225,226,227,228,229,230,231,232,233,234,235,236,237,238,239,240,241,242,243,244,245,246,247,248,249,250,251,252,253,254,255,256,257,258,259,260,261,262,263,264,265,266,267,268,269,270,271,272,273,274,275,276,277,278,279,280,281,282,283,284,285,286,287,288,289,290,291,292,293,294,295,296,297,298,299,300,301,302,303,304,305,306,307,308,309,310,311,312,313,314,315,316,317,318,319,320,321,322,323,324,325,326,327,328,329,330,331,332,333,334,335,336,337,338,339,340,341,342,343,344,345,346,347,348,349,350,351,352,353,354,355,356,357,358,359,360,361,362,363,364,365,366,367,368,369,370,371,372,373,374,375,376,377,378,379,380,381,382,383,384,385,386,387,388,389,390,391,392,393,394,395,396,397,398,399,400,401,402,403,404,405,406,407,408,409,410,411,412,413,414,415,416,417,418,419,420,421,422,423,424,425,426,427,428,429,430,431,432,433,434,435,436,437,438,439,440,441,442,443,444,445,446,447,448,449,450,451,452,453,454,455,456,457,458,459,460,461,462,463,464,465,466,467,468,469,470,471,472,473,474,475,476,477,478,479,480,481,482,483,484,485,486,487,488,489,490,491,492,493,494,495,496,497,498,499,500,501,502,503,504,505,506,507,508,509,510,511,512,513,514,515,516,517,518,519,520,521,522,523,524,525,526,527,528,529,530,531,532,533,534,535,536,537,538,539,540,541,542,543,544,545,546,547,548,549,550,551,552,553,554,555,556,557,558,559,560,561,562,563,564,565,566,567,568,569,570,571,572,573,574,575,576,577,578,579,580,581,582,583,584,585,586,587,588,589,590,591,592,593,594,595,596,597,598,599,600],"tree_info":[0,0,0,0,0,0,0,0,0,0,0,0,0,0,0,0,0,0,0,0,0,0,0,0,0,0,0,0,0,0,0,0,0,0,0,0,0,0,0,0,0,0,0,0,0,0,0,0,0,0,0,0,0,0,0,0,0,0,0,0,0,0,0,0,0,0,0,0,0,0,0,0,0,0,0,0,0,0,0,0,0,0,0,0,0,0,0,0,0,0,0,0,0,0,0,0,0,0,0,0,0,0,0,0,0,0,0,0,0,0,0,0,0,0,0,0,0,0,0,0,0,0,0,0,0,0,0,0,0,0,0,0,0,0,0,0,0,0,0,0,0,0,0,0,0,0,0,0,0,0,0,0,0,0,0,0,0,0,0,0,0,0,0,0,0,0,0,0,0,0,0,0,0,0,0,0,0,0,0,0,0,0,0,0,0,0,0,0,0,0,0,0,0,0,0,0,0,0,0,0,0,0,0,0,0,0,0,0,0,0,0,0,0,0,0,0,0,0,0,0,0,0,0,0,0,0,0,0,0,0,0,0,0,0,0,0,0,0,0,0,0,0,0,0,0,0,0,0,0,0,0,0,0,0,0,0,0,0,0,0,0,0,0,0,0,0,0,0,0,0,0,0,0,0,0,0,0,0,0,0,0,0,0,0,0,0,0,0,0,0,0,0,0,0,0,0,0,0,0,0,0,0,0,0,0,0,0,0,0,0,0,0,0,0,0,0,0,0,0,0,0,0,0,0,0,0,0,0,0,0,0,0,0,0,0,0,0,0,0,0,0,0,0,0,0,0,0,0,0,0,0,0,0,0,0,0,0,0,0,0,0,0,0,0,0,0,0,0,0,0,0,0,0,0,0,0,0,0,0,0,0,0,0,0,0,0,0,0,0,0,0,0,0,0,0,0,0,0,0,0,0,0,0,0,0,0,0,0,0,0,0,0,0,0,0,0,0,0,0,0,0,0,0,0,0,0,0,0,0,0,0,0,0,0,0,0,0,0,0,0,0,0,0,0,0,0,0,0,0,0,0,0,0,0,0,0,0,0,0,0,0,0,0,0,0,0,0,0,0,0,0,0,0,0,0,0,0,0,0,0,0,0,0,0,0,0,0,0,0,0,0,0,0,0,0,0,0,0,0,0,0,0,0,0,0,0,0,0,0,0,0,0,0,0,0,0,0,0,0,0,0,0,0,0,0,0,0,0,0,0,0,0,0,0,0,0,0,0,0,0,0,0,0,0,0,0,0,0,0,0,0,0,0,0,0,0,0,0,0,0,0,0,0,0,0,0,0,0,0,0,0,0,0,0,0,0,0,0,0,0,0,0,0,0,0,0,0,0,0,0,0,0,0,0,0,0,0,0,0,0],"trees":[{"base_weights":[1.0233318E-3,-5.015968E-1,6.0119987E-2,-1.5178643E0,-2.3452878E-1,-8.301016E-2,6.360885E-2,-1.2301413E-1,-8.253723E-2,-2.2725254E-2,7.875902E-3,-4.8954841E-1,3.2251242E-1,-1.315552E-3,-2.9919745E-4,-8.736209E-1,6.5625496E-2,-3.5495323E-1,5.686639E-1,-5.5248106E-1,-1.519805E0,-3.6604041E-3,2.2753662E-1,4.67966E-1,-7.972345E-2,1.271459E-1,8.5677475E-1,-7.892622E-2,-1.410791E-2,-8.351981E-2,2.04675E-3,-1.2566135E-3,3.731633E-3,6.351709E-3,2.0156734E-2,4.034125E-2,1.0489305E-2,1.3075373E-2,-5.8463868E-2,5.0119605E-2,1.643982E-2],"categories":[],"categories_nodes":[],"categories_segments":[],"categories_sizes":[],"default_left":[0,0,0,0,0,0,0,0,0,0,0,0,0,0,0,0,0,0,0,0,0,0,0,0,0,0,0,0,0,0,0,0,0,0,0,0,0,0,0,0,0],"id":0,"left_children":[1,3,-1,5,7,-1,9,11,-1,13,-1,15,17,-1,-1,19,21,23,25,27,29,31,33,35,-1,37,39,-1,-1,-1,-1,-1,-1,-1,-1,-1,-1,-1,-1,-1,-1],"loss_changes":[2.5179889E2,7.9439316E1,0E0,1.383699E1,3.6752274E1,0E0,5.222503E-2,3.5757446E1,0E0,8.267886E-5,0E0,2.5644575E1,1.6711008E1,0E0,0E0,1.3893936E1,5.6174076E-1,2.8286732E1,9.177111E0,1.31453905E1,5.4741516E0,6.2395226E-2,2.135086E-1,1.3180113E0,0E0,5.5314574E0,3.0532608E0,0E0,0E0,0E0,0E0,0E0,0E0,0E0,0E0,0E0,0E0,0E0,0E0,0E0,0E0],"parents":[2147483647,0,0,1,1,3,3,4,4,6,6,7,7,9,9,11,11,12,12,15,15,16,16,17,17,18,18,19,19,20,20,21,21,22,22,23,23,25,25,26,26],"right_children":[2,4,-1,6,8,-1,10,12,-1,14,-1,16,18,-1,-1,20,22,24,26,28,30,32,34,36,-1,38,40,-1,-1,-1,-1,-1,-1,-1,-1,-1,-1,-1,-1,-1,-1],"split_conditions":[8.2205864E1,4.75659E1,6.0119987E-2,6.9017897E0,5.998949E1,-8.301016E-2,1.1368245E1,4.2769432E1,-8.253723E-2,3.1825204E2,7.875902E-3,5.954579E0,6.483104E-1,-1.315552E-3,-2.9919745E-4,1.91E0,1.33E0,4.1176248E-1,5.4603516E1,9.564732E0,5.214806E0,1.1357392E2,7.4588027E0,2.0470034E-1,-7.972345E-2,2.501E1,1.3647007E0,-7.892622E-2,-1.410791E-2,-8.351981E-2,2.04675E-3,-1.2566135E-3,3.731633E-3,6.351709E-3,2.0156734E-2,4.034125E-2,1.0489305E-2,1.3075373E-2,-5.8463868E-2,5.0119605E-2,1.643982E-2],"split_indices":[13,16,0,4,31,0,4,13,0,7,0,4,4,0,0,38,47,4,13,32,4,7,25,7,0,26,4,0,0,0,0,0,0,0,0,0,0,0,0,0,0],"split_type":[0,0,0,0,0,0,0,0,0,0,0,0,0,0,0,0,0,0,0,0,0,0,0,0,0,0,0,0,0,0,0,0,0,0,0,0,0,0,0,0,0],"sum_hessian":[4.15E2,2.93E2,1.22E2,6E1,2.33E2,5.5E1,5E0,2.17E2,1.6E1,3E0,2E0,1.19E2,9.8E1,2E0,1E0,7E1,4.9E1,2.6E1,7.2E1,4.8E1,2.2E1,3.5E1,1.4E1,1.6E1,1E1,2.9E1,4.3E1,9E0,3.9E1,2E1,2E0,2.8E1,7E0,1E1,4E0,6E0,1E1,2.7E1,2E0,3.3E1,1E1],"tree_param":{"num_deleted":"0","num_feature":"60","num_nodes":"41","size_leaf_vector":"1"}},{"base_weights":[-4.1968366E-3,-4.5493346E-1,1.0968173E0,-1.404002E0,-1.893592E-1,-4.5350898E-2,1.1208738E0,-1.528248E0,7.245914E-2,-8.785101E-2,-7.834588E-2,3.563039E-1,5.7537895E-2,-8.1688724E-2,-1.1359392E0,-5.51185E-3,7.6133707E-3,-2.915308E-1,5.1020855E-1,-4.5350898E-2,3.951859E-2,-7.557611E-2,-4.3711507E-1,1.2701243E-3,-1.2142062E-3,-6.0829186E-1,3.2648496E-2,7.522137E-1,-5.4819584E-1,-5.5688363E-2,5.6299258E-2,-1.1250404E0,-2.6199785E-1,-6.6813207E-1,7.715176E-2,2.5302398E-1,8.667998E-1,-7.175111E-2,8.030001E-1,3.1855702E-3,6.662667E-4,1.6227722E-3,-6.429071E-2,-6.47092E-3,-5.38433E-2,-5.6913294E-2,1.2356222E-3,1.1457326E-3,1.6172802E-2,1.548742E-2,4.525012E-3,1.9077918E-2,4.7420457E-2,4.7124296E-2,6.1264248E-3],"categories":[],"categories_nodes":[],"categories_segments":[],"categories_sizes":[],"default_left":[0,0,0,0,0,0,0,0,0,0,0,0,0,0,0,0,0,0,0,0,0,0,0,0,0,0,0,0,0,0,0,0,0,0,0,0,0,0,0,0,0,0,0,0,0,0,0,0,0,0,0,0,0,0,0],"id":1,"left_children":[1,3,5,7,9,-1,11,13,15,17,-1,19,-1,-1,21,23,-1,25,27,-1,-1,-1,29,-1,-1,31,33,35,37,-1,39,41,43,45,47,49,51,-1,53,-1,-1,-1,-1,-1,-1,-1,-1,-1,-1,-1,-1,-1,-1,-1,-1],"loss_changes":[2.08435E2,7.4844505E1,6.8977356E0,1.2034637E1,3.2583374E1,0E0,2.35466E0,6.2805176E-1,3.817565E-2,2.6825706E1,0E0,4.0070868E0,0E0,0E0,3.5387535E0,2.9382065E-3,0E0,1.6860592E1,1.47561655E1,0E0,0E0,0E0,2.3997936E0,0E0,0E0,1.4557837E1,2.6088834E0,2.4118843E0,1.433336E1,0E0,7.436685E-4,6.182865E0,5.370407E0,1.6567774E0,1.034577E0,6.415832E-2,1.1033363E0,0E0,3.5909915E-1,0E0,0E0,0E0,0E0,0E0,0E0,0E0,0E0,0E0,0E0,0E0,0E0,0E0,0E0,0E0,0E0],"parents":[2147483647,0,0,1,1,2,2,3,3,4,4,6,6,7,7,8,8,9,9,11,11,14,14,15,15,17,17,18,18,22,22,25,25,26,26,27,27,28,28,30,30,31,31,32,32,33,33,34,34,35,35,36,36,38,38],"right_children":[2,4,6,8,10,-1,12,14,16,18,-1,20,-1,-1,22,24,-1,26,28,-1,-1,-1,30,-1,-1,32,34,36,38,-1,40,42,44,46,48,50,52,-1,54,-1,-1,-1,-1,-1,-1,-1,-1,-1,-1,-1,-1,-1,-1,-1,-1],"split_conditions":[1.17205864E2,5.05659E1,5.2047005E0,6.9017897E0,5.998949E1,-4.5350898E-2,4.95E1,4.4940014E1,1.1368245E1,9.036118E1,-7.834588E-2,3.147475E-1,5.7537895E-2,-8.1688724E-2,1.14E0,9.763851E0,7.6133707E-3,5.214806E0,2.707E1,-4.5350898E-2,3.951859E-2,-7.557611E-2,4.2548175E0,1.2701243E-3,-1.2142062E-3,2.9115284E1,7.9E-1,3.12E0,6.483104E-1,-5.5688363E-2,6.084936E0,7.623567E-1,2.501E1,1.0663503E1,1.8327005E1,1.260235E1,3.765889E1,-7.175111E-2,1.6352875E1,3.1855702E-3,6.662667E-4,1.6227722E-3,-6.429071E-2,-6.47092E-3,-5.38433E-2,-5.6913294E-2,1.2356222E-3,1.1457326E-3,1.6172802E-2,1.548742E-2,4.525012E-3,1.9077918E-2,4.7420457E-2,4.7124296E-2,6.1264248E-3],"split_indices":[16,16,55,4,31,0,51,16,4,16,0,4,0,0,27,4,0,4,26,0,0,0,4,0,0,51,27,27,4,0,4,12,26,25,25,40,31,0,7,0,0,0,0,0,0,0,0,0,0,0,0,0,0,0,0],"split_type":[0,0,0,0,0,0,0,0,0,0,0,0,0,0,0,0,0,0,0,0,0,0,0,0,0,0,0,0,0,0,0,0,0,0,0,0,0,0,0,0,0,0,0,0,0,0,0,0,0,0,0,0,0,0,0],"sum_hessian":[4.18E2,2.97E2,1.21E2,6.4E1,2.33E2,1E0,1.2E2,5.9E1,5E0,2.18E2,1.5E1,5E0,1.15E2,4.4E1,1.5E1,3E0,2E0,1.63E2,5.5E1,1E0,4E0,9E0,6E0,1E0,2E0,8.2E1,8.1E1,4.5E1,1E1,2E0,4E0,3.2E1,5E1,4E0,7.7E1,9E0,3.6E1,6E0,4E0,3E0,1E0,4E0,2.8E1,4.4E1,6E0,2E0,2E0,6.4E1,1.3E1,6E0,3E0,6E0,3E1,3E0,1E0],"tree_param":{"num_deleted":"0","num_feature":"60","num_nodes":"55","size_leaf_vector":"1"}},{"base_weights":[-1.4341674E-2,-4.6774143E-1,1.066678E0,-1.4488096E0,-2.3972678E-1,2.602207E-1,5.455936E-2,-7.5055055E-2,-1.2312274E-3,-1.11711346E-1,-7.603111E-2,-4.4217125E-2,3.8372356E-2,-4.5031145E-1,3.3739203E-1,-1.9418317E-1,-1.204624E0,-4.794142E-1,5.19229E-1,-6.9469444E-2,-9.906513E-2,-7.7919744E-2,5.1487565E-2,4.225891E-1,-7.141859E-2,1.4994338E-1,8.4098196E-1,-5.6497443E-2,-1.2565696E-3,7.5795053E-4,2.7255893E-3,3.4361247E-2,6.581386E-3,1.5424048E-2,-4.790504E-2,4.8374645E-2,1.3480464E-2],"categories":[],"categories_nodes":[],"categories_segments":[],"categories_sizes":[],"default_left":[0,0,0,0,0,0,0,0,0,0,0,0,0,0,0,0,0,0,0,0,0,0,0,0,0,0,0,0,0,0,0,0,0,0,0,0,0],"id":2,"left_children":[1,3,5,7,9,11,-1,-1,-1,13,-1,-1,-1,15,17,19,21,23,25,-1,27,-1,29,31,-1,33,35,-1,-1,-1,-1,-1,-1,-1,-1,-1,-1],"loss_changes":[2.0733553E2,6.631467E1,2.1867523E0,4.1335144E0,3.9675903E1,3.5814495E0,0E0,0E0,0E0,3.3910683E1,0E0,0E0,0E0,2.430258E1,1.4507379E1,1.077618E1,1.4300255E1,1.6010948E1,9.26058E0,0E0,6.8311405E0,0E0,5.2578747E-5,6.7953014E-1,0E0,6.9708877E0,2.7751198E0,0E0,0E0,0E0,0E0,0E0,0E0,0E0,0E0,0E0,0E0],"parents":[2147483647,0,0,1,1,2,2,3,3,4,4,5,5,9,9,13,13,14,14,15,15,16,16,17,17,18,18,20,20,22,22,23,23,25,25,26,26],"right_children":[2,4,6,8,10,12,-1,-1,-1,14,-1,-1,-1,16,18,20,22,24,26,-1,28,-1,30,32,-1,34,36,-1,-1,-1,-1,-1,-1,-1,-1,-1,-1],"split_conditions":[8.2205864E1,4.75659E1,4.95E1,6.9017897E0,5.998949E1,3.147475E-1,5.455936E-2,-7.5055055E-2,-1.2312274E-3,4.2769432E1,-7.603111E-2,-4.4217125E-2,3.8372356E-2,1.91E0,6.483104E-1,9.564732E0,5.214806E0,3.3333334E-1,5.560235E1,-6.9469444E-2,9.435268E0,-7.7919744E-2,7.336497E0,2.0470034E-1,-7.141859E-2,3.3364968E0,1.3647007E0,-5.6497443E-2,-1.2565696E-3,7.5795053E-4,2.7255893E-3,3.4361247E-2,6.581386E-3,1.5424048E-2,-4.790504E-2,4.8374645E-2,1.3480464E-2],"split_indices":[13,16,51,4,31,4,0,0,0,13,0,0,0,38,4,32,4,4,13,0,17,0,7,7,0,58,4,0,0,0,0,0,0,0,0,0,0],"split_type":[0,0,0,0,0,0,0,0,0,0,0,0,0,0,0,0,0,0,0,0,0,0,0,0,0,0,0,0,0,0,0,0,0,0,0,0,0],"sum_hessian":[4.21E2,2.97E2,1.24E2,5.5E1,2.42E2,4E0,1.2E2,5.3E1,2E0,2.21E2,2.1E1,1E0,3E0,1.26E2,9.5E1,9.5E1,3.1E1,1.7E1,7.8E1,6E0,8.9E1,2.4E1,7E0,9E0,8E0,3.7E1,4.1E1,5E0,8.4E1,1E0,6E0,4E0,5E0,3.3E1,4E0,3.3E1,8E0],"tree_param":{"num_deleted":"0","num_feature":"60","num_nodes":"37","size_leaf_vector":"1"}},{"base_weights":[-1.8267049E-2,-4.5498243E-1,1.0088391E0,-1.3405428E0,-2.1964651E-1,-3.7925046E-2,1.0287277E0,-7.311862E-2,6.05672E-2,-1.14480525E-1,-1.251762E0,-3.7925046E-2,5.2446593E-2,-2.0158648E-2,7.4006296E-3,-3.2169628E-1,5.366949E-1,-7.380507E-2,3.3054385E-2,-1.1901875E-3,-2.3058355E-4,-5.705861E-1,7.3818386E-2,6.739995E-1,-2.094608E-1,-9.034221E-1,-3.210463E-2,1.8997192E-2,2.0554352E-1,4.348512E-1,8.838434E-1,-6.1240908E-2,4.2389434E-2,-3.1662267E-2,-7.068106E-2,1.0646638E-2,-4.4989076E-2,-3.7173834E-4,4.434942E-3,1.5829684E-2,3.6969506E-3,1.6141782E-2,3.4921136E-2,4.7036532E-2,9.550929E-3],"categories":[],"categories_nodes":[],"categories_segments":[],"categories_sizes":[],"default_left":[0,0,0,0,0,0,0,0,0,0,0,0,0,0,0,0,0,0,0,0,0,0,0,0,0,0,0,0,0,0,0,0,0,0,0,0,0,0,0,0,0,0,0,0,0],"id":3,"left_children":[1,3,5,7,9,-1,11,-1,13,15,17,-1,-1,19,-1,21,23,-1,-1,-1,-1,25,27,29,31,33,35,37,39,41,43,-1,-1,-1,-1,-1,-1,-1,-1,-1,-1,-1,-1,-1,-1],"loss_changes":[1.9243971E2,6.24352E1,5.2794647E0,1.0842461E1,2.5798586E1,0E0,5.381531E0,0E0,4.5338362E-2,2.9588223E1,1.0416637E1,0E0,0E0,1.16906245E-4,0E0,1.6383085E1,5.571059E0,0E0,0E0,0E0,0E0,1.8252052E1,4.6548164E-1,1.87393E0,1.0699761E1,7.7890015E0,8.696124E0,8.724996E-2,2.5427073E-1,4.5357847E-1,7.268009E-1,0E0,0E0,0E0,0E0,0E0,0E0,0E0,0E0,0E0,0E0,0E0,0E0,0E0,0E0],"parents":[2147483647,0,0,1,1,2,2,3,3,4,4,6,6,8,8,9,9,10,10,13,13,15,15,16,16,21,21,22,22,23,23,24,24,25,25,26,26,27,27,28,28,29,29,30,30],"right_children":[2,4,6,8,10,-1,12,-1,14,16,18,-1,-1,20,-1,22,24,-1,-1,-1,-1,26,28,30,32,34,36,38,40,42,44,-1,-1,-1,-1,-1,-1,-1,-1,-1,-1,-1,-1,-1,-1],"split_conditions":[5.0372948E1,4.75659E1,1.4988233E1,1.9432646E2,5.908E1,-3.7925046E-2,5.2047005E0,-7.311862E-2,3.4104733E2,5.7078815E1,8.647646E1,-3.7925046E-2,5.2446593E-2,3.1825204E2,7.4006296E-3,1.7863736E2,2.707E1,-7.380507E-2,3.3054385E-2,-1.1901875E-3,-2.3058355E-4,3.8155315E1,1.33E0,3.93E0,1.9449312E1,1.6E0,2.501E1,3.5082394E1,1.36E0,4.9713505E1,2.3098772E1,-6.1240908E-2,4.2389434E-2,-3.1662267E-2,-7.068106E-2,1.0646638E-2,-4.4989076E-2,-3.7173834E-4,4.434942E-3,1.5829684E-2,3.6969506E-3,1.6141782E-2,3.4921136E-2,4.7036532E-2,9.550929E-3],"split_indices":[51,16,40,6,31,0,49,0,6,13,13,0,0,7,0,6,26,0,0,0,0,13,47,47,6,47,26,8,27,31,7,0,0,0,0,0,0,0,0,0,0,0,0,0,0],"split_type":[0,0,0,0,0,0,0,0,0,0,0,0,0,0,0,0,0,0,0,0,0,0,0,0,0,0,0,0,0,0,0,0,0,0,0,0,0,0,0,0,0,0,0,0,0],"sum_hessian":[4.27E2,3E2,1.27E2,6.2E1,2.38E2,1E0,1.26E2,5.7E1,5E0,2.17E2,2.1E1,1E0,1.25E2,3E0,2E0,1.65E2,5.2E1,1.9E1,2E0,2E0,1E0,1.01E2,6.4E1,4.4E1,8E0,6.2E1,3.9E1,4.6E1,1.8E1,2.2E1,2.2E1,4E0,4E0,4.2E1,2E1,3.1E1,8E0,3.4E1,1.2E1,9E0,9E0,1.7E1,5E0,2E1,2E0],"tree_param":{"num_deleted":"0","num_feature":"60","num_nodes":"45","size_leaf_vector":"1"}},{"base_weights":[-2.9312922E-2,-4.2081973E-1,4.9341623E-2,-1.3095239E0,-2.0784567E-1,-6.9429666E-2,1.05060935E-1,-8.652605E-1,-3.394876E-2,-2.2481979E-4,7.1539427E-3,-5.136995E-2,-7.166358E-2,-2.9226944E-1,7.5786555E-1,3.5799086E-1,-6.0133196E-2,-5.6048554E-1,7.424861E-2,4.5120114E-1,9.114815E-1,3.3876844E-2,1.6838528E-1,-8.456454E-1,-3.6476437E-2,1.3765511E-2,2.03599E-1,1.8079336E-1,5.713389E-1,9.5796347E-1,7.916429E-3,9.343323E-3,-8.726925E-4,-1.9326942E-2,-7.1127616E-2,1.3942422E-2,-3.632718E-2,-7.177927E-4,2.7591405E-3,5.94143E-3,2.1707227E-2,1.0362359E-2,3.8219613E-3,1.0780347E-2,3.104623E-2,4.9905714E-2,1.3864263E-2],"categories":[],"categories_nodes":[],"categories_segments":[],"categories_sizes":[],"default_left":[0,0,0,0,0,0,0,0,0,0,0,0,0,0,0,0,0,0,0,0,0,0,0,0,0,0,0,0,0,0,0,0,0,0,0,0,0,0,0,0,0,0,0,0,0,0,0],"id":4,"left_children":[1,3,-1,5,7,-1,9,11,13,-1,-1,15,-1,17,19,21,-1,23,25,27,29,-1,31,33,35,37,39,41,43,45,-1,-1,-1,-1,-1,-1,-1,-1,-1,-1,-1,-1,-1,-1,-1,-1,-1],"loss_changes":[1.6591164E2,5.6698376E1,0E0,6.6332016E0,2.7865292E1,0E0,1.7303903E-2,2.3503613E1,3.9902653E1,0E0,0E0,1.0799025E1,0E0,1.44926E1,1.849947E0,9.1590357E-1,0E0,1.2670399E1,4.9007872E-1,4.8145747E-1,9.335747E-1,0E0,4.4475853E-2,1.4017525E1,6.9480505E0,5.2039478E-2,3.3928E-1,3.482148E-3,7.779503E-2,5.158024E-1,0E0,0E0,0E0,0E0,0E0,0E0,0E0,0E0,0E0,0E0,0E0,0E0,0E0,0E0,0E0,0E0,0E0],"parents":[2147483647,0,0,1,1,3,3,4,4,6,6,7,7,8,8,11,11,13,13,14,14,15,15,17,17,18,18,19,19,20,20,22,22,23,23,24,24,25,25,26,26,27,27,28,28,29,29],"right_children":[2,4,-1,6,8,-1,10,12,14,-1,-1,16,-1,18,20,22,-1,24,26,28,30,-1,32,34,36,38,40,42,44,46,-1,-1,-1,-1,-1,-1,-1,-1,-1,-1,-1,-1,-1,-1,-1,-1,-1],"split_conditions":[8.647646E1,4.75659E1,4.9341623E-2,6.9017897E0,1.9449312E1,-6.9429666E-2,1.1368245E1,2.4352682E0,5.536118E1,-2.2481979E-4,7.1539427E-3,1.112E1,-7.166358E-2,5.805952E0,3.39E0,2.0470034E-1,-6.0133196E-2,3.8155315E1,1.33E0,3.68E0,2.3098772E1,3.3876844E-2,8.19601E-2,1.06E0,3.25E0,6.3188053E1,9.619754E1,5.951177E1,1.1934102E1,1.3647007E0,7.916429E-3,9.343323E-3,-8.726925E-4,-1.9326942E-2,-7.1127616E-2,1.3942422E-2,-3.632718E-2,-7.177927E-4,2.7591405E-3,5.94143E-3,2.1707227E-2,1.0362359E-2,3.8219613E-3,1.0780347E-2,3.104623E-2,4.9905714E-2,1.3864263E-2],"split_indices":[13,16,0,4,6,0,4,7,13,0,0,18,0,4,37,7,0,13,47,47,7,0,4,37,47,5,5,13,40,4,0,0,0,0,0,0,0,0,0,0,0,0,0,0,0,0,0],"split_type":[0,0,0,0,0,0,0,0,0,0,0,0,0,0,0,0,0,0,0,0,0,0,0,0,0,0,0,0,0,0,0,0,0,0,0,0,0,0,0,0,0,0,0,0,0,0,0],"sum_hessian":[4.15E2,3E2,1.15E2,5.7E1,2.43E2,5.4E1,3E0,5E1,1.93E2,1E0,2E0,2.1E1,2.9E1,1.46E2,4.7E1,1.6E1,5E0,8.4E1,6.2E1,1.7E1,3E1,5E0,1.1E1,5.4E1,3E1,4.3E1,1.9E1,6E0,1.1E1,2.8E1,2E0,1E1,1E0,3.1E1,2.3E1,2.1E1,9E0,2.6E1,1.7E1,1.5E1,4E0,4E0,2E0,2E0,9E0,2.6E1,2E0],"tree_param":{"num_deleted":"0","num_feature":"60","num_nodes":"47","size_leaf_vector":"1"}},{"base_weights":[-1.9195652E-2,-3.740165E-1,4.687224E-2,-1.1992643E0,-1.7931952E-1,-6.452933E-2,4.5133926E-2,-7.801684E-2,-1.2348467E0,-1.9337296E-2,7.5754705E-3,-2.6146743E-1,4.2625117E-1,-6.695393E-2,2.3850525E-2,-1.1430205E-3,-2.1919906E-4,-4.9054793E-1,4.964702E-2,-1.934218E-1,7.045583E-1,-9.358042E-1,-1.8036488E-1,-3.944407E-2,7.2249934E-2,4.56511E-1,-6.1269242E-2,3.2338592E-1,8.5895354E-1,-2.4874302E-2,-6.746241E-2,-1.6299667E-3,-6.366974E-2,1.2065307E-3,1.349389E-2,3.196335E-2,1.0426958E-2,2.0724334E-2,3.8253628E-3,4.5525234E-2,1.481223E-2],"categories":[],"categories_nodes":[],"categories_segments":[],"categories_sizes":[],"default_left":[0,0,0,0,0,0,0,0,0,0,0,0,0,0,0,0,0,0,0,0,0,0,0,0,0,0,0,0,0,0,0,0,0,0,0,0,0,0,0,0,0],"id":5,"left_children":[1,3,-1,5,7,-1,9,11,13,15,-1,17,19,-1,-1,-1,-1,21,23,25,27,29,31,-1,33,35,-1,37,39,-1,-1,-1,-1,-1,-1,-1,-1,-1,-1,-1,-1],"loss_changes":[1.4427147E2,4.9593647E1,0E0,6.763092E0,2.6849445E1,0E0,3.7220567E-2,2.1480858E1,4.564213E0,1.1050922E-4,0E0,1.2140298E1,1.0828763E1,0E0,0E0,0E0,0E0,1.3366083E1,1.4405792E0,1.3973535E1,2.2528248E0,6.5775642E0,9.487705E0,0E0,6.7818743E-1,4.5582604E-1,0E0,2.8316033E-1,6.005192E-1,0E0,0E0,0E0,0E0,0E0,0E0,0E0,0E0,0E0,0E0,0E0,0E0],"parents":[2147483647,0,0,1,1,3,3,4,4,6,6,7,7,8,8,9,9,11,11,12,12,17,17,18,18,19,19,20,20,21,21,22,22,24,24,25,25,27,27,28,28],"right_children":[2,4,-1,6,8,-1,10,12,14,16,-1,18,20,-1,-1,-1,-1,22,24,26,28,30,32,-1,34,36,-1,38,40,-1,-1,-1,-1,-1,-1,-1,-1,-1,-1,-1,-1],"split_conditions":[1.2147646E2,4.75659E1,4.687224E-2,6.9017897E0,6.07E1,-6.452933E-2,1.1368245E1,9.036118E1,1.0672994E1,3.1825204E2,7.5754705E-3,5.759356E0,6.483104E-1,-6.695393E-2,2.3850525E-2,-1.1430205E-3,-2.1919906E-4,6.715648E1,6.4E-1,4.1176248E-1,3.12E0,1.08E0,2.3923504E1,-3.944407E-2,1.92047E1,2.0470034E-1,-6.1269242E-2,3.3168113E0,1.3647007E0,-2.4874302E-2,-6.746241E-2,-1.6299667E-3,-6.366974E-2,1.2065307E-3,1.349389E-2,3.196335E-2,1.0426958E-2,2.0724334E-2,3.8253628E-3,4.5525234E-2,1.481223E-2],"split_indices":[16,16,0,4,31,0,4,16,7,7,0,4,4,0,0,0,0,16,38,4,37,47,26,0,25,7,0,4,4,0,0,0,0,0,0,0,0,0,0,0,0],"split_type":[0,0,0,0,0,0,0,0,0,0,0,0,0,0,0,0,0,0,0,0,0,0,0,0,0,0,0,0,0,0,0,0,0,0,0,0,0,0,0,0,0],"sum_hessian":[4.23E2,3.09E2,1.14E2,5.8E1,2.51E2,5.4E1,4E0,2.3E2,2.1E1,3E0,1E0,1.69E2,6.1E1,2E1,1E0,2E0,1E0,9.7E1,7.2E1,1.9E1,4.2E1,3.9E1,5.8E1,1E0,7.1E1,1.2E1,7E0,1.3E1,2.9E1,2E1,1.9E1,5.2E1,6E0,5.8E1,1.3E1,6E0,6E0,9E0,4E0,2.6E1,3E0],"tree_param":{"num_deleted":"0","num_feature":"60","num_nodes":"41","size_leaf_vector":"1"}},{"base_weights":[4.5081624E-3,-3.698416E-1,4.47531E-2,-1.1028265E0,-1.619894E-1,-1.2197605E0,4.030735E-2,-6.2413186E-2,-6.3488275E-2,-6.324208E-2,-7.0418084E-1,-2.3525214E-2,6.662959E-3,-3.6170623E-1,3.0611798E-1,-5.3063788E-2,1.2570436E-1,-1.3634667E-3,-2.1371842E-4,-1.2718235E-1,-1.0157835E0,-2.682341E-1,5.232807E-1,8.74973E-3,6.7809824E-4,-6.0000044E-1,-5.5216635E-3,-1.2284007E0,7.485517E-2,3.5972497E-1,-6.071657E-2,3.1737098E-1,8.8122326E-1,-5.9706964E-2,-2.637774E-4,-1.4250501E-2,3.1018124E-3,4.5228214E-3,-6.423867E-2,5.9868204E-3,-4.9691E-4,3.1295698E-2,7.881487E-3,2.470082E-2,-6.08384E-3,1.660996E-2,4.5726053E-2],"categories":[],"categories_nodes":[],"categories_segments":[],"categories_sizes":[],"default_left":[0,0,0,0,0,0,0,0,0,0,0,0,0,0,0,0,0,0,0,0,0,0,0,0,0,0,0,0,0,0,0,0,0,0,0,0,0,0,0,0,0,0,0,0,0,0,0],"id":6,"left_children":[1,3,-1,5,7,9,11,13,-1,-1,15,17,-1,19,21,-1,23,-1,-1,25,27,29,31,-1,-1,33,35,37,39,41,-1,43,45,-1,-1,-1,-1,-1,-1,-1,-1,-1,-1,-1,-1,-1,-1],"loss_changes":[1.3968327E2,4.476534E1,0E0,8.737808E0,2.5401936E1,4.8065186E-1,4.4668425E-2,2.3604372E1,0E0,0E0,2.2078416E0,2.4382793E-4,0E0,1.797163E1,1.2114235E1,0E0,1.42093E-2,0E0,0E0,5.0587435E0,7.2804947E0,1.6477804E1,4.879593E0,0E0,0E0,6.3539844E0,1.358278E0,2.0492477E0,2.4023749E-2,8.158612E-1,0E0,3.627677E0,1.5322876E-1,0E0,0E0,0E0,0E0,0E0,0E0,0E0,0E0,0E0,0E0,0E0,0E0,0E0,0E0],"parents":[2147483647,0,0,1,1,3,3,4,4,5,5,6,6,7,7,10,10,11,11,13,13,14,14,16,16,19,19,20,20,21,21,22,22,25,25,26,26,27,27,28,28,29,29,31,31,32,32],"right_children":[2,4,-1,6,8,10,12,14,-1,-1,16,18,-1,20,22,-1,24,-1,-1,26,28,30,32,-1,-1,34,36,38,40,42,-1,44,46,-1,-1,-1,-1,-1,-1,-1,-1,-1,-1,-1,-1,-1,-1],"split_conditions":[1.2147646E2,5.05659E1,4.47531E-2,2.0705368E2,6.2077724E1,1.8106084E2,3.4104733E2,7.776943E1,-6.3488275E-2,-6.324208E-2,4.5E0,3.1825204E2,6.662959E-3,-1.338E1,1.9449312E1,-5.3063788E-2,1.8254808E2,-1.3634667E-3,-2.1371842E-4,8.2E-1,2.4076496E1,1.2352874E1,4.53E0,8.74973E-3,6.7809824E-4,9.4E-1,4.999051E1,-2.6396498E1,7.3805885E1,2.0470034E-1,-6.071657E-2,3.8E0,3.01E0,-5.9706964E-2,-2.637774E-4,-1.4250501E-2,3.1018124E-3,4.5228214E-3,-6.423867E-2,5.9868204E-3,-4.9691E-4,3.1295698E-2,7.881487E-3,2.470082E-2,-6.08384E-3,1.660996E-2,4.5726053E-2],"split_indices":[16,16,0,6,31,6,6,16,0,0,33,7,0,31,6,0,6,0,0,37,31,6,46,0,0,27,7,46,16,7,0,46,37,0,0,0,0,0,0,0,0,0,0,0,0,0,0],"split_type":[0,0,0,0,0,0,0,0,0,0,0,0,0,0,0,0,0,0,0,0,0,0,0,0,0,0,0,0,0,0,0,0,0,0,0,0,0,0,0,0,0,0,0,0,0,0,0],"sum_hessian":[4.17E2,2.94E2,1.23E2,6.4E1,2.3E2,5.8E1,6E0,2.12E2,1.8E1,5.2E1,6E0,4E0,2E0,1.17E2,9.5E1,4E0,2E0,3E0,1E0,8.7E1,3E1,2.6E1,6.9E1,1E0,1E0,1.7E1,7E1,2.5E1,5E0,1.6E1,1E1,4.5E1,2.4E1,8E0,9E0,1.3E1,5.7E1,1E0,2.4E1,3E0,2E0,6E0,1E1,3.2E1,1.3E1,2E0,2.2E1],"tree_param":{"num_deleted":"0","num_feature":"60","num_nodes":"47","size_leaf_vector":"1"}},{"base_weights":[1.7107032E-2,-6.052496E-1,4.4506332E-1,-9.159228E-1,6.573911E-2,1.0634515E-1,4.2530023E-2,-1.1286021E0,-4.6766612E-1,2.827843E-2,2.5822505E-1,3.2029742E-1,-1.1111151E0,-3.4892067E-1,-5.8796432E-2,-5.9300523E-2,-2.5101718E-1,-9.960431E-3,1.0537868E-1,1.4669792E-1,2.1618998E-2,1.7387562E-1,7.303375E-1,-6.054465E-2,2.2111112E-2,9.854016E-2,-4.1461412E-2,3.86091E-2,-9.9546313E-1,-3.0374486E-2,5.76303E-2,5.1672686E-2,1.6704743E-1,9.976193E-3,2.8598756E-3,-4.5185718E-1,3.5017246E-1,1.8061951E-1,8.0508757E-1,7.320672E-4,6.0812994E-3,1.9198731E-3,9.954449E-2,-5.674384E-2,2.9961616E-3,-4.0134944E-2,1.851746E-3,1.2639984E-3,3.5992253E-3,-4.6776535E-4,2.9746525E-3,2.176887E-3,9.018805E-3,1.0209166E-1,-5.7012465E-2,1.6582423E-1,5.767453E-1,1.0208462E-2,2.1605135E-3,4.6342583E-3,4.1446146E-2,-5.8536854E-4,1.3291588E-3,2.412932E-3,6.546072E-3,-2.7850694E-3,-7.460124E-4,1.5364677E-3,-1.3744399E-3,-1.2617365E-3,7.366882E-3,1.2368696E-2,-3.149832E-2,1.1033419E-2,3.266885E-2],"categories":[],"categories_nodes":[],"categories_segments":[],"categories_sizes":[],"default_left":[0,0,0,0,0,0,0,0,0,0,0,0,0,0,0,0,0,0,0,0,0,0,0,0,0,0,0,0,0,0,0,0,0,0,0,0,0,0,0,0,0,0,0,0,0,0,0,0,0,0,0,0,0,0,0,0,0,0,0,0,0,0,0,0,0,0,0,0,0,0,0,0,0,0,0],"id":7,"left_children":[1,3,5,7,9,11,-1,13,15,17,19,21,23,25,-1,-1,27,29,31,33,-1,35,37,-1,-1,39,-1,41,43,45,47,49,51,-1,-1,53,55,57,59,-1,-1,61,63,-1,-1,65,67,-1,-1,-1,-1,-1,-1,69,-1,71,73,-1,-1,-1,-1,-1,-1,-1,-1,-1,-1,-1,-1,-1,-1,-1,-1,-1,-1],"loss_changes":[1.1373083E2,3.6331944E1,3.466233E1,1.0817055E1,3.964944E-1,3.6562378E1,0E0,2.5416565E0,5.927431E0,1.4256446E-1,1.11377716E-1,7.0176277E0,3.7902489E0,1.3712251E0,0E0,0E0,6.93799E0,4.7283918E-2,4.4359908E-2,2.168332E-2,0E0,9.976239E0,1.1284218E0,0E0,0E0,5.966723E-3,0E0,5.3465012E-2,1.3922234E0,8.252433E-3,1.8951409E-3,5.329188E-3,3.6703646E-3,0E0,0E0,7.74309E0,2.8281422E0,7.3575526E-3,3.8163948E-1,0E0,0E0,5.688704E-3,8.164652E-3,0E0,0E0,7.0189834E-3,6.775706E-3,0E0,0E0,0E0,0E0,0E0,0E0,7.285011E-2,0E0,2.7516959E0,7.017107E-1,0E0,0E0,0E0,0E0,0E0,0E0,0E0,0E0,0E0,0E0,0E0,0E0,0E0,0E0,0E0,0E0,0E0,0E0],"parents":[2147483647,0,0,1,1,2,2,3,3,4,4,5,5,7,7,8,8,9,9,10,10,11,11,12,12,13,13,16,16,17,17,18,18,19,19,21,21,22,22,25,25,27,27,28,28,29,29,30,30,31,31,32,32,35,35,36,36,37,37,38,38,41,41,42,42,45,45,46,46,53,53,55,55,56,56],"right_children":[2,4,6,8,10,12,-1,14,16,18,20,22,24,26,-1,-1,28,30,32,34,-1,36,38,-1,-1,40,-1,42,44,46,48,50,52,-1,-1,54,56,58,60,-1,-1,62,64,-1,-1,66,68,-1,-1,-1,-1,-1,-1,70,-1,72,74,-1,-1,-1,-1,-1,-1,-1,-1,-1,-1,-1,-1,-1,-1,-1,-1,-1,-1],"split_conditions":[3.8155315E1,6.2182693E0,8.647646E1,4.230568E0,1.0615284E1,6.07E1,4.2530023E-2,-2.6396498E1,9.336496E0,1.29E0,8.508928E1,4.4884716E1,6.483104E-1,1.7762274E1,-5.8796432E-2,-5.9300523E-2,1.7E0,7.292679E1,2.2047002E0,7.359269E0,2.1618998E-2,6.483104E-1,8.438847E0,-6.054465E-2,2.2111112E-2,1.17953E1,-4.1461412E-2,-5.0002155E1,5.058894E0,3.6635032E0,2.6917606E1,6.6057043E0,3.3270063E0,9.976193E-3,2.8598756E-3,1.2297903E-1,1.92047E1,6.587425E-1,5.0872948E1,7.320672E-4,6.0812994E-3,9E0,2.0847097E1,-5.674384E-2,2.9961616E-3,3.9091614E1,1.1567065E1,1.2639984E-3,3.5992253E-3,-4.6776535E-4,2.9746525E-3,2.176887E-3,9.018805E-3,1.62047E1,-5.7012465E-2,4E0,3.19E0,1.0208462E-2,2.1605135E-3,4.6342583E-3,4.1446146E-2,-5.8536854E-4,1.3291588E-3,2.412932E-3,6.546072E-3,-2.7850694E-3,-7.460124E-4,1.5364677E-3,-1.3744399E-3,-1.2617365E-3,7.366882E-3,1.2368696E-2,-3.149832E-2,1.1033419E-2,3.266885E-2],"split_indices":[13,4,13,55,40,31,0,46,32,47,5,51,4,5,0,0,38,5,25,4,0,4,53,0,0,17,0,31,4,25,8,4,5,0,0,4,17,4,13,0,0,57,13,0,0,5,17,0,0,0,0,0,0,17,0,37,38,0,0,0,0,0,0,0,0,0,0,0,0,0,0,0,0,0,0],"split_type":[0,0,0,0,0,0,0,0,0,0,0,0,0,0,0,0,0,0,0,0,0,0,0,0,0,0,0,0,0,0,0,0,0,0,0,0,0,0,0,0,0,0,0,0,0,0,0,0,0,0,0,0,0,0,0,0,0,0,0,0,0,0,0,0,0,0,0,0,0,0,0,0,0,0,0],"sum_hessian":[4.25E2,1.73E2,2.52E2,1.18E2,5.5E1,1.38E2,1.14E2,7.9E1,3.9E1,4.7E1,8E0,1.18E2,2E1,5E0,7.4E1,8E0,3.1E1,3.2E1,1.5E1,6E0,2E0,8.8E1,3E1,1.9E1,1E0,3E0,2E0,2.3E1,8E0,2.5E1,7E0,9E0,6E0,3E0,3E0,1.9E1,6.9E1,4E0,2.6E1,1E0,2E0,1.5E1,8E0,7E0,1E0,1.9E1,6E0,3E0,4E0,1E0,8E0,1E0,5E0,1.1E1,8E0,3.9E1,3E1,3E0,1E0,1E0,2.5E1,1E1,5E0,4E0,4E0,1.1E1,8E0,3E0,3E0,3E0,8E0,3.6E1,3E0,6E0,2.4E1],"tree_param":{"num_deleted":"0","num_feature":"60","num_nodes":"75","size_leaf_vector":"1"}},{"base_weights":[1.8957961E-2,-3.207092E-1,8.0004656E-1,-1.0040219E0,-1.2660941E-1,-3.041066E-2,4.078391E-2,-1.0892857E0,3.0164042E-2,-2.5694381E-2,-1.0085453E0,-3.3999145E-1,-1.108923E0,-2.1251917E-2,7.1810964E-3,-2.470946E-1,4.051629E-1,-5.815124E-2,2.3024302E-2,4.5601637E-3,-3.0059522E-2,-5.897655E-2,-7.9771644E-1,-1.2333825E-3,-1.8972457E-4,-4.5361653E-1,9.021099E-2,-4.3929696E-2,5.447721E-1,-5.4110736E-2,-6.917672E-2,-6.44269E-1,-5.0095357E-2,3.511828E-2,3.2910708E-1,4.1050953E-1,-5.106132E-2,7.3577905E-1,1.737209E-1,-3.137697E-2,1.136494E-2,-1.9146493E-2,-5.6736697E-2,7.415216E-3,-5.1603734E-2,-5.213753E-5,5.3754933E-3,8.146193E-3,2.3135277E-2,4.556047E-3,2.9936865E-2,2.1964032E-2,4.1646075E-2,1.4446034E-2,5.1856195E-3],"categories":[],"categories_nodes":[],"categories_segments":[],"categories_sizes":[],"default_left":[0,0,0,0,0,0,0,0,0,0,0,0,0,0,0,0,0,0,0,0,0,0,0,0,0,0,0,0,0,0,0,0,0,0,0,0,0,0,0,0,0,0,0,0,0,0,0,0,0,0,0,0,0,0,0],"id":8,"left_children":[1,3,5,7,9,-1,-1,11,13,15,17,19,21,23,-1,25,27,-1,-1,-1,-1,-1,29,-1,-1,31,33,35,37,-1,39,41,43,45,47,49,-1,51,53,-1,-1,-1,-1,-1,-1,-1,-1,-1,-1,-1,-1,-1,-1,-1,-1],"loss_changes":[1.1380933E2,3.9529503E1,3.3578262E0,5.852646E0,2.0800224E1,0E0,0E0,5.2053833E-1,3.8053516E-2,2.0227804E1,5.9820023E0,3.9271343E-1,3.5551453E-1,2.0454824E-4,0E0,9.793459E0,4.538146E0,0E0,0E0,0E0,0E0,0E0,2.826891E0,0E0,0E0,6.660837E0,6.991596E-1,8.413419E0,3.770216E0,0E0,9.7034323E-1,7.127962E0,5.802968E0,1.17911056E-1,1.4663243E-1,7.269738E-1,0E0,6.7100716E-1,1.3133454E-1,0E0,0E0,0E0,0E0,0E0,0E0,0E0,0E0,0E0,0E0,0E0,0E0,0E0,0E0,0E0,0E0],"parents":[2147483647,0,0,1,1,2,2,3,3,4,4,7,7,8,8,9,9,10,10,11,11,12,12,13,13,15,15,16,16,22,22,25,25,26,26,27,27,28,28,30,30,31,31,32,32,33,33,34,34,35,35,37,37,38,38],"right_children":[2,4,6,8,10,-1,-1,12,14,16,18,20,22,24,-1,26,28,-1,-1,-1,-1,-1,30,-1,-1,32,34,36,38,-1,40,42,44,46,48,50,-1,52,54,-1,-1,-1,-1,-1,-1,-1,-1,-1,-1,-1,-1,-1,-1,-1,-1],"split_conditions":[5.0372948E1,5.05659E1,1.4988233E1,2.0705368E2,5.908E1,-3.041066E-2,4.078391E-2,-2.6396498E1,3.4104733E2,3.65E1,1.9917606E1,1.7762274E1,2.2047002E0,3.1825204E2,7.1810964E-3,1.7863736E2,1.9449312E1,-5.815124E-2,2.3024302E-2,4.5601637E-3,-3.0059522E-2,-5.897655E-2,9.603517E0,-1.2333825E-3,-1.8972457E-4,3.8155315E1,1.8327005E1,1.2352874E1,4.721392E1,-5.4110736E-2,5E0,1.7E0,2.5183504E1,1.26E0,1.24E0,6.73E0,-5.106132E-2,3.24E0,1.0469623E2,-3.137697E-2,1.136494E-2,-1.9146493E-2,-5.6736697E-2,7.415216E-3,-5.1603734E-2,-5.213753E-5,5.3754933E-3,8.146193E-3,2.3135277E-2,4.556047E-3,2.9936865E-2,2.1964032E-2,4.1646075E-2,1.4446034E-2,5.1856195E-3],"split_indices":[51,16,40,6,31,0,0,46,6,51,6,5,58,7,0,6,6,0,0,0,0,0,13,0,0,13,25,6,6,0,5,38,26,38,37,18,0,37,6,0,0,0,0,0,0,0,0,0,0,0,0,0,0,0,0],"split_type":[0,0,0,0,0,0,0,0,0,0,0,0,0,0,0,0,0,0,0,0,0,0,0,0,0,0,0,0,0,0,0,0,0,0,0,0,0,0,0,0,0,0,0,0,0,0,0,0,0,0,0,0,0,0,0],"sum_hessian":[4.27E2,2.98E2,1.29E2,6.5E1,2.33E2,1E0,1.28E2,6E1,5E0,2.1E2,2.3E1,2E0,5.8E1,4E0,1E0,1.39E2,7.1E1,2.1E1,2E0,1E0,1E0,4.5E1,1.3E1,3E0,1E0,8.6E1,5.3E1,1.7E1,5.4E1,9E0,4E0,5.8E1,2.8E1,4.4E1,9E0,1.2E1,5E0,3.5E1,1.9E1,1E0,3E0,3.9E1,1.9E1,2.4E1,4E0,3E1,1.4E1,5E0,4E0,5E0,7E0,1E1,2.5E1,6E0,1.3E1],"tree_param":{"num_deleted":"0","num_feature":"60","num_nodes":"55","size_leaf_vector":"1"}},{"base_weights":[4.8226323E-3,-3.5655177E-1,6.4487255E-1,-9.444257E-1,-1.6647297E-1,3.9061587E-2,7.5175405E-1,-1.0618501E0,3.963226E-2,-8.648684E-2,-5.554514E-2,6.600766E-1,-6.3695985E-1,2.9381806E-1,3.8577136E-2,-5.40847E-2,-5.185731E-1,-2.0473957E-2,1.0485697E-1,-2.9446945E-1,2.4632986E-1,3.4827456E-2,5.560172E-3,-5.390464E-2,2.5741464E-2,5.298536E-1,-2.8059876E-2,-3.753565E-2,4.446161E-3,-1.1871323E-3,-1.8498003E-4,1.2933671E-3,6.12822E-3,-9.060282E-2,-9.170049E-1,3.041633E-1,-4.2089816E-2,7.895124E-3,2.8633166E-2,-5.198693E-1,2.1820688E-3,-5.2591953E-2,-5.7010867E-2,1.3018468E-1,5.244523E-1,-5.346024E-2,1.3096088E-3,-3.657434E-2,1.0990736E-3,-3.1771194E-2,7.5225346E-3,1.0587077E-2,-4.8672464E-2,1.1168099E-2,3.3944197E-2],"categories":[],"categories_nodes":[],"categories_segments":[],"categories_sizes":[],"default_left":[0,0,0,0,0,0,0,0,0,0,0,0,0,0,0,0,0,0,0,0,0,0,0,0,0,0,0,0,0,0,0,0,0,0,0,0,0,0,0,0,0,0,0,0,0,0,0,0,0,0,0,0,0,0,0],"id":9,"left_children":[1,3,5,7,9,11,13,15,17,19,-1,21,23,25,-1,-1,27,29,31,33,35,-1,-1,-1,-1,37,-1,-1,-1,-1,-1,-1,-1,39,41,43,-1,-1,-1,45,47,49,-1,51,53,-1,-1,-1,-1,-1,-1,-1,-1,-1,-1],"loss_changes":[9.806884E1,3.0124962E1,9.877388E0,7.668541E0,1.54654255E1,1.0496111E1,9.51355E-1,7.512665E-2,3.3510122E-2,1.3293573E1,0E0,1.8278551E-1,6.6521397E0,1.7100508E0,0E0,0E0,6.308521E-1,1.8631248E-4,2.4243966E-3,1.4892794E1,4.91287E0,0E0,0E0,0E0,0E0,5.1139593E-3,0E0,0E0,0E0,0E0,0E0,0E0,0E0,3.5857842E0,5.5355167E0,2.6528406E0,0E0,0E0,0E0,4.8275404E0,1.1055443E0,9.2397815E-1,0E0,3.8964853E0,1.2897978E0,0E0,0E0,0E0,0E0,0E0,0E0,0E0,0E0,0E0,0E0],"parents":[2147483647,0,0,1,1,2,2,3,3,4,4,5,5,6,6,7,7,8,8,9,9,11,11,12,12,13,13,16,16,17,17,18,18,19,19,20,20,25,25,33,33,34,34,35,35,39,39,40,40,41,41,43,43,44,44],"right_children":[2,4,6,8,10,12,14,16,18,20,-1,22,24,26,-1,-1,28,30,32,34,36,-1,-1,-1,-1,38,-1,-1,-1,-1,-1,-1,-1,40,42,44,-1,-1,-1,46,48,50,-1,52,54,-1,-1,-1,-1,-1,-1,-1,-1,-1,-1],"split_conditions":[4.4884716E1,5.05659E1,8.2047E0,6.9017897E0,2.6863503E1,5.998949E1,7.2047005E0,5.615284E0,2.0470034E-1,3.8155315E1,-5.554514E-2,2.0470034E-1,8.647646E1,5.98E0,3.8577136E-2,-5.40847E-2,1.0210937E0,3.1825204E2,9.763851E0,-1.338E1,5.8727695E1,3.4827456E-2,5.560172E-3,-5.390464E-2,2.5741464E-2,8.19601E-2,-2.8059876E-2,-3.753565E-2,4.446161E-3,-1.1871323E-3,-1.8498003E-4,1.2933671E-3,6.12822E-3,8.5E-1,1.91E0,5.4603516E1,-4.2089816E-2,7.895124E-3,2.8633166E-2,9.4E-1,6.4E-1,5.198823E1,-5.7010867E-2,2.501E1,3.27E0,-5.346024E-2,1.3096088E-3,-3.657434E-2,1.0990736E-3,-3.1771194E-2,7.5225346E-3,1.0587077E-2,-4.8672464E-2,1.1168099E-2,3.3944197E-2],"split_indices":[51,16,49,4,26,31,35,53,8,13,0,25,13,27,0,0,4,7,4,31,31,0,0,0,0,4,0,0,0,0,0,0,0,37,27,13,0,0,0,27,38,16,0,26,27,0,0,0,0,0,0,0,0,0,0],"split_type":[0,0,0,0,0,0,0,0,0,0,0,0,0,0,0,0,0,0,0,0,0,0,0,0,0,0,0,0,0,0,0,0,0,0,0,0,0,0,0,0,0,0,0,0,0,0,0,0,0,0,0,0,0,0,0],"sum_hessian":[4.22E2,2.7E2,1.52E2,6.5E1,2.05E2,2.3E1,1.29E2,5.8E1,7E0,1.9E2,1.5E1,1.2E1,1.1E1,6E0,1.23E2,5.5E1,3E0,4E0,3E0,1.17E2,7.3E1,1.1E1,1E0,8E0,3E0,5E0,1E0,2E0,1E0,3E0,1E0,1E0,2E0,8.9E1,2.8E1,7E1,3E0,1E0,4E0,1.5E1,7.4E1,6E0,2.2E1,4E1,3E1,7E0,8E0,1E0,7.3E1,1E0,5E0,3.8E1,2E0,1.1E1,1.9E1],"tree_param":{"num_deleted":"0","num_feature":"60","num_nodes":"55","size_leaf_vector":"1"}},{"base_weights":[-3.1305607E-2,-3.140735E-1,3.6513012E-2,-9.042715E-1,-1.5700495E-1,-9.8319584E-1,4.883772E-2,-6.194059E-1,-2.9458456E-2,-5.306649E-2,-6.7283005E-1,-1.5602618E-2,5.923947E-3,2.0158301E-1,-1.0020653E0,-3.1012598E-1,3.8489437E-1,-9.2748374E-1,2.593386E-1,-9.199381E-4,-1.8035472E-4,2.2377769E-2,9.933696E-2,-1.0470208E0,1.540829E-2,-8.403594E-1,-9.4384074E-2,2.299673E-1,6.978211E-1,-5.137821E-2,4.335007E-3,1.6126724E-2,1.7437726E-3,-1.8180296E-3,1.3965088E-1,-5.4460447E-2,-2.1988015E-1,-1.0328457E0,4.9637266E-2,-3.5586256E-1,5.471079E-2,-5.314375E-2,3.2499427E-1,1.2069722E-2,7.4685955E-1,2.4195532E-3,7.7277035E-3,-3.1898912E-2,1.5407902E-2,-5.6077827E-2,-1.1009573E-2,-3.982981E-5,3.4985065E-3,2.454404E-3,-2.9051993E-2,1.2660801E-3,1.4525113E-2,5.1307147E-3,2.0211168E-2,1.5269391E-2,3.871811E-2],"categories":[],"categories_nodes":[],"categories_segments":[],"categories_sizes":[],"default_left":[0,0,0,0,0,0,0,0,0,0,0,0,0,0,0,0,0,0,0,0,0,0,0,0,0,0,0,0,0,0,0,0,0,0,0,0,0,0,0,0,0,0,0,0,0,0,0,0,0,0,0,0,0,0,0,0,0,0,0,0,0],"id":10,"left_children":[1,3,-1,5,7,9,11,13,15,-1,17,19,-1,21,23,25,27,29,31,-1,-1,-1,33,35,-1,37,39,41,43,-1,-1,-1,-1,-1,45,-1,47,49,51,53,55,-1,57,-1,59,-1,-1,-1,-1,-1,-1,-1,-1,-1,-1,-1,-1,-1,-1,-1,-1],"loss_changes":[9.304363E1,2.9059017E1,0E0,5.012764E0,1.4726161E1,7.651634E-1,2.8774802E-2,1.7166588E1,2.3029554E1,0E0,3.8012347E0,6.779877E-5,0E0,4.0823585E-1,2.5020332E0,1.3419125E1,3.717989E0,1.3070889E0,4.5492053E-2,0E0,0E0,0E0,8.1664816E-2,1.0167465E0,0E0,5.875881E0,3.333203E0,7.102446E0,4.0165615E-1,0E0,0E0,0E0,0E0,0E0,7.4816495E-3,0E0,8.589134E-1,1.7715988E0,7.2339904E-3,2.855278E0,3.7377864E-1,0E0,8.7470675E-1,0E0,4.277706E-2,0E0,0E0,0E0,0E0,0E0,0E0,0E0,0E0,0E0,0E0,0E0,0E0,0E0,0E0,0E0,0E0],"parents":[2147483647,0,0,1,1,3,3,4,4,5,5,6,6,7,7,8,8,10,10,11,11,13,13,14,14,15,15,16,16,17,17,18,18,22,22,23,23,25,25,26,26,27,27,28,28,34,34,36,36,37,37,38,38,39,39,40,40,42,42,44,44],"right_children":[2,4,-1,6,8,10,12,14,16,-1,18,20,-1,22,24,26,28,30,32,-1,-1,-1,34,36,-1,38,40,42,44,-1,-1,-1,-1,-1,46,-1,48,50,52,54,56,-1,58,-1,60,-1,-1,-1,-1,-1,-1,-1,-1,-1,-1,-1,-1,-1,-1,-1,-1],"split_conditions":[8.647646E1,5.0245914E1,3.6513012E-2,6.9017897E0,1.9449312E1,4.4940014E1,1.1368245E1,1.2297903E-1,4.2769432E1,-5.306649E-2,2.0470034E-1,3.1825204E2,5.923947E-3,6.666667E-2,6.663503E0,1.362822E2,4.52E0,7E0,6.084936E0,-9.199381E-4,-1.8035472E-4,2.2377769E-2,1.6635032E0,2.7336496E1,1.540829E-2,5.009877E1,5.954579E0,7.2925645E-1,5.35E1,-5.137821E-2,4.335007E-3,1.6126724E-2,1.7437726E-3,-1.8180296E-3,1.68E0,-5.4460447E-2,3.147475E-1,1.4122306E1,8.3E-1,5.336497E0,1.92047E1,-5.314375E-2,1.0748204E0,1.2069722E-2,3.01E0,2.4195532E-3,7.7277035E-3,-3.1898912E-2,1.5407902E-2,-5.6077827E-2,-1.1009573E-2,-3.982981E-5,3.4985065E-3,2.454404E-3,-2.9051993E-2,1.2660801E-3,1.4525113E-2,5.1307147E-3,2.0211168E-2,1.5269391E-2,3.871811E-2],"split_indices":[13,16,0,4,6,16,4,4,13,0,58,7,0,4,58,6,27,25,4,0,0,0,7,17,0,5,4,4,13,0,0,0,0,0,27,0,4,58,38,8,25,0,4,0,37,0,0,0,0,0,0,0,0,0,0,0,0,0,0,0,0],"split_type":[0,0,0,0,0,0,0,0,0,0,0,0,0,0,0,0,0,0,0,0,0,0,0,0,0,0,0,0,0,0,0,0,0,0,0,0,0,0,0,0,0,0,0,0,0,0,0,0,0,0,0,0,0,0,0,0,0,0,0,0,0],"sum_hessian":[4.3E2,3.14E2,1.16E2,6.5E1,2.49E2,6E1,5E0,5.3E1,1.96E2,4.6E1,1.4E1,3E0,2E0,1.7E1,3.6E1,1.17E2,7.9E1,1.1E1,3E0,2E0,1E0,4E0,1.3E1,3.5E1,1E0,3.3E1,8.4E1,5.4E1,2.5E1,1E1,1E0,2E0,1E0,3E0,1E1,3.3E1,2E0,2.7E1,6E0,3E1,5.4E1,3E0,5.1E1,3E0,2.2E1,2E0,8E0,1E0,1E0,2.4E1,3E0,2E0,4E0,1.1E1,1.9E1,4.9E1,5E0,1.4E1,3.7E1,2E0,2E1],"tree_param":{"num_deleted":"0","num_feature":"60","num_nodes":"61","size_leaf_vector":"1"}},{"base_weights":[4.455973E-3,-2.9446834E-1,6.803486E-1,-1.0266953E0,-1.918958E-1,-2.6941268E-2,6.935666E-1,-5.2760392E-2,-3.5181597E-1,-8.329723E-1,-1.0415706E-1,5.227974E-3,3.4861833E-2,-2.7139416E-2,7.5321796E-4,-9.882022E-1,-1.3740805E-1,-1.4591755E-2,-8.2700795E-1,-5.1362317E-2,-3.0242206E-4,1.2017667E-2,-2.584906E-2,-1.6574447E-1,3.5133567E-1,-5.159189E-2,2.787578E-2,1.847891E-3,-4.845932E-4,-3.5012215E-1,4.433947E-2,-4.4858903E-2,4.3766898E-1,1.239499E-2,-2.5175055E-2,-3.34682E-3,5.917742E-3,1.5138293E-2,-4.078999E-2,8.491731E-3,2.8930698E-2],"categories":[],"categories_nodes":[],"categories_segments":[],"categories_sizes":[],"default_left":[0,0,0,0,0,0,0,0,0,0,0,0,0,0,0,0,0,0,0,0,0,0,0,0,0,0,0,0,0,0,0,0,0,0,0,0,0,0,0,0,0],"id":11,"left_children":[1,3,5,7,9,-1,11,-1,13,15,17,-1,-1,-1,-1,19,21,23,25,-1,-1,27,-1,29,31,-1,-1,-1,-1,33,35,37,39,-1,-1,-1,-1,-1,-1,-1,-1],"loss_changes":[8.829009E1,2.2560211E1,2.5331306E0,3.407364E-1,1.4931253E1,0E0,2.1460342E-1,0E0,2.1836877E-1,3.3193283E0,1.526713E1,0E0,0E0,0E0,0E0,9.90818E-1,4.0323883E-1,1.1728837E1,7.9486504E0,0E0,0E0,3.6068244E-3,0E0,5.8257437E0,2.1403303E0,0E0,0E0,0E0,0E0,7.462736E0,5.92687E-1,3.4629743E0,1.8269758E0,0E0,0E0,0E0,0E0,0E0,0E0,0E0,0E0],"parents":[2147483647,0,0,1,1,2,2,3,3,4,4,6,6,8,8,9,9,10,10,15,15,16,16,17,17,18,18,21,21,23,23,24,24,29,29,30,30,31,31,32,32],"right_children":[2,4,6,8,10,-1,12,-1,14,16,18,-1,-1,-1,-1,20,22,24,26,-1,-1,28,-1,30,32,-1,-1,-1,-1,34,36,38,40,-1,-1,-1,-1,-1,-1,-1,-1],"split_conditions":[3.5372948E1,9.435268E0,1.4988233E1,5.2047005E0,4.5E0,-2.6941268E-2,4.9713505E1,-5.2760392E-2,5.4733267E0,6.135361E0,2.861E1,5.227974E-3,3.4861833E-2,-2.7139416E-2,7.5321796E-4,2.6035163E0,1.0336497E1,1.2385882E1,7.2925645E-1,-5.1362317E-2,-3.0242206E-4,6.9050817E0,-2.584906E-2,5.307053E0,5.704272E-1,-5.159189E-2,2.787578E-2,1.847891E-3,-4.845932E-4,9.442426E0,3.5E0,4.1176248E-1,3.745E1,1.239499E-2,-2.5175055E-2,-3.34682E-3,5.917742E-3,1.5138293E-2,-4.078999E-2,8.491731E-3,2.8930698E-2],"split_indices":[56,17,40,55,56,0,31,0,4,4,26,0,0,0,0,53,8,54,4,0,0,4,0,4,4,0,0,0,0,7,53,4,31,0,0,0,0,0,0,0,0],"split_type":[0,0,0,0,0,0,0,0,0,0,0,0,0,0,0,0,0,0,0,0,0,0,0,0,0,0,0,0,0,0,0,0,0,0,0,0,0,0,0,0,0],"sum_hessian":[4.35E2,3.02E2,1.33E2,3.6E1,2.66E2,1E0,1.32E2,3.4E1,2E0,3.1E1,2.35E2,1E0,1.31E2,1E0,1E0,2.5E1,6E0,2.1E2,2.5E1,2.4E1,1E0,5E0,1E0,1.49E2,6.1E1,2.2E1,3E0,2E0,3E0,7.9E1,7E1,1.1E1,5E1,1.6E1,6.3E1,2.8E1,4.2E1,8E0,3E0,1.8E1,3.2E1],"tree_param":{"num_deleted":"0","num_feature":"60","num_nodes":"41","size_leaf_vector":"1"}},{"base_weights":[-1.2432659E-2,-2.9362497E-1,6.4089435E-1,-9.0267867E-1,-1.4203303E-1,2.6199025E-1,3.2855783E-2,-4.8633166E-2,6.1685063E-2,-6.0906086E-2,-4.7711078E-2,-2.9811645E-2,2.521998E-2,1.10584415E-1,-3.8879912E-4,-2.9538235E-1,2.5566092E-1,1.7415107E-3,6.552321E-3,-6.215461E-1,-2.4778377E-2,3.7482646E-1,-1.8210457E-1,-3.126111E-1,-9.646711E-1,-6.4517754E-1,3.1996977E-2,1.9688685E-1,4.890776E-1,-6.2155056E-1,6.0968894E-1,-4.44479E-2,-4.1727778E-3,-5.2327264E-2,1.958555E-3,-4.9630698E-2,1.6565084E-3,-1.4466003E-2,2.8696782E-3,2.7513928E-3,1.3090919E-2,6.873784E-3,2.8657967E-2,-4.9771607E-2,2.8100578E-2,3.3479653E-2,4.759005E-3],"categories":[],"categories_nodes":[],"categories_segments":[],"categories_sizes":[],"default_left":[0,0,0,0,0,0,0,0,0,0,0,0,0,0,0,0,0,0,0,0,0,0,0,0,0,0,0,0,0,0,0,0,0,0,0,0,0,0,0,0,0,0,0,0,0,0,0],"id":12,"left_children":[1,3,5,7,9,11,-1,-1,13,15,-1,-1,-1,17,-1,19,21,-1,-1,23,25,27,29,31,33,35,37,39,41,43,45,-1,-1,-1,-1,-1,-1,-1,-1,-1,-1,-1,-1,-1,-1,-1,-1],"loss_changes":[7.9367424E1,2.7754736E1,6.268616E-1,4.109436E0,1.5953242E1,1.7570287E0,0E0,0E0,1.7842907E-2,1.655401E1,0E0,0E0,0E0,8.587539E-5,0E0,1.1282036E1,5.0240808E0,0E0,0E0,5.8466244E0,2.521504E0,1.428442E0,7.685912E0,4.1521506E0,2.2600918E0,1.4468982E0,5.551885E-1,2.7113748E-1,1.2515526E0,6.7546134E0,1.8283772E-1,0E0,0E0,0E0,0E0,0E0,0E0,0E0,0E0,0E0,0E0,0E0,0E0,0E0,0E0,0E0,0E0],"parents":[2147483647,0,0,1,1,2,2,3,3,4,4,5,5,8,8,9,9,13,13,15,15,16,16,19,19,20,20,21,21,22,22,23,23,24,24,25,25,26,26,27,27,28,28,29,29,30,30],"right_children":[2,4,6,8,10,12,-1,-1,14,16,-1,-1,-1,18,-1,20,22,-1,-1,24,26,28,30,32,34,36,38,40,42,44,46,-1,-1,-1,-1,-1,-1,-1,-1,-1,-1,-1,-1,-1,-1,-1,-1],"split_conditions":[8.2205864E1,4.75659E1,8.2047E0,1.302116E2,5.998949E1,8.647646E1,3.2855783E-2,-4.8633166E-2,2.1398132E2,4.2769432E1,-4.7711078E-2,-2.9811645E-2,2.521998E-2,1.8219548E2,-3.8879912E-4,7.39762E1,2.5376497E1,1.7415107E-3,6.552321E-3,1.91E0,8.1E-1,3.745E1,4.4884716E1,8.3E-1,4.4080063E1,2.0785866E1,6.023502E-1,1.85E0,3.01E0,4.766424E-1,1.6352875E1,-4.44479E-2,-4.1727778E-3,-5.2327264E-2,1.958555E-3,-4.9630698E-2,1.6565084E-3,-1.4466003E-2,2.8696782E-3,2.7513928E-3,1.3090919E-2,6.873784E-3,2.8657967E-2,-4.9771607E-2,2.8100578E-2,3.3479653E-2,4.759005E-3],"split_indices":[13,16,49,7,31,13,0,0,7,13,0,0,0,7,0,7,26,0,0,27,27,31,51,37,7,13,53,47,27,12,7,0,0,0,0,0,0,0,0,0,0,0,0,0,0,0,0],"split_type":[0,0,0,0,0,0,0,0,0,0,0,0,0,0,0,0,0,0,0,0,0,0,0,0,0,0,0,0,0,0,0,0,0,0,0,0,0,0,0,0,0,0,0,0,0,0,0],"sum_hessian":[4.3E2,3.01E2,1.29E2,5.9E1,2.42E2,6E0,1.23E2,5.5E1,4E0,2.21E2,2.1E1,1E0,5E0,2E0,2E0,1.27E2,9.4E1,1E0,1E0,5.7E1,7E1,7.4E1,2E1,3.1E1,2.6E1,5E0,6.5E1,3E1,4.4E1,1.3E1,7E0,8E0,2.3E1,2.4E1,2E0,3E0,2E0,4E0,6.1E1,1E1,2E1,9E0,3.5E1,1E1,3E0,6E0,1E0],"tree_param":{"num_deleted":"0","num_feature":"60","num_nodes":"47","size_leaf_vector":"1"}},{"base_weights":[-2.3274892E-3,-3.106904E-1,5.0835204E-1,-7.7559954E-1,-1.5807684E-1,-7.019236E-3,6.0140413E-1,-8.468661E-1,5.4454345E-2,-9.009291E-2,-8.29134E-1,4.4225264E-1,-6.190246E-1,-9.785548E-2,6.1829364E-1,-4.6426658E-2,-6.0926145E-1,-7.724921E-4,9.32689E-2,-1.8215007E-1,3.254996E-1,-4.6403013E-2,2.1315295E-2,2.6122544E-2,9.109479E-2,-4.4554126E-2,2.0174531E-2,-2.8399898E-2,2.4819131E-1,1.443586E-1,6.283523E-1,-4.3425646E-2,-7.7792995E-2,1.9589185E-3,6.3885124E-3,-3.251813E-1,5.190298E-2,-2.5538353E-2,4.7923514E-1,5.928652E-3,2.1650195E-4,1.8908566E-2,-2.9421746E-4,-2.5074957E-2,2.6340544E-2,4.3808282E-3,6.319485E-1,2.603256E-1,-3.0769652E-2,1.5613599E-1,-4.5259452E-1,1.0919561E-2,2.0468083E-1,6.8656966E-2,-2.418729E-2,6.014295E-1,2.2232951E-1,8.166134E-3,3.1719547E-2,1.7967682E-2,3.7261208E-3,-1.2314477E-3,2.4768038E-2,-9.9134585E-3,-3.6924463E-2,-7.394089E-4,4.2495253E-3,1.6542055E-2,3.365167E-3,6.604418E-3,-1.0596049E-3,3.1734597E-2,1.2840795E-2,1.4076563E-2,3.897226E-3],"categories":[],"categories_nodes":[],"categories_segments":[],"categories_sizes":[],"default_left":[0,0,0,0,0,0,0,0,0,0,0,0,0,0,0,0,0,0,0,0,0,0,0,0,0,0,0,0,0,0,0,0,0,0,0,0,0,0,0,0,0,0,0,0,0,0,0,0,0,0,0,0,0,0,0,0,0,0,0,0,0,0,0,0,0,0,0,0,0,0,0,0,0,0,0],"id":13,"left_children":[1,3,5,7,9,11,13,15,17,19,21,23,25,27,29,-1,31,-1,33,35,37,-1,-1,-1,39,-1,-1,-1,41,43,45,-1,47,-1,-1,49,51,53,55,-1,-1,-1,-1,-1,-1,-1,57,59,-1,61,63,65,67,69,-1,71,73,-1,-1,-1,-1,-1,-1,-1,-1,-1,-1,-1,-1,-1,-1,-1,-1,-1,-1],"loss_changes":[6.566739E1,1.8324774E1,7.533375E0,3.8320389E0,8.912659E0,7.1476855E0,1.6312523E0,5.791397E-1,1.7720792E-2,6.945778E0,2.6311646E0,3.748412E-1,3.4195604E0,7.917373E-1,5.290222E-1,0E0,2.412547E0,0E0,2.4589524E-3,4.971458E0,1.7931509E0,0E0,0E0,0E0,9.023145E-3,0E0,0E0,0E0,1.0129957E-1,1.2522342E0,1.9159317E-1,0E0,1.4326106E0,0E0,0E0,5.712675E0,3.546624E-1,5.079835E-1,5.8830976E-1,0E0,0E0,0E0,0E0,0E0,0E0,0E0,4.0607452E-2,6.521869E-2,0E0,1.2385991E0,5.1614304E0,8.884989E-2,1.8571228E-1,5.9791747E-2,0E0,8.941174E-3,5.4986775E-2,0E0,0E0,0E0,0E0,0E0,0E0,0E0,0E0,0E0,0E0,0E0,0E0,0E0,0E0,0E0,0E0,0E0,0E0],"parents":[2147483647,0,0,1,1,2,2,3,3,4,4,5,5,6,6,7,7,8,8,9,9,10,10,11,11,12,12,13,13,14,14,16,16,18,18,19,19,20,20,24,24,28,28,29,29,30,30,32,32,35,35,36,36,37,37,38,38,46,46,47,47,49,49,50,50,51,51,52,52,53,53,55,55,56,56],"right_children":[2,4,6,8,10,12,14,16,18,20,22,24,26,28,30,-1,32,-1,34,36,38,-1,-1,-1,40,-1,-1,-1,42,44,46,-1,48,-1,-1,50,52,54,56,-1,-1,-1,-1,-1,-1,-1,58,60,-1,62,64,66,68,70,-1,72,74,-1,-1,-1,-1,-1,-1,-1,-1,-1,-1,-1,-1,-1,-1,-1,-1,-1,-1],"split_conditions":[2.9552965E1,5.05659E1,8.2047E0,6.4775486E0,5.4037727E1,5.5017727E1,5.2047005E0,1.5E0,2.0470034E-1,9.036118E1,1.0672994E1,2.9242905E-2,1.2147646E2,5.9286034E-1,1.4988233E1,-4.6426658E-2,5.4733267E0,-7.724921E-4,1.8219548E2,5.954579E0,3.1495717E-1,-4.6403013E-2,2.1315295E-2,2.6122544E-2,7.677675E-1,-4.4554126E-2,2.0174531E-2,-2.8399898E-2,7.6995903E-1,5.9286034E-1,6.10235E0,-4.3425646E-2,8.672695E1,1.9589185E-3,6.3885124E-3,1.0917605E1,1.92047E1,4.3270063E0,1.3324295E0,5.928652E-3,2.1650195E-4,1.8908566E-2,-2.9421746E-4,-2.5074957E-2,2.6340544E-2,4.3808282E-3,3.19E0,2.0470034E-1,-3.0769652E-2,3.749E1,1.31E0,1.28E0,-1.0074071E1,3.3168113E0,-2.418729E-2,2.2769432E1,1.9435268E1,8.166134E-3,3.1719547E-2,1.7967682E-2,3.7261208E-3,-1.2314477E-3,2.4768038E-2,-9.9134585E-3,-3.6924463E-2,-7.394089E-4,4.2495253E-3,1.6542055E-2,3.365167E-3,6.604418E-3,-1.0596049E-3,3.1734597E-2,1.2840795E-2,1.4076563E-2,3.897226E-3],"split_indices":[56,16,35,4,31,31,49,27,8,16,7,12,16,4,40,0,4,0,7,4,12,0,0,0,4,0,0,0,4,4,53,0,7,0,0,7,25,7,12,0,0,0,0,0,0,0,47,8,0,31,37,47,46,4,0,32,7,0,0,0,0,0,0,0,0,0,0,0,0,0,0,0,0,0,0],"split_type":[0,0,0,0,0,0,0,0,0,0,0,0,0,0,0,0,0,0,0,0,0,0,0,0,0,0,0,0,0,0,0,0,0,0,0,0,0,0,0,0,0,0,0,0,0,0,0,0,0,0,0,0,0,0,0,0,0,0,0,0,0,0,0,0,0,0,0,0,0,0,0,0,0,0,0],"sum_hessian":[4.15E2,2.59E2,1.56E2,6.3E1,1.96E2,2.4E1,1.32E2,5.8E1,5E0,1.79E2,1.7E1,1.4E1,1E1,3E0,1.29E2,4.1E1,1.7E1,2E0,3E0,1.47E2,3.2E1,1.6E1,1E0,1.1E1,3E0,8E0,2E0,1E0,2E0,3E0,1.26E2,1.1E1,6E0,2E0,1E0,9.1E1,5.6E1,1E1,2.2E1,2E0,1E0,1E0,1E0,1E0,2E0,1E0,1.25E2,4E0,2E0,1.9E1,7.2E1,4.5E1,1.1E1,9E0,1E0,1.4E1,8E0,1E0,1.24E2,2E0,2E0,1.3E1,6E0,3.9E1,3.3E1,3.4E1,1.1E1,5E0,6E0,5E0,4E0,1.2E1,2E0,5E0,3E0],"tree_param":{"num_deleted":"0","num_feature":"60","num_nodes":"75","size_leaf_vector":"1"}},{"base_weights":[-1.8535677E-2,-2.6431912E-1,5.940903E-1,-7.737355E-1,-1.3846081E-1,6.139144E-1,2.3381202E-2,-8.173652E-1,5.2329153E-2,-8.1518196E-2,-4.3234788E-2,3.1262267E-2,1.8378953E-2,-4.3575183E-2,-5.3720933E-1,-1.3278444E-2,6.2287985E-3,-2.6773742E-1,1.7135952E-1,1.7368758E-2,-7.4886376E-1,-8.611828E-4,-1.3470055E-4,-1.11850865E-1,-6.7339E-1,-2.4328487E-1,3.2237375E-1,-4.2473275E-2,3.91379E-3,-6.055222E-1,-2.2363713E-2,-8.8387597E-1,7.9663634E-2,2.4429613E-1,-4.3655958E-2,1.0207011E-1,4.9182856E-1,-4.8141655E-2,4.545812E-3,7.717411E-4,-1.6953325E-2,5.8050873E-3,-4.6186797E-2,-1.0494263E-3,6.6743903E-3,2.1151422E-2,4.737697E-3,1.0287643E-2,-5.0167084E-2,2.8795097E-2,3.6519081E-3],"categories":[],"categories_nodes":[],"categories_segments":[],"categories_sizes":[],"default_left":[0,0,0,0,0,0,0,0,0,0,0,0,0,0,0,0,0,0,0,0,0,0,0,0,0,0,0,0,0,0,0,0,0,0,0,0,0,0,0,0,0,0,0,0,0,0,0,0,0,0,0],"id":14,"left_children":[1,3,5,7,9,11,-1,13,15,17,-1,-1,-1,-1,19,21,-1,23,25,-1,27,-1,-1,29,31,33,35,-1,-1,37,39,41,43,45,-1,47,49,-1,-1,-1,-1,-1,-1,-1,-1,-1,-1,-1,-1,-1,-1],"loss_changes":[6.520471E1,1.9704182E1,2.3796082E-2,2.2412682E0,1.0226587E1,6.0459137E-2,0E0,4.115219E-1,2.0613937E-2,1.0970921E1,0E0,0E0,0E0,0E0,2.5068514E0,7.887272E-5,0E0,8.398275E0,6.2775326E0,0E0,8.9860916E-1,0E0,0E0,4.315828E0,5.9351788E0,8.50487E0,2.6749992E0,0E0,0E0,3.8202133E0,1.010789E0,1.2631607E0,5.155937E-2,3.8756466E-1,0E0,3.988641E0,1.4015112E0,0E0,0E0,0E0,0E0,0E0,0E0,0E0,0E0,0E0,0E0,0E0,0E0,0E0,0E0],"parents":[2147483647,0,0,1,1,2,2,3,3,4,4,5,5,7,7,8,8,9,9,14,14,15,15,17,17,18,18,20,20,23,23,24,24,25,25,26,26,29,29,30,30,31,31,32,32,33,33,35,35,36,36],"right_children":[2,4,6,8,10,12,-1,14,16,18,-1,-1,-1,-1,20,22,-1,24,26,-1,28,-1,-1,30,32,34,36,-1,-1,38,40,42,44,46,-1,48,50,-1,-1,-1,-1,-1,-1,-1,-1,-1,-1,-1,-1,-1,-1],"split_conditions":[8.2205864E1,4.9385883E1,6.8603694E-1,6.9017897E0,5.998949E1,7.21E0,2.3381202E-2,4.4940014E1,1.1368245E1,4.2769432E1,-4.3234788E-2,3.1262267E-2,1.8378953E-2,-4.3575183E-2,1.0603517E1,2.2455551E2,6.2287985E-3,-1.338E1,6.483104E-1,1.7368758E-2,7E0,-8.611828E-4,-1.3470055E-4,8.1E-1,2.4076496E1,4.1176248E-1,5.560235E1,-4.2473275E-2,3.91379E-3,1.2131796E1,1.89E0,-2.6396498E1,2.2E0,2.0470034E-1,-4.3655958E-2,4.24E0,1.2902006E0,-4.8141655E-2,4.545812E-3,7.717411E-4,-1.6953325E-2,5.8050873E-3,-4.6186797E-2,-1.0494263E-3,6.6743903E-3,2.1151422E-2,4.737697E-3,1.0287643E-2,-5.0167084E-2,2.8795097E-2,3.6519081E-3],"split_indices":[13,16,4,4,31,46,0,16,4,13,0,0,0,0,13,7,0,31,4,0,25,0,0,27,31,4,13,0,0,39,47,46,37,7,0,37,4,0,0,0,0,0,0,0,0,0,0,0,0,0,0],"split_type":[0,0,0,0,0,0,0,0,0,0,0,0,0,0,0,0,0,0,0,0,0,0,0,0,0,0,0,0,0,0,0,0,0,0,0,0,0,0,0,0,0,0,0,0,0,0,0,0,0,0,0],"sum_hessian":[4.31E2,3.08E2,1.23E2,6E1,2.48E2,1.03E2,2E1,5.7E1,3E0,2.31E2,1.7E1,9.7E1,6E0,4.6E1,1.1E1,2E0,1E0,1.33E2,9.8E1,2E0,9E0,1E0,1E0,9.7E1,3.6E1,2.6E1,7.2E1,8E0,1E0,1.4E1,8.3E1,2.8E1,8E0,1.5E1,1.1E1,3.2E1,4E1,9E0,5E0,7.5E1,8E0,1E0,2.7E1,3E0,5E0,6E0,9E0,3E1,2E0,3.3E1,7E0],"tree_param":{"num_deleted":"0","num_feature":"60","num_nodes":"51","size_leaf_vector":"1"}},{"base_weights":[-2.7098041E-2,-2.5429288E-1,5.7192475E-1,-5.4994893E-1,-4.4489987E-2,5.925036E-1,2.2073153E-2,-7.3700464E-1,-1.1532494E-1,6.415018E-2,-5.7924664E-1,7.1804286E-3,2.978094E-2,-6.145412E-1,-4.698826E-2,-2.5306826E-2,-3.7019517E-2,-4.0483E-2,4.3155697E-1,-8.146066E-1,3.440743E-1,-8.2088643E-1,-2.794174E-1,-4.5858073E-1,2.7978098E-2,2.1078542E-1,-1.3424863E-1,1.5054503E-1,5.423726E-1,1.7636001E-2,-4.3897096E-2,-2.2221161E-2,2.7478054E-2,-4.2579778E-2,-1.9922133E-1,8.474443E-2,-7.1749455E-1,-3.0484496E-2,-1.3133288E-4,1.4809126E-1,1.2403472E-3,1.2370978E-1,2.3371655E-2,-3.690196E-1,9.828851E-2,3.259921E-2,1.42780095E-2,5.6457683E-3,5.762816E-1,-2.07631E-2,5.8214995E-3,-2.0723024E-2,7.751319E-3,-3.9804574E-2,1.7118723E-3,1.110579E-2,2.777502E-3,-1.7843761E-3,3.5639633E-3,-5.980134E-5,7.67531E-3,-3.1636935E-2,4.352419E-3,2.8462967E-2,3.1572152E-3,3.361974E-3,-1.8000484E-3,5.302012E-3,2.9681226E-2],"categories":[],"categories_nodes":[],"categories_segments":[],"categories_sizes":[],"default_left":[0,0,0,0,0,0,0,0,0,0,0,0,0,0,0,0,0,0,0,0,0,0,0,0,0,0,0,0,0,0,0,0,0,0,0,0,0,0,0,0,0,0,0,0,0,0,0,0,0,0,0,0,0,0,0,0,0,0,0,0,0,0,0,0,0,0,0,0,0],"id":15,"left_children":[1,3,5,7,9,11,-1,13,15,17,19,-1,-1,21,-1,23,-1,25,27,29,31,33,35,37,39,41,43,45,47,-1,-1,-1,-1,-1,49,51,53,-1,-1,55,57,59,-1,61,63,65,-1,-1,67,-1,-1,-1,-1,-1,-1,-1,-1,-1,-1,-1,-1,-1,-1,-1,-1,-1,-1,-1,-1],"loss_changes":[5.8394043E1,1.9266708E1,5.5233E-2,1.0402561E1,1.0668736E1,5.2906036E-2,0E0,1.6572418E0,2.2319512E0,5.899241E0,7.016982E0,0E0,0E0,3.8505516E0,0E0,8.4396106E-1,0E0,2.8555384E0,9.7712564E-1,2.1579914E0,1.3784183E0,5.1761055E-1,3.8895469E0,2.7399397E-1,1.05797656E-1,6.7965007E-1,4.8404517E0,1.6586016E-1,2.844286E-1,0E0,0E0,0E0,0E0,0E0,2.5292948E-1,5.5544364E-1,6.771784E-1,0E0,0E0,2.8763384E-2,7.496264E-2,9.694904E-2,0E0,5.347129E0,7.0889E-1,1.9054985E-2,0E0,0E0,1.1646986E-1,0E0,0E0,0E0,0E0,0E0,0E0,0E0,0E0,0E0,0E0,0E0,0E0,0E0,0E0,0E0,0E0,0E0,0E0,0E0,0E0],"parents":[2147483647,0,0,1,1,2,2,3,3,4,4,5,5,7,7,8,8,9,9,10,10,13,13,15,15,17,17,18,18,19,19,20,20,21,21,22,22,23,23,24,24,25,25,26,26,27,27,28,28,34,34,35,35,36,36,39,39,40,40,41,41,43,43,44,44,45,45,48,48],"right_children":[2,4,6,8,10,12,-1,14,16,18,20,-1,-1,22,-1,24,-1,26,28,30,32,34,36,38,40,42,44,46,48,-1,-1,-1,-1,-1,50,52,54,-1,-1,56,58,60,-1,62,64,66,-1,-1,68,-1,-1,-1,-1,-1,-1,-1,-1,-1,-1,-1,-1,-1,-1,-1,-1,-1,-1,-1,-1],"split_conditions":[8.647646E1,2.6811796E1,6.8603694E-1,6.0353613E0,2.861E1,1.77953E1,2.2073153E-2,3.037641E1,7.879985E1,2.22047E1,6.2047005E0,7.1804286E-3,2.978094E-2,4.54881E0,-4.698826E-2,1E1,-3.7019517E-2,1.0435268E1,3.01E0,1.72047E1,5.2180046E-1,2.8938847E1,1.09E0,6.135361E0,6.210029E0,2.2047002E0,4.4080063E1,4.34E0,2.1E0,1.7636001E-2,-4.3897096E-2,-2.2221161E-2,2.7478054E-2,-4.2579778E-2,5.193703E-1,3.771765E0,2.6327005E1,-3.0484496E-2,-1.3133288E-4,1.0336497E1,4.4588027E0,1.68E0,2.3371655E-2,5.536118E1,-3.256473E1,5.7717632E1,1.42780095E-2,5.6457683E-3,4.69341E1,-2.07631E-2,5.8214995E-3,-2.0723024E-2,7.751319E-3,-3.9804574E-2,1.7118723E-3,1.110579E-2,2.777502E-3,-1.7843761E-3,3.5639633E-3,-5.980134E-5,7.67531E-3,-3.1636935E-2,4.352419E-3,2.8462967E-2,3.1572152E-3,3.361974E-3,-1.8000484E-3,5.302012E-3,2.9681226E-2],"split_indices":[13,13,4,4,26,17,0,5,5,32,7,0,0,4,0,32,0,7,37,17,4,51,46,4,4,5,7,27,46,0,0,0,0,0,4,13,5,0,0,17,25,27,0,13,46,13,0,0,13,0,0,0,0,0,0,0,0,0,0,0,0,0,0,0,0,0,0,0,0],"split_type":[0,0,0,0,0,0,0,0,0,0,0,0,0,0,0,0,0,0,0,0,0,0,0,0,0,0,0,0,0,0,0,0,0,0,0,0,0,0,0,0,0,0,0,0,0,0,0,0,0,0,0,0,0,0,0,0,0,0,0,0,0,0,0,0,0,0,0,0,0],"sum_hessian":[4.27E2,3.1E2,1.17E2,1.28E2,1.82E2,9.8E1,1.9E1,8.9E1,3.9E1,1.52E2,3E1,1E0,9.7E1,5.8E1,3.1E1,3.5E1,4E0,1.19E2,3.3E1,2.4E1,6E0,3.5E1,2.3E1,3E0,3.2E1,3.2E1,8.7E1,1E1,2.3E1,1E0,2.3E1,1E0,5E0,3.3E1,2E0,1.3E1,1E1,2E0,1E0,5E0,2.7E1,2.5E1,7E0,4.3E1,4.4E1,6E0,4E0,2E0,2.1E1,1E0,1E0,1E0,1.2E1,9E0,1E0,2E0,3E0,1.8E1,9E0,5E0,2E1,2.7E1,1.6E1,2E0,4.2E1,4E0,2E0,1E0,2E1],"tree_param":{"num_deleted":"0","num_feature":"60","num_nodes":"69","size_leaf_vector":"1"}},{"base_weights":[3.909968E-3,-2.5440347E-1,4.945059E-1,-4.7853854E-1,-2.8476866E-2,-7.103691E-2,5.44561E-1,-6.915179E-1,-3.3335168E-2,9.724624E-2,-6.8318534E-1,-3.894703E-2,2.3438524E-2,4.0117204E-3,5.473852E-1,-7.819284E-1,-4.4402346E-1,5.991553E-3,-3.0606214E-2,5.349956E-4,3.8736212E-1,2.245491E-2,-4.0620375E-2,7.000917E-3,2.7468279E-2,-4.0153902E-2,-3.5059786E-1,-7.326123E-1,-1.8179356E-1,-2.77157E-1,2.5606764E-2,-2.0457911E-1,1.15250774E-1,4.417512E-1,2.7066445E-2,-2.971941E-2,1.0058403E-2,-4.569673E-2,8.822018E-3,5.0836746E-2,-3.518738E-2,-2.040299E-2,-3.8378537E-4,-2.6339069E-2,8.666143E-2,-5.847436E-1,7.176499E-2,-2.2008887E-1,2.1480522E-1,4.9929854E-1,1.00192666E-1,5.916019E-2,-7.024726E-4,-2.1699369E-4,9.713739E-4,-1.9635012E-2,6.3429154E-3,2.6733472E-3,-2.0142987E-3,1.7038456E-3,8.9725135E-3,2.1446312E-3,-4.2004373E-2,4.2070895E-3,-1.3208747E-3,4.817159E-3,-4.044676E-2,3.4166416E-4,1.527897E-2,1.2235221E-2,2.7989239E-2,6.106842E-3,3.1040012E-4,3.6457272E-3,7.9128746E-4],"categories":[],"categories_nodes":[],"categories_segments":[],"categories_sizes":[],"default_left":[0,0,0,0,0,0,0,0,0,0,0,0,0,0,0,0,0,0,0,0,0,0,0,0,0,0,0,0,0,0,0,0,0,0,0,0,0,0,0,0,0,0,0,0,0,0,0,0,0,0,0,0,0,0,0,0,0,0,0,0,0,0,0,0,0,0,0,0,0,0,0,0,0,0,0],"id":16,"left_children":[1,3,5,7,9,11,13,15,17,19,21,-1,-1,-1,23,25,27,29,-1,31,33,-1,-1,-1,-1,-1,35,37,39,41,43,45,47,49,51,-1,53,-1,-1,55,-1,-1,-1,57,59,61,63,65,67,69,71,73,-1,-1,-1,-1,-1,-1,-1,-1,-1,-1,-1,-1,-1,-1,-1,-1,-1,-1,-1,-1,-1,-1,-1],"loss_changes":[5.4745373E1,1.4316946E1,4.2566185E0,1.3441261E1,1.1754739E1,5.332855E0,1.3573837E-1,1.800911E0,1.0734758E0,3.3666887E0,3.7301207E0,0E0,0E0,0E0,3.2791138E-2,3.4789276E-1,1.9857616E0,2.5702795E-1,0E0,2.164792E0,5.759287E-1,0E0,0E0,0E0,0E0,0E0,4.4560105E-1,2.3040648E0,1.9785335E0,1.0269542E-1,1.386586E-1,3.5088196E0,2.016965E0,4.6102428E-1,7.428984E-3,0E0,4.8900844E-4,0E0,0E0,4.5443776E-1,0E0,0E0,0E0,2.8867092E-2,9.147E-2,2.2797155E0,2.652654E-2,2.686553E0,8.6632204E-1,2.0180559E-1,9.55385E-3,6.341841E-4,0E0,0E0,0E0,0E0,0E0,0E0,0E0,0E0,0E0,0E0,0E0,0E0,0E0,0E0,0E0,0E0,0E0,0E0,0E0,0E0,0E0,0E0,0E0],"parents":[2147483647,0,0,1,1,2,2,3,3,4,4,5,5,6,6,7,7,8,8,9,9,10,10,14,14,15,15,16,16,17,17,19,19,20,20,26,26,27,27,28,28,29,29,30,30,31,31,32,32,33,33,34,34,36,36,39,39,43,43,44,44,45,45,46,46,47,47,48,48,49,49,50,50,51,51],"right_children":[2,4,6,8,10,12,14,16,18,20,22,-1,-1,-1,24,26,28,30,-1,32,34,-1,-1,-1,-1,-1,36,38,40,42,44,46,48,50,52,-1,54,-1,-1,56,-1,-1,-1,58,60,62,64,66,68,70,72,74,-1,-1,-1,-1,-1,-1,-1,-1,-1,-1,-1,-1,-1,-1,-1,-1,-1,-1,-1,-1,-1,-1,-1],"split_conditions":[7.838588E1,3.3230568E1,8.2047E0,6.0353613E0,5.384E1,3.147475E-1,8.19601E-2,4.5411973E0,9.070571E1,2.12047E1,3.43E0,-3.894703E-2,2.3438524E-2,4.0117204E-3,3.19E0,1.0384716E1,9.1E-1,1E1,-3.0606214E-2,1.0615284E1,1.5917606E1,2.245491E-2,-4.0620375E-2,7.000917E-3,2.7468279E-2,-4.0153902E-2,2.4062684E0,1.0901229E1,1.53E0,6.135361E0,1.7762274E1,4.053404E1,7.190539E-1,2.0953681E0,7.677675E-1,-2.971941E-2,3.599051E1,-4.569673E-2,8.822018E-3,8.167082E0,-3.518738E-2,-2.040299E-2,-3.8378537E-4,6.139849E0,1.21E0,1.2519192E0,4.087178E1,8.19601E-2,5.2047005E0,7.16E0,2.0470034E-1,6.587425E-1,-7.024726E-4,-2.1699369E-4,9.713739E-4,-1.9635012E-2,6.3429154E-3,2.6733472E-3,-2.0142987E-3,1.7038456E-3,8.9725135E-3,2.1446312E-3,-4.2004373E-2,4.2070895E-3,-1.3208747E-3,4.817159E-3,-4.044676E-2,3.4166416E-4,1.527897E-2,1.2235221E-2,2.7989239E-2,6.106842E-3,3.1040012E-4,3.6457272E-3,7.9128746E-4],"split_indices":[13,13,35,4,31,4,4,35,5,39,47,0,0,0,47,33,37,32,0,33,7,0,0,0,0,0,4,58,27,4,8,7,4,4,4,0,5,0,0,13,0,0,0,4,27,4,13,4,49,18,5,4,0,0,0,0,0,0,0,0,0,0,0,0,0,0,0,0,0,0,0,0,0,0,0],"split_type":[0,0,0,0,0,0,0,0,0,0,0,0,0,0,0,0,0,0,0,0,0,0,0,0,0,0,0,0,0,0,0,0,0,0,0,0,0,0,0,0,0,0,0,0,0,0,0,0,0,0,0,0,0,0,0,0,0,0,0,0,0,0,0,0,0,0,0,0,0,0,0,0,0,0,0],"sum_hessian":[4.3E2,2.82E2,1.48E2,1.41E2,1.41E2,1.2E1,1.36E2,9.5E1,4.6E1,1.19E2,2.2E1,5E0,7E0,1E0,1.35E2,6.8E1,2.7E1,4.4E1,2E0,9E1,2.9E1,2E0,2E1,1E0,1.34E2,6.4E1,4E0,1.2E1,1.5E1,2E0,4.2E1,3.2E1,5.8E1,2.5E1,4E0,2E0,2E0,1E1,2E0,1.1E1,4E0,1E0,1E0,2.3E1,1.9E1,1.3E1,1.9E1,1.3E1,4.5E1,2.1E1,4E0,2E0,2E0,1E0,1E0,1E0,1E1,3E0,2E1,1.3E1,6E0,4E0,9E0,1.7E1,2E0,9E0,4E0,1.4E1,3.1E1,5E0,1.6E1,3E0,1E0,1E0,1E0],"tree_param":{"num_deleted":"0","num_feature":"60","num_nodes":"75","size_leaf_vector":"1"}},{"base_weights":[-1.2681254E-2,-2.2271894E-1,5.034167E-1,-6.4320445E-1,-1.051037E-1,-2.449609E-2,5.1518863E-1,-6.967085E-1,2.5788823E-2,-5.7733458E-2,-3.8974103E-2,5.900832E-1,4.7989857E-1,-3.803944E-2,-4.7856268E-1,-1.5130734E-2,5.7596653E-3,-1.9400688E-1,2.3216735E-1,8.42523E-3,2.9865695E-2,1.8494667E-2,5.056762E-1,-3.5304688E-2,-5.2647863E-2,-8.8644325E-4,-1.1845529E-4,-3.3332437E-1,3.0711237E-2,-1.1550802E-1,3.814821E-1,6.825894E-3,2.5449982E-2,-2.7161261E-2,2.5222814E-1,-4.7934332E-1,-6.0966734E-2,-1.0706808E-2,9.0781495E-2,3.156295E-1,-3.5377488E-2,6.450108E-2,4.7496387E-1,1.7100187E-2,3.9188247E-3,-1.3158569E-2,-3.8842533E-2,4.838961E-3,-3.0272836E-2,-1.3987633E-3,1.9357776E-3,1.6700873E-3,7.50797E-3,1.4381662E-3,1.9562546E-2,7.99219E-3,-7.534303E-4,9.646556E-3,2.7531037E-2],"categories":[],"categories_nodes":[],"categories_segments":[],"categories_sizes":[],"default_left":[0,0,0,0,0,0,0,0,0,0,0,0,0,0,0,0,0,0,0,0,0,0,0,0,0,0,0,0,0,0,0,0,0,0,0,0,0,0,0,0,0,0,0,0,0,0,0,0,0,0,0,0,0,0,0,0,0,0,0],"id":17,"left_children":[1,3,5,7,9,-1,11,13,15,17,-1,19,21,-1,23,25,-1,27,29,-1,-1,-1,31,-1,33,-1,-1,35,37,39,41,-1,-1,-1,43,45,47,49,51,53,-1,55,57,-1,-1,-1,-1,-1,-1,-1,-1,-1,-1,-1,-1,-1,-1,-1,-1],"loss_changes":[4.759133E1,1.53625145E1,1.7374725E0,2.4519482E0,7.7816377E0,0E0,4.9842834E-2,5.165806E-1,2.3693312E-2,9.13137E0,0E0,9.088516E-3,7.100296E-2,0E0,1.6102757E0,1.2378034E-4,0E0,4.9254622E0,3.8856306E0,0E0,0E0,0E0,1.761818E-2,0E0,1.1839736E0,0E0,0E0,3.8284054E0,1.5273954E-1,6.0941057E0,1.5102248E0,0E0,0E0,0E0,5.1233143E-2,3.8472557E0,3.0647836E0,3.2660652E-2,8.0161676E-2,2.9245162E-1,0E0,1.0103168E-1,7.4727726E-1,0E0,0E0,0E0,0E0,0E0,0E0,0E0,0E0,0E0,0E0,0E0,0E0,0E0,0E0,0E0,0E0],"parents":[2147483647,0,0,1,1,2,2,3,3,4,4,6,6,7,7,8,8,9,9,11,11,12,12,14,14,15,15,17,17,18,18,22,22,24,24,27,27,28,28,29,29,30,30,34,34,35,35,36,36,37,37,38,38,39,39,41,41,42,42],"right_children":[2,4,6,8,10,-1,12,14,16,18,-1,20,22,-1,24,26,-1,28,30,-1,-1,-1,32,-1,34,-1,-1,36,38,40,42,-1,-1,-1,44,46,48,50,52,54,-1,56,58,-1,-1,-1,-1,-1,-1,-1,-1,-1,-1,-1,-1,-1,-1,-1,-1],"split_conditions":[5.0372948E1,5.05659E1,5.2047005E0,6.4775486E0,5.31E0,-2.449609E-2,6.494769E1,1.5E0,1.1368245E1,1.2385882E1,-3.8974103E-2,6.666667E-2,7.708473E1,-3.803944E-2,4.4641212E1,3.1825204E2,5.7596653E-3,5.954579E0,6.483104E-1,8.42523E-3,2.9865695E-2,1.8494667E-2,1.77953E1,-3.5304688E-2,4.2548175E0,-8.8644325E-4,-1.1845529E-4,1.17047E1,2.5639969E1,2.707E1,2.66E0,6.825894E-3,2.5449982E-2,-2.7161261E-2,1.0336497E1,1.7E0,3.63E0,1.33E0,1.26E0,7.213997E1,-3.5377488E-2,1.8841516E0,3.209E1,1.7100187E-2,3.9188247E-3,-1.3158569E-2,-3.8842533E-2,4.838961E-3,-3.0272836E-2,-1.3987633E-3,1.9357776E-3,1.6700873E-3,7.50797E-3,1.4381662E-3,1.9562546E-2,7.99219E-3,-7.534303E-4,9.646556E-3,2.7531037E-2],"split_indices":[51,16,49,4,38,0,31,27,4,54,0,4,31,0,16,7,0,4,4,0,0,0,17,0,4,0,0,40,8,26,37,0,0,0,5,27,38,37,38,13,0,4,31,0,0,0,0,0,0,0,0,0,0,0,0,0,0,0,0],"split_type":[0,0,0,0,0,0,0,0,0,0,0,0,0,0,0,0,0,0,0,0,0,0,0,0,0,0,0,0,0,0,0,0,0,0,0,0,0,0,0,0,0,0,0,0,0,0,0,0,0,0,0,0,0,0,0,0,0,0,0],"sum_hessian":[4.37E2,3.11E2,1.26E2,6.7E1,2.44E2,1E0,1.25E2,6.2E1,5E0,2.29E2,1.5E1,3.5E1,9E1,4.6E1,1.6E1,4E0,1E0,1.56E2,7.3E1,1E0,3.4E1,2E1,7E1,1E1,6E0,3E0,1E0,9.6E1,6E1,2.2E1,5.1E1,1E0,6.9E1,2E0,4E0,6.2E1,3.4E1,3.6E1,2.4E1,1.3E1,9E0,1.2E1,3.9E1,2E0,2E0,3.7E1,2.5E1,2.7E1,7E0,2.7E1,9E0,1.3E1,1.1E1,3E0,1E1,5E0,7E0,9E0,3E1],"tree_param":{"num_deleted":"0","num_feature":"60","num_nodes":"59","size_leaf_vector":"1"}},{"base_weights":[-7.4481303E-3,-2.9963174E-1,3.3803692E-1,-4.1721877E-1,2.7198805E-2,1.1059044E-1,4.7663358E-1,-6.2670434E-1,-1.5189378E-1,-2.1204336E-2,4.1788343E-2,-3.5246715E-1,4.1683793E-1,4.9465376E-1,1.8449225E-2,-7.52601E-1,-4.4867426E-1,-5.590408E-2,-3.8511824E-2,2.0492002E-2,2.8603736E-2,2.2447038E-1,-3.7478138E-2,5.155696E-1,6.479735E-2,2.7234456E-2,4.4094965E-1,-7.7183306E-1,-4.1360727E-1,-6.705823E-1,-1.2787053E-1,-3.2852328E-1,1.2951148E-1,9.548126E-3,1.4888974E-1,3.0505082E-1,-1.8562378E-2,5.5969834E-1,3.3647418E-2,7.5822496E-3,-3.284985E-2,9.209291E-3,2.2370366E-2,-6.93397E-1,-4.8987903E-2,-2.80599E-2,4.4188886E-3,-3.754894E-2,-8.085492E-2,6.430539E-2,-3.201945E-2,1.1946145E-1,-4.1007888E-2,2.6736924E-1,-7.2729595E-2,-1.2559187E-2,9.308985E-2,9.849056E-3,3.07707E-3,1.8144917E-2,4.931563E-3,1.07319E-2,2.8777389E-2,-8.4120035E-4,2.8039615E-3,6.700456E-4,-2.2390091E-3,-3.5679027E-2,1.8394679E-3,-2.0491144E-2,8.270434E-3,6.9664307E-3,-2.2774916E-2,8.709795E-3,3.1808359E-3,6.743596E-3,2.5775248E-2,1.0276421E-2,-3.908273E-2,-1.4632229E-3,1.1470838E-3,1.8379343E-3,6.0013924E-3,1.4573068E-3,-1.2265266E-3],"categories":[],"categories_nodes":[],"categories_segments":[],"categories_sizes":[],"default_left":[0,0,0,0,0,0,0,0,0,0,0,0,0,0,0,0,0,0,0,0,0,0,0,0,0,0,0,0,0,0,0,0,0,0,0,0,0,0,0,0,0,0,0,0,0,0,0,0,0,0,0,0,0,0,0,0,0,0,0,0,0,0,0,0,0,0,0,0,0,0,0,0,0,0,0,0,0,0,0,0,0,0,0,0,0],"id":18,"left_children":[1,3,5,7,9,11,13,15,17,-1,19,21,23,25,-1,27,29,31,-1,-1,33,35,-1,37,39,-1,41,43,45,47,49,51,53,55,57,59,-1,61,63,-1,65,-1,-1,67,-1,-1,-1,-1,69,71,-1,73,-1,75,77,79,81,-1,83,-1,-1,-1,-1,-1,-1,-1,-1,-1,-1,-1,-1,-1,-1,-1,-1,-1,-1,-1,-1,-1,-1,-1,-1,-1,-1],"loss_changes":[4.2296326E1,8.735193E0,5.9997654E0,9.18696E0,4.1934878E-1,1.064088E1,4.8322678E-2,1.746769E0,4.4085293E0,0E0,2.7943406E-1,7.041235E0,1.5306821E0,2.5842667E-2,0E0,2.6298523E-2,2.8329973E0,3.3787048E0,0E0,0E0,1.3381365E-1,7.372913E-1,0E0,7.2549915E-1,9.826623E-2,0E0,5.472183E-3,1.1977196E-1,4.2003906E-1,1.0771685E0,1.8140672E0,6.0445843E0,1.1346658E0,9.720705E-2,5.549252E-2,1.07497096E-1,0E0,5.1473618E-2,5.4721385E-3,0E0,3.9108177E-3,0E0,0E0,6.010246E-1,0E0,0E0,0E0,0E0,3.918396E-1,6.0942686E-1,0E0,3.4767687E-2,0E0,7.1952844E-1,3.514141E0,2.557954E-2,1.2279876E-2,0E0,2.8740831E-3,0E0,0E0,0E0,0E0,0E0,0E0,0E0,0E0,0E0,0E0,0E0,0E0,0E0,0E0,0E0,0E0,0E0,0E0,0E0,0E0,0E0,0E0,0E0,0E0,0E0,0E0],"parents":[2147483647,0,0,1,1,2,2,3,3,4,4,5,5,6,6,7,7,8,8,10,10,11,11,12,12,13,13,15,15,16,16,17,17,20,20,21,21,23,23,24,24,26,26,27,27,28,28,29,29,30,30,31,31,32,32,33,33,34,34,35,35,37,37,38,38,40,40,43,43,48,48,49,49,51,51,53,53,54,54,55,55,56,56,58,58],"right_children":[2,4,6,8,10,12,14,16,18,-1,20,22,24,26,-1,28,30,32,-1,-1,34,36,-1,38,40,-1,42,44,46,48,50,52,54,56,58,60,-1,62,64,-1,66,-1,-1,68,-1,-1,-1,-1,70,72,-1,74,-1,76,78,80,82,-1,84,-1,-1,-1,-1,-1,-1,-1,-1,-1,-1,-1,-1,-1,-1,-1,-1,-1,-1,-1,-1,-1,-1,-1,-1,-1,-1],"split_conditions":[5.75E1,6.2182693E0,8.4259995E1,3.065648E1,4.296466E0,6.483104E-1,6.8603694E-1,2.3446856E0,4.5457695E1,-2.1204336E-2,-3.256473E1,2.4352682E0,1.3647007E0,1.734E1,1.8449225E-2,1.32047E1,5.1094832E0,3.8155315E1,-3.8511824E-2,2.0492002E-2,2.3557573E1,1.112E1,-3.7478138E-2,2.3098772E1,3.3168113E0,2.7234456E-2,3.97E0,5.167885E1,5E0,9.60235E0,5.162332E1,1.7E0,1.25E1,1.42E0,2.5583315E2,2.0470034E-1,-1.8562378E-2,5.7717632E1,1.8230568E1,7.5822496E-3,5.7717632E1,9.209291E-3,2.2370366E-2,5.0245914E1,-4.8987903E-2,-2.80599E-2,4.4188886E-3,-3.754894E-2,2.0953681E0,2.3663504E1,-3.201945E-2,5.5411973E0,-4.1007888E-2,3.51E0,2.207E1,1.1357392E2,4.4588027E0,9.849056E-3,9.242271E0,1.8144917E-2,4.931563E-3,1.07319E-2,2.8777389E-2,-8.4120035E-4,2.8039615E-3,6.700456E-4,-2.2390091E-3,-3.5679027E-2,1.8394679E-3,-2.0491144E-2,8.270434E-3,6.9664307E-3,-2.2774916E-2,8.709795E-3,3.1808359E-3,6.743596E-3,2.5775248E-2,1.0276421E-2,-3.908273E-2,-1.4632229E-3,1.1470838E-3,1.8379343E-3,6.0013924E-3,1.4573068E-3,-1.2265266E-3],"split_indices":[13,4,13,13,13,4,4,53,31,0,46,7,4,18,0,39,4,13,0,0,25,18,0,7,4,0,47,16,5,54,5,38,33,47,5,5,0,13,17,0,13,0,0,16,0,0,0,0,4,8,0,49,0,46,26,7,8,0,4,0,0,0,0,0,0,0,0,0,0,0,0,0,0,0,0,0,0,0,0,0,0,0,0,0,0],"split_type":[0,0,0,0,0,0,0,0,0,0,0,0,0,0,0,0,0,0,0,0,0,0,0,0,0,0,0,0,0,0,0,0,0,0,0,0,0,0,0,0,0,0,0,0,0,0,0,0,0,0,0,0,0,0,0,0,0,0,0,0,0,0,0,0,0,0,0,0,0,0,0,0,0,0,0,0,0,0,0,0,0,0,0,0,0],"sum_hessian":[4.17E2,2.26E2,1.91E2,1.66E2,6E1,7.3E1,1.18E2,9.2E1,7.4E1,1E0,5.9E1,2.9E1,4.4E1,9.8E1,2E1,5.2E1,4E1,6.5E1,9E0,1E0,5.8E1,1.2E1,1.7E1,3.4E1,1E1,4.6E1,5.2E1,4.8E1,4E0,2.3E1,1.7E1,2.6E1,3.9E1,5.1E1,7E0,1.1E1,1E0,3.1E1,3E0,5E0,5E0,2E0,5E1,3.8E1,1E1,3E0,1E0,2E1,3E0,1.3E1,4E0,1.4E1,1.2E1,2.3E1,1.6E1,4.1E1,1E1,5E0,2E0,8E0,3E0,2E0,2.9E1,1E0,2E0,1E0,4E0,3.7E1,1E0,1E0,2E0,1.2E1,1E0,6E0,8E0,1.6E1,7E0,1.2E1,4E0,2.8E1,1.3E1,4E0,6E0,1E0,1E0],"tree_param":{"num_deleted":"0","num_feature":"60","num_nodes":"85","size_leaf_vector":"1"}},{"base_weights":[-2.6194851E-3,-1.9034451E-1,4.5679393E-1,-6.281728E-1,-8.5490465E-2,4.6503112E-1,1.5039316E-2,-3.457105E-2,3.52152E-2,-4.552488E-2,-6.9259673E-1,5.4204077E-1,2.1762181E-2,-1.2760788E-2,8.744478E-2,-1.2359738E-1,3.0688533E-1,-3.8186386E-2,7.580936E-3,7.6289177E-3,2.7540712E-2,-7.5460674E-4,-1.4416873E-4,5.369446E-3,1.188913E-3,-8.849566E-2,-3.4178104E-2,5.0040677E-2,3.855855E-1,-7.343294E-1,-5.794237E-2,-1.7731441E-2,1.2597051E-1,-1.270274E-1,4.4299468E-1,-4.196591E-2,1.4793873E-5,-1.2519608E-2,1.4937351E-3,-1.0547083E-3,8.268672E-3,3.292523E-3,-1.7641526E-2,2.4136448E-2,-1.6739126E-2],"categories":[],"categories_nodes":[],"categories_segments":[],"categories_sizes":[],"default_left":[0,0,0,0,0,0,0,0,0,0,0,0,0,0,0,0,0,0,0,0,0,0,0,0,0,0,0,0,0,0,0,0,0,0,0,0,0,0,0,0,0,0,0,0,0],"id":19,"left_children":[1,3,5,7,9,11,-1,-1,13,15,17,19,-1,21,23,25,27,-1,-1,-1,-1,-1,-1,-1,-1,29,-1,31,33,35,37,-1,39,41,43,-1,-1,-1,-1,-1,-1,-1,-1,-1,-1],"loss_changes":[3.6567905E1,1.3764625E1,1.818657E-2,2.45792E0,5.888728E0,2.7879715E-2,0E0,0E0,1.6150458E-2,6.3660464E0,1.0165448E0,1.1631966E-2,0E0,4.8594433E-5,1.2557991E-3,3.6544404E0,8.2968116E-1,0E0,0E0,0E0,0E0,0E0,0E0,0E0,0E0,3.4895406E0,0E0,3.8266408E-1,9.979906E-1,6.1726713E-1,2.9143453E0,0E0,6.143622E-2,1.9744372E-1,1.057837E0,0E0,0E0,0E0,0E0,0E0,0E0,0E0,0E0,0E0,0E0],"parents":[2147483647,0,0,1,1,2,2,3,3,4,4,5,5,8,8,9,9,10,10,11,11,13,13,14,14,15,15,16,16,25,25,27,27,28,28,29,29,30,30,32,32,33,33,34,34],"right_children":[2,4,6,8,10,12,-1,-1,14,16,18,20,-1,22,24,26,28,-1,-1,-1,-1,-1,-1,-1,-1,30,-1,32,34,36,38,-1,40,42,44,-1,-1,-1,-1,-1,-1,-1,-1,-1,-1],"split_conditions":[1.2147646E2,4.75659E1,9.0980047E-1,6.9017897E0,5.39E0,1.5041197E1,1.5039316E-2,-3.457105E-2,1.1368245E1,2.12047E1,7.2925645E-1,1.2188471E2,2.1762181E-2,3.961295E1,1.2911694E1,2.6139463E1,3.39E0,-3.8186386E-2,7.580936E-3,7.6289177E-3,2.7540712E-2,-7.5460674E-4,-1.4416873E-4,5.369446E-3,1.188913E-3,9.663504E0,-3.4178104E-2,5.2180046E-1,6.6141176E0,5.954579E0,3.5670645E0,-1.7731441E-2,2.55E0,6.73E0,1.66E1,-4.196591E-2,1.4793873E-5,-1.2519608E-2,1.4937351E-3,-1.0547083E-3,8.268672E-3,3.292523E-3,-1.7641526E-2,2.4136448E-2,-1.6739126E-2],"split_indices":[16,16,4,4,38,18,0,0,4,39,4,16,0,16,4,26,37,0,0,0,0,0,0,0,0,39,0,4,53,4,55,0,47,18,18,0,0,0,0,0,0,0,0,0,0],"split_type":[0,0,0,0,0,0,0,0,0,0,0,0,0,0,0,0,0,0,0,0,0,0,0,0,0,0,0,0,0,0,0,0,0,0,0,0,0,0,0,0,0,0,0,0,0],"sum_hessian":[4.22E2,3E2,1.22E2,5.7E1,2.43E2,1.14E2,8E0,5.2E1,5E0,2.29E2,1.4E1,2.7E1,8.7E1,3E0,2E0,1.88E2,4.1E1,1.3E1,1E0,1E0,2.6E1,2E0,1E0,1E0,1E0,1.78E2,1E1,1E1,3.1E1,7E0,1.71E2,1E0,9E0,3E0,2.8E1,6E0,1E0,5.3E1,1.18E2,2E0,7E0,2E0,1E0,2.7E1,1E0],"tree_param":{"num_deleted":"0","num_feature":"60","num_nodes":"45","size_leaf_vector":"1"}},{"base_weights":[-4.2646443E-3,-3.258357E-1,2.511185E-1,-5.007394E-1,1.1942458E-4,2.942181E-2,4.0880597E-1,-6.05139E-1,-2.6898175E-1,-2.850216E-2,3.575272E-2,-3.3662134E-1,2.6896778E-1,-8.000966E-2,4.3533415E-1,-6.2220275E-1,6.2982E-2,-3.670308E-2,-8.9486405E-2,-2.0582214E-2,4.9388297E-2,1.0747765E-1,-6.3716555E-1,1.1093445E-1,4.0871876E-1,1.560675E-1,-2.6274705E-2,-1.1755482E-1,4.535303E-1,-1.5343009E-1,-6.506499E-1,-1.1686295E-3,5.89228E-3,7.861931E-2,-5.6160456E-1,1.9942362E-2,3.7318844E-2,1.6275074E-1,-1.9422295E-2,-3.435648E-2,1.28001515E-2,1.5653245E-1,-3.51625E-1,1.4186397E-1,5.069722E-1,3.24066E-2,1.34463115E-2,-1.7200487E-2,2.506134E-2,4.5920062E-1,3.21001E-3,1.1109501E-1,-2.2749344E-2,-7.4744785E-1,-5.691677E-1,1.1403852E-1,-1.7515082E-2,-3.397656E-2,6.597042E-3,1.3106208E-1,1.4529871E-2,6.106385E-2,1.423838E-2,2.6251552E-1,4.7179412E-2,2.9794723E-3,-2.9351348E-2,1.9368896E-1,-2.1812E-3,1.02409E-2,2.6299778E-2,3.6550523E-3,-5.5252314E-3,3.4825385E-3,-1.3018727E-2,5.170785E-1,4.1822165E-1,6.5877475E-3,1.2278795E-3,-3.0501056E-2,-4.5068882E-2,8.878879E-3,-3.2225717E-2,7.0061334E-3,2.5437959E-3,1.9471757E-3,1.26119675E-2,-7.322076E-4,3.9631655E-3,-6.5828685E-4,5.6372266E-3,2.0123092E-2,3.2537335E-3,4.5715305E-3,-2.9804553E-3,4.2709988E-3,1.0777098E-2,4.40228E-4,-8.5462036E-4,2.5680065E-4,-1.2332052E-3,7.157564E-3,2.6099432E-2,1.4403366E-2,2.1974673E-2],"categories":[],"categories_nodes":[],"categories_segments":[],"categories_sizes":[],"default_left":[0,0,0,0,0,0,0,0,0,0,0,0,0,0,0,0,0,0,0,0,0,0,0,0,0,0,0,0,0,0,0,0,0,0,0,0,0,0,0,0,0,0,0,0,0,0,0,0,0,0,0,0,0,0,0,0,0,0,0,0,0,0,0,0,0,0,0,0,0,0,0,0,0,0,0,0,0,0,0,0,0,0,0,0,0,0,0,0,0,0,0,0,0,0,0,0,0,0,0,0,0,0,0,0,0],"id":20,"left_children":[1,3,5,7,9,11,13,15,17,-1,19,21,23,25,27,29,31,-1,33,-1,35,37,39,41,43,45,-1,47,49,51,53,-1,-1,55,57,-1,59,61,-1,-1,-1,63,65,67,69,71,-1,-1,73,75,-1,77,-1,79,81,83,-1,-1,-1,85,87,89,-1,91,93,-1,-1,95,-1,-1,-1,-1,97,-1,99,101,103,-1,-1,-1,-1,-1,-1,-1,-1,-1,-1,-1,-1,-1,-1,-1,-1,-1,-1,-1,-1,-1,-1,-1,-1,-1,-1,-1,-1],"loss_changes":[3.5066578E1,1.0775095E1,8.308165E0,2.8132648E0,1.3816044E0,8.858956E0,1.8372955E0,9.9684143E-1,3.2734976E0,0E0,4.1076344E-1,5.4073367E0,1.3018632E0,9.233623E-1,1.3812981E0,9.9366E-1,1.6967528E-2,0E0,2.4251254E0,0E0,2.5083554E-1,5.292107E-1,1.2469368E0,6.877943E-1,7.6709986E-1,7.5022295E-2,0E0,1.7010197E-1,2.5309372E-1,5.2916276E-1,1.8189621E-1,0E0,0E0,3.8936472E-1,7.439575E-1,0E0,1.3054699E-1,1.8113124E-1,0E0,0E0,0E0,3.1212264E-1,3.253827E-1,1.0457863E-1,2.447033E-2,6.5783593E-3,0E0,0E0,7.6986384E-3,8.259201E-2,0E0,3.9158463E-3,0E0,1.2707138E-1,2.702631E0,2.9117078E-2,0E0,0E0,0E0,1.2412904E-1,9.747602E-2,3.9846715E-2,0E0,3.6064553E-1,7.63329E-2,0E0,0E0,5.1644444E-4,0E0,0E0,0E0,0E0,6.4775674E-4,0E0,7.6093146E-4,1.34038925E-2,9.2116356E-2,0E0,0E0,0E0,0E0,0E0,0E0,0E0,0E0,0E0,0E0,0E0,0E0,0E0,0E0,0E0,0E0,0E0,0E0,0E0,0E0,0E0,0E0,0E0,0E0,0E0,0E0,0E0,0E0],"parents":[2147483647,0,0,1,1,2,2,3,3,4,4,5,5,6,6,7,7,8,8,10,10,11,11,12,12,13,13,14,14,15,15,16,16,18,18,20,20,21,21,22,22,23,23,24,24,25,25,27,27,28,28,29,29,30,30,33,33,34,34,36,36,37,37,41,41,42,42,43,43,44,44,45,45,48,48,49,49,51,51,53,53,54,54,55,55,59,59,60,60,61,61,63,63,64,64,67,67,72,72,74,74,75,75,76,76],"right_children":[2,4,6,8,10,12,14,16,18,-1,20,22,24,26,28,30,32,-1,34,-1,36,38,40,42,44,46,-1,48,50,52,54,-1,-1,56,58,-1,60,62,-1,-1,-1,64,66,68,70,72,-1,-1,74,76,-1,78,-1,80,82,84,-1,-1,-1,86,88,90,-1,92,94,-1,-1,96,-1,-1,-1,-1,98,-1,100,102,104,-1,-1,-1,-1,-1,-1,-1,-1,-1,-1,-1,-1,-1,-1,-1,-1,-1,-1,-1,-1,-1,-1,-1,-1,-1,-1,-1,-1],"split_conditions":[3.8805885E1,6.0353613E0,8.2047E0,5E0,8.771765E0,6.483104E-1,5.2047005E0,1.9930477E1,9.769432E0,-2.850216E-2,9.2047E0,3.82E0,3.8688892E1,5.0723503E1,6.6682487E0,-2.6396498E1,2.0470034E-1,-3.670308E-2,1.91E0,-2.0582214E-2,-3.256473E1,4.1176248E-1,8.4259995E1,2.3923504E1,1.2305679E0,2.2047002E0,-2.6274705E-2,2E0,6.143362E0,1.7762274E1,-1.154E1,-1.1686295E-3,5.89228E-3,5.8529243E0,2.1841516E0,1.9942362E-2,1.0336497E1,7.213997E1,-1.9422295E-2,-3.435648E-2,1.28001515E-2,1.5672994E1,6.587425E-1,3.3168113E0,7.8E-1,2.0470034E-1,1.34463115E-2,-1.7200487E-2,8.19601E-2,6.6847694E1,3.21001E-3,7.838353E1,-2.2749344E-2,1.6001167E1,-8.127605E0,4.879989E0,-1.7515082E-2,-3.397656E-2,6.597042E-3,1.23E0,1.29E0,1.68E0,1.423838E-2,2.0953681E0,8E0,2.9794723E-3,-2.9351348E-2,1.2717634E1,-2.1812E-3,1.02409E-2,2.6299778E-2,3.6550523E-3,8.19601E-2,3.4825385E-3,4.9944983E0,6.666667E-2,7.5702995E1,6.5877475E-3,1.2278795E-3,-3.0501056E-2,-4.5068882E-2,8.878879E-3,-3.2225717E-2,7.0061334E-3,2.5437959E-3,1.9471757E-3,1.26119675E-2,-7.322076E-4,3.9631655E-3,-6.5828685E-4,5.6372266E-3,2.0123092E-2,3.2537335E-3,4.5715305E-3,-2.9804553E-3,4.2709988E-3,1.0777098E-2,4.40228E-4,-8.5462036E-4,2.5680065E-4,-1.2332052E-3,7.157564E-3,2.6099432E-2,1.4403366E-2,2.1974673E-2],"split_indices":[13,4,35,55,17,4,49,31,32,0,32,27,31,31,53,46,7,0,27,0,46,4,13,26,7,5,0,25,4,5,26,0,0,4,4,0,17,13,0,0,0,7,4,4,46,7,0,0,4,31,0,7,0,13,26,4,0,0,0,27,47,27,0,4,49,0,0,33,0,0,0,0,4,0,4,4,31,0,0,0,0,0,0,0,0,0,0,0,0,0,0,0,0,0,0,0,0,0,0,0,0,0,0,0,0],"split_type":[0,0,0,0,0,0,0,0,0,0,0,0,0,0,0,0,0,0,0,0,0,0,0,0,0,0,0,0,0,0,0,0,0,0,0,0,0,0,0,0,0,0,0,0,0,0,0,0,0,0,0,0,0,0,0,0,0,0,0,0,0,0,0,0,0,0,0,0,0,0,0,0,0,0,0,0,0,0,0,0,0,0,0,0,0,0,0,0,0,0,0,0,0,0,0,0,0,0,0,0,0,0,0,0,0],"sum_hessian":[4.25E2,1.88E2,2.37E2,1.22E2,6.6E1,9.9E1,1.38E2,8.3E1,3.9E1,3E0,6.3E1,3.9E1,6E1,7E0,1.31E2,8.1E1,2E0,1E1,2.9E1,1E0,6.2E1,1.6E1,2.3E1,2.9E1,3.1E1,5E0,2E0,4E0,1.27E2,5E0,7.6E1,1E0,1E0,2.2E1,7E0,1E0,6.1E1,1.5E1,1E0,2.2E1,1E0,2.7E1,2E0,9E0,2.2E1,3E0,2E0,1E0,3E0,1.25E2,2E0,3E0,2E0,3.1E1,4.5E1,2.1E1,1E0,6E0,1E0,1.1E1,5E1,9E0,6E0,1.3E1,1.4E1,1E0,1E0,7E0,2E0,2E0,2E1,1E0,2E0,1E0,2E0,4.7E1,7.8E1,2E0,1E0,1.9E1,1.2E1,4E0,4.1E1,1.4E1,7E0,7E0,4E0,3.5E1,1.5E1,4E0,5E0,7E0,6E0,1E1,4E0,2E0,5E0,1E0,1E0,1E0,1E0,1E0,4.6E1,1.3E1,6.5E1],"tree_param":{"num_deleted":"0","num_feature":"60","num_nodes":"105","size_leaf_vector":"1"}},{"base_weights":[-1.2929448E-2,-2.027805E-1,4.0125695E-1,-5.4484135E-1,-1.0770513E-1,-2.1335207E-2,4.1121462E-1,-5.8370906E-1,-5.545616E-4,-6.462975E-2,-6.132064E-1,-2.0761792E-2,4.211481E-1,-3.144064E-2,-4.3164888E-1,-1.1798322E-2,1.1105121E-3,-1.3230744E-1,2.4075201E-1,-3.3418953E-2,6.738925E-3,3.395474E-3,4.2344913E-1,-2.9395992E-2,1.8414396E-1,-7.0504745E-4,-1.2226104E-4,-1.0141761E-1,-3.6485218E-2,5.343732E-2,3.9729762E-1,2.3459371E-2,3.8731098E-1,1.2951163E-2,3.6421556E-3,-4.8641032E-1,-5.1901504E-2,1.8690038E-1,-3.309467E-1,4.9540547E-1,8.581176E-2,5.331594E-3,1.9483147E-2,-3.468981E-2,2.1997094E-3,-8.408505E-3,2.7103683E-3,1.9257078E-3,1.466879E-2,8.64994E-3,-2.5009139E-2,2.6594227E-2,8.609716E-3,-1.3097018E-3,1.0327444E-2],"categories":[],"categories_nodes":[],"categories_segments":[],"categories_sizes":[],"default_left":[0,0,0,0,0,0,0,0,0,0,0,0,0,0,0,0,0,0,0,0,0,0,0,0,0,0,0,0,0,0,0,0,0,0,0,0,0,0,0,0,0,0,0,0,0,0,0,0,0,0,0,0,0,0,0],"id":21,"left_children":[1,3,5,7,9,-1,11,13,15,17,19,-1,21,-1,23,25,-1,27,29,-1,-1,-1,31,-1,33,-1,-1,35,-1,37,39,-1,41,-1,-1,43,45,47,49,51,53,-1,-1,-1,-1,-1,-1,-1,-1,-1,-1,-1,-1,-1,-1],"loss_changes":[3.1770758E1,8.949792E0,1.2225246E0,1.2689877E0,4.707244E0,0E0,1.2092781E0,1.1264992E-1,1.5418535E-3,4.2066946E0,7.9164505E-1,0E0,7.284546E-2,0E0,1.6479502E0,5.1666924E-5,0E0,2.9892738E0,1.0637314E0,0E0,0E0,0E0,2.3239136E-2,0E0,1.4468461E-2,0E0,0E0,3.0058255E0,0E0,9.8527324E-1,5.6867266E-1,0E0,7.9603195E-3,0E0,0E0,2.0104942E0,1.7609881E0,2.0989361E-1,5.129598E-1,8.5268974E-2,8.654991E-2,0E0,0E0,0E0,0E0,0E0,0E0,0E0,0E0,0E0,0E0,0E0,0E0,0E0,0E0],"parents":[2147483647,0,0,1,1,2,2,3,3,4,4,6,6,7,7,8,8,9,9,10,10,12,12,14,14,15,15,17,17,18,18,22,22,24,24,27,27,29,29,30,30,32,32,35,35,36,36,37,37,38,38,39,39,40,40],"right_children":[2,4,6,8,10,-1,12,14,16,18,20,-1,22,-1,24,26,-1,28,30,-1,-1,-1,32,-1,34,-1,-1,36,-1,38,40,-1,42,-1,-1,44,46,48,50,52,54,-1,-1,-1,-1,-1,-1,-1,-1,-1,-1,-1,-1,-1,-1],"split_conditions":[5.0372948E1,4.9385883E1,5.2047005E0,1.302116E2,5.17E0,-2.1335207E-2,1.4988233E1,1.5E0,4.830347E1,2.12047E1,1.0672994E1,-2.0761792E-2,1.110235E1,-3.144064E-2,4.4641212E1,3.1825204E2,1.1105121E-3,4.26E0,4.8682036E0,-3.3418953E-2,6.738925E-3,3.395474E-3,5.57E0,-2.9395992E-2,1.0336497E1,-7.0504745E-4,-1.2226104E-4,1.3364968E0,-3.6485218E-2,2.707E1,1.6352875E1,2.3459371E-2,3.19E0,1.2951163E-2,3.6421556E-3,6.955757E1,3.4090584E1,3.45E0,2.0470034E-1,6E0,4.52E0,5.331594E-3,1.9483147E-2,-3.468981E-2,2.1997094E-3,-8.408505E-3,2.7103683E-3,1.9257078E-3,1.466879E-2,8.64994E-3,-2.5009139E-2,2.6594227E-2,8.609716E-3,-1.3097018E-3,1.0327444E-2],"split_indices":[51,16,49,7,38,0,40,27,5,39,5,0,59,0,16,7,0,38,7,0,0,0,38,0,5,0,0,55,0,26,7,0,47,0,0,5,13,37,7,8,38,0,0,0,0,0,0,0,0,0,0,0,0,0,0],"split_type":[0,0,0,0,0,0,0,0,0,0,0,0,0,0,0,0,0,0,0,0,0,0,0,0,0,0,0,0,0,0,0,0,0,0,0,0,0,0,0,0,0,0,0,0,0,0,0,0,0,0,0,0,0,0,0],"sum_hessian":[4.02E2,2.76E2,1.26E2,5.9E1,2.17E2,1E0,1.25E2,5.5E1,4E0,2.01E2,1.6E1,1E0,1.24E2,4E1,1.5E1,3E0,1E0,1.65E2,3.6E1,1.5E1,1E0,1E0,1.23E2,1.2E1,3E0,2E0,1E0,1.58E2,7E0,1.7E1,1.9E1,4.9E1,7.4E1,1E0,2E0,1.7E1,1.41E2,1.3E1,4E0,1.4E1,5E0,1E0,7.3E1,1.2E1,5E0,6.7E1,7.4E1,6E0,7E0,1E0,3E0,1.2E1,2E0,3E0,2E0],"tree_param":{"num_deleted":"0","num_feature":"60","num_nodes":"55","size_leaf_vector":"1"}},{"base_weights":[1.282173E-2,-1.5630454E-1,3.92915E-1,-3.408421E-1,-4.0943963E-3,7.2368175E-2,4.0566808E-1,-5.225509E-1,1.8839876E-3,9.0989515E-2,-3.0757656E-2,-2.477773E-2,1.4253183E-2,4.5737377E-1,3.7085354E-1,-4.601244E-1,-3.6892325E-2,-2.6254306E-2,5.2026756E-2,7.936766E-3,3.580675E-1,2.3607556E-2,1.2384011E-2,1.0085306E-2,1.886794E-2,-5.759017E-1,-2.2869416E-1,1.7621806E-1,2.643326E-2,4.496558E-2,-3.0218074E-2,8.109244E-2,4.470137E-1,-6.074592E-1,2.8935156E-3,-3.7835862E-2,-3.0284062E-2,6.296313E-2,1.2270925E-2,8.0297045E-2,-1.1493564E-2,-5.25463E-2,2.4158166E-1,-2.0829445E-2,1.9537622E-1,-7.989943E-4,4.6783864E-1,-3.149779E-2,7.872552E-3,-2.574279E-2,7.4271895E-3,5.058393E-3,8.2528E-4,5.700509E-3,1.2740297E-3,-1.3185407E-3,1.6287118E-3,-6.521539E-4,-3.3573065E-2,6.909866E-3,1.8600887E-2,5.753875E-4,1.5169787E-2,1.204988E-2,2.5873065E-2],"categories":[],"categories_nodes":[],"categories_segments":[],"categories_sizes":[],"default_left":[0,0,0,0,0,0,0,0,0,0,0,0,0,0,0,0,0,0,0,0,0,0,0,0,0,0,0,0,0,0,0,0,0,0,0,0,0,0,0,0,0,0,0,0,0,0,0,0,0,0,0,0,0,0,0,0,0,0,0,0,0,0,0,0,0],"id":22,"left_children":[1,3,5,7,9,11,13,15,17,19,-1,-1,-1,21,23,25,-1,-1,27,29,31,-1,-1,-1,-1,33,35,37,39,41,-1,43,45,47,-1,49,-1,51,-1,53,55,57,59,-1,61,-1,63,-1,-1,-1,-1,-1,-1,-1,-1,-1,-1,-1,-1,-1,-1,-1,-1,-1,-1],"loss_changes":[2.6096338E1,7.89147E0,4.8163605E-1,7.91008E0,9.06176E0,8.660322E-1,4.639435E-2,7.760315E-1,1.2163868E0,2.9916692E0,0E0,0E0,0E0,1.9400597E-2,8.610725E-3,1.663517E0,0E0,0E0,1.2883855E-1,2.385134E0,7.5209904E-1,0E0,0E0,0E0,0E0,9.1516495E-1,1.7039102E0,3.9408714E-2,7.4466676E-2,1.9107622E0,0E0,5.932837E-1,2.3887968E-1,8.219185E-1,0E0,1.5878943E0,0E0,5.429752E-3,0E0,2.4815463E-2,1.5282378E-2,1.6293342E0,3.9359474E-1,0E0,1.5539968E-1,0E0,1.3419104E-1,0E0,0E0,0E0,0E0,0E0,0E0,0E0,0E0,0E0,0E0,0E0,0E0,0E0,0E0,0E0,0E0,0E0,0E0],"parents":[2147483647,0,0,1,1,2,2,3,3,4,4,5,5,6,6,7,7,8,8,9,9,13,13,14,14,15,15,18,18,19,19,20,20,25,25,26,26,27,27,28,28,29,29,31,31,32,32,33,33,35,35,37,37,39,39,40,40,41,41,42,42,44,44,46,46],"right_children":[2,4,6,8,10,12,14,16,18,20,-1,-1,-1,22,24,26,-1,-1,28,30,32,-1,-1,-1,-1,34,36,38,40,42,-1,44,46,48,-1,50,-1,52,-1,54,56,58,60,-1,62,-1,64,-1,-1,-1,-1,-1,-1,-1,-1,-1,-1,-1,-1,-1,-1,-1,-1,-1,-1],"split_conditions":[1.17205864E2,2.9115284E1,8.2047E0,6.0353613E0,5.9887695E1,1.2147646E2,5.29E0,4E0,8.771765E0,9.60235E0,-3.0757656E-2,-2.477773E-2,1.4253183E-2,1.732E1,4.06E0,1.3835257E2,-3.6892325E-2,-2.6254306E-2,1.0336497E1,5.384E1,5.2047005E0,2.3607556E-2,1.2384011E-2,1.0085306E-2,1.886794E-2,1.9570478E1,1.2131796E1,1.12E0,-6.078803E0,1.8435268E1,-3.0218074E-2,5.2180046E-1,8.587295E1,1.5098771E1,2.8935156E-3,9.336496E0,-3.0284062E-2,6.210029E0,1.2270925E-2,1E1,1.33E0,3.63E0,3.47E0,-2.0829445E-2,4.25E0,-7.989943E-4,6.666667E-2,-3.149779E-2,7.872552E-3,-2.574279E-2,7.4271895E-3,5.058393E-3,8.2528E-4,5.700509E-3,1.2740297E-3,-1.3185407E-3,1.6287118E-3,-6.521539E-4,-3.3573065E-2,6.909866E-3,1.8600887E-2,5.753875E-4,1.5169787E-2,1.204988E-2,2.5873065E-2],"split_indices":[16,51,49,4,31,16,27,57,17,53,0,0,0,18,47,6,0,0,17,31,35,0,0,0,0,31,32,27,18,17,0,4,16,8,0,17,0,4,0,57,37,47,38,0,27,0,4,0,0,0,0,0,0,0,0,0,0,0,0,0,0,0,0,0,0],"split_type":[0,0,0,0,0,0,0,0,0,0,0,0,0,0,0,0,0,0,0,0,0,0,0,0,0,0,0,0,0,0,0,0,0,0,0,0,0,0,0,0,0,0,0,0,0,0,0,0,0,0,0,0,0,0,0,0,0,0,0,0,0,0,0,0,0],"sum_hessian":[4.04E2,2.8E2,1.24E2,1.26E2,1.54E2,5E0,1.19E2,8.2E1,4.4E1,1.34E2,2E1,1E0,4E0,4.3E1,7.6E1,6.6E1,1.6E1,3E0,4.1E1,1.03E2,3.1E1,3.9E1,4E0,4E0,7.2E1,4.3E1,2.3E1,6E0,3.5E1,9.8E1,5E0,8E0,2.3E1,4.1E1,2E0,1.6E1,7E0,3E0,3E0,1.4E1,2.1E1,6.6E1,3.2E1,1E0,7E0,1E0,2.2E1,4E1,1E0,4E0,1.2E1,1E0,2E0,8E0,6E0,1.6E1,5E0,6.3E1,3E0,1.9E1,1.3E1,3E0,4E0,5E0,1.7E1],"tree_param":{"num_deleted":"0","num_feature":"60","num_nodes":"65","size_leaf_vector":"1"}},{"base_weights":[1.2958318E-2,-1.4662063E-1,3.713188E-1,-3.266455E-1,1.1951576E-2,-1.9473804E-2,3.7996745E-1,-5.113447E-1,9.320607E-3,8.967407E-2,-4.8318934E-1,3.979929E-1,1.4723017E-2,-4.2444697E-1,-7.016041E-1,-2.1917503E-2,3.65388E-2,3.8488396E-2,3.7789342E-1,-3.13601E-2,1.6083403E-2,4.5903748E-1,3.6057544E-1,-5.536078E-1,-2.2216104E-1,-7.301519E-1,1.0159642E-3,1.4960478E-1,1.41324485E-2,-1.4052035E-1,1.4027925E-1,6.1824918E-2,4.0790987E-1,5.957635E-3,2.3752755E-2,2.5829777E-1,3.7502137E-1,-1.6077448E-1,-2.852484E-2,8.505354E-2,-3.0663354E-2,-2.5062678E-2,-4.1092396E-2,5.0395418E-2,1.1810765E-2,-9.642742E-3,5.757064E-2,4.6722062E-2,-6.4372694E-1,5.7464886E-2,4.2918494E-1,4.184404E-3,4.5246482E-4,1.4481544E-2,2.4269894E-2,1.397267E-2,5.0839903E-3,5.3010704E-3,1.8889187E-2,-1.5121107E-2,3.06302E-3,6.992414E-3,-1.8421689E-2,4.931933E-3,6.8374723E-4,-8.873787E-4,2.1711574E-3,5.893934E-3,1.6335205E-3,-2.172519E-2,6.404047E-3,-3.4823135E-2,-1.5908361E-3,4.2049494E-3,-3.8514532E-2,8.188772E-3,2.2682726E-2],"categories":[],"categories_nodes":[],"categories_segments":[],"categories_sizes":[],"default_left":[0,0,0,0,0,0,0,0,0,0,0,0,0,0,0,0,0,0,0,0,0,0,0,0,0,0,0,0,0,0,0,0,0,0,0,0,0,0,0,0,0,0,0,0,0,0,0,0,0,0,0,0,0,0,0,0,0,0,0,0,0,0,0,0,0,0,0,0,0,0,0,0,0,0,0,0,0],"id":23,"left_children":[1,3,5,7,9,-1,11,13,15,17,19,21,-1,23,25,-1,27,29,31,-1,-1,33,35,37,39,41,-1,43,45,47,49,51,53,-1,-1,55,57,59,-1,61,-1,-1,-1,63,-1,65,67,69,71,73,75,-1,-1,-1,-1,-1,-1,-1,-1,-1,-1,-1,-1,-1,-1,-1,-1,-1,-1,-1,-1,-1,-1,-1,-1,-1,-1],"loss_changes":[2.4873512E1,8.596533E0,1.029686E0,8.754191E0,6.239187E0,0E0,8.780098E-2,1.2067184E0,6.374409E-1,2.0508337E0,2.7517629E0,7.8884125E-2,0E0,1.5752926E0,5.7128716E-1,0E0,1.2202212E-1,2.2062864E0,1.7401314E-1,0E0,0E0,1.448288E-1,8.034706E-3,1.6702557E-1,3.2963037E0,1.3376236E-1,0E0,5.6836426E-2,4.393069E-2,4.175827E0,1.8176037E0,2.7042078E-3,3.3552647E-2,0E0,0E0,1.1345446E-2,4.5309067E-3,1.1287866E-1,0E0,4.491043E-1,0E0,0E0,0E0,7.5086923E-3,0E0,1.2813179E-2,1.8674117E-2,1.3476676E0,3.650756E-1,1.4096186E0,3.6108255E-2,0E0,0E0,0E0,0E0,0E0,0E0,0E0,0E0,0E0,0E0,0E0,0E0,0E0,0E0,0E0,0E0,0E0,0E0,0E0,0E0,0E0,0E0,0E0,0E0,0E0,0E0],"parents":[2147483647,0,0,1,1,2,2,3,3,4,4,6,6,7,7,8,8,9,9,10,10,11,11,13,13,14,14,16,16,17,17,18,18,21,21,22,22,23,23,24,24,25,25,27,27,28,28,29,29,30,30,31,31,32,32,35,35,36,36,37,37,39,39,43,43,45,45,46,46,47,47,48,48,49,49,50,50],"right_children":[2,4,6,8,10,-1,12,14,16,18,20,22,-1,24,26,-1,28,30,32,-1,-1,34,36,38,40,42,-1,44,46,48,50,52,54,-1,-1,56,58,60,-1,62,-1,-1,-1,64,-1,66,68,70,72,74,76,-1,-1,-1,-1,-1,-1,-1,-1,-1,-1,-1,-1,-1,-1,-1,-1,-1,-1,-1,-1,-1,-1,-1,-1,-1,-1],"split_conditions":[5.0372948E1,2.9115284E1,1.4988233E1,6.0353613E0,5.908E1,-1.9473804E-2,6.7764467E-1,1.4917606E1,8.771765E0,1.0385882E1,8.647646E1,3.691E1,1.4723017E-2,5.198823E1,2.8998835E1,-2.1917503E-2,1.0336497E1,2.7952998E0,3.765889E1,-3.13601E-2,1.6083403E-2,8.19601E-2,7.708473E1,-2.6396498E1,1.7E0,1.489765E1,1.0159642E-3,1.23E0,1.8458803E1,4E0,3.9258892E1,7.677675E-1,4.62E0,5.957635E-3,2.3752755E-2,6.110235E1,8.688471E1,4.189874E0,-2.852484E-2,2.0228235E1,-3.0663354E-2,-2.5062678E-2,-4.1092396E-2,6.210029E0,1.1810765E-2,1.58E0,2.2047002E0,3.72047E1,1.0748204E0,1.9217693E1,2.6E0,4.184404E-3,4.5246482E-4,1.4481544E-2,2.4269894E-2,1.397267E-2,5.0839903E-3,5.3010704E-3,1.8889187E-2,-1.5121107E-2,3.06302E-3,6.992414E-3,-1.8421689E-2,4.931933E-3,6.8374723E-4,-8.873787E-4,2.1711574E-3,5.893934E-3,1.6335205E-3,-2.172519E-2,6.404047E-3,-3.4823135E-2,-1.5908361E-3,4.2049494E-3,-3.8514532E-2,8.188772E-3,2.2682726E-2],"split_indices":[51,51,40,4,31,0,4,8,17,53,13,26,0,16,13,0,17,5,31,0,0,4,31,46,27,13,0,27,8,46,31,4,27,0,0,51,13,4,0,17,0,0,0,4,0,27,55,13,4,26,37,0,0,0,0,0,0,0,0,0,0,0,0,0,0,0,0,0,0,0,0,0,0,0,0,0,0],"split_type":[0,0,0,0,0,0,0,0,0,0,0,0,0,0,0,0,0,0,0,0,0,0,0,0,0,0,0,0,0,0,0,0,0,0,0,0,0,0,0,0,0,0,0,0,0,0,0,0,0,0,0,0,0,0,0,0,0,0,0,0,0,0,0,0,0,0,0,0,0,0,0,0,0,0,0,0,0],"sum_hessian":[4.33E2,3E2,1.33E2,1.4E2,1.6E2,1E0,1.32E2,9E1,5E1,1.39E2,2.1E1,1.06E2,2.6E1,6.4E1,2.6E1,2E0,4.8E1,1.19E2,2E1,1.8E1,3E0,3.6E1,7E1,3.8E1,2.6E1,2.5E1,1E0,7E0,4.1E1,4.3E1,7.6E1,2E0,1.8E1,2E0,3.4E1,1.1E1,5.9E1,2E0,3.6E1,1.5E1,1.1E1,9E0,1.6E1,4E0,3E0,2.7E1,1.4E1,3.2E1,1.1E1,6E1,1.6E1,1E0,1E0,9E0,9E0,9E0,2E0,1E0,5.8E1,1E0,1E0,1.4E1,1E0,1E0,3E0,2.4E1,3E0,3E0,1.1E1,4E0,2.8E1,1E1,1E0,5.9E1,1E0,2E0,1.4E1],"tree_param":{"num_deleted":"0","num_feature":"60","num_nodes":"77","size_leaf_vector":"1"}},{"base_weights":[-1.2882693E-2,-1.6624825E-1,3.591604E-1,-5.750075E-1,-1.0484817E-1,-2.0626705E-2,3.6855903E-1,-2.9495448E-2,1.5374423E-4,-5.295206E-1,-6.487929E-2,2.6966215E-3,3.7064457E-1,-3.0748805E-2,3.013724E-2,-1.9866925E-2,-4.8229143E-1,4.198385E-1,3.3561957E-1,-6.405413E-5,2.0518522E-3,-1.0475338E-1,1.8493329E-1,-3.0508135E-2,1.5480272E-2,4.4111308E-1,1.2916322E-2,2.5902823E-1,3.5756436E-1,3.1717297E-2,-3.0259892E-1,-9.58152E-2,2.8429124E-1,5.941951E-3,4.4619894E-1,1.44028915E-2,7.990896E-3,6.691138E-3,1.8158272E-2,-1.6241945E-2,3.640426E-3,-2.7250186E-2,-9.5774466E-4,1.1901867E-2,-2.7144277E-2,1.868589E-2,3.9504352E-4,2.2558186E-2,6.3143373E-3],"categories":[],"categories_nodes":[],"categories_segments":[],"categories_sizes":[],"default_left":[0,0,0,0,0,0,0,0,0,0,0,0,0,0,0,0,0,0,0,0,0,0,0,0,0,0,0,0,0,0,0,0,0,0,0,0,0,0,0,0,0,0,0,0,0,0,0,0,0],"id":24,"left_children":[1,3,5,7,9,-1,11,-1,-1,13,15,-1,17,-1,19,21,23,25,27,-1,-1,29,31,-1,-1,33,-1,35,37,39,41,43,45,-1,47,-1,-1,-1,-1,-1,-1,-1,-1,-1,-1,-1,-1,-1,-1],"loss_changes":[2.482314E1,7.6698484E0,1.0731583E0,3.4638596E-1,4.5315647E0,0E0,6.268692E-2,0E0,0E0,1.1185288E0,4.6312294E0,0E0,7.447052E-2,0E0,1.4223859E-3,3.9135597E0,2.6191697E0,5.0982475E-2,3.8481712E-2,0E0,0E0,4.302616E0,1.8682823E0,0E0,0E0,1.4174461E-2,0E0,1.4443994E-2,2.4085999E-2,1.4155272E0,4.455593E0,2.815827E0,1.2081628E0,0E0,6.556034E-3,0E0,0E0,0E0,0E0,0E0,0E0,0E0,0E0,0E0,0E0,0E0,0E0,0E0,0E0],"parents":[2147483647,0,0,1,1,2,2,3,3,4,4,6,6,9,9,10,10,12,12,14,14,15,15,16,16,17,17,18,18,21,21,22,22,25,25,27,27,28,28,29,29,30,30,31,31,32,32,34,34],"right_children":[2,4,6,8,10,-1,12,-1,-1,14,16,-1,18,-1,20,22,24,26,28,-1,-1,30,32,-1,-1,34,-1,36,38,40,42,44,46,-1,48,-1,-1,-1,-1,-1,-1,-1,-1,-1,-1,-1,-1,-1,-1],"split_conditions":[5.0372948E1,9.435268E0,5.2047005E0,5.9764687E1,8.84716E-1,-2.0626705E-2,4.9713505E1,-2.9495448E-2,1.5374423E-4,6.135361E0,5.8727695E1,2.6966215E-3,3.691E1,-3.0748805E-2,4.830347E1,1.2385882E1,1.2147646E2,6.8603694E-1,7.708473E1,-6.405413E-5,2.0518522E-3,-1.4869281E1,6.483104E-1,-3.0508135E-2,1.5480272E-2,6.666667E-2,1.2916322E-2,2.0155315E1,1.242812E2,1.905413E1,2.4076496E1,4.1176248E-1,2.0953681E0,5.941951E-3,2.15E1,1.44028915E-2,7.990896E-3,6.691138E-3,1.8158272E-2,-1.6241945E-2,3.640426E-3,-2.7250186E-2,-9.5774466E-4,1.1901867E-2,-2.7144277E-2,1.868589E-2,3.9504352E-4,2.2558186E-2,6.3143373E-3],"split_indices":[51,17,49,16,53,0,31,0,0,4,31,0,26,0,5,54,16,4,31,0,0,31,4,0,0,4,0,40,16,51,31,4,4,0,40,0,0,0,0,0,0,0,0,0,0,0,0,0,0],"split_type":[0,0,0,0,0,0,0,0,0,0,0,0,0,0,0,0,0,0,0,0,0,0,0,0,0,0,0,0,0,0,0,0,0,0,0,0,0,0,0,0,0,0,0,0,0,0,0,0,0],"sum_hessian":[4.33E2,3.07E2,1.26E2,3.9E1,2.68E2,1E0,1.25E2,3.8E1,1E0,2.2E1,2.46E2,1E0,1.24E2,1.9E1,3E0,2.23E2,2.3E1,4.7E1,7.7E1,1E0,2E0,1.58E2,6.5E1,2E1,3E0,4E1,7E0,2E1,5.7E1,9.4E1,6.4E1,1.7E1,4.8E1,1E0,3.9E1,1.4E1,6E0,2E0,5.5E1,9E0,8.5E1,3.4E1,3E1,1E1,7E0,3.6E1,1.2E1,3.8E1,1E0],"tree_param":{"num_deleted":"0","num_feature":"60","num_nodes":"49","size_leaf_vector":"1"}},{"base_weights":[5.5892672E-3,-1.769135E-1,3.0296668E-1,-4.3588486E-1,-9.357478E-2,-3.1253096E-1,3.2052693E-1,-4.8506752E-1,3.3897657E-2,-6.275174E-2,-2.8690413E-2,-1.8857798E-2,-1.3507784E-3,1.380488E-1,3.5542378E-1,-5.187567E-1,-2.939631E-1,-7.376164E-3,6.669706E-2,-1.4206791E-1,1.396384E-1,3.2045802E-1,-2.040927E-1,4.1011232E-1,3.2808006E-1,-2.6689732E-2,-2.8267127E-1,1.78852E-2,-2.3926146E-2,-4.5010843E-4,-6.245375E-5,3.8445254E-3,9.02918E-4,-2.8243533E-1,3.7446164E-2,-1.7878026E-1,2.555544E-1,6.733641E-2,3.6659324E-1,-2.1630332E-2,1.2341494E-2,1.4737799E-2,4.4902378E-1,4.420239E-3,1.6486216E-2,-1.8590163E-2,1.8464149E-3,-3.9266145E-1,3.0199148E-2,2.3880089E-2,9.2305085E-3,2.1914303E-1,-5.5435604E-1,3.7594086E-1,8.7529846E-2,4.1790307E-3,4.6509504E-4,1.1964047E-2,2.2404071E-2,2.356664E-2,1.260678E-2,-8.851866E-3,-3.3078942E-2,6.30602E-3,-2.0449815E-2,-2.3407869E-3,2.2915744E-3,5.1945252E-3,1.8830022E-2,-3.2259163E-2,2.0358532E-3,1.9802762E-2,-1.6644001E-3,6.694005E-3,-2.9878402E-3],"categories":[],"categories_nodes":[],"categories_segments":[],"categories_sizes":[],"default_left":[0,0,0,0,0,0,0,0,0,0,0,0,0,0,0,0,0,0,0,0,0,0,0,0,0,0,0,0,0,0,0,0,0,0,0,0,0,0,0,0,0,0,0,0,0,0,0,0,0,0,0,0,0,0,0,0,0,0,0,0,0,0,0,0,0,0,0,0,0,0,0,0,0,0,0],"id":25,"left_children":[1,3,5,7,9,11,13,15,17,19,-1,-1,-1,21,23,25,27,29,31,33,35,37,39,41,43,-1,45,-1,-1,-1,-1,-1,-1,47,49,51,53,55,57,-1,-1,-1,59,-1,-1,-1,-1,61,63,65,-1,67,69,71,73,-1,-1,-1,-1,-1,-1,-1,-1,-1,-1,-1,-1,-1,-1,-1,-1,-1,-1,-1,-1],"loss_changes":[2.3119284E1,5.656951E0,1.8511181E0,1.4951715E0,2.9392452E0,8.2068026E-2,9.570637E-1,2.209177E-1,9.968267E-3,3.0698721E0,0E0,0E0,0E0,1.7504668E0,6.2841415E-2,1.9522667E-2,1.4941568E0,2.860633E-5,5.946681E-4,3.4626915E0,2.0388186E0,1.8551564E-1,1.1372011E0,4.7195435E-2,7.5006485E-3,0E0,1.5616274E-1,0E0,0E0,0E0,0E0,0E0,0E0,2.6653152E0,1.17374204E-1,2.3632383E0,7.762091E-1,2.9934403E-3,4.839945E-2,0E0,0E0,0E0,4.1470528E-3,0E0,0E0,0E0,0E0,3.1880255E0,9.3627447E-1,9.060235E-2,0E0,1.0605368E-1,4.5866036E-1,2.0250607E-1,1.3088217E-1,0E0,0E0,0E0,0E0,0E0,0E0,0E0,0E0,0E0,0E0,0E0,0E0,0E0,0E0,0E0,0E0,0E0,0E0,0E0,0E0],"parents":[2147483647,0,0,1,1,2,2,3,3,4,4,5,5,6,6,7,7,8,8,9,9,13,13,14,14,15,15,16,16,17,17,18,18,19,19,20,20,21,21,22,22,23,23,24,24,26,26,33,33,34,34,35,35,36,36,37,37,38,38,42,42,47,47,48,48,49,49,51,51,52,52,53,53,54,54],"right_children":[2,4,6,8,10,12,14,16,18,20,-1,-1,-1,22,24,26,28,30,32,34,36,38,40,42,44,-1,46,-1,-1,-1,-1,-1,-1,48,50,52,54,56,58,-1,-1,-1,60,-1,-1,-1,-1,62,64,66,-1,68,70,72,74,-1,-1,-1,-1,-1,-1,-1,-1,-1,-1,-1,-1,-1,-1,-1,-1,-1,-1,-1,-1],"split_conditions":[1.0115284E1,5.05659E1,1.0615284E1,2.0705368E2,5.8727695E1,1.7785809E1,8.2047E0,4.304732E0,2.0470034E-1,7.0117674E0,-2.8690413E-2,-1.8857798E-2,-1.3507784E-3,5.908E1,1.1E1,1.85E0,5.27E0,2.2455551E2,3.873508E2,1.7417856E2,2.1016376E1,3.765889E1,8.2205864E1,4E0,1.77953E1,-2.6689732E-2,1.338234E2,1.78852E-2,-2.3926146E-2,-4.5010843E-4,-6.245375E-5,3.8445254E-3,9.02918E-4,1.2011767E1,2.2663504E1,1.112E1,6.0336227E1,2.3033026E1,4.663503E0,-2.1630332E-2,1.2341494E-2,1.4737799E-2,2.309877E1,4.420239E-3,1.6486216E-2,-1.8590163E-2,1.8464149E-3,1.7E0,2.5903503E1,1E0,9.2305085E-3,2.458803E0,1.1891738E1,1.9762274E1,4.1103516E1,4.1790307E-3,4.6509504E-4,1.1964047E-2,2.2404071E-2,2.356664E-2,1.260678E-2,-8.851866E-3,-3.3078942E-2,6.30602E-3,-2.0449815E-2,-2.3407869E-3,2.2915744E-3,5.1945252E-3,1.8830022E-2,-3.2259163E-2,2.0358532E-3,1.9802762E-2,-1.6644001E-3,6.694005E-3,-2.9878402E-3],"split_indices":[53,16,33,6,31,6,35,18,8,53,0,0,0,31,35,46,18,7,6,6,6,31,13,7,17,0,6,0,0,0,0,0,0,54,25,18,6,6,7,0,0,0,6,0,0,0,0,27,26,47,0,6,7,7,51,0,0,0,0,0,0,0,0,0,0,0,0,0,0,0,0,0,0,0,0],"split_type":[0,0,0,0,0,0,0,0,0,0,0,0,0,0,0,0,0,0,0,0,0,0,0,0,0,0,0,0,0,0,0,0,0,0,0,0,0,0,0,0,0,0,0,0,0,0,0,0,0,0,0,0,0,0,0,0,0,0,0,0,0,0,0,0,0,0,0,0,0,0,0,0,0,0,0],"sum_hessian":[4.24E2,2.63E2,1.61E2,6.3E1,2E2,4E0,1.57E2,5.7E1,6E0,1.89E2,1.1E1,3E0,1E0,2.6E1,1.31E2,4.7E1,1E1,3E0,3E0,1.36E2,5.3E1,1.7E1,9E0,3.9E1,9.2E1,4.3E1,4E0,2E0,8E0,2E0,1E0,2E0,1E0,7.6E1,6E1,1.4E1,3.9E1,3E0,1.4E1,6E0,3E0,1.2E1,2.7E1,1E0,9.1E1,3E0,1E0,5.6E1,2E1,5.6E1,4E0,7E0,7E0,2.2E1,1.7E1,2E0,1E0,7E0,7E0,2.3E1,4E0,3.2E1,2.4E1,1.7E1,3E0,1.3E1,4.3E1,5E0,2E0,6E0,1E0,2.1E1,1E0,1.3E1,4E0],"tree_param":{"num_deleted":"0","num_feature":"60","num_nodes":"75","size_leaf_vector":"1"}},{"base_weights":[-1.6333582E-2,-2.1246535E-1,2.2111991E-1,-2.71565E-2,-1.4825569E-1,2.096198E-3,3.1844825E-1,-2.6011068E-2,-1.0839049E-1,1.7904332E-1,-4.3055767E-1,1.5634355E-1,3.344402E-1,-8.154549E-2,-6.1236763E-1,6.1597213E-2,3.4526563E-1,-2.8806258E-2,1.1147988E-2,3.3650032E-1,-1.8908674E-2,3.8014504E-1,3.007299E-1,-1.189082E-1,2.1022467E-1,-3.411643E-2,-1.3170064E-3,-1.0755618E-1,2.5203595E-1,4.5565415E-2,2.138198E-2,2.8305412E-3,3.588282E-1,3.8829377E-1,6.424149E-3,6.8880054E-3,3.0560696E-1,-1.9437125E-2,-3.3166382E-1,5.8767125E-2,3.5580552E-1,4.74694E-2,-2.135506E-2,1.373144E-2,1.4705787E-2,8.891479E-2,-1.2972434E-2,1.8825578E-2,4.9919486E-3,2.884224E-1,2.1365734E-2,4.309732E-3,1.5374164E-2,-1.7639477E-2,1.5476978E-3,-2.3771593E-2,1.2952936E-3,-2.7979673E-3,4.52398E-3,2.2441277E-2,-5.424897E-4,3.8437673E-3,-2.8285782E-3,2.4715604E-3,-1.4417022E-3,1.3605774E-3,5.308032E-3,-1.6227901E-3,6.498575E-4,1.4816976E-2,4.2416393E-3],"categories":[],"categories_nodes":[],"categories_segments":[],"categories_sizes":[],"default_left":[0,0,0,0,0,0,0,0,0,0,0,0,0,0,0,0,0,0,0,0,0,0,0,0,0,0,0,0,0,0,0,0,0,0,0,0,0,0,0,0,0,0,0,0,0,0,0,0,0,0,0,0,0,0,0,0,0,0,0,0,0,0,0,0,0,0,0,0,0,0,0],"id":26,"left_children":[1,3,5,-1,7,9,11,-1,13,15,17,19,21,23,25,27,29,-1,-1,31,-1,33,35,37,39,-1,-1,41,43,45,-1,-1,47,49,-1,-1,51,53,55,57,59,61,-1,63,-1,65,67,-1,-1,69,-1,-1,-1,-1,-1,-1,-1,-1,-1,-1,-1,-1,-1,-1,-1,-1,-1,-1,-1,-1,-1],"loss_changes":[2.0073015E1,4.930197E0,4.156189E0,0E0,2.894483E0,4.747057E0,2.9768276E-1,0E0,2.3988616E0,8.37708E-1,1.8408091E0,1.4754115E0,7.3646545E-2,1.9109265E0,3.5101867E-1,8.968687E-1,4.2488933E-1,0E0,0E0,4.842913E-2,0E0,4.8545837E-2,1.7510891E-2,3.25266E0,4.2007673E-1,0E0,0E0,7.6333904E-1,1.263228E-1,1.38413375E-2,0E0,0E0,8.20744E-3,5.6017876E-2,0E0,0E0,3.1380653E-3,1.7915068E0,2.5312643E0,4.5084048E-2,3.4593248E-1,3.8002606E-2,0E0,5.984035E-3,0E0,3.035795E-4,1.9397578E-3,0E0,0E0,6.5016747E-4,0E0,0E0,0E0,0E0,0E0,0E0,0E0,0E0,0E0,0E0,0E0,0E0,0E0,0E0,0E0,0E0,0E0,0E0,0E0,0E0,0E0],"parents":[2147483647,0,0,1,1,2,2,4,4,5,5,6,6,8,8,9,9,10,10,11,11,12,12,13,13,14,14,15,15,16,16,19,19,21,21,22,22,23,23,24,24,27,27,28,28,29,29,32,32,33,33,36,36,37,37,38,38,39,39,40,40,41,41,43,43,45,45,46,46,49,49],"right_children":[2,4,6,-1,8,10,12,-1,14,16,18,20,22,24,26,28,30,-1,-1,32,-1,34,36,38,40,-1,-1,42,44,46,-1,-1,48,50,-1,-1,52,54,56,58,60,62,-1,64,-1,66,68,-1,-1,70,-1,-1,-1,-1,-1,-1,-1,-1,-1,-1,-1,-1,-1,-1,-1,-1,-1,-1,-1,-1,-1],"split_conditions":[5.75E1,9.435268E0,8.435268E0,-2.71565E-2,9.228235E0,5.998949E1,8.2047E0,-2.6011068E-2,4E0,2.7952998E0,8.647646E1,1.627E1,5.8269432E1,1.2385882E1,1.5663503E1,4.4384716E1,1.6927727E1,-2.8806258E-2,1.1147988E-2,8.19601E-2,-1.8908674E-2,6.67E0,2.4336496E1,1.91E0,2.66E0,-3.411643E-2,-1.3170064E-3,4.3270063E0,2.3261198E1,6.663503E0,2.138198E-2,2.8305412E-3,1.1445498E0,4E0,6.424149E-3,6.8880054E-3,1.77953E1,4.4940014E1,7.884716E0,1.044E1,7.2047005E0,4.289765E1,-2.135506E-2,8.19601E-2,1.4705787E-2,1E0,5.951177E1,1.8825578E-2,4.9919486E-3,2.0470034E-1,2.1365734E-2,4.309732E-3,1.5374164E-2,-1.7639477E-2,1.5476978E-3,-2.3771593E-2,1.2952936E-3,-2.7979673E-3,4.52398E-3,2.2441277E-2,-5.424897E-4,3.8437673E-3,-2.8285782E-3,2.4715604E-3,-1.4417022E-3,1.3605774E-3,5.308032E-3,-1.6227901E-3,6.498575E-4,1.4816976E-2,4.2416393E-3],"split_indices":[13,17,49,0,32,31,35,0,37,5,13,18,51,54,7,51,26,0,0,4,0,46,39,38,37,0,0,7,26,8,0,0,4,7,0,0,17,16,53,26,49,51,0,4,0,4,13,0,0,8,0,0,0,0,0,0,0,0,0,0,0,0,0,0,0,0,0,0,0,0,0],"split_type":[0,0,0,0,0,0,0,0,0,0,0,0,0,0,0,0,0,0,0,0,0,0,0,0,0,0,0,0,0,0,0,0,0,0,0,0,0,0,0,0,0,0,0,0,0,0,0,0,0,0,0,0,0,0,0,0,0,0,0,0,0,0,0,0,0,0,0,0,0,0,0],"sum_hessian":[4.29E2,2.35E2,1.94E2,3.7E1,1.98E2,6E1,1.34E2,1.8E1,1.8E2,4.3E1,1.7E1,1.3E1,1.21E2,1.72E2,8E0,2.6E1,1.7E1,1.4E1,3E0,1E1,3E0,4.7E1,7.4E1,1.53E2,1.9E1,7E0,1E0,1.4E1,1.2E1,4E0,1.3E1,1E0,9E0,4.5E1,2E0,3E0,7.1E1,1.05E2,4.8E1,1E1,9E0,1E1,4E0,2E0,1E1,2E0,2E0,8E0,1E0,1.5E1,3E1,1E0,7E1,1.3E1,9.2E1,3.4E1,1.4E1,2E0,8E0,7E0,2E0,8E0,2E0,1E0,1E0,1E0,1E0,1E0,1E0,1.4E1,1E0],"tree_param":{"num_deleted":"0","num_feature":"60","num_nodes":"71","size_leaf_vector":"1"}},{"base_weights":[-5.67705E-3,-1.3783729E-1,3.0798635E-1,-2.5318751E-2,-8.706004E-2,-2.1685128E-1,3.182003E-1,-5.219419E-1,-4.927488E-2,2.409774E-3,-1.867362E-2,3.2953045E-1,1.13751395E-2,-5.4865867E-1,3.0985475E-4,-5.3651803E-3,-4.1723448E-1,3.7037674E-1,2.979256E-1,-2.0503879E-2,-3.2311603E-2,-6.1736863E-2,1.815403E-1,-2.596109E-2,1.3675052E-2,1.1845006E-2,2.0720158E-2,2.1787016E-1,1.5764458E-2,3.4048993E-2,-2.3188311E-1,1.0167078E-2,3.334955E-1,2.2898142E-1,1.5578092E-3,-1.3750138E-2,3.938218E-3,-1.6389899E-2,9.354287E-3,7.432191E-3,-2.2655828E-2,8.5687044E-4,2.0230806E-2,7.954705E-3,1.3807051E-2],"categories":[],"categories_nodes":[],"categories_segments":[],"categories_sizes":[],"default_left":[0,0,0,0,0,0,0,0,0,0,0,0,0,0,0,0,0,0,0,0,0,0,0,0,0,0,0,0,0,0,0,0,0,0,0,0,0,0,0,0,0,0,0,0,0],"id":27,"left_children":[1,3,5,-1,7,9,11,13,15,-1,-1,17,-1,19,-1,21,23,25,27,-1,-1,29,31,-1,-1,-1,-1,33,-1,35,37,39,41,43,-1,-1,-1,-1,-1,-1,-1,-1,-1,-1,-1],"loss_changes":[1.7618877E1,5.551201E0,7.4444485E-1,0E0,4.3123503E0,1.4253546E-1,5.2455902E-2,2.997136E-1,3.9400682E0,0E0,0E0,2.9076576E-2,0E0,5.431175E-3,0E0,2.3186302E0,1.9736104E0,1.545167E-1,2.3051739E-2,0E0,0E0,2.7621906E0,1.3247027E0,0E0,0E0,0E0,0E0,2.3985267E-2,0E0,1.5279709E0,2.5126321E0,1.6712031E0,6.005547E-1,2.2096038E-3,0E0,0E0,0E0,0E0,0E0,0E0,0E0,0E0,0E0,0E0,0E0],"parents":[2147483647,0,0,1,1,2,2,4,4,5,5,6,6,7,7,8,8,11,11,13,13,15,15,16,16,17,17,18,18,21,21,22,22,27,27,29,29,30,30,31,31,32,32,33,33],"right_children":[2,4,6,-1,8,10,12,14,16,-1,-1,18,-1,20,-1,22,24,26,28,-1,-1,30,32,-1,-1,-1,-1,34,-1,36,38,40,42,44,-1,-1,-1,-1,-1,