{"learner":{"attributes":{"scikit_learn":"{\"_estimator_type\": \"regressor\"}"},"feature_names":[],"feature_types":[],"gradient_booster":{"model":{"gbtree_model_param":{"num_parallel_tree":"1","num_trees":"600"},"iteration_indptr":[0,1,2,3,4,5,6,7,8,9,10,11,12,13,14,15,16,17,18,19,20,21,22,23,24,25,26,27,28,29,30,31,32,33,34,35,36,37,38,39,40,41,42,43,44,45,46,47,48,49,50,51,52,53,54,55,56,57,58,59,60,61,62,63,64,65,66,67,68,69,70,71,72,73,74,75,76,77,78,79,80,81,82,83,84,85,86,87,88,89,90,91,92,93,94,95,96,97,98,99,100,101,102,103,104,105,106,107,108,109,110,111,112,113,114,115,116,117,118,119,120,121,122,123,124,125,126,127,128,129,130,131,132,133,134,135,136,137,138,139,140,141,142,143,144,145,146,147,148,149,150,151,152,153,154,155,156,157,158,159,160,161,162,163,164,165,166,167,168,169,170,171,172,173,174,175,176,177,178,179,180,181,182,183,184,185,186,187,188,189,190,191,192,193,194,195,196,197,198,199,200,201,202,203,204,205,206,207,208,209,210,211,212,213,214,215,216,217,218,219,220,221,222,223,224,225,226,227,228,229,230,231,232,233,234,235,236,237,238,239,240,241,242,243,244,245,246,247,248,249,250,251,252,253,254,255,256,257,258,259,260,261,262,263,264,265,266,267,268,269,270,271,272,273,274,275,276,277,278,279,280,281,282,283,284,285,286,287,288,289,290,291,292,293,294,295,296,297,298,299,300,301,302,303,304,305,306,307,308,309,310,311,312,313,314,315,316,317,318,319,320,321,322,323,324,325,326,327,328,329,330,331,332,333,334,335,336,337,338,339,340,341,342,343,344,345,346,347,348,349,350,351,352,353,354,355,356,357,358,359,360,361,362,363,364,365,366,367,368,369,370,371,372,373,374,375,376,377,378,379,380,381,382,383,384,385,386,387,388,389,390,391,392,393,394,395,396,397,398,399,400,401,402,403,404,405,406,407,408,409,410,411,412,413,414,415,416,417,418,419,420,421,422,423,424,425,426,427,428,429,430,431,432,433,434,435,436,437,438,439,440,441,442,443,444,445,446,447,448,449,450,451,452,453,454,455,456,457,458,459,460,461,462,463,464,465,466,467,468,469,470,471,472,473,474,475,476,477,478,479,480,481,482,483,484,485,486,487,488,489,490,491,492,493,494,495,496,497,498,499,500,501,502,503,504,505,506,507,508,509,510,511,512,513,514,515,516,517,518,519,520,521,522,523,524,525,526,527,528,529,530,531,532,533,534,535,536,537,538,539,540,541,542,543,544,545,546,547,548,549,550,551,552,553,554,555,556,557,558,559,560,561,562,563,564,565,566,567,568,569,570,571,572,573,574,575,576,577,578,579,580,581,582,583,584,585,586,587,588,589,590,591,592,593,594,595,596,597,598,599,600],"tree_info":[0,0,0,0,0,0,0,0,0,0,0,0,0,0,0,0,0,0,0,0,0,0,0,0,0,0,0,0,0,0,0,0,0,0,0,0,0,0,0,0,0,0,0,0,0,0,0,0,0,0,0,0,0,0,0,0,0,0,0,0,0,0,0,0,0,0,0,0,0,0,0,0,0,0,0,0,0,0,0,0,0,0,0,0,0,0,0,0,0,0,0,0,0,0,0,0,0,0,0,0,0,0,0,0,0,0,0,0,0,0,0,0,0,0,0,0,0,0,0,0,0,0,0,0,0,0,0,0,0,0,0,0,0,0,0,0,0,0,0,0,0,0,0,0,0,0,0,0,0,0,0,0,0,0,0,0,0,0,0,0,0,0,0,0,0,0,0,0,0,0,0,0,0,0,0,0,0,0,0,0,0,0,0,0,0,0,0,0,0,0,0,0,0,0,0,0,0,0,0,0,0,0,0,0,0,0,0,0,0,0,0,0,0,0,0,0,0,0,0,0,0,0,0,0,0,0,0,0,0,0,0,0,0,0,0,0,0,0,0,0,0,0,0,0,0,0,0,0,0,0,0,0,0,0,0,0,0,0,0,0,0,0,0,0,0,0,0,0,0,0,0,0,0,0,0,0,0,0,0,0,0,0,0,0,0,0,0,0,0,0,0,0,0,0,0,0,0,0,0,0,0,0,0,0,0,0,0,0,0,0,0,0,0,0,0,0,0,0,0,0,0,0,0,0,0,0,0,0,0,0,0,0,0,0,0,0,0,0,0,0,0,0,0,0,0,0,0,0,0,0,0,0,0,0,0,0,0,0,0,0,0,0,0,0,0,0,0,0,0,0,0,0,0,0,0,0,0,0,0,0,0,0,0,0,0,0,0,0,0,0,0,0,0,0,0,0,0,0,0,0,0,0,0,0,0,0,0,0,0,0,0,0,0,0,0,0,0,0,0,0,0,0,0,0,0,0,0,0,0,0,0,0,0,0,0,0,0,0,0,0,0,0,0,0,0,0,0,0,0,0,0,0,0,0,0,0,0,0,0,0,0,0,0,0,0,0,0,0,0,0,0,0,0,0,0,0,0,0,0,0,0,0,0,0,0,0,0,0,0,0,0,0,0,0,0,0,0,0,0,0,0,0,0,0,0,0,0,0,0,0,0,0,0,0,0,0,0,0,0,0,0,0,0,0,0,0,0,0,0,0,0,0,0,0,0,0,0,0,0,0,0,0,0,0,0,0,0,0,0,0,0,0,0,0,0,0,0,0,0,0,0,0,0,0,0,0,0,0,0,0,0,0,0,0,0,0,0,0,0,0,0,0,0,0,0,0,0,0,0,0,0,0,0,0,0,0,0,0,0,0],"trees":[{"base_weights":[-2.0533032E-4,3.116483E-3,-6.266519E-3,2.949631E-3,5.186484E-2,-6.444829E-3,2.7463222E-2,2.8828436E-3,2.4949726E-2,2.879238E-2,5.3343023E-3,-6.60903E-3,8.981256E-3,2.6242887E-3,-2.2125663E-4,2.921586E-3,-3.7902654E-3,2.1818427E-4,1.6155703E-3,1.6297561E-3,6.4285094E-4,-6.667568E-3,-1.2434468E-3,1.5377135E-3,2.4731923E-4,2.9166662E-3,2.888394E-4,-4.4434206E-3,1.175188E-4,-6.593818E-3,-7.533805E-3,-2.2391176E-3,2.0544268E-3,3.1012236E-4,-8.826016E-5,1.4601988E-4,-1.4479726E-4,-2.4519E-4,2.7028238E-5,-6.6062277E-3,-1.793235E-4,-1.2416803E-4,-3.8092223E-4,-1.5793719E-4,-3.965171E-5,-2.136766E-5,3.0241378E-3,-2.814522E-4,-3.3238702E-4,4.3139375E-5,1.8367097E-4],"categories":[],"categories_nodes":[],"categories_segments":[],"categories_sizes":[],"default_left":[0,0,0,0,0,0,0,0,0,0,0,0,0,0,0,0,0,0,0,0,0,0,0,0,0,0,0,0,0,0,0,0,0,0,0,0,0,0,0,0,0,0,0,0,0,0,0,0,0,0,0],"id":0,"left_children":[1,3,5,7,9,11,13,15,17,19,-1,21,23,-1,-1,25,27,-1,-1,-1,-1,29,31,-1,33,35,-1,37,-1,39,41,43,45,-1,-1,-1,-1,-1,-1,47,-1,-1,-1,-1,-1,-1,49,-1,-1,-1,-1],"loss_changes":[7.365007E-2,1.9067097E-2,7.96558E-3,3.389813E-3,7.0471354E-3,3.324367E-3,5.8177514E-3,6.186217E-4,9.1983844E-4,5.110167E-6,0E0,3.924854E-4,2.6546917E-3,0E0,0E0,1.5975907E-5,6.659482E-5,0E0,0E0,0E0,0E0,3.0945987E-5,5.3854044E-5,0E0,1.4278169E-4,5.9099868E-5,0E0,3.2479613E-5,0E0,2.001226E-5,2.040714E-5,1.3453278E-5,1.0918813E-5,0E0,0E0,0E0,0E0,0E0,0E0,9.838492E-6,0E0,0E0,0E0,0E0,0E0,0E0,1.0405947E-6,0E0,0E0,0E0,0E0],"parents":[2147483647,0,0,1,1,2,2,3,3,4,4,5,5,6,6,7,7,8,8,9,9,11,11,12,12,15,15,16,16,21,21,22,22,24,24,25,25,27,27,29,29,30,30,31,31,32,32,39,39,46,46],"right_children":[2,4,6,8,10,12,14,16,18,20,-1,22,24,-1,-1,26,28,-1,-1,-1,-1,30,32,-1,34,36,-1,38,-1,40,42,44,46,-1,-1,-1,-1,-1,-1,48,-1,-1,-1,-1,-1,-1,50,-1,-1,-1,-1],"split_conditions":[2.3397982E1,2.3006177E-2,2.1612165E1,3.672875E1,1.3523666E1,1.5164465E0,1.2863823E1,1.5001585E1,2.8902864E1,3.672875E1,5.3343023E-3,1.4181821E0,3.2423176E1,2.6242887E-3,-2.2125663E-4,9.052214E-5,1.9824196E1,2.1818427E-4,1.6155703E-3,1.6297561E-3,6.4285094E-4,6.3157288E1,4.5050564E0,1.5377135E-3,1.9619653E-1,2.653329E-1,2.888394E-4,3.6098705E1,1.175188E-4,6.2951474E0,2.0328842E1,4E0,2.9452481E0,3.1012236E-4,-8.826016E-5,1.4601988E-4,-1.4479726E-4,-2.4519E-4,2.7028238E-5,9.931923E0,-1.793235E-4,-1.2416803E-4,-3.8092223E-4,-1.5793719E-4,-3.965171E-5,-2.136766E-5,7.285905E0,-2.814522E-4,-3.3238702E-4,4.3139375E-5,1.8367097E-4],"split_indices":[31,58,5,7,5,4,8,32,13,7,0,4,13,0,0,4,26,0,0,0,0,31,55,0,5,59,0,7,0,58,51,27,5,0,0,0,0,0,0,17,0,0,0,0,0,0,5,0,0,0,0],"split_type":[0,0,0,0,0,0,0,0,0,0,0,0,0,0,0,0,0,0,0,0,0,0,0,0,0,0,0,0,0,0,0,0,0,0,0,0,0,0,0,0,0,0,0,0,0,0,0,0,0,0,0],"sum_hessian":[3.656E3,2.362E3,1.294E3,2.355E3,7E0,1.288E3,6E0,2.349E3,6E0,6E0,1E0,1.275E3,1.3E1,3E0,3E0,2.336E3,1.3E1,2E0,4E0,4E0,2E0,1.261E3,1.4E1,3E0,1E1,2.334E3,2E0,1.2E1,1E0,1.17E3,9.1E1,1.1E1,3E0,2E0,8E0,2.333E3,1E0,1.1E1,1E0,1.164E3,6E0,2E0,8.9E1,6E0,5E0,1E0,2E0,5.3E1,1.111E3,1E0,1E0],"tree_param":{"num_deleted":"0","num_feature":"60","num_nodes":"51","size_leaf_vector":"1"}},{"base_weights":[-4.1347597E-4,2.5490187E-3,-5.9280246E-3,2.3918115E-3,2.5892189E-2,-6.0644224E-3,3.0420968E-2,2.4118407E-3,-3.1794412E-3,3.482468E-2,-7.2423444E-4,-6.3484595E-3,2.7362336E-3,2.0611978E-3,2.4320208E-3,1.2045361E-4,2.252277E-4,-2.223966E-4,1.7421214E-4,3.8911596E-2,4.7967062E-4,-1.8353845E-4,2.4637114E-3,-6.281582E-3,-7.130467E-3,-3.2692384E-5,1.8910097E-3,-1.2709817E-4,2.8168803E-4,7.05313E-4,4.3349646E-2,1.5842584E-4,2.6352518E-5,-6.3250796E-3,-5.452175E-3,-1.0036937E-4,-3.6115188E-4,5.7437764E-3,-2.8127444E-3,9.6118887E-4,2.409382E-3,-6.333191E-3,-1.6450879E-4,-4.042346E-3,-3.3483934E-4,-1.0093293E-3,1.3790621E-2,-1.9641384E-3,-2.7277542E-4,-3.0477453E-4,-3.254637E-4,-1.11881986E-4,-2.4214941E-4,-1.0884145E-4,1.7907917E-4,1.0182054E-3,2.7064254E-4,3.981382E-5,-1.139997E-4],"categories":[],"categories_nodes":[],"categories_segments":[],"categories_sizes":[],"default_left":[0,0,0,0,0,0,0,0,0,0,0,0,0,0,0,0,0,0,0,0,0,0,0,0,0,0,0,0,0,0,0,0,0,0,0,0,0,0,0,0,0,0,0,0,0,0,0,0,0,0,0,0,0,0,0,0,0,0,0],"id":1,"left_children":[1,3,5,7,9,11,13,15,17,19,21,23,25,27,-1,-1,-1,-1,-1,29,-1,-1,31,33,35,37,-1,-1,-1,-1,39,-1,-1,41,43,-1,-1,45,47,-1,-1,49,-1,51,-1,53,55,57,-1,-1,-1,-1,-1,-1,-1,-1,-1,-1,-1],"loss_changes":[6.044501E-2,8.771075E-3,6.5950863E-3,2.7458556E-4,3.829239E-3,3.2395013E-3,2.4832394E-3,2.9606745E-6,9.1573085E-5,8.641202E-4,5.6010675E-5,2.05338E-5,3.9841775E-3,6.365606E-5,0E0,0E0,0E0,0E0,0E0,4.8937276E-4,0E0,0E0,2.424942E-6,7.3239207E-6,2.8657261E-5,6.424522E-4,0E0,0E0,0E0,0E0,7.4179843E-6,0E0,0E0,6.120652E-6,8.698413E-5,0E0,0E0,7.2035496E-4,4.9836613E-5,0E0,0E0,5.982816E-6,0E0,3.6845624E-5,0E0,5.0675604E-5,2.20199E-4,2.0997119E-5,0E0,0E0,0E0,0E0,0E0,0E0,0E0,0E0,0E0,0E0,0E0],"parents":[2147483647,0,0,1,1,2,2,3,3,4,4,5,5,6,6,7,7,8,8,9,9,10,10,11,11,12,12,13,13,19,19,22,22,23,23,24,24,25,25,30,30,33,33,34,34,37,37,38,38,41,41,43,43,45,45,46,46,47,47],"right_children":[2,4,6,8,10,12,14,16,18,20,22,24,26,28,-1,-1,-1,-1,-1,30,-1,-1,32,34,36,38,-1,-1,-1,-1,40,-1,-1,42,44,-1,-1,46,48,-1,-1,50,-1,52,-1,54,56,58,-1,-1,-1,-1,-1,-1,-1,-1,-1,-1,-1],"split_conditions":[2.3397982E1,3.7828362E0,3.6247418E0,8.4799856E-1,7.521104E1,1.2800299E0,1.1391649E0,9.052214E-5,1.2433966E0,3.4007246E0,3.52708E1,6.272983E1,1.1509063E1,1.0450382E0,2.4320208E-3,1.2045361E-4,2.252277E-4,-2.223966E-4,1.7421214E-4,9.90292E0,4.7967062E-4,-1.8353845E-4,3.6098705E1,6.085E1,5.2072414E1,3.67E0,1.8910097E-3,-1.2709817E-4,2.8168803E-4,7.05313E-4,-3.983504E-1,1.5842584E-4,2.6352518E-5,6.2951474E0,9.052214E-5,-1.0036937E-4,-3.6115188E-4,1.5179958E0,4.4995112E0,9.6118887E-4,2.409382E-3,2.78E0,-1.6450879E-4,6.1238598E1,-3.3483934E-4,9.82275E0,3.9065555E-5,3.71E0,-2.7277542E-4,-3.0477453E-4,-3.254637E-4,-1.11881986E-4,-2.4214941E-4,-1.0884145E-4,1.7907917E-4,1.0182054E-3,2.7064254E-4,3.981382E-5,-1.139997E-4],"split_indices":[31,55,12,35,16,4,4,4,4,25,7,31,33,4,0,0,0,0,0,33,0,0,7,31,16,47,0,0,0,0,46,0,0,58,4,0,0,4,8,0,0,37,0,31,0,33,8,47,0,0,0,0,0,0,0,0,0,0,0],"split_type":[0,0,0,0,0,0,0,0,0,0,0,0,0,0,0,0,0,0,0,0,0,0,0,0,0,0,0,0,0,0,0,0,0,0,0,0,0,0,0,0,0,0,0,0,0,0,0,0,0,0,0,0,0,0,0,0,0,0,0],"sum_hessian":[3.698E3,2.406E3,1.292E3,2.391E3,1.5E1,1.288E3,4E0,2.383E3,8E0,1.1E1,4E0,1.248E3,4E1,2E0,2E0,2.382E3,1E0,7E0,1E0,9E0,2E0,2E0,2E0,1.158E3,9E1,3.8E1,2E0,1E0,1E0,2E0,7E0,1E0,1E0,1.094E3,6.4E1,2E0,8.8E1,1.2E1,2.6E1,2E0,5E0,1.09E3,4E0,3.2E1,3.2E1,7E0,5E0,2.1E1,5E0,4.79E2,6.11E2,1.1E1,2.1E1,6E0,1E0,2E0,3E0,2E0,1.9E1],"tree_param":{"num_deleted":"0","num_feature":"60","num_nodes":"59","size_leaf_vector":"1"}},{"base_weights":[2.0321534E-4,3.3514313E-3,-5.660403E-3,3.173002E-3,5.623829E-2,-6.0469992E-3,7.5637084E-3,3.1100127E-3,2.1539306E-2,1.2865625E-3,4.925314E-3,-6.0606254E-3,2.7464583E-4,-7.197845E-4,4.316722E-2,1.568386E-4,-2.4385753E-3,1.5922439E-3,8.986988E-3,-5.989221E-3,-3.4194387E-4,3.7072068E-3,-2.6993358E-3,-1.3512762E-4,2.5631303E-3,-3.646926E-3,2.4021186E-3,2.051044E-4,5.438113E-4,-1.9759311E-4,-6.0035884E-3,1.6118224E-4,8.905357E-4,-1.9167769E-3,-2.4883403E-4,-2.2710157E-4,1.1022557E-4,1.544652E-4,2.56937E-5,-6.0470155E-3,-5.1903347E-3,-1.673622E-4,2.4732694E-3,-6.91212E-5,-1.514805E-4,-3.0283883E-4,-1.6459993E-4,-1.9576422E-4,-3.154051E-4,2.0627003E-5,2.1982426E-4],"categories":[],"categories_nodes":[],"categories_segments":[],"categories_sizes":[],"default_left":[0,0,0,0,0,0,0,0,0,0,0,0,0,0,0,0,0,0,0,0,0,0,0,0,0,0,0,0,0,0,0,0,0,0,0,0,0,0,0,0,0,0,0,0,0,0,0,0,0,0,0],"id":2,"left_children":[1,3,5,7,9,11,13,15,17,-1,-1,19,-1,21,23,-1,25,-1,27,29,-1,31,33,-1,-1,35,37,-1,-1,-1,39,41,-1,43,-1,-1,-1,-1,-1,45,47,-1,49,-1,-1,-1,-1,-1,-1,-1,-1],"loss_changes":[6.800692E-2,2.2441018E-2,6.6253804E-3,2.6979558E-3,7.781079E-3,2.3000687E-4,1.0943162E-2,3.6146864E-4,7.4868114E-4,0E0,0E0,2.8505921E-5,0E0,2.8167415E-4,2.7378742E-3,0E0,7.895142E-5,0E0,1.5284459E-6,1.0024756E-5,0E0,4.97243E-4,2.9668256E-5,0E0,0E0,6.2389474E-5,2.305209E-6,0E0,0E0,0E0,8.981675E-6,8.1284714E-5,0E0,6.5154236E-6,0E0,0E0,0E0,0E0,0E0,9.0785325E-6,6.7940564E-5,0E0,2.1965636E-5,0E0,0E0,0E0,0E0,0E0,0E0,0E0,0E0],"parents":[2147483647,0,0,1,1,2,2,3,3,4,4,5,5,6,6,7,7,8,8,11,11,13,13,14,14,16,16,18,18,19,19,21,21,22,22,25,25,26,26,30,30,31,31,33,33,39,39,40,40,42,42],"right_children":[2,4,6,8,10,12,14,16,18,-1,-1,20,-1,22,24,-1,26,-1,28,30,-1,32,34,-1,-1,36,38,-1,-1,-1,40,42,-1,44,-1,-1,-1,-1,-1,46,48,-1,50,-1,-1,-1,-1,-1,-1,-1,-1],"split_conditions":[2.3397982E1,2.3006177E-2,1.2800299E0,3.8457954E1,1.6455275E1,3.0720707E1,1.0903093E1,3.5499432E0,1.3832023E0,1.2865625E-3,4.925314E-3,6.272983E1,2.7464583E-4,3.69E0,5.577264E-1,1.568386E-4,3.52708E1,1.5922439E-3,2.8902864E1,7.2420845E0,-3.4194387E-4,1.570609E1,4.4995112E0,-1.3512762E-4,2.5631303E-3,1.9824196E1,3.6098705E1,2.051044E-4,5.438113E-4,-1.9759311E-4,6.085E1,3.6974096E0,8.905357E-4,1.4390423E0,-2.4883403E-4,-2.2710157E-4,1.1022557E-4,1.544652E-4,2.56937E-5,5.3032575E0,9.052214E-5,-1.673622E-4,4.340787E-6,-6.91212E-5,-1.514805E-4,-3.0283883E-4,-1.6459993E-4,-1.9576422E-4,-3.154051E-4,2.0627003E-5,2.1982426E-4],"split_indices":[31,58,4,7,17,7,33,53,4,0,0,31,0,47,7,0,7,0,13,16,0,17,8,0,0,26,7,0,0,0,31,46,0,58,0,0,0,0,0,55,4,0,25,0,0,0,0,0,0,0,0],"split_type":[0,0,0,0,0,0,0,0,0,0,0,0,0,0,0,0,0,0,0,0,0,0,0,0,0,0,0,0,0,0,0,0,0,0,0,0,0,0,0,0,0,0,0,0,0,0,0,0,0,0,0],"sum_hessian":[3.682E3,2.396E3,1.286E3,2.389E3,7E0,1.25E3,3.6E1,2.382E3,7E0,5E0,2E0,1.249E3,1E0,3E1,6E0,2.371E3,1.1E1,3E0,4E0,1.152E3,9.7E1,9E0,2.1E1,1E0,5E0,9E0,2E0,2E0,2E0,1E1,1.142E3,8E0,1E0,1.7E1,4E0,8E0,1E0,1E0,1E0,1.078E3,6.4E1,3E0,5E0,1.3E1,4E0,1.073E3,5E0,3.2E1,3.2E1,3E0,2E0],"tree_param":{"num_deleted":"0","num_feature":"60","num_nodes":"51","size_leaf_vector":"1"}},{"base_weights":[7.7613644E-5,3.0834354E-3,-5.5309837E-3,2.893833E-3,4.824174E-2,-5.6045884E-3,1.9534115E-2,2.8644127E-3,1.25337485E-2,4.7611366E-3,2.459365E-2,-5.7366015E-3,1.5816074E-3,1.8019816E-3,2.0190654E-3,2.8823826E-3,-2.850903E-3,7.7528827E-4,-1.3245875E-4,1.581025E-3,2.3420658E-3,-5.7484284E-3,-2.7915905E-3,1.1309201E-2,-9.2937134E-4,-1.1634978E-4,2.677797E-4,2.885925E-3,-1.390571E-4,-1.9361444E-4,1.07469925E-4,2.5051368E-5,1.5060358E-4,-4.822716E-3,-5.7891523E-3,-3.3177654E-5,-3.5100947E-3,9.6907915E-4,-2.6645792E-5,3.058955E-3,-2.1176375E-3,2.8809416E-3,2.565387E-4,-1.8451588E-4,-5.1248902E-3,-5.7971687E-3,-1.3569102E-4,-1.975838E-4,-4.359428E-5,-2.852312E-5,2.8343603E-4,-1.4144542E-3,-2.3466405E-4,1.4420958E-4,-1.2134551E-4,-1.6381824E-4,-2.6930307E-4,-2.763276E-4,-2.96488E-4,-7.980797E-5,-2.805756E-5],"categories":[],"categories_nodes":[],"categories_segments":[],"categories_sizes":[],"default_left":[0,0,0,0,0,0,0,0,0,0,0,0,0,0,0,0,0,0,0,0,0,0,0,0,0,0,0,0,0,0,0,0,0,0,0,0,0,0,0,0,0,0,0,0,0,0,0,0,0,0,0,0,0,0,0,0,0,0,0,0,0],"id":3,"left_children":[1,3,5,7,9,11,13,15,17,-1,19,21,23,-1,25,27,29,-1,-1,-1,31,33,35,37,39,-1,-1,41,-1,-1,-1,-1,-1,43,45,-1,47,-1,-1,49,51,53,-1,-1,55,57,-1,-1,-1,-1,-1,59,-1,-1,-1,-1,-1,-1,-1,-1,-1],"loss_changes":[6.232586E-2,2.046942E-2,2.4894178E-3,6.4419396E-4,8.768231E-3,1.2300126E-3,1.0836134E-3,2.5388412E-4,3.5694486E-4,0E0,1.1768108E-3,2.797693E-5,5.9672917E-4,0E0,5.5964712E-5,5.5871904E-5,4.9180977E-5,0E0,0E0,0E0,2.1913875E-6,1.9501895E-5,8.373896E-6,4.882993E-4,1.01261634E-4,0E0,0E0,1.1887401E-5,0E0,0E0,0E0,0E0,0E0,1.2761448E-6,1.3854355E-5,0E0,2.3795E-6,0E0,0E0,5.0593437E-5,2.233997E-5,4.8071146E-5,0E0,0E0,3.59572E-6,1.014024E-5,0E0,0E0,0E0,0E0,0E0,1.2750079E-6,0E0,0E0,0E0,0E0,0E0,0E0,0E0,0E0,0E0],"parents":[2147483647,0,0,1,1,2,2,3,3,4,4,5,5,6,6,7,7,8,8,10,10,11,11,12,12,14,14,15,15,16,16,20,20,21,21,22,22,23,23,24,24,27,27,33,33,34,34,36,36,39,39,40,40,41,41,44,44,45,45,51,51],"right_children":[2,4,6,8,10,12,14,16,18,-1,20,22,24,-1,26,28,30,-1,-1,-1,32,34,36,38,40,-1,-1,42,-1,-1,-1,-1,-1,44,46,-1,48,-1,-1,50,52,54,-1,-1,56,58,-1,-1,-1,-1,-1,60,-1,-1,-1,-1,-1,-1,-1,-1,-1],"split_conditions":[2.3397982E1,5.3032575E0,2.5373192E1,3.7828362E0,1.660654E0,4.532265E1,3.736589E1,1.49529705E1,1.1134753E1,4.7611366E-3,4.011442E1,4.2545467E1,3.41E0,1.8019816E-3,3.0852713E1,1.2094662E1,3.8421944E1,7.7528827E-4,-1.3245875E-4,1.581025E-3,2.0635466E1,9.931923E0,3.9065555E-5,1.2094662E1,1.9619653E-1,-1.1634978E-4,2.677797E-4,3.9065555E-5,-1.390571E-4,-1.9361444E-4,1.07469925E-4,2.5051368E-5,1.5060358E-4,2.0536885E0,6.7536836E0,-3.3177654E-5,4.05E0,9.6907915E-4,-2.6645792E-5,4.5539875E1,4.3907876E0,5.587315E-2,2.565387E-4,-1.8451588E-4,1.77E0,2.7156642E-3,-1.3569102E-4,-1.975838E-4,-4.359428E-5,-2.852312E-5,2.8343603E-4,1.0903572E1,-2.3466405E-4,1.4420958E-4,-1.2134551E-4,-1.6381824E-4,-2.6930307E-4,-2.763276E-4,-2.96488E-4,-7.980797E-5,-2.805756E-5],"split_indices":[31,55,5,55,8,6,13,31,8,0,13,6,37,0,5,18,6,0,0,0,5,17,5,18,5,0,0,5,0,0,0,0,0,59,58,0,37,0,0,6,5,13,0,0,37,6,0,0,0,0,0,7,0,0,0,0,0,0,0,0,0],"split_type":[0,0,0,0,0,0,0,0,0,0,0,0,0,0,0,0,0,0,0,0,0,0,0,0,0,0,0,0,0,0,0,0,0,0,0,0,0,0,0,0,0,0,0,0,0,0,0,0,0,0,0,0,0,0,0,0,0,0,0,0,0],"sum_hessian":[3.695E3,2.406E3,1.289E3,2.397E3,9E0,1.286E3,3E0,2.391E3,6E0,2E0,7E0,1.263E3,2.3E1,1E0,2E0,2.384E3,7E0,5E0,1E0,5E0,2E0,1.257E3,6E0,4E0,1.9E1,1E0,1E0,2.383E3,1E0,6E0,1E0,1E0,1E0,5.8E1,1.199E3,2E0,4E0,2E0,2E0,4E0,1.5E1,2.38E3,3E0,1.5E1,4.3E1,1.195E3,4E0,3E0,1E0,2E0,2E0,1.3E1,2E0,2.379E3,1E0,7E0,3.6E1,4.07E2,7.88E2,1E1,3E0],"tree_param":{"num_deleted":"0","num_feature":"60","num_nodes":"61","size_leaf_vector":"1"}},{"base_weights":[-1.2261544E-4,2.5019995E-3,-5.019892E-3,2.420168E-3,4.9581244E-3,-5.2662045E-3,3.0432168E-2,2.3467296E-3,1.8109554E-2,-5.4842024E-3,3.9635166E-3,2.0302348E-3,7.5653363E-3,1.1943019E-4,-2.454778E-4,3.9698172E-2,1.0203344E-4,-5.5188322E-3,-3.4028634E-3,1.8031714E-2,4.2860847E-4,-4.288305E-5,5.3294445E-4,5.6488963E-4,2.198691E-3,4.3234876E-3,-2.0724647E-4,-5.250992E-3,-5.6710253E-3,-3.8743422E-3,-4.653355E-5,1.1930973E-3,4.247499E-3,-7.65788E-4,2.679676E-4,2.4425099E-5,2.719491E-4,-5.469358E-3,-4.8314026E-3,-5.0971196E-3,-5.8305576E-3,-3.995129E-3,-4.2504445E-5,5.013286E-5,2.6842958E-4,-1.4346151E-3,2.435381E-3,-2.9139218E-4,-2.4842157E-4,-2.1722585E-4,-2.653218E-4,-2.6596404E-4,-1.3597163E-4,-3.429013E-4,-2.8263038E-4,-4.6088593E-5,-2.0608465E-4,-9.16202E-5,-2.7387325E-5,1.4926265E-4,1.9644154E-5],"categories":[],"categories_nodes":[],"categories_segments":[],"categories_sizes":[],"default_left":[0,0,0,0,0,0,0,0,0,0,0,0,0,0,0,0,0,0,0,0,0,0,0,0,0,0,0,0,0,0,0,0,0,0,0,0,0,0,0,0,0,0,0,0,0,0,0,0,0,0,0,0,0,0,0,0,0,0,0,0,0],"id":4,"left_children":[1,3,5,7,-1,9,11,13,15,17,19,-1,21,-1,-1,23,25,27,29,31,33,-1,-1,-1,-1,35,-1,37,39,41,-1,-1,43,45,-1,-1,-1,47,49,51,53,55,-1,-1,-1,57,59,-1,-1,-1,-1,-1,-1,-1,-1,-1,-1,-1,-1,-1,-1],"loss_changes":[4.7261897E-2,1.8696263E-2,1.1363789E-2,2.7147206E-3,0E0,2.5871135E-3,1.7863335E-3,7.358007E-4,4.272282E-3,7.1026385E-5,1.484165E-3,0E0,1.1336968E-4,0E0,0E0,1.1034217E-4,1.4341905E-4,2.0116568E-5,2.3202738E-5,3.808376E-4,1.513357E-4,0E0,0E0,0E0,0E0,1.4454672E-5,0E0,1.5447848E-5,4.059635E-5,3.5442936E-6,0E0,0E0,5.5304445E-6,4.8455437E-5,0E0,0E0,0E0,2.366025E-5,1.51083805E-5,7.797452E-5,6.983988E-5,3.2022654E-6,0E0,0E0,0E0,5.3464646E-6,3.3195902E-6,0E0,0E0,0E0,0E0,0E0,0E0,0E0,0E0,0E0,0E0,0E0,0E0,0E0,0E0],"parents":[2147483647,0,0,1,1,2,2,3,3,5,5,6,6,7,7,8,8,9,9,10,10,12,12,15,15,16,16,17,17,18,18,19,19,20,20,25,25,27,27,28,28,29,29,32,32,33,33,37,37,38,38,39,39,40,40,41,41,45,45,46,46],"right_children":[2,4,6,8,-1,10,12,14,16,18,20,-1,22,-1,-1,24,26,28,30,32,34,-1,-1,-1,-1,36,-1,38,40,42,-1,-1,44,46,-1,-1,-1,48,50,52,54,56,-1,-1,-1,58,60,-1,-1,-1,-1,-1,-1,-1,-1,-1,-1,-1,-1,-1,-1],"split_conditions":[9.335811E0,1.9513458E0,1.6267364E0,2.764658E1,4.9581244E-3,1.5107551E0,1.639059E1,5.587315E-2,3.736589E1,3.2832268E1,3.42E0,2.0302348E-3,1.8731607E0,1.1943019E-4,-2.454778E-4,1.6943645E1,9.526878E0,2.75E0,1.2295397E1,2.9690535E0,4.333104E0,-4.288305E-5,5.3294445E-4,5.6488963E-4,2.198691E-3,2.0635466E1,-2.0724647E-4,6.71455E-1,9.052214E-5,4.5050564E0,-4.653355E-5,1.1930973E-3,1.5153892E0,1.0903093E1,2.679676E-4,2.4425099E-5,2.719491E-4,9.052214E-5,3.892109E-4,4.58E0,8.323039E-4,1.3730422E1,-4.2504445E-5,5.013286E-5,2.6842958E-4,1.0903572E1,3.8286606E1,-2.9139218E-4,-2.4842157E-4,-2.1722585E-4,-2.653218E-4,-2.6596404E-4,-1.3597163E-4,-3.429013E-4,-2.8263038E-4,-4.6088593E-5,-2.0608465E-4,-9.16202E-5,-2.7387325E-5,1.4926265E-4,1.9644154E-5],"split_indices":[26,4,4,7,0,4,39,13,13,6,47,0,4,0,0,5,8,37,18,35,5,0,0,0,0,5,0,56,4,55,0,0,4,40,0,0,0,4,4,37,4,39,0,0,0,7,13,0,0,0,0,0,0,0,0,0,0,0,0,0,0],"split_type":[0,0,0,0,0,0,0,0,0,0,0,0,0,0,0,0,0,0,0,0,0,0,0,0,0,0,0,0,0,0,0,0,0,0,0,0,0,0,0,0,0,0,0,0,0,0,0,0,0,0,0,0,0,0,0,0,0,0,0,0,0],"sum_hessian":[3.675E3,2.393E3,1.282E3,2.392E3,1E0,1.274E3,8E0,2.382E3,1E1,1.245E3,2.9E1,5E0,3E0,2.369E3,1.3E1,4E0,6E0,1.223E3,2.2E1,5E0,2.4E1,1E0,2E0,1E0,3E0,3E0,3E0,4.56E2,7.67E2,1.8E1,4E0,3E0,2E0,2E1,4E0,1E0,2E0,2.92E2,1.64E2,1.74E2,5.93E2,1.7E1,1E0,1E0,1E0,1.7E1,3E0,1.64E2,1.28E2,8.6E1,7.8E1,1.58E2,1.6E1,8.2E1,5.11E2,1E0,1.6E1,1.1E1,6E0,2E0,1E0],"tree_param":{"num_deleted":"0","num_feature":"60","num_nodes":"61","size_leaf_vector":"1"}},{"base_weights":[-2.514193E-4,2.2807047E-3,-4.8692E-3,2.1694363E-3,4.485959E-3,-5.1681385E-3,4.9673263E-3,2.0904054E-3,2.2739833E-2,-5.1894556E-3,2.8600965E-3,2.2042312E-3,1.6614012E-3,2.0995678E-3,-1.9270203E-4,2.546324E-2,2.3814477E-5,-5.126551E-3,-5.885584E-3,-1.3846524E-4,2.8298327E-4,1.8776476E-2,-4.0100171E-4,2.0912916E-3,2.795502E-4,1.4399595E-3,5.1517965E-4,-1.9642108E-4,-5.1514814E-3,-6.359592E-5,-2.9600176E-4,4.8879534E-5,1.2191788E-3,4.250202E-3,-2.8102817E-3,1.0471804E-4,-1.2894759E-4,-5.1666866E-3,-1.645822E-4,8.447299E-4,1.5648388E-3,-3.5388975E-3,-6.4183434E-5,-2.5874792E-4,-1.1360395E-4,-4.274888E-5,1.5348654E-4,-2.0001408E-4,-6.350108E-5],"categories":[],"categories_nodes":[],"categories_segments":[],"categories_sizes":[],"default_left":[0,0,0,0,0,0,0,0,0,0,0,0,0,0,0,0,0,0,0,0,0,0,0,0,0,0,0,0,0,0,0,0,0,0,0,0,0,0,0,0,0,0,0,0,0,0,0,0,0],"id":5,"left_children":[1,3,5,7,-1,9,11,13,15,17,19,-1,21,23,-1,25,-1,27,29,-1,-1,31,33,35,-1,-1,-1,-1,37,-1,-1,-1,-1,39,41,-1,-1,43,-1,-1,45,47,-1,-1,-1,-1,-1,-1,-1],"loss_changes":[4.3087352E-2,2.2960708E-2,3.8630478E-3,3.8183667E-3,0E0,2.316758E-4,4.9701924E-3,1.3717543E-4,5.3356634E-4,2.5175512E-5,7.8712925E-5,0E0,1.3135622E-3,5.6703575E-5,0E0,1.0783924E-4,0E0,1.4619902E-5,8.046627E-6,0E0,0E0,3.7536328E-4,3.9295005E-4,3.927108E-5,0E0,0E0,0E0,0E0,1.5234575E-5,0E0,0E0,0E0,0E0,3.8102025E-4,2.104044E-5,0E0,0E0,1.527369E-5,0E0,0E0,4.268173E-5,1.0621909E-5,0E0,0E0,0E0,0E0,0E0,0E0,0E0],"parents":[2147483647,0,0,1,1,2,2,3,3,5,5,6,6,7,7,8,8,9,9,10,10,12,12,13,13,15,15,17,17,18,18,21,21,22,22,23,23,28,28,33,33,34,34,37,37,40,40,41,41],"right_children":[2,4,6,8,-1,10,12,14,16,18,20,-1,22,24,-1,26,-1,28,30,-1,-1,32,34,36,-1,-1,-1,-1,38,-1,-1,-1,-1,40,42,-1,-1,44,-1,-1,46,48,-1,-1,-1,-1,-1,-1,-1],"split_conditions":[1.8129198E1,1.1297621E1,1.3547773E0,6.467375E1,4.485959E-3,4.4075303E0,3.1351147E1,3.9849136E0,7.521104E1,6.272983E1,1.0959427E0,2.2042312E-3,3.4E0,1.2624362E-1,-1.9270203E-4,3.205983E1,2.3814477E-5,2.4678064E1,5.2072414E1,-1.3846524E-4,2.8298327E-4,1.5153892E0,3.71E0,9.052214E-5,2.795502E-4,1.4399595E-3,5.1517965E-4,-1.9642108E-4,4.8859053E0,-6.359592E-5,-2.9600176E-4,4.8879534E-5,1.2191788E-3,3.41E0,4.11E0,1.0471804E-4,-1.2894759E-4,4.96E0,-1.645822E-4,8.447299E-4,9.213481E0,3.83E0,-6.4183434E-5,-2.5874792E-4,-1.1360395E-4,-4.274888E-5,1.5348654E-4,-2.0001408E-4,-6.350108E-5],"split_indices":[31,33,4,16,0,12,6,46,16,31,4,0,47,4,0,51,0,31,16,0,0,4,47,4,0,0,0,0,55,0,0,0,0,37,38,0,0,37,0,0,59,27,0,0,0,0,0,0,0],"split_type":[0,0,0,0,0,0,0,0,0,0,0,0,0,0,0,0,0,0,0,0,0,0,0,0,0,0,0,0,0,0,0,0,0,0,0,0,0,0,0,0,0,0,0,0,0,0,0,0,0],"sum_hessian":[3.683E3,2.379E3,1.304E3,2.377E3,2E0,1.266E3,3.8E1,2.369E3,8E0,1.263E3,3E0,2E0,3.6E1,2.366E3,3E0,7E0,1E0,1.166E3,9.7E1,1E0,2E0,3E0,3.3E1,2.362E3,4E0,5E0,2E0,2.7E1,1.139E3,1E0,9.6E1,1E0,2E0,1.1E1,2.2E1,2.361E3,1E0,1.128E3,1.1E1,1E0,1E1,1.4E1,8E0,1.124E3,4E0,4E0,6E0,1.1E1,3E0],"tree_param":{"num_deleted":"0","num_feature":"60","num_nodes":"49","size_leaf_vector":"1"}},{"base_weights":[2.0917311E-4,2.7954069E-3,-4.633085E-3,2.6887478E-3,4.3364274E-3,-4.8125032E-3,8.937492E-3,2.5905827E-3,1.8039221E-2,-4.877501E-3,1.2477546E-2,1.5618074E-3,-3.2641366E-4,2.604122E-3,-1.5923698E-4,2.3306575E-2,-2.2726427E-3,-4.9296357E-3,-1.0179312E-3,1.5492762E-3,1.04171224E-4,2.3331911E-4,-2.2908906E-3,2.610157E-3,-1.6150824E-3,2.7901752E-2,3.5703907E-4,-1.6698893E-4,2.3219129E-5,-4.6254783E-3,-5.0707245E-3,-1.6771758E-3,1.418675E-4,2.472119E-4,-1.5786318E-4,-6.226886E-4,-1.9172774E-4,2.605805E-3,2.2638084E-4,-1.7050341E-4,9.424687E-5,1.5402649E-3,5.913114E-4,-5.2980795E-3,-4.0776874E-3,-4.570376E-3,-5.22812E-3,-2.7419329E-3,-2.6967702E-4,-4.348769E-5,1.5315925E-5,1.3044267E-4,-1.1479286E-4,-2.7588513E-4,-2.1718703E-4,-1.9726926E-4,-2.6591992E-4,-1.0461699E-4,-2.3557087E-4,-3.0858527E-4,-2.530587E-4,-1.6331373E-4,-3.022457E-5,-2.9026558E-5,4.7657548E-5],"categories":[],"categories_nodes":[],"categories_segments":[],"categories_sizes":[],"default_left":[0,0,0,0,0,0,0,0,0,0,0,0,0,0,0,0,0,0,0,0,0,0,0,0,0,0,0,0,0,0,0,0,0,0,0,0,0,0,0,0,0,0,0,0,0,0,0,0,0,0,0,0,0,0,0,0,0,0,0,0,0,0,0,0,0],"id":6,"left_children":[1,3,5,7,-1,9,11,13,15,17,19,-1,21,23,-1,25,27,29,31,-1,33,-1,35,37,39,41,-1,-1,-1,43,45,47,-1,-1,-1,49,-1,51,-1,-1,-1,-1,-1,53,55,57,59,61,63,-1,-1,-1,-1,-1,-1,-1,-1,-1,-1,-1,-1,-1,-1,-1,-1],"loss_changes":[4.5897994E-2,2.1153651E-2,3.149826E-3,3.550196E-3,0E0,1.4768746E-3,3.5219304E-3,1.9384734E-4,1.6578138E-3,2.4770945E-4,1.1418029E-3,0E0,1.3819718E-4,6.451085E-5,0E0,6.921757E-4,1.32340465E-5,2.9714778E-5,5.0507053E-5,0E0,7.8752506E-5,0E0,2.3363704E-5,7.940456E-6,3.1557705E-5,5.5774115E-5,0E0,0E0,0E0,1.2724847E-4,4.1943043E-5,2.323887E-5,0E0,0E0,0E0,1.6435736E-6,0E0,4.128553E-5,0E0,0E0,0E0,0E0,0E0,1.334073E-5,1.6278587E-5,6.283913E-5,6.784871E-5,8.112314E-6,3.5943026E-6,0E0,0E0,0E0,0E0,0E0,0E0,0E0,0E0,0E0,0E0,0E0,0E0,0E0,0E0,0E0,0E0],"parents":[2147483647,0,0,1,1,2,2,3,3,5,5,6,6,7,7,8,8,9,9,10,10,12,12,13,13,15,15,16,16,17,17,18,18,20,20,22,22,23,23,24,24,25,25,29,29,30,30,31,31,35,35,37,37,43,43,44,44,45,45,46,46,47,47,48,48],"right_children":[2,4,6,8,-1,10,12,14,16,18,20,-1,22,24,-1,26,28,30,32,-1,34,-1,36,38,40,42,-1,-1,-1,44,46,48,-1,-1,-1,50,-1,52,-1,-1,-1,-1,-1,54,56,58,60,62,64,-1,-1,-1,-1,-1,-1,-1,-1,-1,-1,-1,-1,-1,-1,-1,-1],"split_conditions":[2.3397982E1,1.1297621E1,4.5539875E1,3.7828362E0,4.3364274E-3,3.3391752E0,2.957037E1,1.7888147E-1,7.521104E1,4.2545467E1,2.8938433E1,1.5618074E-3,1.5302298E1,3.9849136E0,-1.5923698E-4,3.4007246E0,3.52708E1,2.7156642E-3,6.1938536E-1,1.5492762E-3,7.283307E1,2.3331911E-4,1.0315872E1,2.7156642E-3,2.7156642E-3,3.55E0,3.5703907E-4,-1.6698893E-4,2.3219129E-5,4.147729E-1,3.558E1,3.84E0,1.418675E-4,2.472119E-4,-1.5786318E-4,5.861092E0,-1.9172774E-4,4.592648E0,2.2638084E-4,-1.7050341E-4,9.424687E-5,1.5402649E-3,5.913114E-4,-3.932193E0,1.402E1,1.1676327E-2,2.4969116E-2,1.2295397E1,6.1901486E-1,-4.348769E-5,1.5315925E-5,1.3044267E-4,-1.1479286E-4,-2.7588513E-4,-2.1718703E-4,-1.9726926E-4,-2.6591992E-4,-1.0461699E-4,-2.3557087E-4,-3.0858527E-4,-2.530587E-4,-1.6331373E-4,-3.022457E-5,-2.9026558E-5,4.7657548E-5],"split_indices":[31,33,6,55,0,12,51,25,16,6,7,0,17,46,0,25,7,6,25,0,16,0,33,6,6,27,0,0,0,56,31,46,0,0,0,7,0,16,0,0,0,0,0,55,18,6,6,18,12,0,0,0,0,0,0,0,0,0,0,0,0,0,0,0,0],"split_type":[0,0,0,0,0,0,0,0,0,0,0,0,0,0,0,0,0,0,0,0,0,0,0,0,0,0,0,0,0,0,0,0,0,0,0,0,0,0,0,0,0,0,0,0,0,0,0,0,0,0,0,0,0,0,0,0,0,0,0,0,0,0,0,0,0],"sum_hessian":[3.663E3,2.388E3,1.275E3,2.386E3,2E0,1.259E3,1.6E1,2.372E3,1.4E1,1.255E3,4E0,4E0,1.2E1,2.367E3,5E0,1.1E1,3E0,1.238E3,1.7E1,1E0,3E0,3E0,9E0,2.364E3,3E0,8E0,3E0,2E0,1E0,4.03E2,8.35E2,1.5E1,2E0,1E0,2E0,5E0,4E0,2.361E3,3E0,2E0,1E0,6E0,2E0,1.77E2,2.26E2,2.07E2,6.28E2,8E0,7E0,4E0,1E0,2.36E3,1E0,1.4E2,3.7E1,2.08E2,1.8E1,1.2E1,1.95E2,8.9E1,5.39E2,6E0,2E0,6E0,1E0],"tree_param":{"num_deleted":"0","num_feature":"60","num_nodes":"65","size_leaf_vector":"1"}},{"base_weights":[2.6563363E-4,2.6844097E-3,-4.3008444E-3,2.5225193E-3,4.12373E-2,-4.6898876E-3,6.6901045E-3,2.5032703E-3,6.708588E-4,4.1918796E-3,2.0107524E-2,-1.7303617E-4,-4.7124797E-3,2.2030212E-3,2.8810464E-3,2.515286E-3,-1.8716116E-4,1.3236915E-3,3.362034E-5,-3.0414807E-3,-4.729539E-3,4.986466E-4,2.4793584E-2,2.5052656E-3,3.9343126E-4,-1.75268E-4,-7.06325E-5,-4.7363867E-3,-1.0776725E-4,5.075987E-3,-2.382968E-3,-2.2645574E-5,1.6680027E-3,1.2555472E-4,-1.482822E-4,-1.7205549E-4,-4.7522387E-3,8.320877E-4,1.1303155E-2,-1.6126529E-3,-3.7220172E-3,-2.5610844E-4,-2.3395287E-4,-1.2614858E-5,1.2608698E-4,7.491913E-4,1.3139372E-4,-1.1489406E-4,-4.5160246E-5,-2.1644033E-4,-6.338828E-5],"categories":[],"categories_nodes":[],"categories_segments":[],"categories_sizes":[],"default_left":[0,0,0,0,0,0,0,0,0,0,0,0,0,0,0,0,0,0,0,0,0,0,0,0,0,0,0,0,0,0,0,0,0,0,0,0,0,0,0,0,0,0,0,0,0,0,0,0,0,0,0],"id":7,"left_children":[1,3,5,7,9,11,13,15,-1,-1,17,-1,19,-1,21,23,-1,-1,-1,25,27,29,31,33,-1,-1,-1,35,-1,37,39,-1,-1,-1,-1,-1,41,43,45,47,49,-1,-1,-1,-1,-1,-1,-1,-1,-1,-1],"loss_changes":[4.0669255E-2,1.4918892E-2,5.4832157E-3,4.6929903E-4,7.315578E-3,1.7901883E-5,6.136271E-3,1.891721E-4,0E0,0E0,9.7203767E-4,0E0,2.0023435E-5,0E0,2.128018E-3,1.0854658E-4,0E0,0E0,0E0,6.3818443E-6,1.0818243E-5,5.1332096E-4,8.802023E-4,8.3596446E-5,0E0,0E0,0E0,8.059666E-6,0E0,3.8700682E-4,1.8753417E-5,0E0,0E0,0E0,0E0,0E0,7.763505E-6,1.8958555E-5,1.5220954E-4,6.1888168E-6,6.4257983E-6,0E0,0E0,0E0,0E0,0E0,0E0,0E0,0E0,0E0,0E0],"parents":[2147483647,0,0,1,1,2,2,3,3,4,4,5,5,6,6,7,7,10,10,12,12,14,14,15,15,19,19,20,20,21,21,22,22,23,23,27,27,29,29,30,30,36,36,37,37,38,38,39,39,40,40],"right_children":[2,4,6,8,10,12,14,16,-1,-1,18,-1,20,-1,22,24,-1,-1,-1,26,28,30,32,34,-1,-1,-1,36,-1,38,40,-1,-1,-1,-1,-1,42,44,46,48,50,-1,-1,-1,-1,-1,-1,-1,-1,-1,-1],"split_conditions":[2.0230886E1,5.3032575E0,1.2800299E0,2.3006177E-2,1.660654E0,2.4678064E1,3.1351147E1,4.5113497E0,6.708588E-4,4.1918796E-3,4.011442E1,-1.7303617E-4,-9.0365095E0,2.2030212E-3,5.3032575E0,2.8745691E1,-1.8716116E-4,1.3236915E-3,3.362034E-5,1.9467918E-2,6.2951474E0,3.71E0,1.5153892E0,3.96E0,3.9343126E-4,-1.75268E-4,-7.06325E-5,2.2035422E0,-1.0776725E-4,5.550514E0,3.691595E1,-2.2645574E-5,1.6680027E-3,1.2555472E-4,-1.482822E-4,-1.7205549E-4,4.4699064E-1,4.5050564E0,4.5430757E-2,1.5928849E1,1.2295397E1,-2.5610844E-4,-2.3395287E-4,-1.2614858E-5,1.2608698E-4,7.491913E-4,1.3139372E-4,-1.1489406E-4,-4.5160246E-5,-2.1644033E-4,-6.338828E-5],"split_indices":[31,55,4,58,8,31,6,53,0,0,13,0,55,0,55,13,0,0,0,5,58,47,4,46,0,0,0,51,0,53,13,0,0,0,0,0,13,55,8,32,18,0,0,0,0,0,0,0,0,0,0],"split_type":[0,0,0,0,0,0,0,0,0,0,0,0,0,0,0,0,0,0,0,0,0,0,0,0,0,0,0,0,0,0,0,0,0,0,0,0,0,0,0,0,0,0,0,0,0,0,0,0,0,0,0],"sum_hessian":[3.68E3,2.406E3,1.274E3,2.397E3,9E0,1.231E3,4.3E1,2.394E3,3E0,2E0,7E0,2.5E1,1.206E3,3E0,4E1,2.39E3,4E0,5E0,2E0,1.4E1,1.192E3,3.7E1,3E0,2.387E3,3E0,1E1,4E0,1.188E3,4E0,1.4E1,2.3E1,1E0,2E0,2.385E3,2E0,1.7E1,1.171E3,9E0,5E0,1.6E1,7E0,1.82E2,9.89E2,6E0,3E0,3E0,2E0,7E0,9E0,5E0,2E0],"tree_param":{"num_deleted":"0","num_feature":"60","num_nodes":"51","size_leaf_vector":"1"}},{"base_weights":[-3.9781805E-4,1.6331341E-3,-4.1833194E-3,1.4856982E-3,4.602836E-2,-4.2941496E-3,2.0471655E-2,1.4449108E-3,1.2251625E-2,2.084964E-2,4.0521505E-3,-4.3951524E-3,6.019914E-3,2.0273812E-3,2.9676384E-4,1.4704756E-3,-3.3858998E-3,1.1317072E-3,6.0517415E-3,1.2188436E-3,4.5983918E-4,-4.4363337E-3,-8.516759E-4,1.3321262E-3,-1.5169916E-4,2.468804E-4,-1.4480267E-4,7.342228E-5,1.5851381E-4,-1.878948E-4,2.6951358E-5,3.4575223E-4,2.1798118E-5,-4.392626E-3,-5.244564E-3,-1.7950395E-3,1.2135874E-4,2.1191993E-4,-2.3277858E-3,-3.8405962E-3,-4.432464E-3,-3.248626E-3,-2.7445788E-4,-2.984543E-3,-3.3926597E-5,-9.7105914E-4,-2.1326552E-4,-1.3906554E-4,-2.0349871E-4,-2.0905408E-4,-2.2759552E-4,-1.7240061E-4,-4.1338335E-5,-1.7082864E-4,-2.0609843E-5,-6.436291E-5,1.5248405E-5],"categories":[],"categories_nodes":[],"categories_segments":[],"categories_sizes":[],"default_left":[0,0,0,0,0,0,0,0,0,0,0,0,0,0,0,0,0,0,0,0,0,0,0,0,0,0,0,0,0,0,0,0,0,0,0,0,0,0,0,0,0,0,0,0,0,0,0,0,0,0,0,0,0,0,0,0,0],"id":8,"left_children":[1,3,5,7,9,11,13,15,17,19,-1,21,23,-1,25,27,29,-1,31,-1,-1,33,35,-1,37,-1,-1,-1,-1,-1,-1,-1,-1,39,41,43,-1,-1,45,47,49,51,-1,53,-1,55,-1,-1,-1,-1,-1,-1,-1,-1,-1,-1,-1],"loss_changes":[2.8668337E-2,1.5817426E-2,3.645638E-3,1.0449518E-3,5.3632744E-3,1.3776068E-3,2.41815E-3,3.0285819E-4,4.4235785E-4,2.2425083E-5,0E0,1.837369E-4,1.6586134E-3,0E0,7.356905E-5,3.6261044E-6,2.1006344E-5,0E0,3.092215E-5,0E0,0E0,2.1828339E-5,5.384725E-5,0E0,1.14951654E-4,0E0,0E0,0E0,0E0,0E0,0E0,0E0,0E0,9.607524E-6,1.1459342E-5,1.5240061E-5,0E0,0E0,1.6887661E-5,1.0304968E-5,1.4686957E-5,1.4952748E-6,0E0,5.2596806E-6,0E0,2.8134436E-6,0E0,0E0,0E0,0E0,0E0,0E0,0E0,0E0,0E0,0E0,0E0],"parents":[2147483647,0,0,1,1,2,2,3,3,4,4,5,5,6,6,7,7,8,8,9,9,11,11,12,12,14,14,15,15,16,16,18,18,21,21,22,22,24,24,33,33,34,34,35,35,38,38,39,39,40,40,41,41,43,43,45,45],"right_children":[2,4,6,8,10,12,14,16,18,20,-1,22,24,-1,26,28,30,-1,32,-1,-1,34,36,-1,38,-1,-1,-1,-1,-1,-1,-1,-1,40,42,44,-1,-1,46,48,50,52,-1,54,-1,56,-1,-1,-1,-1,-1,-1,-1,-1,-1,-1,-1],"split_conditions":[2.3397982E1,3.535954E-1,2.3374228E1,3.6098705E1,1.6455275E1,4.6944492E1,4.31E0,7.362613E-1,2.34E0,1.1648772E1,4.0521505E-3,4.2545467E1,2.7749372E1,2.0273812E-3,3.7833073E1,3.9065555E-5,1.10992985E1,1.1317072E-3,1.4384436E1,1.2188436E-3,4.5983918E-4,4.72E0,4.333104E0,1.3321262E-3,1.5302298E1,2.468804E-4,-1.4480267E-4,7.342228E-5,1.5851381E-4,-1.878948E-4,2.6951358E-5,3.4575223E-4,2.1798118E-5,1.0480903E1,5.9460567E1,1.2295397E1,1.2135874E-4,2.1191993E-4,3.7873085E0,1.9834872E0,2.7156642E-3,3.076E1,-2.7445788E-4,4.5493393E1,-3.3926597E-5,8.737089E0,-2.1326552E-4,-1.3906554E-4,-2.0349871E-4,-2.0905408E-4,-2.2759552E-4,-1.7240061E-4,-4.1338335E-5,-1.7082864E-4,-2.0609843E-5,-6.436291E-5,1.5248405E-5],"split_indices":[31,58,5,7,17,6,47,46,46,5,0,6,51,0,13,5,33,0,5,0,0,46,5,0,17,0,0,0,0,0,0,0,0,17,31,18,0,0,5,59,6,26,0,6,0,7,0,0,0,0,0,0,0,0,0,0,0],"split_type":[0,0,0,0,0,0,0,0,0,0,0,0,0,0,0,0,0,0,0,0,0,0,0,0,0,0,0,0,0,0,0,0,0,0,0,0,0,0,0,0,0,0,0,0,0,0,0,0,0,0,0,0,0,0,0,0,0],"sum_hessian":[3.727E3,2.426E3,1.301E3,2.419E3,7E0,1.296E3,5E0,2.411E3,8E0,5E0,2E0,1.284E3,1.2E1,2E0,3E0,2.399E3,1.2E1,2E0,6E0,3E0,2E0,1.269E3,1.5E1,2E0,1E1,1E0,2E0,2.398E3,1E0,1.1E1,1E0,5E0,1E0,1.21E3,5.9E1,1.2E1,3E0,3E0,7E0,8.8E1,1.122E3,8E0,5.1E1,5E0,7E0,5E0,2E0,1.8E1,7E1,3.73E2,7.49E2,7E0,1E0,4E0,1E0,4E0,1E0],"tree_param":{"num_deleted":"0","num_feature":"60","num_nodes":"57","size_leaf_vector":"1"}},{"base_weights":[1.7779271E-4,2.389198E-3,-3.946697E-3,2.2494497E-3,4.9103126E-2,-4.0571233E-3,2.4736285E-2,2.2104094E-3,1.2331179E-3,1.0869716E-3,3.917079E-3,-4.190498E-3,6.599693E-3,2.0311025E-3,1.959802E-3,2.1913273E-3,7.5322874E-3,-4.237743E-3,-7.266523E-4,1.3977753E-3,-4.7899425E-4,-8.8375695E-5,2.4070838E-4,2.2129219E-3,-3.0766234E-3,5.510508E-4,3.234846E-3,-3.9932895E-3,-4.3749465E-3,-1.3049438E-3,1.2998935E-4,3.3825045E-3,-2.5710496E-3,1.10781424E-4,-1.0281093E-4,-1.7676299E-4,2.6277592E-5,1.9155131E-4,2.1253154E-5,-4.110838E-3,-3.3341122E-3,-3.8911665E-3,-4.4958577E-3,-5.7722867E-4,-2.7904715E-3,2.3239272E-4,4.948266E-5,-5.2865566E-5,-2.6230447E-4,-2.1987762E-4,-1.8965531E-4,-3.5823232E-5,-1.680078E-4,-2.0319386E-4,-8.8137545E-5,-2.75313E-4,-2.1607583E-4,-3.850912E-5,3.863154E-5,-6.0566704E-6,-1.7137614E-4],"categories":[],"categories_nodes":[],"categories_segments":[],"categories_sizes":[],"default_left":[0,0,0,0,0,0,0,0,0,0,0,0,0,0,0,0,0,0,0,0,0,0,0,0,0,0,0,0,0,0,0,0,0,0,0,0,0,0,0,0,0,0,0,0,0,0,0,0,0,0,0,0,0,0,0,0,0,0,0,0,0],"id":9,"left_children":[1,3,5,7,9,11,13,15,-1,-1,-1,17,19,21,-1,23,25,27,29,-1,31,-1,-1,33,35,-1,37,39,41,43,-1,45,47,-1,-1,-1,-1,-1,-1,49,51,53,55,57,59,-1,-1,-1,-1,-1,-1,-1,-1,-1,-1,-1,-1,-1,-1,-1,-1],"loss_changes":[3.310924E-2,1.531566E-2,4.113393E-3,2.007882E-3,3.8974024E-3,1.8228237E-3,1.5619458E-3,2.2254791E-4,0E0,0E0,0E0,2.0115636E-4,2.4321282E-3,4.02245E-5,0E0,2.738014E-4,8.428958E-5,2.3817644E-5,3.8018312E-5,0E0,1.13716684E-4,0E0,0E0,3.1570904E-5,1.8378843E-5,0E0,6.747254E-6,2.1471642E-5,2.8014183E-5,1.5685917E-5,0E0,1.0539206E-5,3.089704E-5,0E0,0E0,0E0,0E0,0E0,0E0,1.8028077E-5,2.6373891E-6,5.2755466E-5,8.4714964E-5,3.7205905E-6,8.08734E-6,0E0,0E0,0E0,0E0,0E0,0E0,0E0,0E0,0E0,0E0,0E0,0E0,0E0,0E0,0E0,0E0],"parents":[2147483647,0,0,1,1,2,2,3,3,4,4,5,5,6,6,7,7,11,11,12,12,13,13,15,15,16,16,17,17,18,18,20,20,23,23,24,24,26,26,27,27,28,28,29,29,31,31,32,32,39,39,40,40,41,41,42,42,43,43,44,44],"right_children":[2,4,6,8,10,12,14,16,-1,-1,-1,18,20,22,-1,24,26,28,30,-1,32,-1,-1,34,36,-1,38,40,42,44,-1,46,48,-1,-1,-1,-1,-1,-1,50,52,54,56,58,60,-1,-1,-1,-1,-1,-1,-1,-1,-1,-1,-1,-1,-1,-1,-1,-1],"split_conditions":[2.3397982E1,3.535954E-1,2.5373192E1,4.73E0,1.10992985E1,1.5179958E0,1.1391649E0,3.6098705E1,1.2331179E-3,1.0869716E-3,3.917079E-3,1.4181821E0,5.427506E-3,1.0450382E0,1.959802E-3,4.237725E0,3.1055288E0,2.78E0,3.2455546E-1,1.3977753E-3,9.031034E0,-8.8375695E-5,2.4070838E-4,3.9065555E-5,1.10992985E1,5.510508E-4,1.5179958E0,3.961712E1,9.052214E-5,3.309276E-1,1.2998935E-4,1.5791017E0,3.7873085E0,1.10781424E-4,-1.0281093E-4,-1.7676299E-4,2.6277592E-5,1.9155131E-4,2.1253154E-5,9.052214E-5,1.81E0,4.52E0,8.323039E-4,2.4424505E1,3.9065555E-5,2.3239272E-4,4.948266E-5,-5.2865566E-5,-2.6230447E-4,-2.1987762E-4,-1.8965531E-4,-3.5823232E-5,-1.680078E-4,-2.0319386E-4,-8.8137545E-5,-2.75313E-4,-2.1607583E-4,-3.850912E-5,3.863154E-5,-6.0566704E-6,-1.7137614E-4],"split_indices":[31,58,5,37,33,4,4,7,0,0,0,4,8,4,0,53,8,37,57,0,33,0,0,8,33,0,4,16,4,58,0,4,5,0,0,0,0,0,0,4,27,37,4,7,5,0,0,0,0,0,0,0,0,0,0,0,0,0,0,0,0],"split_type":[0,0,0,0,0,0,0,0,0,0,0,0,0,0,0,0,0,0,0,0,0,0,0,0,0,0,0,0,0,0,0,0,0,0,0,0,0,0,0,0,0,0,0,0,0,0,0,0,0,0,0,0,0,0,0,0,0,0,0,0,0],"sum_hessian":[3.628E3,2.362E3,1.266E3,2.356E3,6E0,1.262E3,4E0,2.353E3,3E0,4E0,2E0,1.247E3,1.5E1,2E0,2E0,2.346E3,7E0,1.23E3,1.7E1,3E0,1.2E1,1E0,1E0,2.337E3,9E0,3E0,4E0,4.53E2,7.77E2,1.5E1,2E0,4E0,8E0,2.336E3,1E0,8E0,1E0,3E0,1E0,3.8E2,7.3E1,1.62E2,6.15E2,1.1E1,4E0,2E0,2E0,6E0,2E0,1.93E2,1.87E2,1E0,7.2E1,1.49E2,1.3E1,8.6E1,5.29E2,1E1,1E0,1E0,3E0],"tree_param":{"num_deleted":"0","num_feature":"60","num_nodes":"61","size_leaf_vector":"1"}},{"base_weights":[7.587138E-5,2.03243E-3,-3.5790633E-3,1.961598E-3,4.3095844E-3,-3.8759592E-3,1.5437936E-2,1.9033417E-3,1.2534329E-2,-3.9618304E-3,1.9819962E-3,5.812198E-5,2.8016137E-2,9.679026E-5,-2.0944407E-4,3.277187E-2,-1.0145342E-4,-3.991092E-3,-2.2995486E-3,-8.541961E-4,5.9885355E-3,1.868872E-4,-1.3290015E-3,1.6536573E-3,5.449043E-4,4.077727E-4,1.8443555E-3,3.2380496E-3,-1.7103329E-4,-3.822661E-3,-4.183248E-3,-2.4650346E-3,3.766576E-5,-9.513902E-5,-2.93248E-4,1.5008108E-4,3.5901798E-4,5.686656E-7,-8.888443E-5,2.3894248E-4,3.0894982E-5,-3.8498996E-3,-1.6508198E-3,-4.0522665E-3,-4.7491714E-3,-2.887371E-3,-3.9359307E-5,-2.575277E-5,3.703027E-5,-1.9647196E-4,-1.4718533E-4,-1.5182355E-4,-3.1159394E-5,-2.4066113E-4,-1.9680122E-4,-6.4398606E-5,-2.3855617E-4,-5.059247E-5,-1.5292852E-4],"categories":[],"categories_nodes":[],"categories_segments":[],"categories_sizes":[],"default_left":[0,0,0,0,0,0,0,0,0,0,0,0,0,0,0,0,0,0,0,0,0,0,0,0,0,0,0,0,0,0,0,0,0,0,0,0,0,0,0,0,0,0,0,0,0,0,0,0,0,0,0,0,0,0,0,0,0,0,0],"id":10,"left_children":[1,3,5,7,-1,9,11,13,15,17,19,21,23,-1,-1,25,27,29,31,33,35,-1,37,-1,-1,-1,-1,39,-1,41,43,45,-1,-1,47,-1,-1,-1,-1,-1,-1,49,51,53,55,57,-1,-1,-1,-1,-1,-1,-1,-1,-1,-1,-1,-1,-1],"loss_changes":[2.6416264E-2,1.4173495E-2,7.331975E-3,1.4574472E-3,0E0,6.4619817E-4,3.8673785E-3,4.8138294E-4,3.3276477E-3,5.167164E-5,2.2101839E-4,5.6008368E-5,5.91794E-4,0E0,0E0,2.056812E-4,1.1083696E-4,2.3754314E-5,1.3981902E-5,6.5004288E-6,6.926275E-6,0E0,4.8314896E-6,0E0,0E0,0E0,0E0,1.7232793E-5,0E0,3.3043325E-5,2.2488646E-5,1.4025281E-5,0E0,0E0,2.4452993E-6,0E0,0E0,0E0,0E0,0E0,0E0,3.5787933E-5,1.2347102E-5,2.2097956E-5,1.4528632E-6,2.6847847E-6,0E0,0E0,0E0,0E0,0E0,0E0,0E0,0E0,0E0,0E0,0E0,0E0,0E0],"parents":[2147483647,0,0,1,1,2,2,3,3,5,5,6,6,7,7,8,8,9,9,10,10,11,11,12,12,15,15,16,16,17,17,18,18,19,19,20,20,22,22,27,27,29,29,30,30,31,31,34,34,41,41,42,42,43,43,44,44,45,45],"right_children":[2,4,6,8,-1,10,12,14,16,18,20,22,24,-1,-1,26,28,30,32,34,36,-1,38,-1,-1,-1,-1,40,-1,42,44,46,-1,-1,48,-1,-1,-1,-1,-1,-1,50,52,54,56,58,-1,-1,-1,-1,-1,-1,-1,-1,-1,-1,-1,-1,-1],"split_conditions":[9.335811E0,1.9513458E0,1.5648164E0,2.6077776E1,4.3095844E-3,1.5107551E0,1.2615111E1,1.62519E-2,4.8859053E0,3.2832268E1,2.1297504E1,1.5302298E1,1.1648772E1,9.679026E-5,-2.0944407E-4,1.6943645E1,9.526878E0,1.5401453E-3,5.3032575E0,2.7266966E1,2.9085527E1,1.868872E-4,1.7951487E-2,1.6536573E-3,5.449043E-4,4.077727E-4,1.8443555E-3,1.2433966E0,-1.7103329E-4,4.82E0,3.037E1,4.14E0,3.766576E-5,-9.513902E-5,4.333104E0,1.5008108E-4,3.5901798E-4,5.686656E-7,-8.888443E-5,2.3894248E-4,3.0894982E-5,1.2503065E-3,2.5030499E0,2.7623854E-3,3.7E0,5.3576696E-1,-3.9359307E-5,-2.575277E-5,3.703027E-5,-1.9647196E-4,-1.4718533E-4,-1.5182355E-4,-3.1159394E-5,-2.4066113E-4,-1.9680122E-4,-6.4398606E-5,-2.3855617E-4,-5.059247E-5,-1.5292852E-4],"split_indices":[26,4,4,7,0,4,7,53,49,6,7,17,5,0,0,5,8,4,49,13,13,0,58,0,0,0,0,4,0,37,26,27,0,0,5,0,0,0,0,0,0,4,53,4,47,7,0,0,0,0,0,0,0,0,0,0,0,0,0],"split_type":[0,0,0,0,0,0,0,0,0,0,0,0,0,0,0,0,0,0,0,0,0,0,0,0,0,0,0,0,0,0,0,0,0,0,0,0,0,0,0,0,0,0,0,0,0,0,0,0,0,0,0,0,0,0,0,0,0,0,0],"sum_hessian":[3.692E3,2.405E3,1.287E3,2.404E3,1E0,1.268E3,1.9E1,2.392E3,1.2E1,1.25E3,1.8E1,9E0,1E1,2.38E3,1.2E1,4E0,8E0,1.227E3,2.3E1,1.1E1,7E0,2E0,7E0,7E0,3E0,1E0,3E0,4E0,4E0,6.65E2,5.62E2,2.2E1,1E0,3E0,8E0,3E0,4E0,2E0,5E0,2E0,2E0,6.56E2,9E0,4.63E2,9.9E1,1.7E1,5E0,7E0,1E0,6E2,5.6E1,3E0,6E0,5.6E1,4.07E2,1E0,9.8E1,2E0,1.5E1],"tree_param":{"num_deleted":"0","num_feature":"60","num_nodes":"59","size_leaf_vector":"1"}},{"base_weights":[-2.9029665E-4,1.4011041E-3,-3.542967E-3,1.2737904E-3,4.572439E-2,-3.7676217E-3,4.0817624E-3,1.2187568E-3,1.3355439E-2,9.88434E-4,3.6871221E-3,-3.7779252E-3,3.6061648E-4,-1.3540969E-3,1.4221356E-2,6.185215E-5,-2.5811982E-3,1.1687645E-3,6.6760816E-3,-3.5205972E-3,-3.9044926E-3,-1.28437E-4,2.2871714E-4,2.1753894E-4,-1.7730825E-3,2.2292626E-3,2.7840588E-2,-3.144514E-3,9.0381924E-5,8.933942E-3,2.184736E-3,-4.076126E-3,-3.0749089E-3,-3.3926105E-3,-4.0685046E-3,-2.5223952E-3,-4.7180522E-4,2.0914378E-4,4.092524E-4,-3.1228876E-5,1.6829269E-3,-1.7791793E-4,2.4848245E-5,5.4288417E-4,2.0161104E-4,1.3234945E-4,1.9949443E-5,-9.724904E-5,-4.125063E-3,-2.966166E-3,-4.479309E-3,-6.126949E-5,-3.5210107E-3,-4.9742316E-3,-3.8999908E-3,-1.7342049E-4,-1.5063402E-3,5.3447533E-5,-3.808863E-5,1.5928425E-3,-1.0833676E-4,-2.1652655E-4,-1.7719597E-4,-1.6232367E-4,-8.4377636E-5,-7.834391E-5,-2.6979655E-4,-1.3395044E-4,-1.8517717E-4,-2.81112E-4,-1.9207549E-4,-1.8770213E-4,-2.2406355E-4,-1.0237763E-4,-3.3192988E-5,-1.6202173E-5,1.07653745E-4],"categories":[],"categories_nodes":[],"categories_segments":[],"categories_sizes":[],"default_left":[0,0,0,0,0,0,0,0,0,0,0,0,0,0,0,0,0,0,0,0,0,0,0,0,0,0,0,0,0,0,0,0,0,0,0,0,0,0,0,0,0,0,0,0,0,0,0,0,0,0,0,0,0,0,0,0,0,0,0,0,0,0,0,0,0,0,0,0,0,0,0,0,0,0,0,0,0],"id":11,"left_children":[1,3,5,7,9,11,13,15,17,-1,-1,19,21,23,25,-1,27,-1,29,31,33,-1,-1,-1,35,37,39,41,-1,43,45,47,49,51,53,55,57,59,-1,-1,-1,-1,-1,-1,-1,-1,-1,-1,61,63,65,-1,67,69,71,-1,73,-1,-1,75,-1,-1,-1,-1,-1,-1,-1,-1,-1,-1,-1,-1,-1,-1,-1,-1,-1],"loss_changes":[2.0520316E-2,1.378959E-2,2.2010803E-3,1.6113897E-3,3.632809E-3,5.4106116E-5,2.058601E-3,1.7260178E-4,5.801327E-4,0E0,0E0,2.6542693E-5,6.112431E-5,6.747081E-5,2.0611365E-3,0E0,3.535176E-5,0E0,6.1608356E-5,9.096041E-5,5.5040233E-5,0E0,0E0,0E0,2.2211447E-5,9.45393E-5,1.0146755E-3,1.8345447E-5,0E0,3.3676042E-6,2.245748E-6,1.10622495E-5,2.2755237E-5,5.273125E-5,7.4618496E-5,9.193442E-6,5.281987E-6,2.6463773E-5,0E0,0E0,0E0,0E0,0E0,0E0,0E0,0E0,0E0,0E0,5.9069134E-6,7.408718E-5,3.158924E-5,0E0,1.9740779E-5,4.6665315E-5,2.763141E-5,0E0,2.7443602E-6,0E0,0E0,6.0671973E-6,0E0,0E0,0E0,0E0,0E0,0E0,0E0,0E0,0E0,0E0,0E0,0E0,0E0,0E0,0E0,0E0,0E0],"parents":[2147483647,0,0,1,1,2,2,3,3,4,4,5,5,6,6,7,7,8,8,11,11,12,12,13,13,14,14,16,16,18,18,19,19,20,20,24,24,25,25,26,26,27,27,29,29,30,30,31,31,32,32,33,33,34,34,35,35,36,36,37,37,48,48,49,49,50,50,52,52,53,53,54,54,56,56,59,59],"right_children":[2,4,6,8,10,12,14,16,18,-1,-1,20,22,24,26,-1,28,-1,30,32,34,-1,-1,-1,36,38,40,42,-1,44,46,48,50,52,54,56,58,60,-1,-1,-1,-1,-1,-1,-1,-1,-1,-1,62,64,66,-1,68,70,72,-1,74,-1,-1,76,-1,-1,-1,-1,-1,-1,-1,-1,-1,-1,-1,-1,-1,-1,-1,-1,-1],"split_conditions":[2.3397982E1,3.535954E-1,1.2800299E0,3.6098705E1,1.6455275E1,3.0720707E1,3.639654E0,7.362613E-1,3.55E0,9.88434E-4,3.6871221E-3,9.052214E-5,1.0959427E0,3.42E0,1.6190725E1,6.185215E-5,1.109E1,1.1687645E-3,1.2790827E1,4.147729E-1,3.558E1,-1.28437E-4,2.2871714E-4,2.1753894E-4,4.11E0,1.5153892E0,3.51E0,3.52708E1,9.0381924E-5,3.39E0,1.5179958E0,2.4678064E1,5.1603003E0,3.892109E-4,8.323039E-4,1.5107551E0,3.6E0,2.6077776E1,4.092524E-4,-3.1228876E-5,1.6829269E-3,-1.7791793E-4,2.4848245E-5,5.4288417E-4,2.0161104E-4,1.3234945E-4,1.9949443E-5,-9.724904E-5,-4.381264E0,6.085E1,5.7925747E1,-6.126949E-5,-7.28534E0,3.63E0,3.037E1,-1.7342049E-4,5.290945E-2,5.3447533E-5,-3.808863E-5,1.3946357E1,-1.0833676E-4,-2.1652655E-4,-1.7719597E-4,-1.6232367E-4,-8.4377636E-5,-7.834391E-5,-2.6979655E-4,-1.3395044E-4,-1.8517717E-4,-2.81112E-4,-1.9207549E-4,-1.8770213E-4,-2.2406355E-4,-1.0237763E-4,-3.3192988E-5,-1.6202173E-5,1.07653745E-4],"split_indices":[31,58,4,7,17,7,55,46,27,0,0,4,4,47,17,0,18,0,56,56,31,0,0,0,27,4,27,7,0,47,4,31,53,4,4,4,47,7,0,0,0,0,0,0,0,0,0,0,55,31,31,0,55,47,26,0,25,0,0,7,0,0,0,0,0,0,0,0,0,0,0,0,0,0,0,0,0],"split_type":[0,0,0,0,0,0,0,0,0,0,0,0,0,0,0,0,0,0,0,0,0,0,0,0,0,0,0,0,0,0,0,0,0,0,0,0,0,0,0,0,0,0,0,0,0,0,0,0,0,0,0,0,0,0,0,0,0,0,0,0,0,0,0,0,0,0,0,0,0,0,0,0,0,0,0,0,0],"sum_hessian":[3.728E3,2.453E3,1.275E3,2.447E3,6E0,1.239E3,3.6E1,2.437E3,1E1,4E0,2E0,1.236E3,3E0,2.4E1,1.2E1,2.426E3,1.1E1,3E0,7E0,4.17E2,8.19E2,2E0,1E0,1E0,2.3E1,7E0,5E0,1E1,1E0,4E0,3E0,1.82E2,2.35E2,2.04E2,6.15E2,1.4E1,9E0,6E0,1E0,1E0,4E0,9E0,1E0,2E0,2E0,2E0,1E0,5E0,1.77E2,2.21E2,1.4E1,1.2E1,1.92E2,9.2E1,5.23E2,6E0,8E0,1E0,8E0,4E0,2E0,1.26E2,5.1E1,1.8E2,4.1E1,4E0,1E1,3.7E1,1.55E2,5.6E1,3.6E1,4.24E2,9.9E1,4E0,4E0,1E0,3E0],"tree_param":{"num_deleted":"0","num_feature":"60","num_nodes":"77","size_leaf_vector":"1"}},{"base_weights":[9.8122524E-5,1.9754288E-3,-3.4644022E-3,1.8424311E-3,3.3710636E-2,-3.5389964E-3,8.745215E-3,1.8097695E-3,1.1386102E-2,3.564218E-3,1.540666E-2,-3.581398E-3,1.0702271E-2,1.4101864E-3,-2.441577E-3,1.8224437E-3,-1.3862363E-4,1.4089332E-3,8.5453084E-4,1.2272066E-3,5.01535E-3,-3.6509172E-3,-2.247148E-3,1.2676072E-3,-1.3158677E-4,-4.2562235E-5,-2.5983094E-4,1.8273855E-3,-1.3576941E-4,-9.087269E-5,1.5451066E-4,3.8882735E-4,2.9118513E-5,-3.6053585E-3,-4.2929626E-3,1.6753223E-3,-3.077194E-3,9.1070804E-5,2.152856E-4,-3.720979E-3,-3.3087481E-3,-2.3916718E-3,-2.2435922E-4,7.198715E-3,-9.656659E-4,7.437154E-4,-3.2384545E-3,-1.7493036E-4,-2.0459002E-4,-9.8414195E-5,-1.7095484E-4,-4.7297497E-5,-1.3347997E-4,1.0874998E-4,4.0741437E-4,4.445302E-5,-8.112982E-5,1.3978752E-4,-8.400886E-5,-1.7944093E-4,-1.01556085E-4],"categories":[],"categories_nodes":[],"categories_segments":[],"categories_sizes":[],"default_left":[0,0,0,0,0,0,0,0,0,0,0,0,0,0,0,0,0,0,0,0,0,0,0,0,0,0,0,0,0,0,0,0,0,0,0,0,0,0,0,0,0,0,0,0,0,0,0,0,0,0,0,0,0,0,0,0,0,0,0,0,0],"id":12,"left_children":[1,3,5,7,9,11,13,15,17,-1,19,21,23,-1,25,27,-1,29,-1,-1,31,33,35,-1,-1,-1,-1,37,-1,-1,-1,-1,-1,39,41,43,45,-1,-1,47,49,51,-1,53,55,57,59,-1,-1,-1,-1,-1,-1,-1,-1,-1,-1,-1,-1,-1,-1],"loss_changes":[2.4611812E-2,1.01098E-2,1.1876235E-3,7.278137E-4,5.779232E-3,8.0099516E-4,1.810288E-3,1.4408678E-4,4.3123972E-4,0E0,6.3650496E-4,1.0867044E-4,8.480862E-4,0E0,2.1864998E-5,5.8512203E-5,0E0,2.7314161E-5,0E0,0E0,5.6672812E-5,1.9507483E-5,2.1678436E-4,0E0,0E0,0E0,0E0,2.745632E-5,0E0,0E0,0E0,0E0,0E0,2.6199967E-5,1.6594306E-5,1.8199814E-4,3.568112E-5,0E0,0E0,5.165208E-5,4.1195657E-5,1.0909498E-6,0E0,1.3590034E-6,1.2408423E-5,1.961909E-5,1.4707039E-5,0E0,0E0,0E0,0E0,0E0,0E0,0E0,0E0,0E0,0E0,0E0,0E0,0E0,0E0],"parents":[2147483647,0,0,1,1,2,2,3,3,4,4,5,5,6,6,7,7,8,8,10,10,11,11,12,12,14,14,15,15,17,17,20,20,21,21,22,22,27,27,33,33,34,34,35,35,36,36,39,39,40,40,41,41,43,43,44,44,45,45,46,46],"right_children":[2,4,6,8,10,12,14,16,18,-1,20,22,24,-1,26,28,-1,30,-1,-1,32,34,36,-1,-1,-1,-1,38,-1,-1,-1,-1,-1,40,42,44,46,-1,-1,48,50,52,-1,54,56,58,60,-1,-1,-1,-1,-1,-1,-1,-1,-1,-1,-1,-1,-1,-1],"split_conditions":[2.3397982E1,5.3032575E0,5.3032575E0,1.249E1,1.660654E0,3.6247418E0,3.7E0,3.76E0,8.867054E-1,3.564218E-3,1.4860268E1,1.0577721E1,2.8938433E1,1.4101864E-3,1.3946357E1,3.86E0,-1.3862363E-4,9.697993E-1,8.5453084E-4,1.2272066E-3,2.0549192E0,6.3157288E1,1.2615111E1,1.2676072E-3,-1.3158677E-4,-4.2562235E-5,-2.5983094E-4,3.9065555E-5,-1.3576941E-4,-9.087269E-5,1.5451066E-4,3.8882735E-4,2.9118513E-5,5.167796E1,2.4837842E0,2.8028075E-2,1.3965659E1,9.1070804E-5,2.152856E-4,2.9E0,1.5358244E1,4.51E0,-2.2435922E-4,1.1619161E1,7.9633385E-2,2.6077776E1,4.09E0,-1.7493036E-4,-2.0459002E-4,-9.8414195E-5,-1.7095484E-4,-4.7297497E-5,-1.3347997E-4,1.0874998E-4,4.0741437E-4,4.445302E-5,-8.112982E-5,1.3978752E-4,-8.400886E-5,-1.7944093E-4,-1.01556085E-4],"split_indices":[31,55,55,26,8,12,27,47,12,0,32,7,7,0,7,27,0,7,0,0,12,31,7,0,0,0,0,7,0,0,0,0,0,31,53,12,32,0,0,37,17,38,0,7,12,7,46,0,0,0,0,0,0,0,0,0,0,0,0,0,0],"split_type":[0,0,0,0,0,0,0,0,0,0,0,0,0,0,0,0,0,0,0,0,0,0,0,0,0,0,0,0,0,0,0,0,0,0,0,0,0,0,0,0,0,0,0,0,0,0,0,0,0,0,0,0,0,0,0,0,0,0,0,0,0],"sum_hessian":[3.678E3,2.409E3,1.269E3,2.4E3,9E0,1.262E3,7E0,2.393E3,7E0,2E0,7E0,1.259E3,3E0,2E0,5E0,2.387E3,6E0,3E0,4E0,3E0,4E0,1.195E3,6.4E1,1E0,2E0,4E0,1E0,2.385E3,2E0,1E0,2E0,2E0,2E0,1.122E3,7.3E1,1.1E1,5.3E1,2.381E3,4E0,7.99E2,3.23E2,8E0,6.5E1,3E0,8E0,2E0,5.1E1,5.06E2,2.93E2,2.6E1,2.97E2,2E0,6E0,1E0,2E0,2E0,6E0,1E0,1E0,3.8E1,1.3E1],"tree_param":{"num_deleted":"0","num_feature":"60","num_nodes":"61","size_leaf_vector":"1"}},{"base_weights":[-9.4969815E-5,1.561012E-3,-3.194058E-3,1.4741453E-3,1.4428285E-2,-3.3260463E-3,1.8273812E-2,1.4844988E-3,-1.441808E-4,1.7939847E-2,-5.9136236E-4,-3.4471909E-3,9.731882E-3,1.882044E-3,-8.746067E-4,1.4891084E-3,-1.3344023E-4,2.3234118E-2,7.890845E-3,-1.0135807E-4,2.814789E-5,-3.4819234E-3,-9.843822E-4,1.1470269E-3,1.3307419E-3,-1.6780735E-4,2.2628884E-4,1.4911678E-3,-8.530614E-5,1.293911E-3,5.1006046E-4,1.665285E-4,4.66917E-4,-3.3955593E-3,-3.8251344E-3,-2.2147084E-3,-3.867866E-4,3.5894634E-3,-6.724352E-4,1.486857E-3,1.6207313E-4,-8.82995E-5,-3.4084981E-3,-2.9048002E-3,-3.9921715E-3,-1.4707014E-4,-2.5377316E-5,-3.6023637E-5,3.5794303E-4,2.0529756E-4,5.1000017E-5,3.846114E-6,-5.3317228E-5,7.445841E-5,-1.00055804E-4,-1.707634E-4,-4.3708133E-5,-8.0457576E-5,-2.0923871E-4,-2.17536E-4,-1.6871573E-4,-1.98187E-5,4.964729E-5],"categories":[],"categories_nodes":[],"categories_segments":[],"categories_sizes":[],"default_left":[0,0,0,0,0,0,0,0,0,0,0,0,0,0,0,0,0,0,0,0,0,0,0,0,0,0,0,0,0,0,0,0,0,0,0,0,0,0,0,0,0,0,0,0,0,0,0,0,0,0,0,0,0,0,0,0,0,0,0,0,0,0,0],"id":13,"left_children":[1,3,5,7,9,11,13,15,-1,17,19,21,23,-1,25,27,-1,29,31,-1,-1,33,35,37,-1,-1,-1,39,-1,-1,-1,-1,-1,41,43,45,47,49,51,53,-1,-1,55,57,59,-1,-1,-1,61,-1,-1,-1,-1,-1,-1,-1,-1,-1,-1,-1,-1,-1,-1],"loss_changes":[1.8921662E-2,2.6646503E-3,3.699001E-3,1.1202274E-4,8.5448776E-4,2.0536315E-3,2.9997106E-3,4.9596652E-5,0E0,5.082907E-4,7.7706945E-6,1.0486413E-4,1.7087247E-3,0E0,8.219551E-5,1.8211547E-5,0E0,1.1693686E-5,8.503819E-6,0E0,0E0,2.4003908E-5,1.31128945E-5,4.240897E-5,0E0,0E0,0E0,1.3138168E-5,0E0,0E0,0E0,0E0,0E0,1.5192665E-5,2.5760382E-5,5.950611E-6,3.7369718E-6,1.1203119E-6,1.8530993E-6,2.2134278E-5,0E0,0E0,1.411885E-5,6.12603E-5,3.0290103E-5,0E0,0E0,0E0,2.7885444E-6,0E0,0E0,0E0,0E0,0E0,0E0,0E0,0E0,0E0,0E0,0E0,0E0,0E0,0E0],"parents":[2147483647,0,0,1,1,2,2,3,3,4,4,5,5,6,6,7,7,9,9,10,10,11,11,12,12,14,14,15,15,17,17,18,18,21,21,22,22,23,23,27,27,33,33,34,34,35,35,36,36,37,37,38,38,39,39,42,42,43,43,44,44,48,48],"right_children":[2,4,6,8,10,12,14,16,-1,18,20,22,24,-1,26,28,-1,30,32,-1,-1,34,36,38,-1,-1,-1,40,-1,-1,-1,-1,-1,42,44,46,48,50,52,54,-1,-1,56,58,60,-1,-1,-1,62,-1,-1,-1,-1,-1,-1,-1,-1,-1,-1,-1,-1,-1,-1],"split_conditions":[2.3397982E1,3.7828362E0,3.0874524E0,4.5113497E0,7.521104E1,1.5648164E0,1.464119E1,1.7888147E-1,-1.441808E-4,1.1083883E0,3.52708E1,1.4181821E0,1.2615111E1,1.882044E-3,3.0720707E1,4.25E0,-1.3344023E-4,4.0230038E1,1.5152084E0,-1.0135807E-4,2.814789E-5,1.8176142E1,8.165116E0,1.5302298E1,1.3307419E-3,-1.6780735E-4,2.2628884E-4,9.052214E-5,-8.530614E-5,1.293911E-3,5.1006046E-4,1.665285E-4,4.66917E-4,7.2420845E0,9.052214E-5,1.5164465E0,6.046029E-1,1.5791017E0,9.565593E0,4.592648E0,1.6207313E-4,-8.82995E-5,5.3032575E0,4.68E0,3.5674984E-3,-1.4707014E-4,-2.5377316E-5,-3.6023637E-5,3.44E0,2.0529756E-4,5.1000017E-5,3.846114E-6,-5.3317228E-5,7.445841E-5,-1.00055804E-4,-1.707634E-4,-4.3708133E-5,-8.0457576E-5,-2.0923871E-4,-2.17536E-4,-1.6871573E-4,-1.98187E-5,4.964729E-5],"split_indices":[31,55,12,53,16,4,56,25,0,25,7,4,7,0,7,27,0,7,4,0,0,39,7,17,0,0,0,4,0,0,0,0,0,16,4,4,8,4,33,16,0,0,55,27,8,0,0,0,38,0,0,0,0,0,0,0,0,0,0,0,0,0,0],"split_type":[0,0,0,0,0,0,0,0,0,0,0,0,0,0,0,0,0,0,0,0,0,0,0,0,0,0,0,0,0,0,0,0,0,0,0,0,0,0,0,0,0,0,0,0,0,0,0,0,0,0,0,0,0,0,0,0,0,0,0,0,0,0,0],"sum_hessian":[3.685E3,2.402E3,1.283E3,2.387E3,1.5E1,1.276E3,7E0,2.382E3,5E0,1.2E1,3E0,1.265E3,1.1E1,3E0,4E0,2.38E3,2E0,7E0,5E0,1E0,2E0,1.247E3,1.8E1,8E0,3E0,3E0,1E0,2.379E3,1E0,5E0,2E0,2E0,3E0,1.005E3,2.42E2,5E0,1.3E1,3E0,5E0,2.375E3,4E0,9E0,9.96E2,4E1,2.02E2,3E0,2E0,9E0,4E0,2E0,1E0,2E0,3E0,2.374E3,1E0,9.93E2,3E0,2.1E1,1.9E1,1.24E2,7.8E1,2E0,2E0],"tree_param":{"num_deleted":"0","num_feature":"60","num_nodes":"63","size_leaf_vector":"1"}},{"base_weights":[2.0836534E-4,1.9739368E-3,-3.0860768E-3,1.8727675E-3,3.6580924E-2,-3.3008452E-3,3.4099955E-3,1.8322665E-3,1.3824434E-2,1.5878696E-2,4.0198574E-3,-3.3100501E-3,4.0785526E-4,-5.14824E-4,2.3107639E-2,9.237127E-5,-1.9861131E-3,1.0439893E-3,5.415265E-3,9.4807206E-4,3.2377345E-4,-3.2563242E-3,-3.855036E-3,-1.198974E-4,2.2063163E-4,6.212299E-3,-1.3146321E-3,-1.3556737E-4,1.6988751E-3,-1.4685464E-4,1.746295E-4,1.15359144E-4,3.3591295E-4,-3.3511883E-3,-2.9709847E-3,-3.0515585E-3,-2.1016163E-4,3.4710953E-5,3.9101267E-4,-5.8841624E-4,-4.4845343E-3,6.866881E-5,-8.5540254E-5,-3.1251423E-3,-3.6191319E-3,-1.8321443E-6,-3.0010066E-3,-5.9969665E-5,-1.6910059E-4,-1.2540413E-3,9.561301E-4,-1.19018405E-4,-2.8976225E-4,-1.6479135E-4,-1.3408635E-4,-2.0423089E-4,-1.5636932E-4,-2.443716E-5,-1.517101E-4,-1.19389755E-4,-2.2994098E-5,-2.3515398E-5,1.4283774E-4],"categories":[],"categories_nodes":[],"categories_segments":[],"categories_sizes":[],"default_left":[0,0,0,0,0,0,0,0,0,0,0,0,0,0,0,0,0,0,0,0,0,0,0,0,0,0,0,0,0,0,0,0,0,0,0,0,0,0,0,0,0,0,0,0,0,0,0,0,0,0,0,0,0,0,0,0,0,0,0,0,0,0,0],"id":14,"left_children":[1,3,5,7,9,11,13,15,17,19,-1,21,23,25,27,-1,29,-1,31,-1,-1,33,35,-1,-1,37,39,-1,-1,-1,41,-1,-1,43,45,47,-1,-1,-1,49,51,-1,-1,53,55,-1,57,-1,-1,59,61,-1,-1,-1,-1,-1,-1,-1,-1,-1,-1,-1,-1],"loss_changes":[2.1620478E-2,8.404315E-3,1.8207664E-3,1.1431789E-3,5.073052E-3,4.4227578E-5,3.2589035E-3,1.4299434E-4,3.615676E-4,5.1142415E-5,0E0,2.4134293E-5,5.5527733E-5,2.0186158E-4,2.0566666E-3,0E0,2.1061125E-5,0E0,4.7487993E-6,0E0,0E0,2.1092594E-5,1.7108745E-5,0E0,0E0,3.0062307E-5,7.332832E-5,0E0,0E0,0E0,1.1390212E-5,0E0,0E0,4.0353276E-5,2.5877962E-5,1.7977582E-5,0E0,0E0,0E0,2.9985513E-5,2.752895E-6,0E0,0E0,2.6733149E-5,7.512374E-5,0E0,2.2868859E-5,0E0,0E0,1.6909518E-5,2.5743666E-5,0E0,0E0,0E0,0E0,0E0,0E0,0E0,0E0,0E0,0E0,0E0,0E0],"parents":[2147483647,0,0,1,1,2,2,3,3,4,4,5,5,6,6,7,7,8,8,9,9,11,11,12,12,13,13,14,14,16,16,18,18,21,21,22,22,25,25,26,26,30,30,33,33,34,34,35,35,39,39,40,40,43,43,44,44,46,46,49,49,50,50],"right_children":[2,4,6,8,10,12,14,16,18,20,-1,22,24,26,28,-1,30,-1,32,-1,-1,34,36,-1,-1,38,40,-1,-1,-1,42,-1,-1,44,46,48,-1,-1,-1,50,52,-1,-1,54,56,-1,58,-1,-1,60,62,-1,-1,-1,-1,-1,-1,-1,-1,-1,-1,-1,-1],"split_conditions":[2.3397982E1,1.9467918E-2,1.2800299E0,3.6098705E1,4.0258884E1,3.0720707E1,1.0903093E1,7.362613E-1,1.3832023E0,3.419637E1,4.0198574E-3,6.272983E1,1.0959427E0,3.42E0,6.180332E-1,9.237127E-5,1.2800299E0,1.0439893E-3,2.8902864E1,9.4807206E-4,3.2377345E-4,5.167796E1,4.4026546E0,-1.198974E-4,2.2063163E-4,1.5153892E0,3.3101327E0,-1.3556737E-4,1.6988751E-3,-1.4685464E-4,9.526878E0,1.15359144E-4,3.3591295E-4,2.75E0,1.3706669E1,9.052214E-5,-2.1016163E-4,3.4710953E-5,3.9101267E-4,5.290945E-2,1.4754606E0,6.866881E-5,-8.5540254E-5,1.4972233E1,1.9467918E-2,-1.8321443E-6,4.8638115E0,-5.9969665E-5,-1.6910059E-4,4.11E0,6.529448E0,-1.19018405E-4,-2.8976225E-4,-1.6479135E-4,-1.3408635E-4,-2.0423089E-4,-1.5636932E-4,-2.443716E-5,-1.517101E-4,-1.19389755E-4,-2.2994098E-5,-2.3515398E-5,1.4283774E-4],"split_indices":[31,58,4,7,13,7,33,46,4,7,0,31,4,47,7,0,4,0,13,0,0,31,53,0,0,4,8,0,0,0,8,0,0,37,39,4,0,0,0,25,4,0,0,51,7,0,33,0,0,27,7,0,0,0,0,0,0,0,0,0,0,0,0],"split_type":[0,0,0,0,0,0,0,0,0,0,0,0,0,0,0,0,0,0,0,0,0,0,0,0,0,0,0,0,0,0,0,0,0,0,0,0,0,0,0,0,0,0,0,0,0,0,0,0,0,0,0,0,0,0,0,0,0,0,0,0,0,0,0],"sum_hessian":[3.715E3,2.419E3,1.296E3,2.413E3,6E0,1.255E3,4.1E1,2.406E3,7E0,5E0,1E0,1.252E3,3E0,3.5E1,6E0,2.397E3,9E0,3E0,4E0,3E0,2E0,1.146E3,1.06E2,2E0,1E0,3E0,3.2E1,2E0,4E0,6E0,3E0,2E0,2E0,8.52E2,2.94E2,3.5E1,7.1E1,1E0,2E0,2.7E1,5E0,2E0,1E0,4.69E2,3.83E2,3E0,2.91E2,6E0,2.9E1,1.9E1,8E0,3E0,2E0,3.34E2,1.35E2,1.93E2,1.9E2,4E0,2.87E2,7E0,1.2E1,5E0,3E0],"tree_param":{"num_deleted":"0","num_feature":"60","num_nodes":"63","size_leaf_vector":"1"}},{"base_weights":[3.424698E-5,1.5655594E-3,-2.857725E-3,1.5010235E-3,3.9193607E-3,-3.0885884E-3,8.799766E-3,1.430568E-3,1.6704641E-2,-3.1115029E-3,4.1678973E-4,3.408895E-4,2.1453992E-2,7.269031E-5,-1.652637E-4,2.9783878E-2,8.4129703E-4,-9.20392E-5,-3.1276348E-3,-9.3779276E-4,1.719276E-4,-1.0323564E-3,1.4008461E-4,5.622698E-4,1.3192745E-3,3.4442704E-4,1.649262E-3,2.1297624E-4,-1.9326981E-3,-3.14392E-3,-1.928479E-3,-7.438719E-5,-7.669674E-6,-2.9119914E-5,-8.370919E-5,-1.3526068E-4,9.621214E-6,-1.8252637E-3,-3.1589826E-3,-2.1105204E-3,3.3706707E-5,-1.3584107E-4,-4.1498042E-5,-1.5823227E-4,-5.9082347E-5,-1.1624459E-4,-1.3184997E-5],"categories":[],"categories_nodes":[],"categories_segments":[],"categories_sizes":[],"default_left":[0,0,0,0,0,0,0,0,0,0,0,0,0,0,0,0,0,0,0,0,0,0,0,0,0,0,0,0,0,0,0,0,0,0,0,0,0,0,0,0,0,0,0,0,0,0,0],"id":15,"left_children":[1,3,5,7,-1,9,11,13,15,17,19,21,23,-1,-1,25,27,-1,29,31,-1,33,-1,-1,-1,-1,-1,-1,35,37,39,-1,-1,-1,-1,-1,-1,41,43,45,-1,-1,-1,-1,-1,-1,-1],"loss_changes":[1.6296972E-2,1.18106995E-2,3.455883E-3,2.5522863E-3,0E0,1.0170229E-4,2.6687002E-3,2.6837876E-4,2.2572281E-3,1.9702129E-5,4.006369E-5,5.6960936E-5,2.0672102E-4,0E0,0E0,2.1255715E-4,6.5125256E-5,0E0,1.7859042E-5,2.7914575E-6,0E0,2.2017075E-6,0E0,0E0,0E0,0E0,0E0,0E0,7.0873093E-6,1.8207356E-5,1.0424657E-5,0E0,0E0,0E0,0E0,0E0,0E0,1.1943059E-5,9.608455E-6,6.5132263E-6,0E0,0E0,0E0,0E0,0E0,0E0,0E0],"parents":[2147483647,0,0,1,1,2,2,3,3,5,5,6,6,7,7,8,8,9,9,10,10,11,11,12,12,15,15,16,16,18,18,19,19,21,21,28,28,29,29,30,30,37,37,38,38,39,39],"right_children":[2,4,6,8,-1,10,12,14,16,18,20,22,24,-1,-1,26,28,-1,30,32,-1,34,-1,-1,-1,-1,-1,-1,36,38,40,-1,-1,-1,-1,-1,-1,42,44,46,-1,-1,-1,-1,-1,-1,-1],"split_conditions":[9.335811E0,1.9513458E0,1.5164465E0,2.764658E1,3.9193607E-3,1.5107551E0,3.7828362E0,1.62519E-2,4.8859053E0,2.2035422E0,3.2094667E0,8.737089E0,1.5869396E1,7.269031E-5,-1.652637E-4,1.6943645E1,3.7833073E1,-9.20392E-5,3.2832268E1,1.0903572E1,1.719276E-4,1.0315872E1,1.4008461E-4,5.622698E-4,1.3192745E-3,3.4442704E-4,1.649262E-3,2.1297624E-4,1.8731607E0,-9.0365095E0,4.5050564E0,-7.438719E-5,-7.669674E-6,-2.9119914E-5,-8.370919E-5,-1.3526068E-4,9.621214E-6,3.9065555E-5,5.3032575E0,4.14E0,3.3706707E-5,-1.3584107E-4,-4.1498042E-5,-1.5823227E-4,-5.9082347E-5,-1.1624459E-4,-1.3184997E-5],"split_indices":[26,4,4,7,0,4,55,53,49,51,5,7,17,0,0,5,13,0,6,7,0,33,0,0,0,0,0,0,4,55,55,0,0,0,0,0,0,7,49,27,0,0,0,0,0,0,0],"split_type":[0,0,0,0,0,0,0,0,0,0,0,0,0,0,0,0,0,0,0,0,0,0,0,0,0,0,0,0,0,0,0,0,0,0,0,0,0,0,0,0,0,0,0,0,0,0,0],"sum_hessian":[3.678E3,2.405E3,1.273E3,2.404E3,1E0,1.249E3,2.4E1,2.394E3,1E1,1.241E3,8E0,1.5E1,9E0,2.383E3,1.1E1,5E0,5E0,1.7E1,1.224E3,6E0,2E0,1E1,5E0,4E0,5E0,1E0,4E0,2E0,3E0,1.206E3,1.8E1,3E0,3E0,7E0,3E0,2E0,1E0,1.5E1,1.191E3,1.7E1,1E0,7E0,8E0,1.187E3,4E0,1.5E1,2E0],"tree_param":{"num_deleted":"0","num_feature":"60","num_nodes":"47","size_leaf_vector":"1"}},{"base_weights":[2.6383722E-4,1.7952326E-3,-2.7621165E-3,1.7335503E-3,3.8213767E-3,-2.945801E-3,7.085269E-3,1.6872315E-3,1.4103634E-2,-2.969884E-3,1.0679994E-3,2.4763949E-3,1.1590968E-3,1.7188708E-3,-3.215542E-3,1.1963953E-3,2.4190146E-2,-2.9869915E-3,-1.6700819E-3,-2.3796766E-4,1.661967E-4,6.905271E-3,-9.887651E-5,1.7031445E-3,9.963854E-4,-3.761245E-3,2.0145904E-5,2.0587703E-4,-1.06177424E-4,3.3581638E-4,1.343976E-3,-2.820782E-3,-3.1745497E-3,-2.041232E-3,-1.4842247E-5,-4.175549E-5,1.3469044E-5,3.96307E-4,1.4510326E-4,-7.270656E-4,1.1187211E-4,8.527768E-5,-1.0341187E-4,-1.3081456E-4,-2.4259007E-4,-2.8360856E-3,-7.259028E-4,-2.5724573E-3,-3.268004E-3,-2.29937E-3,3.2864045E-5,-1.241637E-5,-5.423131E-5,-1.5164498E-4,-1.3405549E-4,-1.017265E-5,-5.902674E-5,-1.1228632E-4,-2.1940465E-4,-1.902132E-4,-1.5139522E-4,-1.2694858E-5,-1.224334E-4],"categories":[],"categories_nodes":[],"categories_segments":[],"categories_sizes":[],"default_left":[0,0,0,0,0,0,0,0,0,0,0,0,0,0,0,0,0,0,0,0,0,0,0,0,0,0,0,0,0,0,0,0,0,0,0,0,0,0,0,0,0,0,0,0,0,0,0,0,0,0,0,0,0,0,0,0,0,0,0,0,0,0,0],"id":16,"left_children":[1,3,5,7,-1,9,11,13,15,17,19,21,-1,23,25,27,29,31,33,35,-1,37,39,41,-1,43,-1,-1,-1,-1,-1,45,47,49,-1,-1,-1,-1,-1,51,-1,-1,-1,-1,-1,53,55,57,59,61,-1,-1,-1,-1,-1,-1,-1,-1,-1,-1,-1,-1,-1],"loss_changes":[1.7099531E-2,1.11460565E-2,2.2637993E-3,1.3794024E-3,0E0,1.2090895E-4,1.6489049E-3,3.8417662E-4,1.1427603E-3,2.1940097E-5,2.4360397E-5,2.1738835E-4,0E0,6.607692E-4,3.310913E-5,5.7233985E-5,5.443627E-5,2.8266571E-5,8.568262E-6,2.0427178E-6,0E0,5.6051067E-6,2.0706217E-5,2.5560148E-5,0E0,4.787187E-6,0E0,0E0,0E0,0E0,0E0,1.852354E-5,2.270937E-5,1.1263568E-5,0E0,0E0,0E0,0E0,0E0,1.6136141E-6,0E0,0E0,0E0,0E0,0E0,1.129834E-5,1.1849511E-6,3.7010235E-5,4.963996E-5,3.348301E-6,0E0,0E0,0E0,0E0,0E0,0E0,0E0,0E0,0E0,0E0,0E0,0E0,0E0],"parents":[2147483647,0,0,1,1,2,2,3,3,5,5,6,6,7,7,8,8,9,9,10,10,11,11,13,13,14,14,15,15,16,16,17,17,18,18,19,19,21,21,22,22,23,23,25,25,31,31,32,32,33,33,39,39,45,45,46,46,47,47,48,48,49,49],"right_children":[2,4,6,8,-1,10,12,14,16,18,20,22,-1,24,26,28,30,32,34,36,-1,38,40,42,-1,44,-1,-1,-1,-1,-1,46,48,50,-1,-1,-1,-1,-1,52,-1,-1,-1,-1,-1,54,56,58,60,62,-1,-1,-1,-1,-1,-1,-1,-1,-1,-1,-1,-1,-1],"split_conditions":[9.335811E0,1.9513458E0,1.5164465E0,4.52E0,3.8213767E-3,1.5107551E0,1.0653171E1,8.693757E0,1.2800299E0,1.2433966E0,7.285905E0,3.48E0,1.1590968E-3,9.052214E-5,3.52708E1,8.93251E0,1.6943645E1,-1.915667E0,1.2295397E1,1.1619161E1,1.661967E-4,3.42E0,4.333104E0,1.62519E-2,9.963854E-4,1.0450382E0,2.0145904E-5,2.0587703E-4,-1.06177424E-4,3.3581638E-4,1.343976E-3,1.9519629E1,9.052214E-5,5.3032575E0,-1.4842247E-5,-4.175549E-5,1.3469044E-5,3.96307E-4,1.4510326E-4,1.7951487E-2,1.1187211E-4,8.527768E-5,-1.0341187E-4,-1.3081456E-4,-2.4259007E-4,-4.9030733E0,1.384E1,5.1603003E0,2.0436803E-2,5.3576696E-1,3.2864045E-5,-1.241637E-5,-5.423131E-5,-1.5164498E-4,-1.3405549E-4,-1.017265E-5,-5.902674E-5,-1.1228632E-4,-2.1940465E-4,-1.902132E-4,-1.5139522E-4,-1.2694858E-5,-1.224334E-4],"split_indices":[26,4,4,37,0,4,33,40,4,4,5,47,0,4,7,8,5,49,18,7,0,47,5,53,0,4,0,0,0,0,0,32,4,49,0,0,0,0,0,58,0,0,0,0,0,35,18,53,7,7,0,0,0,0,0,0,0,0,0,0,0,0,0],"split_type":[0,0,0,0,0,0,0,0,0,0,0,0,0,0,0,0,0,0,0,0,0,0,0,0,0,0,0,0,0,0,0,0,0,0,0,0,0,0,0,0,0,0,0,0,0,0,0,0,0,0,0,0,0,0,0,0,0,0,0,0,0,0,0],"sum_hessian":[3.688E3,2.449E3,1.239E3,2.448E3,1E0,1.217E3,2.2E1,2.44E3,8E0,1.21E3,7E0,1.8E1,4E0,2.425E3,1.5E1,4E0,4E0,1.193E3,1.7E1,5E0,2E0,6E0,1.2E1,2.424E3,1E0,1.3E1,2E0,2E0,2E0,1E0,3E0,6.41E2,5.52E2,1.3E1,4E0,2E0,3E0,4E0,2E0,1E1,2E0,2.423E3,1E0,8E0,5E0,6.36E2,5E0,7.8E1,4.74E2,1.2E1,1E0,5E0,5E0,2.72E2,3.64E2,3E0,2E0,6.8E1,1E1,1.42E2,3.32E2,1E0,1.1E1],"tree_param":{"num_deleted":"0","num_feature":"60","num_nodes":"63","size_leaf_vector":"1"}},{"base_weights":[-1.7426911E-4,1.0530268E-3,-2.5761784E-3,9.881415E-4,1.0752438E-2,-2.6946203E-3,1.3897135E-2,9.971124E-4,-1.1156503E-4,1.5130717E-2,-1.9059218E-3,-2.7952346E-3,4.6489206E-3,1.6596903E-3,-1.2835013E-3,1.0008216E-3,-1.15133415E-4,1.84284E-2,1.9641258E-4,1.9474359E-5,-1.7830118E-4,-2.81243E-3,1.4856027E-4,-4.273606E-4,1.0626838E-3,2.046445E-4,-1.5886787E-4,4.9920352E-5,1.0987714E-4,1.0753459E-3,4.6017618E-4,-8.9015484E-5,-2.8283207E-3,-4.084128E-5,1.014906E-4,-1.0672023E-3,1.4390443E-3,-1.3500423E-3,-2.8397334E-3,-2.6518648E-5,-9.370302E-5,8.877373E-5,1.0743831E-5,-3.1868876E-5,-1.2189307E-4,-8.47713E-5,-1.4275209E-4],"categories":[],"categories_nodes":[],"categories_segments":[],"categories_sizes":[],"default_left":[0,0,0,0,0,0,0,0,0,0,0,0,0,0,0,0,0,0,0,0,0,0,0,0,0,0,0,0,0,0,0,0,0,0,0,0,0,0,0,0,0,0,0,0,0,0,0],"id":17,"left_children":[1,3,5,7,9,11,13,15,-1,17,19,21,23,-1,25,27,-1,29,-1,-1,-1,31,33,35,-1,-1,-1,-1,-1,-1,-1,-1,37,-1,-1,39,41,43,45,-1,-1,-1,-1,-1,-1,-1,-1],"loss_changes":[1.0791856E-2,1.5142858E-3,2.452949E-3,7.1770744E-5,9.1558753E-4,9.217961E-4,2.6790258E-3,3.1704316E-5,0E0,3.7091458E-4,2.0441983E-5,6.1872415E-5,1.4420197E-3,0E0,7.409725E-5,4.7408976E-6,0E0,5.7651196E-5,0E0,0E0,0E0,1.47605315E-5,1.6187074E-5,1.8254601E-5,0E0,0E0,0E0,0E0,0E0,0E0,0E0,0E0,1.6191974E-5,0E0,0E0,3.770645E-6,1.2658811E-6,6.9739162E-6,1.5777536E-5,0E0,0E0,0E0,0E0,0E0,0E0,0E0,0E0],"parents":[2147483647,0,0,1,1,2,2,3,3,4,4,5,5,6,6,7,7,9,9,10,10,11,11,12,12,14,14,15,15,17,17,21,21,22,22,23,23,32,32,35,35,36,36,37,37,38,38],"right_children":[2,4,6,8,10,12,14,16,-1,18,20,22,24,-1,26,28,-1,30,-1,-1,-1,32,34,36,-1,-1,-1,-1,-1,-1,-1,-1,38,-1,-1,40,42,44,46,-1,-1,-1,-1,-1,-1,-1,-1],"split_conditions":[2.3397982E1,3.7828362E0,2.1612165E1,1.7888147E-1,4.0258884E1,1.5179958E0,2.964119E1,3.98E0,-1.1156503E-4,3.4007246E0,2.2747974E1,1.5107551E0,1.1619161E1,1.6596903E-3,8.93251E0,9.052214E-5,-1.15133415E-4,3.48E0,1.9641258E-4,1.9474359E-5,-1.7830118E-4,2.4678064E1,4.333104E0,8.737089E0,1.0626838E-3,2.046445E-4,-1.5886787E-4,4.9920352E-5,1.0987714E-4,1.0753459E-3,4.6017618E-4,-8.9015484E-5,-9.0365095E0,-4.084128E-5,1.014906E-4,1.0315872E1,3.8286606E1,1.9979603E1,8.80909E0,-2.6518648E-5,-9.370302E-5,8.877373E-5,1.0743831E-5,-3.1868876E-5,-1.2189307E-4,-8.47713E-5,-1.4275209E-4],"split_indices":[31,55,5,25,13,4,51,27,0,25,5,4,7,0,8,4,0,27,0,0,0,31,5,7,0,0,0,0,0,0,0,0,55,0,0,33,13,16,16,0,0,0,0,0,0,0,0],"split_type":[0,0,0,0,0,0,0,0,0,0,0,0,0,0,0,0,0,0,0,0,0,0,0,0,0,0,0,0,0,0,0,0,0,0,0,0,0,0,0,0,0,0,0,0,0,0,0],"sum_hessian":[3.659E3,2.422E3,1.237E3,2.407E3,1.5E1,1.229E3,8E0,2.401E3,6E0,1.1E1,4E0,1.213E3,1.6E1,3E0,5E0,2.399E3,2E0,8E0,3E0,2E0,2E0,1.206E3,7E0,1.3E1,3E0,1E0,4E0,2.396E3,3E0,5E0,3E0,2E1,1.186E3,5E0,2E0,1E1,3E0,1E1,1.176E3,7E0,3E0,2E0,1E0,7E0,3E0,1.7E1,1.159E3],"tree_param":{"num_deleted":"0","num_feature":"60","num_nodes":"47","size_leaf_vector":"1"}},{"base_weights":[3.3307675E-5,1.3540564E-3,-2.4719813E-3,1.2553525E-3,4.067576E-2,-2.5556388E-3,2.4644487E-2,1.2134598E-3,1.0258605E-2,1.9008068E-2,3.7253555E-3,-2.6910326E-3,1.7765333E-3,1.9952837E-4,1.5099469E-3,6.1585684E-5,-1.9776793E-3,8.967101E-4,5.1384815E-3,1.2287546E-3,3.5525113E-4,-1.970159E-3,-2.7244112E-3,3.069828E-5,1.7044915E-2,-2.3434863E-3,6.944528E-5,6.731468E-3,1.8626284E-3,-5.650851E-5,-2.2368953E-3,-2.6548512E-3,-3.0472365E-3,-1.6846191E-3,3.1950767E-3,-6.0559552E-5,1.1767008E-3,-1.3024679E-4,1.9847648E-5,4.2740718E-4,1.3354846E-4,1.1858177E-4,8.390192E-6,-2.4474077E-3,-8.046301E-4,-2.671147E-3,-8.2006835E-4,-9.812117E-4,-3.1277908E-3,-8.5637724E-4,-2.3303316E-4,5.4994854E-4,7.762806E-4,-1.481476E-4,-9.305237E-5,-5.766113E-6,-5.286444E-5,-1.4735776E-4,-1.2976988E-4,-5.790204E-5,-1.2524389E-5,1.2750133E-5,-8.209096E-5,-2.1021608E-4,-1.4712835E-4,-9.336959E-5,-8.416961E-6,1.3787621E-4,-1.5568816E-5],"categories":[],"categories_nodes":[],"categories_segments":[],"categories_sizes":[],"default_left":[0,0,0,0,0,0,0,0,0,0,0,0,0,0,0,0,0,0,0,0,0,0,0,0,0,0,0,0,0,0,0,0,0,0,0,0,0,0,0,0,0,0,0,0,0,0,0,0,0,0,0,0,0,0,0,0,0,0,0,0,0,0,0,0,0,0,0,0,0],"id":18,"left_children":[1,3,5,7,9,11,13,15,17,19,-1,21,23,-1,-1,-1,25,-1,27,-1,-1,29,31,33,35,37,-1,39,41,-1,43,45,47,49,51,-1,-1,-1,-1,-1,-1,-1,-1,53,55,57,59,61,63,65,-1,-1,67,-1,-1,-1,-1,-1,-1,-1,-1,-1,-1,-1,-1,-1,-1,-1,-1],"loss_changes":[1.2173325E-2,9.298767E-3,2.9439684E-3,8.9426944E-4,2.9820465E-3,7.4793864E-4,3.383737E-4,1.4188816E-4,3.401453E-4,1.5671633E-4,0E0,2.4204142E-5,1.0390637E-3,0E0,0E0,0E0,2.0496162E-5,0E0,2.920888E-5,0E0,0E0,1.0467149E-5,1.8227845E-5,2.0078737E-4,5.0236715E-4,1.0348354E-5,0E0,1.40512275E-5,3.0527408E-6,0E0,1.099566E-5,2.687145E-5,3.0382886E-5,5.516594E-5,2.3685009E-4,0E0,0E0,0E0,0E0,0E0,0E0,0E0,0E0,5.6707067E-6,1.097188E-6,1.2484845E-5,1.6349504E-6,7.76854E-6,2.6112539E-5,1.35979735E-5,0E0,0E0,2.4562674E-5,0E0,0E0,0E0,0E0,0E0,0E0,0E0,0E0,0E0,0E0,0E0,0E0,0E0,0E0,0E0,0E0],"parents":[2147483647,0,0,1,1,2,2,3,3,4,4,5,5,6,6,7,7,8,8,9,9,11,11,12,12,16,16,18,18,21,21,22,22,23,23,24,24,25,25,27,27,28,28,30,30,31,31,32,32,33,33,34,34,43,43,44,44,45,45,46,46,47,47,48,48,49,49,52,52],"right_children":[2,4,6,8,10,12,14,16,18,20,-1,22,24,-1,-1,-1,26,-1,28,-1,-1,30,32,34,36,38,-1,40,42,-1,44,46,48,50,52,-1,-1,-1,-1,-1,-1,-1,-1,54,56,58,60,62,64,66,-1,-1,68,-1,-1,-1,-1,-1,-1,-1,-1,-1,-1,-1,-1,-1,-1,-1,-1],"split_conditions":[2.3397982E1,3.535954E-1,2.5373192E1,3.6098705E1,1.2661125E1,1.2800299E0,1.1391649E0,7.362613E-1,3.55E0,1.550957E0,3.7253555E-3,9.931923E0,1.1509063E1,1.9952837E-4,1.5099469E-3,6.1585684E-5,1.9824196E1,8.967101E-4,1.5873095E1,1.2287546E-3,3.5525113E-4,9.76058E0,1.8416397E1,1.7973202E1,5.163338E-1,1.8731607E0,6.944528E-5,1.5018368E1,1.5179958E0,-5.650851E-5,1.8282043E-2,3.074127E0,2.9486175E0,3.6159927E1,1.8341553E1,-6.0559552E-5,1.1767008E-3,-1.3024679E-4,1.9847648E-5,4.2740718E-4,1.3354846E-4,1.1858177E-4,8.390192E-6,4.673626E0,2.7156642E-3,4.4699064E-1,1.7861183E1,1.4686378E1,3.77E0,1.5182992E1,-2.3303316E-4,5.4994854E-4,1.5302298E1,-1.481476E-4,-9.305237E-5,-5.766113E-6,-5.286444E-5,-1.4735776E-4,-1.2976988E-4,-5.790204E-5,-1.2524389E-5,1.2750133E-5,-8.209096E-5,-2.1021608E-4,-1.4712835E-4,-9.336959E-5,-8.416961E-6,1.3787621E-4,-1.5568816E-5],"split_indices":[31,58,5,7,5,4,4,46,27,8,0,17,33,0,0,0,26,0,32,0,0,39,32,32,5,4,0,17,4,0,8,58,53,13,32,0,0,0,0,0,0,0,0,59,25,13,17,17,27,32,0,0,17,0,0,0,0,0,0,0,0,0,0,0,0,0,0,0,0],"split_type":[0,0,0,0,0,0,0,0,0,0,0,0,0,0,0,0,0,0,0,0,0,0,0,0,0,0,0,0,0,0,0,0,0,0,0,0,0,0,0,0,0,0,0,0,0,0,0,0,0,0,0,0,0,0,0,0,0,0,0,0,0,0,0,0,0,0,0,0,0],"sum_hessian":[3.677E3,2.408E3,1.269E3,2.403E3,5E0,1.266E3,3E0,2.393E3,1E1,4E0,1E0,1.228E3,3.8E1,1E0,2E0,2.38E3,1.3E1,3E0,7E0,2E0,2E0,5.7E1,1.171E3,3.5E1,3E0,1.2E1,1E0,4E0,3E0,1.5E1,4.2E1,9.71E2,2E2,2.3E1,1.2E1,1E0,2E0,1.1E1,1E0,2E0,2E0,2E0,1E0,3.6E1,6E0,9.62E2,9E0,8E0,1.92E2,1.9E1,4E0,2E0,1E1,1.7E1,1.9E1,2E0,4E0,1.99E2,7.63E2,5E0,4E0,3E0,5E0,2.5E1,1.67E2,7E0,1.2E1,3E0,7E0],"tree_param":{"num_deleted":"0","num_feature":"60","num_nodes":"69","size_leaf_vector":"1"}},{"base_weights":[-1.00955804E-4,1.0655962E-3,-2.2991668E-3,1.0054029E-3,3.6322214E-3,-2.44228E-3,9.087864E-3,9.4619236E-4,1.1786363E-2,-2.5019683E-3,1.5785701E-3,9.323598E-4,9.720159E-4,9.587552E-4,-2.475524E-3,1.5023255E-3,-3.3820425E-3,-2.2888514E-3,-2.62146E-3,3.1911926E-3,-2.8390472E-5,2.2414105E-4,-1.2296695E-3,9.54812E-4,1.8797828E-4,-1.4707084E-4,-5.7890196E-5,-4.692936E-3,1.8354598E-5,-2.7520547E-3,-1.955863E-3,-1.7050758E-3,-2.7015985E-3,3.9941547E-3,-1.407126E-5,-1.2675191E-5,-1.569435E-3,4.7802205E-5,-4.9222424E-5,-5.1015886E-3,-6.624181E-5,-2.8337387E-3,-1.0228783E-3,-2.0479339E-3,-3.835084E-4,-1.1330214E-3,-2.2427964E-3,-3.4668548E-3,-2.602186E-3,5.2473137E-5,4.6855723E-3,-2.630218E-5,-1.0448407E-4,-6.799623E-5,-2.8485118E-4,-8.0643586E-5,-1.4890353E-4,9.5959285E-6,-7.854613E-5,-7.477662E-5,-1.20987905E-4,-8.800822E-5,6.0658407E-5,-6.7268964E-5,-2.8334669E-5,-8.5462954E-5,-1.3845453E-4,-1.07947926E-4,-2.028301E-4,-9.665429E-5,-1.3396252E-4,1.0109724E-4,2.6733172E-4],"categories":[],"categories_nodes":[],"categories_segments":[],"categories_sizes":[],"default_left":[0,0,0,0,0,0,0,0,0,0,0,0,0,0,0,0,0,0,0,0,0,0,0,0,0,0,0,0,0,0,0,0,0,0,0,0,0,0,0,0,0,0,0,0,0,0,0,0,0,0,0,0,0,0,0,0,0,0,0,0,0,0,0,0,0,0,0,0,0,0,0,0,0],"id":19,"left_children":[1,3,5,7,-1,9,11,13,15,17,19,21,-1,23,25,-1,27,29,31,33,-1,-1,35,37,-1,-1,-1,39,-1,41,43,45,47,49,-1,-1,51,-1,-1,53,-1,55,57,59,61,63,65,67,69,-1,71,-1,-1,-1,-1,-1,-1,-1,-1,-1,-1,-1,-1,-1,-1,-1,-1,-1,-1,-1,-1,-1,-1],"loss_changes":[9.408403E-3,1.0254603E-2,2.0950907E-3,1.5183254E-3,0E0,3.0562608E-4,1.3327465E-3,1.04853185E-4,3.7023234E-3,2.5551766E-5,6.7576686E-5,8.2274404E-5,0E0,2.2651162E-5,2.119661E-6,0E0,4.1040454E-5,6.448873E-5,5.318923E-5,3.1796248E-5,0E0,0E0,1.9238132E-6,6.6135544E-6,0E0,0E0,0E0,1.4995458E-6,0E0,2.3514382E-5,3.7867576E-5,1.776083E-5,4.5905355E-5,1.3406767E-5,0E0,0E0,1.6148397E-6,0E0,0E0,3.392066E-6,0E0,2.6562251E-5,6.9591133E-6,4.8140995E-5,3.7304562E-5,3.3265642E-6,4.533227E-6,5.294819E-5,2.7975999E-5,0E0,1.51516E-6,0E0,0E0,0E0,0E0,0E0,0E0,0E0,0E0,0E0,0E0,0E0,0E0,0E0,0E0,0E0,0E0,0E0,0E0,0E0,0E0,0E0,0E0],"parents":[2147483647,0,0,1,1,2,2,3,3,5,5,6,6,7,7,8,8,9,9,10,10,11,11,13,13,14,14,16,16,17,17,18,18,19,19,22,22,23,23,27,27,29,29,30,30,31,31,32,32,33,33,36,36,39,39,41,41,42,42,43,43,44,44,45,45,46,46,47,47,48,48,50,50],"right_children":[2,4,6,8,-1,10,12,14,16,18,20,22,-1,24,26,-1,28,30,32,34,-1,-1,36,38,-1,-1,-1,40,-1,42,44,46,48,50,-1,-1,52,-1,-1,54,-1,56,58,60,62,64,66,68,70,-1,72,-1,-1,-1,-1,-1,-1,-1,-1,-1,-1,-1,-1,-1,-1,-1,-1,-1,-1,-1,-1,-1,-1],"split_conditions":[9.335811E0,1.9513458E0,1.5648164E0,1.2800299E0,3.6322214E-3,1.5107551E0,4.8859053E0,7.362613E-1,4.1256783E1,4.0112901E-4,1.5979063E1,1.5018368E1,9.720159E-4,8.213839E-1,4.2006917E0,1.5023255E-3,4.19E0,4.147729E-1,-6.1226277E0,4.31E0,-2.8390472E-5,2.2414105E-4,3.67E0,9.052214E-5,1.8797828E-4,-1.4707084E-4,-5.7890196E-5,2.5373192E1,1.8354598E-5,3.4630287E1,4.6E0,1.2671476E1,8.323039E-4,1.3792671E1,-1.407126E-5,-1.2675191E-5,1.8208216E1,4.7802205E-5,-4.9222424E-5,1.4181821E0,-6.624181E-5,9.931923E0,2.08E0,2.88E0,-2.5175583E0,1.6376846E-2,1.1072209E-3,-3.932193E0,1.5401453E-3,5.2473137E-5,6.409461E1,-2.630218E-5,-1.0448407E-4,-6.799623E-5,-2.8485118E-4,-8.0643586E-5,-1.4890353E-4,9.5959285E-6,-7.854613E-5,-7.477662E-5,-1.20987905E-4,-8.800822E-5,6.0658407E-5,-6.7268964E-5,-2.8334669E-5,-8.5462954E-5,-1.3845453E-4,-1.07947926E-4,-2.028301E-4,-9.665429E-5,-1.3396252E-4,1.0109724E-4,2.6733172E-4],"split_indices":[26,4,4,4,0,4,55,46,6,4,39,17,0,4,55,0,37,56,49,46,0,0,46,4,0,0,0,5,0,16,37,32,4,17,0,0,17,0,0,4,0,17,37,37,55,5,4,35,4,0,16,0,0,0,0,0,0,0,0,0,0,0,0,0,0,0,0,0,0,0,0,0,0],"split_type":[0,0,0,0,0,0,0,0,0,0,0,0,0,0,0,0,0,0,0,0,0,0,0,0,0,0,0,0,0,0,0,0,0,0,0,0,0,0,0,0,0,0,0,0,0,0,0,0,0,0,0,0,0,0,0,0,0,0,0,0,0,0,0,0,0,0,0,0,0,0,0,0,0],"sum_hessian":[3.667E3,2.396E3,1.271E3,2.395E3,1E0,1.256E3,1.5E1,2.383E3,1.2E1,1.238E3,1.8E1,9E0,6E0,2.375E3,8E0,5E0,7E0,4.52E2,7.86E2,1E1,8E0,3E0,6E0,2.373E3,2E0,5E0,3E0,5E0,2E0,1.86E2,2.66E2,6.5E1,7.21E2,8E0,2E0,2E0,4E0,2.372E3,1E0,4E0,1E0,1.77E2,9E0,2.51E2,1.5E1,3.3E1,3.2E1,7.9E1,6.42E2,2E0,6E0,2E0,2E0,1E0,3E0,2E1,1.57E2,3E0,6E0,1.03E2,1.48E2,8E0,7E0,2.3E1,1E1,1.8E1,1.4E1,2.6E1,5.3E1,6.9E1,5.73E2,2E0,4E0],"tree_param":{"num_deleted":"0","num_feature":"60","num_nodes":"73","size_leaf_vector":"1"}},{"base_weights":[-1.137138E-6,1.1946133E-3,-2.2215515E-3,1.1203957E-3,4.5389384E-2,-2.327626E-3,1.7598405E-2,1.0711391E-3,9.4315875E-3,1.8892577E-5,3.013364E-3,-2.4010898E-3,2.984961E-3,1.0240651E-3,1.4886573E-3,1.0795516E-3,-9.704759E-5,1.9109001E-2,3.6497214E-3,-2.423588E-3,-3.5716724E-4,8.117603E-4,-7.474348E-4,-5.828946E-5,1.898407E-4,1.0830157E-3,-1.0125036E-4,1.060476E-3,2.6767328E-4,6.5811896E-3,-2.3927784E-3,-1.88218E-3,-2.4529933E-3,-8.339081E-5,-2.7235383E-5,5.570307E-4,-2.2369863E-4,5.4026186E-5,1.1456509E-4,1.2383539E-4,3.8638205E-4,7.7215955E-6,-1.646663E-4,-2.3659752E-3,-1.2827072E-3,-2.4981382E-3,-2.0454759E-3,-1.946665E-5,4.6010068E-4,1.2743108E-4,-1.9500654E-5,-5.0811122E-5,-1.3817653E-4,-4.9706334E-5,-1.03012775E-4,-1.17117204E-4,-1.3574799E-4,-9.022011E-5,-1.7283401E-4,-7.102204E-6,3.9834205E-5],"categories":[],"categories_nodes":[],"categories_segments":[],"categories_sizes":[],"default_left":[0,0,0,0,0,0,0,0,0,0,0,0,0,0,0,0,0,0,0,0,0,0,0,0,0,0,0,0,0,0,0,0,0,0,0,0,0,0,0,0,0,0,0,0,0,0,0,0,0,0,0,0,0,0,0,0,0,0,0,0,0],"id":20,"left_children":[1,3,5,7,9,11,13,15,17,-1,-1,19,21,23,-1,25,-1,27,29,31,33,-1,35,-1,-1,37,-1,-1,-1,39,41,43,45,-1,47,49,-1,-1,-1,-1,-1,-1,-1,51,53,55,57,-1,59,-1,-1,-1,-1,-1,-1,-1,-1,-1,-1,-1,-1],"loss_changes":[9.807795E-3,7.824494E-3,2.7593612E-3,9.715941E-4,2.6559345E-3,5.094609E-4,1.3820285E-3,6.2529696E-5,7.136067E-4,0E0,0E0,5.753478E-5,9.0232765E-4,2.8713948E-5,0E0,2.7778093E-5,0E0,3.0924217E-5,1.928813E-4,1.5378464E-5,6.4409496E-6,0E0,7.540924E-5,0E0,0E0,4.6815258E-6,0E0,0E0,0E0,1.3799989E-5,9.684129E-6,1.6976643E-5,1.6746111E-5,0E0,2.4731544E-6,2.362748E-5,0E0,0E0,0E0,0E0,0E0,0E0,0E0,1.704591E-5,5.35656E-6,2.9616058E-5,3.594812E-5,0E0,1.3291958E-6,0E0,0E0,0E0,0E0,0E0,0E0,0E0,0E0,0E0,0E0,0E0,0E0],"parents":[2147483647,0,0,1,1,2,2,3,3,4,4,5,5,6,6,7,7,8,8,11,11,12,12,13,13,15,15,17,17,18,18,19,19,20,20,22,22,25,25,29,29,30,30,31,31,32,32,34,34,35,35,43,43,44,44,45,45,46,46,48,48],"right_children":[2,4,6,8,10,12,14,16,18,-1,-1,20,22,24,-1,26,-1,28,30,32,34,-1,36,-1,-1,38,-1,-1,-1,40,42,44,46,-1,48,50,-1,-1,-1,-1,-1,-1,-1,52,54,56,58,-1,60,-1,-1,-1,-1,-1,-1,-1,-1,-1,-1,-1,-1],"split_conditions":[2.3397982E1,1.1297621E1,2.764658E1,3.7828362E0,1.9513458E0,1.5179958E0,1.10992985E1,4.237725E0,2.746575E1,1.8892577E-5,3.013364E-3,1.4181821E0,5.427506E-3,1.5488077E1,1.4886573E-3,4.340787E-6,-9.704759E-5,4.0230038E1,4.0258884E1,1.8988662E0,2.5736063E1,8.117603E-4,4.333104E0,-5.828946E-5,1.898407E-4,9.052214E-5,-1.0125036E-4,1.060476E-3,2.6767328E-4,1.5152084E0,2.0635466E1,4.6759582E-4,3.502989E-1,-8.339081E-5,3.9065555E-5,1.5302298E1,-2.2369863E-4,5.4026186E-5,1.1456509E-4,1.2383539E-4,3.8638205E-4,7.7215955E-6,-1.646663E-4,1.0556751E1,-6.1226277E0,1.7056038E-3,5.856971E1,-1.946665E-5,1.3965659E1,1.2743108E-4,-1.9500654E-5,-5.0811122E-5,-1.3817653E-4,-4.9706334E-5,-1.03012775E-4,-1.17117204E-4,-1.3574799E-4,-9.022011E-5,-1.7283401E-4,-7.102204E-6,3.9834205E-5],"split_indices":[31,33,7,55,4,4,33,53,51,0,0,4,8,5,0,25,0,7,13,59,13,0,5,0,0,4,0,0,0,4,5,4,4,0,8,17,0,0,0,0,0,0,0,17,35,4,31,0,39,0,0,0,0,0,0,0,0,0,0,0,0],"split_type":[0,0,0,0,0,0,0,0,0,0,0,0,0,0,0,0,0,0,0,0,0,0,0,0,0,0,0,0,0,0,0,0,0,0,0,0,0,0,0,0,0,0,0,0,0,0,0,0,0,0,0,0,0,0,0,0,0,0,0,0,0],"sum_hessian":[3.692E3,2.4E3,1.292E3,2.397E3,3E0,1.286E3,6E0,2.384E3,1.3E1,1E0,2E0,1.269E3,1.7E1,3E0,3E0,2.378E3,6E0,4E0,9E0,1.255E3,1.4E1,3E0,1.4E1,2E0,1E0,2.376E3,2E0,3E0,1E0,6E0,3E0,6.8E1,1.187E3,2E0,1.2E1,1.1E1,3E0,2.373E3,3E0,2E0,4E0,1E0,2E0,3.6E1,3.2E1,1.064E3,1.23E2,7E0,5E0,3E0,8E0,9E0,2.7E1,2.5E1,7E0,6.26E2,4.38E2,1.07E2,1.6E1,2E0,3E0],"tree_param":{"num_deleted":"0","num_feature":"60","num_nodes":"61","size_leaf_vector":"1"}},{"base_weights":[-6.998477E-5,9.751215E-4,-2.0244354E-3,8.9168816E-4,4.0127285E-2,-2.1963343E-3,4.253804E-3,8.573921E-4,1.2287772E-2,3.4660816E-3,7.749146E-4,-2.2738313E-3,-5.911567E-4,1.0050148E-3,2.0718765E-3,4.384817E-5,-2.7313854E-3,8.8388973E-4,1.3599161E-3,-2.1904316E-3,-2.609894E-3,4.3841843E-3,-1.143249E-3,7.854199E-4,6.908499E-4,-2.9840963E-3,7.528579E-6,-1.0282691E-4,1.7648439E-4,-1.1225101E-3,-2.2075975E-3,-3.4068942E-3,-2.3550591E-3,-3.4112985E-5,4.839024E-4,-4.5580213E-4,-1.17471376E-4,-1.3690055E-3,3.9516063E-3,-1.0293806E-4,-2.1600378E-4,-4.3851473E-5,-1.975743E-3,-2.3066618E-3,-1.974139E-3,-3.7065176E-3,-1.2581972E-3,-1.8002301E-3,-2.7218615E-3,-7.7462255E-4,1.2142669E-3,3.9632618E-4,-2.078466E-3,-5.1589013E-4,6.249841E-3,-1.313133E-4,-1.686744E-5,-1.06476225E-4,-1.3215623E-4,4.5936555E-5,-9.9895675E-5,-9.763279E-5,-2.0401792E-4,5.7740814E-5,-8.839436E-5,-5.174557E-5,-1.1007893E-4,-7.786297E-5,-1.4428595E-4,-3.0836277E-6,-5.3861786E-5,1.2265242E-4,-4.210986E-5,-5.9007038E-5,1.18308664E-4,-2.444208E-5,-1.1615242E-4,4.7652284E-5,-5.6069275E-5,3.554011E-4,1.225099E-4],"categories":[],"categories_nodes":[],"categories_segments":[],"categories_sizes":[],"default_left":[0,0,0,0,0,0,0,0,0,0,0,0,0,0,0,0,0,0,0,0,0,0,0,0,0,0,0,0,0,0,0,0,0,0,0,0,0,0,0,0,0,0,0,0,0,0,0,0,0,0,0,0,0,0,0,0,0,0,0,0,0,0,0,0,0,0,0,0,0,0,0,0,0,0,0,0,0,0,0,0,0],"id":21,"left_children":[1,3,5,7,9,11,13,15,17,-1,-1,19,21,-1,23,-1,25,27,-1,29,31,33,35,37,-1,39,-1,-1,-1,41,43,45,47,-1,-1,49,-1,51,53,-1,-1,-1,55,57,59,61,63,65,67,69,71,73,75,77,79,-1,-1,-1,-1,-1,-1,-1,-1,-1,-1,-1,-1,-1,-1,-1,-1,-1,-1,-1,-1,-1,-1,-1,-1,-1,-1],"loss_changes":[7.404388E-3,7.679923E-3,1.3724011E-3,9.110663E-4,2.5207698E-3,1.5166309E-4,1.1339353E-3,1.6759243E-4,1.1662265E-3,0E0,0E0,2.7159695E-5,1.6432937E-4,0E0,4.5754516E-4,0E0,9.917239E-6,4.615783E-5,0E0,1.4863908E-5,3.828411E-5,1.6752933E-4,4.2875858E-5,2.0322784E-4,0E0,5.9407394E-6,0E0,0E0,0E0,1.8279025E-6,1.6954727E-5,2.9457908E-5,3.091822E-5,0E0,0E0,1.9576424E-5,0E0,2.3367542E-5,1.2643247E-4,0E0,0E0,0E0,2.3114699E-6,3.2933196E-5,2.1368149E-5,2.2193068E-5,1.1880693E-5,2.014423E-5,1.5352329E-5,6.406004E-6,1.7351005E-5,2.142481E-5,3.9187216E-6,5.5159007E-6,8.670206E-6,0E0,0E0,0E0,0E0,0E0,0E0,0E0,0E0,0E0,0E0,0E0,0E0,0E0,0E0,0E0,0E0,0E0,0E0,0E0,0E0,0E0,0E0,0E0,0E0,0E0,0E0],"parents":[2147483647,0,0,1,1,2,2,3,3,4,4,5,5,6,6,7,7,8,8,11,11,12,12,14,14,16,16,17,17,19,19,20,20,21,21,22,22,23,23,25,25,29,29,30,30,31,31,32,32,35,35,37,37,38,38,42,42,43,43,44,44,45,45,46,46,47,47,48,48,49,49,50,50,51,51,52,52,53,53,54,54],"right_children":[2,4,6,8,10,12,14,16,18,-1,-1,20,22,-1,24,-1,26,28,-1,30,32,34,36,38,-1,40,-1,-1,-1,42,44,46,48,-1,-1,50,-1,52,54,-1,-1,-1,56,58,60,62,64,66,68,70,72,74,76,78,80,-1,-1,-1,-1,-1,-1,-1,-1,-1,-1,-1,-1,-1,-1,-1,-1,-1,-1,-1,-1,-1,-1,-1,-1,-1,-1],"split_conditions":[9.335811E0,3.672875E1,2.098297E1,2.5373192E1,3.8457954E1,7.727349E0,3.42E0,5.587315E-2,1.73E0,3.4660816E-3,7.749146E-4,1.8204584E1,8.868199E0,1.0050148E-3,1.10992985E1,4.384817E-5,3.52708E1,3.0852713E1,1.3599161E-3,2.2035422E0,3.91E0,3.0606907E1,7.285905E0,3.0720707E1,6.908499E-4,2.514854E1,7.528579E-6,-1.0282691E-4,1.7648439E-4,1.9834872E0,1.043E1,3.5674984E-3,4.17E0,-3.4112985E-5,4.839024E-4,1.1574515E1,-1.17471376E-4,3.92E0,3.406842E0,-1.0293806E-4,-2.1600378E-4,-4.3851473E-5,7.818669E0,2.78E0,3.35E0,7.347144E0,1.836926E1,2.446072E-1,-1.2594824E0,2.9982468E1,5.577264E-1,9.231609E0,2.2198158E1,1.2661125E1,1.2661125E1,-1.313133E-4,-1.686744E-5,-1.06476225E-4,-1.3215623E-4,4.5936555E-5,-9.9895675E-5,-9.763279E-5,-2.0401792E-4,5.7740814E-5,-8.839436E-5,-5.174557E-5,-1.1007893E-4,-7.786297E-5,-1.4428595E-4,-3.0836277E-6,-5.3861786E-5,1.2265242E-4,-4.210986E-5,-5.9007038E-5,1.18308664E-4,-2.444208E-5,-1.1615242E-4,4.7652284E-5,-5.6069275E-5,3.554011E-4,1.225099E-4],"split_indices":[26,7,7,5,7,7,38,13,46,0,0,39,54,0,33,0,7,5,0,51,38,13,5,7,0,7,0,0,0,59,18,8,37,0,0,59,0,37,55,0,0,0,16,37,27,33,39,49,35,51,5,33,7,5,5,0,0,0,0,0,0,0,0,0,0,0,0,0,0,0,0,0,0,0,0,0,0,0,0,0,0],"split_type":[0,0,0,0,0,0,0,0,0,0,0,0,0,0,0,0,0,0,0,0,0,0,0,0,0,0,0,0,0,0,0,0,0,0,0,0,0,0,0,0,0,0,0,0,0,0,0,0,0,0,0,0,0,0,0,0,0,0,0,0,0,0,0,0,0,0,0,0,0,0,0,0,0,0,0,0,0,0,0,0,0],"sum_hessian":[3.623E3,2.361E3,1.262E3,2.357E3,4E0,1.229E3,3.3E1,2.351E3,6E0,1E0,3E0,1.172E3,5.7E1,3E0,3E1,2.339E3,1.2E1,4E0,2E0,9.45E2,2.27E2,5E0,5.2E1,2.8E1,2E0,1.1E1,1E0,2E0,2E0,1.6E1,9.29E2,5.2E1,1.75E2,3E0,2E0,3.4E1,1.8E1,1.7E1,1.1E1,8E0,3E0,1.4E1,2E0,6.46E2,2.83E2,4.5E1,7E0,7.2E1,1.03E2,2.9E1,5E0,5E0,1.2E1,4E0,7E0,1E0,1E0,4.28E2,2.18E2,2E0,2.81E2,9E0,3.6E1,1E0,6E0,2.6E1,4.6E1,1.4E1,8.9E1,9E0,2E1,3E0,2E0,3E0,2E0,2E0,1E1,1E0,3E0,5E0,2E0],"tree_param":{"num_deleted":"0","num_feature":"60","num_nodes":"81","size_leaf_vector":"1"}},{"base_weights":[1.7512935E-5,1.1374644E-3,-2.0207602E-3,1.0333534E-3,2.792957E-2,-2.1119334E-3,1.2773969E-2,1.0106108E-3,8.426524E-3,5.687273E-2,1.1535422E-2,-2.1369243E-3,7.437845E-4,1.4015349E-3,-1.9862067E-3,1.0186374E-3,-8.941499E-5,1.098359E-2,-1.7289692E-4,8.8602473E-4,3.37943E-3,8.2282623E-4,3.7304652E-3,-2.1906386E-3,4.2700383E-4,1.8068259E-4,-4.2895842E-3,1.022181E-3,-8.2292256E-4,6.635831E-4,2.1358152E-4,2.36543E-4,1.8232036E-5,-6.7395065E-4,-2.2035702E-3,-3.9040713E-4,4.1016936E-3,-4.3162912E-5,-2.57197E-4,5.1013794E-5,9.32968E-5,-1.02274076E-4,1.01682825E-4,-5.239069E-5,2.951026E-6,-2.1622851E-3,-2.6669116E-3,-7.930798E-4,8.6027896E-5,2.7222253E-4,6.958526E-5,-1.088307E-4,-3.7522386E-5,-9.6684045E-5,-1.4473245E-4,-6.443839E-5,-2.2021227E-6],"categories":[],"categories_nodes":[],"categories_segments":[],"categories_sizes":[],"default_left":[0,0,0,0,0,0,0,0,0,0,0,0,0,0,0,0,0,0,0,0,0,0,0,0,0,0,0,0,0,0,0,0,0,0,0,0,0,0,0,0,0,0,0,0,0,0,0,0,0,0,0,0,0,0,0,0,0],"id":22,"left_children":[1,3,5,7,9,11,13,15,17,19,21,23,-1,-1,25,27,-1,29,-1,-1,-1,-1,31,33,35,-1,37,39,41,-1,-1,-1,-1,43,45,47,49,-1,-1,-1,-1,-1,-1,-1,-1,51,53,55,-1,-1,-1,-1,-1,-1,-1,-1,-1],"loss_changes":[8.259066E-3,6.4842817E-3,1.7575957E-3,3.827454E-4,3.614434E-3,5.734945E-4,1.8572108E-3,5.3965254E-5,2.507061E-4,6.0947612E-5,2.0747236E-4,1.76528E-4,0E0,0E0,7.9994E-5,1.5947968E-5,0E0,3.5453064E-5,0E0,0E0,0E0,0E0,1.1743552E-5,2.3012515E-5,8.270209E-5,0E0,7.2686526E-6,1.8111896E-6,2.1621487E-5,0E0,0E0,0E0,0E0,3.3502133E-6,1.7915387E-5,2.091518E-5,1.0617208E-5,0E0,0E0,0E0,0E0,0E0,0E0,0E0,0E0,2.1469314E-5,1.0600081E-5,7.369017E-6,0E0,0E0,0E0,0E0,0E0,0E0,0E0,0E0,0E0],"parents":[2147483647,0,0,1,1,2,2,3,3,4,4,5,5,6,6,7,7,8,8,9,9,10,10,11,11,14,14,15,15,17,17,22,22,23,23,24,24,26,26,27,27,28,28,33,33,34,34,35,35,36,36,45,45,46,46,47,47],"right_children":[2,4,6,8,10,12,14,16,18,20,22,24,-1,-1,26,28,-1,30,-1,-1,-1,-1,32,34,36,-1,38,40,42,-1,-1,-1,-1,44,46,48,50,-1,-1,-1,-1,-1,-1,-1,-1,52,54,56,-1,-1,-1,-1,-1,-1,-1,-1,-1],"split_conditions":[2.3397982E1,5.3032575E0,2.1612165E1,3.7828362E0,1.660654E0,6.8744774E0,2.964119E1,1.7888147E-1,1.2661125E1,1.1648772E1,1.4860268E1,1.4181821E0,7.437845E-4,1.4015349E-3,8.93251E0,3.98E0,-8.941499E-5,1.9513458E0,-1.7289692E-4,8.8602473E-4,3.37943E-3,8.2282623E-4,1.4384436E1,-9.0365095E0,5.847638E0,1.8068259E-4,8.213839E-1,9.052214E-5,2.1633913E-1,6.635831E-4,2.1358152E-4,2.36543E-4,1.8232036E-5,1.9467918E-2,6.272983E1,4.5050564E0,7.6593325E-2,-4.3162912E-5,-2.57197E-4,5.1013794E-5,9.32968E-5,-1.02274076E-4,1.01682825E-4,-5.239069E-5,2.951026E-6,4.82E0,3.9240646E0,4.11E0,8.6027896E-5,2.7222253E-4,6.958526E-5,-1.088307E-4,-3.7522386E-5,-9.6684045E-5,-1.4473245E-4,-6.443839E-5,-2.2021227E-6],"split_indices":[31,55,5,55,8,55,51,25,5,5,32,4,0,0,8,27,0,4,0,0,0,0,5,55,53,0,4,4,4,0,0,0,0,5,31,55,5,0,0,0,0,0,0,0,0,37,53,27,0,0,0,0,0,0,0,0,0],"split_type":[0,0,0,0,0,0,0,0,0,0,0,0,0,0,0,0,0,0,0,0,0,0,0,0,0,0,0,0,0,0,0,0,0,0,0,0,0,0,0,0,0,0,0,0,0,0,0,0,0,0,0,0,0,0,0,0,0],"sum_hessian":[3.616E3,2.334E3,1.282E3,2.326E3,8E0,1.275E3,7E0,2.32E3,6E0,2E0,6E0,1.274E3,1E0,3E0,4E0,2.314E3,6E0,5E0,1E0,1E0,1E0,3E0,3E0,1.248E3,2.6E1,1E0,3E0,2.31E3,4E0,3E0,2E0,2E0,1E0,1.1E1,1.237E3,2.2E1,4E0,1E0,2E0,2.307E3,3E0,3E0,1E0,7E0,4E0,1.141E3,9.6E1,1.9E1,3E0,2E0,2E0,1.129E3,1.2E1,2.5E1,7.1E1,1.1E1,8E0],"tree_param":{"num_deleted":"0","num_feature":"60","num_nodes":"57","size_leaf_vector":"1"}},{"base_weights":[-2.328679E-4,-2.8549848E-4,3.8286656E-2,5.8738556E-4,-1.9511813E-3,7.454441E-4,3.294944E-3,5.485615E-4,8.96586E-3,-2.0994828E-3,2.7342236E-3,5.54115E-4,-1.1050756E-4,1.7287735E-2,1.7408269E-3,-2.0202065E-3,-2.431588E-3,1.228377E-2,2.6139247E-4,5.5108976E-4,1.1085482E-4,2.4115275E-4,9.5990713E-4,2.242792E-4,-1.4391369E-3,-2.0434423E-3,-7.9108786E-4,-1.1812474E-3,-2.5515684E-3,2.0702533E-2,-6.5531305E-5,2.7527814E-3,-1.37108E-3,2.7706037E-5,-1.0185908E-4,1.6440545E-5,-1.6857451E-4,-2.054554E-3,-1.0986114E-5,-1.19672404E-4,4.7660628E-4,-1.5391206E-3,1.4800656E-6,-2.8622525E-3,-1.9206518E-3,-1.7196872E-7,1.2939944E-3,2.091885E-4,6.7806924E-3,-5.987185E-4,-3.0734704E-3,-7.2726325E-5,-1.04461054E-4,9.809457E-5,-6.678303E-5,-5.443658E-5,-1.0916893E-4,-4.5349676E-5,-1.4958176E-4,-6.5347405E-5,-1.1639468E-4,9.540233E-5,-2.7438879E-5,4.6180148E-4,1.0325626E-4,-7.411658E-5,-7.1323643E-6,-1.7799309E-4,-1.603784E-5],"categories":[],"categories_nodes":[],"categories_segments":[],"categories_sizes":[],"default_left":[0,0,0,0,0,0,0,0,0,0,0,0,0,0,0,0,0,0,0,0,0,0,0,0,0,0,0,0,0,0,0,0,0,0,0,0,0,0,0,0,0,0,0,0,0,0,0,0,0,0,0,0,0,0,0,0,0,0,0,0,0,0,0,0,0,0,0,0,0],"id":23,"left_children":[1,3,5,7,9,-1,-1,11,13,15,17,19,-1,21,23,25,27,29,31,33,-1,-1,-1,-1,35,37,39,41,43,45,-1,47,49,-1,-1,-1,-1,51,-1,-1,53,55,-1,57,59,-1,-1,61,63,65,67,-1,-1,-1,-1,-1,-1,-1,-1,-1,-1,-1,-1,-1,-1,-1,-1,-1,-1],"loss_changes":[7.4288393E-3,5.3153257E-3,2.2450835E-3,7.754432E-4,8.7917084E-4,0E0,0E0,3.7825142E-5,6.312892E-4,2.7182046E-5,9.177513E-4,1.0776741E-5,0E0,2.6469352E-5,6.755296E-5,2.6657246E-5,3.1489646E-5,9.427174E-4,1.3392225E-4,1.9815634E-5,0E0,0E0,0E0,0E0,1.4773781E-5,1.9225292E-5,4.1766783E-5,9.578827E-6,3.5470002E-5,5.3609954E-4,0E0,1.3177133E-4,2.445707E-5,0E0,0E0,0E0,0E0,1.7034821E-5,0E0,0E0,3.4921213E-5,2.5557201E-6,0E0,3.219722E-5,1.4952209E-5,0E0,0E0,1.2636184E-5,3.8817932E-5,5.8334067E-6,6.8915288E-6,0E0,0E0,0E0,0E0,0E0,0E0,0E0,0E0,0E0,0E0,0E0,0E0,0E0,0E0,0E0,0E0,0E0,0E0],"parents":[2147483647,0,0,1,1,2,2,3,3,4,4,7,7,8,8,9,9,10,10,11,11,13,13,14,14,15,15,16,16,17,17,18,18,19,19,24,24,25,25,26,26,27,27,28,28,29,29,31,31,32,32,37,37,40,40,41,41,43,43,44,44,47,47,48,48,49,49,50,50],"right_children":[2,4,6,8,10,-1,-1,12,14,16,18,20,-1,22,24,26,28,30,32,34,-1,-1,-1,-1,36,38,40,42,44,46,-1,48,50,-1,-1,-1,-1,52,-1,-1,54,56,-1,58,60,-1,-1,62,64,66,68,-1,-1,-1,-1,-1,-1,-1,-1,-1,-1,-1,-1,-1,-1,-1,-1,-1,-1],"split_conditions":[1.9513458E0,2.3397982E1,1.3523666E1,3.7828362E0,1.3547773E0,7.454441E-4,3.294944E-3,3.9849136E0,2.746575E1,1.8204584E1,3.48E0,1.2624362E-1,-1.1050756E-4,3.094714E1,1.5179958E0,4.77E0,-3.2077384E0,3.7828362E0,3.71E0,5.587315E-2,1.1085482E-4,2.4115275E-4,9.5990713E-4,2.242792E-4,2.2747974E1,3.074127E0,2.5030499E0,1.676055E1,3.9065555E-5,3.2094667E0,-6.5531305E-5,5.550514E0,3.9396698E1,2.7706037E-5,-1.0185908E-4,1.6440545E-5,-1.6857451E-4,9.931923E0,-1.0986114E-5,-1.19672404E-4,3.7833073E1,4.5469017E0,1.4800656E-6,2.9486175E0,5.347E1,-1.7196872E-7,1.2939944E-3,3.57E0,3.9065555E-5,1.6015491E1,4.11E0,-7.2726325E-5,-1.04461054E-4,9.809457E-5,-6.678303E-5,-5.443658E-5,-1.0916893E-4,-4.5349676E-5,-1.4958176E-4,-6.5347405E-5,-1.1639468E-4,9.540233E-5,-2.7438879E-5,4.6180148E-4,1.0325626E-4,-7.411658E-5,-7.1323643E-6,-1.7799309E-4,-1.603784E-5],"split_indices":[4,31,5,55,4,0,0,46,51,32,38,4,0,13,4,37,55,35,47,13,0,0,0,0,5,58,53,17,8,5,0,53,13,0,0,0,0,32,0,0,13,53,0,53,31,0,0,38,8,39,27,0,0,0,0,0,0,0,0,0,0,0,0,0,0,0,0,0,0],"split_type":[0,0,0,0,0,0,0,0,0,0,0,0,0,0,0,0,0,0,0,0,0,0,0,0,0,0,0,0,0,0,0,0,0,0,0,0,0,0,0,0,0,0,0,0,0,0,0,0,0,0,0,0,0,0,0,0,0,0,0,0,0,0,0,0,0,0,0,0,0],"sum_hessian":[3.658E3,3.654E3,4E0,2.398E3,1.256E3,3E0,1E0,2.388E3,1E1,1.218E3,3.8E1,2.384E3,4E0,4E0,6E0,9.89E2,2.29E2,7E0,3.1E1,2.381E3,3E0,1E0,3E0,3E0,3E0,9.7E2,1.9E1,2.1E1,2.08E2,4E0,3E0,1.2E1,1.9E1,2.379E3,2E0,2E0,1E0,9.64E2,6E0,8E0,1.1E1,1.6E1,5E0,1.37E2,7.1E1,1E0,3E0,8E0,4E0,1.4E1,5E0,5.5E1,9.09E2,6E0,5E0,1.1E1,5E0,9E0,1.28E2,3E1,4.1E1,2E0,6E0,2E0,2E0,4E0,1E1,4E0,1E0],"tree_param":{"num_deleted":"0","num_feature":"60","num_nodes":"69","size_leaf_vector":"1"}},{"base_weights":[-2.1161219E-5,-7.0740214E-5,3.6116242E-2,8.5368427E-4,-1.8680092E-3,1.3019598E-2,3.2125704E-3,8.1325707E-4,1.4598265E-2,-1.9784037E-3,4.623823E-3,8.0105447E-4,1.00378136E-4,8.0283836E-4,4.436819E-4,1.3349273E-3,-1.1515787E-3,-2.0311675E-3,-1.517233E-3,5.355972E-5,1.6040554E-2,8.1906526E-4,-2.794329E-3,-8.108763E-5,6.473577E-6,-1.9713512E-3,-2.5026824E-3,-1.2938475E-3,-2.8228962E-3,1.4758687E-3,-9.4741257E-4,3.538076E-4,9.3768595E-4,4.1057247E-5,-5.543285E-5,-1.723109E-4,-6.614095E-5,-2.0336118E-3,-1.1996E-3,-2.4872978E-4,-2.0983238E-3,-1.5769E-3,-7.6522224E-4,-7.402726E-5,-1.6853465E-4,-1.7935783E-5,2.2814455E-3,-1.9234998E-5,-8.476533E-5,-9.597734E-5,-1.1683022E-4,-7.349936E-5,-2.6218882E-5,-6.459488E-5,-1.1685845E-4,-5.7864352E-5,-1.0472701E-4,-6.9921116E-5,-2.5792688E-5,1.2890005E-4,2.7380605E-5],"categories":[],"categories_nodes":[],"categories_segments":[],"categories_sizes":[],"default_left":[0,0,0,0,0,0,0,0,0,0,0,0,0,0,0,0,0,0,0,0,0,0,0,0,0,0,0,0,0,0,0,0,0,0,0,0,0,0,0,0,0,0,0,0,0,0,0,0,0,0,0,0,0,0,0,0,0,0,0,0,0],"id":24,"left_children":[1,3,5,7,9,11,-1,13,15,17,19,-1,-1,21,-1,-1,23,25,27,29,31,33,35,-1,-1,37,39,41,43,45,47,-1,-1,-1,-1,-1,-1,49,51,-1,53,55,57,-1,-1,-1,59,-1,-1,-1,-1,-1,-1,-1,-1,-1,-1,-1,-1,-1,-1],"loss_changes":[6.538517E-3,6.0558803E-3,2.4126116E-3,1.3255898E-3,8.963756E-4,1.00046746E-4,0E0,1.9450823E-4,1.364788E-3,2.6555732E-5,1.0948676E-3,0E0,0E0,1.4232018E-4,0E0,0E0,2.6192365E-6,2.5809277E-5,3.3972523E-5,2.4177329E-5,1.3227225E-5,1.048774E-5,5.9931554E-6,0E0,0E0,4.4264598E-5,1.0850682E-4,1.5551748E-5,8.245581E-6,1.1163682E-5,3.556309E-6,0E0,0E0,0E0,0E0,0E0,0E0,2.6550377E-5,1.2922021E-5,0E0,1.701212E-5,1.3215031E-5,5.752525E-6,0E0,0E0,0E0,1.1591437E-6,0E0,0E0,0E0,0E0,0E0,0E0,0E0,0E0,0E0,0E0,0E0,0E0,0E0,0E0],"parents":[2147483647,0,0,1,1,2,2,3,3,4,4,5,5,7,7,8,8,9,9,10,10,13,13,16,16,17,17,18,18,19,19,20,20,21,21,22,22,25,25,26,26,27,27,28,28,29,29,30,30,37,37,38,38,40,40,41,41,42,42,46,46],"right_children":[2,4,6,8,10,12,-1,14,16,18,20,-1,-1,22,-1,-1,24,26,28,30,32,34,36,-1,-1,38,40,42,44,46,48,-1,-1,-1,-1,-1,-1,50,52,-1,54,56,58,-1,-1,-1,60,-1,-1,-1,-1,-1,-1,-1,-1,-1,-1,-1,-1,-1,-1],"split_conditions":[1.9513458E0,9.335811E0,1.2661125E1,1.10992985E1,1.5164465E0,2.1892364E0,3.2125704E-3,5.3032575E0,7.4129715E1,3.627471E-1,3.7828362E0,8.0105447E-4,1.00378136E-4,3.716252E0,4.436819E-4,1.3349273E-3,1.0450382E0,3.7873085E0,5.856971E1,1.570609E1,1.5648164E0,1.5841642E1,1.699714E1,-8.108763E-5,6.473577E-6,2.2720184E0,1.3668121E-1,1.2094662E1,1.836926E1,3.46E0,1.0315872E1,3.538076E-4,9.3768595E-4,4.1057247E-5,-5.543285E-5,-1.723109E-4,-6.614095E-5,1.7056038E-3,4.8223408E1,-2.4872978E-4,5.524074E0,5.326723E0,8.4799856E-1,-7.402726E-5,-1.6853465E-4,-1.7935783E-5,1.5791017E0,-1.9234998E-5,-8.476533E-5,-9.597734E-5,-1.1683022E-4,-7.349936E-5,-2.6218882E-5,-6.459488E-5,-1.1685845E-4,-5.7864352E-5,-1.0472701E-4,-6.9921116E-5,-2.5792688E-5,1.2890005E-4,2.7380605E-5],"split_indices":[4,26,5,33,4,4,0,55,16,4,55,0,0,53,0,0,4,6,31,17,4,17,17,0,0,6,4,18,39,37,33,0,0,0,0,0,0,4,31,0,6,53,55,0,0,0,4,0,0,0,0,0,0,0,0,0,0,0,0,0,0],"split_type":[0,0,0,0,0,0,0,0,0,0,0,0,0,0,0,0,0,0,0,0,0,0,0,0,0,0,0,0,0,0,0,0,0,0,0,0,0,0,0,0,0,0,0,0,0,0,0,0,0,0,0,0,0,0,0,0,0,0,0,0,0],"sum_hessian":[3.647E3,3.643E3,4E0,2.406E3,1.237E3,3E0,1E0,2.4E3,6E0,1.217E3,2E1,2E0,1E0,2.398E3,2E0,3E0,3E0,1.089E3,1.28E2,1.5E1,5E0,2.388E3,1E1,2E0,1E0,9.71E2,1.18E2,1.11E2,1.7E1,6E0,9E0,2E0,3E0,2.386E3,2E0,6E0,4E0,8.97E2,7.4E1,1.5E1,1.03E2,7.1E1,4E1,6E0,1.1E1,2E0,4E0,6E0,3E0,6.57E2,2.4E2,5.2E1,2.2E1,2.5E1,7.8E1,4.1E1,3E1,1E1,3E1,3E0,1E0],"tree_param":{"num_deleted":"0","num_feature":"60","num_nodes":"61","size_leaf_vector":"1"}},{"base_weights":[1.0486076E-4,1.099609E-3,-1.7555094E-3,1.0343856E-3,3.9746713E-2,-1.8150487E-3,7.923233E-3,9.996932E-4,6.4537856E-3,1.7203438E-5,5.2766237E-2,-1.8710572E-3,4.2170966E-3,-1.1220771E-3,1.1686388E-3,5.052038E-5,-9.6344906E-5,8.237579E-4,2.575513E-3,8.252116E-4,3.1322562E-3,-1.8926649E-3,-7.276324E-5,9.4874314E-4,-6.3194305E-4,1.7509899E-4,-1.3736423E-4,3.9110403E-3,-1.3673748E-4,-1.8389203E-3,-2.172629E-3,-4.6524758E-4,8.915424E-5,1.6985659E-4,-1.2797139E-4,8.357438E-5,2.3160323E-4,-1.9171198E-3,-1.6044624E-3,-3.1561395E-3,-1.974681E-3,-5.259223E-5,-1.1244375E-6,-1.9285835E-5,6.1219216E-5,-9.7336466E-5,-3.4509198E-5,-5.162803E-5,-9.0412046E-5,-8.476007E-5,-1.9374478E-4,-8.2567705E-5,-1.295655E-4],"categories":[],"categories_nodes":[],"categories_segments":[],"categories_sizes":[],"default_left":[0,0,0,0,0,0,0,0,0,0,0,0,0,0,0,0,0,0,0,0,0,0,0,0,0,0,0,0,0,0,0,0,0,0,0,0,0,0,0,0,0,0,0,0,0,0,0,0,0,0,0,0,0],"id":25,"left_children":[1,3,5,7,9,11,13,15,17,-1,19,21,23,25,-1,-1,-1,-1,27,-1,-1,29,31,-1,33,-1,-1,35,-1,37,39,41,-1,43,-1,-1,-1,45,47,49,51,-1,-1,-1,-1,-1,-1,-1,-1,-1,-1,-1,-1],"loss_changes":[6.7880806E-3,5.9833396E-3,7.508481E-4,4.4233445E-4,2.0338595E-3,4.3729972E-4,1.1441933E-3,7.635658E-5,5.4055225E-4,0E0,4.0774234E-5,4.8822258E-5,8.707229E-4,5.4711236E-5,0E0,0E0,0E0,0E0,9.579973E-5,0E0,0E0,1.4737714E-5,1.2483836E-5,0E0,1.5889302E-5,0E0,0E0,8.405274E-6,0E0,1.6193371E-5,3.1731033E-5,3.612439E-6,0E0,5.1592046E-6,0E0,0E0,0E0,2.7101953E-5,2.948253E-5,2.5983056E-5,2.861733E-5,0E0,0E0,0E0,0E0,0E0,0E0,0E0,0E0,0E0,0E0,0E0,0E0],"parents":[2147483647,0,0,1,1,2,2,3,3,4,4,5,5,6,6,7,7,8,8,10,10,11,11,12,12,13,13,18,18,21,21,22,22,24,24,27,27,29,29,30,30,31,31,33,33,37,37,38,38,39,39,40,40],"right_children":[2,4,6,8,10,12,14,16,18,-1,20,22,24,26,-1,-1,-1,-1,28,-1,-1,30,32,-1,34,-1,-1,36,-1,38,40,42,-1,44,-1,-1,-1,46,48,50,52,-1,-1,-1,-1,-1,-1,-1,-1,-1,-1,-1,-1],"split_conditions":[2.3397982E1,1.1297621E1,2.6383297E1,3.8421944E1,5.8540375E1,4.6944492E1,3.73E0,5.587315E-2,1.4960134E1,1.7203438E-5,3.672875E1,4.426382E1,5.427506E-3,4.609415E-2,1.1686388E-3,5.052038E-5,-9.6344906E-5,8.237579E-4,2.4205205E0,8.252116E-4,3.1322562E-3,1.848663E1,1.7512116E0,9.4874314E-4,6.1901486E-1,1.7509899E-4,-1.3736423E-4,2.9085527E1,-1.3673748E-4,5.122487E1,3.64E0,4.2028503E0,8.915424E-5,8.737089E0,-1.2797139E-4,8.357438E-5,2.3160323E-4,3.9146564E1,7.413301E0,3.32E0,6.3312138E1,-5.259223E-5,-1.1244375E-6,-1.9285835E-5,6.1219216E-5,-9.7336466E-5,-3.4509198E-5,-5.162803E-5,-9.0412046E-5,-8.476007E-5,-1.9374478E-4,-8.2567705E-5,-1.295655E-4],"split_indices":[31,33,7,6,6,6,46,13,32,0,7,6,8,25,0,0,0,0,12,0,0,39,8,0,12,0,0,13,0,31,27,53,0,7,0,0,0,13,56,27,31,0,0,0,0,0,0,0,0,0,0,0,0],"split_type":[0,0,0,0,0,0,0,0,0,0,0,0,0,0,0,0,0,0,0,0,0,0,0,0,0,0,0,0,0,0,0,0,0,0,0,0,0,0,0,0,0,0,0,0,0,0,0,0,0,0,0,0,0],"sum_hessian":[3.666E3,2.389E3,1.277E3,2.386E3,3E0,1.27E3,7E0,2.372E3,1.4E1,1E0,2E0,1.259E3,1.1E1,5E0,2E0,2.364E3,8E0,3E0,1.1E1,1E0,1E0,1.244E3,1.5E1,2E0,9E0,1E0,4E0,9E0,2E0,1.05E3,1.94E2,1.3E1,2E0,7E0,2E0,3E0,6E0,7.82E2,2.68E2,3E1,1.64E2,5E0,8E0,5E0,2E0,7.63E2,1.9E1,7.2E1,1.96E2,1.1E1,1.9E1,1.1E2,5.4E1],"tree_param":{"num_deleted":"0","num_feature":"60","num_nodes":"53","size_leaf_vector":"1"}},{"base_weights":[2.2085751E-5,9.2084805E-4,-1.6560452E-3,8.565836E-4,5.1447082E-2,-1.7667558E-3,2.3072606E-3,8.107751E-4,6.804821E-3,8.0458133E-4,3.05395E-3,-1.1433196E-3,-1.7953252E-3,-1.0390622E-4,1.6795043E-2,4.1100902E-5,-9.545043E-5,8.2245463E-4,2.8743802E-3,-7.349153E-4,-1.8084454E-3,-2.1867002E-3,-1.753933E-3,3.1770496E-3,-1.0184175E-3,-9.6507814E-5,1.0979441E-3,4.343899E-3,-1.8853918E-3,-1.6589158E-3,-5.726451E-4,-1.48997415E-5,-2.0436319E-3,-2.2676503E-3,-4.1911207E-4,-1.5911557E-3,-1.9044138E-3,-2.3060245E-5,4.0908955E-4,-3.8333584E-4,-2.1283813E-4,8.044031E-5,2.584229E-4,9.730179E-6,-1.3217957E-4,-1.2980662E-4,-8.436355E-6,-4.2179157E-4,-5.363511E-5,-2.1532339E-3,-4.5099996E-6,-2.5983395E-3,-1.6735896E-3,-5.121463E-5,2.6374963E-5,-1.792983E-3,-1.3271271E-3,-2.0218885E-3,-1.4073438E-3,-8.9510414E-4,6.2414666E-4,-2.7437043E-5,1.2326668E-5,-1.17855925E-4,-4.5066456E-5,-1.4970299E-4,-8.727716E-5,-9.8664364E-5,-1.1406921E-5,-8.1011436E-5,-1.1870127E-4,-4.897282E-5,-8.0316E-5,-9.849898E-5,-1.6893046E-4,-2.351321E-5,-8.476105E-5,-7.464081E-5,-1.6538048E-5,6.1664636E-5,6.000232E-7],"categories":[],"categories_nodes":[],"categories_segments":[],"categories_sizes":[],"default_left":[0,0,0,0,0,0,0,0,0,0,0,0,0,0,0,0,0,0,0,0,0,0,0,0,0,0,0,0,0,0,0,0,0,0,0,0,0,0,0,0,0,0,0,0,0,0,0,0,0,0,0,0,0,0,0,0,0,0,0,0,0,0,0,0,0,0,0,0,0,0,0,0,0,0,0,0,0,0,0,0,0],"id":26,"left_children":[1,3,5,7,9,11,13,15,17,-1,-1,19,21,23,25,-1,-1,-1,27,29,31,33,35,37,39,-1,-1,41,43,45,47,-1,49,51,53,55,57,-1,-1,59,-1,-1,-1,-1,-1,-1,-1,61,-1,63,-1,65,67,-1,-1,69,71,73,75,77,79,-1,-1,-1,-1,-1,-1,-1,-1,-1,-1,-1,-1,-1,-1,-1,-1,-1,-1,-1,-1],"loss_changes":[5.5005713E-3,7.6676533E-3,5.622038E-4,6.410775E-4,3.8761646E-5,1.9997824E-5,1.2243812E-3,7.36115E-5,6.350314E-4,0E0,0E0,1.4154444E-5,1.5312806E-5,9.625017E-5,5.258537E-4,0E0,0E0,0E0,1.0611399E-4,4.5977285E-6,6.850998E-6,1.4645979E-5,2.3277244E-5,1.3123313E-4,4.978358E-5,0E0,0E0,1.649266E-5,6.822661E-6,6.5451113E-6,2.0369116E-6,0E0,3.6595666E-6,