{"learner":{"attributes":{"scikit_learn":"{\"_estimator_type\": \"regressor\"}"},"feature_names":[],"feature_types":[],"gradient_booster":{"model":{"gbtree_model_param":{"num_parallel_tree":"1","num_trees":"600"},"iteration_indptr":[0,1,2,3,4,5,6,7,8,9,10,11,12,13,14,15,16,17,18,19,20,21,22,23,24,25,26,27,28,29,30,31,32,33,34,35,36,37,38,39,40,41,42,43,44,45,46,47,48,49,50,51,52,53,54,55,56,57,58,59,60,61,62,63,64,65,66,67,68,69,70,71,72,73,74,75,76,77,78,79,80,81,82,83,84,85,86,87,88,89,90,91,92,93,94,95,96,97,98,99,100,101,102,103,104,105,106,107,108,109,110,111,112,113,114,115,116,117,118,119,120,121,122,123,124,125,126,127,128,129,130,131,132,133,134,135,136,137,138,139,140,141,142,143,144,145,146,147,148,149,150,151,152,153,154,155,156,157,158,159,160,161,162,163,164,165,166,167,168,169,170,171,172,173,174,175,176,177,178,179,180,181,182,183,184,185,186,187,188,189,190,191,192,193,194,195,196,197,198,199,200,201,202,203,204,205,206,207,208,209,210,211,212,213,214,215,216,217,218,219,220,221,222,223,224,225,226,227,228,229,230,231,232,233,234,235,236,237,238,239,240,241,242,243,244,245,246,247,248,249,250,251,252,253,254,255,256,257,258,259,260,261,262,263,264,265,266,267,268,269,270,271,272,273,274,275,276,277,278,279,280,281,282,283,284,285,286,287,288,289,290,291,292,293,294,295,296,297,298,299,300,301,302,303,304,305,306,307,308,309,310,311,312,313,314,315,316,317,318,319,320,321,322,323,324,325,326,327,328,329,330,331,332,333,334,335,336,337,338,339,340,341,342,343,344,345,346,347,348,349,350,351,352,353,354,355,356,357,358,359,360,361,362,363,364,365,366,367,368,369,370,371,372,373,374,375,376,377,378,379,380,381,382,383,384,385,386,387,388,389,390,391,392,393,394,395,396,397,398,399,400,401,402,403,404,405,406,407,408,409,410,411,412,413,414,415,416,417,418,419,420,421,422,423,424,425,426,427,428,429,430,431,432,433,434,435,436,437,438,439,440,441,442,443,444,445,446,447,448,449,450,451,452,453,454,455,456,457,458,459,460,461,462,463,464,465,466,467,468,469,470,471,472,473,474,475,476,477,478,479,480,481,482,483,484,485,486,487,488,489,490,491,492,493,494,495,496,497,498,499,500,501,502,503,504,505,506,507,508,509,510,511,512,513,514,515,516,517,518,519,520,521,522,523,524,525,526,527,528,529,530,531,532,533,534,535,536,537,538,539,540,541,542,543,544,545,546,547,548,549,550,551,552,553,554,555,556,557,558,559,560,561,562,563,564,565,566,567,568,569,570,571,572,573,574,575,576,577,578,579,580,581,582,583,584,585,586,587,588,589,590,591,592,593,594,595,596,597,598,599,600],"tree_info":[0,0,0,0,0,0,0,0,0,0,0,0,0,0,0,0,0,0,0,0,0,0,0,0,0,0,0,0,0,0,0,0,0,0,0,0,0,0,0,0,0,0,0,0,0,0,0,0,0,0,0,0,0,0,0,0,0,0,0,0,0,0,0,0,0,0,0,0,0,0,0,0,0,0,0,0,0,0,0,0,0,0,0,0,0,0,0,0,0,0,0,0,0,0,0,0,0,0,0,0,0,0,0,0,0,0,0,0,0,0,0,0,0,0,0,0,0,0,0,0,0,0,0,0,0,0,0,0,0,0,0,0,0,0,0,0,0,0,0,0,0,0,0,0,0,0,0,0,0,0,0,0,0,0,0,0,0,0,0,0,0,0,0,0,0,0,0,0,0,0,0,0,0,0,0,0,0,0,0,0,0,0,0,0,0,0,0,0,0,0,0,0,0,0,0,0,0,0,0,0,0,0,0,0,0,0,0,0,0,0,0,0,0,0,0,0,0,0,0,0,0,0,0,0,0,0,0,0,0,0,0,0,0,0,0,0,0,0,0,0,0,0,0,0,0,0,0,0,0,0,0,0,0,0,0,0,0,0,0,0,0,0,0,0,0,0,0,0,0,0,0,0,0,0,0,0,0,0,0,0,0,0,0,0,0,0,0,0,0,0,0,0,0,0,0,0,0,0,0,0,0,0,0,0,0,0,0,0,0,0,0,0,0,0,0,0,0,0,0,0,0,0,0,0,0,0,0,0,0,0,0,0,0,0,0,0,0,0,0,0,0,0,0,0,0,0,0,0,0,0,0,0,0,0,0,0,0,0,0,0,0,0,0,0,0,0,0,0,0,0,0,0,0,0,0,0,0,0,0,0,0,0,0,0,0,0,0,0,0,0,0,0,0,0,0,0,0,0,0,0,0,0,0,0,0,0,0,0,0,0,0,0,0,0,0,0,0,0,0,0,0,0,0,0,0,0,0,0,0,0,0,0,0,0,0,0,0,0,0,0,0,0,0,0,0,0,0,0,0,0,0,0,0,0,0,0,0,0,0,0,0,0,0,0,0,0,0,0,0,0,0,0,0,0,0,0,0,0,0,0,0,0,0,0,0,0,0,0,0,0,0,0,0,0,0,0,0,0,0,0,0,0,0,0,0,0,0,0,0,0,0,0,0,0,0,0,0,0,0,0,0,0,0,0,0,0,0,0,0,0,0,0,0,0,0,0,0,0,0,0,0,0,0,0,0,0,0,0,0,0,0,0,0,0,0,0,0,0,0,0,0,0,0,0,0,0,0,0,0,0,0,0,0,0,0,0,0,0,0,0,0,0,0,0,0,0,0,0,0,0,0,0,0,0,0,0,0,0,0,0],"trees":[{"base_weights":[2.441939E-2,2.8246033E-1,-1.7469978E-1,1.6347945E-2,-1.1350652E-2,-1.4830875E-2,-4.4047076E-2,-8.708589E-2,1.1443409E-2,-8.916168E-3,-2.419393E-1,7.6495293E-3,-5.2261993E-2,-1.3620782E-2,-2.2389411E-3,2.2592854E-2,-9.826374E-2,-1.4115076E-3,3.2942456E-3,-1.1306425E-3,-6.2000765E-3],"categories":[],"categories_nodes":[],"categories_segments":[],"categories_sizes":[],"default_left":[0,0,0,0,0,0,0,0,0,0,0,0,0,0,0,0,0,0,0,0,0],"id":0,"left_children":[1,3,5,-1,-1,-1,7,9,-1,11,13,-1,15,-1,-1,17,19,-1,-1,-1,-1],"loss_changes":[3.5432472E0,7.5434875E-1,6.081611E-1,0E0,0E0,0E0,2.5485018E-1,2.157301E-1,0E0,9.922935E-2,2.3853928E-2,0E0,4.0098056E-2,0E0,0E0,1.2861103E-2,1.0825574E-2,0E0,0E0,0E0,0E0],"parents":[2147483647,0,0,1,1,2,2,6,6,7,7,9,9,10,10,12,12,15,15,16,16],"right_children":[2,4,6,-1,-1,-1,8,10,-1,12,14,-1,16,-1,-1,18,20,-1,-1,-1,-1],"split_conditions":[1.65E0,2.01E0,1.3371897E0,1.6347945E-2,-1.1350652E-2,-1.4830875E-2,1.4281558E1,2E0,1.1443409E-2,1.87E0,1.6147876E0,7.6495293E-3,8.891712E-1,-1.3620782E-2,-2.2389411E-3,4.0642414E0,1.87E0,-1.4115076E-3,3.2942456E-3,-1.1306425E-3,-6.2000765E-3],"split_indices":[43,34,4,0,0,0,5,54,0,34,4,0,42,0,0,8,43,0,0,0,0],"split_type":[0,0,0,0,0,0,0,0,0,0,0,0,0,0,0,0,0,0,0,0,0],"sum_hessian":[6.7E1,2.9E1,3.8E1,2.7E1,2E0,1.9E1,1.9E1,1.7E1,2E0,1.2E1,5E0,2E0,1E1,4E0,1E0,4E0,6E0,2E0,2E0,2E0,4E0],"tree_param":{"num_deleted":"0","num_feature":"56","num_nodes":"21","size_leaf_vector":"1"}},{"base_weights":[2.3998031E-2,2.2543204E-1,-2.1180825E-1,3.0069673E-1,-2.5410056E-2,-2.0763533E-2,-2.5870427E-1,1.5331775E-2,3.6572188E-3,-1.2218519E-2,9.931615E-3,-4.728234E-2,3.4587325E-3,-2.3158253E-3,-2.7590698E-1,-1.083301E-3,-3.2838327E-3,-2.844013E-1,-2.4381578E-3,-1.4607673E-2,-3.2339455E-3],"categories":[],"categories_nodes":[],"categories_segments":[],"categories_sizes":[],"default_left":[0,0,0,0,0,0,0,0,0,0,0,0,0,0,0,0,0,0,0,0,0],"id":1,"left_children":[1,3,5,7,9,11,13,-1,-1,-1,-1,15,-1,-1,17,-1,-1,19,-1,-1,-1],"loss_changes":[3.0877104E0,6.684252E-1,2.6340568E-1,1.405859E-2,4.9004734E-1,1.9966109E-2,7.490826E-2,0E0,0E0,0E0,0E0,1.4042147E-3,0E0,0E0,2.8579116E-2,0E0,0E0,1.6873717E-2,0E0,0E0,0E0],"parents":[2147483647,0,0,1,1,2,2,3,3,4,4,5,5,6,6,11,11,14,14,17,17],"right_children":[2,4,6,8,10,12,14,-1,-1,-1,-1,16,-1,-1,18,-1,-1,20,-1,-1,-1],"split_conditions":[2.7065516E0,7.4202016E-2,1.473173E1,2.5709896E0,1.4319637E0,1.6177877E0,3.8938649E0,1.5331775E-2,3.6572188E-3,-1.2218519E-2,9.931615E-3,1.69E0,3.4587325E-3,-2.3158253E-3,3.37E0,-1.083301E-3,-3.2838327E-3,1.7485327E1,-2.4381578E-3,-1.4607673E-2,-3.2339455E-3],"split_indices":[13,54,27,13,4,4,55,0,0,0,0,33,0,0,34,0,0,16,0,0,0],"split_type":[0,0,0,0,0,0,0,0,0,0,0,0,0,0,0,0,0,0,0,0,0],"sum_hessian":[6.3E1,3.4E1,2.9E1,2.6E1,8E0,6E0,2.3E1,2.5E1,1E0,4E0,4E0,5E0,1E0,2E0,2.1E1,3E0,2E0,2E1,1E0,1.9E1,1E0],"tree_param":{"num_deleted":"0","num_feature":"56","num_nodes":"21","size_leaf_vector":"1"}},{"base_weights":[-3.059581E-3,2.4352337E-1,-1.7818274E-1,1.4563294E-2,-2.4796892E-2,-1.4460169E-2,-2.402765E-2,-1.0838344E-2,8.771936E-3,1.3227451E-1,-1.2130833E-1,9.236679E-3,7.512172E-4,-2.0771895E-1,-1.4679651E-2,-1.4616132E-3,1.5179545E-3,-1.7672897E-3,-1.1756222E-2,3.5657883E-3,-4.6141885E-2,-3.038011E-3,-8.0714625E-4],"categories":[],"categories_nodes":[],"categories_segments":[],"categories_sizes":[],"default_left":[0,0,0,0,0,0,0,0,0,0,0,0,0,0,0,0,0,0,0,0,0,0,0],"id":2,"left_children":[1,3,5,-1,7,-1,9,-1,-1,11,13,-1,15,17,19,-1,-1,-1,-1,-1,21,-1,-1],"loss_changes":[2.8070643E0,3.5310018E-1,6.4339817E-1,0E0,2.3022544E-1,0E0,2.7453405E-1,0E0,0E0,4.8158363E-2,9.830311E-2,0E0,3.5507062E-3,2.003315E-2,1.9524293E-2,0E0,0E0,0E0,0E0,0E0,1.2118267E-3,0E0,0E0],"parents":[2147483647,0,0,1,1,2,2,4,4,6,6,9,9,10,10,12,12,13,13,14,14,20,20],"right_children":[2,4,6,-1,8,-1,10,-1,-1,12,14,-1,16,18,20,-1,-1,-1,-1,-1,22,-1,-1],"split_conditions":[1.76E0,2.167223E1,1.4070212E0,1.4563294E-2,1.4591844E0,-1.4460169E-2,2.478067E-1,-1.0838344E-2,8.771936E-3,2.7321053E0,2.5134451E0,9.236679E-3,1.4674623E0,8.99408E0,1.4126766E0,-1.4616132E-3,1.5179545E-3,-1.7672897E-3,-1.1756222E-2,3.5657883E-3,1.5185323E0,-3.038011E-3,-8.0714625E-4],"split_indices":[34,7,4,0,4,0,42,0,0,17,17,0,4,5,4,0,0,0,0,0,4,0,0],"split_type":[0,0,0,0,0,0,0,0,0,0,0,0,0,0,0,0,0,0,0,0,0,0,0],"sum_hessian":[6.3E1,2.6E1,3.7E1,2.2E1,4E0,2.1E1,1.6E1,2E0,2E0,6E0,1E1,4E0,2E0,5E0,5E0,1E0,1E0,1E0,4E0,1E0,4E0,2E0,2E0],"tree_param":{"num_deleted":"0","num_feature":"56","num_nodes":"23","size_leaf_vector":"1"}},{"base_weights":[-1.8280877E-3,2.1270986E-1,-1.9938073E-1,1.4103887E-2,1.1082446E-2,-2.681389E-1,-6.2356822E-2,-1.4028509E-1,1.9050701E-1,-1.3888805E-2,-5.243699E-3,-2.0224872E-1,1.3824808E-2,-9.936201E-3,-7.802407E-4,1.1166686E-2,1.4800042E-3,-1.1737063E-2,-1.8069654E-3,-4.3682914E-2,5.550356E-3,2.8065771E-3,-3.483696E-3],"categories":[],"categories_nodes":[],"categories_segments":[],"categories_sizes":[],"default_left":[0,0,0,0,0,0,0,0,0,0,0,0,0,0,0,0,0,0,0,0,0,0,0],"id":3,"left_children":[1,3,5,-1,7,9,11,13,15,-1,-1,17,19,-1,-1,-1,-1,-1,-1,21,-1,-1,-1],"loss_changes":[3.0939531E0,4.864E-1,3.4129715E-1,0E0,2.9831582E-1,1.0203958E-2,1.5199673E-1,4.0616043E-2,1.979953E-2,0E0,0E0,1.8503204E-2,6.0736455E-2,0E0,0E0,0E0,0E0,0E0,0E0,2.2070847E-2,0E0,0E0,0E0],"parents":[2147483647,0,0,1,1,2,2,4,4,5,5,6,6,7,7,8,8,11,11,12,12,19,19],"right_children":[2,4,6,-1,8,10,12,14,16,-1,-1,18,20,-1,-1,-1,-1,-1,-1,22,-1,-1,-1],"split_conditions":[1.65E0,1.65E0,4.2338634E1,1.4103887E-2,1.41E0,1.4096352E1,2.081572E0,4.3023872E1,4.7149593E1,-1.3888805E-2,-5.243699E-3,4.8443626E1,2.0976284E1,-9.936201E-3,-7.802407E-4,1.1166686E-2,1.4800042E-3,-1.1737063E-2,-1.8069654E-3,1.6268051E1,5.550356E-3,2.8065771E-3,-3.483696E-3],"split_indices":[33,43,6,0,33,35,17,6,6,0,0,6,7,0,0,0,0,0,0,7,0,0,0],"split_type":[0,0,0,0,0,0,0,0,0,0,0,0,0,0,0,0,0,0,0,0,0,0,0],"sum_hessian":[7.1E1,3.4E1,3.7E1,2.5E1,9E0,2.4E1,1.3E1,5E0,4E0,2.2E1,2E0,4E0,9E0,3E0,2E0,3E0,1E0,3E0,1E0,6E0,3E0,1E0,5E0],"tree_param":{"num_deleted":"0","num_feature":"56","num_nodes":"23","size_leaf_vector":"1"}},{"base_weights":[5.399735E-3,2.5430542E-1,-1.5652396E-1,1.3280811E-2,-7.1159605E-4,-2.6219305E-1,1.8366732E-2,-1.2590548E-1,-1.3752738E-2,1.1029065E-1,-8.7343514E-2,-7.137295E-3,-1.8846066E-3,8.39026E-3,-3.5538375E-3,-2.1764552E-3,-1.2027565E-1,-1.1989255E-3,1.4430046E-3,-6.8438496E-3,-1.7617912E-3],"categories":[],"categories_nodes":[],"categories_segments":[],"categories_sizes":[],"default_left":[0,0,0,0,0,0,0,0,0,0,0,0,0,0,0,0,0,0,0,0,0],"id":4,"left_children":[1,3,5,-1,-1,7,9,11,-1,13,15,-1,-1,-1,17,-1,19,-1,-1,-1,-1],"loss_changes":[2.6595476E0,8.275175E-2,7.440374E-1,0E0,0E0,9.191155E-3,1.6510996E-1,5.617961E-4,0E0,5.9525773E-2,6.307725E-3,0E0,0E0,0E0,3.3401977E-3,0E0,8.2412735E-4,0E0,0E0,0E0,0E0],"parents":[2147483647,0,0,1,1,2,2,5,5,6,6,7,7,9,9,10,10,14,14,16,16],"right_children":[2,4,6,-1,-1,8,10,12,-1,14,16,-1,-1,-1,18,-1,20,-1,-1,-1,-1],"split_conditions":[6.778019E-2,2.5709896E0,1.4591844E0,1.3280811E-2,-7.1159605E-4,9.326791E-1,1.3122199E0,1.0363667E0,-1.3752738E-2,2.7321053E0,1.252887E0,-7.137295E-3,-1.8846066E-3,8.39026E-3,1.545492E0,-2.1764552E-3,1.6147876E0,-1.1989255E-3,1.4430046E-3,-6.8438496E-3,-1.7617912E-3],"split_indices":[54,13,4,0,0,4,42,8,0,17,54,0,0,0,4,0,4,0,0,0,0],"split_type":[0,0,0,0,0,0,0,0,0,0,0,0,0,0,0,0,0,0,0,0,0],"sum_hessian":[6.4E1,2.5E1,3.9E1,2.4E1,1E0,2.4E1,1.5E1,3E0,2.1E1,8E0,7E0,2E0,1E0,5E0,3E0,4E0,3E0,2E0,1E0,2E0,1E0],"tree_param":{"num_deleted":"0","num_feature":"56","num_nodes":"21","size_leaf_vector":"1"}},{"base_weights":[1.0285277E-2,2.0852783E-1,-1.822616E-1,2.5779364E-1,-1.0906625E-1,-2.4696101E-1,-4.8457544E-2,1.3089535E-2,3.7468255E-3,-9.73985E-3,1.3019919E-2,-1.2186569E-1,-1.3014947E-2,4.7268453E-3,-1.0662646E-1,-4.3043494E-4,1.4069289E-3,-6.8993843E-3,-1.837492E-3,-5.653286E-2,-9.398469E-3,-6.9380703E-4,-3.066481E-3],"categories":[],"categories_nodes":[],"categories_segments":[],"categories_sizes":[],"default_left":[0,0,0,0,0,0,0,0,0,0,0,0,0,0,0,0,0,0,0,0,0,0,0],"id":5,"left_children":[1,3,5,7,9,11,13,-1,-1,-1,15,17,-1,-1,19,-1,-1,-1,-1,21,-1,-1,-1],"loss_changes":[2.4809496E0,5.288054E-1,2.737155E-1,8.4733963E-4,5.486893E-2,4.985571E-3,1.0989411E-1,0E0,0E0,0E0,1.2232235E-3,4.1792542E-4,0E0,0E0,2.6046388E-2,0E0,0E0,0E0,0E0,5.812794E-4,0E0,0E0,0E0],"parents":[2147483647,0,0,1,1,2,2,3,3,4,4,5,5,6,6,10,10,11,11,14,14,19,19],"right_children":[2,4,6,8,10,12,14,-1,-1,-1,16,18,-1,-1,20,-1,-1,-1,-1,22,-1,-1,-1],"split_conditions":[1.65E0,1.95E0,1.4126766E0,2.5384946E0,1.4591844E0,9.326791E-1,1.1840512E0,1.3089535E-2,3.7468255E-3,-9.73985E-3,1.545492E0,3.3206673E0,-1.3014947E-2,4.7268453E-3,5.103007E0,-4.3043494E-4,1.4069289E-3,-6.8993843E-3,-1.837492E-3,1.4406444E0,-9.398469E-3,-6.9380703E-4,-3.066481E-3],"split_indices":[33,43,4,4,4,4,42,0,0,0,4,5,0,0,8,0,0,0,0,4,0,0,0],"split_type":[0,0,0,0,0,0,0,0,0,0,0,0,0,0,0,0,0,0,0,0,0,0,0],"sum_hessian":[6.3E1,3.1E1,3.2E1,2.7E1,4E0,2.1E1,1.1E1,2.6E1,1E0,2E0,2E0,3E0,1.8E1,3E0,8E0,1E0,1E0,2E0,1E0,6E0,2E0,1E0,5E0],"tree_param":{"num_deleted":"0","num_feature":"56","num_nodes":"23","size_leaf_vector":"1"}},{"base_weights":[1.68342E-2,2.0476595E-1,-1.7160767E-1,1.2124132E-2,-1.2930086E-1,-2.2767009E-1,-1.9897092E-2,-8.169083E-3,-6.764621E-4,-3.38552E-3,-1.1956707E-2,-7.449554E-2,4.0312232E-3,-4.148553E-2,-6.81389E-3,-2.3212624E-3,-4.1967334E-4],"categories":[],"categories_nodes":[],"categories_segments":[],"categories_sizes":[],"default_left":[0,0,0,0,0,0,0,0,0,0,0,0,0,0,0,0,0],"id":6,"left_children":[1,3,5,-1,7,9,11,-1,-1,-1,-1,13,-1,15,-1,-1,-1],"loss_changes":[2.3370628E0,4.4715E-1,2.761436E-1,0E0,1.3571925E-2,2.7819037E-2,6.0889363E-2,0E0,0E0,0E0,0E0,8.622479E-3,0E0,5.911244E-4,0E0,0E0,0E0],"parents":[2147483647,0,0,1,1,2,2,4,4,5,5,6,6,11,11,13,13],"right_children":[2,4,6,-1,8,10,12,-1,-1,-1,-1,14,-1,16,-1,-1,-1],"split_conditions":[7.4202016E-2,2.6769526E0,1.4591844E0,1.2124132E-2,1.0763733E0,9.326791E-1,2.0566093E1,-8.169083E-3,-6.764621E-4,-3.38552E-3,-1.1956707E-2,1.5481209E0,4.0312232E-3,3.8739376E0,-6.81389E-3,-2.3212624E-3,-4.1967334E-4],"split_indices":[54,13,4,0,4,4,7,0,0,0,0,4,0,8,0,0,0],"split_type":[0,0,0,0,0,0,0,0,0,0,0,0,0,0,0,0,0],"sum_hessian":[6.4E1,3.2E1,3.2E1,2.9E1,3E0,2.3E1,9E0,2E0,1E0,2E0,2.1E1,6E0,3E0,5E0,1E0,4E0,1E0],"tree_param":{"num_deleted":"0","num_feature":"56","num_nodes":"17","size_leaf_vector":"1"}},{"base_weights":[5.0528753E-3,1.7301938E-1,-1.6307662E-1,2.3263936E-1,-2.7467996E-2,-2.2619988E-1,-2.7743436E-2,2.4036187E-1,4.923062E-3,-1.2870575E-1,9.208176E-3,-1.1760396E-2,-4.6874504E-3,4.3260874E-3,-6.274923E-2,1.2271332E-2,3.3500493E-3,-8.926066E-3,-9.6915563E-4,2.4189742E-3,-8.268775E-2,-2.4376314E-3,-6.1497707E-3],"categories":[],"categories_nodes":[],"categories_segments":[],"categories_sizes":[],"default_left":[0,0,0,0,0,0,0,0,0,0,0,0,0,0,0,0,0,0,0,0,0,0,0],"id":7,"left_children":[1,3,5,7,9,11,13,15,-1,17,-1,-1,-1,-1,19,-1,-1,-1,-1,-1,21,-1,-1],"loss_changes":[1.750863E0,3.7693477E-1,2.585473E-1,1.2023449E-3,1.9510373E-1,3.0050278E-3,4.9428545E-2,2.8727055E-3,0E0,2.9215492E-2,0E0,0E0,0E0,0E0,2.3942072E-2,0E0,0E0,0E0,0E0,0E0,4.9464144E-3,0E0,0E0],"parents":[2147483647,0,0,1,1,2,2,3,3,4,4,5,5,6,6,7,7,9,9,14,14,20,20],"right_children":[2,4,6,8,10,12,14,16,-1,18,-1,-1,-1,-1,20,-1,-1,-1,-1,-1,22,-1,-1],"split_conditions":[1.72E0,7.4202016E-2,4.2771954E1,1.0858452E0,1.3604545E1,1.4096352E1,2.7480435E0,2.6208658E0,4.923062E-3,4.3775536E1,9.208176E-3,-1.1760396E-2,-4.6874504E-3,4.3260874E-3,6.9940796E0,1.2271332E-2,3.3500493E-3,-8.926066E-3,-9.6915563E-4,2.4189742E-3,3.0764136E-1,-2.4376314E-3,-6.1497707E-3],"split_indices":[33,54,6,52,5,35,55,12,0,6,0,0,0,0,5,0,0,0,0,0,49,0,0],"split_type":[0,0,0,0,0,0,0,0,0,0,0,0,0,0,0,0,0,0,0,0,0,0,0],"sum_hessian":[6E1,3E1,3E1,2.3E1,7E0,2E1,1E1,2.1E1,2E0,5E0,2E0,1.8E1,2E0,2E0,8E0,2E1,1E0,3E0,2E0,1E0,7E0,5E0,2E0],"tree_param":{"num_deleted":"0","num_feature":"56","num_nodes":"23","size_leaf_vector":"1"}},{"base_weights":[-3.4858647E-3,1.9002078E-1,-1.231927E-1,1.0986803E-2,-1.1104163E-1,-1.9172847E-1,6.412411E-2,-7.0209117E-3,-1.3072103E-3,3.7089586E-3,-2.1280065E-1,1.7739667E-3,9.419045E-3,3.5808922E-3,-2.1399974E-3,-9.693424E-3,-1.1402573E-2,3.059715E-3,-3.813525E-2,-5.865914E-3,5.138907E-3,-2.1341336E-3,-3.8495363E-4],"categories":[],"categories_nodes":[],"categories_segments":[],"categories_sizes":[],"default_left":[0,0,0,0,0,0,0,0,0,0,0,0,0,0,0,0,0,0,0,0,0,0,0],"id":8,"left_children":[1,3,5,-1,7,9,11,-1,-1,13,15,17,-1,-1,-1,19,-1,-1,21,-1,-1,-1,-1],"loss_changes":[1.5754017E0,2.5699973E-1,5.514863E-1,0E0,3.8108714E-3,1.284566E-1,9.263496E-2,0E0,0E0,1.5698712E-2,8.452082E-2,2.3676429E-2,0E0,0E0,0E0,4.8371956E-2,0E0,0E0,5.018199E-4,0E0,0E0,0E0,0E0],"parents":[2147483647,0,0,1,1,2,2,4,4,5,5,6,6,9,9,10,10,11,11,15,15,18,18],"right_children":[2,4,6,-1,8,10,12,-1,-1,14,16,18,-1,-1,-1,20,-1,-1,22,-1,-1,-1,-1],"split_conditions":[1.69E0,9.032437E0,1.4747823E0,1.0986803E-2,1.4591844E0,-1.8508713E0,1.1565592E1,-7.0209117E-3,-1.3072103E-3,1.4126766E0,1.84E0,2.478067E-1,9.419045E-3,3.5808922E-3,-2.1399974E-3,1.3286201E0,-1.1402573E-2,3.059715E-3,5.2467833E0,-5.865914E-3,5.138907E-3,-2.1341336E-3,-3.8495363E-4],"split_indices":[25,16,4,0,4,51,5,0,0,4,25,42,0,0,0,4,0,0,17,0,0,0,0],"split_type":[0,0,0,0,0,0,0,0,0,0,0,0,0,0,0,0,0,0,0,0,0,0,0],"sum_hessian":[6.6E1,2.5E1,4.1E1,2.3E1,2E0,3E1,1.1E1,1E0,1E0,3E0,2.7E1,8E0,3E0,1E0,2E0,2E0,2.5E1,3E0,5E0,1E0,1E0,4E0,1E0],"tree_param":{"num_deleted":"0","num_feature":"56","num_nodes":"23","size_leaf_vector":"1"}},{"base_weights":[-2.5532162E-2,1.3465954E-1,-1.6612685E-1,1.9118701E-1,-1.23314776E-1,-2.0429595E-1,-7.91255E-2,2.1187724E-1,-7.63447E-3,-7.886076E-3,-1.8167099E-3,-2.6230128E-3,-1.044065E-2,-1.3564388E-2,-1.0342832E-2,1.0794324E-2,2.9916286E-3,-5.1043358E-2,3.9204E-3,-7.3630415E-4,-3.1312525E-3],"categories":[],"categories_nodes":[],"categories_segments":[],"categories_sizes":[],"default_left":[0,0,0,0,0,0,0,0,0,0,0,0,0,0,0,0,0,0,0,0,0],"id":9,"left_children":[1,3,5,7,9,11,13,15,-1,-1,-1,-1,-1,17,-1,-1,-1,19,-1,-1,-1],"loss_changes":[1.4412631E0,4.6105522E-1,9.674084E-2,2.1022356E-1,1.2225628E-2,4.8202276E-3,9.7684465E-2,1.7129183E-3,0E0,0E0,0E0,0E0,0E0,3.502548E-2,0E0,0E0,0E0,2.0220876E-3,0E0,0E0,0E0],"parents":[2147483647,0,0,1,1,2,2,3,3,4,4,5,5,6,6,7,7,13,13,17,17],"right_children":[2,4,6,8,10,12,14,16,-1,-1,-1,-1,-1,18,-1,-1,-1,20,-1,-1,-1],"split_conditions":[2.15E0,1.84E0,1.4070212E0,1.95E0,1.4591844E0,1.0363667E0,5.2401147E0,2.976264E0,-7.63447E-3,-7.886076E-3,-1.8167099E-3,-2.6230128E-3,-1.044065E-2,2.0976284E1,-1.0342832E-2,1.0794324E-2,2.9916286E-3,1.69E0,3.9204E-3,-7.3630415E-4,-3.1312525E-3],"split_indices":[25,43,4,33,4,8,8,4,0,0,0,0,0,7,0,0,0,33,0,0,0],"split_type":[0,0,0,0,0,0,0,0,0,0,0,0,0,0,0,0,0,0,0,0,0],"sum_hessian":[6.2E1,2.9E1,3.3E1,2.4E1,5E0,2.2E1,1.1E1,2.3E1,1E0,3E0,2E0,1E0,2.1E1,8E0,3E0,2.2E1,1E0,6E0,2E0,2E0,4E0],"tree_param":{"num_deleted":"0","num_feature":"56","num_nodes":"21","size_leaf_vector":"1"}},{"base_weights":[-1.2073854E-2,1.2294874E-1,-1.4675148E-1,-9.8069785E-3,1.5899263E-1,-9.317033E-3,-6.542051E-2,2.0232232E-1,2.5780968E-2,-9.954976E-3,-5.4068565E-3,1.0302309E-2,2.9168369E-3,-9.644055E-2,7.142315E-3,3.8357635E-3,-3.5526797E-2,-6.5159225E-3,-1.5207906E-3,-5.483814E-2,1.4938156E-2,-7.107169E-4,-3.0060017E-3,-3.5692155E-4,1.4772833E-3],"categories":[],"categories_nodes":[],"categories_segments":[],"categories_sizes":[],"default_left":[0,0,0,0,0,0,0,0,0,0,0,0,0,0,0,0,0,0,0,0,0,0,0,0,0],"id":10,"left_children":[1,3,5,-1,7,-1,9,11,13,-1,15,-1,-1,17,-1,-1,19,-1,-1,21,23,-1,-1,-1,-1],"loss_changes":[1.272775E0,4.337262E-1,1.00503385E-1,0E0,1.7948848E-1,0E0,1.0321686E-1,8.484125E-4,1.4254731E-1,0E0,2.7460584E-2,0E0,0E0,7.2201528E-3,0E0,0E0,8.61555E-3,0E0,0E0,4.3285824E-4,1.1783615E-3,0E0,0E0,0E0,0E0],"parents":[2147483647,0,0,1,1,2,2,4,4,6,6,7,7,8,8,10,10,13,13,16,16,19,19,20,20],"right_children":[2,4,6,-1,8,-1,10,12,14,-1,16,-1,-1,18,-1,-1,20,-1,-1,22,24,-1,-1,-1,-1],"split_conditions":[2.17E0,-1.8043772E0,1.3611833E0,-9.8069785E-3,6.778019E-2,-9.317033E-3,2.081572E0,2.976264E0,2.2771397E1,-9.954976E-3,2.7065516E0,1.0302309E-2,2.9168369E-3,1.4319637E0,7.142315E-3,3.8357635E-3,4.063844E0,-6.5159225E-3,-1.5207906E-3,1.4406444E0,1.545492E0,-7.107169E-4,-3.0060017E-3,-3.5692155E-4,1.4772833E-3],"split_indices":[25,45,4,0,54,0,17,4,7,0,13,0,0,4,0,0,8,0,0,4,4,0,0,0,0],"split_type":[0,0,0,0,0,0,0,0,0,0,0,0,0,0,0,0,0,0,0,0,0,0,0,0,0],"sum_hessian":[6.8E1,3.4E1,3.4E1,3E0,3.1E1,2.2E1,1.2E1,2.3E1,8E0,3E0,9E0,2.2E1,1E0,4E0,4E0,2E0,7E0,2E0,2E0,5E0,2E0,1E0,4E0,1E0,1E0],"tree_param":{"num_deleted":"0","num_feature":"56","num_nodes":"25","size_leaf_vector":"1"}},{"base_weights":[-1.533733E-2,1.20300055E-1,-1.3924557E-1,8.962887E-3,-3.3228375E-2,-9.268998E-3,-6.2298734E-2,-1.2395614E-1,1.338523E-1,-1.6739233E-1,-8.8654E-3,-8.239599E-3,-7.2888535E-4,7.963252E-3,1.4403522E-3,-9.5816655E-3,-1.7607093E-3,-3.4880493E-2,3.6067504E-3,2.2643923E-3,-5.0562516E-2,-6.929487E-4,-2.6913013E-3],"categories":[],"categories_nodes":[],"categories_segments":[],"categories_sizes":[],"default_left":[0,0,0,0,0,0,0,0,0,0,0,0,0,0,0,0,0,0,0,0,0,0,0],"id":11,"left_children":[1,3,5,-1,7,-1,9,11,13,15,17,-1,-1,-1,-1,-1,-1,19,-1,-1,21,-1,-1],"loss_changes":[1.1595994E0,3.0466178E-1,1.162473E-1,0E0,1.6818038E-1,0E0,8.274852E-2,2.8863624E-2,6.089993E-3,9.272426E-3,2.5695669E-2,0E0,0E0,0E0,0E0,0E0,0E0,1.3604684E-2,0E0,0E0,2.1228567E-4,0E0,0E0],"parents":[2147483647,0,0,1,1,2,2,4,4,6,6,7,7,8,8,9,9,10,10,17,17,20,20],"right_children":[2,4,6,-1,8,-1,10,12,14,16,18,-1,-1,-1,-1,-1,-1,20,-1,-1,22,-1,-1],"split_conditions":[1.65E0,6.778019E-2,1.4070212E0,8.962887E-3,1.41E0,-9.268998E-3,2.081572E0,1.4591844E0,1.5716531E0,1.6147876E0,2.0976284E1,-8.239599E-3,-7.2888535E-4,7.963252E-3,1.4403522E-3,-9.5816655E-3,-1.7607093E-3,6.9940796E0,3.6067504E-3,2.2643923E-3,1.4406444E0,-6.929487E-4,-2.6913013E-3],"split_indices":[33,54,4,0,33,0,17,4,4,4,7,0,0,0,0,0,0,5,0,0,4,0,0],"split_type":[0,0,0,0,0,0,0,0,0,0,0,0,0,0,0,0,0,0,0,0,0,0,0],"sum_hessian":[6.7E1,3.2E1,3.5E1,2.3E1,9E0,2.1E1,1.4E1,6E0,3E0,4E0,1E1,4E0,2E0,2E0,1E0,3E0,1E0,8E0,2E0,1E0,7E0,1E0,6E0],"tree_param":{"num_deleted":"0","num_feature":"56","num_nodes":"23","size_leaf_vector":"1"}},{"base_weights":[-5.4700393E-3,1.306225E-1,-1.3751793E-1,1.8803042E-1,-7.945706E-2,-1.764627E-1,-5.403903E-3,9.561592E-3,2.6198446E-3,-9.657979E-3,8.253536E-2,-6.7562464E-4,-1.822103E-1,4.2438723E-2,-2.6082874E-3,6.1335405E-3,-9.467751E-4,-2.0927878E-3,-1.8615025E-1,2.817309E-3,-3.297776E-4,-2.6414574E-3,-9.475204E-3],"categories":[],"categories_nodes":[],"categories_segments":[],"categories_sizes":[],"default_left":[0,0,0,0,0,0,0,0,0,0,0,0,0,0,0,0,0,0,0,0,0,0,0],"id":12,"left_children":[1,3,5,7,9,11,13,-1,-1,-1,15,-1,17,19,-1,-1,-1,-1,21,-1,-1,-1,-1],"loss_changes":[1.2399728E0,4.249882E-1,1.7912656E-1,1.703918E-3,1.6329406E-1,2.282542E-2,2.2348732E-2,0E0,0E0,0E0,1.861315E-2,0E0,6.5862536E-3,3.7813438E-3,0E0,0E0,0E0,0E0,1.1671185E-3,0E0,0E0,0E0,0E0],"parents":[2147483647,0,0,1,1,2,2,3,3,4,4,5,5,6,6,10,10,12,12,13,13,18,18],"right_children":[2,4,6,8,10,12,14,-1,-1,-1,16,-1,18,20,-1,-1,-1,-1,22,-1,-1,-1,-1],"split_conditions":[2.01E0,6.778019E-2,1.4667184E0,2.976264E0,2.9397585E0,-1.879436E0,1.1035387E1,9.561592E-3,2.6198446E-3,-9.657979E-3,1.5376756E0,-6.7562464E-4,1.0363667E0,1.0221431E1,-2.6082874E-3,6.1335405E-3,-9.467751E-4,-2.0927878E-3,1.23E0,2.817309E-3,-3.297776E-4,-2.6414574E-3,-9.475204E-3],"split_indices":[34,54,4,4,50,51,16,0,0,0,4,0,8,5,0,0,0,0,25,0,0,0,0],"split_type":[0,0,0,0,0,0,0,0,0,0,0,0,0,0,0,0,0,0,0,0,0,0,0],"sum_hessian":[6.7E1,3.3E1,3.4E1,2.6E1,7E0,2.6E1,8E0,2.5E1,1E0,4E0,3E0,1E0,2.5E1,4E0,4E0,2E0,1E0,1E0,2.4E1,3E0,1E0,1E0,2.3E1],"tree_param":{"num_deleted":"0","num_feature":"56","num_nodes":"23","size_leaf_vector":"1"}},{"base_weights":[-8.524543E-4,1.3528202E-1,-1.2094605E-1,1.6492663E-1,-4.5926284E-2,-8.822197E-3,-4.7483183E-2,1.805194E-1,-5.6223213E-3,-5.9556216E-3,2.14836E-3,-3.888552E-3,-8.864747E-3,4.9287537E-3,9.57169E-3,-7.460495E-4,1.3339103E-3,5.8984637E-2,-3.838604E-2,4.0159062E-3,-6.5873266E-4,-2.6472302E-3,1.9520611E-3],"categories":[],"categories_nodes":[],"categories_segments":[],"categories_sizes":[],"default_left":[0,0,0,0,0,0,0,0,0,0,0,0,0,0,0,0,0,0,0,0,0,0,0],"id":13,"left_children":[1,3,5,7,9,-1,11,13,-1,-1,15,17,-1,-1,-1,-1,-1,19,21,-1,-1,-1,-1],"loss_changes":[1.0463413E0,1.687299E-1,1.30241E-1,1.327492E-1,1.7847888E-2,0E0,8.985612E-2,3.488779E-3,0E0,0E0,2.0728991E-3,3.046076E-2,0E0,0E0,0E0,0E0,0E0,8.755209E-3,1.22120865E-2,0E0,0E0,0E0,0E0],"parents":[2147483647,0,0,1,1,2,2,3,3,4,4,6,6,7,7,10,10,11,11,17,17,18,18],"right_children":[2,4,6,8,10,-1,12,14,-1,-1,16,18,-1,-1,-1,-1,-1,20,22,-1,-1,-1,-1],"split_conditions":[1.65E0,1.84E0,1.4070212E0,2.15E0,1.4591844E0,-8.822197E-3,5.2401147E0,1.08E0,-5.6223213E-3,-5.9556216E-3,1.5859861E0,2.16E0,-8.864747E-3,4.9287537E-3,9.57169E-3,-7.460495E-4,1.3339103E-3,2.7065516E0,1.6177877E0,4.0159062E-3,-6.5873266E-4,-2.6472302E-3,1.9520611E-3],"split_indices":[33,43,4,25,4,0,8,34,0,0,4,43,0,0,0,0,0,13,4,0,0,0,0],"split_type":[0,0,0,0,0,0,0,0,0,0,0,0,0,0,0,0,0,0,0,0,0,0,0],"sum_hessian":[6.2E1,2.9E1,3.3E1,2.5E1,4E0,1.8E1,1.5E1,2.4E1,1E0,1E0,3E0,1.2E1,3E0,4E0,2E1,2E0,1E0,4E0,8E0,3E0,1E0,7E0,1E0],"tree_param":{"num_deleted":"0","num_feature":"56","num_nodes":"23","size_leaf_vector":"1"}},{"base_weights":[-1.1243351E-2,1.4233565E-1,-1.1846757E-1,1.6374479E-1,-9.0655364E-2,-1.71459E-1,4.7807144E-3,1.8436594E-1,5.6157173E-3,-5.8067325E-3,-9.924204E-4,-9.876871E-2,-9.339708E-3,9.3725525E-2,-6.252548E-2,1.8981099E-1,2.4311305E-3,-5.720988E-3,-1.215607E-4,5.103307E-3,1.3005615E-3,-2.6830029E-2,-4.575671E-3,9.757905E-3,2.740109E-3,-1.5254349E-3,-3.02884E-4],"categories":[],"categories_nodes":[],"categories_segments":[],"categories_sizes":[],"default_left":[0,0,0,0,0,0,0,0,0,0,0,0,0,0,0,0,0,0,0,0,0,0,0,0,0,0,0],"id":14,"left_children":[1,3,5,7,9,11,13,15,-1,-1,-1,17,-1,19,21,23,-1,-1,-1,-1,-1,25,-1,-1,-1,-1,-1],"loss_changes":[1.1201773E0,1.545121E-1,2.620638E-1,6.8674684E-3,3.1072423E-3,1.2762666E-2,8.3685204E-2,3.3361316E-3,0E0,0E0,0E0,1.0276303E-2,0E0,7.3380396E-4,5.822595E-3,8.5538626E-4,0E0,0E0,0E0,0E0,0E0,1.9726087E-4,0E0,0E0,0E0,0E0,0E0],"parents":[2147483647,0,0,1,1,2,2,3,3,4,4,5,5,6,6,7,7,11,11,13,13,14,14,15,15,21,21],"right_children":[2,4,6,8,10,12,14,16,-1,-1,-1,18,-1,20,22,24,-1,-1,-1,-1,-1,26,-1,-1,-1,-1,-1],"split_conditions":[1.76E0,9.032437E0,1.4667184E0,4.6637106E0,1.4591844E0,1.061446E0,2.478067E-1,2.6208658E0,5.6157173E-3,-5.8067325E-3,-9.924204E-4,3.31E0,-9.339708E-3,4.9772926E1,1.5481209E0,2.5005022E1,2.4311305E-3,-5.720988E-3,-1.215607E-4,5.103307E-3,1.3005615E-3,1.0243749E1,-4.575671E-3,9.757905E-3,2.740109E-3,-1.5254349E-3,-3.02884E-4],"split_indices":[25,16,4,55,4,4,42,4,0,0,0,34,0,15,4,7,0,0,0,0,0,5,0,0,0,0,0],"split_type":[0,0,0,0,0,0,0,0,0,0,0,0,0,0,0,0,0,0,0,0,0,0,0,0,0,0,0],"sum_hessian":[6.6E1,2.7E1,3.9E1,2.5E1,2E0,2.7E1,1.2E1,1.6E1,9E0,1E0,1E0,6E0,2.1E1,5E0,7E0,1.5E1,1E0,5E0,1E0,4E0,1E0,4E0,3E0,1.4E1,1E0,3E0,1E0],"tree_param":{"num_deleted":"0","num_feature":"56","num_nodes":"27","size_leaf_vector":"1"}},{"base_weights":[-1.5011737E-2,1.1078326E-1,-1.189634E-1,1.5781698E-1,-3.7401173E-2,-1.514045E-1,-5.2638523E-2,4.2072344E-3,8.369359E-3,-1.09153785E-1,7.1244324E-3,-1.5882514E-1,-6.902954E-2,-1.4363334E-1,-6.4919214E-3,-7.2568418E-3,-6.3987175E-4,-1.6203727E-1,-2.123654E-3,-4.5229555E-3,-1.1852086E-4,-8.24163E-3,-1.4709085E-3,4.687646E-2,-3.236462E-2,-8.2547655E-3,-2.3690134E-3,3.397612E-3,-4.0877165E-4,-2.356743E-3,1.775676E-3],"categories":[],"categories_nodes":[],"categories_segments":[],"categories_sizes":[],"default_left":[0,0,0,0,0,0,0,0,0,0,0,0,0,0,0,0,0,0,0,0,0,0,0,0,0,0,0,0,0,0,0],"id":15,"left_children":[1,3,5,7,9,11,13,-1,-1,15,-1,17,19,21,23,-1,-1,25,-1,-1,-1,-1,-1,27,29,-1,-1,-1,-1,-1,-1],"loss_changes":[9.808475E-1,2.4287114E-1,8.0248E-2,4.2467713E-3,1.3172124E-1,5.540788E-3,6.2054064E-2,0E0,0E0,2.2412993E-2,0E0,2.0875335E-3,5.4994784E-3,7.2573125E-3,1.6705764E-2,0E0,0E0,2.4211407E-4,0E0,0E0,0E0,0E0,0E0,5.1965844E-3,9.694535E-3,0E0,0E0,0E0,0E0,0E0,0E0],"parents":[2147483647,0,0,1,1,2,2,3,3,4,4,5,5,6,6,9,9,11,11,12,12,13,13,14,14,17,17,23,23,24,24],"right_children":[2,4,6,8,10,12,14,-1,-1,16,-1,18,20,22,24,-1,-1,26,-1,-1,-1,-1,-1,28,30,-1,-1,-1,-1,-1,-1],"split_conditions":[1.65E0,3.583916E1,1.4070212E0,-8.066378E-1,1.3604545E1,6.724094E0,2.081572E0,4.2072344E-3,8.369359E-3,1.4319637E0,7.1244324E-3,3.31E0,3.3206673E0,1.6147876E0,2.16E0,-7.2568418E-3,-6.3987175E-4,3.37E0,-2.123654E-3,-4.5229555E-3,-1.1852086E-4,-8.24163E-3,-1.4709085E-3,2.7065516E0,1.553929E0,-8.2547655E-3,-2.3690134E-3,3.397612E-3,-4.0877165E-4,-2.356743E-3,1.775676E-3],"split_indices":[33,6,4,42,5,31,17,0,0,4,0,33,5,4,43,0,0,42,0,0,0,0,0,13,4,0,0,0,0,0,0],"split_type":[0,0,0,0,0,0,0,0,0,0,0,0,0,0,0,0,0,0,0,0,0,0,0,0,0,0,0,0,0,0,0],"sum_hessian":[7.3E1,3.3E1,4E1,2.5E1,8E0,2.6E1,1.4E1,4E0,2.1E1,6E0,2E0,2.3E1,3E0,4E0,1E1,4E0,2E0,2.2E1,1E0,2E0,1E0,3E0,1E0,3E0,7E0,2.1E1,1E0,2E0,1E0,6E0,1E0],"tree_param":{"num_deleted":"0","num_feature":"56","num_nodes":"31","size_leaf_vector":"1"}},{"base_weights":[-3.321279E-3,9.3833975E-2,-1.160396E-1,1.4896293E-1,-4.5001183E-2,6.4320564E-3,-1.2939128E-1,1.5202947E-1,1.807481E-3,-1.5374656E-1,7.1244396E-2,3.1021088E-3,-3.2785375E-2,-1.5008251E-1,-2.8509656E-2,4.8591304E-3,8.397989E-3,-8.384816E-3,-2.099943E-3,3.5623312E-3,6.886951E-3,-3.9855242E-4,-2.0603507E-3,-9.06588E-2,-8.286136E-3,2.3704767E-3,-7.8321636E-2,-6.1854126E-4,1.284045E-3,-1.0499821E-1,-1.15558505E-4,-7.598698E-4,-4.714863E-3,-1.5638144E-3,-5.6743673E-3],"categories":[],"categories_nodes":[],"categories_segments":[],"categories_sizes":[],"default_left":[0,0,0,0,0,0,0,0,0,0,0,0,0,0,0,0,0,0,0,0,0,0,0,0,0,0,0,0,0,0,0,0,0,0,0],"id":16,"left_children":[1,3,5,7,9,11,13,15,-1,17,19,-1,21,23,25,-1,-1,-1,-1,27,-1,-1,-1,29,-1,-1,31,-1,-1,33,-1,-1,-1,-1,-1],"loss_changes":[7.336662E-1,2.8224164E-1,5.1523536E-2,3.4988523E-3,1.5000647E-1,1.075762E-2,5.416742E-2,5.520463E-3,0E0,2.3100674E-3,2.651229E-2,0E0,2.9846886E-4,6.351948E-3,2.6403304E-2,0E0,0E0,0E0,0E0,1.7273683E-3,0E0,0E0,0E0,8.625302E-3,0E0,0E0,2.600722E-3,0E0,0E0,2.0554662E-4,0E0,0E0,0E0,0E0,0E0],"parents":[2147483647,0,0,1,1,2,2,3,3,4,4,5,5,6,6,7,7,9,9,10,10,12,12,13,13,14,14,19,19,23,23,26,26,29,29],"right_children":[2,4,6,8,10,12,14,16,-1,18,20,-1,22,24,26,-1,-1,-1,-1,28,-1,-1,-1,30,-1,-1,32,-1,-1,34,-1,-1,-1,-1,-1],"split_conditions":[1.65E0,6.778019E-2,-1.8508713E0,1.6347313E1,1.4591844E0,1.4126766E0,1.4667184E0,5.06186E0,1.807481E-3,1.0166851E1,1.1162289E1,3.1021088E-3,1.4406444E0,1.061446E0,2.609022E-1,4.8591304E-3,8.397989E-3,-8.384816E-3,-2.099943E-3,1.5859861E0,6.886951E-3,-3.9855242E-4,-2.0603507E-3,3.31E0,-8.286136E-3,2.3704767E-3,1.539719E0,-6.1854126E-4,1.284045E-3,9.800946E0,-1.15558505E-4,-7.598698E-4,-4.714863E-3,-1.5638144E-3,-5.6743673E-3],"split_indices":[33,54,51,47,4,4,4,5,0,5,5,0,4,4,31,0,0,0,0,4,0,0,0,34,0,0,4,0,0,16,0,0,0,0,0],"split_type":[0,0,0,0,0,0,0,0,0,0,0,0,0,0,0,0,0,0,0,0,0,0,0,0,0,0,0,0,0,0,0,0,0,0,0],"sum_hessian":[6.5E1,3.5E1,3E1,2.5E1,1E1,3E0,2.7E1,2.4E1,1E0,5E0,5E0,1E0,2E0,2.2E1,5E0,7E0,1.7E1,4E0,1E0,3E0,2E0,1E0,1E0,6E0,1.6E1,2E0,3E0,2E0,1E0,5E0,1E0,1E0,2E0,1E0,4E0],"tree_param":{"num_deleted":"0","num_feature":"56","num_nodes":"35","size_leaf_vector":"1"}},{"base_weights":[2.7954043E-3,9.330474E-2,-9.876947E-2,1.4538777E-1,-4.301768E-2,-1.3517773E-1,-4.6067715E-2,1.521591E-1,3.4206451E-3,-1.4780669E-1,6.894094E-2,-1.1267066E-4,-1.4243722E-1,-6.474783E-3,-7.6664793E-3,4.94671E-3,8.412778E-3,-8.049424E-3,-2.0474435E-3,3.550619E-3,6.6573857E-3,-1.4643139E-1,-1.863411E-3,-3.1043243E-2,3.8789173E-3,-5.97922E-4,1.2519449E-3,-2.1679283E-3,-7.508177E-3,-4.192371E-2,1.6720236E-3,-3.885895E-4,-2.2610612E-3],"categories":[],"categories_nodes":[],"categories_segments":[],"categories_sizes":[],"default_left":[0,0,0,0,0,0,0,0,0,0,0,0,0,0,0,0,0,0,0,0,0,0,0,0,0,0,0,0,0,0,0,0,0],"id":17,"left_children":[1,3,5,7,9,11,13,15,-1,17,19,-1,21,23,-1,-1,-1,-1,-1,25,-1,27,-1,29,-1,-1,-1,-1,-1,31,-1,-1,-1],"loss_changes":[6.4350295E-1,2.689574E-1,5.709234E-2,3.6632419E-3,1.3924228E-1,1.8013358E-2,6.27094E-2,3.915429E-3,0E0,1.8591732E-3,2.4718253E-2,0E0,2.1038651E-3,2.7188953E-2,0E0,0E0,0E0,0E0,0E0,1.6324781E-3,0E0,2.8729439E-5,0E0,8.418077E-3,0E0,0E0,0E0,0E0,0E0,6.6209957E-4,0E0,0E0,0E0],"parents":[2147483647,0,0,1,1,2,2,3,3,4,4,5,5,6,6,7,7,9,9,10,10,12,12,13,13,19,19,21,21,23,23,29,29],"right_children":[2,4,6,8,10,12,14,16,-1,18,20,-1,22,24,-1,-1,-1,-1,-1,26,-1,28,-1,30,-1,-1,-1,-1,-1,32,-1,-1,-1],"split_conditions":[1.65E0,6.778019E-2,1.4070212E0,2.5189748E0,1.4591844E0,9.3041974E-1,5.2401147E0,5.06186E0,3.4206451E-3,1.0166851E1,1.1162289E1,-1.1267066E-4,3.31E0,1.1565592E1,-7.6664793E-3,4.94671E-3,8.412778E-3,-8.049424E-3,-2.0474435E-3,1.5859861E0,6.6573857E-3,1.061446E0,-1.863411E-3,1.6177877E0,3.8789173E-3,-5.97922E-4,1.2519449E-3,-2.1679283E-3,-7.508177E-3,1.4406444E0,1.6720236E-3,-3.885895E-4,-2.2610612E-3],"split_indices":[33,54,4,31,4,4,8,5,0,5,5,0,33,5,0,0,0,0,0,4,0,4,0,4,0,0,0,0,0,4,0,0,0],"split_type":[0,0,0,0,0,0,0,0,0,0,0,0,0,0,0,0,0,0,0,0,0,0,0,0,0,0,0,0,0,0,0,0,0],"sum_hessian":[6.8E1,3.6E1,3.2E1,2.6E1,1E1,1.8E1,1.4E1,2.3E1,3E0,5E0,5E0,1E0,1.7E1,1.1E1,3E0,7E0,1.6E1,4E0,1E0,3E0,2E0,1.6E1,1E0,9E0,2E0,2E0,1E0,1E0,1.5E1,8E0,1E0,1E0,7E0],"tree_param":{"num_deleted":"0","num_feature":"56","num_nodes":"33","size_leaf_vector":"1"}},{"base_weights":[-7.8793726E-4,9.234489E-2,-1.0262734E-1,-7.3288786E-3,1.19324416E-1,5.9639215E-3,-1.1406657E-1,2.0744426E-2,1.4127578E-1,2.9275834E-3,-3.108255E-2,-1.3172401E-1,-3.975405E-2,3.9525367E-3,-8.334756E-2,-1.996258E-3,1.5012082E-1,-3.7887396E-4,-1.9523174E-3,-2.1071672E-2,-7.0629455E-3,-6.6706255E-2,1.8417636E-2,-5.5667195E-3,-6.8434776E-4,8.041163E-3,3.757322E-3,-1.0985434E-4,-1.4705211E-3,-1.1666119E-3,-4.3922425E-3,-2.4890006E-4,1.6302228E-3],"categories":[],"categories_nodes":[],"categories_segments":[],"categories_sizes":[],"default_left":[0,0,0,0,0,0,0,0,0,0,0,0,0,0,0,0,0,0,0,0,0,0,0,0,0,0,0,0,0,0,0,0,0],"id":18,"left_children":[1,3,5,-1,7,9,11,13,15,-1,17,19,21,-1,23,-1,25,-1,-1,27,-1,29,31,-1,-1,-1,-1,-1,-1,-1,-1,-1,-1],"loss_changes":[6.354602E-1,2.4310082E-1,4.0430725E-2,0E0,6.631619E-2,9.612697E-3,3.281632E-2,4.907322E-2,4.7664583E-2,0E0,2.6569585E-4,2.1289766E-2,1.2203557E-2,0E0,4.3249093E-3,0E0,7.974923E-3,0E0,0E0,4.075541E-4,0E0,2.5347136E-3,1.1580342E-3,0E0,0E0,0E0,0E0,0E0,0E0,0E0,0E0,0E0,0E0],"parents":[2147483647,0,0,1,1,2,2,4,4,5,5,6,6,7,7,8,8,10,10,11,11,12,12,14,14,16,16,19,19,21,21,22,22],"right_children":[2,4,6,-1,8,10,12,14,16,-1,18,20,22,-1,24,-1,26,-1,-1,28,-1,30,32,-1,-1,-1,-1,-1,-1,-1,-1,-1,-1],"split_conditions":[2.15E0,-1.8043772E0,-1.8508713E0,-7.3288786E-3,4.6897783E0,1.4126766E0,1.4667184E0,3.2976437E1,1.23E0,2.9275834E-3,1.4406444E0,9.326791E-1,4.1284767E1,3.9525367E-3,1.3032422E0,-1.996258E-3,3.5414734E-1,-3.7887396E-4,-1.9523174E-3,9.3041974E-1,-7.0629455E-3,1.5481209E0,1.545492E0,-5.5667195E-3,-6.8434776E-4,8.041163E-3,3.757322E-3,-1.0985434E-4,-1.4705211E-3,-1.1666119E-3,-4.3922425E-3,-2.4890006E-4,1.6302228E-3],"split_indices":[25,45,51,0,35,4,4,6,25,0,4,4,15,0,4,0,49,0,0,4,0,4,4,0,0,0,0,0,0,0,0,0,0],"split_type":[0,0,0,0,0,0,0,0,0,0,0,0,0,0,0,0,0,0,0,0,0,0,0,0,0,0,0,0,0,0,0,0,0],"sum_hessian":[6.5E1,3.4E1,3.1E1,3E0,3.1E1,3E0,2.8E1,6E0,2.5E1,1E0,2E0,2.2E1,6E0,4E0,2E0,1E0,2.4E1,1E0,1E0,2E0,2E1,4E0,2E0,1E0,1E0,2E1,4E0,1E0,1E0,2E0,2E0,1E0,1E0],"tree_param":{"num_deleted":"0","num_feature":"56","num_nodes":"33","size_leaf_vector":"1"}},{"base_weights":[-1.1998684E-3,1.1463679E-1,-8.2566164E-2,1.3744465E-1,-5.3019207E-3,1.4704568E-2,-1.018671E-1,1.4737003E-1,3.5127115E-3,-8.114251E-2,3.463595E-3,-2.5365472E-2,-1.1560336E-1,3.5170764E-3,7.841277E-3,-1.0341973E-3,-5.051491E-3,2.854395E-3,-5.3273726E-2,-6.2221255E-2,-1.2850693E-1,-6.8549515E-4,-3.7539823E-3,-7.5247526E-2,-9.885192E-4,-1.3130806E-1,-1.882133E-3,-8.7604823E-4,-4.2649466E-3,-6.7186467E-3,-1.9035101E-3],"categories":[],"categories_nodes":[],"categories_segments":[],"categories_sizes":[],"default_left":[0,0,0,0,0,0,0,0,0,0,0,0,0,0,0,0,0,0,0,0,0,0,0,0,0,0,0,0,0,0,0],"id":19,"left_children":[1,3,5,7,-1,9,11,13,-1,15,-1,17,19,-1,-1,-1,-1,-1,21,23,25,-1,-1,27,-1,29,-1,-1,-1,-1,-1],"loss_changes":[5.938275E-1,1.4543578E-1,7.096231E-2,5.6519806E-3,0E0,4.2231727E-2,2.9643923E-2,3.5355687E-3,0E0,1.5173797E-3,0E0,1.6848061E-2,9.913415E-3,0E0,0E0,0E0,0E0,0E0,3.2842923E-3,2.3831613E-3,1.4770031E-4,0E0,0E0,1.4066454E-3,0E0,3.1387806E-4,0E0,0E0,0E0,0E0,0E0],"parents":[2147483647,0,0,1,1,2,2,3,3,5,5,6,6,7,7,9,9,11,11,12,12,18,18,19,19,20,20,23,23,25,25],"right_children":[2,4,6,8,-1,10,12,14,-1,16,-1,18,20,-1,-1,-1,-1,-1,22,24,26,-1,-1,28,-1,30,-1,-1,-1,-1,-1],"split_conditions":[1.76E0,2.07E0,2.478067E-1,1.665909E-1,-5.3019207E-3,1.53E0,1.72E0,5.981475E0,3.5127115E-3,1.8644293E1,3.463595E-3,6.778019E-2,3.0764136E-1,3.5170764E-3,7.841277E-3,-1.0341973E-3,-5.051491E-3,2.854395E-3,5.94401E0,1.8548851E0,1.2440812E1,-6.8549515E-4,-3.7539823E-3,9.394885E-1,-9.885192E-4,4.21E0,-1.882133E-3,-8.7604823E-4,-4.2649466E-3,-6.7186467E-3,-1.9035101E-3],"split_indices":[43,25,42,49,0,25,33,7,0,7,0,23,49,0,0,0,0,0,16,45,16,0,0,23,0,25,0,0,0,0,0],"split_type":[0,0,0,0,0,0,0,0,0,0,0,0,0,0,0,0,0,0,0,0,0,0,0,0,0,0,0,0,0,0,0],"sum_hessian":[6.1E1,2.5E1,3.6E1,2.3E1,2E0,6E0,3E1,1.9E1,4E0,2E0,4E0,5E0,2.5E1,3E0,1.6E1,1E0,1E0,1E0,4E0,6E0,1.9E1,2E0,2E0,4E0,2E0,1.8E1,1E0,1E0,3E0,1.7E1,1E0],"tree_param":{"num_deleted":"0","num_feature":"56","num_nodes":"31","size_leaf_vector":"1"}},{"base_weights":[-8.788605E-3,8.399855E-2,-8.879943E-2,1.2726405E-1,-6.1705947E-2,-1.21189296E-1,-3.3214998E-2,1.4950335E-3,1.30075E-1,-1.3398528E-1,4.4069707E-2,-1.2602057E-1,-4.6973985E-2,-1.22579195E-1,1.0424635E-2,3.806162E-3,7.013317E-3,-7.44783E-3,-1.8525005E-3,5.1975013E-3,-1.0540406E-2,-6.468851E-3,-1.4722884E-3,-6.005466E-5,-3.4629942E-3,-6.8955617E-3,-1.5312762E-3,-1.8594623E-2,3.2928498E-3,-1.4882685E-4,-6.417036E-4,1.7642677E-3,-3.1332526E-2,-3.5226645E-4,-1.7103086E-3],"categories":[],"categories_nodes":[],"categories_segments":[],"categories_sizes":[],"default_left":[0,0,0,0,0,0,0,0,0,0,0,0,0,0,0,0,0,0,0,0,0,0,0,0,0,0,0,0,0,0,0,0,0,0,0],"id":20,"left_children":[1,3,5,7,9,11,13,-1,15,17,19,21,23,25,27,-1,-1,-1,-1,-1,29,-1,-1,-1,-1,-1,-1,31,-1,-1,-1,-1,33,-1,-1],"loss_changes":[5.1228946E-1,2.0958026E-1,6.258848E-2,2.9527247E-3,6.706785E-2,2.3270547E-3,5.9775155E-2,0E0,2.5186837E-3,1.7373934E-3,1.4175959E-2,2.9975176E-3,2.977082E-3,2.8255805E-3,1.8919252E-2,0E0,0E0,0E0,0E0,0E0,1.3845885E-5,0E0,0E0,0E0,0E0,0E0,0E0,6.596123E-3,0E0,0E0,0E0,0E0,2.4755532E-4,0E0,0E0],"parents":[2147483647,0,0,1,1,2,2,3,3,4,4,5,5,6,6,8,8,9,9,10,10,11,11,12,12,13,13,14,14,20,20,27,27,32,32],"right_children":[2,4,6,8,10,12,14,-1,16,18,20,22,24,26,28,-1,-1,-1,-1,-1,30,-1,-1,-1,-1,-1,-1,32,-1,-1,-1,-1,34,-1,-1],"split_conditions":[1.65E0,6.778019E-2,1.4070212E0,-2.4780533E0,1.4591844E0,3.37E0,2.081572E0,1.4950335E-3,2.061352E0,2.2499897E1,1.5376756E0,3.31E0,9.3041974E-1,1.6147876E0,2.0976284E1,3.806162E-3,7.013317E-3,-7.44783E-3,-1.8525005E-3,5.1975013E-3,1.545492E0,-6.468851E-3,-1.4722884E-3,-6.005466E-5,-3.4629942E-3,-6.8955617E-3,-1.5312762E-3,1.6268051E1,3.2928498E-3,-1.4882685E-4,-6.417036E-4,1.7642677E-3,1.4406444E0,-3.5226645E-4,-1.7103086E-3],"split_indices":[33,54,4,42,4,34,17,0,50,7,4,33,4,4,7,0,0,0,0,0,4,0,0,0,0,0,0,7,0,0,0,0,4,0,0],"split_type":[0,0,0,0,0,0,0,0,0,0,0,0,0,0,0,0,0,0,0,0,0,0,0,0,0,0,0,0,0,0,0,0,0,0,0],"sum_hessian":[6.7E1,3.1E1,3.6E1,2.4E1,7E0,2.2E1,1.4E1,1E0,2.3E1,4E0,3E0,2E1,2E0,4E0,1E1,5E0,1.8E1,3E0,1E0,1E0,2E0,1.9E1,1E0,1E0,1E0,3E0,1E0,7E0,3E0,1E0,1E0,1E0,6E0,1E0,5E0],"tree_param":{"num_deleted":"0","num_feature":"56","num_nodes":"35","size_leaf_vector":"1"}},{"base_weights":[1.28771905E-2,1.0566397E-1,-6.391419E-2,1.1574142E-1,-4.1606785E-3,-9.5583424E-2,-5.4036286E-3,1.2111573E-1,-5.9976877E-4,2.7007163E-3,-1.0527924E-1,4.4403393E-3,-3.060614E-2,1.2703045E-1,2.8413595E-3,-1.1391363E-1,-1.5501618E-2,-4.865151E-2,1.6866009E-3,3.9779632E-3,6.955251E-3,-5.852611E-3,-1.4354825E-3,-5.8552625E-5,-1.1040688E-3,-8.58596E-4,-6.152932E-2,-1.1846502E-3,-3.7262111E-3],"categories":[],"categories_nodes":[],"categories_segments":[],"categories_sizes":[],"default_left":[0,0,0,0,0,0,0,0,0,0,0,0,0,0,0,0,0,0,0,0,0,0,0,0,0,0,0,0,0],"id":21,"left_children":[1,3,5,7,-1,9,11,13,-1,-1,15,-1,17,19,-1,21,23,25,-1,-1,-1,-1,-1,-1,-1,-1,27,-1,-1],"loss_changes":[4.4139218E-1,6.292656E-2,6.248498E-2,1.9988239E-2,0E0,3.759697E-2,3.3584442E-2,2.6676357E-3,0E0,0E0,1.4512837E-2,0E0,1.4412177E-2,2.116412E-3,0E0,1.7204285E-3,2.570165E-4,2.5919173E-3,0E0,0E0,0E0,0E0,0E0,0E0,0E0,0E0,1.1843722E-3,0E0,0E0],"parents":[2147483647,0,0,1,1,2,2,3,3,5,5,6,6,7,7,10,10,12,12,13,13,15,15,16,16,17,17,26,26],"right_children":[2,4,6,8,-1,10,12,14,-1,-1,16,-1,18,20,-1,22,24,26,-1,-1,-1,-1,-1,-1,-1,-1,28,-1,-1],"split_conditions":[1.84E0,2.15E0,4.3023872E1,4.59936E1,-4.1606785E-3,1.87E0,2.7065516E0,3.5414734E-1,-5.9976877E-4,2.7007163E-3,6.724094E0,4.4403393E-3,1.6238432E1,1.7807487E1,2.8413595E-3,3.31E0,2.7912592E1,1.87E0,1.6866009E-3,3.9779632E-3,6.955251E-3,-5.852611E-3,-1.4354825E-3,-5.8552625E-5,-1.1040688E-3,-8.58596E-4,2.959915E-2,-1.1846502E-3,-3.7262111E-3],"split_indices":[34,25,6,6,0,34,13,49,0,0,31,0,13,15,0,33,6,33,0,0,0,0,0,0,0,0,49,0,0],"split_type":[0,0,0,0,0,0,0,0,0,0,0,0,0,0,0,0,0,0,0,0,0,0,0,0,0,0,0,0,0],"sum_hessian":[6E1,2.7E1,3.3E1,2.6E1,1E0,2.1E1,1.2E1,2.5E1,1E0,1E0,2E1,2E0,1E1,2.2E1,3E0,1.8E1,2E0,8E0,2E0,6E0,1.6E1,1.7E1,1E0,1E0,1E0,3E0,5E0,2E0,3E0],"tree_param":{"num_deleted":"0","num_feature":"56","num_nodes":"29","size_leaf_vector":"1"}},{"base_weights":[1.0089312E-2,-7.774311E-2,7.632329E-2,4.221803E-3,-1.0369646E-1,1.2640771E-1,-2.1858415E-2,2.085811E-3,-1.1260736E-1,3.6466003E-3,1.4190285E-1,-5.9254826E-3,9.322798E-3,-6.4278655E-3,-7.061903E-2,1.5150096E-1,2.4905363E-3,-1.51321E-3,3.0612111E-2,-1.5114069E-2,-4.3300837E-3,2.043587E-3,7.843346E-3,2.6751698E-3,-8.872032E-4,-5.7089328E-5,-1.0764658E-3],"categories":[],"categories_nodes":[],"categories_segments":[],"categories_sizes":[],"default_left":[0,0,0,0,0,0,0,0,0,0,0,0,0,0,0,0,0,0,0,0,0,0,0,0,0,0,0],"id":22,"left_children":[1,3,5,-1,7,9,11,-1,13,-1,15,-1,17,-1,19,21,-1,-1,23,25,-1,-1,-1,-1,-1,-1,-1],"loss_changes":[3.375306E-1,1.13983005E-1,1.6503641E-1,0E0,3.3204228E-2,7.880211E-3,3.7269276E-2,0E0,4.9853623E-3,0E0,6.5962076E-3,0E0,9.3542505E-3,0E0,5.788021E-3,1.8994212E-3,0E0,0E0,8.697912E-3,2.4432503E-4,0E0,0E0,0E0,0E0,0E0,0E0,0E0],"parents":[2147483647,0,0,1,1,2,2,4,4,5,5,6,6,8,8,10,10,12,12,14,14,15,15,18,18,19,19],"right_children":[2,4,6,-1,8,10,12,-1,14,-1,16,-1,18,-1,20,22,-1,-1,24,26,-1,-1,-1,-1,-1,-1,-1],"split_conditions":[1.3611833E0,1.2197833E0,1.84E0,4.221803E-3,2.4889534E0,1.7807487E1,2.081572E0,2.085811E-3,2.83E0,3.6466003E-3,2.959915E-2,-5.9254826E-3,3.103217E0,-6.4278655E-3,9.326791E-1,3.5622036E0,2.4905363E-3,-1.51321E-3,2.0354366E0,9.3041974E-1,-4.3300837E-3,2.043587E-3,7.843346E-3,2.6751698E-3,-8.872032E-4,-5.7089328E-5,-1.0764658E-3],"split_indices":[4,24,43,0,5,15,17,0,43,0,49,0,8,0,4,28,0,0,23,4,0,0,0,0,0,0,0],"split_type":[0,0,0,0,0,0,0,0,0,0,0,0,0,0,0,0,0,0,0,0,0,0,0,0,0,0,0],"sum_hessian":[5.6E1,2.4E1,3.2E1,3E0,2.1E1,2.1E1,1.1E1,1E0,2E1,6E0,1.5E1,2E0,9E0,1.3E1,7E0,1.3E1,2E0,3E0,6E0,2E0,5E0,1E0,1.2E1,4E0,2E0,1E0,1E0],"tree_param":{"num_deleted":"0","num_feature":"56","num_nodes":"27","size_leaf_vector":"1"}},{"base_weights":[2.060171E-5,7.4699774E-2,-7.963787E-2,1.0805541E-1,-5.9863977E-2,-9.807203E-2,-1.668495E-2,1.1381465E-1,-8.981377E-4,-1.3733038E-1,4.4600684E-3,4.998833E-3,-1.137826E-1,1.9270435E-3,-5.7528615E-2,5.798887E-3,1.5475154E-3,-7.7721286E-3,-1.622042E-3,-2.7552485E-2,2.5663197E-3,-6.100708E-3,-3.2342542E-3,-9.6557935E-4,-3.828472E-3,-1.6821772E-3,-3.8425924E-4],"categories":[],"categories_nodes":[],"categories_segments":[],"categories_sizes":[],"default_left":[0,0,0,0,0,0,0,0,0,0,0,0,0,0,0,0,0,0,0,0,0,0,0,0,0,0,0],"id":23,"left_children":[1,3,5,7,9,11,13,15,-1,17,-1,19,21,-1,23,-1,-1,-1,-1,25,-1,-1,-1,-1,-1,-1,-1],"loss_changes":[3.688275E-1,1.5009932E-1,3.317818E-2,2.0914406E-2,9.3082964E-2,3.781274E-2,2.0262202E-2,8.915067E-4,0E0,4.456207E-3,0E0,7.446262E-3,1.9049644E-4,0E0,2.1597408E-3,0E0,0E0,0E0,0E0,1.0448182E-4,0E0,0E0,0E0,0E0,0E0,0E0,0E0],"parents":[2147483647,0,0,1,1,2,2,3,3,4,4,5,5,6,6,7,7,9,9,11,11,12,12,14,14,19,19],"right_children":[2,4,6,8,10,12,14,16,-1,18,-1,20,22,-1,24,-1,-1,-1,-1,26,-1,-1,-1,-1,-1,-1,-1],"split_conditions":[2.15E0,2.167223E1,4.525122E1,4.1963818E1,1.3604545E1,-1.8508713E0,2.478067E-1,2.6208658E0,-8.981377E-4,1.3104329E1,4.4600684E-3,1.0413836E1,2.0677803E0,1.9270435E-3,4.6443626E1,5.798887E-3,1.5475154E-3,-7.7721286E-3,-1.622042E-3,9.375675E0,2.5663197E-3,-6.100708E-3,-3.2342542E-3,-9.6557935E-4,-3.828472E-3,-1.6821772E-3,-3.8425924E-4],"split_indices":[25,7,6,6,5,51,42,12,0,5,0,5,54,0,6,0,0,0,0,5,0,0,0,0,0,0,0],"split_type":[0,0,0,0,0,0,0,0,0,0,0,0,0,0,0,0,0,0,0,0,0,0,0,0,0,0,0],"sum_hessian":[6E1,3.1E1,2.9E1,2.5E1,6E0,2.2E1,7E0,2.4E1,1E0,4E0,2E0,3E0,1.9E1,3E0,4E0,2.3E1,1E0,3E0,1E0,2E0,1E0,1.5E1,4E0,2E0,2E0,1E0,1E0],"tree_param":{"num_deleted":"0","num_feature":"56","num_nodes":"27","size_leaf_vector":"1"}},{"base_weights":[-1.692634E-3,9.1228895E-2,-6.2160313E-2,1.0679487E-1,-7.408587E-2,-1.0558404E-1,1.0463273E-2,1.1712493E-1,3.1012008E-3,-4.680756E-3,-8.756846E-4,-6.657529E-2,-5.925241E-3,7.748023E-2,-4.4196617E-2,2.785024E-3,1.2468804E-1,-8.680811E-2,-1.9582242E-2,5.931905E-3,2.9057885E-2,-5.790768E-3,-1.18150115E-2,2.5672317E-3,6.552209E-3,-4.6996675E-3,-1.2720466E-3,9.685457E-5,-1.3700526E-3,1.8547804E-3,-7.732511E-5,2.5021613E-3,-2.7800934E-2,-6.927252E-4,-1.7398567E-3],"categories":[],"categories_nodes":[],"categories_segments":[],"categories_sizes":[],"default_left":[0,0,0,0,0,0,0,0,0,0,0,0,0,0,0,0,0,0,0,0,0,0,0,0,0,0,0,0,0,0,0,0,0,0,0],"id":24,"left_children":[1,3,5,7,9,11,13,15,-1,-1,-1,17,-1,19,21,-1,23,25,27,-1,29,-1,31,-1,-1,-1,-1,-1,-1,-1,-1,-1,33,-1,-1],"loss_changes":[3.9898327E-1,7.9964E-2,1.3670897E-1,4.7600567E-3,1.6748887E-3,5.7191253E-3,6.569774E-2,2.3459792E-3,0E0,0E0,0E0,6.857317E-3,0E0,1.2496311E-2,2.182294E-2,0E0,1.1966825E-3,2.5435537E-4,7.261004E-4,0E0,1.287316E-3,0E0,9.302136E-3,0E0,0E0,0E0,0E0,0E0,0E0,0E0,0E0,0E0,2.0090677E-4,0E0,0E0],"parents":[2147483647,0,0,1,1,2,2,3,3,4,4,5,5,6,6,7,7,11,11,13,13,14,14,16,16,17,17,18,18,20,20,22,22,32,32],"right_children":[2,4,6,8,10,12,14,16,-1,-1,-1,18,-1,20,22,-1,24,26,28,-1,30,-1,32,-1,-1,-1,-1,-1,-1,-1,-1,-1,34,-1,-1],"split_conditions":[1.76E0,9.032437E0,1.3611833E0,5.1665907E0,1.4591844E0,1.1170288E1,1.3122199E0,5.981475E0,3.1012008E-3,-4.680756E-3,-8.756846E-4,7.4202016E-2,-5.925241E-3,1.5376756E0,1.6247734E0,2.785024E-3,-1.8165145E0,4.870111E0,9.3041974E-1,5.931905E-3,1.0221431E1,-5.790768E-3,1.4126766E0,2.5672317E-3,6.552209E-3,-4.6996675E-3,-1.2720466E-3,9.685457E-5,-1.3700526E-3,1.8547804E-3,-7.732511E-5,2.5021613E-3,6.095091E0,-6.927252E-4,-1.7398567E-3],"split_indices":[25,16,4,55,4,7,42,6,0,0,0,23,0,4,17,0,31,5,4,0,5,0,4,0,0,0,0,0,0,0,0,0,16,0,0],"split_type":[0,0,0,0,0,0,0,0,0,0,0,0,0,0,0,0,0,0,0,0,0,0,0,0,0,0,0,0,0,0,0,0,0,0,0],"sum_hessian":[6.9E1,2.7E1,4.2E1,2.5E1,2E0,2.6E1,1.6E1,1.9E1,6E0,1E0,1E0,8E0,1.8E1,7E0,9E0,3E0,1.6E1,5E0,3E0,3E0,4E0,2E0,7E0,2E0,1.4E1,4E0,1E0,1E0,2E0,3E0,1E0,1E0,6E0,3E0,3E0],"tree_param":{"num_deleted":"0","num_feature":"56","num_nodes":"35","size_leaf_vector":"1"}},{"base_weights":[-1.8761286E-3,7.7689104E-2,-6.812838E-2,1.04037166E-1,-7.485862E-2,-8.0227E-2,4.58494E-3,1.1282474E-1,2.7970574E-3,-3.573358E-4,-4.4999956E-3,-1.0142196E-1,-1.9216895E-2,3.4475157E-3,6.2888907E-3,-5.720744E-3,-5.9510157E-2,2.1733284E-2,-5.013923E-2,-1.0244687E-2,-3.7112266E-3,-8.5379183E-4,1.7852262E-3,-1.0789335E-3,-3.5753448E-3,9.443462E-5,-8.627862E-4],"categories":[],"categories_nodes":[],"categories_segments":[],"categories_sizes":[],"default_left":[0,0,0,0,0,0,0,0,0,0,0,0,0,0,0,0,0,0,0,0,0,0,0,0,0,0,0],"id":25,"left_children":[1,3,5,7,9,11,-1,13,-1,-1,-1,15,17,-1,-1,-1,19,21,23,25,-1,-1,-1,-1,-1,-1,-1],"loss_changes":[3.4793225E-1,1.2836815E-1,7.696952E-2,4.6772957E-3,4.4830237E-3,4.2016625E-2,0E0,3.2620728E-3,0E0,0E0,0E0,6.8050623E-3,1.3752441E-2,0E0,0E0,0E0,5.038878E-3,3.3207424E-3,2.1186126E-3,2.8779343E-4,0E0,0E0,0E0,0E0,0E0,0E0,0E0],"parents":[2147483647,0,0,1,1,2,2,3,3,4,4,5,5,7,7,11,11,12,12,16,16,17,17,18,18,19,19],"right_children":[2,4,6,8,10,12,-1,14,-1,-1,-1,16,18,-1,-1,-1,20,22,24,26,-1,-1,-1,-1,-1,-1,-1],"split_conditions":[6.778019E-2,1.95E0,1.1565592E1,1.665909E-1,4.5307426E0,1.4591844E0,4.58494E-3,1.3149203E1,2.7970574E-3,-3.573358E-4,-4.4999956E-3,2.83E0,2.478067E-1,3.4475157E-3,6.2888907E-3,-5.720744E-3,9.326791E-1,1.4674623E0,6.947626E0,9.3041974E-1,-3.7112266E-3,-8.5379183E-4,1.7852262E-3,-1.0789335E-3,-3.5753448E-3,9.443462E-5,-8.627862E-4],"split_indices":[54,34,5,49,16,4,0,7,0,0,0,43,42,0,0,0,4,4,28,4,0,0,0,0,0,0,0],"split_type":[0,0,0,0,0,0,0,0,0,0,0,0,0,0,0,0,0,0,0,0,0,0,0,0,0,0,0],"sum_hessian":[6.4E1,2.9E1,3.5E1,2.5E1,4E0,3.3E1,2E0,2E1,5E0,1E0,3E0,2.4E1,9E0,6E0,1.4E1,1.7E1,7E0,4E0,5E0,2E0,5E0,1E0,3E0,3E0,2E0,1E0,1E0],"tree_param":{"num_deleted":"0","num_feature":"56","num_nodes":"27","size_leaf_vector":"1"}},{"base_weights":[-5.584841E-3,1.0562947E-1,-4.534875E-2,2.2559196E-3,5.70777E-3,2.7673459E-2,-7.227142E-2,8.834412E-2,-7.805655E-2,-9.024544E-2,-1.8315239E-2,1.0319293E-3,4.678689E-3,-3.4840108E-4,-4.5440327E-3,-9.803531E-2,9.945194E-3,2.0832872E-2,-4.3661714E-2,-5.746308E-2,-5.468122E-3,2.3249835E-3,-1.579094E-3,-8.3244743E-4,1.7182783E-3,-9.826196E-4,-3.4561676E-3,-4.30762E-3,-2.3019005E-2,9.2074275E-5,-1.4847249E-3],"categories":[],"categories_nodes":[],"categories_segments":[],"categories_sizes":[],"default_left":[0,0,0,0,0,0,0,0,0,0,0,0,0,0,0,0,0,0,0,0,0,0,0,0,0,0,0,0,0,0,0],"id":26,"left_children":[1,3,5,-1,-1,7,9,11,13,15,17,-1,-1,-1,-1,19,21,23,25,27,-1,-1,-1,-1,-1,-1,-1,-1,29,-1,-1],"loss_changes":[3.1877458E-1,4.6518296E-3,1.0619552E-1,0E0,0E0,1.0311648E-1,3.6169723E-2,1.609534E-3,4.836619E-3,2.360864E-2,1.18245315E-2,0E0,0E0,0E0,0E0,6.1240196E-3,6.022548E-3,3.1083E-3,2.9207766E-3,5.9222765E-3,0E0,0E0,0E0,0E0,0E0,0E0,0E0,0E0,8.8446215E-4,0E0,0E0],"parents":[2147483647,0,0,1,1,2,2,5,5,6,6,7,7,8,8,9,9,10,10,15,15,16,16,17,17,18,18,19,19,28,28],"right_children":[2,4,6,-1,-1,8,10,12,14,16,18,-1,-1,-1,-1,20,22,24,26,28,-1,-1,-1,-1,-1,-1,-1,-1,30,-1,-1],"split_conditions":[-1.1281967E0,5.06186E0,6.778019E-2,2.2559196E-3,5.70777E-3,1.64E0,1.4667184E0,-2.4780533E0,4.5307426E0,1.1166851E1,2.478067E-1,1.0319293E-3,4.678689E-3,-3.4840108E-4,-4.5440327E-3,1.0992146E0,1.4126766E0,1.4674623E0,3.0764136E-1,1.0421933E0,-5.468122E-3,2.3249835E-3,-1.579094E-3,-8.3244743E-4,1.7182783E-3,-9.826196E-4,-3.4561676E-3,-4.30762E-3,9.3041974E-1,9.2074275E-5,-1.4847249E-3],"split_indices":[27,5,54,0,0,33,4,42,16,5,42,0,0,0,0,4,4,4,49,54,0,0,0,0,0,0,0,0,4,0,0],"split_type":[0,0,0,0,0,0,0,0,0,0,0,0,0,0,0,0,0,0,0,0,0,0,0,0,0,0,0,0,0,0,0],"sum_hessian":[7E1,1.8E1,5.2E1,3E0,1.5E1,1.4E1,3.8E1,9E0,5E0,2.8E1,1E1,1E0,8E0,1E0,4E0,2.6E1,2E0,4E0,6E0,7E0,1.9E1,1E0,1E0,1E0,3E0,4E0,2E0,3E0,4E0,1E0,3E0],"tree_param":{"num_deleted":"0","num_feature":"56","num_nodes":"31","size_leaf_vector":"1"}},{"base_weights":[-6.4623826E-3,1.000915E-1,-3.7074804E-2,2.3995352E-3,1.1467446E-1,2.1584563E-2,-6.61832E-2,1.5594959E-3,5.9951963E-3,6.4044185E-2,-7.40087E-2,-9.016234E-2,-1.2709658E-2,8.488151E-2,-4.650092E-3,-3.3968987E-4,-4.3046465E-3,2.26686E-3,-4.90124E-3,1.7309627E-2,-3.6624808E-2,1.0061323E-3,4.446967E-3,-9.483218E-3,1.6538426E-3,-3.4887015E-3,-9.735465E-4,-8.1163645E-4,1.0039508E-4],"categories":[],"categories_nodes":[],"categories_segments":[],"categories_sizes":[],"default_left":[0,0,0,0,0,0,0,0,0,0,0,0,0,0,0,0,0,0,0,0,0,0,0,0,0,0,0,0,0],"id":27,"left_children":[1,3,5,-1,7,9,11,-1,-1,13,15,17,19,21,-1,-1,-1,-1,-1,23,25,-1,-1,27,-1,-1,-1,-1,-1],"loss_changes":[2.1899448E-1,5.893439E-3,9.021749E-2,0E0,1.062572E-3,7.779919E-2,4.3732792E-2,0E0,0E0,5.0435577E-2,4.288543E-3,3.0012801E-2,9.248948E-3,1.3636723E-3,0E0,0E0,0E0,0E0,0E0,2.8483681E-3,2.6218994E-3,0E0,0E0,2.65272E-4,0E0,0E0,0E0,0E0,0E0],"parents":[2147483647,0,0,1,1,2,2,4,4,5,5,6,6,9,9,10,10,11,11,12,12,13,13,19,19,20,20,23,23],"right_children":[2,4,6,-1,8,10,12,-1,-1,14,16,18,20,22,-1,-1,-1,-1,-1,24,26,-1,-1,28,-1,-1,-1,-1,-1],"split_conditions":[-1.1281967E0,1.7807487E1,6.778019E-2,2.3995352E-3,1.4656746E0,1.3196249E0,1.4667184E0,1.5594959E-3,5.9951963E-3,1.1604545E1,4.5307426E0,-1.8508713E0,8.891712E-1,-2.4780533E0,-4.650092E-3,-3.3968987E-4,-4.3046465E-3,2.26686E-3,-4.90124E-3,4.0642414E0,1.6247734E0,1.0061323E-3,4.446967E-3,1.4674623E0,1.6538426E-3,-3.4887015E-3,-9.735465E-4,-8.1163645E-4,1.0039508E-4],"split_indices":[27,15,54,0,4,49,4,0,0,5,16,51,42,42,0,0,0,0,0,8,17,0,0,4,0,0,0,0,0],"split_type":[0,0,0,0,0,0,0,0,0,0,0,0,0,0,0,0,0,0,0,0,0,0,0,0,0,0,0,0,0],"sum_hessian":[6.5E1,1.4E1,5.1E1,4E0,1E1,1.7E1,3.4E1,1E0,9E0,1.2E1,5E0,2.3E1,1.1E1,1.1E1,1E0,1E0,4E0,1E0,2.2E1,5E0,6E0,1E0,1E1,2E0,3E0,1E0,5E0,1E0,1E0],"tree_param":{"num_deleted":"0","num_feature":"56","num_nodes":"29","size_leaf_vector":"1"}},{"base_weights":[9.059222E-4,6.745349E-2,-5.3406723E-2,9.58001E-2,-9.910891E-2,-6.715365E-2,5.0753713E-2,1.02462776E-1,2.299588E-3,-5.466956E-3,-1.454702E-3,-9.184344E-2,-1.4235397E-2,-1.4170855E-3,3.8806498E-3,2.9808215E-3,1.1407817E-1,-4.85325E-3,-2.4678111E-2,-5.4379046E-2,5.187935E-3,2.4517456E-3,5.9740804E-3,2.123058E-4,-2.0631643E-3,-5.380154E-4,-3.2665927E-3,-8.457005E-4,2.6252294E-2,1.5918255E-3,9.788573E-5],"categories":[],"categories_nodes":[],"categories_segments":[],"categories_sizes":[],"default_left":[0,0,0,0,0,0,0,0,0,0,0,0,0,0,0,0,0,0,0,0,0,0,0,0,0,0,0,0,0,0,0],"id":28,"left_children":[1,3,5,7,9,11,13,15,-1,-1,-1,17,19,-1,-1,-1,21,-1,23,25,27,-1,-1,-1,-1,-1,-1,-1,29,-1,-1],"loss_changes":[2.4937995E-1,1.5586051E-1,5.7819955E-2,4.247695E-3,4.002154E-4,4.3114975E-2,1.2821917E-2,4.6456456E-3,0E0,0E0,0E0,5.6708753E-3,9.638797E-3,0E0,0E0,0E0,1.1599064E-4,0E0,1.6143484E-3,1.2079999E-3,4.6341014E-3,0E0,0E0,0E0,0E0,0E0,0E0,0E0,6.16004E-4,0E0,0E0],"parents":[2147483647,0,0,1,1,2,2,3,3,4,4,5,5,6,6,7,7,11,11,12,12,16,16,18,18,19,19,20,20,28,28],"right_children":[2,4,6,8,10,12,14,16,-1,-1,-1,18,20,-1,-1,-1,22,-1,24,26,28,-1,-1,-1,-1,-1,-1,-1,30,-1,-1],"split_conditions":[6.778019E-2,2.01E0,1.1166851E1,1.9775007E0,1.4126766E0,1.4667184E0,2.26862E0,5.06186E0,2.299588E-3,-5.466956E-3,-1.454702E-3,1.2440812E1,2.9397585E0,-1.4170855E-3,3.8806498E-3,2.9808215E-3,6.6441903E0,-4.85325E-3,9.3041974E-1,1.5185323E0,1.0713605E0,2.4517456E-3,5.9740804E-3,2.123058E-4,-2.0631643E-3,-5.380154E-4,-3.2665927E-3,-8.457005E-4,1.0221431E1,1.5918255E-3,9.788573E-5],"split_indices":[54,34,5,31,4,4,8,5,0,0,0,16,50,0,0,0,47,0,4,4,54,0,0,0,0,0,0,0,5,0,0],"split_type":[0,0,0,0,0,0,0,0,0,0,0,0,0,0,0,0,0,0,0,0,0,0,0,0,0,0,0,0,0,0,0],"sum_hessian":[6.7E1,3E1,3.7E1,2.6E1,4E0,3.3E1,4E0,2.2E1,4E0,3E0,1E0,2.2E1,1.1E1,1E0,3E0,6E0,1.6E1,2E1,2E0,3E0,8E0,2E0,1.4E1,1E0,1E0,1E0,2E0,4E0,4E0,3E0,1E0],"tree_param":{"num_deleted":"0","num_feature":"56","num_nodes":"31","size_leaf_vector":"1"}},{"base_weights":[-1.4325976E-4,5.7079192E-2,-5.9149437E-2,-5.103765E-2,8.2995445E-2,-8.101154E-2,-1.0047999E-2,2.1324435E-3,-9.704204E-2,9.152365E-2,-7.8690454E-4,-1.7387829E-3,-4.194818E-3,2.261448E-3,-2.7357208E-2,-5.3742975E-3,-1.3816595E-3,1.013168E-1,2.5933709E-3,2.3548126E-3,-5.1597785E-2,2.2901923E-3,1.0886274E-1,-7.538885E-3,1.0482401E-3,-2.948284E-4,-3.0774474E-3,1.557541E-3,5.598341E-3,9.543896E-5,-5.662183E-4],"categories":[],"categories_nodes":[],"categories_segments":[],"categories_sizes":[],"default_left":[0,0,0,0,0,0,0,0,0,0,0,0,0,0,0,0,0,0,0,0,0,0,0,0,0,0,0,0,0,0,0],"id":29,"left_children":[1,3,5,7,9,11,13,-1,15,17,-1,-1,-1,-1,19,-1,-1,21,-1,23,25,-1,27,29,-1,-1,-1,-1,-1,-1,-1],"loss_changes":[2.194708E-1,9.670134E-2,3.3536747E-2,3.4308672E-2,2.4174929E-2,1.6853213E-5,1.1762142E-2,0E0,6.5432116E-4,4.453957E-3,0E0,0E0,0E0,0E0,6.603631E-3,0E0,0E0,2.972722E-3,0E0,1.0786592E-3,1.9109743E-3,0E0,3.7172437E-4,1.6467152E-4,0E0,0E0,0E0,0E0,0E0,0E0,0E0],"parents":[2147483647,0,0,1,1,2,2,3,3,4,4,5,5,6,6,8,8,9,9,14,14,17,17,19,19,20,20,22,22,23,23],"right_children":[2,4,6,8,10,12,14,-1,16,18,-1,-1,-1,-1,20,-1,-1,22,-1,24,26,-1,28,30,-1,-1,-1,-1,-1,-1,-1],"split_conditions":[2.15E0,6.468211E0,1.4070212E0,2.9898293E0,9.700276E0,-8.5901725E-1,2.9656E1,2.1324435E-3,1.0166851E1,2.959915E-2,-7.8690454E-4,-1.7387829E-3,-4.194818E-3,2.261448E-3,2.124649E0,-5.3742975E-3,-1.3816595E-3,1.3149203E1,2.5933709E-3,1.5859861E0,1.4406444E0,2.2901923E-3,1.7807487E1,1.545492E0,1.0482401E-3,-2.948284E-4,-3.0774474E-3,1.557541E-3,5.598341E-3,9.543896E-5,-5.662183E-4],"split_indices":[25,47,4,5,27,51,15,0,5,49,0,0,0,0,49,0,0,7,0,4,4,0,15,4,0,0,0,0,0,0,0],"split_type":[0,0,0,0,0,0,0,0,0,0,0,0,0,0,0,0,0,0,0,0,0,0,0,0,0,0,0,0,0,0,0],"sum_hessian":[6.3E1,3.2E1,3.1E1,6E0,2.6E1,2.1E1,1E1,2E0,4E0,2.4E1,2E0,2E0,1.9E1,2E0,8E0,3E0,1E0,1.8E1,6E0,4E0,4E0,3E0,1.5E1,3E0,1E0,1E0,3E0,1E0,1.4E1,1E0,2E0],"tree_param":{"num_deleted":"0","num_feature":"56","num_nodes":"31","size_leaf_vector":"1"}},{"base_weights":[1.7874828E-3,5.772904E-2,-5.770628E-2,7.690875E-2,-4.459439E-2,-1.0076181E-1,-3.915603E-2,8.743867E-2,-4.3496806E-2,-3.7465156E-3,1.0718306E-2,-5.4140105E-3,-1.0153651E-3,3.372703E-2,-6.011089E-2,3.015856E-3,1.0231492E-1,-2.96686E-3,-2.9540062E-4,9.305179E-5,7.108212E-4,2.2338678E-3,-5.2561465E-4,-6.417691E-2,-8.5165695E-4,5.4273214E-3,1.9564787E-3,-6.689606E-2,-5.1676336E-4,-6.976935E-2,-5.949169E-4,-3.6288423E-3,-7.616103E-4],"categories":[],"categories_nodes":[],"categories_segments":[],"categories_sizes":[],"default_left":[0,0,0,0,0,0,0,0,0,0,0,0,0,0,0,0,0,0,0,0,0,0,0,0,0,0,0,0,0,0,0,0,0],"id":30,"left_children":[1,3,5,7,9,11,13,15,17,-1,19,-1,-1,21,23,-1,25,-1,-1,-1,-1,-1,-1,27,-1,-1,-1,29,-1,31,-1,-1,-1],"loss_changes":[2.1966262E-1,7.0155844E-2,2.1612681E-2,4.0571272E-2,1.0870896E-2,3.2451227E-3,3.8681466E-2,4.7222525E-3,1.4356985E-3,0E0,6.6494045E-5,0E0,0E0,3.376271E-3,2.234809E-3,0E0,2.052486E-3,0E0,0E0,0E0,0E0,0E0,0E0,1.7974749E-3,0E0,0E0,0E0,1.6982555E-3,0E0,1.1911839E-3,0E0,0E0,0E0],"parents":[2147483647,0,0,1,1,2,2,3,3,4,4,5,5,6,6,7,7,8,8,10,10,13,13,14,14,16,16,23,23,27,27,29,29],"right_children":[2,4,6,8,10,12,14,16,18,-1,20,-1,-1,22,24,-1,26,-1,-1,-1,-1,-1,-1,28,-1,-1,-1,30,-1,32,-1,-1,-1],"split_conditions":[1.65E0,1.95E0,2.081572E0,2.15E0,1.4591844E0,1.6147876E0,3.312911E0,7.233668E0,1.2940478E0,-3.7465156E-3,1.545492E0,-5.4140105E-3,-1.0153651E-3,2.0354366E0,1.4070212E0,3.015856E-3,2.0950909E0,-2.96686E-3,-2.9540062E-4,9.305179E-5,7.108212E-4,2.2338678E-3,-5.2561465E-4,8.216985E0,-8.5165695E-4,5.4273214E-3,1.9564787E-3,3.31E0,-5.1676336E-4,3.37E0,-5.949169E-4,-3.6288423E-3,-7.616103E-4],"split_indices":[33,43,17,25,4,4,17,5,4,0,4,0,0,23,4,0,31,0,0,0,0,0,0,17,0,0,0,33,0,42,0,0,0],"split_type":[0,0,0,0,0,0,0,0,0,0,0,0,0,0,0,0,0,0,0,0,0,0,0,0,0,0,0,0,0,0,0,0,0],"sum_hessian":[6.4E1,3.3E1,3.1E1,2.8E1,5E0,8E0,2.3E1,2.6E1,2E0,3E0,2E0,7E0,1E0,5E0,1.8E1,1.1E1,1.5E1,1E0,1E0,1E0,1E0,4E0,1E0,1.6E1,2E0,1.3E1,2E0,1.5E1,1E0,1.4E1,1E0,1.3E1,1E0],"tree_param":{"num_deleted":"0","num_feature":"56","num_nodes":"33","size_leaf_vector":"1"}},{"base_weights":[-6.875967E-3,7.040505E-2,-4.8872977E-2,8.009593E-2,-3.8121312E-3,-7.591803E-2,-9.291693E-3,8.640847E-2,2.0044541E-3,-8.64709E-2,-4.136522E-2,3.5701785E-2,-6.325131E-2,2.6279602E-3,9.79882E-2,-4.499293E-3,-5.800426E-4,-2.9430164E-3,-9.155035E-3,6.733916E-2,-1.885891E-3,-3.290236E-3,-9.268347E-2,5.1030805E-3,1.2276828E-3,3.309101E-4,-8.309424E-4,3.6538744E-3,9.661883E-4,1.0450323E-2,-5.33329E-4,1.1666178E-3,-9.970943E-4,-1.3201088E-3,-5.032965E-3,9.072423E-5,6.9305004E-4],"categories":[],"categories_nodes":[],"categories_segments":[],"categories_sizes":[],"default_left":[0,0,0,0,0,0,0,0,0,0,0,0,0,0,0,0,0,0,0,0,0,0,0,0,0,0,0,0,0,0,0,0,0,0,0,0,0],"id":31,"left_children":[1,3,5,7,-1,9,11,13,-1,15,17,19,21,-1,23,-1,-1,-1,25,27,29,31,33,-1,-1,-1,-1,-1,-1,35,-1,-1,-1,-1,-1,-1,-1],"loss_changes":[2.2089422E-1,4.021421E-2,4.6395637E-2,2.344504E-3,0E0,5.9035122E-3,4.8386972E-2,2.297148E-3,0E0,3.9562136E-3,3.969297E-3,1.32079255E-2,1.5578106E-2,0E0,1.3826862E-3,0E0,0E0,0E0,5.809009E-4,2.410356E-4,7.6139194E-4,2.2385318E-3,5.1426515E-4,0E0,0E0,0E0,0E0,0E0,0E0,6.32116E-5,0E0,0E0,0E0,0E0,0E0,0E0,0E0],"parents":[2147483647,0,0,1,1,2,2,3,3,5,5,6,6,7,7,9,9,10,10,11,11,12,12,14,14,18,18,19,19,20,20,21,21,22,22,29,29],"right_children":[2,4,6,8,-1,10,12,14,-1,16,18,20,22,-1,24,-1,-1,-1,26,28,30,32,34,-1,-1,-1,-1,-1,-1,36,-1,-1,-1,-1,-1,-1,-1],"split_conditions":[1.72E0,9.032437E0,1.3611833E0,5.1665907E0,-3.8121312E-3,2.83E0,1.93E0,1.782998E1,2.0044541E-3,3.2E0,3.5023692E0,2.3834245E0,5.3076415E0,2.6279602E-3,2.5005022E1,-4.499293E-3,-5.800426E-4,-2.9430164E-3,9.3041974E-1,1.5083741E0,8.891712E-1,1.6268051E1,1.9220492E0,5.1030805E-3,1.2276828E-3,3.309101E-4,-8.309424E-4,3.6538744E-3,9.661883E-4,1.545492E0,-5.33329E-4,1.1666178E-3,-9.970943E-4,-1.3201088E-3,-5.032965E-3,9.072423E-5,6.9305004E-4],"split_indices":[25,16,4,55,0,43,33,15,0,33,31,52,55,0,7,0,0,0,4,4,42,7,8,0,0,0,0,0,0,4,0,0,0,0,0,0,0],"split_type":[0,0,0,0,0,0,0,0,0,0,0,0,0,0,0,0,0,0,0,0,0,0,0,0,0,0,0,0,0,0,0,0,0,0,0,0,0],"sum_hessian":[6.6E1,2.3E1,4.3E1,2.2E1,1E0,2.5E1,1.8E1,1.8E1,4E0,1.8E1,7E0,1E1,8E0,6E0,1.2E1,1.7E1,1E0,4E0,3E0,5E0,5E0,3E0,5E0,1.1E1,1E0,1E0,2E0,4E0,1E0,2E0,3E0,1E0,2E0,1E0,4E0,1E0,1E0],"tree_param":{"num_deleted":"0","num_feature":"56","num_nodes":"37","size_leaf_vector":"1"}},{"base_weights":[2.3544137E-3,5.8077414E-2,-5.3437833E-2,7.4777275E-2,-5.3737234E-2,-6.772287E-2,1.4539063E-3,8.140727E-2,-6.014228E-4,-4.597412E-3,2.4776699E-3,-5.5581104E-2,-5.047777E-3,-1.2764424E-3,2.2749329E-2,2.2503426E-3,8.928889E-2,-4.9060385E-4,-5.96674E-2,1.3776049E-3,8.8456276E-5,2.2767212E-3,9.648242E-2,-3.1571023E-3,-1.8930396E-2,1.1969925E-3,9.93414E-2,3.2263697E-4,-1.7424166E-3,1.410222E-3,5.101234E-3],"categories":[],"categories_nodes":[],"categories_segments":[],"categories_sizes":[],"default_left":[0,0,0,0,0,0,0,0,0,0,0,0,0,0,0,0,0,0,0,0,0,0,0,0,0,0,0,0,0,0,0],"id":32,"left_children":[1,3,5,7,9,11,13,15,-1,-1,-1,17,-1,-1,19,-1,21,-1,23,-1,-1,-1,25,-1,27,-1,29,-1,-1,-1,-1],"loss_changes":[2.114006E-1,6.750614E-2,2.675891E-2,1.8244863E-2,2.4290541E-2,5.2833706E-3,5.177637E-3,4.0144324E-3,0E0,0E0,0E0,3.529109E-3,0E0,0E0,4.5507238E-4,0E0,2.5312155E-3,0E0,1.6356334E-3,0E0,0E0,0E0,1.3549179E-3,0E0,1.4370085E-3,0E0,3.6743283E-4,0E0,0E0,0E0,0E0],"parents":[2147483647,0,0,1,1,2,2,3,3,4,4,5,5,6,6,7,7,11,11,14,14,16,16,18,18,22,22,24,24,26,26],"right_children":[2,4,6,8,10,12,14,16,-1,-1,-1,18,-1,-1,20,-1,22,-1,24,-1,-1,-1,26,-1,28,-1,30,-1,-1,-1,-1],"split_conditions":[2.07E0,1.9610246E0,1.4667184E0,2.6769526E0,1.1166851E1,4.0064216E0,4.063844E0,-7.474769E-1,-6.014228E-4,-4.597412E-3,2.4776699E-3,-8.5901725E-1,-5.047777E-3,-1.2764424E-3,1.0221431E1,2.2503426E-3,5.06186E0,-4.9060385E-4,1.2440812E1,1.3776049E-3,8.8456276E-5,2.2767212E-3,3.5622036E0,-3.1571023E-3,9.3041974E-1,1.1969925E-3,1.1584323E1,3.2263697E-4,-1.7424166E-3,1.410222E-3,5.101234E-3],"split_indices":[34,54,4,13,5,8,8,42,0,0,0,51,0,0,5,0,5,0,16,0,0,0,28,0,4,0,7,0,0,0,0],"split_type":[0,0,0,0,0,0,0,0,0,0,0,0,0,0,0,0,0,0,0,0,0,0,0,0,0,0,0,0,0,0,0],"sum_hessian":[6.6E1,3.3E1,3.3E1,2.9E1,4E0,2.6E1,7E0,2.7E1,2E0,3E0,1E0,2.1E1,5E0,3E0,4E0,6E0,2.1E1,2E0,1.9E1,3E0,1E0,4E0,1.7E1,1.7E1,2E0,1E0,1.6E1,1E0,1E0,1E0,1.5E1],"tree_param":{"num_deleted":"0","num_feature":"56","num_nodes":"31","size_leaf_vector":"1"}},{"base_weights":[5.3780116E-3,5.3586308E-2,-4.9665157E-2,-4.2281568E-2,7.221563E-2,-6.3346945E-2,1.3339539E-2,1.7982284E-3,-9.039578E-2,7.54923E-2,-4.063636E-4,1.1030138E-3,-6.801945E-2,-6.885767E-3,1.7930052E-3,-5.3069014E-3,-1.0792256E-3,2.1433372E-3,8.277262E-2,-1.4008343E-3,-3.5247554E-3,-5.1654776E-4,8.6244945E-5,2.2066752E-3,9.2089E-2,1.7640869E-3,9.76842E-2,1.1670649E-3,5.0803698E-3],"categories":[],"categories_nodes":[],"categories_segments":[],"categories_sizes":[],"default_left":[0,0,0,0,0,0,0,0,0,0,0,0,0,0,0,0,0,0,0,0,0,0,0,0,0,0,0,0,0],"id":33,"left_children":[1,3,5,7,9,11,13,-1,15,17,-1,-1,19,21,-1,-1,-1,-1,23,-1,-1,-1,-1,-1,25,-1,27,-1,-1],"loss_changes":[1.6452715E-1,6.1989844E-2,2.5843516E-2,2.5839552E-2,7.984757E-3,1.1078097E-2,2.979836E-3,0E0,2.0420402E-3,2.8649718E-3,0E0,0E0,3.0272454E-4,1.3648129E-4,0E0,0E0,0E0,0E0,3.4952909E-3,0E0,0E0,0E0,0E0,0E0,1.6391128E-3,0E0,1.7116219E-3,0E0,0E0],"parents":[2147483647,0,0,1,1,2,2,3,3,4,4,5,5,6,6,8,8,9,9,12,12,13,13,18,18,24,24,26,26],"right_children":[2,4,6,8,10,12,14,-1,16,18,-1,-1,20,22,-1,-1,-1,-1,24,-1,-1,-1,-1,-1,26,-1,28,-1,-1],"split_conditions":[2.15E0,6.468211E0,9.137233E0,2.9898293E0,2.5709896E0,-9.038505E-1,2.1191671E1,1.7982284E-3,1.0166851E1,-6.264218E-1,-4.063636E-4,1.1030138E-3,-8.5901725E-1,1.0243749E1,1.7930052E-3,-5.3069014E-3,-1.0792256E-3,2.1433372E-3,5.06186E0,-1.4008343E-3,-3.5247554E-3,-5.1654776E-4,8.6244945E-5,2.2066752E-3,6.6441903E0,1.7640869E-3,-1.8213058E0,1.1670649E-3,5.0803698E-3],"split_indices":[25,47,5,5,13,42,7,0,5,42,0,0,51,5,0,0,0,0,5,0,0,0,0,0,47,0,31,0,0],"split_type":[0,0,0,0,0,0,0,0,0,0,0,0,0,0,0,0,0,0,0,0,0,0,0,0,0,0,0,0,0],"sum_hessian":[6E1,3.2E1,2.8E1,5E0,2.7E1,2.3E1,5E0,2E0,3E0,2.6E1,1E0,1E0,2.2E1,3E0,2E0,2E0,1E0,6E0,2E1,2E0,2E1,2E0,1E0,5E0,1.5E1,2E0,1.3E1,1E0,1.2E1],"tree_param":{"num_deleted":"0","num_feature":"56","num_nodes":"29","size_leaf_vector":"1"}},{"base_weights":[4.1439384E-3,4.865283E-2,-4.6241716E-2,6.4309075E-2,-3.7737172E-2,-6.2294602E-2,-1.5633425E-2,-2.8196156E-3,7.041575E-2,-3.1705617E-3,9.073973E-3,-2.9138684E-2,-3.5701997E-3,-3.7456766E-2,1.8688723E-3,7.713914E-2,1.9132615E-3,8.4090236E-5,5.9645774E-4,-1.9878487E-3,-6.9451483E-4,-1.8885562E-2,-3.415199E-3,2.2349153E-3,8.595953E-2,-2.4272501E-4,-1.0207494E-3,1.8093666E-3,9.018334E-2,1.2751222E-3,4.64909E-3],"categories":[],"categories_nodes":[],"categories_segments":[],"categories_sizes":[],"default_left":[0,0,0,0,0,0,0,0,0,0,0,0,0,0,0,0,0,0,0,0,0,0,0,0,0,0,0,0,0,0,0],"id":34,"left_children":[1,3,5,7,9,11,13,-1,15,-1,17,19,-1,21,-1,23,-1,-1,-1,-1,-1,25,-1,-1,27,-1,-1,-1,29,-1,-1],"loss_changes":[1.4801942E-1,4.976584E-2,1.425802E-2,2.608344E-2,7.7863857E-3,3.9599836E-3,1.5282529E-2,0E0,3.316924E-3,0E0,4.325545E-5,4.192344E-4,0E0,3.8658706E-3,0E0,2.7389973E-3,0E0,0E0,0E0,0E0,0E0,5.1111914E-5,0E0,0E0,3.103763E-4,0E0,0E0,0E0,3.438443E-4,0E0,0E0],"parents":[2147483647,0,0,1,1,2,2,3,3,4,4,5,5,6,6,8,8,10,10,11,11,13,13,15,15,21,21,24,24,28,28],"right_children":[2,4,6,8,10,12,14,-1,16,-1,18,20,-1,22,-1,24,-1,-1,-1,-1,-1,26,-1,-1,28,-1,-1,-1,30,-1,-1],"split_conditions":[1.65E0,1.84E0,1.4070212E0,-1.8508713E0,1.4591844E0,1.0992146E0,2.0566093E1,-2.8196156E-3,1.665909E-1,-3.1705617E-3,1.545492E0,1.0288048E0,-3.5701997E-3,3.8739376E0,1.8688723E-3,1.3149203E1,1.9132615E-3,8.4090236E-5,5.9645774E-4,-1.9878487E-3,-6.9451483E-4,1.4406444E0,-3.415199E-3,2.2349153E-3,8.0759513E-1,-2.4272501E-4,-1.0207494E-3,1.8093666E-3,6.6441903E0,1.2751222E-3,4.64909E-3],"split_indices":[33,43,4,31,4,4,7,0,49,0,4,54,0,8,0,7,0,0,0,0,0,4,0,0,8,0,0,0,47,0,0],"split_type":[0,0,0,0,0,0,0,0,0,0,0,0,0,0,0,0,0,0,0,0,0,0,0,0,0,0,0,0,0,0,0],"sum_hessian":[6.4E1,3.4E1,3E1,2.9E1,5E0,1.9E1,1.1E1,1E0,2.8E1,3E0,2E0,5E0,1.4E1,8E0,3E0,2.2E1,6E0,1E0,1E0,2E0,3E0,6E0,2E0,6E0,1.6E1,1E0,5E0,2E0,1.4E1,1E0,1.3E1],"tree_param":{"num_deleted":"0","num_feature":"56","num_nodes":"31","size_leaf_vector":"1"}},{"base_weights":[-4.213314E-3,5.108044E-2,-4.09755E-2,6.2308703E-2,-1.5933156E-3,-1.0898958E-1,-2.6612332E-2,2.345287E-3,7.291869E-2,-1.5061677E-3,-5.8556697E-3,5.8943443E-2,-4.5688268E-2,1.5507579E-3,7.771795E-2,-3.7068428E-4,3.5619289E-3,1.1973818E-2,-5.0234623E-2,4.20588E-3,1.630652E-3,8.160472E-4,8.198917E-5,-5.3747807E-2,-1.571858E-2,-5.205711E-4,-5.7063516E-2,-1.6807944E-3,1.4524857E-3,-2.3665726E-4,-2.9613513E-3,4.200548E-4,-3.1111838E-4],"categories":[],"categories_nodes":[],"categories_segments":[],"categories_sizes":[],"default_left":[0,0,0,0,0,0,0,0,0,0,0,0,0,0,0,0,0,0,0,0,0,0,0,0,0,0,0,0,0,0,0,0,0],"id":35,"left_children":[1,3,5,7,-1,9,11,-1,13,-1,-1,15,17,-1,19,-1,-1,21,23,-1,-1,-1,-1,25,27,-1,29,-1,31,-1,-1,-1,-1],"loss_changes":[1.4235066E-1,2.8063297E-2,3.812924E-2,6.653294E-4,0E0,9.570122E-4,6.1447054E-2,0E0,2.0394474E-4,0E0,0E0,6.23923E-3,8.466072E-3,0E0,4.318729E-4,0E0,0E0,1.08007254E-4,2.5504753E-3,0E0,0E0,0E0,0E0,2.9981658E-3,1.2780897E-3,0E0,2.3236647E-3,0E0,2.1226337E-4,0E0,0E0,0E0,0E0],"parents":[2147483647,0,0,1,1,2,2,3,3,5,5,6,6,8,8,11,11,12,12,14,14,17,17,18,18,23,23,24,24,26,26,28,28],"right_children":[2,4,6,8,-1,10,12,-1,14,-1,-1,16,18,-1,20,-1,-1,22,24,-1,-1,-1,-1,26,28,-1,30,-1,32,-1,-1,-1,-1],"split_conditions":[1.84E0,1.95E0,6.907365E-1,7.233668E0,-1.5933156E-3,1.3752909E1,2.7065516E0,2.345287E-3,5.058997E0,-1.5061677E-3,-5.8556697E-3,3.103217E0,8.891712E-1,1.5507579E-3,2.0950909E0,-3.7068428E-4,3.5619289E-3,9.28978E0,3.37E0,4.20588E-3,1.630652E-3,8.160472E-4,8.198917E-5,3.2873492E0,8.491432E0,-5.205711E-4,4.5307426E0,-1.6807944E-3,4.2372065E0,-2.3665726E-4,-2.9613513E-3,4.200548E-4,-3.1111838E-4],"split_indices":[25,43,13,5,0,15,13,0,28,0,0,8,42,0,31,0,0,5,34,0,0,0,0,55,13,0,16,0,5,0,0,0,0],"split_type":[0,0,0,0,0,0,0,0,0,0,0,0,0,0,0,0,0,0,0,0,0,0,0,0,0,0,0,0,0,0,0,0,0],"sum_hessian":[6.8E1,2.7E1,4.1E1,2.4E1,3E0,6E0,3.5E1,1.2E1,1.2E1,1E0,5E0,6E0,2.9E1,2E0,1E1,1E0,5E0,2E0,2.7E1,8E0,2E0,1E0,1E0,2.4E1,3E0,2E0,2.2E1,1E0,2E0,1E0,2.1E1,1E0,1E0],"tree_param":{"num_deleted":"0","num_feature":"56","num_nodes":"33","size_leaf_vector":"1"}},{"base_weights":[-2.5950617E-3,4.6855062E-2,-3.9299127E-2,6.06985E-2,-5.484104E-2,-1.0467219E-1,-2.6606847E-2,6.2228527E-2,5.611956E-4,-3.3050596E-3,-5.2651466E-4,-1.4685125E-3,-5.6929267E-3,4.259962E-2,-4.000795E-2,2.2577515E-3,7.241806E-2,2.3241783E-3,5.7949725E-4,1.8274346E-2,-4.5001984E-2,7.4750535E-2,1.0523975E-3,1.6013175E-3,-2.307415E-4,-5.203022E-2,-1.1731446E-2,1.5562017E-3,7.985317E-2,-2.2686329E-2,-6.1616287E-2,-1.6387731E-3,-9.6755027E-4,4.354482E-3,1.5763006E-3,-6.038928E-4,-1.6402503E-3,-4.1425228E-4,-3.2309685E-3,-4.0695668E-4,3.2632748E-4],"categories":[],"categories_nodes":[],"categories_segments":[],"categories_sizes":[],"default_left":[0,0,0,0,0,0,0,0,0,0,0,0,0,0,0,0,0,0,0,0,0,0,0,0,0,0,0,0,0,0,0,0,0,0,0,0,0,0,0,0,0],"id":36,"left_children":[1,3,5,7,9,11,13,15,-1,-1,-1,-1,-1,17,19,-1,21,-1,-1,23,25,27,-1,-1,-1,29,31,-1,33,35,37,-1,39,-1,-1,-1,-1,-1,-1,-1,-1],"loss_changes":[1.2344775E-1,4.4155657E-2,2.9574603E-2,1.2696758E-3,1.2997184E-3,8.064434E-4,3.3237383E-2,1.079239E-3,0E0,0E0,0E0,0E0,0E0,1.838971E-4,9.263232E-3,0E0,1.04129314E-4,0E0,0E0,1.0921123E-3,5.703103E-3,4.085675E-4,0E0,0E0,0E0,4.7905855E-3,1.3273817E-3,0E0,1.1013225E-3,3.5519176E-4,2.027154E-3,0E0,3.2184325E-4,0E0,0E0,0E0,0E0,0E0,0E0,0E0,0E0],"parents":[2147483647,0,0,1,1,2,2,3,3,4,4,5,5,6,6,7,7,13,13,14,14,16,16,19,19,20,20,21,21,25,25,26,26,28,28,29,29,30,30,32,32],"right_children":[2,4,6,8,10,12,14,16,-1,-1,-1,-1,-1,18,20,-1,22,-1,-1,24,26,28,-1,-1,-1,30,32,-1,34,36,38,-1,40,-1,-1,-1,-1,-1,-1,-1,-1],"split_conditions":[1.84E0,1.95E0,2.0498991E1,1.5678221E1,1.4591844E0,8.4665575E0,2.478067E-1,7.233668E0,5.611956E-4,-3.3050596E-3,-5.2651466E-4,-1.4685125E-3,-5.6929267E-3,4.9772926E1,1.1884545E1,2.2577515E-3,1.5255908E1,2.3241783E-3,5.7949725E-4,1.4126766E0,3.07E0,6.6441903E0,1.0523975E-3,1.6013175E-3,-2.307415E-4,1.5506057E0,4.2113144E1,1.5562017E-3,2.0950909E0,8.99408E0,3.2873492E0,-1.6387731E-3,6.079025E0,4.354482E-3,1.5763006E-3,-6.038928E-4,-1.6402503E-3,-4.1425228E-4,-3.2309685E-3,-4.0695668E-4,3.2632748E-4],"split_indices":[25,43,15,47,4,5,42,5,0,0,0,0,0,15,27,0,5,0,0,4,34,47,0,0,0,51,15,0,31,5,55,0,17,0,0,0,0,0,0,0,0],"split_type":[0,0,0,0,0,0,0,0,0,0,0,0,0,0,0,0,0,0,0,0,0,0,0,0,0,0,0,0,0,0,0,0,0,0,0,0,0,0,0,0,0],"sum_hessian":[6.6E1,2.8E1,3.8E1,2.5E1,3E0,5E0,3.3E1,2.4E1,1E0,2E0,1E0,1E0,4E0,5E0,2.8E1,1.1E1,1.3E1,4E0,1E0,2E0,2.6E1,1.2E1,1E0,1E0,1E0,2.1E1,5E0,2E0,1E1,6E0,1.5E1,1E0,4E0,8E0,2E0,4E0,2E0,1E0,1.4E1,2E0,2E0],"tree_param":{"num_deleted":"0","num_feature":"56","num_nodes":"41","size_leaf_vector":"1"}},{"base_weights":[-5.981326E-4,4.5825996E-2,-4.089808E-2,5.744588E-2,-5.2779645E-2,-2.7615232E-2,-7.0990965E-2,6.266164E-2,-1.0383169E-2,-4.8242947E-3,1.9584775E-3,2.6037741E-2,-3.76423E-2,-4.3135635E-3,-1.4863809E-3,6.678227E-2,1.5175128E-3,-8.505196E-4,7.178188E-5,-3.463179E-4,1.8005178E-3,-4.1195426E-2,9.6138316E-4,-8.490175E-4,7.3753897E-4,1.973416E-3,7.570753E-2,-5.8707834E-4,-4.708842E-2,4.0139558E-4,-3.2929183E-4,1.5594681E-3,7.9564E-2,-4.9159687E-2,-2.9692054E-4,1.1032879E-3,4.1047446E-3,-2.5555769E-3,-4.4825376E-4],"categories":[],"categories_nodes":[],"categories_segments":[],"categories_sizes":[],"default_left":[0,0,0,0,0,0,0,0,0,0,0,0,0,0,0,0,0,0,0,0,0,0,0,0,0,0,0,0,0,0,0,0,0,0,0,0,0,0,0],"id":37,"left_children":[1,3,5,7,9,11,13,15,17,-1,-1,19,21,-1,23,25,-1,-1,-1,-1,-1,27,29,-1,-1,-1,31,-1,33,-1,-1,-1,35,37,-1,-1,-1,-1,-1],"loss_changes":[1.3283649E-1,4.084292E-2,1.3228893E-2,1.1264019E-2,1.9854326E-2,1.6043616E-2,1.1554338E-2,1.7011613E-3,2.593983E-4,0E0,0E0,1.8931117E-3,3.3315346E-3,0E0,1.0052075E-3,2.862759E-3,0E0,0E0,0E0,0E0,0E0,3.2656752E-3,2.1286841E-4,0E0,0E0,0E0,4.370585E-4,0E0,1.2422614E-3,0E0,0E0,0E0,3.7135184E-4,8.754954E-4,0E0,0E0,0E0,0E0,0E0],"parents":[2147483647,0,0,1,1,2,2,3,3,4,4,5,5,6,6,7,7,8,8,11,11,12,12,14,14,15,15,21,21,22,22,26,26,28,28,32,32,33,33],"right_children":[2,4,6,8,10,12,14,16,18,-1,-1,20,22,-1,24,26,-1,-1,-1,-1,-1,28,30,-1,-1,-1,32,-1,34,-1,-1,-1,36,38,-1,-1,-1,-1,-1],"split_conditions":[1.65E0,1.9610246E0,4.1680536E0,2.01E0,1.4591844E0,2.9656E1,1.6147876E0,5.3541474E0,1.4319637E0,-4.8242947E-3,1.9584775E-3,1.37E0,6.724094E0,-4.3135635E-3,1.6177877E0,1.782998E1,1.5175128E-3,-8.505196E-4,7.178188E-5,-3.463179E-4,1.8005178E-3,3.890729E1,9.3041974E-1,-8.490175E-4,7.3753897E-4,1.973416E-3,-7.474769E-1,-5.8707834E-4,3.2E0,4.0139558E-4,-3.2929183E-4,1.5594681E-3,-1.8165145E0,3.37E0,-2.9692054E-4,1.1032879E-3,4.1047446E-3,-2.5555769E-3,-4.4825376E-4],"split_indices":[33,54,8,34,4,15,4,55,4,0,0,34,31,0,4,15,0,0,0,0,0,15,4,0,0,0,42,0,33,0,0,0,51,42,0,0,0,0,0],"split_type":[0,0,0,0,0,0,0,0,0,0,0,0,0,0,0,0,0,0,0,0,0,0,0,0,0,0,0,0,0,0,0,0,0,0,0,0,0,0,0],"sum_hessian":[6.9E1,3.2E1,3.7E1,2.9E1,3E0,2.7E1,1E1,2.7E1,2E0,2E0,1E0,4E0,2.3E1,8E0,2E0,2.3E1,4E0,1E0,1E0,1E0,3E0,2.1E1,2E0,1E0,1E0,7E0,1.6E1,4E0,1.7E1,1E0,1E0,2E0,1.4E1,1.6E1,1E0,1E0,1.3E1,1.5E1,1E0],"tree_param":{"num_deleted":"0","num_feature":"56","num_nodes":"39","size_leaf_vector":"1"}},{"base_weights":[-6.5864966E-4,4.1478127E-2,-4.029742E-2,-2.6184916E-2,5.4978132E-2,-5.0314292E-2,-6.882297E-3,1.4445742E-3,-6.0945988E-2,6.4623944E-2,-8.32063E-4,1.5162707E-3,-5.4752897E-2,1.0212441E-3,-1.7602189E-2,-3.510229E-3,-8.292556E-4,1.8128336E-3,7.417184E-2,-3.2751348E-3,-3.5116542E-2,-4.352659E-3,-2.645117E-2,1.2054205E-3,7.923973E-2,-2.1919608E-3,-2.3594634E-3,-3.368358E-4,6.998778E-5,-3.8921833E-4,-1.5039325E-3,4.3412894E-3,1.833582E-3,3.9136113E-4,-4.070381E-4],"categories":[],"categories_nodes":[],"categories_segments":[],"categories_sizes":[],"default_left":[0,0,0,0,0,0,0,0,0,0,0,0,0,0,0,0,0,0,0,0,0,0,0,0,0,0,0,0,0,0,0,0,0,0,0],"id":38,"left_children":[1,3,5,7,9,11,13,-1,15,17,-1,-1,19,-1,21,-1,-1,-1,23,-1,25,27,29,-1,31,33,-1,-1,-1,-1,-1,-1,-1,-1,-1],"loss_changes":[1.1023771E-1,3.067004E-2,1.1034034E-2,1.3247907E-2,1.9727759E-2,1.0966517E-2,2.9940924E-3,0E0,4.7852565E-4,3.811121E-3,0E0,0E0,2.9769465E-3,0E0,7.0558116E-4,0E0,0E0,0E0,2.4028271E-3,0E0,4.268945E-3,6.428607E-5,3.671064E-5,0E0,1.659818E-3,3.021281E-4,0E0,0E0,0E0,0E0,0E0,0E0,0E0,0E0,0E0],"parents":[2147483647,0,0,1,1,2,2,3,3,4,4,5,5,6,6,8,8,9,9,12,12,14,14,18,18,20,20,21,21,22,22,24,24,25,25],"right_children":[2,4,6,8,10,12,14,-1,16,18,-1,-1,20,-1,22,-1,-1,-1,24,-1,26,28,30,-1,32,34,-1,-1,-1,-1,-1,-1,-1,-1,-1],"split_conditions":[2.15E0,6.468211E0,1.4126766E0,2.9898293E0,9.700276E0,-1.8508713E0,2.58E0,1.4445742E-3,1.3286201E0,6.242686E-1,-8.32063E-4,1.5162707E-3,1.9338505E0,1.0212441E-3,1.69E0,-3.510229E-3,-8.292556E-4,1.8128336E-3,6.6053677E0,-3.2751348E-3,1.0992146E0,1.0413836E1,8.061047E0,1.2054205E-3,1.9511648E0,9.3041974E-1,-2.3594634E-3,-3.368358E-4,6.998778E-5,-3.8921833E-4,-1.5039325E-3,4.3412894E-3,1.833582E-3,3.9136113E-4,-4.070381E-4],"split_indices":[25,47,4,5,27,51,25,0,4,23,0,0,54,0,33,0,0,0,47,0,4,5,24,0,45,4,0,0,0,0,0,0,0,0,0],"split_type":[0,0,0,0,0,0,0,0,0,0,0,0,0,0,0,0,0,0,0,0,0,0,0,0,0,0,0,0,0,0,0,0,0,0,0],"sum_hessian":[6.4E1,3.1E1,3.3E1,5E0,2.6E1,2.5E1,8E0,2E0,3E0,2.3E1,3E0,1E0,2.4E1,2E0,6E0,2E0,1E0,7E0,1.6E1,1.4E1,1E1,3E0,3E0,2E0,1.4E1,3E0,7E0,2E0,1E0,1E0,2E0,1.1E1,3E0,1E0,2E0],"tree_param":{"num_deleted":"0","num_feature":"56","num_nodes":"35","size_leaf_vector":"1"}},{"base_weights":[-3.8241565E-3,3.915171E-2,-4.265153E-2,5.4342784E-2,-4.4634007E-2,-4.708407E-2,1.5891036E-2,4.198791E-2,6.867631E-2,-2.9702685E-3,-7.492324E-4,9.4311836E-4,-5.000851E-2,1.478365E-3,-2.8653743E-4,2.1580092E-3,6.100953E-4,1.4123638E-3,7.525265E-2,-3.8857013E-3,-4.0998444E-2,9.7200874E-4,4.022435E-3,-4.7930915E-2,-1.7315166E-2,-2.5623068E-3,-1.4272769E-2,-6.795621E-3,-1.453801E-3,3.8157703E-4,-1.4520347E-3,-4.588455E-4,6.8238376E-5],"categories":[],"categories_nodes":[],"categories_segments":[],"categories_sizes":[],"default_left":[0,0,0,0,0,0,0,0,0,0,0,0,0,0,0,0,0,0,0,0,0,0,0,0,0,0,0,0,0,0,0,0,0],"id":39,"left_children":[1,3,5,7,9,11,13,15,17,-1,-1,-1,19,-1,-1,-1,-1,-1,21,-1,23,-1,-1,25,27,-1,29,31,-1,-1,-1,-1,-1],"loss_changes":[1.0178829E-1,3.9336596E-2,9.051964E-3,1.5436411E-3,1.2996383E-3,6.7289695E-3,1.0565585E-3,3.2041222E-5,5.3307414E-4,0E0,0E0,0E0,4.053071E-3,0E0,0E0,0E0,0E0,0E0,7.5609237E-4,0E0,3.1104758E-3,0E0,0E0,1.2770928E-3,6.6844234E-4,0E0,1.1920689E-3,1.09685556E-4,0E0,0E0,0E0,0E0,0E0],"parents":[2147483647,0,0,1,1,2,2,3,3,4,4,5,5,6,6,7,7,8,8,12,12,18,18,20,20,23,23,24,24,26,26,27,27],"right_children":[2,4,6,8,10,12,14,16,18,-1,-1,-1,20,-1,-1,-1,-1,-1,22,-1,24,-1,-1,26,28,-1,30,32,-1,-1,-1,-1,-1],"split_conditions":[2.07E0,1.95E0,2.0677803E0,1.2619257E0,1.4591844E0,-9.038505E-1,1.4126766E0,2.976264E0,-6.264218E-1,-2.9702685E-3,-7.492324E-4,9.4311836E-4,2.8142033E0,1.478365E-3,-2.8653743E-4,2.1580092E-3,6.100953E-4,1.4123638E-3,1.1584323E1,-3.8857013E-3,1.4070212E0,9.7200874E-4,4.022435E-3,3.37E0,8.94513E0,-2.5623068E-3,9.3041974E-1,1.0413836E1,-1.453801E-3,3.8157703E-4,-1.4520347E-3,-4.588455E-4,6.8238376E-5],"split_indices":[25,43,53,13,4,42,4,4,42,0,0,0,13,0,0,0,0,0,7,0,4,0,0,34,24,0,4,5,0,0,0,0,0],"split_type":[0,0,0,0,0,0,0,0,0,0,0,0,0,0,0,0,0,0,0,0,0,0,0,0,0,0,0,0,0,0,0,0,0],"sum_hessian":[5.9E1,2.8E1,3.1E1,2.4E1,4E0,2.9E1,2E0,1.5E1,9E0,2E0,2E0,1E0,2.8E1,1E0,1E0,1.4E1,1E0,2E0,7E0,5E0,2.3E1,1E0,6E0,1.7E1,6E0,1.5E1,2E0,4E0,2E0,1E0,1E0,3E0,1E0],"tree_param":{"num_deleted":"0","num_feature":"56","num_nodes":"33","size_leaf_vector":"1"}},{"base_weights":[-4.2442637E-3,3.8496513E-2,-3.833078E-2,5.185359E-2,-4.4002414E-2,-5.1495833E-3,-2.6150892E-2,5.3139906E-2,4.280746E-4,-2.871261E-3,-7.956068E-4,2.3560575E-3,-3.9933603E-2,1.7310063E-3,5.91156E-2,-2.4710253E-3,-1.6017746E-2,1.2095849E-3,6.180125E-2,-2.58372E-2,5.1707327E-3,6.345932E-2,8.8180305E-4,-3.722787E-4,-1.5852368E-3,-2.8378565E-3,7.2991254E-4,3.3441584E-3,1.3164122E-3,6.6533685E-5,-2.7937294E-4],"categories":[],"categories_nodes":[],"categories_segments":[],"categories_sizes":[],"default_left":[0,0,0,0,0,0,0,0,0,0,0,0,0,0,0,0,0,0,0,0,0,0,0,0,0,0,0,0,0,0,0],"id":40,"left_children":[1,3,5,7,9,-1,11,13,-1,-1,-1,-1,15,-1,17,-1,19,-1,21,23,25,27,-1,-1,-1,29,-1,-1,-1,-1,-1],"loss_changes":[1.0491437E-1,3.7543908E-2,2.8809175E-2,1.1042804E-3,9.714933E-4,0E0,3.7227776E-2,9.4147027E-4,0E0,0E0,0E0,0E0,6.015014E-3,0E0,2.8699636E-4,0E0,2.2141903E-3,0E0,1.257211E-4,5.1933434E-4,3.4343218E-4,2.7319044E-4,0E0,0E0,0E0,4.182048E-5,0E0,0E0,0E0,0E0,0E0],"parents":[2147483647,0,0,1,1,2,2,3,3,4,4,6,6,7,7,12,12,14,14,16,16,18,18,19,19,20,20,21,21,25,25],"right_children":[2,4,6,8,10,-1,12,14,-1,-1,-1,-1,16,-1,18,-1,20,-1,22,24,26,28,-1,-1,-1,30,-1,-1,-1,-1,-1],"split_conditions":[1.84E0,1.95E0,6.907365E-1,5.685149E0,1.60454E-1,-5.1495833E-3,2.7065516E0,1.782998E1,4.280746E-4,-2.871261E-3,-7.956068E-4,2.3560575E-3,1.305319E0,1.7310063E-3,1.3309608E0,-2.4710253E-3,1.4583136E1,1.2095849E-3,2.4571072E1,8.002303E0,1.5859861E0,2.0950909E0,8.8180305E-4,-3.722787E-4,-1.5852368E-3,1.545492E0,7.2991254E-4,3.3441584E-3,1.3164122E-3,6.6533685E-5,-2.7937294E-4],"split_indices":[25,43,13,50,13,0,13,15,0,0,0,0,12,0,4,0,13,0,7,13,4,31,0,0,0,4,0,0,0,0,0],"split_type":[0,0,0,0,0,0,0,0,0,0,0,0,0,0,0,0,0,0,0,0,0,0,0,0,0,0,0,0,0,0,0],"sum_hessian":[7E1,3.1E1,3.9E1,2.7E1,4E0,5E0,3.4E1,2.6E1,1E0,2E0,2E0,5E0,2.9E1,8E0,1.8E1,2E1,9E0,2E0,1.6E1,6E0,3E0,1.5E1,1E0,2E0,4E0,2E0,1E0,1.3E1,2E0,1E0,1E0],"tree_param":{"num_deleted":"0","num_feature":"56","num_nodes":"31","size_leaf_vector":"1"}},{"base_weights":[4.3113268E-4,4.201508E-2,-4.238855E-2,5.1041722E-2,-2.2353124E-2,-2.9813217E-2,-7.400746E-2,5.7512406E-2,5.8916807E-3,2.1805167E-3,-4.9746573E-2,1.7275469E-3,-3.9361823E-2,-1.1765499E-3,-4.253387E-3,4.1105237E-2,7.2019726E-2,6.293178E-4,-2.7668874E-3,-2.8401853E-3,-7.1437954E-4,1.1469305E-3,-5.6723E-4,-4.1690588E-2,-1.2268622E-2,2.1232709E-3,5.5156945E-4,7.710895E-2,1.4676333E-3,-2.7238726E-4,6.4870714E-5,-1.4790813E-2,-2.2064317E-3,4.3381154E-4,-1.3539583E-3,9.944737E-4,4.0420974E-3,-1.8505454E-4,-9.2425646E-4],"categories":[],"categories_nodes":[],"categories_segments":[],"categories_sizes":[],"default_left":[0,0,0,0,0,0,0,0,0,0,0,0,0,0,0,0,0,0,0,0,0,0,0,0,0,0,0,0,0,0,0,0,0,0,0,0,0,0,0],"id":41,"left_children":[1,3,5,7,9,11,13,15,17,-1,19,21,23,-1,-1,25,27,-1,29,-1,-1,-1,-1,31,33,-1,-1,35,-1,-1,-1,37,-1,-1,-1,-1,-1,-1,-1],"loss_changes":[1.2286254E-1,2.1476947E-2,1.1312626E-2,8.717865E-3,1.1204298E-2,7.898429E-3,3.0228235E-3,3.4662634E-3,3.2465652E-4,0E0,1.8936675E-4,2.201148E-3,7.503871E-4,0E0,0E0,1.4513358E-4,5.594939E-4,0E0,3.9755432E-5,0E0,0E0,0E0,0E0,5.277917E-4,1.165559E-3,0E0,0E0,7.417053E-4,0E0,0E0,0E0,5.4491626E-5,0E0,0E0,0E0,0E0,0E0,0E0,0E0],"parents":[2147483647,0,0,1,1,2,2,3,3,4,4,5,5,6,6,7,7,8,8,10,10,11,11,12,12,15,15,16,16,18,18,23,23,24,24,27,27,31,31],"right_children":[2,4,6,8,10,12,14,16,18,-1,20,22,24,-1,-1,26,28,-1,30,-1,-1,-1,-1,32,34,-1,-1,36,-1,-1,-1,38,-1,-1,-1,-1,-1,-1,-1],"split_conditions":[1.65E0,9.032437E0,4.1680536E0,1.6347313E1,3.393068E1,3.890729E1,2.7480435E0,2.579369E1,3.2476294E0,2.1805167E-3,1.0166851E1,2.609022E-1,3.37E0,-1.1765499E-3,-4.253387E-3,2.976264E0,2.959915E-2,6.293178E-4,1.0100217E1,-2.8401853E-3,-7.1437954E-4,1.1469305E-3,-5.6723E-4,-8.5901725E-1,4.2372065E0,2.1232709E-3,5.5156945E-4,3.7587786E0,1.4676333E-3,-2.7238726E-4,6.4870714E-5,3.3206673E0,-2.2064317E-3,4.3381154E-4,-1.3539583E-3,9.944737E-4,4.0420974E-3,-1.8505454E-4,-9.2425646E-4],"split_indices":[33,16,8,47,6,15,36,15,17,0,5,31,34,0,0,12,49,0,5,0,0,0,0,51,5,0,0,16,0,0,0,5,0,0,0,0,0,0,0],"split_type":[0,0,0,0,0,0,0,0,0,0,0,0,0,0,0,0,0,0,0,0,0,0,0,0,0,0,0,0,0,0,0,0,0,0,0,0,0,0,0],"sum_hessian":[6.7E1,3.4E1,3.3E1,3E1,4E0,2.5E1,8E0,2.6E1,4E0,1E0,3E0,6E0,1.9E1,2E0,6E0,1.4E1,1.2E1,2E0,2E0,2E0,1E0,2E0,4E0,1.7E1,2E0,1.3E1,1E0,1E1,2E0,1E0,1E0,2E0,1.5E1,1E0,1E0,1E0,9E0,1E0,1E0],"tree_param":{"num_deleted":"0","num_feature":"56","num_nodes":"39","size_leaf_vector":"1"}},{"base_weights":[-2.0165774E-3,4.838625E-2,-2.5493084E-2,-1.153794E-3,5.311315E-2,2.5531866E-2,-4.0801123E-2,1.6805017E-3,6.601479E-2,2.111423E-3,-1.4244288E-2,-7.13118E-2,-2.574438E-2,8.985937E-4,3.4510947E-3,-1.8042923E-4,-8.293331E-4,-5.096146E-3,-3.9259315E-2,5.686098E-3,-4.086967E-2,-2.201601E-3,-2.6557743E-4,1.2843525E-3,-1.5452075E-2,-4.448144E-2,4.229665E-4,-2.4754207E-3,-1.1639019E-3,-2.390899E-2,-2.7217006E-3,6.324947E-5,-2.4890603E-4,-1.437465E-3,-3.9360725E-4],"categories":[],"categories_nodes":[],"categories_segments":[],"categories_sizes":[],"default_left":[0,0,0,0,0,0,0,0,0,0,0,0,0,0,0,0,0,0,0,0,0,0,0,0,0,0,0,0,0,0,0,0,0,0,0],"id":42,"left_children":[1,3,5,-1,7,9,11,-1,13,-1,15,17,19,-1,-1,-1,-1,-1,21,23,25,-1,-1,-1,27,29,-1,31,-1,33,-1,-1,-1,-1,-1],"loss_changes":[7.814686E-2,8.319318E-3,3.6190875E-2,0E0,2.813682E-3,7.906904E-3,1.4242813E-2,0E0,3.4871697E-4,0E0,3.979681E-5,6.7913607E-3,1.2117267E-2,0E0,0E0,0E0,0E0,0E0,9.0027973E-4,4.201971E-3,3.4050904E-3,0E0,0E0,0E0,4.5015116E-4,1.974523E-3,0E0,3.438064E-5,0E0,3.170441E-4,0E0,0E0,0E0,0E0,0E0],"parents":[2147483647,0,0,1,1,2,2,4,4,5,5,6,6,8,8,10,10,11,11,12,12,18,18,19,19,20,20,24,24,25,25,27,27,29,29],"right_children":[2,4,6,-1,8,10,12,-1,14,-1,16,18,20,-1,-1,-1,-1,-1,22,24,26,-1,-1,-1,28,30,-1,32,-1,34,-1,-1,-1,-1,-1],"split_conditions":[2.998855E-1,-1.879436E0,0E0,-1.153794E-3,2.1283214E0,2.6769526E0,5.137251E0,1.6805017E-3,1.3987938E0,2.111423E-3,9.326791E-1,2.16E0,1.95E0,8.985937E-4,3.4510947E-3,-1.8042923E-4,-8.293331E-4,-5.096146E-3,1.4070212E0,2.384928E0,3.37E0,-2.201601E-3,-2.6557743E-4,1.2843525E-3,8.773008E0,2.58E0,4.229665E-4,1.545492E0,-1.1639019E-3,3.5023692E0,-2.7217006E-3,6.324947E-5,-2.4890603E-4,-1.437465E-3,-3.9360725E-4],"split_indices":[17,31,51,0,29,13,29,0,4,0,4,25,33,0,0,0,0,0,4,17,34,0,0,0,16,33,0,4,0,31,0,0,0,0,0],"split_type":[0,0,0,0,0,0,0,0,0,0,0,0,0,0,0,0,0,0,0,0,0,0,0,0,0,0,0,0,0,0,0,0,0,0,0],"sum_hessian":[6.4E1,2E1,4.4E1,1E0,1.9E1,1E1,3.4E1,9E0,1E1,7E0,3E0,1E1,2.4E1,1E0,9E0,1E0,2E0,4E0,6E0,8E0,1.6E1,5E0,1E0,4E0,4E0,1.5E1,1E0,2E0,2E0,6E0,9E0,1E0,1E0,4E0,2E0],"tree_param":{"num_deleted":"0","num_feature":"56","num_nodes":"35","size_leaf_vector":"1"}},{"base_weights":[-4.907183E-3,4.170888E-2,-3.0695947E-2,4.5936953E-2,-1.4941216E-3,-9.491144E-2,-1.8383013E-2,5.2089244E-2,1.4947719E-3,-1.1249483E-3,-5.1615178E-3,2.7728796E-2,-3.314085E-2,5.8318216E-2,1.336093E-3,-6.6742004E-4,3.3776086E-2,1.505208E-3,-3.8528904E-2,3.048538E-3,7.2850584E-4,1.9804337E-3,-3.2211543E-4,-2.700786E-4,7.910252E-3,-3.849149E-4,-4.077736E-2,6.1666964E-5,5.316019E-4,-4.836326E-2,-2.7415546E-2,-1.8185516E-3,-3.1337538E-3,1.5765031E-4,-1.7279446E-3],"categories":[],"categories_nodes":[],"categories_segments":[],"categories_sizes":[],"default_left":[0,0,0,0,0,0,0,0,0,0,0,0,0,0,0,0,0,0,0,0,0,0,0,0,0,0,0,0,0,0,0,0,0,0,0],"id":43,"left_children":[1,3,5,7,-1,9,11,13,-1,-1,-1,15,17,19,-1,-1,21,23,25,-1,-1,-1,-1,-1,27,-1,29,-1,-1,31,33,-1,-1,-1,-1],"loss_changes":[8.4230065E-2,8.940037E-3,3.3835888E-2,8.113794E-4,0E0,1.8941835E-3,2.7458865E-2,9.698346E-4,0E0,0E0,0E0,2.9349132E-3,5.658243E-3,5.041696E-4,0E0,0E0,2.3663668E-3,2.639189E-4,1.488436E-3,0E0,0E0,0E0,0E0,0E0,4.14065E-5,0E0,1.1067688E-3,0E0,0E0,1.2326986E-4,2.5109435E-3,0E0,0E0,0E0,0E0],"parents":[2147483647,0,0,1,1,2,2,3,3,5,5,6,6,7,7,11,11,12,12,13,13,16,16,17,17,18,18,24,24,26,26,29,29,30,30],"right_children":[2,4,6,8,-1,10,12,14,-1,-1,-1,16,18,20,-1,-1,22,24,26,-1,-1,-1,-1,-1,28,-1,30,-1,-1,32,34,-1,-1,-1,-1],"split_conditions":[1.52E0,2.5005022E1,2.1458967E1,1.730516E0,-1.4941216E-3,1.6292376E1,2.7065516E0,2.1330595E0,1.4947719E-3,-1.1249483E-3,-5.1615178E-3,4.4634065E-1,1.69E0,5.1665907E0,1.336093E-3,-6.6742004E-4,2.16E0,1.2348604E1,3.2873492E0,3.048538E-3,7.2850584E-4,1.9804337E-3,-3.2211543E-4,-2.700786E-4,1.545492E0,-3.849149E-4,2.79E0,6.1666964E-5,5.316019E-4,2.79E0,9.326791E-1,-1.8185516E-3,-3.1337538E-3,1.5765031E-4,-1.7279446E-3],"split_indices":[43,7,15,31,0,15,13,53,0,0,0,13,33,29,0,0,43,27,55,0,0,0,0,0,4,0,43,0,0,33,4,0,0,0,0],"split_type":[0,0,0,0,0,0,0,0,0,0,0,0,0,0,0,0,0,0,0,0,0,0,0,0,0,0,0,0,0,0,0,0,0,0,0],"sum_hessian":[6.8E1,2.4E1,4.4E1,2.3E1,1E0,6E0,3.8E1,1.5E1,8E0,1E0,5E0,9E0,2.9E1,1.1E1,4E0,1E0,8E0,4E0,2.5E1,1E1,1E0,7E0,1E0,2E0,2E0,2E0,2.3E1,1E0,1E0,1.3E1,1E1,9E0,4E0,2E0,8E0],"tree_param":{"num_deleted":"0","num_feature":"56","num_nodes":"35","size_leaf_vector":"1"}},{"base_weights":[-4.033385E-3,3.7700977E-2,-2.8056942E-2,4.2503845E-2,-6.6444674E-4,-8.4230185E-2,-1.7255157E-2,5.197021E-2,1.3295878E-3,-1.7023942E-3,-4.8746765E-3,4.14864E-2,-2.9192602E-2,5.463589E-2,4.3290854E-4,-3.1406284E-4,5.049455E-2,1.2970328E-2,-3.384124E-2,1.5005541E-3,6.2245686E-2,3.2150864E-3,1.3757766E-3,6.0126185E-5,8.246045E-4,-3.6026064E-2,-1.0633379E-2,3.2727332E-3,9.143472E-4,-3.7208397E-4,-3.8015146E-2,4.0845276E-4,-1.9623876E-2,-6.7654054E-4,-1.9777962E-3,-1.2196064E-3,-2.5218428E-4],"categories":[],"categories_nodes":[],"categories_segments":[],"categories_sizes":[],"default_left":[0,0,0,0,0,0,0,0,0,0,0,0,0,0,0,0,0,0,0,0,0,0,0,0,0,0,0,0,0,0,0,0,0,0,0,0,0],"id":44,"left_children":[1,3,5,7,-1,9,11,13,-1,-1,-1,15,17,19,-1,-1,21,23,25,-1,27,-1,-1,-1,-1,29,31,-1,-1,-1,33,-1,35,-1,-1,-1,-1],"loss_changes":[7.124032E-2,6.932169E-3,2.5851306E-2,2.2331364E-3,0E0,1.3396479E-3,2.8558837E-2,1.1433363E-3,0E0,0E0,0E0,3.3292575E-3,6.9069397E-3,5.680062E-4,0E0,0E0,1.3435632E-4,1.4594133E-4,1.1380725E-3,0E0,7.259846E-5,0E0,0E0,0E0,0E0,1.252234E-3,8.3648134E-4,0E0,0E0,0E0,4.0790066E-4,0E0,8.553988E-5,0E0,0E0,0E0,0E0],"parents":[2147483647,0,0,1,1,2,2,3,3,5,5,6,6,7,7,11,11,12,12,13,13,16,16,17,17,18,18,20,20,25,25,26,26,30,30,32,32],"right_children":[2,4,6,8,-1,10,12,14,-1,-1,-1,16,18,20,-1,-1,22,24,26,-1,28,-1,-1,-1,-1,30,32,-1,-1,-1,34,-1,36,-1,-1,-1,-1],"split_conditions":[1.76E0,8.826648E0,6.907365E-1,4.3708974E-1,-6.6444674E-4,1.8947456E0,2.7065516E0,2.4550571E0,1.3295878E-3,-1.7023942E-3,-4.8746765E-3,3.103217E0,8.891712E-1,-1.6841613E0,4.3290854E-4,-3.1406284E-4,1.3473133E0,4.636476E1,3.37E0,1.5005541E-3,1.8077112E0,3.2150864E-3,1.3757766E-3,6.0126185E-5,8.246045E-4,3.2873492E0,2.7912592E1,3.2727332E-3,9.143472E-4,-3.7208397E-4,-8.5901725E-1,4.0845276E-4,3.342974E1,-6.7654054E-4,-1.9777962E-3,-1.2196064E-3,-2.5218428E-4],"split_indices":[25,16,13,31,0,50,13,12,0,0,0,8,42,31,0,0,13,6,34,0,24,0,0,0,0,55,6,0,0,0,51,0,6,0,0,0,0],"split_type":[0,0,0,0,0,0,0,0,0,0,0,0,0,0,0,0,0,0,0,0,0,0,0,0,0,0,0,0,0,0,0,0,0,0,0,0,0],"sum_hessian":[6.9E1,2.5E1,4.4E1,2.3E1,2E0,6E0,3.8E1,1.3E1,1E1,2E0,4E0,6E0,3.2E1,1.2E1,1E0,1E0,5E0,3E0,2.9E1,4E0,8E0,2E0,3E0,1E0,2E0,2.6E1,3E0,7E0,1E0,2E0,2.4E1,1E0,2E0,2E0,2.2E1,1E0,1E0],"tree_param":{"num_deleted":"0","num_feature":"56","num_nodes":"37","size_leaf_vector":"1"}},{"base_weights":[-6.5863132E-6,4.2594906E-2,-2.5765475E-2,2.5393257E-2,5.3516563E-2,-8.0613375E-2,-1.4692481E-2,2.889928E-2,-3.293246E-4,6.0062487E-2,1.0249823E-3,-1.6054133E-3,-4.6796883E-3,4.1320175E-2,-2.9139439E-2,1.577792E-3,5.6482555E-4,6.727755E-4,3.1538128E-3,-3.0620993E-4,4.8972826E-2,2.7852457E-3,-3.5635784E-2,1.0857325E-3,2.7766586E-3,-7.778913E-3,7.971187E-4,-2.2864628E-3,-2.5858188E-2,5.8624148E-5,-5.5767695E-4,3.3279955E-3,-3.3432066E-2,-1.629442E-4,3.3049585E-4,-2.2375882E-4,-1.7828839E-3],"categories":[],"categories_nodes":[],"categories_segments":[],"categories_sizes":[],"default_left":[0,0,0,0,0,0,0,0,0,0,0,0,0,0,0,0,0,0,0,0,0,0,0,0,0,0,0,0,0,0,0,0,0,0,0,0,0],"id":45,"left_children":[1,3,5,7,9,11,13,15,-1,17,-1,-1,-1,19,21,-1,-1,-1,-1,-1,23,25,27,-1,-1,29,-1,-1,31,-1,-1,33,35,-1,-1,-1,-1],"loss_changes":[7.571843E-2,3.525678E-3,2.4930801E-2,1.5358054E-3,2.0106323E-3,1.4021695E-3,3.114491E-2,1.5791971E-4,0E0,8.3682686E-4,0E0,0E0,0E0,3.2045227E-3,6.321069E-3,0E0,0E0,0E0,0E0,0E0,4.587695E-5,9.5797837E-4,1.2847707E-3,0E0,0E0,1.3390783E-4,0E0,0E0,3.427051E-3,0E0,0E0,1.0801143E-4,6.137863E-4,0E0,0E0,0E0,0E0],"parents":[2147483647,0,0,1,1,2,2,3,3,4,4,5,5,6,6,7,7,9,9,13,13,14,14,20,20,21,21,22,22,25,25,28,28,31,31,32,32],"right_children":[2,4,6,8,10,12,14,16,-1,18,-1,-1,-1,20,22,-1,-1,-1,-1,-1,24,26,28,-1,-1,30,-1,-1,32,-1,-1,34,36,-1,-1,-1,-1],"split_conditions":[1.84E0,7.9999433E0,6.907365E-1,7.233668E0,2.0950909E0,4.5023694E0,2.7065516E0,2.0402226E0,-3.293246E-4,6.6441903E0,1.0249823E-3,-1.6054133E-3,-4.6796883E-3,3.103217E0,1.473173E1,1.577792E-3,5.6482555E-4,6.727755E-4,3.1538128E-3,-3.0620993E-4,-9.038505E-1,1.6238432E1,4.896762E-1,1.0857325E-3,2.7766586E-3,4.636476E1,7.971187E-4,-2.2864628E-3,3.236196E1,5.8624148E-5,-5.5767695E-4,3.3206673E0,2.28E0,-1.629442E-4,3.3049585E-4,-2.2375882E-4,-1.7828839E-3],"split_indices":[25,5,13,5,31,16,13,12,0,47,0,0,0,8,27,0,0,0,0,0,42,13,23,0,0,6,0,0,6,0,0,5,25,0,0,0,0],"split_type":[0,0,0,0,0,0,0,0,0,0,0,0,0,0,0,0,0,0,0,0,0,0,0,0,0,0,0,0,0,0,0,0,0,0,0,0,0],"sum_hessian":[6.7E1,2.5E1,4.2E1,1.1E1,1.4E1,6E0,3.6E1,1E1,1E0,1.1E1,3E0,2E0,4E0,7E0,2.9E1,8E0,2E0,1E0,1E1,1E0,6E0,5E0,2.4E1,2E0,4E0,3E0,2E0,1E1,1.4E1,1E0,2E0,3E0,1.1E1,1E0,2E0,1E0,1E1],"tree_param":{"num_deleted":"0","num_feature":"56","num_nodes":"37","size_leaf_vector":"1"}},{"base_weights":[-7.0420597E-3,3.942135E-2,-2.3018302E-2,1.927397E-2,5.5188578E-2,1.2683355E-2,-3.494001E-2,1.2468965E-3,-6.509423E-4,3.0469724E-3,1.1686842E-3,2.937849E-2,-2.6379963E-3,-6.698716E-2,-2.0589693E-2,3.794004E-2,-3.049493E-4,-3.9790445E-3,-1.2526453E-3,2.3308087E-2,-2.9237483E-2,4.9116614E-4,4.0226713E-2,3.1454504E-2,-2.3193956E-4,-3.316371E-2,-8.470321E-3,1.0760025E-3,2.357335E-3,4.3280722E-4,1.8084288E-3,-3.520445E-2,8.924008E-5,-5.57974E-4,5.7157875E-5,-2.1087269E-3,-9.113261E-4],"categories":[],"categories_nodes":[],"categories_segments":[],"categories_sizes":[],"default_left":[0,0,0,0,0,0,0,0,0,0,0,0,0,0,0,0,0,0,0,0,0,0,0,0,0,0,0,0,0,0,0,0,0,0,0,0,0],"id":46,"left_children":[1,3,5,7,9,11,13,-1,-1,-1,-1,15,-1,17,19,21,-1,-1,-1,23,25,-1,27,29,-1,31,33,-1,-1,-1,-1,35,-1,-1,-1,-1,-1],"loss_changes":[4.9157605E-2,4.336657E-3,2.1298774E-2,1.9708097E-3,2.222918E-4,1.5753604E-2,1.5636563E-2,0E0,0E0,0E0,0E0,3.57256E-3,0E0,3.8154647E-3,1.0931177E-2,1.8348359E-4,0E0,0E0,0E0,1.2842454E-3,1.5944354E-3,0E0,2.0999461E-5,1.16812065E-4,0E0,1.4179274E-3,1.420179E-4,0E0,0E0,0E0,0E0,1.3613813E-3,0E0,0E0,0E0,0E0,0E0],"parents":[2147483647,0,0,1,1,2,2,3,3,4,4,5,5,6,6,11,11,13,13,14,14,15,15,19,19,20,20,22,22,23,23,25,25,26,26,31,31],"right_children":[2,4,6,8,10,12,14,-1,-1,-1,-1,16,-1,18,20,22,-1,-1,-1,24,26,-1,28,30,-1,32,34,-1,-1,-1,-1,36,-1,-1,-1,-1,-1],"split_conditions":[8.6545503E-1,3.9607055E0,-3.631369E-2,8.6357E0,7.4571643E0,2.1937307E1,5.578976E-1,1.2468965E-3,-6.509423E-4,3.0469724E-3,1.1686842E-3,2.16E0,-2.6379963E-3,6.247834E0,1.2488605E1,8.0759513E-1,-3.049493E-4,-3.9790445E-3,-1.2526453E-3,9.775419E0,4.2338634E1,4.9116614E-4,-6.264218E-1,9.166851E0,-2.3193956E-4,3.31E0,1.4583136E1,1.0760025E-3,2.357335E-3,4.3280722E-4,1.8084288E-3,2.79E0,8.924008E-5,-5.57974E-4,5.7157875E-5,-2.1087269E-3,-9.113261E-4],"split_indices":[24,8,51,16,8,7,45,0,0,0,0,43,0,13,27,8,0,0,0,5,6,0,42,5,0,33,13,0,0,0,0,43,0,0,0,0,0],"split_type":[0,0,0,0,0,0,0,0,0,0,0,0,0,0,0,0,0,0,0,0,0,0,0,0,0,0,0,0,0,0,0,0,0,0,0,0,0],"sum_hessian":[6.4E1,1.6E1,4.8E1,8E0,8E0,1.2E1,3.6E1,7E0,1E0,6E0,2E0,1E1,2E0,1E1,2.6E1,8E0,2E0,7E0,3E0,4E0,2.2E1,1E0,7E0,3E0,1E0,1.8E1,4E0,3E0,4E0,1E0,2E0,1.7E1,1E0,3E0,1E0,1.1E1,6E0],"tree_param":{"num_deleted":"0","num_feature":"56","num_nodes":"37","size_leaf_vector":"1"}},{"base_weights":[-2.9461724E-3,2.9437024E-2,-2.9693788E-2,3.821085E-2,-3.4952104E-2,-3.781333E-2,2.1342994E-3,4.4409122E-2,2.3852706E-2,-6.2787137E-4,-2.5534034E-3,-6.5244004E-2,-2.2379203E-2,5.155903E-2,1.1353891E-3,1.3023496E-3,5.025188E-4,-6.951743E-2,-5.6274235E-4,-2.8146094E-2,1.1763235E-3,1.3988566E-3,2.9926419E-3,-1.2619754E-3,-3.871599E-3,-1.6400965E-2,-3.8251124E-2,-2.2266839E-2,6.6636405E-3,-2.084415E-3,-1.8291474E-4,-1.4176975E-3,-3.784731E-4,4.1276516E-4,8.700788E-5],"categories":[],"categories_nodes":[],"categories_segments":[],"categories_sizes":[],"default_left":[0,0,0,0,0,0,0,0,0,0,0,0,0,0,0,0,0,0,0,0,0,0,0,0,0,0,0,0,0,0,0,0,0,0,0],"id":47,"left_children":[1,3,5,7,9,11,-1,13,15,-1,-1,17,19,21,-1,-1,-1,23,-1,25,-1,-1,-1,-1,-1,27,29,31,33,-1,-1,-1,-1,-1,-1],"loss_changes":[5.544301E-2,1.771878E-2,2.2183267E-2,1.2546107E-3,8.0236327E-4,1.208768E-2,0E0,1.4669746E-3,4.1080173E-5,0E0,0E0,1.7555021E-3,6.486303E-3,6.7249313E-4,0E0,0E0,0E0,1.5500486E-3,0E0,1.7463434E-3,0E0,0E0,0E0,0E0,0E0,1.6366125E-3,1.036508E-3,5.9055677E-4,9.144045E-6,0E0,0E0,0E0,0E0,0E0,0E0],"parents":[2147483647,0,0,1,1,2,2,3,3,4,4,5,5,7,7,8,8,11,11,12,12,13,13,17,17,19,19,25,25,26,26,27,27,28,28],"right_children":[2,4,6,8,10,12,-1,14,16,-1,-1,18,20,22,-1,-1,-1,24,-1,26,-1,-1,-1,-1,-1,28,30,32,34,-1,-1,-1,-1,-1,-1],"split_conditions":[1.76E0,9.032437E0,6.792322E0,4.6637106E0,7.4202016E-2,2.081572E0,2.1342994E-3,2.1029315E0,1.5950694E0,-6.2787137E-4,-2.5534034E-3,1.6147876E0,2.1191671E1,7.233668E0,1.1353891E-3,1.3023496E-3,5.025188E-4,6.4478517E0,-5.6274235E-4,2.87E0,1.1763235E-3,1.3988566E-3,2.9926419E-3,-1.2619754E-3,-3.871599E-3,2.71E0,9.375675E0,1.348415E0,9.3041974E-1,-2.084415E-3,-1.8291474E-4,-1.4176975E-3,-3.784731E-4,4.1276516E-4,8.700788E-5],"split_indices":[25,16,8,55,23,17,0,12,23,0,0,4,7,5,0,0,0,47,0,25,0,0,0,0,0,33,5,4,4,0,0,0,0,0,0],"split_type":[0,0,0,0,0,0,0,0,0,0,0,0,0,0,0,0,0,0,0,0,0,0,0,0,0,0,0,0,0,0,0,0,0,0,0],"sum_hessian":[6.2E1,2.8E1,3.4E1,2.5E1,3E0,3.1E1,3E0,1.6E1,9E0,2E0,1E0,1E1,2.1E1,1.1E1,5E0,7E0,2E0,9E0,1E0,1.9E1,2E0,4E0,7E0,2E0,7E0,1E1,9E0,8E0,2E0,8E0,1E0,5E0,3E0,1E0,1E0],"tree_param":{"num_deleted":"0","num_feature":"56","num_nodes":"35","size_leaf_vector":"1"}},{"base_weights":[-5.448365E-3,1.829694E-2,-3.2081828E-2,3.4003314E-2,-2.4369324E-2,-5.646597E-2,-2.2617036E-2,3.7247933E-2,-1.1778057E-3,-5.882913E-2,2.1856308E-2,-1.0148387E-3,-6.513957E-2,1.3651466E-2,-3.0553311E-2,4.4229582E-2,2.2352505E-2,-3.6029906E-3,-1.0789256E-3,2.0847062E-3,-2.6334723E-4,-8.562803E-4,-3.565862E-3,9.5059274E-4,-1.9475223E-4,-3.2339975E-2,8.483231E-5,1.0900236E-3,2.4944625E-3,1.170867E-3,3.192246E-4,-2.616775E-2,-2.447194E-3,-8.674662E-3,-2.8047144E-2,-6.225914E-4,-2.8008222E-5,-2.3041367E-4,-1.4747827E-3],"categories":[],"categories_nodes":[],"categories_segments":[],"categories_sizes":[],"default_left":[0,0,0,0,0,0,0,0,0,0,0,0,0,0,0,0,0,0,0,0,0,0,0,0,0,0,0,0,0,0,0,0,0,0,0,0,0,0,0],"id":48,"left_children":[1,3,5,7,9,11,13,15,-1,17,19,-1,21,23,25,27,29,-1,-1,-1,-1,-1,-1,-1,-1,31,-1,-1,-1,-1,-1,33,-1,35,37,-1,-1,-1,-1],"loss_changes":[4.169428E-2,2.4283268E-2,5.8774203E-3,5.7331417E-3,1.721505E-2,1.1876151E-3,7.325181E-3,1.6112216E-3,0E0,1.402162E-3,2.9099314E-3,0E0,5.583335E-4,5.443326E-4,1.207266E-3,9.434521E-4,2.0524953E-5,0E0,0E0,0E0,0E0,0E0,0E0,0E0,0E0,6.664265E-4,0E0,0E0,0E0,0E0,0E0,2.8272346E-4,0E0,8.497432E-5,3.3939444E-4,0E0,0E0,0E0,0E0],"parents":[2147483647,0,0,1,1,2,2,3,3,4,4,5,5,6,6,7,7,9,9,10,10,12,12,13,13,14,14,15,15,16,16,25,25,31,31,33,33,34,34],"right_children":[2,4,6,8,10,12,14,16,-1,18,20,-1,22,24,26,28,30,-1,-1,-1,-1,-1,-1,-1,-1,32,-1,-1,-1,-1,-1,34,-1,36,38,-1,-1,-1,-1],"split_conditions":[1.72E0,1.65E0,2.081572E0,2.5005022E1,4.95332E0,5.7544723E0,2.7321053E0,4.6637106E0,-1.1778057E-3,1.60454E-1,1.4126766E0,-1.0148387E-3,8.4665575E0,2.0354366E0,3.31E0,1.3149203E1,1.6338844E0,-3.6029906E-3,-1.0789256E-3,2.0847062E-3,-2.6334723E-4,-8.562803E-4,-3.565862E-3,9.5059274E-4,-1.9475223E-4,2.96E0,8.483231E-5,1.0900236E-3,2.4944625E-3,1.170867E-3,3.192246E-4,1.061446E0,-2.447194E-3,8.955732E-1,2.07E0,-6.225914E-4,-2.8008222E-5,-2.3041367E-4,-1.4747827E-3],"split_indices":[33,43,17,7,55,28,17,55,0,13,4,0,5,23,33,7,4,0,0,0,0,0,0,0,0,33,0,0,0,0,0,4,0,4,34,0,0,0,0],"split_type":[0,0,0,0,0,0,0,0,0,0,0,0,0,0,0,0,0,0,0,0,0,0,0,0,0,0,0,0,0,0,0,0,0,0,0,0,0,0,0],"sum_hessian":[6.4E1,3.4E1,3E1,2.5E1,9E0,7E0,2.3E1,2.4E1,1E0,5E0,4E0,2E0,5E0,4E0,1.9E1,1.5E1,9E0,3E0,2E0,2E0,2E0,1E0,4E0,3E0,1E0,1.8E1,1E0,4E0,1.1E1,8E0,1E0,1.5E1,3E0,2E0,1.3E1,1E0,1E0,1E0,1.2E1],"tree_param":{"num_deleted":"0","num_feature":"56","num_nodes":"39","size_leaf_vector":"1"}},{"base_weights":[-1.5359303E-3,2.4363134E-2,-2.581881E-2,3.2636233E-2,-3.9639354E-2,-5.7447568E-2,-1.5093854E-2,-1.5790284E-3,3.6184285E-2,-2.2479594E-3,-5.919963E-4,-1.4657244E-3,-3.4232258E-3,-2.0853156E-2,1.08978E-3,2.5326662E-2,5.2109577E-2,-2.3555052E-2,5.0111613E-3,2.7310805E-2,-2.1009445E-4,8.1172393E-4,2.952452E-3,-3.0810834E-4,-2.6111523E-2,4.0314495E-4,-2.7307868E-5,2.8207168E-2,3.2422543E-4,-2.7842108E-2,8.271039E-5,1.5947493E-3,8.372486E-4,-3.7956237E-5,-1.4743675E-3],"categories":[],"categories_nodes":[],"categories_segments":[],"categories_sizes":[],"default_left":[0,0,0,0,0,0,0,0,0,0,0,0,0,0,0,0,0,0,0,0,0,0,0,0,0,0,0,0,0,0,0,0,0,0,0],"id":49,"left_children":[1,3,5,7,9,11,13,-1,15,-1,-1,-1,-1,17,-1,19,21,23,25,27,-1,-1,-1,-1,29,-1,-1,31,-1,33,-1,-1,-1,-1,-1],"loss_changes":[4.024997E-2,1.7708149E-2,1.0327058E-2,7.522365E-3,5.9239566E-5,4.7252327E-4,5.9784036E-3,0E0,3.348831E-3,0E0,0E0,0E0,0E0,1.7253393E-3,0E0,1.1693574E-3,1.530908E-3,7.7284966E-4,5.5282042E-5,1.3444386E-4,0E0,0E0,0E0,0E0,9.109741E-4,0E0,0E0,1.4224742E-4,0E0,7.351022E-4,0E0,0E0,0E0,0E0,0E0],"parents":[2147483647,0,