{"learner":{"attributes":{"scikit_learn":"{\"_estimator_type\": \"regressor\"}"},"feature_names":[],"feature_types":[],"gradient_booster":{"model":{"gbtree_model_param":{"num_parallel_tree":"1","num_trees":"600"},"iteration_indptr":[0,1,2,3,4,5,6,7,8,9,10,11,12,13,14,15,16,17,18,19,20,21,22,23,24,25,26,27,28,29,30,31,32,33,34,35,36,37,38,39,40,41,42,43,44,45,46,47,48,49,50,51,52,53,54,55,56,57,58,59,60,61,62,63,64,65,66,67,68,69,70,71,72,73,74,75,76,77,78,79,80,81,82,83,84,85,86,87,88,89,90,91,92,93,94,95,96,97,98,99,100,101,102,103,104,105,106,107,108,109,110,111,112,113,114,115,116,117,118,119,120,121,122,123,124,125,126,127,128,129,130,131,132,133,134,135,136,137,138,139,140,141,142,143,144,145,146,147,148,149,150,151,152,153,154,155,156,157,158,159,160,161,162,163,164,165,166,167,168,169,170,171,172,173,174,175,176,177,178,179,180,181,182,183,184,185,186,187,188,189,190,191,192,193,194,195,196,197,198,199,200,201,202,203,204,205,206,207,208,209,210,211,212,213,214,215,216,217,218,219,220,221,222,223,224,225,226,227,228,229,230,231,232,233,234,235,236,237,238,239,240,241,242,243,244,245,246,247,248,249,250,251,252,253,254,255,256,257,258,259,260,261,262,263,264,265,266,267,268,269,270,271,272,273,274,275,276,277,278,279,280,281,282,283,284,285,286,287,288,289,290,291,292,293,294,295,296,297,298,299,300,301,302,303,304,305,306,307,308,309,310,311,312,313,314,315,316,317,318,319,320,321,322,323,324,325,326,327,328,329,330,331,332,333,334,335,336,337,338,339,340,341,342,343,344,345,346,347,348,349,350,351,352,353,354,355,356,357,358,359,360,361,362,363,364,365,366,367,368,369,370,371,372,373,374,375,376,377,378,379,380,381,382,383,384,385,386,387,388,389,390,391,392,393,394,395,396,397,398,399,400,401,402,403,404,405,406,407,408,409,410,411,412,413,414,415,416,417,418,419,420,421,422,423,424,425,426,427,428,429,430,431,432,433,434,435,436,437,438,439,440,441,442,443,444,445,446,447,448,449,450,451,452,453,454,455,456,457,458,459,460,461,462,463,464,465,466,467,468,469,470,471,472,473,474,475,476,477,478,479,480,481,482,483,484,485,486,487,488,489,490,491,492,493,494,495,496,497,498,499,500,501,502,503,504,505,506,507,508,509,510,511,512,513,514,515,516,517,518,519,520,521,522,523,524,525,526,527,528,529,530,531,532,533,534,535,536,537,538,539,540,541,542,543,544,545,546,547,548,549,550,551,552,553,554,555,556,557,558,559,560,561,562,563,564,565,566,567,568,569,570,571,572,573,574,575,576,577,578,579,580,581,582,583,584,585,586,587,588,589,590,591,592,593,594,595,596,597,598,599,600],"tree_info":[0,0,0,0,0,0,0,0,0,0,0,0,0,0,0,0,0,0,0,0,0,0,0,0,0,0,0,0,0,0,0,0,0,0,0,0,0,0,0,0,0,0,0,0,0,0,0,0,0,0,0,0,0,0,0,0,0,0,0,0,0,0,0,0,0,0,0,0,0,0,0,0,0,0,0,0,0,0,0,0,0,0,0,0,0,0,0,0,0,0,0,0,0,0,0,0,0,0,0,0,0,0,0,0,0,0,0,0,0,0,0,0,0,0,0,0,0,0,0,0,0,0,0,0,0,0,0,0,0,0,0,0,0,0,0,0,0,0,0,0,0,0,0,0,0,0,0,0,0,0,0,0,0,0,0,0,0,0,0,0,0,0,0,0,0,0,0,0,0,0,0,0,0,0,0,0,0,0,0,0,0,0,0,0,0,0,0,0,0,0,0,0,0,0,0,0,0,0,0,0,0,0,0,0,0,0,0,0,0,0,0,0,0,0,0,0,0,0,0,0,0,0,0,0,0,0,0,0,0,0,0,0,0,0,0,0,0,0,0,0,0,0,0,0,0,0,0,0,0,0,0,0,0,0,0,0,0,0,0,0,0,0,0,0,0,0,0,0,0,0,0,0,0,0,0,0,0,0,0,0,0,0,0,0,0,0,0,0,0,0,0,0,0,0,0,0,0,0,0,0,0,0,0,0,0,0,0,0,0,0,0,0,0,0,0,0,0,0,0,0,0,0,0,0,0,0,0,0,0,0,0,0,0,0,0,0,0,0,0,0,0,0,0,0,0,0,0,0,0,0,0,0,0,0,0,0,0,0,0,0,0,0,0,0,0,0,0,0,0,0,0,0,0,0,0,0,0,0,0,0,0,0,0,0,0,0,0,0,0,0,0,0,0,0,0,0,0,0,0,0,0,0,0,0,0,0,0,0,0,0,0,0,0,0,0,0,0,0,0,0,0,0,0,0,0,0,0,0,0,0,0,0,0,0,0,0,0,0,0,0,0,0,0,0,0,0,0,0,0,0,0,0,0,0,0,0,0,0,0,0,0,0,0,0,0,0,0,0,0,0,0,0,0,0,0,0,0,0,0,0,0,0,0,0,0,0,0,0,0,0,0,0,0,0,0,0,0,0,0,0,0,0,0,0,0,0,0,0,0,0,0,0,0,0,0,0,0,0,0,0,0,0,0,0,0,0,0,0,0,0,0,0,0,0,0,0,0,0,0,0,0,0,0,0,0,0,0,0,0,0,0,0,0,0,0,0,0,0,0,0,0,0,0,0,0,0,0,0,0,0,0,0,0,0,0,0,0,0,0,0,0,0,0,0,0,0,0,0,0,0,0,0,0,0,0,0,0,0,0,0],"trees":[{"base_weights":[-9.607663E-3,-2.1791387E-2,3.53972E-2,1.571584E-2,-4.0031772E-2,2.520785E-3,6.549755E-3,-6.6454485E-2,1.3317688E-2,-1.6200625E-3,1.496295E-2,-7.2692E-2,-2.7883075E-2,-7.3978375E-3,8.7055005E-2,-1.89219E-2,2.1678658E-2,-7.559752E-2,-1.2005523E-3,7.7166557E-3,-1.9578403E-3,-1.0680783E-3,2.1072626E-3,1.2221507E-3,4.73444E-3,-1.392293E-3,-1.8453201E-4,-3.1900406E-4,2.3788866E-2,-7.662747E-2,-8.342356E-4,8.9461355E-5,4.8928784E-4,-1.7908266E-3,8.498599E-4,-1.6371607E-4,1.3979078E-4,1.3979078E-4,1.2349364E-3,-9.915583E-4,-3.8775802E-3,1.5315904E-4,-3.577682E-4],"categories":[],"categories_nodes":[],"categories_segments":[],"categories_sizes":[],"default_left":[0,0,0,0,0,0,0,0,0,0,0,0,0,0,0,0,0,0,0,0,0,0,0,0,0,0,0,0,0,0,0,0,0,0,0,0,0,0,0,0,0,0,0],"id":0,"left_children":[1,3,-1,5,7,-1,9,11,13,-1,15,17,19,21,23,25,27,29,-1,31,-1,-1,33,-1,-1,-1,-1,35,37,39,-1,-1,-1,41,-1,-1,-1,-1,-1,-1,-1,-1,-1],"loss_changes":[1.0470364E0,8.0674246E-2,0E0,1.2074201E-2,1.1224638E-1,0E0,1.0971295E-2,1.0724366E-2,4.1886717E-2,0E0,6.554342E-3,4.5498013E-3,3.9142366E-3,2.9650002E-3,5.533211E-4,5.768469E-4,1.0752408E-3,1.2699366E-3,0E0,1.9284416E-5,0E0,0E0,8.4303116E-4,0E0,0E0,0E0,0E0,3.6770238E-5,3.3206213E-4,6.1401725E-4,0E0,0E0,0E0,3.3439219E-4,0E0,0E0,0E0,0E0,0E0,0E0,0E0,0E0,0E0],"parents":[2147483647,0,0,1,1,3,3,4,4,6,6,7,7,8,8,10,10,11,11,12,12,13,13,14,14,15,15,16,16,17,17,19,19,22,22,27,27,28,28,29,29,33,33],"right_children":[2,4,-1,6,8,-1,10,12,14,-1,16,18,20,22,24,26,28,30,-1,32,-1,-1,34,-1,-1,-1,-1,36,38,40,-1,-1,-1,42,-1,-1,-1,-1,-1,-1,-1,-1,-1],"split_conditions":[4.455791E0,3.8516274E-1,3.53972E-2,1.6700727E-1,2.4592576E0,2.520785E-3,2.3158414E-2,2.2809072E0,1.5578875E1,-1.6200625E-3,5.0745693E1,3.88E0,2.326417E0,5.068883E1,7.5194595E1,3.8280234E-1,2.5011089E-2,3.3168034E1,-1.2005523E-3,2.2811651E0,-1.9578403E-3,-1.0680783E-3,7.299468E1,1.2221507E-3,4.73444E-3,-1.392293E-3,-1.8453201E-4,2.4049124E-2,8.404773E0,3.8870595E0,-8.342356E-4,8.9461355E-5,4.8928784E-4,1.24E0,8.498599E-4,-1.6371607E-4,1.3979078E-4,1.3979078E-4,1.2349364E-3,-9.915583E-4,-3.8775802E-3,1.5315904E-4,-3.577682E-4],"split_indices":[4,4,0,17,4,0,4,4,5,0,13,37,4,16,7,4,4,5,0,4,0,0,7,0,0,0,0,4,59,32,0,0,0,37,0,0,0,0,0,0,0,0,0],"split_type":[0,0,0,0,0,0,0,0,0,0,0,0,0,0,0,0,0,0,0,0,0,0,0,0,0,0,0,0,0,0,0,0,0,0,0,0,0,0,0,0,0,0,0],"sum_hessian":[1.17E2,1.16E2,1E0,3.8E1,7.8E1,7E0,3.1E1,5.2E1,2.6E1,5E0,2.6E1,4.4E1,8E0,2.1E1,5E0,4E0,2.2E1,4.1E1,3E0,2E0,6E0,8E0,1.3E1,1E0,4E0,2E0,2E0,2E0,2E1,4E1,1E0,1E0,1E0,1.1E1,2E0,1E0,1E0,1E0,1.9E1,1E0,3.9E1,6E0,5E0],"tree_param":{"num_deleted":"0","num_feature":"60","num_nodes":"43","size_leaf_vector":"1"}},{"base_weights":[-3.2336167E-3,-2.4255203E-2,4.6409234E-1,1.8238233E-2,-4.094939E-2,4.6445103E-3,2.6683515E-2,4.328217E-2,4.8872544E-3,-6.525396E-2,-4.3563996E-3,2.3428234E-3,9.0659456E-4,-1.7617509E-3,1.8760571E-2,-6.8415694E-2,-1.3370946E-2,-1.6664198E-2,4.3738876E-2,1.3629571E-4,1.9592367E-2,-7.122331E-2,-5.3679347E-3,-9.3010814E-5,-8.2938926E-4,-2.8716147E-2,3.4764707E-3,8.5016864E-4,2.976983E-3,1.0267536E-3,1.3629571E-4,-1.6150594E-3,-7.438709E-2,4.107848E-4,-8.133799E-4,-9.148347E-3,-3.403329E-2,1.4017739E-3,-1.7829776E-3,-9.4728026E-4,-3.7673754E-3,8.72247E-5,-6.153841E-4,-5.237093E-4,-1.8682283E-3,1.2570719E-4,-3.291464E-4],"categories":[],"categories_nodes":[],"categories_segments":[],"categories_sizes":[],"default_left":[0,0,0,0,0,0,0,0,0,0,0,0,0,0,0,0,0,0,0,0,0,0,0,0,0,0,0,0,0,0,0,0,0,0,0,0,0,0,0,0,0,0,0,0,0,0,0],"id":1,"left_children":[1,3,5,7,9,-1,-1,11,13,15,17,-1,-1,-1,19,21,23,25,27,-1,29,31,33,-1,-1,35,37,-1,-1,-1,-1,-1,39,-1,-1,41,43,-1,45,-1,-1,-1,-1,-1,-1,-1,-1],"loss_changes":[1.141009E0,7.94895E-2,7.956481E-2,1.0488024E-2,7.086587E-2,0E0,0E0,1.392439E-4,1.2906867E-2,6.959155E-3,2.026312E-2,0E0,0E0,0E0,1.7333124E-4,7.5832903E-3,1.1725578E-4,6.6536576E-3,1.9447189E-3,0E0,1.9842386E-4,2.8922707E-3,5.778206E-4,0E0,0E0,1.4574127E-3,1.4708217E-3,0E0,0E0,0E0,0E0,0E0,6.491393E-4,0E0,0E0,1.9354132E-4,6.288998E-4,0E0,2.2281011E-4,0E0,0E0,0E0,0E0,0E0,0E0,0E0,0E0],"parents":[2147483647,0,0,1,1,2,2,3,3,4,4,7,7,8,8,9,9,10,10,14,14,15,15,16,16,17,17,18,18,20,20,21,21,22,22,25,25,26,26,32,32,35,35,36,36,38,38],"right_children":[2,4,6,8,10,-1,-1,12,14,16,18,-1,-1,-1,20,22,24,26,28,-1,30,32,34,-1,-1,36,38,-1,-1,-1,-1,-1,40,-1,-1,42,44,-1,46,-1,-1,-1,-1,-1,-1,-1,-1],"split_conditions":[4.990832E1,3.360987E-1,5.258344E1,1.06394E1,2.2809072E0,4.6445103E-3,2.6683515E-2,3.84E0,2.2331329E-2,4.02E0,7.299468E1,2.3428234E-3,9.0659456E-4,-1.7617509E-3,2.5011089E-2,3.3168034E1,3.8516274E-1,5.068883E1,7.509962E1,1.3629571E-4,2.4648596E-1,3.8280234E-1,1.8872705E0,-9.3010814E-5,-8.2938926E-4,2.7519574E0,2.326417E0,8.5016864E-4,2.976983E-3,1.0267536E-3,1.3629571E-4,-1.6150594E-3,0E0,4.107848E-4,-8.133799E-4,2.2811651E0,1.3983723E0,1.4017739E-3,1.24E0,-9.4728026E-4,-3.7673754E-3,8.72247E-5,-6.153841E-4,-5.237093E-4,-1.8682283E-3,1.2570719E-4,-3.291464E-4],"split_indices":[8,4,16,55,4,0,0,47,4,37,7,0,0,0,4,8,4,16,7,0,4,4,4,0,0,33,4,0,0,0,0,0,33,0,0,4,59,0,37,0,0,0,0,0,0,0,0],"split_type":[0,0,0,0,0,0,0,0,0,0,0,0,0,0,0,0,0,0,0,0,0,0,0,0,0,0,0,0,0,0,0,0,0,0,0,0,0,0,0,0,0,0,0,0,0,0,0],"sum_hessian":[1.14E2,1.1E2,4E0,3.1E1,7.9E1,1E0,3E0,1E1,2.1E1,4.7E1,3.2E1,8E0,2E0,5E0,1.6E1,4.4E1,3E0,2.6E1,6E0,1E0,1.5E1,4.2E1,2E0,1E0,2E0,1.6E1,1E1,3E0,3E0,1.4E1,1E0,4E0,3.8E1,1E0,1E0,4E0,1.2E1,1E0,9E0,1E0,3.7E1,1E0,3E0,2E0,1E1,5E0,4E0],"tree_param":{"num_deleted":"0","num_feature":"60","num_nodes":"47","size_leaf_vector":"1"}},{"base_weights":[7.301146E-3,-2.4059445E-2,6.019355E-1,1.874633E-2,-3.8214188E-2,8.86614E-3,3.849556E-2,-1.5086937E-2,3.4725644E-2,-5.1585678E-2,3.0294927E-3,-3.251068E-2,1.9176349E-2,2.9008014E-3,2.0600053E-2,-5.9490915E-2,-7.369876E-3,-1.5099766E-3,1.7377848E-2,-7.567916E-4,-2.087893E-3,1.2217273E-3,8.504391E-5,1.3640634E-2,1.7294221E-3,-6.3445166E-2,-2.3312466E-2,-1.0092136E-2,4.963182E-4,-9.068549E-5,1.87782E-2,1.6388727E-2,8.4947544E-4,-2.8873725E-2,-6.7597605E-2,4.005149E-4,-1.4933989E-3,-6.5598526E-4,-3.4601818E-4,1.3288856E-4,1.9739818E-2,1.3281927E-4,8.8866113E-4,1.3281927E-4,-6.910861E-5,-1.6150599E-3,-2.0772219E-4,-3.4717643E-3,-9.975046E-4,1.0774158E-3,2.962942E-4],"categories":[],"categories_nodes":[],"categories_segments":[],"categories_sizes":[],"default_left":[0,0,0,0,0,0,0,0,0,0,0,0,0,0,0,0,0,0,0,0,0,0,0,0,0,0,0,0,0,0,0,0,0,0,0,0,0,0,0,0,0,0,0,0,0,0,0,0,0,0,0],"id":2,"left_children":[1,3,5,7,9,-1,-1,11,13,15,17,19,21,-1,23,25,27,-1,29,-1,-1,-1,-1,31,-1,33,35,37,-1,-1,39,41,43,45,47,-1,-1,-1,-1,-1,49,-1,-1,-1,-1,-1,-1,-1,-1,-1,-1],"loss_changes":[2.2336042E0,6.978952E-2,2.9142475E-1,1.6202245E-2,4.7584355E-2,0E0,0E0,6.5933834E-3,5.384676E-3,2.2281423E-2,1.1014003E-2,4.9263844E-4,3.259976E-4,0E0,8.911062E-4,6.389171E-3,6.181118E-4,0E0,4.6405662E-4,0E0,0E0,0E0,0E0,3.7274277E-4,0E0,5.0824434E-3,1.6766088E-3,5.2344985E-6,0E0,0E0,1.800619E-4,1.238985E-4,1.576874E-5,4.5887986E-4,2.3798645E-3,0E0,0E0,0E0,0E0,0E0,2.2206223E-4,0E0,0E0,0E0,0E0,0E0,0E0,0E0,0E0,0E0,0E0],"parents":[2147483647,0,0,1,1,2,2,3,3,4,4,7,7,8,8,9,9,10,10,11,11,12,12,14,14,15,15,16,16,18,18,23,23,25,25,26,26,27,27,30,30,31,31,32,32,33,33,34,34,40,40],"right_children":[2,4,6,8,10,-1,-1,12,14,16,18,20,22,-1,24,26,28,-1,30,-1,-1,-1,-1,32,-1,34,36,38,-1,-1,40,42,44,46,48,-1,-1,-1,-1,-1,50,-1,-1,-1,-1,-1,-1,-1,-1,-1,-1],"split_conditions":[4.990832E1,1.16E0,3.0381454E1,1.39183855E1,1.5598875E1,8.86614E-3,3.849556E-2,1.41E0,5.1956787E1,2.4592576E0,2.3158414E-2,6.252772E-1,1.5869425E1,2.9008014E-3,1.0737247E1,4.738291E0,6.580383E1,-1.5099766E-3,5.528479E1,-7.567916E-4,-2.087893E-3,1.2217273E-3,8.504391E-5,3.3154427E-3,1.7294221E-3,3.8516274E-1,1.8872705E0,8.9E-1,4.963182E-4,-9.068549E-5,2.5011089E-2,5.539081E-1,2.5249531E0,3.8280234E-1,3.88E0,4.005149E-4,-1.4933989E-3,-6.5598526E-4,-3.4601818E-4,1.3288856E-4,4.089491E0,1.3281927E-4,8.8866113E-4,1.3281927E-4,-6.910861E-5,-1.6150599E-3,-2.0772219E-4,-3.4717643E-3,-9.975046E-4,1.0774158E-3,2.962942E-4],"split_indices":[8,37,25,13,33,0,0,46,16,4,4,7,7,0,49,12,7,0,13,0,0,0,0,58,0,4,4,27,0,0,4,7,4,4,37,0,0,0,0,0,57,0,0,0,0,0,0,0,0,0,0],"split_type":[0,0,0,0,0,0,0,0,0,0,0,0,0,0,0,0,0,0,0,0,0,0,0,0,0,0,0,0,0,0,0,0,0,0,0,0,0,0,0,0,0,0,0,0,0,0,0,0,0,0,0],"sum_hessian":[1.18E2,1.13E2,5E0,2.8E1,8.5E1,2E0,3E0,9E0,1.9E1,6.4E1,2.1E1,6E0,3E0,6E0,1.3E1,5.4E1,1E1,6E0,1.5E1,3E0,3E0,2E0,1E0,1E1,3E0,4.8E1,6E0,9E0,1E0,1E0,1.4E1,8E0,2E0,6E0,4.2E1,1E0,5E0,3E0,6E0,1E0,1.3E1,1E0,7E0,1E0,1E0,5E0,1E0,4E1,2E0,1.1E1,2E0],"tree_param":{"num_deleted":"0","num_feature":"60","num_nodes":"51","size_leaf_vector":"1"}},{"base_weights":[4.949361E-3,-2.266683E-2,6.6122484E-1,1.4109265E-2,-3.6355846E-2,3.7051976E-2,8.549158E-3,3.609591E-2,1.475219E-3,-5.405471E-2,-5.7560424E-3,2.16759E-3,1.080736E-3,-2.2377703E-2,1.6703868E-2,-6.1028816E-2,2.4861183E-3,-2.4034886E-2,1.7780896E-2,-3.0422697E-2,3.853182E-3,1.7602684E-2,1.254812E-4,-2.3776809E-2,-6.567382E-2,-6.739223E-3,8.5164903E-4,7.264197E-3,-2.8144436E-2,1.3789773E-3,2.1076973E-3,-4.4768528E-4,-1.6254289E-3,-1.6635284E-4,4.553415E-4,9.3188434E-4,1.2956634E-4,-1.5171479E-3,3.9050207E-4,-1.0276675E-3,-6.737352E-2,-4.6736895E-4,-9.423296E-5,8.291751E-5,4.6189726E-4,-1.6403623E-2,-1.7361323E-3,1.0379784E-2,-3.9613373E-3,-3.4426635E-3,-1.2839482E-3,-8.75929E-4,-2.149731E-4,1.2949854E-4,6.056532E-4,1.2949854E-4,-2.742442E-4],"categories":[],"categories_nodes":[],"categories_segments":[],"categories_sizes":[],"default_left":[0,0,0,0,0,0,0,0,0,0,0,0,0,0,0,0,0,0,0,0,0,0,0,0,0,0,0,0,0,0,0,0,0,0,0,0,0,0,0,0,0,0,0,0,0,0,0,0,0,0,0,0,0,0,0,0,0],"id":3,"left_children":[1,3,5,7,9,-1,-1,11,13,15,17,-1,-1,19,21,23,25,27,29,31,33,35,-1,37,39,41,-1,43,45,47,-1,-1,-1,-1,-1,-1,-1,-1,-1,-1,49,-1,-1,-1,-1,51,-1,53,55,-1,-1,-1,-1,-1,-1,-1,-1],"loss_changes":[2.244219E0,6.0420945E-2,6.8936825E-2,9.1135E-3,4.6806477E-2,0E0,0E0,3.2385066E-4,8.365245E-3,2.183941E-2,1.4624887E-2,0E0,0E0,2.0164698E-3,1.3443641E-4,6.917253E-3,1.0541874E-3,2.6483247E-3,5.9383414E-3,2.2399705E-5,1.4346627E-4,1.536822E-4,0E0,1.6888073E-3,1.9129664E-3,4.5690656E-5,0E0,1.7873826E-5,7.4339285E-4,5.2178925E-4,0E0,0E0,0E0,0E0,0E0,0E0,0E0,0E0,0E0,0E0,7.6150894E-4,0E0,0E0,0E0,0E0,3.2644486E-5,0E0,2.2635242E-5,8.407424E-5,0E0,0E0,0E0,0E0,0E0,0E0,0E0,0E0],"parents":[2147483647,0,0,1,1,2,2,3,3,4,4,7,7,8,8,9,9,10,10,13,13,14,14,15,15,16,16,17,17,18,18,19,19,20,20,21,21,23,23,24,24,25,25,27,27,28,28,29,29,40,40,45,45,47,47,48,48],"right_children":[2,4,6,8,10,-1,-1,12,14,16,18,-1,-1,20,22,24,26,28,30,32,34,36,-1,38,40,42,-1,44,46,48,-1,-1,-1,-1,-1,-1,-1,-1,-1,-1,50,-1,-1,-1,-1,52,-1,54,56,-1,-1,-1,-1,-1,-1,-1,-1],"split_conditions":[4.990832E1,1.0082961E1,2.1233103E1,2.302227E1,6.768757E1,3.7051976E-2,8.549158E-3,1.12188065E2,2.544687E1,4.02E0,4.7863457E1,2.16759E-3,1.080736E-3,6.024E1,6.569509E0,1.14E0,4.174358E0,6.97925E1,9.860835E0,9.379814E1,9.42327E1,4.58E0,1.254812E-4,7.380524E0,3.1690845E0,4.7188267E1,8.5164903E-4,9.955816E0,6.252772E-1,6.8E-1,2.1076973E-3,-4.4768528E-4,-1.6254289E-3,-1.6635284E-4,4.553415E-4,9.3188434E-4,1.2956634E-4,-1.5171479E-3,3.9050207E-4,-1.0276675E-3,3.02E0,-4.6736895E-4,-9.423296E-5,8.291751E-5,4.6189726E-4,1.1051476E-3,-1.7361323E-3,7.532174E1,7.532174E1,-3.4426635E-3,-1.2839482E-3,-8.75929E-4,-2.149731E-4,1.2949854E-4,6.056532E-4,1.2949854E-4,-2.742442E-4],"split_indices":[8,6,13,17,6,0,0,16,17,37,16,0,0,31,5,47,8,6,5,13,13,37,0,5,59,13,0,5,5,46,0,0,0,0,0,0,0,0,0,0,27,0,0,0,0,8,0,6,6,0,0,0,0,0,0,0,0],"split_type":[0,0,0,0,0,0,0,0,0,0,0,0,0,0,0,0,0,0,0,0,0,0,0,0,0,0,0,0,0,0,0,0,0,0,0,0,0,0,0,0,0,0,0,0,0,0,0,0,0,0,0,0,0,0,0,0,0],"sum_hessian":[1.22E2,1.18E2,4E0,3.2E1,8.6E1,3E0,1E0,1.1E1,2.1E1,5.4E1,3.2E1,6E0,5E0,8E0,1.3E1,4.8E1,6E0,1.8E1,1.4E1,6E0,2E0,1.2E1,1E0,6E0,4.2E1,4E0,2E0,2E0,1.6E1,9E0,5E0,1E0,5E0,1E0,1E0,1.1E1,1E0,5E0,1E0,2E0,4E1,2E0,2E0,1E0,1E0,7E0,9E0,3E0,6E0,3.8E1,2E0,6E0,1E0,1E0,2E0,1E0,5E0],"tree_param":{"num_deleted":"0","num_feature":"60","num_nodes":"57","size_leaf_vector":"1"}},{"base_weights":[5.1009306E-3,-2.3314003E-2,5.5360615E-1,1.3133558E-2,-3.6180984E-2,3.5662528E-2,7.810583E-3,2.8686553E-2,-5.3687394E-3,-5.001873E-2,1.650645E-3,2.0746936E-3,8.9642865E-4,-2.614924E-2,1.6082853E-2,-5.3285554E-2,1.1488281E-2,-8.604974E-3,3.3851665E-2,-1.5437204E-3,-3.9912463E-4,1.6578088E-4,9.892997E-4,-3.878192E-2,-6.5602444E-2,-8.6062406E-5,8.232604E-4,-1.7038666E-2,-9.2240894E-4,5.8546517E-4,2.099776E-3,-2.3163413E-3,-2.1538274E-2,-3.4867171E-3,-1.5084845E-3,-9.0602523E-4,-2.0959899E-4,2.710087E-3,-2.9117108E-4,-1.260753E-3,3.8073957E-4,-3.7343303E-5,2.1211208E-4],"categories":[],"categories_nodes":[],"categories_segments":[],"categories_sizes":[],"default_left":[0,0,0,0,0,0,0,0,0,0,0,0,0,0,0,0,0,0,0,0,0,0,0,0,0,0,0,0,0,0,0,0,0,0,0,0,0,0,0,0,0,0,0],"id":4,"left_children":[1,3,5,7,9,-1,-1,11,13,15,17,-1,-1,19,21,23,25,27,29,-1,-1,-1,-1,31,33,-1,-1,35,37,-1,-1,-1,39,-1,-1,-1,-1,41,-1,-1,-1,-1,-1],"loss_changes":[1.8987813E0,5.487571E-2,2.692325E-1,9.074761E-3,4.5103952E-2,0E0,0E0,1.5983479E-3,7.1071773E-3,1.32709E-2,8.217085E-3,0E0,0E0,4.4027204E-4,3.1262822E-4,8.174211E-3,2.9131206E-4,1.2153388E-3,5.9020706E-4,0E0,0E0,0E0,0E0,2.9052496E-3,2.434671E-3,0E0,0E0,4.9121678E-5,2.1161397E-4,0E0,0E0,0E0,1.3710931E-3,0E0,0E0,0E0,0E0,4.024449E-5,0E0,0E0,0E0,0E0,0E0],"parents":[2147483647,0,0,1,1,2,2,3,3,4,4,7,7,8,8,9,9,10,10,13,13,14,14,15,15,16,16,17,17,18,18,23,23,24,24,27,27,28,28,32,32,37,37],"right_children":[2,4,6,8,10,-1,-1,12,14,16,18,-1,-1,20,22,24,26,28,30,-1,-1,-1,-1,32,34,-1,-1,36,38,-1,-1,-1,40,-1,-1,-1,-1,42,-1,-1,-1,-1,-1],"split_conditions":[4.990832E1,3.360987E-1,1.23E0,3.95E0,2.4592576E0,3.5662528E-2,7.810583E-3,1.6700727E-1,2.4049124E-2,2.2416525E1,7.299468E1,2.0746936E-3,8.9642865E-4,2.2331329E-2,9.964661E1,2.0186005E1,4.174358E0,2.2586756E1,6.252772E-1,-1.5437204E-3,-3.9912463E-4,1.6578088E-4,9.892997E-4,1.7398085E1,3.34E0,-8.6062406E-5,8.232604E-4,7.78E0,1.24E0,5.8546517E-4,2.099776E-3,-2.3163413E-3,5.165681E1,-3.4867171E-3,-1.5084845E-3,-9.0602523E-4,-2.0959899E-4,1.5807752E1,-2.9117108E-4,-1.260753E-3,3.8073957E-4,-3.7343303E-5,2.1211208E-4],"split_indices":[8,4,37,37,4,0,0,17,4,17,7,0,0,4,13,13,8,13,5,0,0,0,0,51,37,0,0,26,37,0,0,0,7,0,0,0,0,39,0,0,0,0,0],"split_type":[0,0,0,0,0,0,0,0,0,0,0,0,0,0,0,0,0,0,0,0,0,0,0,0,0,0,0,0,0,0,0,0,0,0,0,0,0,0,0,0,0,0,0],"sum_hessian":[1.2E2,1.15E2,5E0,3E1,8.5E1,3E0,2E0,1.6E1,1.4E1,6.2E1,2.3E1,6E0,1E1,7E0,7E0,5.9E1,3E0,1.8E1,5E0,5E0,2E0,2E0,5E0,2.9E1,3E1,1E0,2E0,8E0,1E1,2E0,3E0,1.9E1,1E1,2.6E1,4E0,7E0,1E0,6E0,4E0,9E0,1E0,2E0,4E0],"tree_param":{"num_deleted":"0","num_feature":"60","num_nodes":"43","size_leaf_vector":"1"}},{"base_weights":[-7.722571E-3,-1.8505273E-2,3.161591E-2,1.4627753E-2,-3.047943E-2,-1.53853865E-2,2.8969424E-2,-4.1135542E-2,2.8743364E-3,-3.354235E-2,2.4774887E-2,4.5894947E-2,1.3721375E-2,-5.0641306E-2,5.8605E-3,-1.3899171E-3,1.6113987E-2,-7.33975E-4,-2.096208E-3,1.57675E-3,1.123637E-4,2.649269E-3,5.844405E-4,1.002492E-3,2.996524E-3,-5.5181656E-2,-2.130376E-2,-5.1891995E-3,3.1851798E-3,-8.822282E-5,1.8794084E-2,-5.9591235E-5,2.0362796E-4,-2.484729E-2,-5.90148E-2,3.7122145E-4,-1.2911418E-3,-4.1924565E-4,6.1276755E-3,2.5373598E-4,1.0328875E-3,-1.3983808E-3,-1.5313328E-4,-2.9942677E-3,-6.0481805E-4,4.5413227E-4,5.4433945E-6],"categories":[],"categories_nodes":[],"categories_segments":[],"categories_sizes":[],"default_left":[0,0,0,0,0,0,0,0,0,0,0,0,0,0,0,0,0,0,0,0,0,0,0,0,0,0,0,0,0,0,0,0,0,0,0,0,0,0,0,0,0,0,0,0,0,0,0],"id":5,"left_children":[1,3,-1,5,7,9,11,13,15,17,19,21,23,25,27,-1,29,-1,-1,-1,-1,-1,-1,-1,31,33,35,37,-1,-1,39,-1,-1,41,43,-1,-1,-1,45,-1,-1,-1,-1,-1,-1,-1,-1],"loss_changes":[8.3296406E-1,4.7261167E-2,0E0,1.4219741E-2,3.1039901E-2,8.852082E-3,5.048046E-3,2.9781178E-2,9.382044E-3,6.49414E-4,5.382891E-4,1.8060282E-3,8.2225446E-4,6.1505884E-3,8.000356E-3,0E0,7.9981657E-4,0E0,0E0,0E0,0E0,0E0,0E0,0E0,3.1894626E-5,3.9986074E-3,1.360144E-3,4.4920045E-4,0E0,0E0,2.5312416E-4,0E0,0E0,3.901706E-4,9.5024705E-4,0E0,0E0,0E0,5.236738E-5,0E0,0E0,0E0,0E0,0E0,0E0,0E0,0E0],"parents":[2147483647,0,0,1,1,3,3,4,4,5,5,6,6,7,7,8,8,9,9,10,10,11,11,12,12,13,13,14,14,16,16,24,24,25,25,26,26,27,27,30,30,33,33,34,34,38,38],"right_children":[2,4,-1,6,8,10,12,14,16,18,20,22,24,26,28,-1,30,-1,-1,-1,-1,-1,-1,-1,32,34,36,38,-1,-1,40,-1,-1,42,44,-1,-1,-1,46,-1,-1,-1,-1,-1,-1,-1,-1],"split_conditions":[4.455791E0,1.16E0,3.161591E-2,4.2568188E1,1.5615327E1,1.52E0,6.4350685E1,2.4592576E0,2.3158414E-2,1.5935779E1,1.784227E-2,1.1051476E-3,1.04212865E-1,4.738291E0,3.215665E0,-1.3899171E-3,9.028479E1,-7.33975E-4,-2.096208E-3,1.57675E-3,1.123637E-4,2.649269E-3,5.844405E-4,1.002492E-3,1.35E0,3.8516274E-1,1.8872705E0,6.580383E1,3.1851798E-3,-8.822282E-5,2.6053216E-2,-5.9591235E-5,2.0362796E-4,3.8280234E-1,3.88E0,3.7122145E-4,-1.2911418E-3,-4.1924565E-4,3.1412456E0,2.5373598E-4,1.0328875E-3,-1.3983808E-3,-1.5313328E-4,-2.9942677E-3,-6.0481805E-4,4.5413227E-4,5.4433945E-6],"split_indices":[4,37,0,16,33,46,16,4,4,7,4,25,4,12,4,0,16,0,0,0,0,0,0,0,38,4,4,7,0,0,4,0,0,4,37,0,0,0,4,0,0,0,0,0,0,0,0],"split_type":[0,0,0,0,0,0,0,0,0,0,0,0,0,0,0,0,0,0,0,0,0,0,0,0,0,0,0,0,0,0,0,0,0,0,0,0,0,0,0,0,0,0,0,0,0,0,0],"sum_hessian":[1.18E2,1.17E2,1E0,3.1E1,8.6E1,1E1,2.1E1,6.5E1,2.1E1,7E0,3E0,9E0,1.2E1,5.4E1,1.1E1,6E0,1.5E1,3E0,4E0,2E0,1E0,7E0,2E0,7E0,5E0,4.6E1,8E0,1E1,1E0,2E0,1.3E1,1E0,4E0,6E0,4E1,1E0,7E0,8E0,2E0,2E0,1.1E1,5E0,1E0,3.9E1,1E0,1E0,1E0],"tree_param":{"num_deleted":"0","num_feature":"60","num_nodes":"47","size_leaf_vector":"1"}},{"base_weights":[-2.837641E-3,-1.8591998E-2,2.2146618E-2,1.4307186E-2,-3.176584E-2,2.6176903E-2,-3.671495E-3,-4.6777092E-2,8.122412E-3,1.9126242E-3,7.469406E-4,-1.7812822E-2,9.0762053E-4,-5.113547E-2,2.4447837E-4,-4.7969176E-3,2.7795692E-3,-2.811495E-2,2.093576E-3,7.690827E-3,-5.3545922E-2,-1.10541135E-2,1.5227775E-2,-8.743773E-3,8.003032E-3,-3.917672E-4,-1.5301901E-3,-1.5855953E-4,2.452781E-4,1.0955483E-4,4.672572E-4,-4.1823518E-2,-6.2099997E-2,-8.17053E-5,-6.8247074E-4,2.3645014E-4,9.05633E-4,-1.2970626E-2,-3.4239478E-3,7.702212E-4,6.284083E-4,-2.233236E-3,-1.0762879E-3,-3.1582664E-3,-8.3339814E-4,-6.857851E-4,-1.9387752E-4,-2.7370205E-4,9.0877715E-5,1.15867704E-4,-5.810112E-5],"categories":[],"categories_nodes":[],"categories_segments":[],"categories_sizes":[],"default_left":[0,0,0,0,0,0,0,0,0,0,0,0,0,0,0,0,0,0,0,0,0,0,0,0,0,0,0,0,0,0,0,0,0,0,0,0,0,0,0,0,0,0,0,0,0,0,0,0,0,0,0],"id":6,"left_children":[1,3,-1,5,7,9,11,13,15,-1,-1,17,-1,19,21,23,-1,25,27,29,31,33,35,37,39,-1,-1,-1,-1,-1,-1,41,43,-1,-1,-1,-1,45,47,49,-1,-1,-1,-1,-1,-1,-1,-1,-1,-1,-1],"loss_changes":[8.228822E-1,4.9429663E-2,0E0,7.1383715E-3,4.888051E-2,2.1426808E-3,4.6440116E-3,1.2103826E-2,1.4371812E-2,0E0,0E0,1.9045651E-3,0E0,8.068904E-3,1.1840704E-3,1.0298481E-3,0E0,6.304635E-5,7.477426E-5,6.81878E-6,2.6170313E-3,7.548643E-5,5.2084797E-6,2.9288116E-4,1.5541347E-4,0E0,0E0,0E0,0E0,0E0,0E0,4.8030913E-4,3.0237436E-4,0E0,0E0,0E0,0E0,1.0168878E-6,9.591389E-5,1.166113E-5,0E0,0E0,0E0,0E0,0E0,0E0,0E0,0E0,0E0,0E0,0E0],"parents":[2147483647,0,0,1,1,3,3,4,4,5,5,6,6,7,7,8,8,11,11,13,13,14,14,15,15,17,17,18,18,19,19,20,20,21,21,22,22,23,23,24,24,31,31,32,32,37,37,38,38,39,39],"right_children":[2,4,-1,6,8,10,12,14,16,-1,-1,18,-1,20,22,24,-1,26,28,30,32,34,36,38,40,-1,-1,-1,-1,-1,-1,42,44,-1,-1,-1,-1,46,48,50,-1,-1,-1,-1,-1,-1,-1,-1,-1,-1,-1],"split_conditions":[1.5338192E1,7.394579E0,2.2146618E-2,3.95E0,7.3777725E1,2.9729475E1,2.93E1,3.88E0,7.3548676E1,1.9126242E-3,7.469406E-4,6.024E1,9.0762053E-4,2.7519574E0,9.028479E1,6.1125836E0,2.7795692E-3,1.2879814E2,1.292327E2,6.843495E1,4.7863457E1,1.1554882E1,9.499846E1,5.068883E1,7.597653E1,-3.917672E-4,-1.5301901E-3,-1.5855953E-4,2.452781E-4,1.0955483E-4,4.672572E-4,3.0486653E0,1.9439188E1,-8.17053E-5,-6.8247074E-4,2.3645014E-4,9.05633E-4,1.1051476E-3,7.753735E1,7.532174E1,6.284083E-4,-2.233236E-3,-1.0762879E-3,-3.1582664E-3,-8.3339814E-4,-6.857851E-4,-1.9387752E-4,-2.7370205E-4,9.0877715E-5,1.15867704E-4,-5.810112E-5],"split_indices":[25,6,0,37,6,31,26,37,7,0,0,31,0,33,16,35,0,16,16,6,16,6,16,16,6,0,0,0,0,0,0,12,26,0,0,0,0,25,6,6,0,0,0,0,0,0,0,0,0,0,0],"split_type":[0,0,0,0,0,0,0,0,0,0,0,0,0,0,0,0,0,0,0,0,0,0,0,0,0,0,0,0,0,0,0,0,0,0,0,0,0,0,0,0,0,0,0,0,0,0,0,0,0,0,0],"sum_hessian":[1.15E2,1.12E2,3E0,3.2E1,8E1,1.9E1,1.3E1,5.8E1,2.2E1,8E0,1.1E1,8E0,5E0,5.3E1,5E0,1.8E1,4E0,5E0,3E0,2E0,5.1E1,3E0,2E0,1.4E1,4E0,1E0,4E0,1E0,2E0,1E0,1E0,2.4E1,2.7E1,1E0,2E0,1E0,1E0,7E0,7E0,2E0,2E0,2E1,4E0,2.6E1,1E0,6E0,1E0,5E0,2E0,1E0,1E0],"tree_param":{"num_deleted":"0","num_feature":"60","num_nodes":"51","size_leaf_vector":"1"}},{"base_weights":[5.6908946E-3,-2.061274E-2,5.8323264E-1,1.1901127E-2,-3.2400433E-2,3.305399E-2,6.7961016E-3,-2.2910394E-2,3.0452408E-2,-4.154679E-2,-2.4267093E-3,-3.343774E-2,1.6308436E-2,4.574189E-2,1.6447596E-2,-4.9682517E-2,-1.708855E-2,-2.4884628E-2,1.4618956E-2,-6.2910543E-4,-2.0884268E-3,1.1163168E-3,1.06816E-4,4.5557544E-4,2.4590874E-3,2.2762962E-2,-1.8738732E-3,-2.2219727E-2,-5.324644E-2,-1.2044718E-3,-6.2013753E-3,-1.4464208E-3,-3.5771233E-4,-4.4175238E-5,1.610859E-2,1.6054169E-3,6.369442E-4,1.6384969E-4,-4.3316185E-4,-1.2470633E-3,-1.4726222E-4,-5.4415092E-2,-1.917243E-4,3.0353665E-6,-3.5523155E-4,2.3710231E-4,9.0537965E-4,-2.7995624E-3,-8.418739E-4],"categories":[],"categories_nodes":[],"categories_segments":[],"categories_sizes":[],"default_left":[0,0,0,0,0,0,0,0,0,0,0,0,0,0,0,0,0,0,0,0,0,0,0,0,0,0,0,0,0,0,0,0,0,0,0,0,0,0,0,0,0,0,0,0,0,0,0,0,0],"id":7,"left_children":[1,3,5,7,9,-1,-1,11,13,15,17,19,21,23,25,27,29,31,33,-1,-1,-1,-1,-1,-1,35,37,39,41,-1,43,-1,-1,-1,45,-1,-1,-1,-1,-1,-1,47,-1,-1,-1,-1,-1,-1,-1],"loss_changes":[1.7438469E0,4.2544592E-2,8.4254146E-2,2.0071628E-2,2.2105359E-2,0E0,0E0,5.0868895E-3,3.530182E-3,1.1488095E-2,8.01999E-3,1.0381592E-3,2.08163E-4,6.8590976E-4,1.4311362E-3,3.3191442E-3,1.1463496E-3,4.3831998E-4,2.9134774E-4,0E0,0E0,0E0,0E0,0E0,0E0,4.340848E-4,1.6827382E-4,2.9373565E-4,2.1011606E-3,0E0,4.56814E-5,0E0,0E0,0E0,1.6407226E-4,0E0,0E0,0E0,0E0,0E0,0E0,1.3671517E-3,0E0,0E0,0E0,0E0,0E0,0E0,0E0],"parents":[2147483647,0,0,1,1,2,2,3,3,4,4,7,7,8,8,9,9,10,10,11,11,12,12,13,13,14,14,15,15,16,16,17,17,18,18,25,25,26,26,27,27,28,28,30,30,34,34,41,41],"right_children":[2,4,6,8,10,-1,-1,12,14,16,18,20,22,24,26,28,30,32,34,-1,-1,-1,-1,-1,-1,36,38,40,42,-1,44,-1,-1,-1,46,-1,-1,-1,-1,-1,-1,48,-1,-1,-1,-1,-1,-1,-1],"split_conditions":[4.990832E1,1.16E0,2.1233103E1,1.2434224E1,2.2416525E1,3.305399E-2,6.7961016E-3,1.52E0,1.24E0,2.348149E0,2.4049124E-2,6.252772E-1,1.784227E-2,1.3379867E1,1.2505545E-1,3.8516274E-1,1.8158688E1,2.2331329E-2,5.0745693E1,-6.2910543E-4,-2.0884268E-3,1.1163168E-3,1.06816E-4,4.5557544E-4,2.4590874E-3,2.9729475E1,2.5249531E0,3.8280234E-1,3.9990356E1,-1.2044718E-3,-7.7826834E0,-1.4464208E-3,-3.5771233E-4,-4.4175238E-5,2.6053216E-2,1.6054169E-3,6.369442E-4,1.6384969E-4,-4.3316185E-4,-1.2470633E-3,-1.4726222E-4,3.88E0,-1.917243E-4,3.0353665E-6,-3.5523155E-4,2.3710231E-4,9.0537965E-4,-2.7995624E-3,-8.418739E-4],"split_indices":[8,37,13,13,17,0,0,46,38,4,4,5,4,13,4,4,13,4,13,0,0,0,0,0,0,31,4,4,8,0,35,0,0,0,4,0,0,0,0,0,0,37,0,0,0,0,0,0,0],"split_type":[0,0,0,0,0,0,0,0,0,0,0,0,0,0,0,0,0,0,0,0,0,0,0,0,0,0,0,0,0,0,0,0,0,0,0,0,0,0,0,0,0,0,0,0,0,0,0,0,0],"sum_hessian":[1.13E2,1.09E2,4E0,2.9E1,8E1,3E0,1E0,1E1,1.9E1,6.1E1,1.9E1,8E0,2E0,8E0,1.1E1,4.5E1,1.6E1,8E0,1.1E1,3E0,5E0,1E0,1E0,1E0,7E0,8E0,3E0,6E0,3.9E1,9E0,7E0,6E0,2E0,1E0,1E1,3E0,5E0,2E0,1E0,5E0,1E0,3.8E1,1E0,1E0,6E0,2E0,8E0,3.6E1,2E0],"tree_param":{"num_deleted":"0","num_feature":"60","num_nodes":"49","size_leaf_vector":"1"}},{"base_weights":[1.6027843E-3,-1.4791123E-2,3.0655384E-2,-1.8623687E-2,9.334406E-2,1.3503315E-2,-3.0994743E-2,1.8054715E-3,6.6261995E-3,2.9835556E-2,1.6179226E-3,-4.2472992E-2,-8.571043E-3,1.8211158E-3,8.040309E-4,1.3162148E-2,-1.5900657E-2,-4.8930414E-2,-8.408688E-4,-2.0155085E-2,8.553937E-3,7.093714E-4,4.7101825E-5,-1.0914992E-3,1.2582144E-3,-1.1826128E-3,-5.1498875E-2,-8.24291E-3,1.4243503E-2,-5.014092E-4,-2.433077E-2,-1.0842085E-3,2.2264183E-2,-1.456529E-4,2.4001897E-4,-7.761533E-4,-2.649192E-3,-6.3165877E-4,-1.4447421E-4,2.0790473E-4,8.6035806E-4,-3.295511E-4,4.4418575E-4,-6.518066E-4,-1.3772508E-3,-2.3759603E-4,1.885742E-4,3.2152087E-4,1.230751E-3],"categories":[],"categories_nodes":[],"categories_segments":[],"categories_sizes":[],"default_left":[0,0,0,0,0,0,0,0,0,0,0,0,0,0,0,0,0,0,0,0,0,0,0,0,0,0,0,0,0,0,0,0,0,0,0,0,0,0,0,0,0,0,0,0,0,0,0,0,0],"id":8,"left_children":[1,3,-1,5,7,9,11,-1,-1,13,15,17,19,-1,-1,21,23,25,27,29,31,-1,-1,-1,33,-1,35,37,39,41,43,45,47,-1,-1,-1,-1,-1,-1,-1,-1,-1,-1,-1,-1,-1,-1,-1,-1],"loss_changes":[1.1519134E0,4.8155155E-2,0E0,4.3740027E-2,4.1844286E-3,5.9692967E-3,1.9969359E-2,0E0,0E0,5.921116E-4,4.051817E-3,1.3938338E-2,5.7269465E-3,0E0,0E0,1.3698312E-4,8.4139104E-4,1.7036125E-3,1.010649E-3,1.3829502E-3,1.6098351E-3,0E0,0E0,0E0,5.8309786E-5,0E0,1.3144314E-3,1.0451436E-4,1.8120045E-5,2.871598E-4,1.4917087E-4,1.6039606E-4,2.7828151E-5,0E0,0E0,0E0,0E0,0E0,0E0,0E0,0E0,0E0,0E0,0E0,0E0,0E0,0E0,0E0,0E0],"parents":[2147483647,0,0,1,1,3,3,4,4,5,5,6,6,9,9,10,10,11,11,12,12,15,15,16,16,17,17,18,18,19,19,20,20,24,24,26,26,27,27,28,28,29,29,30,30,31,31,32,32],"right_children":[2,4,-1,6,8,10,12,-1,-1,14,16,18,20,-1,-1,22,24,26,28,30,32,-1,-1,-1,34,-1,36,38,40,42,44,46,48,-1,-1,-1,-1,-1,-1,-1,-1,-1,-1,-1,-1,-1,-1,-1,-1],"split_conditions":[7.851167E1,7.5194595E1,3.0655384E-2,1.0082961E1,6.524983E1,2.302227E1,6.768757E1,1.8054715E-3,6.6261995E-3,1.12188065E2,4.18E0,4.02E0,4.7863457E1,1.8211158E-3,8.040309E-4,6.569509E0,6.024E1,1.08E0,5.528479E1,2.276473E0,1.0100404E1,7.093714E-4,4.7101825E-5,-1.0914992E-3,9.42327E1,-1.1826128E-3,-3.4457288E0,7.394579E0,5.999846E1,2.2904585E-1,6.252772E-1,3.1262144E1,6.252772E-1,-1.456529E-4,2.4001897E-4,-7.761533E-4,-2.649192E-3,-6.3165877E-4,-1.4447421E-4,2.0790473E-4,8.6035806E-4,-3.295511E-4,4.4418575E-4,-6.518066E-4,-1.3772508E-3,-2.3759603E-4,1.885742E-4,3.2152087E-4,1.230751E-3],"split_indices":[5,7,0,6,5,17,6,0,0,16,37,37,16,0,0,5,31,47,13,33,7,0,0,0,13,0,35,5,13,5,5,13,5,0,0,0,0,0,0,0,0,0,0,0,0,0,0,0,0],"split_type":[0,0,0,0,0,0,0,0,0,0,0,0,0,0,0,0,0,0,0,0,0,0,0,0,0,0,0,0,0,0,0,0,0,0,0,0,0,0,0,0,0,0,0,0,0,0,0,0,0],"sum_hessian":[1.13E2,1.11E2,2E0,1.08E2,3E0,3E1,7.8E1,2E0,1E0,1.2E1,1.8E1,5.1E1,2.7E1,7E0,5E0,1.1E1,7E0,4.4E1,7E0,1.6E1,1.1E1,1E1,1E0,5E0,2E0,5E0,3.9E1,5E0,2E0,3E0,1.3E1,7E0,4E0,1E0,1E0,2E0,3.7E1,2E0,3E0,1E0,1E0,2E0,1E0,4E0,9E0,4E0,3E0,1E0,3E0],"tree_param":{"num_deleted":"0","num_feature":"60","num_nodes":"49","size_leaf_vector":"1"}},{"base_weights":[2.3051032E-3,-1.9411568E-2,3.1032696E-2,9.803563E-3,-2.9962253E-2,-1.8490493E-2,2.2218881E-2,-3.844593E-2,-8.921817E-4,-2.9020406E-2,1.5752772E-2,-4.1409433E-4,2.4065675E-2,-4.5675036E-2,-1.3452115E-2,-2.4902957E-2,1.1176934E-2,-5.850997E-4,-1.8535529E-3,1.0428809E-3,1.3857707E-4,2.7613707E-2,2.0831078E-3,-4.7691844E-2,-1.0558739E-2,-1.951037E-2,-1.0329485E-4,-1.3374252E-3,-3.4574195E-4,-9.209563E-5,1.3500233E-2,3.297248E-2,5.700372E-4,-5.053431E-5,1.725634E-4,-2.6555479E-2,-5.1999E-2,-1.3996885E-4,-6.106034E-4,-1.0647895E-3,-3.825327E-4,4.279122E-4,-3.5472512E-3,-1.4201179E-4,1.5243934E-2,1.7337622E-3,3.1348318E-4,-1.4484818E-3,-1.2070164E-4,-7.0767925E-4,-2.6319658E-3,-2.1916405E-4,-5.078316E-6,8.763222E-4,1.6575457E-4],"categories":[],"categories_nodes":[],"categories_segments":[],"categories_sizes":[],"default_left":[0,0,0,0,0,0,0,0,0,0,0,0,0,0,0,0,0,0,0,0,0,0,0,0,0,0,0,0,0,0,0,0,0,0,0,0,0,0,0,0,0,0,0,0,0,0,0,0,0,0,0,0,0,0,0],"id":9,"left_children":[1,3,-1,5,7,9,11,13,15,17,19,-1,21,23,25,27,29,-1,-1,-1,-1,31,33,35,37,39,41,-1,-1,-1,43,45,-1,-1,-1,47,49,-1,-1,-1,-1,-1,51,-1,53,-1,-1,-1,-1,-1,-1,-1,-1,-1,-1],"loss_changes":[1.5831798E0,3.5433058E-2,0E0,1.130051E-2,2.0681873E-2,4.062938E-3,1.4385385E-3,1.112996E-2,6.074115E-3,6.815903E-4,1.4099374E-4,0E0,1.5803697E-3,3.0375794E-3,1.2919134E-3,4.7423877E-5,4.4832006E-4,0E0,0E0,0E0,0E0,1.1879578E-3,2.0419371E-5,2.8979108E-3,1.7128914E-5,6.999355E-5,2.09338E-4,0E0,0E0,0E0,3.8521085E-4,3.7368946E-4,0E0,0E0,0E0,5.128784E-4,1.758188E-4,0E0,0E0,0E0,0E0,0E0,1.3958284E-5,0E0,2.41403E-4,0E0,0E0,0E0,0E0,0E0,0E0,0E0,0E0,0E0,0E0],"parents":[2147483647,0,0,1,1,3,3,4,4,5,5,6,6,7,7,8,8,9,9,10,10,12,12,13,13,14,14,15,15,16,16,21,21,22,22,23,23,24,24,25,25,26,26,30,30,31,31,35,35,36,36,42,42,44,44],"right_children":[2,4,-1,6,8,10,12,14,16,18,20,-1,22,24,26,28,30,-1,-1,-1,-1,32,34,36,38,40,42,-1,-1,-1,44,46,-1,-1,-1,48,50,-1,-1,-1,-1,-1,52,-1,54,-1,-1,-1,-1,-1,-1,-1,-1,-1,-1],"split_conditions":[4.990832E1,1.14E0,3.1032696E-2,1.0466947E1,1.5615327E1,1.52E0,-3.0257986E0,2.348149E0,2.3158414E-2,6.252772E-1,1.784227E-2,-4.1409433E-4,3.3154427E-3,3.88E0,2.2586756E1,2.2331329E-2,5.528479E1,-5.850997E-4,-1.8535529E-3,1.0428809E-3,1.3857707E-4,2.6484722E1,5.539081E-1,1.14E0,3.8516274E-1,1.8158688E1,1.1462236E-2,-1.3374252E-3,-3.4574195E-4,-9.209563E-5,2.4049124E-2,3.1412456E0,5.700372E-4,-5.053431E-5,1.725634E-4,2.1340656E1,3.8280234E-1,-1.3996885E-4,-6.106034E-4,-1.0647895E-3,-3.825327E-4,4.279122E-4,2.5845785E0,-1.4201179E-4,4.089491E0,1.7337622E-3,3.1348318E-4,-1.4484818E-3,-1.2070164E-4,-7.0767925E-4,-2.6319658E-3,-2.1916405E-4,-5.078316E-6,8.763222E-4,1.6575457E-4],"split_indices":[8,37,0,13,33,46,33,4,4,5,4,0,58,37,13,4,13,0,0,0,0,26,5,38,4,13,5,0,0,0,4,4,0,0,0,5,4,0,0,0,0,0,4,0,57,0,0,0,0,0,0,0,0,0,0],"split_type":[0,0,0,0,0,0,0,0,0,0,0,0,0,0,0,0,0,0,0,0,0,0,0,0,0,0,0,0,0,0,0,0,0,0,0,0,0,0,0,0,0,0,0,0,0,0,0,0,0,0,0,0,0,0,0],"sum_hessian":[1.16E2,1.13E2,3E0,3E1,8.3E1,9E0,2.1E1,6.4E1,1.9E1,7E0,2E0,1E0,2E1,4.9E1,1.5E1,6E0,1.3E1,3E0,4E0,1E0,1E0,1.7E1,3E0,4.6E1,3E0,1E1,5E0,5E0,1E0,2E0,1.1E1,1.2E1,5E0,1E0,2E0,9E0,3.7E1,1E0,2E0,8E0,2E0,1E0,4E0,1E0,1E1,1.1E1,1E0,8E0,1E0,1E0,3.6E1,3E0,1E0,8E0,2E0],"tree_param":{"num_deleted":"0","num_feature":"60","num_nodes":"55","size_leaf_vector":"1"}},{"base_weights":[4.4209813E-3,-1.70602E-2,5.2338135E-1,1.0631491E-2,-2.6716577E-2,2.9868973E-2,5.6847273E-3,-2.0547226E-2,2.3725217E-2,-3.6092117E-2,5.7000417E-4,1.5358955E-2,-3.144364E-2,4.2428143E-2,1.28909275E-2,-4.139587E-2,-5.3279507E-3,-2.2229996E-2,1.3359379E-2,1.016809E-3,1.3511255E-4,-1.8179074E-3,-5.5667065E-4,3.8973763E-4,2.3131117E-3,4.8078E-3,2.5561506E-2,-4.2938717E-2,-1.0218449E-2,-8.34422E-3,5.4968395E-3,-1.2931968E-3,-3.170401E-4,-8.902599E-5,1.5649403E-2,-6.0401657E-3,7.889588E-3,3.4803973E-4,1.3944745E-3,-3.1073043E-2,-5.0125334E-2,-1.364693E-4,-5.902504E-4,-5.273921E-4,-2.2358776E-4,4.1721464E-4,-4.951656E-6,5.130397E-4,1.9572182E-2,-4.0374175E-4,-4.927069E-5,8.108815E-5,4.724358E-4,-1.6135741E-3,-1.17684154E-4,-2.6066764E-3,-1.1517302E-3,1.985632E-4,1.0755229E-3],"categories":[],"categories_nodes":[],"categories_segments":[],"categories_sizes":[],"default_left":[0,0,0,0,0,0,0,0,0,0,0,0,0,0,0,0,0,0,0,0,0,0,0,0,0,0,0,0,0,0,0,0,0,0,0,0,0,0,0,0,0,0,0,0,0,0,0,0,0,0,0,0,0,0,0,0,0,0,0],"id":10,"left_children":[1,3,5,7,9,-1,-1,11,13,15,17,19,21,23,25,27,29,31,33,-1,-1,-1,-1,-1,-1,35,37,39,41,43,45,-1,-1,-1,47,49,51,-1,-1,53,55,-1,-1,-1,-1,-1,-1,-1,57,-1,-1,-1,-1,-1,-1,-1,-1,-1,-1],"loss_changes":[1.4024142E0,3.26396E-2,8.366144E-2,1.3551345E-2,2.3044966E-2,0E0,0E0,4.3954276E-3,4.1136183E-3,1.0711528E-2,7.2953254E-3,1.3403234E-4,3.937278E-4,7.0169754E-4,1.515792E-3,2.303049E-3,4.0502212E-4,3.5566557E-4,5.8259536E-4,0E0,0E0,0E0,0E0,0E0,0E0,4.1539696E-4,6.567966E-5,3.0472577E-3,1.5306927E-5,2.9633578E-5,4.862831E-5,0E0,0E0,0E0,9.5110154E-5,2.2897184E-5,7.2627445E-5,0E0,0E0,7.156674E-4,5.4004043E-4,0E0,0E0,0E0,0E0,0E0,0E0,0E0,1.2624869E-4,0E0,0E0,0E0,0E0,0E0,0E0,0E0,0E0,0E0,0E0],"parents":[2147483647,0,0,1,1,2,2,3,3,4,4,7,7,8,8,9,9,10,10,11,11,12,12,13,13,14,14,15,15,16,16,17,17,18,18,25,25,26,26,27,27,28,28,29,29,30,30,34,34,35,35,36,36,39,39,40,40,48,48],"right_children":[2,4,6,8,10,-1,-1,12,14,16,18,20,22,24,26,28,30,32,34,-1,-1,-1,-1,-1,-1,36,38,40,42,44,46,-1,-1,-1,48,50,52,-1,-1,54,56,-1,-1,-1,-1,-1,-1,-1,58,-1,-1,-1,-1,-1,-1,-1,-1,-1,-1],"split_conditions":[4.990832E1,1.16E0,2.1233103E1,1.2434224E1,3.34E0,2.9868973E-2,5.6847273E-3,5.839154E0,1.24E0,2.4592576E0,2.4049124E-2,1.784227E-2,2.5860815E0,1.3379867E1,1.0737247E1,3.88E0,6.580383E1,2.2331329E-2,5.528479E1,1.016809E-3,1.3511255E-4,-1.8179074E-3,-5.5667065E-4,3.8973763E-4,2.3131117E-3,2.298639E0,1.1462236E-2,5.090686E1,3.8516274E-1,2.2586756E1,3.1412456E0,-1.2931968E-3,-3.170401E-4,-8.902599E-5,3.6781013E-2,2.529422E0,5.539081E-1,3.4803973E-4,1.3944745E-3,3.9990356E1,3.34E0,-1.364693E-4,-5.902504E-4,-5.273921E-4,-2.2358776E-4,4.1721464E-4,-4.951656E-6,5.130397E-4,5.999846E1,-4.0374175E-4,-4.927069E-5,8.108815E-5,4.724358E-4,-1.6135741E-3,-1.17684154E-4,-2.6066764E-3,-1.1517302E-3,1.985632E-4,1.0755229E-3],"split_indices":[8,37,13,13,47,0,0,17,38,4,4,4,4,13,49,37,7,4,13,0,0,0,0,0,0,49,5,16,4,13,4,0,0,0,4,4,7,0,0,8,37,0,0,0,0,0,0,0,13,0,0,0,0,0,0,0,0,0,0],"split_type":[0,0,0,0,0,0,0,0,0,0,0,0,0,0,0,0,0,0,0,0,0,0,0,0,0,0,0,0,0,0,0,0,0,0,0,0,0,0,0,0,0,0,0,0,0,0,0,0,0,0,0,0,0,0,0,0,0,0,0],"sum_hessian":[1.24E2,1.2E2,4E0,3.1E1,8.9E1,3E0,1E0,9E0,2.2E1,6.6E1,2.3E1,2E0,7E0,7E0,1.5E1,5.6E1,1E1,8E0,1.5E1,1E0,1E0,5E0,2E0,1E0,6E0,1E1,5E0,5.3E1,3E0,8E0,2E0,6E0,2E0,2E0,1.3E1,2E0,8E0,1E0,4E0,2.2E1,3.1E1,1E0,2E0,4E0,4E0,1E0,1E0,7E0,6E0,1E0,1E0,2E0,6E0,2.1E1,1E0,2.8E1,3E0,1E0,5E0],"tree_param":{"num_deleted":"0","num_feature":"60","num_nodes":"59","size_leaf_vector":"1"}},{"base_weights":[4.271098E-3,-1.5087617E-2,4.641543E-1,-2.228568E-2,1.7662283E-2,5.215153E-4,2.8748885E-2,-3.4057565E-2,-1.9575043E-3,2.4972932E-2,4.3276846E-3,-6.4406153E-3,-4.2734448E-2,-9.582303E-3,3.2089107E-2,1.6472338E-3,8.441834E-4,-3.0647218E-4,8.1910705E-3,-1.595276E-2,1.2071754E-2,-1.3084911E-2,-4.4458624E-2,1.6321033E-2,-1.1931535E-2,6.879902E-4,2.5970787E-3,6.304458E-5,4.5679757E-4,-1.8708175E-2,2.9003472E-4,1.1309524E-3,1.1433437E-3,-7.958328E-4,-1.14741924E-4,-4.7258303E-2,-1.1454568E-3,1.3173446E-4,1.092343E-3,-1.1865685E-3,-7.0983428E-3,-1.1272638E-3,-1.1199266E-4,1.9359887E-4,-5.2842992E-5,-4.055582E-4,-2.4048558E-3,-5.1399315E-4,5.9387512E-5],"categories":[],"categories_nodes":[],"categories_segments":[],"categories_sizes":[],"default_left":[0,0,0,0,0,0,0,0,0,0,0,0,0,0,0,0,0,0,0,0,0,0,0,0,0,0,0,0,0,0,0,0,0,0,0,0,0,0,0,0,0,0,0,0,0,0,0,0,0],"id":11,"left_children":[1,3,5,7,9,-1,-1,11,13,15,17,19,21,23,25,-1,-1,-1,27,29,31,33,35,37,39,-1,-1,-1,-1,41,-1,-1,43,-1,-1,45,-1,-1,-1,-1,47,-1,-1,-1,-1,-1,-1,-1,-1],"loss_changes":[1.102041E0,2.8446179E-2,2.4541903E-1,2.3384824E-2,2.0365855E-3,0E0,0E0,1.458177E-2,9.912634E-3,3.465712E-4,4.13806E-4,3.0100553E-3,1.8209442E-3,2.0811758E-3,1.8324666E-3,0E0,0E0,0E0,3.4317956E-5,7.67858E-4,6.657297E-4,8.5692736E-5,1.5719458E-3,1.6932545E-4,1.4854418E-3,0E0,0E0,0E0,0E0,5.8140745E-4,0E0,0E0,2.8106337E-5,0E0,0E0,8.576885E-4,0E0,0E0,0E0,0E0,5.921819E-4,0E0,0E0,0E0,0E0,0E0,0E0,0E0,0E0],"parents":[2147483647,0,0,1,1,2,2,3,3,4,4,7,7,8,8,9,9,10,10,11,11,12,12,13,13,14,14,18,18,19,19,20,20,21,21,22,22,23,23,24,24,29,29,32,32,35,35,40,40],"right_children":[2,4,6,8,10,-1,-1,12,14,16,18,20,22,24,26,-1,-1,-1,28,30,32,34,36,38,40,-1,-1,-1,-1,42,-1,-1,44,-1,-1,46,-1,-1,-1,-1,48,-1,-1,-1,-1,-1,-1,-1,-1],"split_conditions":[4.990832E1,3.88E0,1.1051476E-3,2.2809072E0,5.963E1,5.215153E-4,2.8748885E-2,3.8516274E-1,7.299468E1,1.6700727E-1,2.4049124E-2,1.1051476E-3,-2.5135138E0,2.326417E0,7.5194595E1,1.6472338E-3,8.441834E-4,-3.0647218E-4,2.5011089E-2,2.6507723E1,2.413888E1,4.6317234E1,8.079187E0,2.2811651E0,2.4592576E0,6.879902E-4,2.5970787E-3,6.304458E-5,4.5679757E-4,3.8280234E-1,2.9003472E-4,1.1309524E-3,2.4303564E1,-7.958328E-4,-1.14741924E-4,3.8870595E0,-1.1454568E-3,1.3173446E-4,1.092343E-3,-1.1865685E-3,1.5783614E1,-1.1272638E-3,-1.1199266E-4,1.9359887E-4,-5.2842992E-5,-4.055582E-4,-2.4048558E-3,-5.1399315E-4,5.9387512E-5],"split_indices":[8,46,25,4,31,0,0,4,7,17,4,8,55,4,7,0,0,0,4,17,17,7,18,4,4,0,0,0,0,4,0,0,17,0,0,32,0,0,0,0,39,0,0,0,0,0,0,0,0],"split_type":[0,0,0,0,0,0,0,0,0,0,0,0,0,0,0,0,0,0,0,0,0,0,0,0,0,0,0,0,0,0,0,0,0,0,0,0,0,0,0,0,0,0,0,0,0,0,0,0,0],"sum_hessian":[1.22E2,1.18E2,4E0,9.7E1,2.1E1,1E0,3E0,6.1E1,3.6E1,1.3E1,8E0,1.5E1,4.6E1,3E1,6E0,5E0,8E0,2E0,6E0,1E1,5E0,3E0,4.3E1,2E0,2.8E1,4E0,2E0,1E0,5E0,9E0,1E0,2E0,3E0,2E0,1E0,3.7E1,6E0,1E0,1E0,7E0,2.1E1,7E0,2E0,1E0,2E0,1E0,3.6E1,1.5E1,6E0],"tree_param":{"num_deleted":"0","num_feature":"60","num_nodes":"49","size_leaf_vector":"1"}},{"base_weights":[-2.097127E-4,-1.3317342E-2,2.664519E-2,-1.7689541E-2,6.1038736E-2,-2.7217198E-2,1.1831949E-2,4.86296E-3,1.3549358E-3,-1.5604617E-2,-3.5336036E-2,2.452016E-2,1.4332024E-3,-1.7383489E-3,-6.5100645E-3,-4.122514E-2,-1.0173383E-2,1.5062309E-3,7.706412E-4,-1.3114363E-2,5.2802265E-4,-9.900759E-3,1.5461616E-2,-4.584001E-2,-1.6458802E-2,-1.1049028E-3,3.446852E-3,-9.850669E-4,2.2353828E-3,-3.300482E-4,-1.5399501E-3,9.4514684E-4,1.284413E-4,-7.471348E-4,-2.3652066E-3,-9.0853916E-4,-1.1187345E-4,4.4213585E-4,-7.308796E-5,-1.2287423E-4,2.9052794E-4],"categories":[],"categories_nodes":[],"categories_segments":[],"categories_sizes":[],"default_left":[0,0,0,0,0,0,0,0,0,0,0,0,0,0,0,0,0,0,0,0,0,0,0,0,0,0,0,0,0,0,0,0,0,0,0,0,0,0,0,0,0],"id":12,"left_children":[1,3,-1,5,7,9,11,-1,-1,13,15,17,19,-1,21,23,25,-1,-1,27,-1,29,31,33,35,-1,37,-1,39,-1,-1,-1,-1,-1,-1,-1,-1,-1,-1,-1,-1],"loss_changes":[8.7359077E-1,4.0741906E-2,0E0,3.2949425E-2,5.969662E-3,7.7452958E-3,3.7911609E-3,0E0,0E0,6.3960413E-3,7.1380585E-3,1.9923598E-4,2.3957414E-3,0E0,2.1645618E-3,3.9315596E-3,1.8627538E-3,0E0,0E0,7.5179886E-4,0E0,1.4517347E-3,1.289146E-4,8.312166E-4,1.5411666E-4,0E0,1.7184313E-4,0E0,6.461284E-5,0E0,0E0,0E0,0E0,0E0,0E0,0E0,0E0,0E0,0E0,0E0,0E0],"parents":[2147483647,0,0,1,1,3,3,4,4,5,5,6,6,9,9,10,10,11,11,12,12,14,14,15,15,16,16,19,19,21,21,22,22,23,23,24,24,26,26,28,28],"right_children":[2,4,-1,6,8,10,12,-1,-1,14,16,18,20,-1,22,24,26,-1,-1,28,-1,30,32,34,36,-1,38,-1,40,-1,-1,-1,-1,-1,-1,-1,-1,-1,-1,-1,-1],"split_conditions":[8.7811584E1,7.509962E1,2.664519E-2,3.6E0,1.12E0,1.58E0,2.302227E1,4.86296E-3,1.3549358E-3,5.951307E0,3.34E0,1.12188065E2,4.26E0,-1.7383489E-3,1.4086908E0,2.8433542E1,5.9633684E-1,1.5062309E-3,7.706412E-4,6.024E1,5.2802265E-4,1.74E0,1.5869425E1,9.31717E-1,5.165681E1,-1.1049028E-3,1.5368061E1,-9.850669E-4,9.42327E1,-3.300482E-4,-1.5399501E-3,9.4514684E-4,1.284413E-4,-7.471348E-4,-2.3652066E-3,-9.0853916E-4,-1.1187345E-4,4.4213585E-4,-7.308796E-5,-1.2287423E-4,2.9052794E-4],"split_indices":[7,7,0,46,46,37,17,0,0,13,37,16,47,0,12,7,12,0,0,31,0,47,7,55,7,0,32,0,13,0,0,0,0,0,0,0,0,0,0,0,0],"split_type":[0,0,0,0,0,0,0,0,0,0,0,0,0,0,0,0,0,0,0,0,0,0,0,0,0,0,0,0,0,0,0,0,0,0,0,0,0,0,0,0,0],"sum_hessian":[1.23E2,1.21E2,2E0,1.15E2,6E0,8.7E1,2.8E1,2E0,4E0,3.7E1,5E1,1.2E1,1.6E1,1.1E1,2.6E1,4E1,1E1,6E0,6E0,6E0,1E1,2.3E1,3E0,3.3E1,7E0,5E0,5E0,4E0,2E0,2.1E1,2E0,2E0,1E0,2E0,3.1E1,6E0,1E0,2E0,3E0,1E0,1E0],"tree_param":{"num_deleted":"0","num_feature":"60","num_nodes":"41","size_leaf_vector":"1"}},{"base_weights":[6.9125686E-3,-1.3444341E-2,4.6966758E-1,1.1936989E-2,-2.3067934E-2,2.7003068E-2,4.7023133E-3,-9.665877E-3,2.2195831E-2,-2.9530775E-2,1.9106998E-3,-2.2416122E-2,1.8251084E-2,2.1309922E-3,1.5289392E-2,-3.589712E-2,-9.069119E-3,-8.8706566E-4,1.0833883E-2,-1.5536643E-3,-5.5035827E-4,1.1332523E-3,1.252301E-4,1.3887341E-3,9.738262E-3,-3.742454E-2,-8.975714E-3,-1.3773127E-2,-3.8151655E-4,-8.087556E-5,1.3244819E-2,5.149047E-4,1.123258E-2,-2.0844853E-2,-4.0802754E-2,-1.2843088E-4,-5.1276037E-4,-1.2806132E-4,-7.3190976E-4,-3.0973454E-3,3.978364E-4,7.6866704E-3,9.1886317E-4,6.5555425E-5,-2.6937574E-5,6.5555425E-5,6.0076703E-4,-1.1338082E-3,-1.090765E-4,-2.1238222E-3,-1.0630563E-3,-1.8661619E-4,1.9386412E-6,4.4237575E-4,1.8040091E-5],"categories":[],"categories_nodes":[],"categories_segments":[],"categories_sizes":[],"default_left":[0,0,0,0,0,0,0,0,0,0,0,0,0,0,0,0,0,0,0,0,0,0,0,0,0,0,0,0,0,0,0,0,0,0,0,0,0,0,0,0,0,0,0,0,0,0,0,0,0,0,0,0,0,0,0],"id":13,"left_children":[1,3,5,7,9,-1,-1,11,13,15,17,19,21,-1,23,25,27,-1,29,-1,-1,-1,-1,-1,31,33,35,37,39,-1,41,43,45,47,49,-1,-1,-1,-1,51,-1,53,-1,-1,-1,-1,-1,-1,-1,-1,-1,-1,-1,-1,-1],"loss_changes":[1.1179054E0,2.8120954E-2,8.141613E-2,7.3063946E-3,1.3455357E-2,0E0,0E0,4.3245475E-3,2.4516266E-3,8.271992E-3,3.3486604E-3,4.4812495E-4,2.2125035E-4,0E0,9.77057E-4,1.7201006E-3,6.8947684E-4,0E0,4.116773E-4,0E0,0E0,0E0,0E0,0E0,1.871729E-4,1.7819405E-3,6.4496417E-6,6.919773E-5,1.8316146E-4,0E0,1.7253566E-4,3.223137E-6,7.7440054E-5,2.9231468E-4,3.3974648E-4,0E0,0E0,0E0,0E0,1.2092911E-5,0E0,5.6337158E-5,0E0,0E0,0E0,0E0,0E0,0E0,0E0,0E0,0E0,0E0,0E0,0E0,0E0],"parents":[2147483647,0,0,1,1,2,2,3,3,4,4,7,7,8,8,9,9,10,10,11,11,12,12,14,14,15,15,16,16,18,18,24,24,25,25,26,26,27,27,28,28,30,30,31,31,32,32,33,33,34,34,39,39,41,41],"right_children":[2,4,6,8,10,-1,-1,12,14,16,18,20,22,-1,24,26,28,-1,30,-1,-1,-1,-1,-1,32,34,36,38,40,-1,42,44,46,48,50,-1,-1,-1,-1,52,-1,54,-1,-1,-1,-1,-1,-1,-1,-1,-1,-1,-1,-1,-1],"split_conditions":[4.990832E1,1.16E0,5.616479E1,4.2568188E1,1.5615327E1,2.7003068E-2,4.7023133E-3,1.52E0,1.0296639E1,2.348149E0,2.3158414E-2,2.255263E0,1.784227E-2,2.1309922E-3,1.6700727E-1,4.02E0,5.068883E1,-8.8706566E-4,9.028479E1,-1.5536643E-3,-5.5035827E-4,1.1332523E-3,1.252301E-4,1.3887341E-3,2.3660214E0,1.14E0,3.8516274E-1,7.830456E-1,7.299468E1,-8.087556E-5,4.14E0,2.5107245E0,5.539081E-1,2.0922558E1,3.34E0,-1.2843088E-4,-5.1276037E-4,-1.2806132E-4,-7.3190976E-4,2.5845785E0,3.978364E-4,3.6781013E-2,9.1886317E-4,6.5555425E-5,-2.6937574E-5,6.5555425E-5,6.0076703E-4,-1.1338082E-3,-1.090765E-4,-2.1238222E-3,-1.0630563E-3,-1.8661619E-4,1.9386412E-6,4.4237575E-4,1.8040091E-5],"split_indices":[8,37,16,16,33,0,0,46,39,4,4,4,4,0,17,37,16,0,16,0,0,0,0,0,49,38,4,7,7,0,37,4,7,7,37,0,0,0,0,4,0,4,0,0,0,0,0,0,0,0,0,0,0,0,0],"split_type":[0,0,0,0,0,0,0,0,0,0,0,0,0,0,0,0,0,0,0,0,0,0,0,0,0,0,0,0,0,0,0,0,0,0,0,0,0,0,0,0,0,0,0,0,0,0,0,0,0,0,0,0,0,0,0],"sum_hessian":[1.17E2,1.13E2,4E0,3.1E1,8.2E1,3E0,1E0,1E1,2.1E1,6.5E1,1.7E1,7E0,3E0,4E0,1.7E1,4.9E1,1.6E1,5E0,1.2E1,3E0,4E0,2E0,1E0,4E0,1.3E1,4.6E1,3E0,1E1,6E0,2E0,1E1,2E0,1.1E1,9E0,3.7E1,1E0,2E0,1E0,9E0,5E0,1E0,6E0,4E0,1E0,1E0,1E0,1E1,8E0,1E0,3.3E1,4E0,4E0,1E0,5E0,1E0],"tree_param":{"num_deleted":"0","num_feature":"60","num_nodes":"55","size_leaf_vector":"1"}},{"base_weights":[-3.0943784E-3,-1.3363643E-2,2.501484E-1,5.719526E-3,-2.2291774E-2,-2.0047277E-4,3.1469023E-1,2.0945461E-2,-7.7808625E-4,-3.913249E-2,-2.7886734E-3,1.7922845E-2,4.5847553E-3,1.40068E-3,4.6041957E-4,-9.859087E-3,1.2908255E-2,-7.447501E-3,-4.0433016E-2,-8.898054E-3,2.7283844E-2,-1.4291165E-2,9.225979E-3,2.5296957E-5,1.3989744E-2,-4.52213E-4,-1.0634959E-4,-3.5882296E-4,-4.105397E-2,5.5797426E-3,-1.4333251E-2,6.3023716E-4,2.1327198E-3,-1.997923E-2,-4.936346E-3,2.597918E-3,7.277541E-4,4.3094956E-4,8.514437E-4,-2.1131025E-3,-9.505853E-4,1.0263867E-3,1.6379952E-3,-1.9580519E-2,-4.504296E-3,-1.0925265E-3,-1.2522042E-4,-4.956305E-4,6.370023E-5,1.7589331E-5,1.7725454E-4,-3.7924873E-4,1.8694942E-4,-4.6061576E-4,-1.0632271E-3,-2.5065872E-4,1.8902123E-6],"categories":[],"categories_nodes":[],"categories_segments":[],"categories_sizes":[],"default_left":[0,0,0,0,0,0,0,0,0,0,0,0,0,0,0,0,0,0,0,0,0,0,0,0,0,0,0,0,0,0,0,0,0,0,0,0,0,0,0,0,0,0,0,0,0,0,0,0,0,0,0,0,0,0,0,0,0],"id":14,"left_children":[1,3,5,7,9,-1,11,13,15,17,19,-1,-1,-1,-1,21,23,25,27,29,31,33,35,-1,37,-1,-1,-1,39,41,43,-1,-1,45,47,49,-1,-1,-1,-1,-1,-1,51,53,55,-1,-1,-1,-1,-1,-1,-1,-1,-1,-1,-1,-1],"loss_changes":[3.3362123E-1,2.1083876E-2,8.32808E-2,3.9735865E-3,2.7480356E-2,0E0,6.170243E-3,7.375502E-4,3.7315483E-3,1.5531927E-3,7.591752E-3,0E0,0E0,0E0,0E0,1.654407E-3,1.5387754E-4,6.2496547E-6,5.933568E-4,2.7554242E-3,1.0417332E-3,6.9953804E-4,1.0347355E-4,0E0,3.277487E-5,0E0,0E0,0E0,3.1493604E-4,5.555878E-4,1.2011826E-3,0E0,0E0,2.395832E-4,2.289591E-4,5.1353054E-6,0E0,0E0,0E0,0E0,0E0,0E0,2.0275668E-4,8.3468854E-5,2.3303277E-5,0E0,0E0,0E0,0E0,0E0,0E0,0E0,0E0,0E0,0E0,0E0,0E0],"parents":[2147483647,0,0,1,1,2,2,3,3,4,4,6,6,7,7,8,8,9,9,10,10,15,15,16,16,17,17,18,18,19,19,20,20,21,21,22,22,24,24,28,28,29,29,30,30,33,33,34,34,35,35,42,42,43,43,44,44],"right_children":[2,4,6,8,10,-1,12,14,16,18,20,-1,-1,-1,-1,22,24,26,28,30,32,34,36,-1,38,-1,-1,-1,40,42,44,-1,-1,46,48,50,-1,-1,-1,-1,-1,-1,52,54,56,-1,-1,-1,-1,-1,-1,-1,-1,-1,-1,-1,-1],"split_conditions":[4.990832E1,3.8516274E-1,1.8041126E1,3E-1,2.2809072E0,-2.0047277E-4,4.22838E0,2.9729475E1,1.2250016E1,1.5155176E0,7.299468E1,1.7922845E-2,4.5847553E-3,1.40068E-3,4.6041957E-4,4.174358E0,2.5011089E-2,7.113552E-1,8.537487E0,8.9E-1,7.5194595E1,1.202877E1,7.514299E0,2.5296957E-5,3.2909326E-2,-4.52213E-4,-1.0634959E-4,-3.5882296E-4,8.71597E0,-3.5946186E1,1.5928395E1,6.3023716E-4,2.1327198E-3,3.8280234E-1,2.4049124E-2,3.360987E-1,7.277541E-4,4.3094956E-4,8.514437E-4,-2.1131025E-3,-9.505853E-4,1.0263867E-3,7.1370034E0,2.6414787E1,6.580383E1,-1.0925265E-3,-1.2522042E-4,-4.956305E-4,6.370023E-5,1.7589331E-5,1.7725454E-4,-3.7924873E-4,1.8694942E-4,-4.6061576E-4,-1.0632271E-3,-2.5065872E-4,1.8902123E-6],"split_indices":[8,4,13,37,4,0,4,31,49,33,7,0,0,0,0,8,4,4,51,37,7,55,8,0,4,0,0,0,53,46,13,0,0,4,4,4,0,0,0,0,0,0,13,16,7,0,0,0,0,0,0,0,0,0,0,0,0],"split_type":[0,0,0,0,0,0,0,0,0,0,0,0,0,0,0,0,0,0,0,0,0,0,0,0,0,0,0,0,0,0,0,0,0,0,0,0,0,0,0,0,0,0,0,0,0,0,0,0,0,0,0,0,0,0,0,0,0],"sum_hessian":[1.26E2,1.22E2,4E0,3.9E1,8.3E1,1E0,3E0,1.1E1,2.8E1,4.4E1,3.9E1,2E0,1E0,6E0,5E0,1.7E1,1.1E1,2E0,4.2E1,3.3E1,6E0,1.4E1,3E0,1E0,1E1,1E0,1E0,1E0,4.1E1,9E0,2.4E1,4E0,2E0,8E0,6E0,2E0,1E0,5E0,5E0,3.8E1,3E0,1E0,8E0,1.5E1,9E0,7E0,1E0,3E0,3E0,1E0,1E0,1E0,7E0,3E0,1.2E1,8E0,1E0],"tree_param":{"num_deleted":"0","num_feature":"60","num_nodes":"57","size_leaf_vector":"1"}},{"base_weights":[4.288041E-3,-1.4088995E-2,4.444793E-1,8.484907E-3,-2.4653547E-2,2.5544887E-2,4.470137E-3,-2.5582016E-3,1.5493442E-2,-3.648292E-2,-5.030061E-3,-1.236203E-2,1.1812725E-2,1.2770492E-3,1.1505091E-2,-1.0851435E-2,-3.7858814E-2,-8.592203E-3,7.961974E-4,-1.4836699E-2,2.477497E-4,1.0174528E-3,4.328382E-3,2.330184E-3,6.2237115E-4,-6.54302E-4,-1.0369048E-4,-3.9851785E-2,-1.726607E-2,3.575407E-3,-1.2818331E-2,-9.103694E-4,-1.0130952E-4,4.0965131E-4,-9.79056E-4,2.4664403E-5,1.500994E-4,-3.4985246E-4,-4.0467445E-2,-9.343734E-4,-2.5397688E-4,8.75473E-4,2.5101364E-4,-8.850911E-4,-4.340142E-3,1.7149747E-5,-9.057894E-5,-4.8585757E-4,-2.0490224E-3,7.899006E-5,-3.093779E-5,-2.445938E-4,1.8432737E-6],"categories":[],"categories_nodes":[],"categories_segments":[],"categories_sizes":[],"default_left":[0,0,0,0,0,0,0,0,0,0,0,0,0,0,0,0,0,0,0,0,0,0,0,0,0,0,0,0,0,0,0,0,0,0,0,0,0,0,0,0,0,0,0,0,0,0,0,0,0,0,0,0,0],"id":15,"left_children":[1,3,5,7,9,-1,-1,11,13,15,17,19,21,-1,23,25,27,29,-1,31,-1,-1,33,35,-1,-1,-1,37,39,41,43,-1,-1,-1,45,-1,-1,-1,47,-1,-1,49,-1,-1,51,-1,-1,-1,-1,-1,-1,-1,-1],"loss_changes":[1.0093492E0,2.882716E-2,7.22425E-2,3.05808E-3,1.8851437E-2,0E0,0E0,2.400271E-3,6.679036E-4,1.38776E-3,2.5253387E-3,5.020548E-4,3.5914325E-4,0E0,1.3526552E-4,5.132018E-5,1.2818724E-3,1.485643E-3,0E0,3.517305E-4,0E0,0E0,1.1057822E-4,2.221259E-6,0E0,0E0,0E0,5.8662146E-4,9.007985E-6,2.681322E-5,7.926377E-4,0E0,0E0,0E0,3.9232746E-6,0E0,0E0,0E0,2.643317E-4,0E0,0E0,5.187221E-6,0E0,0E0,2.1914835E-5,0E0,0E0,0E0,0E0,0E0,0E0,0E0,0E0],"parents":[2147483647,0,0,1,1,2,2,3,3,4,4,7,7,8,8,9,9,10,10,11,11,12,12,14,14,15,15,16,16,17,17,19,19,22,22,23,23,27,27,28,28,29,29,30,30,34,34,38,38,41,41,44,44],"right_children":[2,4,6,8,10,-1,-1,12,14,16,18,20,22,-1,24,26,28,30,-1,32,-1,-1,34,36,-1,-1,-1,38,40,42,44,-1,-1,-1,46,-1,-1,-1,48,-1,-1,50,-1,-1,52,-1,-1,-1,-1,-1,-1,-1,-1],"split_conditions":[4.990832E1,3.8516274E-1,2.1233103E1,3.88E0,2.2562523E0,2.5544887E-2,4.470137E-3,1.1051476E-3,1.6700727E-1,-2.5135138E0,7.299468E1,9.590412E1,2.413888E1,1.2770492E-3,2.6053216E-2,7.380524E0,3.34E0,8.9E-1,7.961974E-4,3.8280234E-1,2.477497E-4,1.0174528E-3,1.5368061E1,2.5011089E-2,6.2237115E-4,-6.54302E-4,-1.0369048E-4,3.8870595E0,4.174358E0,5.539081E-1,1.8158688E1,-9.103694E-4,-1.0130952E-4,4.0965131E-4,3.360987E-1,2.4664403E-5,1.500994E-4,-3.4985246E-4,-2.0173612E0,-9.343734E-4,-2.5397688E-4,2.5107245E0,2.5101364E-4,-8.850911E-4,6.580383E1,1.7149747E-5,-9.057894E-5,-4.8585757E-4,-2.0490224E-3,7.899006E-5,-3.093779E-5,-2.445938E-4,1.8432737E-6],"split_indices":[8,4,13,46,4,0,0,8,17,55,7,13,17,0,4,5,37,37,0,4,0,0,32,4,0,0,0,32,5,5,13,0,0,0,4,0,0,0,49,0,0,4,0,0,7,0,0,0,0,0,0,0,0],"split_type":[0,0,0,0,0,0,0,0,0,0,0,0,0,0,0,0,0,0,0,0,0,0,0,0,0,0,0,0,0,0,0,0,0,0,0,0,0,0,0,0,0,0,0,0,0,0,0,0,0,0,0,0,0],"sum_hessian":[1.23E2,1.19E2,4E0,3.8E1,8.1E1,3E0,1E0,1.5E1,2.3E1,5E1,3.1E1,9E0,6E0,5E0,1.8E1,3E0,4.7E1,2.7E1,4E0,8E0,1E0,2E0,4E0,2E0,1.6E1,2E0,1E0,4.2E1,5E0,7E0,2E1,6E0,2E0,2E0,2E0,1E0,1E0,1E0,4.1E1,4E0,1E0,3E0,4E0,1.2E1,8E0,1E0,1E0,1E0,4E1,2E0,1E0,7E0,1E0],"tree_param":{"num_deleted":"0","num_feature":"60","num_nodes":"53","size_leaf_vector":"1"}},{"base_weights":[7.406939E-3,-9.259309E-3,3.925825E-1,-1.275358E-2,4.6973426E-2,-1.0109842E-4,2.4586955E-2,4.392954E-3,-2.3005767E-2,1.3115877E-2,4.387243E-3,2.2574712E-2,-1.9943053E-3,-3.4074664E-2,-6.5633324E-3,1.2367842E-3,-8.340836E-4,1.2619721E-3,3.52781E-4,-8.663944E-3,1.1526273E-2,-3.630114E-2,-7.518351E-4,6.3435286E-3,-1.2688597E-2,-1.3466686E-2,1.0358715E-2,4.08818E-4,7.672265E-4,-3.7418507E-2,-5.768627E-4,-1.0716468E-3,1.3973033E-2,-1.7023692E-2,-2.2057507E-3,-8.132537E-4,1.96971E-5,1.1953513E-4,7.436911E-4,-4.2454974E-4,-1.9018898E-3,8.6118576E-5,-3.7604346E-4,1.11149995E-4,8.177396E-4,-4.761316E-4,-1.0066439E-3,3.5222992E-4,-2.460788E-4],"categories":[],"categories_nodes":[],"categories_segments":[],"categories_sizes":[],"default_left":[0,0,0,0,0,0,0,0,0,0,0,0,0,0,0,0,0,0,0,0,0,0,0,0,0,0,0,0,0,0,0,0,0,0,0,0,0,0,0,0,0,0,0,0,0,0,0,0,0],"id":16,"left_children":[1,3,5,7,9,-1,-1,11,13,15,-1,17,19,21,23,-1,-1,-1,-1,25,27,29,-1,31,33,35,37,-1,-1,39,-1,41,43,45,47,-1,-1,-1,-1,-1,-1,-1,-1,-1,-1,-1,-1,-1,-1],"loss_changes":[7.739668E-1,2.33922E-2,1.966325E-1,1.9437904E-2,8.5120965E-3,0E0,0E0,4.9225483E-3,1.2334332E-2,2.143841E-3,0E0,2.7681608E-4,2.985539E-3,1.192037E-3,2.3731706E-3,0E0,0E0,0E0,0E0,2.149438E-3,1.5236787E-5,5.644262E-4,0E0,5.807153E-4,8.713326E-4,7.045809E-4,1.4432339E-4,0E0,0E0,2.8611347E-4,0E0,1.2106921E-4,1.03571976E-4,1.3479264E-4,2.105268E-4,0E0,0E0,0E0,0E0,0E0,0E0,0E0,0E0,0E0,0E0,0E0,0E0,0E0,0E0],"parents":[2147483647,0,0,1,1,2,2,3,3,4,4,7,7,8,8,9,9,11,11,12,12,13,13,14,14,19,19,20,20,21,21,23,23,24,24,25,25,26,26,29,29,31,31,32,32,33,33,34,34],"right_children":[2,4,6,8,10,-1,-1,12,14,16,-1,18,20,22,24,-1,-1,-1,-1,26,28,30,-1,32,34,36,38,-1,-1,40,-1,42,44,46,48,-1,-1,-1,-1,-1,-1,-1,-1,-1,-1,-1,-1,-1,-1],"split_conditions":[3.5415974E1,5.7656487E1,1.8872705E0,3.8516274E-1,2.8047402E0,-1.0109842E-4,2.4586955E-2,3E-1,2.2562523E0,3.1412456E0,4.387243E-3,2.9729475E1,2.982E1,8.079187E0,8.9E-1,1.2367842E-3,-8.340836E-4,1.2619721E-3,3.52781E-4,4.174358E0,3.6781013E-2,4.174358E0,-7.518351E-4,9.860835E0,1.8158688E1,6.024E1,4.089491E0,4.08818E-4,7.672265E-4,0E0,-5.768627E-4,1.0100404E1,2.2811651E0,-2.5135138E0,1.1462236E-2,-8.132537E-4,1.96971E-5,1.1953513E-4,7.436911E-4,-4.2454974E-4,-1.9018898E-3,8.6118576E-5,-3.7604346E-4,1.11149995E-4,8.177396E-4,-4.761316E-4,-1.0066439E-3,3.5222992E-4,-2.460788E-4],"split_indices":[25,5,4,4,49,0,0,37,4,4,0,31,26,18,37,0,0,0,0,8,4,58,0,5,13,31,25,0,0,33,0,7,4,49,5,0,0,0,0,0,0,0,0,0,0,0,0,0,0],"split_type":[0,0,0,0,0,0,0,0,0,0,0,0,0,0,0,0,0,0,0,0,0,0,0,0,0,0,0,0,0,0,0,0,0,0,0,0,0,0,0,0,0,0,0,0,0,0,0,0,0],"sum_hessian":[1.19E2,1.15E2,4E0,1.09E2,6E0,1E0,3E0,4.1E1,6.8E1,4E0,2E0,1E1,3.1E1,4E1,2.8E1,3E0,1E0,8E0,2E0,2.1E1,1E1,3.5E1,5E0,9E0,1.9E1,1.7E1,4E0,7E0,3E0,3.3E1,2E0,5E0,4E0,1.3E1,6E0,1.4E1,3E0,2E0,2E0,1E0,3.2E1,4E0,1E0,1E0,3E0,5E0,8E0,1E0,5E0],"tree_param":{"num_deleted":"0","num_feature":"60","num_nodes":"49","size_leaf_vector":"1"}},{"base_weights":[6.6936277E-3,-9.046831E-3,2.3664944E-2,-1.2333948E-2,4.530903E-2,4.1935793E-3,-2.1803701E-2,4.241002E-3,1.2540621E-2,1.9477824E-2,-2.5693795E-3,-3.2054983E-2,-4.5497245E-3,1.1904043E-3,-8.132309E-4,1.2058842E-3,3.6152572E-4,-1.9563153E-2,3.4532107E-3,-3.414381E-2,-1.583795E-2,8.396457E-3,-1.014802E-2,-1.0485793E-3,-2.4260282E-4,-9.953011E-3,9.940496E-3,-3.508515E-2,-5.576342E-4,-8.4760314E-4,-2.2883192E-4,7.8707415E-4,2.1003634E-3,-8.0735714E-4,-2.534184E-3,-7.265526E-4,-8.7110326E-5,-7.19582E-5,5.834479E-4,-4.1393563E-4,-1.7799903E-3,-3.231764E-5,1.3894886E-4,-2.2046361E-4,1.65539E-4],"categories":[],"categories_nodes":[],"categories_segments":[],"categories_sizes":[],"default_left":[0,0,0,0,0,0,0,0,0,0,0,0,0,0,0,0,0,0,0,0,0,0,0,0,0,0,0,0,0,0,0,0,0,0,0,0,0,0,0,0,0,0,0,0,0],"id":17,"left_children":[1,3,-1,5,7,9,11,-1,13,15,17,19,21,-1,-1,-1,-1,23,25,27,29,31,33,-1,-1,35,37,39,-1,-1,-1,-1,41,-1,43,-1,-1,-1,-1,-1,-1,-1,-1,-1,-1],"loss_changes":[9.003207E-1,2.1821052E-2,0E0,1.777725E-2,7.999293E-3,4.3914476E-3,1.2589183E-2,0E0,2.010039E-3,5.643517E-4,3.1379517E-3,9.835884E-4,2.1145511E-3,0E0,0E0,0E0,0E0,6.400165E-5,2.0992474E-3,4.527606E-4,1.0241172E-5,3.831418E-4,8.726069E-4,0E0,0E0,2.753992E-4,3.3150264E-4,2.1573901E-4,0E0,0E0,0E0,0E0,1.2979961E-5,0E0,1.2419636E-4,0E0,0E0,0E0,0E0,0E0,0E0,0E0,0E0,0E0,0E0],"parents":[2147483647,0,0,1,1,3,3,4,4,5,5,6,6,8,8,9,9,10,10,11,11,12,12,17,17,18,18,19,19,20,20,21,21,22,22,25,25,26,26,27,27,32,32,34,34],"right_children":[2,4,-1,6,8,10,12,-1,14,16,18,20,22,-1,-1,-1,-1,24,26,28,30,32,34,-1,-1,36,38,40,-1,-1,-1,-1,42,-1,44,-1,-1,-1,-1,-1,-1,-1,-1,-1,-1],"split_conditions":[3.0381454E1,4.3095695E1,2.3664944E-2,3.8516274E-1,1.12E0,3E-1,2.2809072E0,4.241002E-3,3.1412456E0,2.9729475E1,2.3158414E-2,3.34E0,8.9E-1,1.1904043E-3,-8.132309E-4,1.2058842E-3,3.6152572E-4,2.2331329E-2,5.528479E1,6.822322E0,4.174358E0,1.34E0,1.8158688E1,-1.0485793E-3,-2.4260282E-4,3.8280234E-1,2.5011089E-2,3.8870595E0,-5.576342E-4,-8.4760314E-4,-2.2883192E-4,7.8707415E-4,1.35E0,-8.0735714E-4,6.580383E1,-7.265526E-4,-8.7110326E-5,-7.19582E-5,5.834479E-4,-4.1393563E-4,-1.7799903E-3,-3.231764E-5,1.3894886E-4,-2.2046361E-4,1.65539E-4],"split_indices":[25,5,0,4,46,37,4,0,4,31,4,37,37,0,0,0,0,4,13,58,5,38,13,0,0,4,4,17,0,0,0,0,38,0,7,0,0,0,0,0,0,0,0,0,0],"split_type":[0,0,0,0,0,0,0,0,0,0,0,0,0,0,0,0,0,0,0,0,0,0,0,0,0,0,0,0,0,0,0,0,0,0,0,0,0,0,0,0,0,0,0,0,0],"sum_hessian":[1.21E2,1.18E2,3E0,1.12E2,6E0,4.1E1,7.1E1,2E0,4E0,1.2E1,2.9E1,4.4E1,2.7E1,3E0,1E0,8E0,4E0,7E0,2.2E1,3.8E1,6E0,8E0,1.9E1,6E0,1E0,7E0,1.5E1,3.6E1,2E0,5E0,1E0,3E0,5E0,1E1,9E0,4E0,3E0,2E0,1.3E1,1E0,3.5E1,1E0,4E0,7E0,2E0],"tree_param":{"num_deleted":"0","num_feature":"60","num_nodes":"45","size_leaf_vector":"1"}},{"base_weights":[6.1580637E-3,-1.0202566E-2,3.9758155E-1,-1.6077315E-2,9.674372E-3,2.2777509E-2,4.142678E-3,-1.9455248E-2,2.8202329E-2,1.8575646E-2,3.6972398E-3,-2.5303807E-2,-7.499529E-3,5.424988E-4,1.9252051E-3,1.2112138E-3,5.943624E-4,-9.975517E-3,8.316278E-3,-7.2658863E-3,-3.142713E-2,3.0410662E-4,-1.5323439E-2,-5.586233E-4,-1.29693E-4,2.5354326E-5,4.4389893E-4,-1.4668665E-2,7.516856E-3,-3.2706857E-2,-5.3865317E-4,8.115326E-4,-3.1304467E-3,-1.8266084E-2,-5.784929E-3,-8.7377813E-4,-6.7920984E-5,3.9174036E-5,6.994536E-4,-1.6788573E-3,-5.3904654E-4,-2.5226563E-4,6.6268745E-5,-1.0200018E-3,-4.7158301E-4,-3.6346316E-4,3.8102269E-6],"categories":[],"categories_nodes":[],"categories_segments":[],"categories_sizes":[],"default_left":[0,0,0,0,0,0,0,0,0,0,0,0,0,0,0,0,0,0,0,0,0,0,0,0,0,0,0,0,0,0,0,0,0,0,0,0,0,0,0,0,0,0,0,0,0,0,0],"id":18,"left_children":[1,3,5,7,9,-1,-1,11,13,15,17,19,21,-1,-1,-1,-1,23,25,27,29,31,33,-1,-1,-1,-1,35,37,39,-1,-1,41,43,45,-1,-1,-1,-1,-1,-1,-1,-1,-1,-1,-1,-1],"loss_changes":[7.981443E-1,1.4168181E-2,5.3477764E-2,1.4459036E-2,1.4210362E-3,0E0,0E0,5.8935955E-3,8.335514E-4,1.2762309E-4,1.219749E-3,6.1778724E-3,1.836308E-3,0E0,0E0,0E0,0E0,1.5197555E-5,5.6908117E-5,1.8611964E-3,7.842034E-4,9.260183E-4,3.1535886E-4,0E0,0E0,0E0,0E0,3.8722623E-4,2.505189E-4,4.0128455E-4,0E0,0E0,1.2613916E-4,1.4968216E-5,4.4053362E-5,0E0,0E0,0E0,0E0,0E0,0E0,0E0,0E0,0E0,0E0,0E0,0E0],"parents":[2147483647,0,0,1,1,2,2,3,3,4,4,7,7,8,8,9,9,10,10,11,11,12,12,17,17,18,18,19,19,20,20,21,21,22,22,27,27,28,28,29,29,32,32,33,33,34,34],"right_children":[2,4,6,8,10,-1,-1,12,14,16,18,20,22,-1,-1,-1,-1,24,26,28,30,32,34,-1,-1,-1,-1,36,38,40,-1,-1,42,44,46,-1,-1,-1,-1,-1,-1,-1,-1,-1,-1,-1,-1],"split_conditions":[4.990832E1,3.79E0,2.1233103E1,7.299468E1,2.2178946E1,2.2777509E-2,4.142678E-3,2.2809072E0,7.5194595E1,1.113E1,2.4049124E-2,3.8516274E-1,1.5869425E1,5.424988E-4,1.9252051E-3,1.2112138E-3,5.943624E-4,2.3158414E-2,2.5011089E-2,1.1051476E-3,8.079187E0,2.326417E0,1.5517235E1,-5.586233E-4,-1.29693E-4,2.5354326E-5,4.4389893E-4,3.8280234E-1,4.089491E0,6.822322E0,-5.3865317E-4,8.115326E-4,3.3301083E1,6.9919624E0,6.580383E1,-8.7377813E-4,-6.7920984E-5,3.9174036E-5,6.994536E-4,-1.6788573E-3,-5.3904654E-4,-2.5226563E-4,6.6268745E-5,-1.0200018E-3,-4.7158301E-4,-3.6346316E-4,3.8102269E-6],"split_indices":[8,46,13,7,17,0,0,4,7,18,4,4,7,0,0,0,0,4,4,8,18,4,13,0,0,0,0,4,25,58,0,0,13,33,7,0,0,0,0,0,0,0,0,0,0,0,0],"split_type":[0,0,0,0,0,0,0,0,0,0,0,0,0,0,0,0,0,0,0,0,0,0,0,0,0,0,0,0,0,0,0,0,0,0,0,0,0,0,0,0,0,0,0,0,0,0,0],"sum_hessian":[1.23E2,1.19E2,4E0,9.2E1,2.7E1,3E0,1E0,8.6E1,6E0,1E1,1.7E1,5.7E1,2.9E1,3E0,3E0,4E0,6E0,4E0,1.3E1,1.5E1,4.2E1,1.5E1,1.4E1,3E0,1E0,1E0,1.2E1,1E1,5E0,3.9E1,3E0,2E0,1.3E1,1E1,4E0,8E0,2E0,3E0,2E0,3.7E1,2E0,9E0,4E0,7E0,3E0,3E0,1E0],"tree_param":{"num_deleted":"0","num_feature":"60","num_nodes":"47","size_leaf_vector":"1"}},{"base_weights":[4.3077483E-3,-1.2567485E-2,3.1015652E-1,1.7391283E-2,-1.680556E-2,2.1923352E-2,3.5690308E-2,1.233562E-3,4.423706E-4,-2.1279505E-2,-7.895895E-4,-1.3623371E-3,4.03911E-3,-2.8069671E-2,-3.645481E-3,-3.179899E-3,7.7045016E-4,-2.9671095E-2,-6.53926E-4,-1.8872473E-2,3.244171E-3,-9.121282E-3,1.5411302E-3,-1.0427969E-3,-1.6916221E-3,-1.0267034E-3,-2.225727E-4,-9.257692E-3,8.182933E-3,-4.894452E-4,-9.450764E-5,-7.923742E-4,6.4062327E-3,-9.53503E-5,-5.3093064E-4,7.63277E-4,2.0629466E-4,-1.1987885E-4,9.067618E-5,9.224191E-5,3.655876E-4],"categories":[],"categories_nodes":[],"categories_segments":[],"categories_sizes":[],"default_left":[0,0,0,0,0,0,0,0,0,0,0,0,0,0,0,0,0,0,0,0,0,0,0,0,0,0,0,0,0,0,0,0,0,0,0,0,0,0,0,0,0],"id":19,"left_children":[1,3,5,7,9,-1,11,-1,-1,13,15,-1,-1,17,19,21,-1,23,-1,25,27,29,31,-1,-1,-1,-1,33,35,-1,-1,37,39,-1,-1,-1,-1,-1,-1,-1,-1],"loss_changes":[5.9228253E-1,1.413173E-2,1.9565243E-1,6.525093E-4,6.862035E-3,0E0,1.0714905E-2,0E0,0E0,8.878019E-3,9.0083125E-4,0E0,0E0,9.083338E-4,2.3692164E-3,5.7504594E-4,0E0,1.0551773E-3,0E0,7.6326774E-5,1.0636547E-3,2.4946406E-5,1.4130899E-4,0E0,0E0,0E0,0E0,2.9768707E-5,2.8182898E-4,0E0,0E0,4.199501E-5,3.032721E-6,0E0,0E0,0E0,0E0,0E0,0E0,0E0,0E0],"parents":[2147483647,0,0,1,1,2,2,3,3,4,4,6,6,9,9,10,10,13,13,14,14,15,15,17,17,19,19,20,20,21,21,22,22,27,27,28,28,31,31,32,32],"right_children":[2,4,6,8,10,-1,12,-1,-1,14,16,-1,-1,18,20,22,-1,24,-1,26,28,30,32,-1,-1,-1,-1,34,36,-1,-1,38,40,-1,-1,-1,-1,-1,-1,-1,-1],"split_conditions":[4.990832E1,5.7E-1,1.23E0,1.6700727E-1,2.4592576E0,2.1923352E-2,4.455791E0,1.233562E-3,4.423706E-4,3.79E0,9.94808E0,-1.3623371E-3,4.03911E-3,2.348149E0,2.3158414E-2,5.068883E1,7.7045016E-4,7.113552E-1,-6.53926E-4,2.2331329E-2,8.827794E1,7.78E0,2.5845785E0,-1.0427969E-3,-1.6916221E-3,-1.0267034E-3,-2.225727E-4,3.8516274E-1,2.413888E1,-4.894452E-4,-9.450764E-5,1.51E0,2.890769E0,-9.53503E-5,-5.3093064E-4,7.63277E-4,2.0629466E-4,-1.1987885E-4,9.067618E-5,9.224191E-5,3.655876E-4],"split_indices":[8,37,37,17,4,0,4,0,0,37,5,0,0,4,4,16,0,4,0,4,16,26,4,0,0,0,0,4,17,0,0,38,4,0,0,0,0,0,0,0,0],"split_type":[0,0,0,0,0,0,0,0,0,0,0,0,0,0,0,0,0,0,0,0,0,0,0,0,0,0,0,0,0,0,0,0,0,0,0,0,0,0,0,0,0],"sum_hessian":[1.13E2,1.08E2,5E0,1.3E1,9.5E1,3E0,2E0,6E0,7E0,7.4E1,2.1E1,1E0,1E0,5.3E1,2.1E1,1.9E1,2E0,4.7E1,6E0,6E0,1.5E1,8E0,1.1E1,1.7E1,3E1,5E0,1E0,4E0,1.1E1,7E0,1E0,8E0,3E0,1E0,3E0,3E0,8E0,5E0,3E0,1E0,2E0],"tree_param":{"num_deleted":"0","num_feature":"60","num_nodes":"41","size_leaf_vector":"1"}},{"base_weights":[4.54207E-3,-9.411862E-3,2.1101227E-2,-1.1563764E-2,3.918344E-3,3.345476E-3,-1.896637E-2,2.0485708E-2,3.115654E-4,-2.9947724E-2,-4.305589E-3,1.1134228E-3,2.8929935E-4,-1.7278556E-2,4.546713E-3,-3.181765E-2,-1.5251317E-2,-1.4122635E-2,3.763327E-3,-9.355796E-4,-2.170086E-4,-8.588657E-3,9.1165425E-3,-1.6391984E-3,-4.6469175E-4,-8.242029E-4,-1.9637197E-4,-1.6589016E-2,-5.378795E-3,-4.8720795E-3,7.812221E-3,-6.208283E-4,-8.283034E-5,1.4841556E-6,5.2748737E-4,-3.2491685E-4,-8.978659E-4,-2.9998794E-4,-7.237345E-5,1.7268807E-4,-3.4176733E-4,5.9344934E-4,-9.318769E-5],"categories":[],"categories_nodes":[],"categories_segments":[],"categories_sizes":[],"default_left":[0,0,0,0,0,0,0,0,0,0,0,0,0,0,0,0,0,0,0,0,0,0,0,0,0,0,0,0,0,0,0,0,0,0,0,0,0,0,0,0,0,0,0],"id":20,"left_children":[1,3,-1,5,-1,7,9,11,13,15,17,-1,-1,19,21,23,25,27,29,-1,-1,31,33,-1,-1,-1,-1,35,37,39,41,-1,-1,-1,-1,-1,-1,-1,-1,-1,-1,-1,-1],"loss_changes":[7.205112E-1,2.3573164E-2,0E0,1.3086785E-2,0E0,2.0736947E-3,1.2589678E-2,2.8390437E-5,2.6859476E-3,7.513948E-4,2.8256006E-3,0E0,0E0,4.857639E-5,1.8190644E-3,5.441569E-4,3.297557E-5,2.5582127E-4,7.373386E-4,0E0,0E0,1.9171264E-4,2.862002E-4,0E0,0E0,0E0,0E0,4.899269E-5,3.5215926E-6,1.380286E-4,5.716651E-4,0E0,0E0,0E0,0E0,0E0,0E0,0E0,0E0,0E0,0E0,0E0,0E0],"parents":[2147483647,0,0,1,1,3,3,5,5,6,6,7,7,8,8,9,9,10,10,13,13,14,14,15,15,16,16,17,17,18,18,21,21,22,22,27,27,28,28,29,29,30,30],"right_children":[2,4,-1,6,-1,8,10,12,14,16,18,-1,-1,20,22,24,26,28,30,-1,-1,32,34,-1,-1,-1,-1,36,38,40,42,-1,-1,-1,-1,-1,-1,-1,-1,-1,-1,-1,-1],"split_conditions":[3.5415974E1,3.215665E0,2.1101227E-2,3.8516274E-1,3.918344E-3,1.6700727E-1,2.2809072E0,1.2505545E-1,2.3158414E-2,2.55E0,5.2370687E0,1.1134228E-3,2.8929935E-4,2.2331329E-2,5.528479E1,6.822322E0,4.174358E0,1.5517235E1,6.3670783E0,-9.355796E-4,-2.170086E-4,3.8280234E-1,2.6053216E-2,-1.6391984E-3,-4.6469175E-4,-8.242029E-4,-1.9637197E-4,-7.404674E0,2.2586756E1,2.2811651E0,1.57E0,-6.208283E-4,-8.283034E-5,1.4841556E-6,5.2748737E-4,-3.2491685E-4,-8.978659E-4,-2.9998794E-4,-7.237345E-5,1.7268807E-4,-3.4176733E-4,5.9344934E-4,-9.318769E-5],"split_indices":[25,4,0,4,0,17,4,4,4,27,56,0,0,4,13,58,5,13,17,0,0,4,4,0,0,0,0,49,13,4,27,0,0,0,0,0,0,0,0,0,0,0,0],"split_type":[0,0,0,0,0,0,0,0,0,0,0,0,0,0,0,0,0,0,0,0,0,0,0,0,0,0,0,0,0,0,0,0,0,0,0,0,0,0,0,0,0,0,0],"sum_hessian":[1.22E2,1.19E2,3E0,1.17E2,2E0,3.9E1,7.8E1,5E0,3.4E1,4.4E1,3.4E1,4E0,1E0,6E0,2.8E1,3.8E1,6E0,1.5E1,1.9E1,5E0,1E0,7E0,2.1E1,3.6E1,2E0,5E0,1E0,1.1E1,4E0,6E0,1.3E1,4E0,3E0,3E0,1.8E1,2E0,9E0,3E0,1E0,1E0,5E0,9E0,4E0],"tree_param":{"num_deleted":"0","num_feature":"60","num_nodes":"43","size_leaf_vector":"1"}},{"base_weights":[-1.3859348E-3,-9.226193E-3,1.7137693E-1,9.4712265E-3,-1.603726E-2,-1.4262379E-3,1.1424177E-2,-8.092744E-3,1.6225977E-2,-2.1224933E-2,2.0080397E-3,-1.5176369E-2,1.1133294E-2,1.2137185E-2,1.9037968E-3,-1.2793954E-2,-2.5135804E-2,-4.911892E-3,1.2136932E-2,-2.650738E-4,-9.033015E-4,6.666258E-4,1.683712E-4,2.0613428E-2,5.987406E-3,-1.834599E-2,-5.5741016E-3,-2.727963E-2,-1.0519589E-2,-1.5398334E-2,4.778185E-3,-2.0176918E-5,1.3986076E-2,1.1064364E-3,2.5015845E-4,2.9608607E-4,6.995274E-3,-4.6136588E-4,-1.0875956E-3,-2.1420629E-3,-9.973623E-4,-1.5390285E-2,-3.126052E-2,-5.8334396E-4,-9.089634E-5,-9.5097907E-4,-2.7186127E-4,1.9525736E-5,2.722189E-4,2.0449609E-4,7.476891E-4,5.004704E-5,-2.7840584E-5,3.9651577E-4,9.291967E-5,3.0174703E-4,-1.8605839E-4,-9.04952E-4,-4.259986E-4,-1.6889004E-3,-9.800956E-4],"categories":[],"categories_nodes":[],"categories_segments":[],"categories_sizes":[],"default_left":[0,0,0,0,0,0,0,0,0,0,0,0,0,0,0,0,0,0,0,0,0,0,0,0,0,0,0,0,0,0,0,0,0,0,0,0,0,0,0,0,0,0,0,0,0,0,0,0,0,0,0,0,0,0,0,0,0,0,0,0,0],"id":21,"left_children":[1,3,5,7,9,-1,-1,11,13,15,17,19,21,23,-1,25,27,29,31,-1,-1,-1,-1,33,35,37,39,41,43,45,47,-1,49,-1,-1,51,53,-1,-1,55,-1,57,59,-1,-1,-1,-1,-1,-1,-1,-1,-1,-1,-1,-1,-1,-1,-1,-1,-1,-1],"loss_changes":[1.5599477E-1,1.4160323E-2,6.359598E-2,3.6905198E-3,7.6252837E-3,0E0,0E0,1.3946733E-3,1.5033442E-3,1.7556809E-3,1.391349E-3,1.0396924E-4,6.340386E-6,9.1911945E-4,0E0,7.796048E-4,1.0290835E-3,1.2929492E-3,1.911571E-4,0E0,0E0,0E0,0E0,7.852004E-5,7.249811E-5,1.7197803E-4,4.9989286E-4,1.2227762E-3,4.867377E-5,1.1301611E-4,1.8335137E-5,0E0,5.87618E-6,0E0,0E0,2.3608427E-6,3.8097496E-5,0E0,0E0,1.5158048E-4,0E0,5.050632E-5,1.0099821E-4,0E0,0E0,0E0,0E0,0E0,0E0,0E0,0E0,0E0,0E0,0E0,0E0,0E0,0E0,0E0,0E0,0E0,0E0],"parents":[2147483647,0,0,1,1,2,2,3,3,4,4,7,7,8,8,9,9,10,10,11,11,12,12,13,13,15,15,16,16,17,17,18,18,23,23,24,24,25,25,26,26,27,27,28,28,29,29,30,30,32,32,35,35,36,36,39,39,41,41,42,42],"right_children":[2,4,6,8,10,-1,-1,12,14,16,18,20,22,24,-1,26,28,30,32,-1,-1,-1,-1,34,36,38,40,42,44,46,48,-1,50,-1,-1,52,54,-1,-1,56,-1,58,60,-1,-1,-1,-1,-1,-1,-1,-1,-1,-1,-1,-1,-1,-1,-1,-1,-1,-1],"split_conditions":[4.990832E1,1.16E0,1.8041126E1,1.0466947E1,6.1523064E1,-1.4262379E-3,1.1424177E-2,1.52E0,6.524651E1,1.52E0,7.081247E-2,6.252772E-1,1.1462236E-2,1.06E0,1.9037968E-3,1.5517235E1,3.34E0,9.5666824E1,-2.2165816E0,-2.650738E-4,-9.033015E-4,6.666258E-4,1.683712E-4,9.944765E0,2.3660214E0,1.02E0,3.3301083E1,1.9071049E1,7.394579E0,4.71E0,9.964661E1,-2.0176918E-5,5.539997E-1,1.1064364E-3,2.5015845E-4,5.539081E-1,9.113457E0,-4.6136588E-4,-1.0875956E-3,1.1462236E-2,-9.973623E-4,4.5255222E1,1.633542E1,-5.8334396E-4,-9.089634E-5,-9.5097907E-4,-2.7186127E-4,1.9525736E-5,2.722189E-4,2.0449609E-4,7.476891E-4,5.004704E-5,-2.7840584E-5,3.9651577E-4,9.291967E-5,3.0174703E-4,-1.8605839E-4,-9.04952E-4,-4.259986E-4,-1.6889004E-3,-9.800956E-4],"split_indices":[8,37,13,13,13,0,0,46,5,37,7,7,5,47,0,13,37,13,46,0,0,0,0,5,49,38,13,13,5,37,13,0,7,0,0,7,8,0,0,5,0,16,26,0,0,0,0,0,0,0,0,0,0,0,0,0,0,0,0,0,0],"split_type":[0,0,0,0,0,0,0,0,0,0,0,0,0,0,0,0,0,0,0,0,0,0,0,0,0,0,0,0,0,0,0,0,0,0,0,0,0,0,0,0,0,0,0,0,0,0,0,0,0,0,0,0,0,0,0,0,0,0,0,0,0],"sum_hessian":[1.13E2,1.09E2,4E0,2.9E1,8E1,1E0,3E0,8E0,2.1E1,6.2E1,1.8E1,6E0,2E0,1.9E1,2E0,2.1E1,4.1E1,1.1E1,7E0,2E0,4E0,1E0,1E0,7E0,1.2E1,1.1E1,1E1,3.5E1,6E0,5E0,6E0,1E0,6E0,6E0,1E0,2E0,1E1,4E0,7E0,9E0,1E0,1E1,2.5E1,5E0,1E0,3E0,2E0,1E0,5E0,1E0,5E0,1E0,1E0,8E0,2E0,1E0,8E0,6E0,4E0,1.9E1,6E0],"tree_param":{"num_deleted":"0","num_feature":"60","num_nodes":"61","size_leaf_vector":"1"}},{"base_weights":[2.3630918E-3,-9.090991E-3,1.9741612E-2,-1.0574067E-2,3.5545693E-3,6.008259E-3,-1.6929653E-2,1.7193574E-2,1.1518896E-4,-2.3678778E-2,9.91293E-5,9.1998087E-4,1.5847982E-4,-8.405514E-4,6.8779965E-3,-2.5444273E-2,-1.6411722E-3,1.7938301E-3,-3.3129696E-3,7.4254894E-3,-1.9672514E-5,-2.7666505E-2,-1.2493627E-2,-1.6655102E-4,1.2795553E-4,-1.3321979E-2,3.8711887E-3,8.480549E-5,4.1195215E-4,-8.793167E-4,-1.5388179E-3,1.6416163E-4,-7.4380694E-4,-4.0171575E-4,-1.3905823E-3,-6.73554E-5,6.244943E-4],"categories":[],"categories_nodes":[],"categories_segments":[],"categories_sizes":[],"default_left":[0,0,0,0,0,0,0,0,0,0,0,0,0,0,0,0,0,0,0,0,0,0,0,0,0,0,0,0,0,0,0,0,0,0,0,0,0],"id":22,"left_children":[1,3,-1,5,-1,7,9,11,13,15,17,-1,-1,-1,19,21,23,-1,25,27,-1,29,31,-1,-1,33,35,-1,-1,-1,-1,-1,-1,-1,-1,-1,-1],"loss_changes":[4.756037E-1,1.300013E-2,0E0,1.0851539E-2,0E0,1.9095789E-3,8.5071195E-3,1.10815745E-4,2.405001E-3,2.0203274E-3,2.804536E-3,0E0,0E0,0E0,6.26375E-5,1.0645352E-3,4.401365E-5,0E0,1.5616044E-3,5.128194E-5,0E0,7.440187E-4,3.871387E-4,0E0,0E0,4.6610087E-4,6.014991E-4,0E0,0E0,0E0,0E0,0E0,0E0,0E0,0E0,0E0,0E0],"parents":[2147483647,0,0,1,1,3,3,5,5,6,6,7,7,8,8,9,9,10,10,14,14,15,15,16,16,18,18,19,19,21,21,22,22,25,25,26,26],"right_children":[2,4,-1,6,-1,8,10,12,14,16,18,-1,-1,-1,20,22,24,-1,26,28,-1,30,32,-1,-1,34,36,-1,-1,-1,-1,-1,-1,-1,-1,-1,-1],"split_conditions":[7.851167E1,4.455791E0,1.9741612E-2,3.360987E-1,3.5545693E-3,2.302227E1,2.4592576E0,4.8098247E-2,2.2331329E-2,4.02E0,-5.9224594E1,9.1998087E-4,1.5847982E-4,-8.405514E-4,2.4648596E-1,2.2809072E0,4.174358E0,1.7938301E-3,5.187694E0,2.6053216E-2,-1.9672514E-5,5.550823E-1,2.2811651E0,-1.6655102E-4,1.2795553E-4,3.215665E0,7.299468E1,8.480549E-5,4.1195215E-4,-8.793167E-4,-1.5388179E-3,1.6416163E-4,-7.4380694E-4,-4.0171575E-4,-1.3905823E-3,-6.73554E-5,6.244943E-4],"split_indices":[5,4,0,4,0,17,4,4,4,37,31,0,0,0,4,4,8,0,56,4,0,4,4,0,0,4,7,0,0,0,0,0,0,0,0,0,0],"split_type":[0,0,0,0,0,0,0,0,0,0,0,0,0,0,0,0,0,0,0,0,0,0,0,0,0,0,0,0,0,0,0,0,0,0,0,0,0],"sum_hessian":[1.04E2,1.02E2,2E0,1.01E2,1E0,2.8E1,7.3E1,9E0,1.9E1,5.2E1,2.1E1,8E0,1E0,5E0,1.4E1,4.8E1,4E0,1E0,2E1,1.3E1,1E0,4E1,8E0,3E0,1E0,8E0,1.2E1,2E0,1.1E1,1.1E1,2.9E1,1E0,7E0,7E0,1E0,8E0,4E0],"tree_param":{"num_deleted":"0","num_feature":"60","num_nodes":"37","size_leaf_vector":"1"}},{"base_weights":[1.6483852E-4,-7.760516E-3,1.07054105E-2,7.0228577E-3,-1.3536465E-2,1.8038759E-2,1.6964092E-3,-1.9767728E-2,2.2238442E-3,1.0591294E-3,4.0136836E-4,-1.1443726E-2,7.3391926E-3,-2.178583E-2,-2.5287482E-3,-2.176387E-3,1.6142091E-3,-6.743017E-4,-2.112652E-4,7.87962E-3,-1.9180776E-5,-2.4469681E-2,-1.0045842E-2,1.7668307E-3,-4.600346E-3,-7.634706E-3,1.7698637E-3,5.0318637E-4,2.8905974E-4,-8.1746344E-4,-2.8687956E-2,2.5701625E-4,-1.3991694E-2,7.7553095E-6,1.2475699E-4,-9.8596516E-5,-2.8476567E-4,-4.358175E-4,-1.282985E-4,3.4001956E-4,-4.1933358E-4,-1.4639326E-3,-3.627822E-4,-7.6931826E-4,-3.036782E-4,-8.1357786E-5,8.995943E-5],"categories":[],"categories_nodes":[],"categories_segments":[],"categories_sizes":[],"default_left":[0,0,0,0,0,0,0,0,0,0,0,0,0,0,0,0,0,0,0,0,0,0,0,0,0,0,0,0,0,0,0,0,0,0,0,0,0,0,0,0,0,0,0,0,0,0,0],"id":23,"left_children":[1,3,-1,5,7,9,11,13,15,-1,-1,17,19,21,23,25,-1,-1,-1,27,-1,29,31,33,35,37,39,-1,-1,-1,41,-1,43,-1,-1,-1,-1,-1,-1,-1,45,-1,-1,-1,-1,-1,-1],"loss_changes":[1.8987064E-1,9.3169715E-3,0E0,1.7883433E-3,7.7040754E-3,1.4470099E-4,1.7152203E-3,1.8931516E-3,3.1125287E-3,0E0,0E0,4.6213157E-5,6.9800706E-5,1.329599E-3,7.041902E-5,4.6585023E-4,0E0,0E0,0E0,1.0567426E-5,0E0,9.0113655E-4,7.3106785E-4,3.1344898E-6,3.1593954E-6,2.6977155E-5,1.4601824E-4,0E0,0E0,0E0,1.0406226E-4,0E0,5.938462E-6,0E0,0E0,0E0,0E0,0E0,0E0,0E0,2.972336E-5,0E0,0E0,0E0,0E0,0E0,0E0],"parents":[2147483647,0,0,1,1,3,3,4,4,5,5,6,6,7,7,8,8,11,11,12,12,13,13,14,14,15,15,19,19,21,21,22,22,23,23,24,24,25,25,26,26,30,30,32,32,40,40],"right_children":[2,4,-1,6,8,10,12,14,16,-1,-1,18,20,22,24,26,-1,-1,-1,28,-1,30,32,34,36,38,40,-1,-1,-1,42,-1,44,-1,-1,-1,-1,-1,-1,-1,46,-1,-1,-1,-1,-1,-1],"split_conditions":[4.990832E1,3.360987E-1,1.07054105E-2,1.06394E1,2.4592576E0,3.84E0,2.4049124E-2,3.79E0,1.5578875E1,1.0591294E-3,4.0136836E-4,2.1561284E-2,2.4648596E-1,2.2809072E0,4.1E0,5.068883E1,1.6142091E-3,-6.743017E-4,-2.112652E-4,1.1235071E1,-1.9180776E-5,5.550823E-1,2.326417E0,1.1051476E-3,3.8516274E-1,1.944243E1,-5.124278E1,5.0318637E-4,2.8905974E-4,-8.1746344E-4,4.174358E0,2.5701625E-4,4.6145645E1,7.7553095E-6,1.2475699E-4,-9.8596516E-5,-2.8476567E-4,-4.358175E-4,-1.282985E-4,3.4001956E-4,1.51E0,-1.4639326E-3,-3.627822E-4,-7.6931826E-4,-3.036782E-4,-8.1357786E-5,8.995943E-5],"split_indices":[8,4,0,55,4,47,4,37,5,0,0,4,4,4,37,16,0,0,0,35,0,4,4,8,4,13,31,0,0,0,58,0,16,0,0,0,0,0,0,0,38,0,0,0,0,0,0],"split_type":[0,0,0,0,0,0,0,0,0,0,0,0,0,0,0,0,0,0,0,0,0,0,0,0,0,0,0,0,0,0,0,0,0,0,0,0,0,0,0,0,0,0,0,0,0,0,0],"sum_hessian":[1.1E2,1.07E2,3E0,3E1,7.7E1,9E0,2.1E1,5.5E1,2.2E1,6E0,3E0,6E0,1.5E1,4.9E1,6E0,2E1,2E0,4E0,2E0,1.4E1,1E0,3.9E1,1E1,2E0,4E0,8E0,1.2E1,5E0,9E0,1.5E1,2.4E1,2E0,8E0,1E0,1E0,2E0,2E0,6E0,2E0,3E0,9E0,2.3E1,1E0,6E0,2E0,6E0,3E0],"tree_param":{"num_deleted":"0","num_feature":"60","num_nodes":"47","size_leaf_vector":"1"}},{"base_weights":[3.1117904E-3,-6.9488618E-3,2.0728065E-2,8.780486E-3,-1.257655E-2,-5.5376966E-3,1.5246552E-2,-1.4137654E-2,3.1980693E-3,7.0982974E-4,-1.1500495E-2,2.8085368E-2,9.063125E-3,-1.9572046E-2,1.6224273E-3,-1.3706218E-2,1.5363247E-4,1.6672325E-3,4.979054E-4,1.0276884E-3,5.1327175E-3,-2.3058157E-2,-8.801068E-3,-1.3689526E-2,7.4869413E-3,-1.4780462E-4,-7.409826E-4,3.3071637E-4,5.9054918E-3,-1.4375483E-2,-2.791607E-2,-5.498888E-3,-1.6234532E-3,-8.1700034E-4,-2.3544431E-4,-7.1211654E-4,8.556331E-3,4.8230588E-5,-2.3426861E-5,1.3513087E-4,3.584551E-4,-8.2975574E-4,-3.215246E-4,-8.1492745E-4,-1.5624159E-3,-4.3066373E-4,9.035213E-6,7.5615944E-6,-6.097034E-5,6.311305E-4,2.780256E-4],"categories":[],"categories_nodes":[],"categories_segments":[],"categories_sizes":[],"default_left":[0,0,0,0,0,0,0,0,0,0,0,0,0,0,0,0,0,0,0,0,0,0,0,0,0,0,0,0,0,0,0,0,0,0,0,0,0,0,0,0,0,0,0,0,0,0,0,0,0,0,0],"id":24,"left_children":[1,3,-1,5,7,9,11,13,-1,-1,15,17,19,21,23,25,-1,-1,-1,-1,27,29,31,33,35,-1,-1,37,39,41,43,45,-1,-1,-1,47,49,-1,-1,-1,-1,-1,-1,-1,-1,-1,-1,-1,-1,-1,-1],"loss_changes":[5.20312E-1,1.0998372E-2,0E0,3.1396472E-3,1.1777275E-2,1.4576553E-3,1.5713796E-3,7.739937E-3,0E0,0E0,3.3141335E-4,3.3530546E-4,6.622728E-4,2.3128334E-3,2.2576246E-3,5.1948125E-5,0E0,0E0,0E0,0E0,4.9999013E-5,1.7076805E-3,1.2282641E-3,8.9677866E-5,1.6391685E-4,0E0,0E0,1.9718861E-6,2.9190851E-5,2.459837E-4,6.907843E-4,3.0225998E-4,0E0,0E0,0E0,1.4983177E-6,1.247212E-4,0E0,0E0,0E0,0E0,0E0,0E0,0E0,0E0,0E0,0E0,0E0,0E0,0E0,0E0],"parents":[2147483647,0,0,1,1,3,3,4,4,5,5,6,6,7,7,10,10,11,11,12,12,13,13,14,14,15,15,20,20,21,21,22,22,23,23,24,24,27,27,28,28,29,29,30,30,31,31,35,35,36,36],"right_children":[2,4,-1,6,8,10,12,14,-1,-1,16,18,20,22,24,26,-1,-1,-1,-1,28,30,32,34,36,-1,-1,38,40,42,44,46,-1,-1,-1,48,50,-1,-1,-1,-1,-1,-1,-1,-1,-1,-1,-1,-1,-1,-1],"split_conditions":[4.9900585E1,1.16E0,2.0728065E-2,4.2568188E1,4.455791E0,1.784227E-2,5.1956787E1,1.5615327E1,3.1980693E-3,7.0982974E-4,2.8622775E0,1.42E0,1.6700727E-1,2.348149E0,2.4049124E-2,-3.807838E0,1.5363247E-4,1.6672325E-3,4.979054E-4,1.0276884E-3,2.3660214E0,7.113552E-1,3.215665E0,4.71E0,9.028479E1,-1.4780462E-4,-7.409826E-4,2.5107245E0,1.724636E0,7.136908E-2,1.794174E0,5.068883E1,-1.6234532E-3,-8.1700034E-4,-2.3544431E-4,1.1051476E-3,2.413888E1,4.8230588E-5,-2.3426861E-5,1.3513087E-4,3.584551E-4,-8.2975574E-4,-3.215246E-4,-8.1492745E-4,-1.5624159E-3,-4.3066373E-4,9.035213E-6,7.5615944E-6,-6.097034E-5,6.311305E-4,2.780256E-4],"split_indices":[25,37,0,16,4,4,16,33,0,0,49,27,17,4,4,33,0,0,0,0,49,4,4,37,16,0,0,4,53,5,35,16,0,0,0,8,17,0,0,0,0,0,0,0,0,0,0,0,0,0,0],"split_type":[0,0,0,0,0,0,0,0,0,0,0,0,0,0,0,0,0,0,0,0,0,0,0,0,0,0,0,0,0,0,0,0,0,0,0,0,0,0,0,0,0,0,0,0,0,0,0,0,0,0,0],"sum_hessian":[1.24E2,1.22E2,2E0,3.2E1,9E1,1E1,2.2E1,8.9E1,1E0,2E0,8E0,6E0,1.6E1,6.6E1,2.3E1,7E0,1E0,4E0,2E0,3E0,1.3E1,4.9E1,1.7E1,6E0,1.7E1,1E0,6E0,2E0,1.1E1,1.9E1,3E1,1.6E1,1E0,4E0,2E0,2E0,1.5E1,1E0,1E0,4E0,7E0,1.4E1,5E0,8E0,2.2E1,1E1,6E0,1E0,1E0,5E0,1E1],"tree_param":{"num_deleted":"0","num_feature":"60","num_nodes":"51","size_leaf_vector":"1"}},{"base_weights":[-1.708802E-3,-8.870443E-3,2.0367958E-2,6.137486E-3,-1.5875865E-2,-7.140394E-3,8.937734E-3,-2.4366308E-2,-4.171579E-3,-5.315592E-4,3.4510865E-4,1.6788308E-2,5.9484704E-3,-1.4328821E-2,-2.799626E-2,-1.5070126E-2,2.4580888E-3,9.026821E-4,1.9827411E-4,1.8341707E-3,7.890984E-3,-8.031715E-4,-2.9882192E-4,-1.65914E-4,-1.4342641E-3,-1.158764E-3,-7.1074963E-3,-7.724603E-3,8.828527E-3,-3.4400746E-3,2.5223196E-4,6.2613934E-4,9.519323E-3,-4.2207638E-4,-1.035134E-4,2.0659342E-4,-9.7231455E-3,2.1250522E-2,1.734677E-3,-2.2759636E-4,-2.6129187E-6,-3.4715733E-5,1.1468754E-4,2.1894687E-4,5.311772E-4,-1.4410913E-4,-5.144343E-4,1.167205E-3,3.2190533E-4,-3.3102293E-5,2.7476365E-4],"categories":[],"categories_nodes":[],"categories_segments":[],"categories_sizes":[],"default_left":[0,0,0,0,0,0,0,0,0,0,0,0,0,0,0,0,0,0,0,0,0,0,0,0,0,0,0,0,0,0,0,0,0,0,0,0,0,0,0,0,0,0,0,0,0,0,0,0,0,0,0],"id":25,"left_children":[1,3,-1,5,7,9,11,13,15,-1,-1,17,19,21,23,25,27,-1,-1,29,31,-1,-1,-1,-1,-1,33,35,37,39,-1,41,43,-1,-1,-1,45,47,49,-1,-1,-1,-1,-1,-1,-1,-1,-1,-1,-1,-1],"loss_changes":[3.405172E-1,1.2083042E-2,0E0,1.4395291E-3,7.6495707E-3,4.1651592E-4,6.2762573E-4,1.2384485E-3,2.4936711E-3,0E0,0E0,5.8209756E-5,1.7733668E-4,1.06831314E-4,4.4893287E-4,6.7428034E-4,1.4952975E-3,0E0,0E0,1.6974911E-4,1.8331362E-4,0E0,0E0,0E0,0E0,0E0,3.628232E-5,2.534357E-4,1.1968139E-3,1.482914E-5,0E0,1.04006E-5,2.7269707E-5,0E0,0E0,0E0,1.2968667E-6,4.7630165E-6,9.376917E-5,0E0,0E0,0E0,0E0,0E0,0E0,0E0,0E0,0E0,0E0,0E0,0E0],"parents":[2147483647,0,0,1,1,3,3,4,4,5,5,6,6,7,7,8,8,11,11,12,12,13,13,14,14,15,15,16,16,19,19,20,20,26,26,27,27,28,28,29,29,31,31,32,32,36,36,37,37,38,38],"right_children":[2,4,-1,6,8,10,12,14,16,-1,-1,18,20,22,24,26,28,-1,-1,30,32,-1,-1,-1,-1,-1,34,36,38,40,-1,42,44,-1,-1,-1,46,48,50,-1,-1,-1,-1,-1,-1,-1,-1,-1,-1,-1,-1],"split_conditions":[1.3367372E2,1.1554882E1,2.0367958E-2,1.552264E0,6.8427216E1,1.1051476E-3,2.9729475E1,2.1340656E1,4.8325024E0,-5.315592E-4,3.4510865E-4,1.2505545E-1,7.081247E-2,1.784227E-2,3.8870595E0,6.6280065E0,4.7863457E1,9.026821E-4,1.9827411E-4,9.964661E1,5.999846E1,-8.031715E-4,-2.9882192E-4,-1.65914E-4,-1.4342641E-3,-1.158764E-3,1.944243E1,6.97925E1,1.825977E1,9.521655E1,2.5223196E-4,4.174358E0,2.088421E1,-4.2207638E-4,-1.035134E-4,2.0659342E-4,2.4420496E1,1.42E0,7.753735E1,-2.2759636E-4,-2.6129187E-6,-3.4715733E-5,1.1468754E-4,2.1894687E-4,5.311772E-4,-1.4410913E-4,-5.144343E-4,1.167205E-3,3.2190533E-4,-3.3102293E-5,2.7476365E-4],"split_indices":[6,6,0,46,6,8,31,6,40,0,0,12,7,12,32,33,16,0,0,13,13,0,0,0,0,0,13,6,13,13,0,8,17,0,0,0,16,27,6,0,0,0,0,0,0,0,0,0,0,0,0],"split_type":[0,0,0,0,0,0,0,0,0,0,0,0,0,0,0,0,0,0,0,0,0,0,0,0,0,0,0,0,0,0,0,0,0,0,0,0,0,0,0,0,0,0,0,0,0,0,0,0,0,0,0],"sum_hessian":[1.14E2,1.13E2,1E0,3.6E1,7.7E1,6E0,3E1,4.4E1,3.3E1,5E0,1E0,7E0,2.3E1,1.3E1,3.1E1,1.2E1,2.1E1,6E0,1E0,8E0,1.5E1,1E1,3E0,1E0,3E1,5E0,7E0,8E0,1.3E1,3E0,5E0,3E0,1.2E1,5E0,2E0,1E0,7E0,4E0,9E0,2E0,1E0,2E0,1E0,3E0,9E0,1E0,6E0,3E0,1E0,6E0,3E0],"tree_param":{"num_deleted":"0","num_feature":"60","num_nodes":"51","size_leaf_vector":"1"}},{"base_weights":[4.925716E-3,-4.678657E-3,1.9693082E-2,-8.028364E-3,6.5434584E-3,7.321633E-3,-1.4959346E-2,-6.864984E-3,1.263346E-2,-1.9630063E-2,-1.1164438E-3,6.5607927E-4,-1.2764398E-2,2.3887072E-2,7.7447766E-3,-2.1732137E-2,-1.0035159E-2,-1.30208E-2,6.616103E-3,-2.9179634E-4,-8.569995E-4,1.5538549E-3,4.463885E-4,1.6831333E-2,4.6166847E-3,-1.4301547E-2,-2.5126636E-2,-1.4030804E-3,-4.206568E-3,-1.5205924E-2,-1.7909557E-4,-6.7116815E-4,7.886578E-3,9.5529965E-4,1.9331723E-4,1.7226239E-5,2.581669E-4,-3.795358E-4,-8.149367E-4,-7.2047027E-4,-1.4272603E-3,-3.1166986E-4,1.6380548E-4,-8.1371114E-4,-2.1990314E-4,8.240342E-6,-5.8577956E-5,6.0239376E-4,2.1499732E-4],"categories":[],"categories_nodes":[],"categories_segments":[],"categories_sizes":[],"default_left":[0,0,0,0,0,0,0,0,0,0,0,0,0,0,0,0,0,0,0,0,0,0,0,0,0,0,0,0,0,0,0,0,0,0,0,0,0,0,0,0,0,0,0,0,0,0,0,0,0],"id":26,"left_children":[1,3,-1,5,-1,7,9,11,13,15,17,-1,19,21,23,25,27,29,31,-1,-1,-1,-1,33,35,37,39,-1,41,43,-1,45,47,-1,-1,-1,-1,-1,-1,-1,-1,-1,-1,-1,-1,-1,-1,-1,-1],"loss_changes":[4.6504298E-1,5.6444213E-2,0E0,1.2876392E-2,0E0,2.950289E-3,5.344555E-3,1.4644885E-3,1.3554296E-3,1.0324065E-3,2.1112687E-3,0E0,1.7281773E-4,5.8301305E-4,5.191901E-4,9.018071E-4,1.2478514E-3,1.3116002E-4,1.3490941E-4,0E0,0E0,0E0,0E0,7.358438E-5,3.7922728E-5,1.1753128E-4,7.977225E-4,0E0,1.8724852E-4,9.247218E-6,0E0,1.4480239E-6,1.2729532E-4,0E0,0E0,0E0,0E0,0E0,0E0,0E0,0E0,0E0,0E0,0E0,0E0,0E0,0E0,0E0,0E0],"parents":[2147483647,0,0,1,1,3,3,5,5,6,6,7,7,8,8,9,9,10,10,12,12,13,13,14,14,15,15,16,16,17,17,18,18,23,23,24,24,25,25,26,26,28,28,29,29,31,31,32,32],"right_children":[2,4,-1,6,-1,8,10,12,14,16,18,-1,20,22,24,26,28,30,32,-1,-1,-1,-1,34,36,38,40,-1,42,44,-1,46,48,-1,-1,-1,-1,-1,-1,-1,-1,-1,-1,-1,-1,-1,-1,-1,-1],"split_conditions":[4.9900585E1,3.5415974E1,1.9693082E-2,1.24E0,6.5434584E-3,3.4491154E1,1.5615327E1,1.784227E-2,1.24E0,2.348149E0,2.4049124E-2,6.5607927E-4,6.252772E-1,1.5210837E1,1.6700727E-1,7.113552E-1,1.34E0,2.2331329E-2,5.528479E1,-2.9179634E-4,-8.569995E-4,1.5538549E-3,4.463885E-4,1.2505545E-1,2.3660214E0,1.443E1,1.794174E0,-1.4030804E-3,3.0494593E1,4.71E0,-1.7909557E-4,1.1051476E-3,2.413888E1,9.5529965E-4,1.9331723E-4,1.7226239E-5,2.581669E-4,-3.795358E-4,-8.149367E-4,-7.2047027E-4,-1.4272603E-3,-3.1166986E-4,1.6380548E-4,-8.1371114E-4,-2.1990314E-4,8.240342E-6,-5.8577956E-5,6.0239376E-4,2.1499732E-4],"split_indices":[25,57,0,37,0,16,33,4,38,4,4,0,5,32,17,4,37,4,13,0,0,0,0,4,49,26,35,0,51,37,0,8,17,0,0,0,0,0,0,0,0,0,0,0,0,0,0,0,0],"split_type":[0,0,0,0,0,0,0,0,0,0,0,0,0,0,0,0,0,0,0,0,0,0,0,0,0,0,0,0,0,0,0,0,0,0,0,0,0,0,0,0,0,0,0,0,0,0,0,0,0],"sum_hessian":[1.23E2,1.21E2,2E0,1.19E2,2E0,3.7E1,8.2E1,1E1,2.7E1,6.1E1,2.1E1,2E0,8E0,7E0,2E1,4.9E1,1.2E1,8E0,1.3E1,4E0,4E0,4E0,3E0,4E0,1.6E1,1.7E1,3.2E1,2E0,1E1,6E0,2E0,2E0,1.1E1,3E0,1E0,2E0,1.4E1,5E0,1.2E1,9E0,2.3E1,8E0,2E0,5E0,1E0,1E0,1E0,4E0,7E0],"tree_param":{"num_deleted":"0","num_feature":"60","num_nodes":"49","size_leaf_vector":"1"}},{"base_weights":[5.2410425E-3,-3.6223687E-3,1.7606078E-2,-7.859635E-3,9.371177E-2,4.4541913E-3,-1.2113225E-2,1.0680159E-3,1.5511827E-1,-1.125509E-2,8.850474E-3,-1.6192738E-2,-4.1224257E-4,1.5989215E-3,-1.5188203E-3,9.188539E-3,2.4453313E-3,-8.8027905E-4,-2.0908266E-3,1.2166881E-2,-3.1265616E-3,-1.9255921E-2,-4.096178E-3,-1.35393925E-2,6.1770976E-3,1.3817252E-4,-2.3150344E-4,9.376686E-4,6.7619807E-3,8.721128E-4,-3.7079703E-4,-1.3180286E-2,-2.3201026E-2,-3.6864678E-4,-1.4565422E-3,-1.4593278E-2,-1.5405491E-4,-6.5437955E-4,7.1997643E-3,2.1150168E-4,4.73035E-4,-2.244413E-5,7.3103605E-5,-7.3764334E-4,-2.4414688E-4,-7.1087497E-4,-1.3266369E-3,-1.3168529E-5,-1.0046164E-4,-7.798061E-4,-2.1440536E-4,8.034706E-6,-5.711317E-5,5.8985356E-4,2.4367461E-4],"categories":[],"categories_nodes":[],"categories_segments":[],"categories_sizes":[],"default_left":[0,0,0,0,0,0,0,0,0,0,0,0,0,0,0,0,0,0,0,0,0,0,0,0,0,0,0,0,0,0,0,0,0,0,0,0,0,0,0,0,0,0,0,0,0,0,0,0,0,0,0,0,0,0,0],"id":27,"left_children":[1,3,-1,5,7,9,11,13,15,17,19,21,23,-1,-1,-1,-1,-1,25,27,29,31,33,35,37,-1,-1,-1,39,41,-1,43,45,-1,47,49,-1,51,53,-1,-1,-1,-1,-1,-1,-1,-1,-1,-1,-1,-1,-1,-1,-1,-1],"loss_changes":[3.7022084E-1,4.9403355E-2,0E0,6.0250433E-3,2.8278973E-2,2.1714862E-3,4.050741E-3,3.8872699E-3,1.4207512E-4,3.7057284E-4,9.91338E-4,2.2555236E-3,2.073117E-3,0E0,0E0,0E0,0E0,0E0,6.209971E-5,5.495774E-4,1.0937851E-4,8.926559E-4,1.10353256E-4,4.321139E-5,1.1649262E-4,0E0,0E0,0E0,4.1977095E-5,3.7736331E-6,0E0,2.1502422E-4,4.9075764E-4,0E0,5.40592E-6,5.4634875E-6,0E0,1.3765389E-6,9.22312E-5,0E0,0E0,0E0,0E0,0E0,0E0,0E0,0E0,0E0,0E0,0E0,0E0,0E0,0E0,0E0,0E0],"parents":[2147483647,0,0,1,1,3,3,4,4,5,5,6,6,7,7,8,8,9,9,10,10,11,11,12,12,18,18,19,19,20,20,21,21,22,22,23,23,24,24,28,28,29,29,31,31,32,32,34,34,35,35,37,37,38,38],"right_children":[2,4,-1,6,8,10,12,14,16,18,20,22,24,-1,-1,-1,-1,-1,26,28,30,32,34,36,38,-1,-1,-1,40,42,-1,44,46,-1,48,50,-1,52,54,-1,-1,-1,-1,-1,-1,-1,-1,-1,-1,-1,-1,-1,-1,-1,-1],"split_conditions":[7.851167E1,3.215665E0,1.7606078E-2,1.14E0,1.8041126E1,-2.0439093E-1,1.5615327E1,3.9445179E0,4.22838E0,2.255263E0,3.3154427E-3,2.348149E0,2.3158414E-2,1.5989215E-3,-1.5188203E-3,9.188539E-3,2.4453313E-3,-8.8027905E-4,2.2811651E0,7.0389395E0,1.0100404E1,7.113552E-1,1.944243E1,2.2331329E-2,5.528479E1,1.3817252E-4,-2.3150344E-4,9.376686E-4,1.1051476E-3,5.539081E-1,-3.7079703E-4,7.136908E-2,1.8870544E0,-3.6864678E-4,1.0395067E1,4.71E0,-1.5405491E-4,1.1051476E-3,2.413888E1,2.1150168E-4,4.73035E-4,-2.244413E-5,7.3103605E-5,-7.3764334E-4,-2.4414688E-4,-7.1087497E-4,-1.3266369E-3,-1.3168529E-5,-1.0046164E-4,-7.798061E-4,-2.1440536E-4,8.034706E-6,-5.711317E-5,5.8985356E-4,2.4367461E-4],"split_indices":[5,4,0,37,13,55,33,4,4,4,58,4,4,0,0,0,0,0,4,54,7,4,13,4,13,0,0,0,8,5,0,5,35,0,17,37,0,8,17,0,0,0,0,0,0,0,0,0,0,0,0,0,0,0,0],"split_type":[0,0,0,0,0,0,0,0,0,0,0,0,0,0,0,0,0,0,0,0,0,0,0,0,0,0,0,0,0,0,0,0,0,0,0,0,0,0,0,0,0,0,0,0,0,0,0,0,0,0,0,0,0,0,0],"sum_hessian":[1.19E2,1.17E2,2E0,1.13E2,4E0,2.9E1,8.4E1,2E0,2E0,6E0,2.3E1,6.2E1,2.2E1,1E0,1E0,1E0,1E0,3E0,3E0,1.8E1,5E0,4.9E1,1.3E1,7E0,1.5E1,1E0,2E0,7E0,1.1E1,3E0,2E0,2.1E1,2.8E1,5E0,8E0,6E0,1E0,2E0,1.3E1,7E0,4E0,1E0,2E0,1.7E1,4E0,9E0,1.9E1,3E0,5E0,5E0,1E0,1E0,1E0,3E0,1E1],"tree_param":{"num_deleted":"0","num_feature":"60","num_nodes":"55","size_leaf_vector":"1"}},{"base_weights":[3.4963966E-3,-2.6300654E-3,1.8926281E-2,-5.9832083E-3,9.862174E-2,-7.253441E-3,2.4682831E-2,-1.4808491E-3,1.512403E-1,-1.1308624E-2,3.744809E-3,2.792567E-4,1.4030486E-3,8.958826E-3,2.3841977E-3,-2.892423E-3,-1.42017035E-2,-4.4647753E-3,1.0378084E-2,-6.9425423E-3,7.3567843E-3,-1.1742165E-2,-2.0692712E-2,-1.30155515E-2,2.6819143E-3,1.1096197E-2,-4.574582E-5,1.9520968E-4,-5.290161E-4,6.340942E-4,-1.9853216E-4,-2.9866485E-4,-7.824727E-4,-5.049792E-4,-1.1691061E-3,-7.6738896E-4,-2.3949941E-4,-8.382648E-5,2.0833442E-4,3.7675866E-4,7.553461E-4],"categories":[],"categories_nodes":[],"categories_segments":[],"categories_sizes":[],"default_left":[0,0,0,0,0,0,0,0,0,0,0,0,0,0,0,0,0,0,0,0,0,0,0,0,0,0,0,0,0,0,0,0,0,0,0,0,0,0,0,0,0],"id":28,"left_children":[1,3,-1,5,7,9,11,-1,13,15,17,-1,-1,-1,-1,19,21,23,25,27,29,31,33,35,37,39,-1,-1,-1,-1,-1,-1,-1,-1,-1,-1,-1,-1,-1,-1,-1],"loss_changes":[2.8589824E-1,4.235002E-2,0E0,4.8533957E-3,3.1470235E-2,5.2159387E-3,1.6584923E-4,0E0,1.3506413E-4,2.028565E-3,1.7889417E-3,0E0,0E0,0E0,0E0,1.0058165E-3,7.6281186E-4,9.515527E-4,1.5612564E-4,7.120942E-4,4.7259295E-4,9.884713E-4,2.196785E-4,6.0771592E-5,6.522731E-5,1.2896559E-4,0E0,0E0,0E0,0E0,0E0,0E0,0E0,0E0,0E0,0E0,0E0,0E0,0E0,0E0,0E0],"parents":[2147483647,0,0,1,1,3,3,4,4,5,5,6,6,8,8,9,9,10,10,15,15,16,16,17,17,18,18,19,19,20,20,21,21,22,22,23,23,24,24,25,25],"right_children":[2,4,-1,6,8,10,12,-1,14,16,18,-1,-1,-1,-1,20,22,24,26,28,30,32,34,36,38,40,-1,-1,-1,-1,-1,-1,-1,-1,-1,-1,-1,-1,-1,-1,-1],"split_conditions":[7.851167E1,4.990832E1,1.8926281E-2,5.7656487E1,1.8041126E1,6.1523064E1,7.5194595E1,-1.4808491E-3,6.523878E1,1.12E0,7.081247E-2,2.792567E-4,1.4030486E-3,8.958826E-3,2.3841977E-3,1.0076205E1,1.5338192E1,6.024E1,4.089491E0,2.59E0,7.4300847E0,1.87E0,2.1956604E0,4.15E0,9.964661E1,1.1051476E-3,-4.574582E-5,1.9520968E-4,-5.290161E-4,6.340942E-4,-1.9853216E-4,-2.9866485E-4,-7.824727E-4,-5.049792E-4,-1.1691061E-3,-7.6738896E-4,-2.3949941E-4,-8.382648E-5,2.0833442E-4,3.7675866E-4,7.553461E-4],"split_indices":[5,8,0,5,13,13,7,0,5,47,7,0,0,0,0,40,5,31,57,18,31,47,49,38,13,8,0,0,0,0,0,0,0,0,0,0,0,0,0,0,0],"split_type":[0,0,0,0,0,0,0,0,0,0,0,0,0,0,0,0,0,0,0,0,0,0,0,0,0,0,0,0,0,0,0,0,0,0,0,0,0,0,0,0,0],"sum_hessian":[1.23E2,1.22E2,1E0,1.19E2,3E0,1.15E2,4E0,1E0,2E0,8.4E1,3.1E1,1E0,3E0,1E0,1E0,2.2E1,6.2E1,1.4E1,1.7E1,1.6E1,6E0,4.7E1,1.5E1,6E0,8E0,1.6E1,1E0,4E0,1.2E1,4E0,2E0,2E1,2.7E1,4E0,1.1E1,4E0,2E0,2E0,6E0,1E1,6E0],"tree_param":{"num_deleted":"0","num_feature":"60","num_nodes":"41","size_leaf_vector":"1"}},{"base_weights":[5.146269E-3,-3.9827703E-3,1.812532E-2,-6.9666E-3,5.6359787E-3,5.7408377E-3,-1.1466181E-2,2.4975422E-3,1.3504348E-3,-1.5872704E-2,1.2939767E-3,1.0971273E-2,-4.543461E-3,-1.87611E-2,-6.7835413E-3,-4.388378E-3,7.891852E-3,1.5387229E-2,2.4939966E-4,-9.8268E-3,3.6532325E-3,-1.1703976E-2,-2.225359E-2,-3.597945E-3,-1.4438272E-3,-1.2427189E-2,2.1386721E-4,5.8297155E-4,4.0733176E-3,8.449967E-4,1.57775E-4,-1.9129783E-4,-6.594852E-4,7.683859E-5,2.4281927E-4,-6.491497E-4,-2.8909656E-4,-6.8515853E-4,-1.2836343E-3,-2.324947E-5,-4.3710196E-4,-2.3151636E-4,-7.3099346E-4,3.3682064E-4,1.9594654E-5],"categories":[],"categories_nodes":[],"categories_segments":[],"categories_sizes":[],"default_left":[0,0,0,0,0,0,0,0,0,0,0,0,0,0,0,0,0,0,0,0,0,0,0,0,0,0,0,0,0,0,0,0,0,0,0,0,0,0,0,0,0,0,0,0,0],"id":29,"left_children":[1,3,-1,5,-1,7,9,11,-1,13,15,17,19,21,23,25,27,29,-1,31,33,35,37,39,-1,41,-1,-1,43,-1,-1,-1,-1,-1,-1,-1,-1,-1,-1,-1,-1,-1,-1,-1,-1],"loss_changes":[3.929263E-1,4.1875225E-2,0E0,6.69849E-3,0E0,2.0708614E-3,4.8561404E-3,1.7204275E-3,0E0,1.552932E-3,8.969363E-4,2.6673335E-4,7.287942E-4,9.2259794E-4,1.0925534E-3,9.587627E-4,1.1076039E-4,7.619313E-5,0E0,1.5133934E-4,1.0361822E-5,6.127218E-5,5.544778E-4,2.5379454E-4,0E0,5.1977346E-5,0E0,0E0,6.598794E-5,0E0,0E0,0E0,0E0,0E0,0E0,0E0,0E0,0E0,0E0,0E0,0E0,0E0,0E0,0E0,0E0],"parents":[2147483647,0,0,1,1,3,3,5,5,6,6,7,7,9,9,10,10,11,11,12,12,13,13,14,14,15,15,16,16,17,17,19,19,20,20,21,21,22,22,23,23,25,25,28,28],"right_children":[2,4,-1,6,-1,8,10,12,-1,14,16,18,20,22,24,26,28,30,-1,32,34,36,38,40,-1,42,-1,-1,44,-1,-1,-1,-1,-1,-1,-1,-1,-1,-1,-1,-1,-1,-1,-1,-1],"split_conditions":[4.9900585E1,3.5415974E1,1.812532E-2,1.16E0,5.6359787E-3,2.1340656E1,1.5615327E1,5.7E-1,1.3504348E-3,7.044447E1,7.081247E-2,1.6700727E-1,3.1924324E0,2.1340656E1,4.3095695E1,9.590412E1,2.413888E1,1.2505545E-1,2.4939966E-4,4.1603036E0,1.0100404E1,7.136908E-2,1.794174E0,9.860835E0,-1.4438272E-3,1.8072939E1,2.1386721E-4,5.8297155E-4,6.569509E0,8.449967E-4,1.57775E-4,-1.9129783E-4,-6.594852E-4,7.683859E-5,2.4281927E-4,-6.491497E-4,-2.8909656E-4,-6.8515853E-4,-1.2836343E-3,-2.324947E-5,-4.3710196E-4,-2.3151636E-4,-7.3099346E-4,3.3682064E-4,1.9594654E-5],"split_indices":[25,57,0,37,0,5,33,37,0,6,7,17,49,6,5,13,17,12,0,7,7,5,35,5,0,33,0,0,5,0,0,0,0,0,0,0,0,0,0,0,0,0,0,0,0],"split_type":[0,0,0,0,0,0,0,0,0,0,0,0,0,0,0,0,0,0,0,0,0,0,0,0,0,0,0,0,0,0,0,0,0,0,0,0,0,0,0,0,0,0,0,0,0],"sum_hessian":[1.19E2,1.17E2,2E0,1.15E2,2E0,3E1,8.5E1,2.7E1,3E0,6.3E1,2.2E1,1.2E1,1.5E1,4.7E1,1.6E1,1.2E1,1E1,6E0,6E0,9E0,6E0,1.7E1,3E1,1.5E1,1E0,6E0,6E0,4E0,6E0,5E0,1E0,4E0,5E0,3E0,3E0,1.3E1,4E0,1E1,2E1,1E1,5E0,2E0,4E0,3E0,3E0],"tree_param":{"num_deleted":"0","num_feature":"60","num_nodes":"45","size_leaf_vector":"1"}},{"base_weights":[5.732404E-3,-2.3021204E-3,1.5992312E-2,-6.0838778E-3,8.438237E-2,2.0428104E-3,-1.0504288E-2,-1.4077321E-3,1.1955528E-1,1.5480659E-2,-7.031253E-4,-1.8933805E-2,-5.7043176E-4,8.281723E-3,2.4492035E-3,1.5383065E-4,8.5176155E-4,-3.949926E-3,6.7398874E-3,-1.2476868E-2,-2.1580594E-2,-6.5760612E-3,5.466888E-3,-6.4973636E-3,5.1998547E-3,2.0726664E-4,4.5121435E-4,-1.3612655E-2,-1.8873811E-4,-1.1022921E-3,-2.3710355E-4,1.9849141E-4,-8.142412E-3,9.6148293E-4,1.4323572E-3,-4.190763E-4,1.567334E-4,3.3002795E-4,-4.509166E-5,-7.0992036E-4,-1.7923489E-4,-4.5245962E-4,-5.9831636E-5,-8.413816E-6,2.9380844E-4],"categories":[],"categories_nodes":[],"categories_segments":[],"categories_sizes":[],"default_left":[0,0,0,0,0,0,0,0,0,0,0,0,0,0,0,0,0,0,0,0,0,0,0,0,0,0,0,0,0,0,0,0,0,0,0,0,0,0,0,0,0,0,0,0,0],"id":30,"left_children":[1,3,-1,5,7,9,11,-1,13,15,17,19,21,-1,-1,-1,-1,23,25,27,29,31,33,35,37,-1,-1,39,-1,-1,-1,-1,41,-1,43,-1,-1,-1,-1,-1,-1,-1,-1,-1,-1],"loss_changes":[3.0358693E-1,3.9196096E-2,0E0,4.1167145E-3,2.3157306E-2,1.523763E-3,6.185781E-3,0E0,4.8940033E-3,8.257013E-5,8.724313E-4,4.143482E-4,1.3049773E-3,0E0,0E0,0E0,0E0,6.164977E-4,2.778828E-5,8.698786E-5,1.0697823E-4,3.2965804E-4,9.7193004E-4,3.8923963E-4,5.723258E-5,0E0,0E0,1.9589672E-5,0E0,0E0,0E0,0E0,8.9944224E-5,0E0,1.0768253E-4,0E0,0E0,0E0,0E0,0E0,0E0,0E0,0E0,0E0,0E0],"parents":[2147483647,0,0,1,1,3,3,4,4,5,5,6,6,8,8,9,9,10,10,11,11,12,12,17,17,18,18,19,19,20,20,21,21,22,22,23,23,24,24,27,27,32,32,34,34],"right_children":[2,4,-1,6,8,10,12,-1,14,16,18,20,22,-1,-1,-1,-1,24,26,28,30,32,34,36,38,-1,-1,40,-1,-1,-1,-1,42,-1,44,-1,-1,-1,-1,-1,-1,-1,-1,-1,-1],"split_conditions":[8.7811584E1,9.6469955E1,1.5992312E-2,1.1554882E1,-6.426468E1,1.6700727E-1,6.765789E1,-1.4077321E-3,6.579278E1,9.99594E0,2.982E1,2.1340656E1,4.7863457E1,8.281723E-3,2.4492035E-3,1.5383065E-4,8.5176155E-4,1.1051476E-3,5.539997E-1,1.1051476E-3,6.822322E0,6.97925E1,1.825977E1,1.9914888E1,1.9505438E1,2.0726664E-4,4.5121435E-4,1.9439188E1,-1.8873811E-4,-1.1022921E-3,-2.3710355E-4,1.9849141E-4,1.8158688E1,9.6148293E-4,7.299468E1,-4.190763E-4,1.567334E-4,3.3002795E-4,-4.509166E-5,-7.0992036E-4,-1.7923489E-4,-4.5245962E-4,-5.9831636E-5,-8.413816E-6,2.9380844E-4],"split_indices":[7,6,0,6,26,17,6,0,7,53,26,6,16,0,0,0,0,8,7,8,58,6,13,33,39,0,0,26,0,0,0,0,13,0,7,0,0,0,0,0,0,0,0,0,0],"split_type":[0,0,0,0,0,0,0,0,0,0,0,0,0,0,0,0,0,0,0,0,0,0,0,0,0,0,0,0,0,0,0,0,0,0,0,0,0,0,0,0,0,0,0,0,0],"sum_hessian":[1.19E2,1.17E2,2E0,1.13E2,4E0,4E1,7.3E1,1E0,3E0,6E0,3.4E1,3.9E1,3.4E1,1E0,2E0,1E0,5E0,2.4E1,1E1,1.3E1,2.6E1,1.7E1,1.7E1,1.9E1,5E0,6E0,4E0,1.1E1,2E0,2.5E1,1E0,2E0,1.5E1,3E0,1.4E1,1.6E1,3E0,4E0,1E0,1E1,1E0,1.3E1,2E0,1.1E1,3E0],"tree_param":{"num_deleted":"0","num_feature":"60","num_nodes":"45","size_leaf_vector":"1"}},{"base_weights":[2.7053088E-3,-5.1762597E-3,1.5459235E-2,7.0955446E-3,-1.0081796E-2,-6.665293E-3,1.0910032E-2,-1.1226138E-2,2.1224634E-3,4.7302843E-4,-1.0320498E-2,8.447903E-3,1.3895546E-3,-1.4321017E-3,-1.518588E-2,-9.810403E-5,-5.693277E-4,1.1508705E-2,3.5060914E-3,-6.4651074E-4,1.3737394E-3,-1.8059662E-2,-7.636726E-3,1.5065187E-2,2.645993E-4,8.445127E-5,3.7975848E-4,-3.6870627E-4,3.8658327E-3,-1.137351E-2,-2.0996543E-2,-4.8564426E-3,-1.3725385E-3,8.099206E-4,1.4998465E-4,-1.7893687E-4,6.457195E-5,-1.1500642E-4,2.6757026E-4,-6.3243246E-4,-2.352357E-4,-5.302182E-4,-1.1977816E-3,-4.399868E-4,-1.8677281E-5],"categories":[],"categories_nodes":[],"categories_segments":[],"categories_sizes":[],"default_left":[0,0,0,0,0,0,0,0,0,0,0,0,0,0,0,0,0,0,0,0,0,0,0,0,0,0,0,0,0,0,0,0,0,0,0,0,0,0,0,0,0,0,0,0,0],"id":31,"left_children":[1,3,-1,5,7,9,11,13,-1,-1,15,17,-1,19,21,-1,-1,23,25,-1,27,29,31,33,-1,35,-1,-1,37,39,41,43,-1,-1,-1,-1,-1,-1,-1,-1,-1,-1,-1,-1,-1],"loss_changes":[2.890495E-1,7.1149105E-3,0E0,1.857397E-3,5.5260723E-3,5.6918425E-4,8.8743353E-4,3.1971466E-3,0E0,0E0,4.0032493E-5,3.3779698E-4,0E0,8.243097E-4,1.142066E-3,0E0,0E0,2.5191996E-4,1.5326345E-4,0E0,4.8631753E-4,5.8592577E-4,8.582828E-4,7.4466225E-5,0E0,3.5571687E-5,0E0,0E0,1.6802861E-4,6.8046385E-5,6.070053E-4,2.9722828E-4,0E0,0E0,0E0,0E0,0E0,0E0,0E0,0E0,0E0,0E0,0E0,0E0,0E0],"parents":[2147483647,0,0,1,1,3,3,4,4,5,5,6,6,7,7,10,10,11,11,13,13,14,14,17,17,18,18,20,20,21,21,22,22,23,23,25,25,28,28,29,29,30,30,31,31],"right_children":[2,4,-1,6,8,10,12,14,-1,-1,16,18,-1,20,22,-1,-1,24,26,-1,28,30,32,34,-1,36,-1,-1,38,40,42,44,-1,-1,-1,-1,-1,-1,-1,-1,-1,-1,-1,-1,-1],"split_conditions":[7.851167E1,1.16E0,1.5459235E-2,1.2434224E1,4.455791E0,1.784227E-2,6.524651E1,3.8516274E-1,2.1224634E-3,4.7302843E-4,1.1462236E-2,2.326417E0,1.3895546E-3,2.2331329E-2,2.2809072E0,-9.810403E-5,-5.693277E-4,8.315531E0,2.890769E0,-6.4651074E-4,1.7633118E1,7.113552E-1,3.215665E0,9.4980955E-2,2.645993E-4,1.1462236E-2,3.7975848E-4,-3.6870627E-4,2.5011089E-2,7.136908E-2,1.794174E0,1.8158688E1,-1.3725385E-3,8.099206E-4,1.4998465E-4,-1.7893687E-4,6.457195E-5,-1.1500642E-4,2.6757026E-4,-6.3243246E-4,-2.352357E-4,-5.302182E-4,-1.1977816E-3,-4.399868E-4,-1.8677281E-5],"split_indices":[5,37,0,13,4,4,5,4,0,0,5,4,0,4,4,0,0,17,4,0,13,4,4,25,0,5,0,0,4,5,35,13,0,0,0,0,0,0,0,0,0,0,0,0,0],"split_type":[0,0,0,0,0,0,0,0,0,0,0,0,0,0,0,0,0,0,0,0,0,0,0,0,0,0,0,0,0,0,0,0,0,0,0,0,0,0,0,0,0,0,0,0,0],"sum_hessian":[1.18E2,1.16E2,2E0,3.3E1,8.3E1,7E0,2.6E1,8.2E1,1E0,1E0,6E0,2.4E1,2E0,2.4E1,5.8E1,1E0,5E0,1.4E1,1E1,4E0,2E1,4.1E1,1.7E1,8E0,6E0,6E0,4E0,4E0,1.6E1,1.4E1,2.7E1,1.6E1,1E0,7E0,1E0,1E0,5E0,3E0,1.3E1,1.1E1,3E0,7E0,2E1,8E0,8E0],"tree_param":{"num_deleted":"0","num_feature":"60","num_nodes":"45","size_leaf_vector":"1"}},{"base_weights":[3.852124E-3,-4.38725E-3,1.68818E-2,-6.8842345E-3,4.8477273E-3,1.3432358E-3,-7.683918E-3,-1.1186357E-2,1.6764953E-3,-1.6089415E-2,-3.5822007E-3,-9.817636E-4,8.874271E-3,-9.813288E-3,-1.9405572E-2,-1.0356754E-2,2.0165518E-3,-3.944251E-3,5.806554E-3,9.426184E-3,1.11474095E-4,-5.979756E-4,-2.0594704E-4,-8.220375E-5,-9.954621E-4,-3.334521E-4,-1.2056913E-3,6.07762E-4,-6.389115E-5,-5.041252E-4,1.65714E-4,3.807497E-4,1.0471828E-4,5.345566E-4,1.8771143E-4],"categories":[],"categories_nodes":[],"categories_segments":[],"categories_sizes":[],"default_left":[0,0,0,0,0,0,0,0,0,0,0,0,0,0,0,0,0,0,0,0,0,0,0,0,0,0,0,0,0,0,0,0,0,0,0],"id":32,"left_children":[1,3,-1,5,-1,-1,7,9,11,13,15,17,19,21,23,25,27,29,31,33,-1,-1,-1,-1,-1,-1,-1,-1,-1,-1,-1,-1,-1,-1,-1],"loss_changes":[3.425024E-1,3.153942E-2,0E0,3.4450428E-3,0E0,0E0,3.887298E-3,3.148756E-3,6.401196E-4,8.9182425E-4,1.3484017E-3,5.256602E-4,1.1990662E-5,1.9516656E-4,2.6248302E-4,6.508976E-4,6.835451E-4,8.354008E-4,3.7757593E-5,1.7260842E-5,0E0,0E0,0E0,0E0,0E0,0E0,0E0,0E0,0E0,0E0,0E0,0E0,0E0,0E0,0E0],"parents":[2147483647,0,0,1,1,3,3,6,6,7,7,8,8,9,9,10,10,11,11,12,12,13,13,14,14,15,15,16,16,17,17,18,18,19,19],"right_children":[2,4,-1,6,-1,-1,8,10,12,14,16,18,20,22,24,26,28,30,32,34,-1,-1,-1,-1,-1,-1,-1,-1,-1,-1,-1,-1,-1,-1,-1],"split_conditions":[4.9900585E1,3.5415974E1,1.68818E-2,-5.9224594E1,4.8477273E-3,1.3432358E-3,2.8260918E0,2.2809072E0,4.43E0,7.113552E-1,1.9614222E1,7.136908E-2,1.02736145E2,7.136908E-2,3.8870595E0,6.724636E0,1.24E0,9.590412E1,3.3845932E1,4.8098247E-2,1.11474095E-4,-5.979756E-4,-2.0594704E-4,-8.220375E-5,-9.954621E-4,-3.334521E-4,-1.2056913E-3,6.07762E-4,-6.389115E-5,-5.041252E-4,1.65714E-4,3.807497E-4,1.0471828E-4,5.345566E-4,1.8771143E-4],"split_indices":[25,57,0,31,0,0,46,4,46,4,51,5,13,5,32,54,38,13,31,4,0,0,0,0,0,0,0,0,0,0,0,0,0,0,0],"split_type":[0,0,0,0,0,0,0,0,0,0,0,0,0,0,0,0,0,0,0,0,0,0,0,0,0,0,0,0,0,0,0,0,0,0,0],"sum_hessian":[1.23E2,1.21E2,2E0,1.19E2,2E0,2E0,1.17E2,8.5E1,3.2E1,5.1E1,3.4E1,2.4E1,8E0,1.9E1,3.2E1,