{"learner":{"attributes":{"scikit_learn":"{\"_estimator_type\": \"regressor\"}"},"feature_names":[],"feature_types":[],"gradient_booster":{"model":{"gbtree_model_param":{"num_parallel_tree":"1","num_trees":"600"},"iteration_indptr":[0,1,2,3,4,5,6,7,8,9,10,11,12,13,14,15,16,17,18,19,20,21,22,23,24,25,26,27,28,29,30,31,32,33,34,35,36,37,38,39,40,41,42,43,44,45,46,47,48,49,50,51,52,53,54,55,56,57,58,59,60,61,62,63,64,65,66,67,68,69,70,71,72,73,74,75,76,77,78,79,80,81,82,83,84,85,86,87,88,89,90,91,92,93,94,95,96,97,98,99,100,101,102,103,104,105,106,107,108,109,110,111,112,113,114,115,116,117,118,119,120,121,122,123,124,125,126,127,128,129,130,131,132,133,134,135,136,137,138,139,140,141,142,143,144,145,146,147,148,149,150,151,152,153,154,155,156,157,158,159,160,161,162,163,164,165,166,167,168,169,170,171,172,173,174,175,176,177,178,179,180,181,182,183,184,185,186,187,188,189,190,191,192,193,194,195,196,197,198,199,200,201,202,203,204,205,206,207,208,209,210,211,212,213,214,215,216,217,218,219,220,221,222,223,224,225,226,227,228,229,230,231,232,233,234,235,236,237,238,239,240,241,242,243,244,245,246,247,248,249,250,251,252,253,254,255,256,257,258,259,260,261,262,263,264,265,266,267,268,269,270,271,272,273,274,275,276,277,278,279,280,281,282,283,284,285,286,287,288,289,290,291,292,293,294,295,296,297,298,299,300,301,302,303,304,305,306,307,308,309,310,311,312,313,314,315,316,317,318,319,320,321,322,323,324,325,326,327,328,329,330,331,332,333,334,335,336,337,338,339,340,341,342,343,344,345,346,347,348,349,350,351,352,353,354,355,356,357,358,359,360,361,362,363,364,365,366,367,368,369,370,371,372,373,374,375,376,377,378,379,380,381,382,383,384,385,386,387,388,389,390,391,392,393,394,395,396,397,398,399,400,401,402,403,404,405,406,407,408,409,410,411,412,413,414,415,416,417,418,419,420,421,422,423,424,425,426,427,428,429,430,431,432,433,434,435,436,437,438,439,440,441,442,443,444,445,446,447,448,449,450,451,452,453,454,455,456,457,458,459,460,461,462,463,464,465,466,467,468,469,470,471,472,473,474,475,476,477,478,479,480,481,482,483,484,485,486,487,488,489,490,491,492,493,494,495,496,497,498,499,500,501,502,503,504,505,506,507,508,509,510,511,512,513,514,515,516,517,518,519,520,521,522,523,524,525,526,527,528,529,530,531,532,533,534,535,536,537,538,539,540,541,542,543,544,545,546,547,548,549,550,551,552,553,554,555,556,557,558,559,560,561,562,563,564,565,566,567,568,569,570,571,572,573,574,575,576,577,578,579,580,581,582,583,584,585,586,587,588,589,590,591,592,593,594,595,596,597,598,599,600],"tree_info":[0,0,0,0,0,0,0,0,0,0,0,0,0,0,0,0,0,0,0,0,0,0,0,0,0,0,0,0,0,0,0,0,0,0,0,0,0,0,0,0,0,0,0,0,0,0,0,0,0,0,0,0,0,0,0,0,0,0,0,0,0,0,0,0,0,0,0,0,0,0,0,0,0,0,0,0,0,0,0,0,0,0,0,0,0,0,0,0,0,0,0,0,0,0,0,0,0,0,0,0,0,0,0,0,0,0,0,0,0,0,0,0,0,0,0,0,0,0,0,0,0,0,0,0,0,0,0,0,0,0,0,0,0,0,0,0,0,0,0,0,0,0,0,0,0,0,0,0,0,0,0,0,0,0,0,0,0,0,0,0,0,0,0,0,0,0,0,0,0,0,0,0,0,0,0,0,0,0,0,0,0,0,0,0,0,0,0,0,0,0,0,0,0,0,0,0,0,0,0,0,0,0,0,0,0,0,0,0,0,0,0,0,0,0,0,0,0,0,0,0,0,0,0,0,0,0,0,0,0,0,0,0,0,0,0,0,0,0,0,0,0,0,0,0,0,0,0,0,0,0,0,0,0,0,0,0,0,0,0,0,0,0,0,0,0,0,0,0,0,0,0,0,0,0,0,0,0,0,0,0,0,0,0,0,0,0,0,0,0,0,0,0,0,0,0,0,0,0,0,0,0,0,0,0,0,0,0,0,0,0,0,0,0,0,0,0,0,0,0,0,0,0,0,0,0,0,0,0,0,0,0,0,0,0,0,0,0,0,0,0,0,0,0,0,0,0,0,0,0,0,0,0,0,0,0,0,0,0,0,0,0,0,0,0,0,0,0,0,0,0,0,0,0,0,0,0,0,0,0,0,0,0,0,0,0,0,0,0,0,0,0,0,0,0,0,0,0,0,0,0,0,0,0,0,0,0,0,0,0,0,0,0,0,0,0,0,0,0,0,0,0,0,0,0,0,0,0,0,0,0,0,0,0,0,0,0,0,0,0,0,0,0,0,0,0,0,0,0,0,0,0,0,0,0,0,0,0,0,0,0,0,0,0,0,0,0,0,0,0,0,0,0,0,0,0,0,0,0,0,0,0,0,0,0,0,0,0,0,0,0,0,0,0,0,0,0,0,0,0,0,0,0,0,0,0,0,0,0,0,0,0,0,0,0,0,0,0,0,0,0,0,0,0,0,0,0,0,0,0,0,0,0,0,0,0,0,0,0,0,0,0,0,0,0,0,0,0,0,0,0,0,0,0,0,0,0,0,0,0,0,0,0,0,0,0,0,0,0,0,0,0,0,0,0,0,0,0,0,0,0,0,0,0,0,0,0,0,0,0,0,0,0,0,0,0,0,0,0,0,0],"trees":[{"base_weights":[7.1936487E-3,-2.7209623E-2,1.7740527E0,-5.2007094E-2,6.2676257E-1,1.1934508E0,1.23838305E-1,-7.587331E-2,7.326129E-2,4.6802622E-1,1.1713757E-1,8.1537485E-1,7.4499466E-2,4.2015508E-1,-8.166166E-2,1.7301198E-2,9.9358404E-1,1.9235697E-1,7.7741104E-1,2.5232443E-1,1.1010716E0,3.454912E-2,5.458113E-1,-1.1641368E-1,-3.0862747E-2,-1.0708893E-2,5.244612E-1,-5.747507E-3,1.5593462E0,1.2029025E-1,6.066064E-2,4.7481504E-1,1.3298459E0,4.938903E-3,2.0780092E-2,1.6454492E-2,5.874435E-2,5.801167E-3,-2.9220737E-3,5.968518E-1,-3.9086267E-4,-1.17907226E-1,2.7147252E-2,4.794864E-2,-1.4770448E-1,-8.1518956E-2,9.712672E-2,-3.7264667E-2,7.782577E-1,8.7460846E-2,-3.7372706E-3,4.0063884E-2,6.5180224E-1,6.4708054E-1,-6.273692E-3,-9.2162046E-4,7.503424E-2,-2.264608E-3,2.6350257E-3,1.9323979E-2,3.8600136E-2,-6.5729334E-3,-3.3820763E-3,-3.3302635E-3,6.7184004E-3,-5.98313E-3,-7.555868E-3,-4.787888E-3,1.6531175E-2,3.3392794E-3,2.0747287E-2,-7.915E-6,-3.097474E-3,4.7867764E-2,5.047206E-3,-8.49233E-4,9.240417E-3,4.0090095E-2,5.0450806E-3,4.298508E-2,4.621114E-3,1.7226033E-3,-1.7624794E-3],"categories":[],"categories_nodes":[],"categories_segments":[],"categories_sizes":[],"default_left":[0,0,0,0,0,0,0,0,0,0,0,0,0,0,0,0,0,0,0,0,0,0,0,0,0,0,0,0,0,0,0,0,0,0,0,0,0,0,0,0,0,0,0,0,0,0,0,0,0,0,0,0,0,0,0,0,0,0,0,0,0,0,0,0,0,0,0,0,0,0,0,0,0,0,0,0,0,0,0,0,0,0,0],"id":0,"left_children":[1,3,5,7,9,11,-1,13,15,17,-1,19,-1,21,23,25,27,29,31,33,35,37,39,41,43,45,47,-1,49,51,-1,53,55,57,-1,-1,-1,-1,-1,59,-1,61,-1,63,65,67,69,71,73,-1,-1,75,77,79,81,-1,-1,-1,-1,-1,-1,-1,-1,-1,-1,-1,-1,-1,-1,-1,-1,-1,-1,-1,-1,-1,-1,-1,-1,-1,-1,-1,-1],"loss_changes":[1.0502523E2,2.7520164E1,1.0507996E1,4.8906984E0,1.5791695E1,1.0273819E0,0E0,3.9764495E0,1.3476162E1,4.7971563E0,0E0,1.4916515E0,0E0,7.564032E-1,2.393773E0,3.528605E0,9.586747E0,2.2082944E0,3.8820114E0,1.9990975E-1,1.2245178E-2,4.4662256E-2,3.4375572E-1,8.577509E-1,5.09936E0,1.8099775E0,1.8823342E0,0E0,3.233406E0,1.2957658E0,0E0,1.5786843E0,2.100706E0,9.584269E-3,0E0,0E0,0E0,0E0,0E0,1.0695267E-1,0E0,5.394516E-1,0E0,3.2857425E0,3.2587051E-3,8.7084305E-1,8.7872875E-1,4.570012E-3,9.951072E-1,0E0,0E0,2.3434776E-1,2.4963653E-1,1.5715933E0,8.294813E-3,0E0,0E0,0E0,0E0,0E0,0E0,0E0,0E0,0E0,0E0,0E0,0E0,0E0,0E0,0E0,0E0,0E0,0E0,0E0,0E0,0E0,0E0,0E0,0E0,0E0,0E0,0E0,0E0],"parents":[2147483647,0,0,1,1,2,2,3,3,4,4,5,5,7,7,8,8,9,9,11,11,13,13,14,14,15,15,16,16,17,17,18,18,19,19,20,20,21,21,22,22,23,23,24,24,25,25,26,26,28,28,29,29,31,31,32,32,33,33,39,39,41,41,43,43,44,44,45,45,46,46,47,47,48,48,51,51,52,52,53,53,54,54],"right_children":[2,4,6,8,10,12,-1,14,16,18,-1,20,-1,22,24,26,28,30,32,34,36,38,40,42,44,46,48,-1,50,52,-1,54,56,58,-1,-1,-1,-1,-1,60,-1,62,-1,64,66,68,70,72,74,-1,-1,76,78,80,82,-1,-1,-1,-1,-1,-1,-1,-1,-1,-1,-1,-1,-1,-1,-1,-1,-1,-1,-1,-1,-1,-1,-1,-1,-1,-1,-1,-1],"split_conditions":[2.6157703E2,1.0091437E2,2.8280993E0,6.952806E1,4.9736757E0,1.1711215E2,1.23838305E-1,3.5E-1,3.2225616E1,1.4955263E1,1.1713757E-1,7.9E-1,7.4499466E-2,7.3374057E0,3.27E0,2.1843867E2,3.3581388E0,1.6491854E1,7.8596396E0,2.1206615E1,1.44183445E1,5.2363303E-5,4.6E0,5.25E0,9.6059326E1,1.3353622E1,1.8158052E1,-5.747507E-3,4.913919E0,1.755652E2,6.066064E-2,3.8046616E1,1.0861439E2,1.8158052E1,2.0780092E-2,1.6454492E-2,5.874435E-2,5.801167E-3,-2.9220737E-3,1.305802E1,-3.9086267E-4,9.031797E1,2.7147252E-2,1.2899276E0,2.6014438E-3,-5.519763E1,1.0335385E1,5.2425175E0,2.0302544E1,8.7460846E-2,-3.7372706E-3,1.305802E1,2.0040935E2,1.07E0,5.0269066E1,-9.2162046E-4,7.503424E-2,-2.264608E-3,2.6350257E-3,1.9323979E-2,3.8600136E-2,-6.5729334E-3,-3.3820763E-3,-3.3302635E-3,6.7184004E-3,-5.98313E-3,-7.555868E-3,-4.787888E-3,1.6531175E-2,3.3392794E-3,2.0747287E-2,-7.915E-6,-3.097474E-3,4.7867764E-2,5.047206E-3,-8.49233E-4,9.240417E-3,4.0090095E-2,5.0450806E-3,4.298508E-2,4.621114E-3,1.7226033E-3,-1.7624794E-3],"split_indices":[5,8,35,5,35,8,0,37,13,4,0,27,0,59,38,5,4,39,39,4,4,4,27,27,16,4,4,0,4,8,0,25,5,4,0,0,0,0,0,17,0,7,0,4,4,26,39,17,4,0,0,17,5,37,25,0,0,0,0,0,0,0,0,0,0,0,0,0,0,0,0,0,0,0,0,0,0,0,0,0,0,0,0],"split_type":[0,0,0,0,0,0,0,0,0,0,0,0,0,0,0,0,0,0,0,0,0,0,0,0,0,0,0,0,0,0,0,0,0,0,0,0,0,0,0,0,0,0,0,0,0,0,0,0,0,0,0,0,0,0,0,0,0,0,0,0,0,0,0,0,0,0,0,0,0,0,0,0,0,0,0,0,0,0,0,0,0,0,0],"sum_hessian":[1.726E3,1.694E3,3.2E1,1.633E3,6.1E1,1.9E1,1.3E1,1.372E3,2.61E2,5.7E1,4E0,1E1,9E0,1.5E1,1.357E3,2.47E2,1.4E1,3.1E1,2.6E1,4E0,6E0,4E0,1.1E1,8.05E2,5.52E2,2.35E2,1.2E1,5E0,9E0,3E1,1E0,1.8E1,8E0,2E0,2E0,1E0,5E0,2E0,2E0,1E1,1E0,8.04E2,1E0,3.3E2,2.22E2,1.42E2,9.3E1,4E0,8E0,8E0,1E0,2.7E1,3E0,1.3E1,5E0,1E0,7E0,1E0,1E0,6E0,4E0,6.32E2,1.72E2,1.42E2,1.88E2,2.8E1,1.94E2,1.38E2,4E0,8.6E1,7E0,2E0,2E0,6E0,2E0,2E1,7E0,2E0,1E0,9E0,4E0,2E0,3E0],"tree_param":{"num_deleted":"0","num_feature":"60","num_nodes":"83","size_leaf_vector":"1"}},{"base_weights":[-9.254606E-4,-3.9766442E-2,1.306739E0,7.0629233E-1,-5.2552667E-2,5.340003E-1,1.9224173E0,4.5012957E-1,8.06614E-2,-5.8213778E-2,2.9807612E-1,3.4694177E-1,8.638812E-2,1.326619E0,1.2117286E-1,1.6334714E-2,6.660061E-1,-4.170821E-2,-1.4100912E-1,1.2143192E-1,6.417111E-2,-3.7299566E-2,4.933635E-1,5.931122E-1,1.7497221E0,2.0656109E-1,-6.75244E-2,8.0503607E-1,4.7657028E-2,-7.3546015E-2,8.859471E-2,-1.1686005E-1,-7.184864E-3,-3.1452443E-2,4.311322E-1,-4.2482847E-3,2.7288585E-3,7.0759296E-1,1.906849E-1,4.9830463E-2,4.133705E-2,1.9921161E-2,9.344158E-2,1.2922932E-2,2.56915E-3,-4.168548E-3,-9.3026756E-4,8.7918276E-1,-2.1181065E-3,-3.1139015E-3,9.436555E-3,-8.2238704E-2,1.8951926E-1,6.0280513E-2,5.114273E-1,-6.9594695E-3,-5.158359E-2,2.556049E-1,-8.6767085E-2,3.8754717E-2,6.973606E-2,2.2721972E-1,5.2322384E-2,1.0706947E-2,2.4353959E-2,1.1441912E-2,-4.872137E-3,6.7364997E-3,4.6730608E-2,1.9219782E-2,-4.260038E-3,-5.6838186E-4,2.206692E-2,8.651811E-3,-3.454891E-4,6.974734E-2,1.1123129E-2,-4.333865E-3,6.6064945E-3,-1.6978709E-3,2.086824E-2,-2.2303315E-3,-5.9040827E-3,-1.7765859E-3,1.227018E-2,4.2367214E-3,1.4698255E-2,-3.388748E-3,5.5890256E-3],"categories":[],"categories_nodes":[],"categories_segments":[],"categories_sizes":[],"default_left":[0,0,0,0,0,0,0,0,0,0,0,0,0,0,0,0,0,0,0,0,0,0,0,0,0,0,0,0,0,0,0,0,0,0,0,0,0,0,0,0,0,0,0,0,0,0,0,0,0,0,0,0,0,0,0,0,0,0,0,0,0,0,0,0,0,0,0,0,0,0,0,0,0,0,0,0,0,0,0,0,0,0,0,0,0,0,0,0,0],"id":1,"left_children":[1,3,5,7,9,11,13,15,-1,17,19,21,-1,23,-1,25,27,29,31,33,-1,35,37,39,41,43,45,47,49,51,53,55,-1,57,59,-1,-1,61,63,-1,65,-1,-1,-1,-1,-1,-1,67,-1,-1,-1,69,71,73,75,-1,77,79,81,-1,83,85,-1,87,-1,-1,-1,-1,-1,-1,-1,-1,-1,-1,-1,-1,-1,-1,-1,-1,-1,-1,-1,-1,-1,-1,-1,-1,-1],"loss_changes":[8.979961E1,1.6416056E1,2.3237114E1,6.0112104E0,3.3699288E0,4.759846E0,5.1435165E0,2.2366276E0,0E0,2.2667484E0,4.543655E0,1.2561505E0,0E0,3.6174545E0,0E0,1.5751785E-1,1.3371396E0,5.764715E0,1.124382E-3,1.14992E0,0E0,3.5293046E-2,9.0255547E-1,1.5172806E0,7.039852E-1,1.087971E-2,3.8752407E-3,8.5405636E-1,7.378975E-2,2.5675945E0,3.2375717E0,4.0920287E-2,0E0,2.9211214E-1,9.404006E-1,0E0,0E0,1.2272172E0,4.2154035E-1,0E0,1.2638411E-1,0E0,0E0,0E0,0E0,0E0,0E0,3.6925507E-1,0E0,0E0,0E0,1.5269022E0,1.8261547E0,1.9482505E0,4.0298767E0,0E0,7.592454E-2,1.5469132E-1,1.4536329E-2,0E0,1.01180255E-1,2.2642225E-2,0E0,5.5170592E-2,0E0,0E0,0E0,0E0,0E0,0E0,0E0,0E0,0E0,0E0,0E0,0E0,0E0,0E0,0E0,0E0,0E0,0E0,0E0,0E0,0E0,0E0,0E0,0E0,0E0],"parents":[2147483647,0,0,1,1,2,2,3,3,4,4,5,5,6,6,7,7,9,9,10,10,11,11,13,13,15,15,16,16,17,17,18,18,19,19,21,21,22,22,23,23,24,24,25,25,26,26,27,27,28,28,29,29,30,30,31,31,33,33,34,34,37,37,38,38,40,40,47,47,51,51,52,52,53,53,54,54,56,56,57,57,58,58,60,60,61,61,63,63],"right_children":[2,4,6,8,10,12,14,16,-1,18,20,22,-1,24,-1,26,28,30,32,34,-1,36,38,40,42,44,46,48,50,52,54,56,-1,58,60,-1,-1,62,64,-1,66,-1,-1,-1,-1,-1,-1,68,-1,-1,-1,70,72,74,76,-1,78,80,82,-1,84,86,-1,88,-1,-1,-1,-1,-1,-1,-1,-1,-1,-1,-1,-1,-1,-1,-1,-1,-1,-1,-1,-1,-1,-1,-1,-1,-1],"split_conditions":[1.25664246E2,-1.9379688E2,2.7745517E2,1.9535977E0,5.519167E1,1.4932679E1,5.5362396E0,3.835193E1,8.06614E-2,9.6059326E1,4.2189174E0,1.6027766E2,8.638812E-2,1.8158052E1,1.2117286E-1,8.835597E-5,3.5946336E0,3.66E0,4.6825986E-3,1.3885507E1,6.417111E-2,5.9368777E0,3.1628998E1,3.5260745E2,8.835597E-5,2.622474E2,1.8485662E1,3.2241558E1,1.8158052E1,3.3633734E2,9.201661E0,1.7342959E-3,-7.184864E-3,-8.410881E1,1.8485662E1,-4.2482847E-3,2.7288585E-3,3.4669054E0,9.214882E0,4.9830463E-2,1.4095212E1,1.9921161E-2,9.344158E-2,1.2922932E-2,2.56915E-3,-4.168548E-3,-9.3026756E-4,2.8629908E1,-2.1181065E-3,-3.1139015E-3,9.436555E-3,5.2363303E-5,9.606726E-1,5.5133743E0,3.22E0,-6.9594695E-3,4.96E0,2.484799E0,1.53E0,3.8754717E-2,2.450775E1,1.5787509E1,5.2322384E-2,2.8629908E1,2.4353959E-2,1.1441912E-2,-4.872137E-3,6.7364997E-3,4.6730608E-2,1.9219782E-2,-4.260038E-3,-5.6838186E-4,2.206692E-2,8.651811E-3,-3.454891E-4,6.974734E-2,1.1123129E-2,-4.333865E-3,6.6064945E-3,-1.6978709E-3,2.086824E-2,-2.2303315E-3,-5.9040827E-3,-1.7765859E-3,1.227018E-2,4.2367214E-3,1.4698255E-2,-3.388748E-3,5.5890256E-3],"split_indices":[8,26,7,35,25,39,32,8,0,16,35,7,0,4,0,25,55,27,4,4,0,4,16,7,25,7,4,4,4,7,58,4,0,46,4,0,0,54,39,0,4,0,0,0,0,0,0,12,0,0,0,4,49,7,46,0,46,4,37,0,12,4,0,12,0,0,0,0,0,0,0,0,0,0,0,0,0,0,0,0,0,0,0,0,0,0,0,0,0],"split_type":[0,0,0,0,0,0,0,0,0,0,0,0,0,0,0,0,0,0,0,0,0,0,0,0,0,0,0,0,0,0,0,0,0,0,0,0,0,0,0,0,0,0,0,0,0,0,0,0,0,0,0,0,0,0,0,0,0,0,0,0,0,0,0,0,0,0,0,0,0,0,0,0,0,0,0,0,0,0,0,0,0,0,0,0,0,0,0,0,0],"sum_hessian":[1.766E3,1.716E3,5E1,2.8E1,1.688E3,2.3E1,2.7E1,2.3E1,5E0,1.662E3,2.6E1,2.1E1,2E0,1.4E1,1.3E1,8E0,1.5E1,1.387E3,2.75E2,2.3E1,3E0,6E0,1.5E1,6E0,8E0,2E0,6E0,1.2E1,3E0,1.115E3,2.72E2,3.2E1,2.43E2,1.6E1,7E0,4E0,2E0,8E0,7E0,3E0,3E0,1E0,7E0,1E0,1E0,4E0,2E0,1.1E1,1E0,2E0,1E0,1.08E3,3.5E1,2.56E2,1.6E1,2.3E1,9E0,2E0,1.4E1,3E0,4E0,4E0,4E0,5E0,2E0,1E0,2E0,1E0,1E1,6E0,1.074E3,2E1,1.5E1,9.5E1,1.61E2,3E0,1.3E1,8E0,1E0,1E0,1E0,7E0,7E0,3E0,1E0,2E0,2E0,3E0,2E0],"tree_param":{"num_deleted":"0","num_feature":"60","num_nodes":"89","size_leaf_vector":"1"}},{"base_weights":[8.311857E-3,-3.1084426E-2,1.2747827E0,5.996568E-1,-4.4670764E-2,8.0929404E-1,2.3006444E0,-2.2191444E-2,9.1150564E-1,-5.5236053E-2,2.497415E-1,3.2700416E-1,1.3858283E0,1.2005216E-1,1.9866489E-2,-7.362361E-2,1.4874863E-2,6.5207475E-1,1.2095014E0,3.5285518E-1,-5.9290044E-2,5.8560062E-2,1.0612841E0,3.077734E-2,5.712951E-1,1.4837523E0,-4.5238473E-3,-1.1739153E-2,-4.647371E-3,1.2172877E-1,9.050749E-1,6.751203E-2,2.1551497E-2,-1.043225E-2,5.7187086E-1,-1.1562664E-1,-3.205969E-2,-6.6831104E-2,1.7659318E-1,1.3499563E0,2.1861842E-1,1.5446752E-2,-2.7931936E-2,-2.1253722E-2,7.711729E-1,2.8772816E-2,8.6928144E-2,-1.0052122E-3,3.3390298E-4,2.4905868E-2,1.0512485E-2,1.0751324E0,1.906028E-2,4.9671354E-3,-3.7105386E-3,3.639154E-2,-1.7323027E-3,-8.08616E-2,-1.3967519E-1,-6.473006E-2,1.3020581E-1,-8.17189E-2,6.889707E-3,4.046311E-2,8.639318E-2,7.3722236E-2,1.1963426E-2,2.8309872E-2,-4.2986874E-3,2.7418039E-3,-7.123767E-2,-3.1517372E-3,2.6022333E-3,5.1417984E-2,9.629975E-3,2.504921E-3,-9.5561145E-6,1.2347043E-2,5.8600377E-2,-8.878967E-5,-6.730068E-3,-7.0358114E-3,-1.294932E-3,-3.9151437E-3,1.0348447E-2,1.117899E-2,-6.294755E-3,-1.9302076E-3,-4.908442E-3,-2.130034E-3,1.9366104E-2,-4.0783533E-3,-1.5138059E-3],"categories":[],"categories_nodes":[],"categories_segments":[],"categories_sizes":[],"default_left":[0,0,0,0,0,0,0,0,0,0,0,0,0,0,0,0,0,0,0,0,0,0,0,0,0,0,0,0,0,0,0,0,0,0,0,0,0,0,0,0,0,0,0,0,0,0,0,0,0,0,0,0,0,0,0,0,0,0,0,0,0,0,0,0,0,0,0,0,0,0,0,0,0,0,0,0,0,0,0,0,0,0,0,0,0,0,0,0,0,0,0,0,0],"id":2,"left_children":[1,3,5,7,9,11,13,15,17,19,21,23,25,-1,-1,27,-1,29,31,33,35,37,39,41,43,45,-1,47,-1,49,51,-1,-1,53,55,57,59,61,63,65,67,-1,69,71,73,-1,-1,-1,-1,75,-1,77,-1,-1,-1,-1,-1,79,81,83,85,87,-1,-1,89,-1,-1,-1,-1,-1,91,-1,-1,-1,-1,-1,-1,-1,-1,-1,-1,-1,-1,-1,-1,-1,-1,-1,-1,-1,-1,-1,-1],"loss_changes":[8.765392E1,1.4629155E1,2.3447021E1,7.001443E0,5.2053022E0,1.011298E1,2.103447E0,2.356525E-1,1.0667362E0,2.6878104E0,8.936659E0,1.5744586E0,2.5918617E0,0E0,0E0,1.3258994E-2,0E0,1.9024911E0,5.136204E-1,1.2790161E0,2.4461956E0,7.222168E-1,2.3806715E0,1.8826397E-1,1.4376385E0,2.7026253E0,0E0,7.50504E-4,0E0,4.6188667E-2,4.8103237E-1,0E0,0E0,5.638129E-2,9.711404E-1,4.2345142E-1,5.7232027E0,8.437445E-2,1.3567538E0,7.53355E-1,4.7215754E-1,0E0,3.9749686E-2,1.5530547E-2,1.1411514E0,0E0,0E0,0E0,0E0,2.5386037E-3,0E0,2.7220154E-1,0E0,0E0,0E0,0E0,0E0,9.1352224E-1,3.259945E-2,3.3277786E0,4.3564296E0,1.2522683E-2,0E0,0E0,9.0931356E-1,0E0,0E0,0E0,0E0,0E0,4.922226E-4,0E0,0E0,0E0,0E0,0E0,0E0,0E0,0E0,0E0,0E0,0E0,0E0,0E0,0E0,0E0,0E0,0E0,0E0,0E0,0E0,0E0,0E0],"parents":[2147483647,0,0,1,1,2,2,3,3,4,4,5,5,6,6,7,7,8,8,9,9,10,10,11,11,12,12,15,15,17,17,18,18,19,19,20,20,21,21,22,22,23,23,24,24,25,25,27,27,29,29,30,30,33,33,34,34,35,35,36,36,37,37,38,38,39,39,40,40,42,42,43,43,44,44,49,49,51,51,57,57,58,58,59,59,60,60,61,61,64,64,70,70],"right_children":[2,4,6,8,10,12,14,16,18,20,22,24,26,-1,-1,28,-1,30,32,34,36,38,40,42,44,46,-1,48,-1,50,52,-1,-1,54,56,58,60,62,64,66,68,-1,70,72,74,-1,-1,-1,-1,76,-1,78,-1,-1,-1,-1,-1,80,82,84,86,88,-1,-1,90,-1,-1,-1,-1,-1,92,-1,-1,-1,-1,-1,-1,-1,-1,-1,-1,-1,-1,-1,-1,-1,-1,-1,-1,-1,-1,-1,-1],"split_conditions":[1.25664246E2,-1.8793098E2,4.4910507E0,1.8485662E1,3.5420795E1,1.5787509E1,1.0203518E1,4.584758E1,1.2964665E1,3.5E-1,3.3163142E0,2.0593692E2,3.8006172E1,1.2005216E-1,1.9866489E-2,1.2366772E0,1.4874863E-2,7.6E-1,1.8683645E1,2.2767663E0,1.2899276E0,7.3495995E1,1.657369E1,1.2976935E2,1.1492553E1,9.938369E0,-4.5238473E-3,1.4798829E1,-4.647371E-3,3.9866003E2,1.12E0,6.751203E-2,2.1551497E-2,5.2363303E-5,4.25E0,5.8251935E-1,3.66E0,2.28E0,1.1069898E1,1.8158052E1,1.5697213E0,1.5446752E-2,-1.5212044E1,1.4798829E1,3.1628998E1,2.8772816E-2,8.6928144E-2,-1.0052122E-3,3.3390298E-4,2.1206615E1,1.0512485E-2,1.9866566E1,1.906028E-2,4.9671354E-3,-3.7105386E-3,3.639154E-2,-1.7323027E-3,7.673166E0,1.734342E1,3.96E0,9.6059326E1,-3.7414677E1,6.889707E-3,4.046311E-2,6.2932484E1,7.3722236E-2,1.1963426E-2,2.8309872E-2,-4.2986874E-3,2.7418039E-3,5.9368777E0,-3.1517372E-3,2.6022333E-3,5.1417984E-2,9.629975E-3,2.504921E-3,-9.5561145E-6,1.2347043E-2,5.8600377E-2,-8.878967E-5,-6.730068E-3,-7.0358114E-3,-1.294932E-3,-3.9151437E-3,1.0348447E-2,1.117899E-2,-6.294755E-3,-1.9302076E-3,-4.908442E-3,-2.130034E-3,1.9366104E-2,-4.0783533E-3,-1.5138059E-3],"split_indices":[8,26,40,4,25,4,33,12,25,37,55,7,16,0,0,40,0,27,58,53,4,8,17,8,16,51,0,4,0,7,46,0,0,4,46,4,38,27,12,4,4,0,46,4,16,0,0,0,0,4,0,4,0,0,0,0,0,55,54,27,16,46,0,0,25,0,0,0,0,0,4,0,0,0,0,0,0,0,0,0,0,0,0,0,0,0,0,0,0,0,0,0,0],"split_type":[0,0,0,0,0,0,0,0,0,0,0,0,0,0,0,0,0,0,0,0,0,0,0,0,0,0,0,0,0,0,0,0,0,0,0,0,0,0,0,0,0,0,0,0,0,0,0,0,0,0,0,0,0,0,0,0,0,0,0,0,0,0,0,0,0,0,0,0,0,0,0,0,0,0,0,0,0,0,0,0,0,0,0,0,0,0,0,0,0,0,0,0,0],"sum_hessian":[1.755E3,1.703E3,5.2E1,3.5E1,1.668E3,3.7E1,1.5E1,1.2E1,2.3E1,1.611E3,5.7E1,2.1E1,1.6E1,1.4E1,1E0,1.1E1,1E0,1.4E1,9E0,1.5E1,1.596E3,4.7E1,1E1,1E1,1.1E1,1.5E1,1E0,3E0,8E0,5E0,9E0,7E0,2E0,6E0,9E0,5.19E2,1.077E3,2.3E1,2.4E1,7E0,3E0,1E0,9E0,3E0,8E0,4E0,1.1E1,2E0,1E0,3E0,2E0,6E0,3E0,2E0,4E0,7E0,2E0,2.14E2,3.05E2,8.97E2,1.8E2,2.2E1,1E0,2E0,2.2E1,6E0,1E0,1E0,2E0,3E0,6E0,2E0,1E0,5E0,3E0,1E0,2E0,1E0,5E0,8.7E1,1.27E2,3.02E2,3E0,8.55E2,4.2E1,1.32E2,4.8E1,7E0,1.5E1,1.6E1,6E0,4E0,2E0],"tree_param":{"num_deleted":"0","num_feature":"60","num_nodes":"93","size_leaf_vector":"1"}},{"base_weights":[2.395663E-3,-3.2801673E-2,1.3222437E0,6.0531E-1,-4.6761014E-2,7.282713E-1,1.9371103E0,2.274178E-3,7.990617E-1,-6.846322E-2,7.442973E-2,1.4241128E-1,1.1093506E0,2.035656E0,-3.3087588E-3,-6.1930876E-2,1.4502992E-2,1.1497778E0,4.1845602E-1,4.315498E-1,-7.3344715E-2,3.3710264E-2,6.4730984E-1,4.7073275E-2,2.7394785E-2,1.6830239E-1,1.3305874E0,7.351084E-1,1.1057873E-1,-1.1320021E-2,-4.2674816E-3,6.2855434E-1,7.906038E-2,-2.3437353E-2,6.417464E-1,5.4109097E-3,5.4727757E-1,-1.0965323E-1,-4.400171E-2,-7.3885635E-2,1.7143981E-1,-5.8097704E-3,1.0743304E0,-3.5907463E-3,1.8032447E-1,-2.4980983E-2,1.8703813E-2,1.1131455E-2,7.055359E-2,-5.4088384E-3,5.2613117E-2,-9.71705E-4,3.2555536E-4,3.411589E-2,6.305275E-3,-4.925339E-3,8.446766E-2,4.3798387E-2,2.3233153E-1,4.3613124E-3,-2.546814E-3,6.042217E-1,-5.5407884E-4,-1.1246327E-1,1.5811299E-1,-5.6765378E-2,2.9157162E-1,1.9573627E-2,-8.3752714E-2,1.3155457E-1,9.5081073E-1,7.633441E-2,-4.9483683E-3,1.5060583E-2,3.7399877E-3,2.5371776E-3,-4.410751E-3,3.6132746E-4,5.973747E-3,-2.661266E-3,1.5851354E-2,2.0554332E-2,3.955763E-2,-6.041273E-3,-3.2720577E-3,-1.2015187E-3,2.0449048E-2,-5.552512E-4,-6.3681887E-3,1.3410869E-3,4.3846227E-2,-4.8995E-3,2.8150629E-3,3.2786303E-3,2.4105467E-2,1.406044E-2,5.239545E-2],"categories":[],"categories_nodes":[],"categories_segments":[],"categories_sizes":[],"default_left":[0,0,0,0,0,0,0,0,0,0,0,0,0,0,0,0,0,0,0,0,0,0,0,0,0,0,0,0,0,0,0,0,0,0,0,0,0,0,0,0,0,0,0,0,0,0,0,0,0,0,0,0,0,0,0,0,0,0,0,0,0,0,0,0,0,0,0,0,0,0,0,0,0,0,0,0,0,0,0,0,0,0,0,0,0,0,0,0,0,0,0,0,0,0,0,0,0],"id":3,"left_children":[1,3,5,7,9,11,13,15,17,19,21,23,25,27,-1,29,-1,31,33,35,37,39,41,43,-1,45,47,49,-1,51,-1,53,-1,55,57,59,61,63,65,67,69,-1,71,-1,73,75,-1,-1,-1,-1,-1,-1,-1,-1,-1,-1,77,-1,79,-1,-1,81,-1,83,85,87,89,-1,91,93,95,-1,-1,-1,-1,-1,-1,-1,-1,-1,-1,-1,-1,-1,-1,-1,-1,-1,-1,-1,-1,-1,-1,-1,-1,-1,-1],"loss_changes":[8.226896E1,1.5393949E1,1.53890915E1,4.321233E0,4.447346E0,5.4234934E0,4.477844E0,2.0273659E-1,3.2564354E0,3.5293322E0,5.9733143E0,3.9944756E-1,2.8989773E0,3.1788483E0,0E0,9.7010285E-3,0E0,2.1543236E0,1.4950988E0,6.8746424E-1,1.5080442E0,3.5840778E0,5.667385E0,1.7136994E-1,0E0,1.6843545E-1,7.5593376E-1,1.183635E0,0E0,7.0527015E-4,0E0,1.3006258E-1,0E0,5.6922838E-2,7.554226E-1,2.2883236E-2,3.564434E-1,4.948268E-1,3.3873875E0,6.572617E-1,3.1699684E0,0E0,5.9893465E0,0E0,4.125236E-2,1.8841447E-2,0E0,0E0,0E0,0E0,0E0,0E0,0E0,0E0,0E0,0E0,7.248612E-3,0E0,1.3780084E-1,0E0,0E0,3.5796642E-2,0E0,2.390275E-1,3.2968548E-1,2.445258E0,4.4706707E0,0E0,2.7271134E-1,2.3276768E0,3.0405045E-2,0E0,0E0,0E0,0E0,0E0,0E0,0E0,0E0,0E0,0E0,0E0,0E0,0E0,0E0,0E0,0E0,0E0,0E0,0E0,0E0,0E0,0E0,0E0,0E0,0E0,0E0],"parents":[2147483647,0,0,1,1,2,2,3,3,4,4,5,5,6,6,7,7,8,8,9,9,10,10,11,11,12,12,13,13,15,15,17,17,18,18,19,19,20,20,21,21,22,22,23,23,25,25,26,26,27,27,29,29,31,31,33,33,34,34,35,35,36,36,37,37,38,38,39,39,40,40,42,42,44,44,45,45,56,56,58,58,61,61,63,63,64,64,65,65,66,66,68,68,69,69,70,70],"right_children":[2,4,6,8,10,12,14,16,18,20,22,24,26,28,-1,30,-1,32,34,36,38,40,42,44,-1,46,48,50,-1,52,-1,54,-1,56,58,60,62,64,66,68,70,-1,72,-1,74,76,-1,-1,-1,-1,-1,-1,-1,-1,-1,-1,78,-1,80,-1,-1,82,-1,84,86,88,90,-1,92,94,96,-1,-1,-1,-1,-1,-1,-1,-1,-1,-1,-1,-1,-1,-1,-1,-1,-1,-1,-1,-1,-1,-1,-1,-1,-1,-1],"split_conditions":[1.25664246E2,-1.8793098E2,2.9593954E0,5.447416E2,7.077834E1,4.4396487E2,1.9035198E1,3.2093307E2,6.090763E2,3.5E-1,2.3306477E1,2.22791E2,2.8558538E1,-3.9133343E-1,-3.3087588E-3,5.835329E0,1.4502992E-2,8.7379265E1,5.783376E-1,2.5188773E0,2.63E0,4.0060867E2,1.0445339E2,2.726735E0,2.7394785E-2,3.2093307E2,2.7745517E2,1.3226976E2,1.1057873E-1,4.4396487E2,-4.2674816E-3,3.9866003E2,7.906038E-2,7.828222E-1,5.39172E0,1.5708992E-3,4.6E0,3.4479907E2,8.82352E1,-6.756216E1,1.1937666E1,-5.8097704E-3,1.6020253E2,-3.5907463E-3,1.2957678E2,2.22791E2,1.8703813E-2,1.1131455E-2,7.055359E-2,-5.4088384E-3,5.2613117E-2,-9.71705E-4,3.2555536E-4,3.411589E-2,6.305275E-3,-4.925339E-3,1.97691E2,4.3798387E-2,2.1404146E2,4.3613124E-3,-2.546814E-3,9.410649E0,-5.5407884E-4,3.5571292E2,3.846606E0,9.443132E1,-6.433483E1,1.9573627E-2,1.67E0,1.4991094E1,4.4396487E2,7.633441E-2,-4.9483683E-3,1.5060583E-2,3.7399877E-3,2.5371776E-3,-4.410751E-3,3.6132746E-4,5.973747E-3,-2.661266E-3,1.5851354E-2,2.0554332E-2,3.955763E-2,-6.041273E-3,-3.2720577E-3,-1.2015187E-3,2.0449048E-2,-5.552512E-4,-6.3681887E-3,1.3410869E-3,4.3846227E-2,-4.8995E-3,2.8150629E-3,3.2786303E-3,2.4105467E-2,1.406044E-2,5.239545E-2],"split_indices":[8,26,59,6,5,6,17,5,6,37,51,5,57,55,0,17,0,8,13,46,27,6,6,49,0,5,7,8,0,6,0,7,0,46,33,6,27,7,7,46,13,0,6,0,5,5,0,0,0,0,0,0,0,0,0,0,5,0,5,0,0,17,0,6,49,16,31,0,38,51,6,0,0,0,0,0,0,0,0,0,0,0,0,0,0,0,0,0,0,0,0,0,0,0,0,0,0],"split_type":[0,0,0,0,0,0,0,0,0,0,0,0,0,0,0,0,0,0,0,0,0,0,0,0,0,0,0,0,0,0,0,0,0,0,0,0,0,0,0,0,0,0,0,0,0,0,0,0,0,0,0,0,0,0,0,0,0,0,0,0,0,0,0,0,0,0,0,0,0,0,0,0,0,0,0,0,0,0,0,0,0,0,0,0,0,0,0,0,0,0,0,0,0,0,0,0,0],"sum_hessian":[1.769E3,1.724E3,4.5E1,3.6E1,1.688E3,2.4E1,2.1E1,9E0,2.7E1,1.432E3,2.56E2,1E1,1.4E1,2E1,1E0,8E0,1E0,1.3E1,1.4E1,1.3E1,1.419E3,2.4E2,1.6E1,9E0,1E0,3E0,1.1E1,3E0,1.7E1,3E0,5E0,7E0,6E0,5E0,9E0,3E0,1E1,6.33E2,7.86E2,1.35E2,1.05E2,6E0,1E1,5E0,4E0,2E0,1E0,1E0,1E1,1E0,2E0,2E0,1E0,6E0,1E0,3E0,2E0,5E0,4E0,1E0,2E0,9E0,1E0,6.27E2,6E0,7.58E2,2.8E1,2E0,1.33E2,1.01E2,4E0,7E0,3E0,1E0,3E0,1E0,1E0,1E0,1E0,1E0,3E0,6E0,3E0,5.31E2,9.6E1,4E0,2E0,4.61E2,2.97E2,2E1,8E0,1.21E2,1.2E1,8.6E1,1.5E1,1E0,3E0],"tree_param":{"num_deleted":"0","num_feature":"60","num_nodes":"97","size_leaf_vector":"1"}},{"base_weights":[4.422704E-3,-2.8513653E-2,1.2294159E0,5.3973544E-1,-4.2439267E-2,6.6518444E-1,1.9962087E0,-3.0691208E-2,7.768324E-1,-5.63256E-2,2.14144E-1,9.2048967E-1,2.393011E-2,6.1020935E-1,2.1233728E0,-8.038353E-2,1.4140417E-2,5.066503E-1,1.3209424E0,3.1286666E-1,-6.0525175E-2,1.5759443E-1,6.67006E-2,3.4674218E-1,1.2027582E0,1.4684068E-2,-4.649896E-2,3.2231503E-3,4.2542554E-2,1.1072852E-1,1.6605359E-2,3.1741636E-4,-4.4422685E-3,8.2170093E-1,2.904321E-1,7.150664E-2,1.118547E-2,4.74901E-1,-4.5176097E-3,-7.9063855E-2,1.0632168E-3,-1.5171307E-2,3.6258468E-1,1.2943679E-1,3.3288613E-2,1.3205667E0,-5.273618E-3,-5.0448505E-3,3.889839E-3,4.519787E-2,6.147643E-3,-7.303186E-2,4.431209E-1,3.1183374E-1,6.734418E-1,-9.9987775E-2,-3.452464E-2,8.630372E-1,-3.8457263E-2,7.45317E-2,-8.704022E-2,2.2226368E-1,5.3695973E-2,2.8007876E-2,1.1076488E-2,7.1065985E-2,2.7226726E-2,3.522944E-4,-4.740638E-3,3.0847384E-2,7.295227E-3,3.2682415E-2,6.0397065E-3,8.031795E-3,3.8074218E-2,-5.323755E-3,1.1358662E-3,2.8679403E-3,-6.036123E-3,7.347905E-2,3.639801E-3,-2.6860896E-3,9.011828E-3,-1.13396E-3,1.950712E-2,8.23983E-3,-5.1852777E-3,5.7575395E-3,4.8502225E-2,3.21272E-3,-2.018292E-3],"categories":[],"categories_nodes":[],"categories_segments":[],"categories_sizes":[],"default_left":[0,0,0,0,0,0,0,0,0,0,0,0,0,0,0,0,0,0,0,0,0,0,0,0,0,0,0,0,0,0,0,0,0,0,0,0,0,0,0,0,0,0,0,0,0,0,0,0,0,0,0,0,0,0,0,0,0,0,0,0,0,0,0,0,0,0,0,0,0,0,0,0,0,0,0,0,0,0,0,0,0,0,0,0,0,0,0,0,0,0,0],"id":4,"left_children":[1,3,5,7,9,11,13,15,17,19,21,23,25,27,29,31,-1,33,35,37,39,41,-1,43,45,-1,47,-1,-1,-1,-1,-1,-1,49,51,-1,-1,53,-1,55,57,59,61,63,-1,65,-1,-1,-1,-1,-1,67,69,71,73,75,77,79,81,83,85,87,-1,89,-1,-1,-1,-1,-1,-1,-1,-1,-1,-1,-1,-1,-1,-1,-1,-1,-1,-1,-1,-1,-1,-1,-1,-1,-1,-1,-1],"loss_changes":[7.088406E1,1.3562421E1,1.8573982E1,5.568944E0,5.9658365E0,4.56201E0,2.0530396E0,2.2525388E-1,3.593998E0,2.477951E0,5.2359805E0,2.82197E0,1.8464085E-1,3.3913946E-1,2.0416183E0,9.370945E-3,0E0,1.1918654E0,7.5833416E-1,1.2189438E0,1.7915177E0,2.94497E0,0E0,4.6844023E-1,2.1428528E0,0E0,6.194102E-2,0E0,0E0,0E0,0E0,0E0,0E0,3.4866762E-1,8.093183E-1,0E0,0E0,2.108798E-1,0E0,1.120461E0,1.2433079E1,3.030427E-1,3.554284E0,4.9840756E-2,0E0,1.6429138E-1,0E0,0E0,0E0,0E0,0E0,9.388875E-3,4.266262E-1,5.0874424E-1,1.0342193E-1,6.5516186E-1,3.0720234E0,7.5620737E0,1.1747348E0,6.531449E-1,1.262109E-1,2.5314984E0,0E0,1.2506918E-2,0E0,0E0,0E0,0E0,0E0,0E0,0E0,0E0,0E0,0E0,0E0,0E0,0E0,0E0,0E0,0E0,0E0,0E0,0E0,0E0,0E0,0E0,0E0,0E0,0E0,0E0,0E0],"parents":[2147483647,0,0,1,1,2,2,3,3,4,4,5,5,6,6,7,7,8,8,9,9,10,10,11,11,12,12,13,13,14,14,15,15,17,17,18,18,19,19,20,20,21,21,23,23,24,24,26,26,33,33,34,34,37,37,39,39,40,40,41,41,42,42,43,43,45,45,51,51,52,52,53,53,54,54,55,55,56,56,57,57,58,58,59,59,60,60,61,61,63,63],"right_children":[2,4,6,8,10,12,14,16,18,20,22,24,26,28,30,32,-1,34,36,38,40,42,-1,44,46,-1,48,-1,-1,-1,-1,-1,-1,50,52,-1,-1,54,-1,56,58,60,62,64,-1,66,-1,-1,-1,-1,-1,68,70,72,74,76,78,80,82,84,86,88,-1,90,-1,-1,-1,-1,-1,-1,-1,-1,-1,-1,-1,-1,-1,-1,-1,-1,-1,-1,-1,-1,-1,-1,-1,-1,-1,-1,-1],"split_conditions":[1.25664246E2,-1.8793098E2,6.1673074E0,1.8485662E1,6.977772E1,1.0237535E1,1.2373563E0,3.2093307E2,4.0548735E0,3.5E-1,4.13E0,6.703275E-1,1.2957678E2,8.13082E0,1.0639995E1,2.1317098E0,1.4140417E-2,2.0302544E1,6.9727077E0,1.1506487E-2,8.82352E1,1.3885507E1,6.67006E-2,7.6121054E0,3.8006172E1,1.4684068E-2,8.835597E-5,3.2231503E-3,4.2542554E-2,1.1072852E-1,1.6605359E-2,3.1741636E-4,-4.4422685E-3,4.1787784E2,5.783376E-1,7.150664E-2,1.118547E-2,1.305802E1,-4.5176097E-3,1.114E1,4.3405895E0,-7.8650635E-1,1.4991094E1,5.835329E0,3.3288613E-2,2.768685E1,-5.273618E-3,-5.0448505E-3,3.889839E-3,4.519787E-2,6.147643E-3,2.196097E1,5.662709E0,3.8148913E0,1.1226269E-3,3.6989067E1,9.6059326E1,8.37699E0,3.4479907E2,1.2301424E0,7.060951E1,1.0087833E1,5.3695973E-2,2.622474E2,1.1076488E-2,7.1065985E-2,2.7226726E-2,3.522944E-4,-4.740638E-3,3.0847384E-2,7.295227E-3,3.2682415E-2,6.0397065E-3,8.031795E-3,3.8074218E-2,-5.323755E-3,1.1358662E-3,2.8679403E-3,-6.036123E-3,7.347905E-2,3.639801E-3,-2.6860896E-3,9.011828E-3,-1.13396E-3,1.950712E-2,8.23983E-3,-5.1852777E-3,5.7575395E-3,4.8502225E-2,3.21272E-3,-2.018292E-3],"split_indices":[8,26,32,4,8,17,35,5,40,37,37,49,5,4,33,32,0,4,40,4,7,4,0,39,16,0,58,0,0,0,0,0,0,7,13,0,0,17,0,18,4,55,51,17,0,4,0,0,0,0,0,4,33,13,5,8,16,8,7,56,8,13,0,7,0,0,0,0,0,0,0,0,0,0,0,0,0,0,0,0,0,0,0,0,0,0,0,0,0,0,0],"split_type":[0,0,0,0,0,0,0,0,0,0,0,0,0,0,0,0,0,0,0,0,0,0,0,0,0,0,0,0,0,0,0,0,0,0,0,0,0,0,0,0,0,0,0,0,0,0,0,0,0,0,0,0,0,0,0,0,0,0,0,0,0,0,0,0,0,0,0,0,0,0,0,0,0,0,0,0,0,0,0,0,0,0,0,0,0,0,0,0,0,0,0],"sum_hessian":[1.755E3,1.71E3,4.5E1,4E1,1.67E3,2.7E1,1.8E1,1.2E1,2.8E1,1.585E3,8.5E1,1.9E1,8E0,2E0,1.6E1,1.1E1,1E0,2E1,8E0,1.7E1,1.568E3,8.2E1,3E0,7E0,1.2E1,1E0,7E0,1E0,1E0,1.5E1,1E0,1E0,1E1,7E0,1.3E1,7E0,1E0,1.2E1,5E0,1.205E3,3.63E2,4.5E1,3.7E1,5E0,2E0,1.1E1,1E0,5E0,2E0,6E0,1E0,4E0,9E0,8E0,4E0,8.19E2,3.86E2,1.5E1,3.48E2,2E1,2.5E1,3.2E1,5E0,3E0,2E0,9E0,2E0,1E0,3E0,5E0,4E0,2E0,6E0,1E0,3E0,7.78E2,4.1E1,1.87E2,1.99E2,8E0,7E0,3.26E2,2.2E1,1.6E1,4E0,1E0,2.4E1,2.9E1,3E0,2E0,1E0],"tree_param":{"num_deleted":"0","num_feature":"60","num_nodes":"91","size_leaf_vector":"1"}},{"base_weights":[-3.122487E-3,-3.1232156E-2,9.7733766E-1,-4.0546454E-2,7.9938424E-1,5.537826E-1,1.5638034E0,-6.736299E-2,6.276342E-2,1.4239763E-1,1.1707599E0,3.668815E-2,7.4014926E-1,7.0520186E-1,1.8814039E0,3.4927794E-1,-7.169803E-2,3.7029147E-2,7.250471E-1,-5.800305E-2,2.4786657E-2,1.2410174E-1,1.3676814E0,-2.7660362E-2,1.3786906E-2,3.6800465E-1,9.2651725E-1,4.9876533E-2,-1.7079964E-2,2.7690822E-2,9.704624E-2,1.6449364E-1,6.489909E-1,-9.6146725E-2,-2.6904872E-2,-2.3808349E-2,2.0175257E-1,-5.213258E-3,1.1052153E0,-7.289951E-2,4.1198134E-4,-2.1308046E-3,1.1438436E-2,1.5308218E0,-2.5145463E-3,3.6038812E-2,-5.4899886E-2,-3.4992588E-3,2.5157124E-2,5.1168126E-1,1.1736841E0,2.893364E-3,-4.1743615E-3,3.1593002E-2,-3.133046E-2,7.831E-3,3.6646433E-2,-1.0786313E-1,-4.2997092E-2,5.6038376E-2,-1.0765329E-1,-3.1052178E-2,4.3954343E-2,4.7851607E-2,5.291322E-1,7.353909E-2,-5.808904E-3,-1.0798693E-3,-4.016285E-3,8.037848E-2,2.2920977E-2,2.39343E-3,3.0948073E-4,-8.295119E-4,-2.9621886E-3,1.8636339E-3,2.9226864E-2,6.536969E-2,5.9429198E-3,4.1012866E-3,-2.9621082E-3,-5.4700146E-3,9.424491E-3,-3.107392E-3,2.246607E-2,-2.8672714E-3,7.2379853E-3,-1.5142373E-3,-5.709873E-3,-3.9646854E-3,1.891545E-3,-1.5605934E-3,2.3500461E-2,1.0887629E-2,5.094334E-2],"categories":[],"categories_nodes":[],"categories_segments":[],"categories_sizes":[],"default_left":[0,0,0,0,0,0,0,0,0,0,0,0,0,0,0,0,0,0,0,0,0,0,0,0,0,0,0,0,0,0,0,0,0,0,0,0,0,0,0,0,0,0,0,0,0,0,0,0,0,0,0,0,0,0,0,0,0,0,0,0,0,0,0,0,0,0,0,0,0,0,0,0,0,0,0,0,0,0,0,0,0,0,0,0,0,0,0,0,0,0,0,0,0,0,0],"id":5,"left_children":[1,3,5,7,9,11,13,15,17,19,21,23,25,27,29,31,33,35,37,39,-1,41,43,45,-1,47,49,-1,51,-1,-1,53,55,57,59,61,63,-1,65,67,-1,-1,-1,69,-1,71,73,-1,-1,75,77,-1,-1,-1,79,-1,-1,81,83,85,87,89,-1,91,93,-1,-1,-1,-1,-1,-1,-1,-1,-1,-1,-1,-1,-1,-1,-1,-1,-1,-1,-1,-1,-1,-1,-1,-1,-1,-1,-1,-1,-1,-1],"loss_changes":[4.845416E1,1.3254278E1,1.1305618E1,4.6889954E0,4.4690742E0,2.8639202E0,4.127079E0,2.4507113E0,5.921295E0,5.952234E-1,2.3035812E0,1.4606962E-1,1.1848669E0,1.495044E0,3.1349182E-2,6.685966E-1,1.4539418E0,3.382002E0,4.2138524E0,6.5213554E-3,0E0,6.2098775E-2,2.3902702E0,1.5859608E-2,0E0,5.679134E-1,8.34919E-1,0E0,1.9762304E-2,0E0,0E0,9.3501246E-1,9.1851234E-2,5.3090334E-1,3.160572E0,1.6427811E0,4.559627E0,0E0,4.189377E0,1.7006882E-4,0E0,0E0,0E0,3.8013458E-3,0E0,7.630412E-4,1.5607104E-5,0E0,0E0,2.201575E-1,9.7292805E-1,0E0,0E0,0E0,3.0171096E-2,0E0,0E0,3.4132195E-1,1.5081624E0,2.352179E0,1.1755037E-1,8.2046396E-1,0E0,2.1174364E0,4.200447E0,0E0,0E0,0E0,0E0,0E0,0E0,0E0,0E0,0E0,0E0,0E0,0E0,0E0,0E0,0E0,0E0,0E0,0E0,0E0,0E0,0E0,0E0,0E0,0E0,0E0,0E0,0E0,0E0,0E0,0E0],"parents":[2147483647,0,0,1,1,2,2,3,3,4,4,5,5,6,6,7,7,8,8,9,9,10,10,11,11,12,12,13,13,14,14,15,15,16,16,17,17,18,18,19,19,21,21,22,22,23,23,25,25,26,26,28,28,31,31,32,32,33,33,34,34,35,35,36,36,38,38,39,39,43,43,45,45,46,46,49,49,50,50,54,54,57,57,58,58,59,59,60,60,61,61,63,63,64,64],"right_children":[2,4,6,8,10,12,14,16,18,20,22,24,26,28,30,32,34,36,38,40,-1,42,44,46,-1,48,50,-1,52,-1,-1,54,56,58,60,62,64,-1,66,68,-1,-1,-1,70,-1,72,74,-1,-1,76,78,-1,-1,-1,80,-1,-1,82,84,86,88,90,-1,92,94,-1,-1,-1,-1,-1,-1,-1,-1,-1,-1,-1,-1,-1,-1,-1,-1,-1,-1,-1,-1,-1,-1,-1,-1,-1,-1,-1,-1,-1,-1],"split_conditions":[3.057735E1,7.176871E1,7.5486505E-1,8.352186E0,6.3E-1,1.8158052E1,3.9866003E2,3.5E-1,3.9E0,1.5980353E2,9.237464E0,4.584758E1,3.4566746E1,5.9070892E1,4.6634502E0,6.5304713E0,3.63E0,2.0259058E0,3.3581388E0,9.0074265E1,2.4786657E-2,5.4170914E0,1.9035198E1,2.900139E2,1.3786906E-2,7.828222E-1,7.6E-1,4.9876533E-2,1.1069028E1,2.7690822E-2,9.704624E-2,9.167021E0,1.6037528E-4,8.348595E1,9.443132E1,-3.0016422E1,1.4955263E1,-5.213258E-3,5.581973E0,7.438667E1,4.1198134E-4,-2.1308046E-3,1.1438436E-2,2.570637E1,-2.5145463E-3,1.5787509E1,3.3633734E2,-3.4992588E-3,2.5157124E-2,2.4612158E1,1.25E0,2.893364E-3,-4.1743615E-3,3.1593002E-2,3.5E-1,7.831E-3,3.6646433E-2,5.25E0,3.86E0,1.2899276E0,9.6059326E1,1.3353622E1,4.3954343E-2,1.047735E1,1.4408359E1,7.353909E-2,-5.808904E-3,-1.0798693E-3,-4.016285E-3,8.037848E-2,2.2920977E-2,2.39343E-3,3.0948073E-4,-8.295119E-4,-2.9621886E-3,1.8636339E-3,2.9226864E-2,6.536969E-2,5.9429198E-3,4.1012866E-3,-2.9621082E-3,-5.4700146E-3,9.424491E-3,-3.107392E-3,2.246607E-2,-2.8672714E-3,7.2379853E-3,-1.5142373E-3,-5.709873E-3,-3.9646854E-3,1.891545E-3,-1.5605934E-3,2.3500461E-2,1.0887629E-2,5.094334E-2],"split_indices":[12,25,35,12,27,4,7,37,37,7,51,12,12,25,17,35,38,49,4,25,0,4,17,7,0,46,46,0,4,0,0,16,12,7,16,31,4,0,4,7,0,0,0,12,0,4,7,0,0,16,46,0,0,0,38,0,0,27,46,4,16,4,0,40,25,0,0,0,0,0,0,0,0,0,0,0,0,0,0,0,0,0,0,0,0,0,0,0,0,0,0,0,0,0,0],"split_type":[0,0,0,0,0,0,0,0,0,0,0,0,0,0,0,0,0,0,0,0,0,0,0,0,0,0,0,0,0,0,0,0,0,0,0,0,0,0,0,0,0,0,0,0,0,0,0,0,0,0,0,0,0,0,0,0,0,0,0,0,0,0,0,0,0,0,0,0,0,0,0,0,0,0,0,0,0,0,0,0,0,0,0,0,0,0,0,0,0,0,0,0,0,0,0],"sum_hessian":[1.756E3,1.708E3,4.8E1,1.69E3,1.8E1,2.9E1,1.9E1,1.342E3,3.48E2,7E0,1.1E1,8E0,2.1E1,6E0,1.3E1,1.3E1,1.329E3,3.36E2,1.2E1,5E0,2E0,2E0,9E0,7E0,1E0,8E0,1.3E1,4E0,2E0,1E0,1.2E1,9E0,4E0,8.59E2,4.7E2,2.46E2,9E1,4E0,8E0,4E0,1E0,1E0,1E0,8E0,1E0,2E0,5E0,2E0,6E0,6E0,7E0,1E0,1E0,2E0,7E0,1E0,3E0,7.03E2,1.56E2,2.32E2,2.38E2,2.45E2,1E0,6.2E1,2.8E1,6E0,2E0,1E0,3E0,7E0,1E0,1E0,1E0,1E0,4E0,1E0,5E0,6E0,1E0,1E0,6E0,7E2,3E0,1.51E2,5E0,1.02E2,1.3E2,1.9E1,2.19E2,1.44E2,1.01E2,5.3E1,9E0,1.8E1,1E1],"tree_param":{"num_deleted":"0","num_feature":"60","num_nodes":"95","size_leaf_vector":"1"}},{"base_weights":[1.2469038E-2,-1.552878E-2,1.350574E0,5.127802E-1,-3.6575194E-2,1.0090492E0,1.131516E-1,3.8974762E-1,1.6781478E0,-4.043612E-2,4.5449686E-1,4.028602E-1,1.1233137E0,6.735634E-2,3.1700167E-1,1.622924E-2,9.419718E-2,-4.749377E-2,2.1140113E-1,1.9998626E-1,6.1810173E-2,3.31106E-2,-3.8614434E-3,1.1574057E0,9.33219E-3,2.0493299E-1,8.34438E-1,3.301315E-1,-5.1516585E-2,1.268568E-1,5.2313317E-2,5.300679E-1,-6.435579E-2,3.842079E-1,1.2155151E0,4.0396098E-2,3.6127257E-1,-3.019478E-3,1.0656936E0,-2.440961E-2,4.4109872E-1,-9.5901E-2,-2.9734822E-2,5.469569E-2,4.7984868E-1,-2.9306386E-3,3.4594562E-2,-1.015481E-3,-3.8956169E-3,1.8170432E-3,2.699855E-2,2.3067689E-2,1.2736801E0,1.7943967E-2,-9.673064E-4,2.2839634E-2,-8.66993E-4,5.882419E-2,7.2540673E-3,3.998754E-3,-3.5249777E-3,2.4129186E-2,-1.4180292E-3,-3.0108977E-3,-5.971065E-3,-3.5086796E-3,3.04102E-3,5.039093E-4,1.6465427E-2,2.8488448E-2,-1.4918242E-3,6.576148E-2,1.4183491E-2],"categories":[],"categories_nodes":[],"categories_segments":[],"categories_sizes":[],"default_left":[0,0,0,0,0,0,0,0,0,0,0,0,0,0,0,0,0,0,0,0,0,0,0,0,0,0,0,0,0,0,0,0,0,0,0,0,0,0,0,0,0,0,0,0,0,0,0,0,0,0,0,0,0,0,0,0,0,0,0,0,0,0,0,0,0,0,0,0,0,0,0,0,0],"id":6,"left_children":[1,3,5,7,9,11,-1,13,15,17,19,21,23,-1,25,-1,-1,27,29,31,-1,-1,-1,33,-1,35,37,39,41,43,-1,45,47,49,51,53,55,-1,57,59,61,63,65,67,69,-1,-1,-1,-1,-1,-1,-1,71,-1,-1,-1,-1,-1,-1,-1,-1,-1,-1,-1,-1,-1,-1,-1,-1,-1,-1,-1,-1],"loss_changes":[6.580779E1,1.9154572E1,8.935059E0,8.808905E0,3.1581419E0,1.486908E0,0E0,3.821331E0,1.059845E0,2.9320517E0,2.33916E0,7.982135E-1,5.1843643E-1,0E0,3.1923246E0,0E0,0E0,2.4475925E0,3.0435143E0,9.93912E-1,0E0,0E0,0E0,5.2144814E-1,0E0,1.2458634E0,2.1336956E0,6.7958856E-1,1.528513E0,1.0435903E0,0E0,5.16865E-1,2.5974307E-3,1.4293152E-1,2.8969765E-1,4.8261538E-1,9.120481E-1,0E0,6.4527225E-1,2.9693631E-2,2.6686788E-1,4.3007183E-1,3.9005737E0,4.3777257E-1,3.378172E-1,0E0,0E0,0E0,0E0,0E0,0E0,0E0,3.6732864E-1,0E0,0E0,0E0,0E0,0E0,0E0,0E0,0E0,0E0,0E0,0E0,0E0,0E0,0E0,0E0,0E0,0E0,0E0,0E0,0E0],"parents":[2147483647,0,0,1,1,2,2,3,3,4,4,5,5,7,7,8,8,9,9,10,10,11,11,12,12,14,14,17,17,18,18,19,19,23,23,25,25,26,26,27,27,28,28,29,29,31,31,32,32,33,33,34,34,35,35,36,36,38,38,39,39,40,40,41,41,42,42,43,43,44,44,52,52],"right_children":[2,4,6,8,10,12,-1,14,16,18,20,22,24,-1,26,-1,-1,28,30,32,-1,-1,-1,34,-1,36,38,40,42,44,-1,46,48,50,52,54,56,-1,58,60,62,64,66,68,70,-1,-1,-1,-1,-1,-1,-1,72,-1,-1,-1,-1,-1,-1,-1,-1,-1,-1,-1,-1,-1,-1,-1,-1,-1,-1,-1,-1],"split_conditions":[3.7368145E1,-9.785898E1,8.467881E1,4.2189174E0,5.9070892E1,5.447416E2,1.131516E-1,-8.410881E1,2.8256174E2,3.3633734E2,1.1374556E1,4.3255035E2,7.483581E2,6.735634E-2,8.205766E1,1.622924E-2,9.419718E-2,3.5E-1,3.4812813E1,8.877751E0,6.1810173E-2,3.31106E-2,-3.8614434E-3,3.2579E0,9.33219E-3,4.486579E2,1.9120892E2,2.5188773E0,3.869783E1,2.5973337E1,5.2313317E-2,1.1492553E1,1.08E0,6.361984E2,4.2E-1,1.851097E1,1.18E0,-3.019478E-3,1.1110043E2,1.5708992E-3,4.6E0,1.7451326E1,2.9E0,7.1615124E0,4.8045044E2,-2.9306386E-3,3.4594562E-2,-1.015481E-3,-3.8956169E-3,1.8170432E-3,2.699855E-2,2.3067689E-2,8.306055E2,1.7943967E-2,-9.673064E-4,2.2839634E-2,-8.66993E-4,5.882419E-2,7.2540673E-3,3.998754E-3,-3.5249777E-3,2.4129186E-2,-1.4180292E-3,-3.0108977E-3,-5.971065E-3,-3.5086796E-3,3.04102E-3,5.039093E-4,1.6465427E-2,2.8488448E-2,-1.4918242E-3,6.576148E-2,1.4183491E-2],"split_indices":[12,18,25,35,25,6,0,46,6,7,32,6,7,0,25,0,0,37,57,17,0,0,0,32,0,6,6,46,6,58,0,16,38,6,38,12,37,0,25,6,27,6,38,54,7,0,0,0,0,0,0,0,6,0,0,0,0,0,0,0,0,0,0,0,0,0,0,0,0,0,0,0,0],"split_type":[0,0,0,0,0,0,0,0,0,0,0,0,0,0,0,0,0,0,0,0,0,0,0,0,0,0,0,0,0,0,0,0,0,0,0,0,0,0,0,0,0,0,0,0,0,0,0,0,0,0,0,0,0,0,0,0,0,0,0,0,0,0,0,0,0,0,0,0,0,0,0,0,0],"sum_hessian":[1.755E3,1.72E3,3.5E1,6.5E1,1.655E3,2.7E1,8E0,6E1,5E0,1.643E3,1.2E1,5E0,2.2E1,3E0,5.7E1,1E0,4E0,1.599E3,4.4E1,1E1,2E0,3E0,2E0,2.1E1,1E0,4.8E1,9E0,1.6E1,1.583E3,4.1E1,3E0,4E0,6E0,2E0,1.9E1,2.4E1,2.4E1,2E0,7E0,4E0,1.2E1,5.2E2,1.063E3,3.5E1,6E0,1E0,3E0,2E0,4E0,1E0,1E0,2E0,1.7E1,3E0,2.1E1,1.9E1,5E0,6E0,1E0,1E0,3E0,1.1E1,1E0,2.08E2,3.12E2,7.35E2,3.28E2,3.1E1,4E0,5E0,1E0,1.6E1,1E0],"tree_param":{"num_deleted":"0","num_feature":"60","num_nodes":"73","size_leaf_vector":"1"}},{"base_weights":[2.3018479E-4,-2.4163723E-2,1.3670685E0,3.9917588E-1,-4.1123383E-2,1.0581936E0,1.06140494E-1,1.8360433E-1,9.3411434E-1,-4.428395E-2,3.3611548E-1,1.1111124E0,-3.9734663E-3,1.265916E-2,3.1136107E-1,3.2022682E-1,1.4545904E0,-3.0046245E-2,-5.4447986E-3,9.338558E-2,5.974983E-2,5.68237E-2,1.3828903E-2,-2.734443E-2,1.37565015E-2,5.026857E-1,1.4371133E-2,3.182143E-2,3.724398E-2,8.117478E-2,-1.6389288E-3,-5.1159166E-2,1.6511703E-1,4.4388762E-1,-7.2769284E-2,-4.3673538E-2,7.0727156E-3,2.2463718E-2,6.4871836E-1,-2.990245E-2,7.857969E-3,-4.2217043E-3,1.8233864E-2,3.4819588E-1,-5.4063294E-2,-1.0829203E-2,4.0723646E-1,-2.8573726E-3,3.1497423E-2,-1.3518638E-3,-4.556454E-3,-2.6172257E-3,2.8100999E-3,-2.380465E-3,7.5688944E-3,5.9526428E-3,3.9785635E-2,-3.0588547E-3,3.1732041E-3,2.2161072E-2,5.202132E-4,-3.2944262E-3,2.5493924E-3,8.153371E-3,-5.573633E-3,8.651003E-3,3.3541575E-2],"categories":[],"categories_nodes":[],"categories_segments":[],"categories_sizes":[],"default_left":[0,0,0,0,0,0,0,0,0,0,0,0,0,0,0,0,0,0,0,0,0,0,0,0,0,0,0,0,0,0,0,0,0,0,0,0,0,0,0,0,0,0,0,0,0,0,0,0,0,0,0,0,0,0,0,0,0,0,0,0,0,0,0,0,0,0,0],"id":7,"left_children":[1,3,5,7,9,11,-1,13,15,17,19,21,-1,23,25,27,29,31,-1,33,-1,-1,-1,35,-1,37,39,41,-1,-1,-1,43,45,47,49,51,-1,53,55,57,-1,-1,-1,59,61,63,65,-1,-1,-1,-1,-1,-1,-1,-1,-1,-1,-1,-1,-1,-1,-1,-1,-1,-1,-1,-1],"loss_changes":[5.8949284E1,1.2487547E1,4.989971E0,7.5547657E0,2.007199E0,1.5331879E0,0E0,1.0661888E0,5.6049614E0,1.5219674E0,2.8070703E0,1.7247772E-1,0E0,2.3851839E-1,1.5837777E0,1.2010182E0,2.565462E0,5.612282E0,0E0,7.3115283E-1,0E0,0E0,0E0,6.1304465E-2,0E0,1.1776042E0,8.0560416E-2,3.0166546E-1,0E0,0E0,0E0,1.4430325E0,5.6702104E0,4.0889198E-1,5.0927885E-3,1.9396212E-2,0E0,5.2374013E-2,9.174204E-1,3.3082597E-2,0E0,0E0,0E0,2.8427804E-1,1.5189097E0,1.383299E0,3.3412771E0,0E0,0E0,0E0,0E0,0E0,0E0,0E0,0E0,0E0,0E0,0E0,0E0,0E0,0E0,0E0,0E0,0E0,0E0,0E0,0E0],"parents":[2147483647,0,0,1,1,2,2,3,3,4,4,5,5,7,7,8,8,9,9,10,10,11,11,13,13,14,14,15,15,16,16,17,17,19,19,23,23,25,25,26,26,27,27,31,31,32,32,33,33,34,34,35,35,37,37,38,38,39,39,43,43,44,44,45,45,46,46],"right_children":[2,4,6,8,10,12,-1,14,16,18,20,22,-1,24,26,28,30,32,-1,34,-1,-1,-1,36,-1,38,40,42,-1,-1,-1,44,46,48,50,52,-1,54,56,58,-1,-1,-1,60,62,64,66,-1,-1,-1,-1,-1,-1,-1,-1,-1,-1,-1,-1,-1,-1,-1,-1,-1,-1,-1,-1],"split_conditions":[2.6157703E2,-9.400628E1,8.467881E1,1.3917633E1,5.9070892E1,8.205766E1,1.06140494E-1,1.6289995E2,1.5441343E1,9.6059326E1,1.1374556E1,2.768685E1,-3.9734663E-3,1.2301424E0,1.07E0,1.47E0,2.516409E1,1.224E1,-5.4447986E-3,8.877751E0,5.974983E-2,5.68237E-2,1.3828903E-2,1.1820857E2,1.37565015E-2,7.8E-1,2.2672283E1,1.2880729E1,3.724398E-2,8.117478E-2,-1.6389288E-3,1.1506487E-2,1.3994865E0,2.9236028E-1,9.885245E0,2.726735E0,7.0727156E-3,1.97691E2,4.6E-1,1.96E0,7.857969E-3,-4.2217043E-3,1.8233864E-2,1.7154207E1,3.78E0,5.817109E-1,1.8281244E1,-2.8573726E-3,3.1497423E-2,-1.3518638E-3,-4.556454E-3,-2.6172257E-3,2.8100999E-3,-2.380465E-3,7.5688944E-3,5.9526428E-3,3.9785635E-2,-3.0588547E-3,3.1732041E-3,2.2161072E-2,5.202132E-4,-3.2944262E-3,2.5493924E-3,8.153371E-3,-5.573633E-3,8.651003E-3,3.3541575E-2],"split_indices":[5,18,25,51,25,25,0,5,4,16,32,4,0,56,37,38,4,18,0,17,0,0,0,25,0,47,4,4,0,0,0,4,4,13,17,49,0,5,38,37,0,0,0,32,47,4,31,0,0,0,0,0,0,0,0,0,0,0,0,0,0,0,0,0,0,0,0],"split_type":[0,0,0,0,0,0,0,0,0,0,0,0,0,0,0,0,0,0,0,0,0,0,0,0,0,0,0,0,0,0,0,0,0,0,0,0,0,0,0,0,0,0,0,0,0,0,0,0,0,0,0,0,0,0,0,0,0,0,0,0,0,0,0,0,0,0,0],"sum_hessian":[1.766E3,1.736E3,3E1,6.6E1,1.67E3,2.3E1,7E0,4.8E1,1.8E1,1.657E3,1.3E1,2.2E1,1E0,2.1E1,2.7E1,9E0,9E0,1.359E3,2.98E2,1.1E1,2E0,2.1E1,1E0,1.9E1,2E0,1.6E1,1.1E1,6E0,3E0,8E0,1E0,1.227E3,1.32E2,3E0,8E0,1.8E1,1E0,4E0,1.2E1,9E0,2E0,5E0,1E0,8E0,1.219E3,7.7E1,5.5E1,1E0,2E0,3E0,5E0,1.7E1,1E0,3E0,1E0,3E0,9E0,7E0,2E0,6E0,2E0,1.096E3,1.23E2,2.8E1,4.9E1,3E1,2.5E1],"tree_param":{"num_deleted":"0","num_feature":"60","num_nodes":"67","size_leaf_vector":"1"}},{"base_weights":[1.7858807E-3,-1.9302767E-2,1.193577E0,4.152381E-1,-3.2575443E-2,8.466153E-1,1.04263246E-1,1.7639278E-1,8.207909E-1,-5.192433E-2,4.796773E-2,3.660556E-1,1.1105474E0,1.2858172E-1,4.3853946E-2,2.4329981E-1,1.3162029E0,3.0249903E-1,-5.580093E-2,6.4204684E-3,5.545875E-1,3.556961E-2,1.7265907E-2,5.7567444E-2,1.3483181E-2,5.9507933E-2,5.0349337E-1,-6.306093E-2,4.5805046E-1,-1.5979555E-3,7.3477484E-2,1.8197477E-1,5.8844703E-1,-7.639791E-2,-5.750306E-3,5.0121653E-1,-6.839695E-3,-5.891886E-3,1.0107268E0,1.3731611E-2,-8.91338E-2,2.424392E-2,1.7852403E-2,7.596036E-3,3.4361746E-2,5.4259936E-4,-4.212608E-3,2.9696798E-2,-5.534427E-3,2.8996894E-2,4.4388365E-2,6.8281605E-3,3.4677695E-2,-8.024998E-2,9.1837965E-2,1.03045605E-1,-1.0021741E-1,-4.019609E-2,4.1705165E-2,-1.3356481E-2,4.8379064E-2,-5.1159076E-3,1.2975144E0,-5.746375E-3,3.510244E-4,-3.0786212E-4,1.3475281E-2,-4.1301497E-3,4.3230793E-3,-4.557275E-3,-1.4603188E-3,-2.3185858E-3,2.3406288E-2,2.9642873E-3,2.2098308E-2,5.730652E-3,-5.243869E-3,-2.7398516E-3,9.016842E-5,-2.1261822E-3,1.0718432E-2,7.166774E-2,-4.9182E-3],"categories":[],"categories_nodes":[],"categories_segments":[],"categories_sizes":[],"default_left":[0,0,0,0,0,0,0,0,0,0,0,0,0,0,0,0,0,0,0,0,0,0,0,0,0,0,0,0,0,0,0,0,0,0,0,0,0,0,0,0,0,0,0,0,0,0,0,0,0,0,0,0,0,0,0,0,0,0,0,0,0,0,0,0,0,0,0,0,0,0,0,0,0,0,0,0,0,0,0,0,0,0,0],"id":8,"left_children":[1,3,5,7,9,11,-1,13,15,17,19,21,23,25,-1,27,29,31,33,35,37,-1,39,-1,-1,41,43,45,47,-1,-1,49,51,53,55,57,59,-1,61,-1,63,65,-1,-1,-1,-1,-1,-1,-1,-1,67,-1,-1,69,71,73,75,77,-1,79,-1,-1,81,-1,-1,-1,-1,-1,-1,-1,-1,-1,-1,-1,-1,-1,-1,-1,-1,-1,-1,-1,-1],"loss_changes":[4.4810516E1,1.0118223E1,7.825409E0,4.892166E0,2.6533642E0,2.6375217E0,0E0,1.0262421E0,5.115592E0,1.9019506E0,6.9424977E0,1.1922156E0,2.041626E-1,8.246249E-1,0E0,6.8679684E-1,2.1143284E0,4.0987253E-1,1.3995118E0,2.0111175E0,7.7870913E0,0E0,1.887812E-1,0E0,0E0,2.9562506E-1,2.1858728E-1,8.745829E-3,5.294422E-1,0E0,0E0,6.3130915E-1,9.5270395E-2,6.307993E-1,4.0905476E0,1.4753604E0,1.9116012E0,0E0,4.9208727E0,0E0,1.3207719E-2,2.0297793E-1,0E0,0E0,0E0,0E0,0E0,0E0,0E0,0E0,6.0571335E-2,0E0,0E0,5.206723E-1,1.1658533E0,2.717554E0,2.2525549E-1,2.551746E-3,0E0,1.9884603E0,0E0,0E0,2.4163876E0,0E0,0E0,0E0,0E0,0E0,0E0,0E0,0E0,0E0,0E0,0E0,0E0,0E0,0E0,0E0,0E0,0E0,0E0,0E0,0E0],"parents":[2147483647,0,0,1,1,2,2,3,3,4,4,5,5,7,7,8,8,9,9,10,10,11,11,12,12,13,13,15,15,16,16,17,17,18,18,19,19,20,20,22,22,25,25,26,26,27,27,28,28,31,31,32,32,33,33,34,34,35,35,36,36,38,38,40,40,41,41,50,50,53,53,54,54,55,55,56,56,57,57,59,59,62,62],"right_children":[2,4,6,8,10,12,-1,14,16,18,20,22,24,26,-1,28,30,32,34,36,38,-1,40,-1,-1,42,44,46,48,-1,-1,50,52,54,56,58,60,-1,62,-1,64,66,-1,-1,-1,-1,-1,-1,-1,-1,68,-1,-1,70,72,74,76,78,-1,80,-1,-1,82,-1,-1,-1,-1,-1,-1,-1,-1,-1,-1,-1,-1,-1,-1,-1,-1,-1,-1,-1,-1],"split_conditions":[2.6157703E2,-9.785898E1,8.467881E1,1.2912843E1,5.84653E1,3.9866003E2,1.04263246E-1,9.704117E0,4.632403E2,3.5E-1,3.23E0,3.3633734E2,8.306055E2,6.8016846E2,4.3853946E-2,1.430907E2,5.783376E-1,3.7047253E1,3.82E0,-7.130956E1,1.0445339E2,3.556961E-2,-1.548362E2,5.7567444E-2,1.3483181E-2,9.0074265E1,7.468749E0,1.26013245E2,2.542237E2,-1.5979555E-3,7.3477484E-2,9.167021E0,1.1226269E-3,2.87E1,4.214742E1,1.5184673E0,-3.8352562E1,-5.891886E-3,2.31E0,1.3731611E-2,3.946462E2,6.4371E-2,1.7852403E-2,7.596036E-3,3.4361746E-2,5.4259936E-4,-4.212608E-3,2.9696798E-2,-5.534427E-3,2.8996894E-2,1.6125327E0,6.8281605E-3,3.4677695E-2,8.82352E1,3.8630737E1,5.84653E1,5.2486153E0,7.610621E1,4.1705165E-2,3.337688E2,4.8379064E-2,-5.1159076E-3,1.0144727E2,-5.746375E-3,3.510244E-4,-3.0786212E-4,1.3475281E-2,-4.1301497E-3,4.3230793E-3,-4.557275E-3,-1.4603188E-3,-2.3185858E-3,2.3406288E-2,2.9642873E-3,2.2098308E-2,5.730652E-3,-5.243869E-3,-2.7398516E-3,9.016842E-5,-2.1261822E-3,1.0718432E-2,7.166774E-2,-4.9182E-3],"split_indices":[5,18,25,51,5,7,0,33,6,37,37,7,6,6,0,7,13,51,38,46,6,0,18,0,0,25,25,7,7,0,0,16,5,26,51,13,26,0,47,0,7,53,0,0,0,0,0,0,0,0,35,0,0,7,6,7,53,5,0,7,0,0,5,0,0,0,0,0,0,0,0,0,0,0,0,0,0,0,0,0,0,0,0],"split_type":[0,0,0,0,0,0,0,0,0,0,0,0,0,0,0,0,0,0,0,0,0,0,0,0,0,0,0,0,0,0,0,0,0,0,0,0,0,0,0,0,0,0,0,0,0,0,0,0,0,0,0,0,0,0,0,0,0,0,0,0,0,0,0,0,0,0,0,0,0,0,0,0,0,0,0,0,0,0,0,0,0,0,0],"sum_hessian":[1.781E3,1.751E3,3E1,5.1E1,1.7E3,2.3E1,7E0,3.3E1,1.8E1,1.371E3,3.29E2,9E0,1.4E1,3.2E1,1E0,9E0,9E0,1.4E1,1.357E3,3.05E2,2.4E1,4E0,5E0,1.3E1,1E0,2.8E1,4E0,4E0,5E0,1E0,8E0,1.1E1,3E0,9.61E2,3.96E2,7E0,2.98E2,1E1,1.4E1,1E0,4E0,2.6E1,2E0,2E0,2E0,1E0,3E0,4E0,1E0,2E0,9E0,1E0,2E0,9.4E2,2.1E1,1.84E2,2.12E2,3E0,4E0,2.97E2,1E0,3E0,1.1E1,3E0,1E0,2.4E1,2E0,2E0,7E0,7.74E2,1.66E2,1.6E1,5E0,1.64E2,2E1,4E0,2.08E2,2E0,1E0,2.64E2,3.3E1,1E1,1E0],"tree_param":{"num_deleted":"0","num_feature":"60","num_nodes":"83","size_leaf_vector":"1"}},{"base_weights":[4.8442716E-3,-3.0640421E-2,6.8766195E-1,-3.614994E-2,4.7242826E-1,1.5663676E0,4.1509813E-1,-3.9331663E-2,4.857674E-1,2.6381147E-1,4.810348E-2,5.2833237E-2,9.090572E-2,8.123248E-2,2.9134962E-1,-5.63848E-2,1.0689759E-2,1.8819459E-1,5.5868622E-2,3.0660579E-2,1.1277404E-1,1.8066466E-1,7.881014E-1,3.3968744E-1,-6.028553E-2,-1.9125624E-2,1.1074662E0,3.133757E-2,-6.244961E-2,-8.200374E-2,2.3579045E-1,3.019176E-1,-8.6733654E-2,7.147199E-2,3.689195E-1,4.30158E-1,-3.755514E-3,-8.510658E-2,-1.8948406E-2,-3.3008445E-2,2.363035E-1,-6.0771867E-3,1.2425215E0,-3.6037725E-3,-3.5801047E-4,-9.066571E-4,-4.6719057E-3,-2.4439707E-2,1.7238524E-2,3.5836376E-2,4.1755992E-1,-9.811456E-2,2.3840189E-3,2.5417864E-2,-3.292924E-2,9.849027E-4,2.36788E-2,-4.4573746E-3,9.760401E-3,-1.6556779E-3,1.984408E-2,-4.002236E-3,1.6465251E-3,2.039509E-2,-8.258241E-3,6.5359406E-2,1.651306E-2,-2.1752273E-3,3.4224914E-4,7.6357434E-3,-2.0846112E-3,5.5593722E-3,2.6526386E-2,-2.5338372E-3,-6.960889E-3,-3.2019801E-3,7.32287E-4],"categories":[],"categories_nodes":[],"categories_segments":[],"categories_sizes":[],"default_left":[0,0,0,0,0,0,0,0,0,0,0,0,0,0,0,0,0,0,0,0,0,0,0,0,0,0,0,0,0,0,0,0,0,0,0,0,0,0,0,0,0,0,0,0,0,0,0,0,0,0,0,0,0,0,0,0,0,0,0,0,0,0,0,0,0,0,0,0,0,0,0,0,0,0,0,0,0],"id":9,"left_children":[1,3,5,7,9,11,13,15,17,19,-1,-1,-1,-1,21,23,25,27,-1,-1,29,31,33,35,37,39,41,-1,43,45,47,49,51,-1,53,55,-1,57,59,61,63,-1,65,-1,-1,-1,-1,67,-1,69,71,73,-1,-1,75,-1,-1,-1,-1,-1,-1,-1,-1,-1,-1,-1,-1,-1,-1,-1,-1,-1,-1,-1,-1,-1,-1],"loss_changes":[4.218053E1,4.6041884E0,1.9947094E1,2.739161E0,1.5848479E0,6.451874E-1,9.555231E0,1.3901758E0,1.6692016E0,6.696606E-1,0E0,0E0,0E0,0E0,3.266561E0,1.8976188E0,1.3592016E1,9.1851425E-1,0E0,0E0,2.829052E-1,1.7121739E0,2.429864E0,4.82633E-1,1.2337284E0,1.443961E0,1.9768486E0,0E0,2.677165E-3,1.9572712E-3,2.0694524E-1,1.0927646E0,3.0683935E-2,0E0,4.65003E-1,1.68885E-1,0E0,8.6921215E-1,2.6814458E0,1.196722E0,1.5140878E0,0E0,1.5821552E-1,0E0,0E0,0E0,0E0,2.0871004E-3,0E0,1.1510413E-1,8.0626774E-1,2.4142444E-2,0E0,0E0,5.3781318E-3,0E0,0E0,0E0,0E0,0E0,0E0,0E0,0E0,0E0,0E0,0E0,0E0,0E0,0E0,0E0,0E0,0E0,0E0,0E0,0E0,0E0,0E0],"parents":[2147483647,0,0,1,1,2,2,3,3,4,4,5,5,6,6,7,7,8,8,9,9,14,14,15,15,16,16,17,17,20,20,21,21,22,22,23,23,24,24,25,25,26,26,28,28,29,29,30,30,31,31,32,32,34,34,35,35,37,37,38,38,39,39,40,40,42,42,47,47,49,49,50,50,51,51,54,54],"right_children":[2,4,6,8,10,12,14,16,18,20,-1,-1,-1,-1,22,24,26,28,-1,-1,30,32,34,36,38,40,42,-1,44,46,48,50,52,-1,54,56,-1,58,60,62,64,-1,66,-1,-1,-1,-1,68,-1,70,72,74,-1,-1,76,-1,-1,-1,-1,-1,-1,-1,-1,-1,-1,-1,-1,-1,-1,-1,-1,-1,-1,-1,-1,-1,-1],"split_conditions":[1.0091437E2,2.1843867E2,-3.8768002E2,5.9070892E1,4.0548735E0,3.1285797E1,-8.410881E1,8.82352E1,4.2189174E0,-3.3372644E-1,4.810348E-2,5.2833237E-2,9.090572E-2,8.123248E-2,1.0415859E1,3.5E-1,-5.4558662E1,2.1877828E0,5.5868622E-2,3.0660579E-2,2.2539207E1,1.18E0,-2.383414E1,4.22E0,3.626611E0,2.71E0,1.1226269E-3,3.133757E-2,5.237749E0,1.4798829E1,5.4E-1,2.2288487E2,1.755652E2,7.147199E-2,5.7442455E1,2.2767663E0,-3.755514E-3,4.88E0,5.41925E0,1.3139536E1,4E0,-6.0771867E-3,4.585644E0,-3.6037725E-3,-3.5801047E-4,-9.066571E-4,-4.6719057E-3,1.8158052E1,1.7238524E-2,-1.8085344E2,-2.5980814E0,2.6596758E0,2.3840189E-3,2.5417864E-2,6.3736305E0,9.849027E-4,2.36788E-2,-4.4573746E-3,9.760401E-3,-1.6556779E-3,1.984408E-2,-4.002236E-3,1.6465251E-3,2.039509E-2,-8.258241E-3,6.5359406E-2,1.651306E-2,-2.1752273E-3,3.4224914E-4,7.6357434E-3,-2.0846112E-3,5.5593722E-3,2.6526386E-2,-2.5338372E-3,-6.960889E-3,-3.2019801E-3,7.32287E-4],"split_indices":[8,5,31,25,40,25,46,7,35,33,0,0,0,0,39,37,31,33,0,0,16,37,46,46,46,37,5,0,4,4,38,7,8,0,25,53,0,38,4,4,27,0,4,0,0,0,0,4,0,31,55,59,0,0,4,0,0,0,0,0,0,0,0,0,0,0,0,0,0,0,0,0,0,0,0,0,0],"split_type":[0,0,0,0,0,0,0,0,0,0,0,0,0,0,0,0,0,0,0,0,0,0,0,0,0,0,0,0,0,0,0,0,0,0,0,0,0,0,0,0,0,0,0,0,0,0,0,0,0,0,0,0,0,0,0,0,0,0,0,0,0,0,0,0,0,0,0,0,0,0,0,0,0,0,0,0,0],"sum_hessian":[1.739E3,1.654E3,8.5E1,1.637E3,1.7E1,1.9E1,6.6E1,1.628E3,9E0,1.3E1,4E0,8E0,1.1E1,5E0,6.1E1,1.214E3,4.14E2,7E0,2E0,3E0,1E1,5.1E1,1E1,1.1E1,1.203E3,4.04E2,1E1,2E0,5E0,4E0,6E0,3.5E1,1.6E1,3E0,7E0,9E0,2E0,7.51E2,4.52E2,3.84E2,2E1,1E0,9E0,4E0,1E0,1E0,3E0,2E0,4E0,1.1E1,2.4E1,1.5E1,1E0,5E0,2E0,1E0,8E0,7.41E2,1E1,4.38E2,1.4E1,2.24E2,1.6E2,1.4E1,6E0,8E0,1E0,1E0,1E0,4E0,7E0,7E0,1.7E1,8E0,7E0,1E0,1E0],"tree_param":{"num_deleted":"0","num_feature":"60","num_nodes":"77","size_leaf_vector":"1"}},{"base_weights":[1.2509957E-3,-3.207309E-2,5.5290073E-1,-3.4992438E-2,6.673124E-1,3.5179478E-1,1.1501912E0,-5.044715E-2,3.4414697E-2,-4.311944E-3,4.036387E-2,-9.682182E-2,4.7105193E-1,3.4193894E-1,1.3351573E0,2.5685573E-1,-5.3366832E-2,-8.859718E-4,6.698821E-1,6.7102276E-3,-5.9743286E-3,3.5767213E-1,1.086394E0,5.507415E-2,3.0522285E-2,-2.936508E-3,1.4116108E0,-1.598726E-2,3.4030733E-1,-8.093325E-2,-2.6684469E-2,-1.281512E-2,8.5226953E-1,-5.288966E-3,1.2849276E0,1.4929444E-3,-1.5683938E-3,5.146986E-1,7.284348E-2,2.0166034E-1,7.475754E-2,-3.816903E-3,6.216212E-3,7.2269976E-2,2.008537E-2,3.212059E-3,-3.20719E-3,3.9520767E-1,-3.8448933E-3,-8.922092E-2,-2.4942368E-2,2.3969267E-2,-9.46489E-2,-6.118445E-2,6.513204E-2,-2.645737E-3,5.8581796E-2,1.8763494E-2,6.758631E-2,2.0397791E-1,7.795627E-1,-1.2054304E-2,4.1544816E-1,1.6373111E-2,-4.3936307E-3,2.1320635E-2,3.6391832E-3,-4.7413367E-3,1.0086399E-3,-2.7470954E-3,8.3566625E-3,-4.4187167E-4,7.870618E-3,-2.4492904E-3,-5.0215907E-3,-3.6342058E-3,3.8948113E-3,1.9416371E-3,1.2918904E-2,2.272579E-3,2.876754E-2,6.7662657E-3,4.4969425E-2,1.3109113E-2,-3.3049E-3,-1.434117E-3,2.8652623E-2],"categories":[],"categories_nodes":[],"categories_segments":[],"categories_sizes":[],"default_left":[0,0,0,0,0,0,0,0,0,0,0,0,0,0,0,0,0,0,0,0,0,0,0,0,0,0,0,0,0,0,0,0,0,0,0,0,0,0,0,0,0,0,0,0,0,0,0,0,0,0,0,0,0,0,0,0,0,0,0,0,0,0,0,0,0,0,0,0,0,0,0,0,0,0,0,0,0,0,0,0,0,0,0,0,0,0,0],"id":10,"left_children":[1,3,5,7,9,11,13,15,17,-1,-1,19,21,23,25,27,29,31,33,35,-1,37,39,41,-1,-1,43,45,47,49,51,53,55,-1,57,-1,-1,59,61,63,-1,-1,-1,-1,-1,-1,-1,65,-1,67,69,71,73,75,77,-1,-1,-1,-1,79,81,83,85,-1,-1,-1,-1,-1,-1,-1,-1,-1,-1,-1,-1,-1,-1,-1,-1,-1,-1,-1,-1,-1,-1,-1,-1],"loss_changes":[3.2592808E1,3.43715E0,1.1727354E1,1.7888002E0,8.079145E-1,4.165165E0,3.280941E0,1.2366273E0,6.820051E0,0E0,0E0,4.0692747E-2,3.8672352E0,4.28531E-1,2.2142563E0,3.0144006E-1,9.915507E-1,2.952196E0,7.768992E0,4.462438E-3,0E0,2.3329663E0,2.9532547E0,4.5891903E-2,0E0,0E0,6.7718506E-2,1.9574769E-2,2.5943768E-1,3.0589247E-1,2.3708134E0,1.082277E0,1.2183385E0,0E0,3.961277E-2,0E0,0E0,2.639145E0,5.867355E-1,1.7447007E-1,0E0,0E0,0E0,0E0,0E0,0E0,0E0,5.9515357E-2,0E0,3.5636616E-1,5.1049227E-1,1.7306329E0,7.271576E-2,2.8875226E-1,5.490123E-1,0E0,0E0,0E0,0E0,9.746797E-1,1.2678223E0,2.6928258E-1,2.964239E-1,0E0,0E0,0E0,0E0,0E0,0E0,0E0,0E0,0E0,0E0,0E0,0E0,0E0,0E0,0E0,0E0,0E0,0E0,0E0,0E0,0E0,0E0,0E0,0E0],"parents":[2147483647,0,0,1,1,2,2,3,3,4,4,5,5,6,6,7,7,8,8,11,11,12,12,13,13,14,14,15,15,16,16,17,17,18,18,19,19,21,21,22,22,23,23,26,26,27,27,28,28,29,29,30,30,31,31,32,32,34,34,37,37,38,38,39,39,47,47,49,49,50,50,51,51,52,52,53,53,54,54,59,59,60,60,61,61,62,62],"right_children":[2,4,6,8,10,12,14,16,18,-1,-1,20,22,24,26,28,30,32,34,36,-1,38,40,42,-1,-1,44,46,48,50,52,54,56,-1,58,-1,-1,60,62,64,-1,-1,-1,-1,-1,-1,-1,66,-1,68,70,72,74,76,78,-1,-1,-1,-1,80,82,84,86,-1,-1,-1,-1,-1,-1,-1,-1,-1,-1,-1,-1,-1,-1,-1,-1,-1,-1,-1,-1,-1,-1,-1,-1],"split_conditions":[8.992803E1,2.6157703E2,3.946462E2,5.84653E1,3.946462E2,1.6027766E2,2.560074E-1,3.5E-1,3.9E0,-4.311944E-3,4.036387E-2,4.8E-1,7.176871E1,5.0269066E1,1.3857272E2,1.2751238E0,2.99E0,-3.9548355E1,3.3581388E0,1.2434865E2,-5.9743286E-3,1.07E0,7.968167E0,2.2672283E1,3.0522285E-2,-2.936508E-3,9.9E-1,5.2363303E-5,6.5093417E0,1.1857098E1,9.443132E1,1.3353622E1,5.41925E0,-5.288966E-3,3.653251E0,1.4929444E-3,-1.5683938E-3,5.783376E-1,9.965625E-2,1.5787509E1,7.475754E-2,-3.816903E-3,6.216212E-3,7.2269976E-2,2.008537E-2,3.212059E-3,-3.20719E-3,8.835597E-5,-3.8448933E-3,3.81E0,1.25E0,2.87E1,4.6825986E-3,2.62E0,3.9519699E0,-2.645737E-3,5.8581796E-2,1.8763494E-2,6.758631E-2,9.3E-1,1.4543777E2,1.8032549E2,1.09122314E2,1.6373111E-2,-4.3936307E-3,2.1320635E-2,3.6391832E-3,-4.7413367E-3,1.0086399E-3,-2.7470954E-3,8.3566625E-3,-4.4187167E-4,7.870618E-3,-2.4492904E-3,-5.0215907E-3,-3.6342058E-3,3.8948113E-3,1.9416371E-3,1.2918904E-2,2.272579E-3,2.876754E-2,6.7662657E-3,4.4969425E-2,1.3109113E-2,-3.3049E-3,-1.434117E-3,2.8652623E-2],"split_indices":[8,5,7,5,7,7,49,37,37,0,0,27,25,25,5,53,38,26,4,5,0,37,39,4,0,0,27,4,49,4,16,4,4,0,4,0,0,13,58,4,0,0,0,0,0,0,0,25,0,47,37,26,4,38,13,0,0,0,0,37,5,7,5,0,0,0,0,0,0,0,0,0,0,0,0,0,0,0,0,0,0,0,0,0,0,0,0],"split_type":[0,0,0,0,0,0,0,0,0,0,0,0,0,0,0,0,0,0,0,0,0,0,0,0,0,0,0,0,0,0,0,0,0,0,0,0,0,0,0,0,0,0,0,0,0,0,0,0,0,0,0,0,0,0,0,0,0,0,0,0,0,0,0,0,0,0,0,0,0,0,0,0,0,0,0,0,0,0,0,0,0,0,0,0,0,0,0],"sum_hessian":[1.771E3,1.671E3,1E2,1.665E3,6E0,7.6E1,2.4E1,1.362E3,3.03E2,1E0,5E0,1.6E1,6E1,5E0,1.9E1,1.2E1,1.35E3,2.88E2,1.5E1,3E0,1.3E1,5.2E1,8E0,3E0,2E0,1E0,1.8E1,3E0,9E0,6.63E2,6.87E2,2.85E2,3E0,7E0,8E0,2E0,1E0,3.3E1,1.9E1,3E0,5E0,1E0,2E0,1.7E1,1E0,1E0,2E0,8E0,1E0,5.77E2,8.6E1,3.94E2,2.93E2,1.76E2,1.09E2,1E0,2E0,1E0,7E0,1.6E1,1.7E1,1.6E1,3E0,2E0,1E0,7E0,1E0,5.49E2,2.8E1,7.5E1,1.1E1,3.17E2,7.7E1,3.4E1,2.59E2,1.63E2,1.3E1,9.7E1,1.2E1,1.2E1,4E0,3E0,1.4E1,2E0,1.4E1,1E0,2E0],"tree_param":{"num_deleted":"0","num_feature":"60","num_nodes":"87","size_leaf_vector":"1"}},{"base_weights":[-1.0417473E-3,8.2011896E-1,-2.3158373E-2,4.6978775E-1,1.3584422E0,3.3956265E-1,-3.494223E-2,3.677637E-1,6.3270815E-2,1.4719589E0,3.0020565E-1,8.431274E-2,5.8268535E-1,-3.9917316E-2,1.8252458E-1,1.4158519E-1,7.044409E-1,4.0411115E-2,8.500913E-2,-4.2837895E-3,2.6799215E-2,-3.7020616E-2,4.5360148E-1,1.264894E-1,9.169267E-1,2.8388312E-1,-4.3053918E-2,8.9527026E-2,4.7531106E-2,3.727947E-1,-8.0661885E-2,7.6144195E-1,3.3607692E-3,1.3716649E-3,-5.974287E-3,5.555898E-1,-3.958209E-3,-4.300743E-2,2.779163E-1,1.0968843E0,3.0164304E-1,9.716548E-2,5.303022E-2,-4.4438776E-2,4.1840577E-1,1.7952498E-2,3.732605E-1,5.0657487E-1,-3.1811972E-3,1.3889641E-3,-9.5797494E-2,4.0796082E-2,6.7781033E-3,-4.3370653E-2,7.322064E-3,4.1202094E-2,1.685455E-2,4.780615E-3,-3.1539386E-3,-3.6249661E-3,1.7420107E-2,9.5752375E-3,1.161782E0,2.714923E-2,-2.0123108E-3,2.6363103E-2,-6.80665E-2,-6.0077976E-2,-6.9033485E-3,-3.5455127E-3,3.841266E-2,-3.278336E-2,3.4324744E-1,4.470028E-1,-1.7298326E-3,2.9630229E-2,9.716685E-3,-1.1887302E-3,-5.648955E-3,-3.0649605E-3,1.8412136E-3,-4.5529232E-4,8.138385E-4,1.6230993E-2,6.0651816E-2,-9.775704E-4,-4.1907867E-3,-3.7975877E-3,-1.2499022E-3,3.2535251E-3,-4.0790625E-3,4.944205E-3,-3.86139E-3,1.970957E-2,4.7603897E-3,-4.01349E-4,2.6980707E-2],"categories":[],"categories_nodes":[],"categories_segments":[],"categories_sizes":[],"default_left":[0,0,0,0,0,0,0,0,0,0,0,0,0,0,0,0,0,0,0,0,0,0,0,0,0,0,0,0,0,0,0,0,0,0,0,0,0,0,0,0,0,0,0,0,0,0,0,0,0,0,0,0,0,0,0,0,0,0,0,0,0,0,0,0,0,0,0,0,0,0,0,0,0,0,0,0,0,0,0,0,0,0,0,0,0,0,0,0,0,0,0,0,0,0,0,0,0],"id":11,"left_children":[1,3,5,7,9,11,13,15,-1,17,19,21,23,25,27,29,31,-1,-1,-1,-1,33,35,37,39,41,43,45,-1,47,49,51,-1,53,-1,55,-1,57,59,61,63,65,-1,67,69,71,73,75,-1,-1,77,-1,-1,79,-1,-1,-1,81,-1,-1,-1,-1,83,-1,-1,-1,85,87,89,-1,-1,91,93,95,-1,-1,-1,-1,-1,-1,-1,-1,-1,-1,-1,-1,-1,-1,-1,-1,-1,-1,-1,-1,-1,-1,-1],"loss_changes":[3.2545883E1,8.225616E0,7.470434E0,1.9698229E0,1.7204056E0,3.3640099E0,1.836807E0,2.032438E0,0E0,1.0495605E0,3.188687E-1,1.2713898E0,4.153446E0,1.6920793E0,2.6292787E0,9.550117E-1,3.4836674E-1,0E0,0E0,0E0,0E0,6.9816425E-2,4.243338E-1,3.456155E-1,1.440732E0,2.217387E0,1.0660074E0,7.0408213E-1,0E0,5.5768764E-1,1.907441E-2,2.3036957E-1,0E0,1.10203266E-1,0E0,7.416165E-2,0E0,7.015745E-3,1.9815427E-1,4.825983E-1,4.3441355E-1,1.0308088E0,0E0,9.5936966E-1,9.1040677E-1,4.8987222E-1,2.2599912E-1,7.287109E-2,0E0,0E0,8.451179E-3,0E0,0E0,2.0948429E-2,0E0,0E0,0E0,6.2713644E-4,0E0,0E0,0E0,0E0,7.821274E-2,0E0,0E0,0E0,6.7661144E-3,6.40707E-1,2.5959892E0,0E0,0E0,1.5978566E-1,1.3014376E-2,2.57177E-1,0E0,0E0,0E0,0E0,0E0,0E0,0E0,0E0,0E0,0E0,0E0,0E0,0E0,0E0,0E0,0E0,0E0,0E0,0E0,0E0,0E0,0E0,0E0],"parents":[2147483647,0,0,1,1,2,2,3,3,4,4,5,5,6,6,7,7,9,9,10,10,11,11,12,12,13,13,14,14,15,15,16,16,21,21,22,22,23,23,24,24,25,25,26,26,27,27,29,29,30,30,31,31,33,33,35,35,37,37,38,38,39,39,40,40,41,41,43,43,44,44,45,45,46,46,47,47,50,50,53,53,57,57,62,62,66,66,67,67,68,68,71,71,72,72,73,73],"right_children":[2,4,6,8,10,12,14,16,-1,18,20,22,24,26,28,30,32,-1,-1,-1,-1,34,36,38,40,42,44,46,-1,48,50,52,-1,54,-1,56,-1,58,60,62,64,66,-1,68,70,72,74,76,-1,-1,78,-1,-1,80,-1,-1,-1,82,-1,-1,-1,-1,84,-1,-1,-1,86,88,90,-1,-1,92,94,96,-1,-1,-1,-1,-1,-1,-1,-1,-1,-1,-1,-1,-1,-1,-1,-1,-1,-1,-1,-1,-1,-1,-1],"split_conditions":[-2.0646146E2,1.9535977E0,-9.785898E1,1.755652E2,3.770811E0,1.4798829E1,3.3633734E2,7.828222E-1,6.3270815E-2,4.477706E1,1.8158052E1,1.305802E1,6.5618653E0,-6.756216E1,3.4812813E1,2.3121073E0,7.9964743E0,4.0411115E-2,8.500913E-2,-4.2837895E-3,2.6799215E-2,2.3773618E0,1.9035198E1,5.6546206E0,-8.637717E0,1.0427697E1,6.2932484E1,3.242738E1,4.7531106E-2,-2.2618513E2,2.1888864E2,4.862857E2,3.3607692E-3,3.7249935E-1,-5.974287E-3,1.5512985E2,-3.958209E-3,1.0556201E2,1.3738347E2,1.2588989E1,1.5787509E1,7.2179627E0,5.303022E-2,3.66E0,9.031797E1,4.0954075E0,4.8045044E2,3.244756E0,-3.1811972E-3,1.3889641E-3,-1.5225954E0,4.0796082E-2,6.7781033E-3,-1.2950134E2,7.322064E-3,4.1202094E-2,1.685455E-2,2.196097E1,-3.1539386E-3,-3.6249661E-3,1.7420107E-2,9.5752375E-3,1.5441343E1,2.714923E-2,-2.0123108E-3,2.6363103E-2,-1.3797011E0,8.82352E1,7.4804206E0,-3.5455127E-3,3.841266E-2,-3.168495E0,1.8485662E1,8.835597E-5,-1.7298326E-3,2.9630229E-2,9.716685E-3,-1.1887302E-3,-5.648955E-3,-3.0649605E-3,1.8412136E-3,-4.5529232E-4,8.138385E-4,1.6230993E-2,6.0651816E-2,-9.775704E-4,-4.1907867E-3,-3.7975877E-3,-1.2499022E-3,3.2535251E-3,-4.0790625E-3,4.944205E-3,-3.86139E-3,1.970957E-2,4.7603897E-3,-4.01349E-4,2.6980707E-2],"split_indices":[26,35,18,8,49,4,7,46,0,25,4,17,39,46,57,59,32,0,0,0,0,49,17,17,46,32,25,58,0,26,7,7,0,56,0,7,0,8,7,25,4,39,0,27,7,49,7,55,0,0,35,0,0,26,0,0,0,4,0,0,0,0,4,0,0,0,55,7,49,0,0,55,4,8,0,0,0,0,0,0,0,0,0,0,0,0,0,0,0,0,0,0,0,0,0,0,0],"split_type":[0,0,0,0,0,0,0,0,0,0,0,0,0,0,0,0,0,0,0,0,0,0,0,0,0,0,0,0,0,0,0,0,0,0,0,0,0,0,0,0,0,0,0,0,0,0,0,0,0,0,0,0,0,0,0,0,0,0,0,0,0,0,0,0,0,0,0,0,0,0,0,0,0,0,0,0,0,0,0,0,0,0,0,0,0,0,0,0,0,0,0,0,0,0,0,0,0],"sum_hessian":[1.79E3,4.6E1,1.744E3,2.9E1,1.7E1,5.4E1,1.69E3,2.7E1,2E0,1.5E1,2E0,2.7E1,2.7E1,1.653E3,3.7E1,1.7E1,1E1,5E0,1E1,1E0,1E0,2.1E1,6E0,1.2E1,1.5E1,1.5E1,1.638E3,3.4E1,3E0,8E0,9E0,9E0,1E0,1.5E1,6E0,5E0,1E0,6E0,6E0,1.1E1,4E0,1.3E1,2E0,1.634E3,4E0,2.8E1,6E0,6E0,2E0,1E0,8E0,8E0,1E0,1.2E1,3E0,1E0,4E0,2E0,4E0,1E0,5E0,1E0,1E1,2E0,2E0,3E0,1E1,1.153E3,4.81E2,2E0,2E0,2.5E1,3E0,5E0,1E0,4E0,2E0,2E0,6E0,1E1,2E0,1E0,1E0,1E0,9E0,3E0,7E0,7.93E2,3.6E2,2.45E2,2.36E2,6E0,1.9E1,2E0,1E0,1E0,4E0],"tree_param":{"num_deleted":"0","num_feature":"60","num_nodes":"97","size_leaf_vector":"1"}},{"base_weights":[6.5357382E-3,-1.7041573E-2,7.680041E-1,-3.4052897E-2,2.1096762E-1,6.1451674E-1,8.444236E-2,2.774139E-1,-3.698831E-2,1.19611986E-1,8.3639246E-1,9.984836E-1,3.41762E-1,-2.299847E-2,4.2991993E-1,-5.1906597E-2,1.2285798E-2,1.5055252E-2,2.7608863E-1,1.0304226E0,4.5204148E-2,1.0818627E0,9.658717E-3,5.294675E-1,1.02829896E-1,4.9985345E-2,-3.5993357E-3,4.8753306E-1,-2.2149559E-3,-7.401001E-2,4.602413E-3,-1.7091703E-2,1.1860207E0,3.5064808E-1,-7.197642E-3,1.3944875E-1,7.616072E-1,2.8381544E-1,6.841246E-2,-4.965686E-3,1.1968943E-2,2.4451232E-2,5.8698453E-2,7.787337E-2,6.735094E-1,-1.0545002E-1,3.9811146E-1,3.2266972E-3,5.2220374E-4,5.311404E-1,3.4668655E-3,-7.635488E-2,1.8878073E-1,1.2637879E-1,-7.160178E-2,-2.5171809E-2,4.764158E-2,1.253742E0,1.6106267E-2,-2.7680576E-3,2.5221912E-2,-5.691867E-2,1.0570772E-1,3.0015993E-1,-6.0111325E-2,4.961184E-2,-3.0397585E-2,2.8863663E-2,-5.2123745E-3,1.0491732E-2,-7.575605E-3,8.9692496E-2,3.906518E-2,-6.9774734E-3,-2.513029E-3,2.6931351E-2,7.805354E-2,2.8793413E-2,5.4511325E-3,-4.3836464E-3,-1.6244901E-3,-6.687056E-4,4.0096615E-2,1.0687011E-2,-4.3712566E-3,3.9944384E-2,-3.97756E-3,-1.7574782E-3,1.3272459E-2,6.64065E-2,1.8325655E-2,-3.4576599E-3,6.462971E-3,1.6404761E-2,-1.108538E-3,2.9904828E-3,3.5182238E-2,7.328627E-3,-4.1830875E-3,3.752388E-4,-2.6550577E-3,-3.052434E-3,1.5299156E-3,-1.9524336E-3,8.67937E-3,6.4997016E-3,-6.4568594E-4],"categories":[],"categories_nodes":[],"categories_segments":[],"categories_sizes":[],"default_left":[0,0,0,0,0,0,0,0,0,0,0,0,0,0,0,0,0,0,0,0,0,0,0,0,0,0,0,0,0,0,0,0,0,0,0,0,0,0,0,0,0,0,0,0,0,0,0,0,0,0,0,0,0,0,0,0,0,0,0,0,0,0,0,0,0,0,0,0,0,0,0,0,0,0,0,0,0,0,0,0,0,0,0,0,0,0,0,0,0,0,0,0,0,0,0,0,0,0,0,0,0,0,0,0,0,0,0],"id":12,"left_children":[1,3,5,7,9,11,-1,13,15,17,19,21,23,25,27,29,31,33,35,37,39,41,-1,43,45,47,-1,49,-1,51,53,55,57,59,61,63,65,67,-1,-1,-1,-1,-1,69,71,73,75,-1,-1,77,-1,79,81,83,85,87,-1,89,-1,-1,-1,91,93,95,97,-1,99,-1,-1,-1,101,103,-1,-1,-1,-1,105,-1,-1,-1,-1,-1,-1,-1,-1,-1,-1,-1,-1,-1,-1,-1,-1,-1,-1,-1,-1,-1,-1,-1,-1,-1,-1,-1,-1,-1,-1],"loss_changes":[3.1682844E1,6.6475844E0,6.4530754E0,1.4676282E0,6.6991515E0,4.581007E0,0E0,6.9710815E-1,1.1620727E0,1.7137157E0,2.256136E0,1.0667858E0,1.2461724E0,2.5050374E-2,2.9480958E-1,1.5154283E0,1.2709427E1,4.8047018E-1,2.680125E0,2.6383543E0,1.3602047E-1,3.5417175E-1,0E0,9.883275E-1,9.029979E-1,1.0518129E-3,0E0,1.2729979E-1,0E0,5.517502E-1,3.1827648E0,2.8453345E0,1.2267399E-1,2.7768713E-1,3.4845674E-1,1.1084751E0,1.6740994E0,6.295798E-1,0E0,0E0,0E0,0E0,0E0,5.79694E-2,6.8510675E-1,9.923518E-3,2.2779697E-1,0E0,0E0,8.826065E-2,0E0,4.265952E-1,1.0023375E0,2.484211E0,1.5236474E0,1.0474389E0,0E0,4.1215897E-2,0E0,0E0,0E0,1.0688415E-1,5.47607E-1,1.8004913E0,9.01424E-2,0E0,2.9800686E-3,0E0,0E0,0E0,1.0033094E-2,3.9180547E-2,0E0,0E0,0E0,0E0,1.585336E-2,0E0,0E0,0E0,0E0,0E0,0E0,0E0,0E0,0E0,0E0,0E0,0E0,0E0,0E0,0E0,0E0,0E0,0E0,0E0,0E0,0E0,0E0,0E0,0E0,0E0,0E0,0E0,0E0,0E0,0E0],"parents":[2147483647,0,0,1,1,2,2,3,3,4,4,5,5,7,7,8,8,9,9,10,10,11,11,12,12,13,13,14,14,15,15,16,16,17,17,18,18,19,19,20,20,21,21,23,23,24,24,25,25,27,27,29,29,30,30,31,31,32,32,33,33,34,34,35,35,36,36,37,37,43,43,44,44,45,45,46,46,49,49,51,51,52,52,53,53,54,54,55,55,57,57,61,61,62,62,63,63,64,64,66,66,70,70,71,71,76,76],"right_children":[2,4,6,8,10,12,-1,14,16,18,20,22,24,26,28,30,32,34,36,38,40,42,-1,44,46,48,-1,50,-1,52,54,56,58,60,62,64,66,68,-1,-1,-1,-1,-1,70,72,74,76,-1,-1,78,-1,80,82,84,86,88,-1,90,-1,-1,-1,92,94,96,98,-1,100,-1,-1,-1,102,104,-1,-1,-1,-1,106,-1,-1,-1,-1,-1,-1,-1,-1,-1,-1,-1,-1,-1,-1,-1,-1,-1,-1,-1,-1,-1,-1,-1,-1,-1,-1,-1,-1,-1,-1],"split_conditions":[3.057735E1,6.977772E1,8.467881E1,3.5E-1,1.9902292E1,-3.8768002E2,8.444236E-2,2.2767663E0,8.82352E1,2.1681366E1,6.061708E0,9.1E-1,3.4479907E2,1.5708992E-3,4.6E0,1.174E1,-5.4558662E1,1.9234248E-2,1.17E0,7.222E0,2.2718741E2,4.6E-1,9.658717E-3,2.622474E2,3.946462E2,7.656356E0,-3.5993357E-3,8.835597E-5,-2.2149559E-3,5.16E0,7.5999656E0,7.6779213E0,8.37699E0,9.031797E1,1.16E0,5.5362396E0,1.0372616E1,5.7442455E1,6.841246E-2,-4.965686E-3,1.1968943E-2,2.4451232E-2,5.8698453E-2,2.2791986E1,6.2E-1,9.1E-1,5.446282E0,3.2266972E-3,5.2220374E-4,5.4502544E1,3.4668655E-3,3.7E0,2.3719286E1,3.125E1,2.866308E1,1.7713875E1,4.764158E-2,1.7657959E1,1.6106267E-2,-2.7680576E-3,2.5221912E-2,1.01E0,3.1628998E1,1.8839056E1,7.4588585E1,4.961184E-2,1.8699721E2,2.8863663E-2,-5.2123745E-3,1.0491732E-2,3.835193E1,5.7946747E1,3.906518E-2,-6.9774734E-3,-2.513029E-3,2.6931351E-2,3.4510624E-1,2.8793413E-2,5.4511325E-3,-4.3836464E-3,-1.6244901E-3,-6.687056E-4,4.0096615E-2,1.0687011E-2,-4.3712566E-3,3.9944384E-2,-3.97756E-3,-1.7574782E-3,1.3272459E-2,6.64065E-2,1.8325655E-2,-3.4576599E-3,6.462971E-3,1.6404761E-2,-1.108538E-3,2.9904828E-3,3.5182238E-2,7.328627E-3,-4.1830875E-3,3.752388E-4,-2.6550577E-3,-3.052434E-3,1.5299156E-3,-1.9524336E-3,8.67937E-3,6.4997016E-3,-6.4568594E-4],"split_indices":[12,8,25,37,51,31,0,53,7,12,55,38,7,7,27,18,31,57,38,32,7,38,0,7,7,13,0,25,0,46,35,49,8,7,38,32,17,25,0,0,0,0,0,8,47,37,39,0,0,13,0,47,8,26,13,26,0,39,0,0,0,27,16,25,8,0,7,0,0,0,8,8,0,0,0,0,8,0,0,0,0,0,0,0,0,0,0,0,0,0,0,0,0,0,0,0,0,0,0,0,0,0,0,0,0,0,0],"split_type":[0,0,0,0,0,0,0,0,0,0,0,0,0,0,0,0,0,0,0,0,0,0,0,0,0,0,0,0,0,0,0,0,0,0,0,0,0,0,0,0,0,0,0,0,0,0,0,0,0,0,0,0,0,0,0,0,0,0,0,0,0,0,0,0,0,0,0,0,0,0,0,0,0,0,0,0,0,0,0,0,0,0,0,0,0,0,0,0,0,0,0,0,0,0,0,0,0,0,0,0,0,0,0,0,0,0,0],"sum_hessian":[1.763E3,1.711E3,5.2E1,1.593E3,1.18E2,4.6E1,6E0,1.4E1,1.579E3,1.04E2,1.4E1,1.8E1,2.8E1,5E0,9E0,1.212E3,3.67E2,6.3E1,4.1E1,1.1E1,3E0,1.6E1,2E0,1.5E1,1.3E1,2E0,3E0,8E0,1E0,8.71E2,3.41E2,3.59E2,8E0,3E0,6E1,3.3E1,8E0,4E0,7E0,2E0,1E0,3E0,1.3E1,4E0,1.1E1,8E0,5E0,1E0,1E0,7E0,1E0,8.64E2,7E0,1.31E2,2.1E2,3.57E2,2E0,7E0,1E0,1E0,2E0,4.2E1,1.8E1,1.8E1,1.5E1,6E0,2E0,2E0,2E0,1E0,3E0,2E0,9E0,4E0,4E0,3E0,2E0,6E0,1E0,6.86E2,1.78E2,6E0,1E0,9.3E1,3.8E1,1E0,2.09E2,3.46E2,1.1E1,6E0,1E0,4E1,2E0,6E0,1.2E1,1.2E1,6E0,1E0,1.4E1,1E0,1E0,1E0,2E0,1E0,1E0,1E0,1E0],"tree_param":{"num_deleted":"0","num_feature":"60","num_nodes":"107","size_leaf_vector":"1"}},{"base_weights":[8.358781E-3,-1.4016939E-2,7.904251E-1,-2.7520759E-2,1.909657E-1,4.7744086E-1,1.406115E0,2.7071875E-1,-3.068819E-2,9.1778584E-2,5.086608E-1,1.9374667E-1,8.238704E-1,1.5098163E0,-3.7351109E-3,1.0565298E-1,5.0290402E-2,-3.415506E-2,2.1827261E-1,-2.8714126E-2,2.320521E-1,2.3845999E-1,9.6252227E-1,4.6049517E-2,4.0953624E-1,9.7036195E-1,1.7842816E-1,3.1542394E-2,7.9825774E-2,-8.2839005E-2,2.4960238E-2,2.1867678E-1,-3.7226308E-2,3.309066E-1,-2.0200204E-2,-6.426104E-2,6.372912E-2,1.5233387E-1,7.277256E-1,-2.4164375E-2,5.3693295E-1,6.023538E-2,7.6582424E-2,2.044091E-2,-1.8249389E-2,1.328516E-1,3.26504E-2,6.6293958E-3,1.0344698E0,-4.002258E-3,1.4563384E-2,-8.7128225E-4,-8.763778E-2,-3.0214407E-2,3.6638117E-1,-7.606819E-2,-1.7713105E-2,-1.5961843E-2,5.0593704E-1,-8.109143E-2,5.415782E-3,-7.140416E-2,1.5485798E-3,-4.4649974E-3,1.6321782E-2,-8.1631474E-2,3.0105677E-1,4.4692956E-2,1.5950847E-2,1.6084822E-2,-9.83374E-2,3.7300173E-2,-3.0092828E-3,-2.6730855E-3,8.416767E-3,2.7390635E-3,-4.8679747E-2,-1.6086911E-3,9.107571E-3,9.504372E-3,5.4994967E-2,-2.1858525E-3,-5.010783E-3,2.4367857E-3,-3.2326865E-3,2.0778362E-2,-4.36663E-3,-2.3130118E-3,-4.792766E-3,-1.9198315E-3,4.8668287E-3,6.337209E-3,-3.4925942E-3,2.8401801E-2,8.5847005E-3,-6.512813E-4,-5.5933963E-3,-2.4587584E-3,-4.142768E-3,8.7993406E-4,-4.5309155E-3,7.132889E-3,2.9873757E-2,-3.195145E-3,-7.295272E-3,-3.3708923E-3,5.634529E-4],"categories":[],"categories_nodes":[],"categories_segments":[],"categories_sizes":[],"default_left":[0,0,0,0,0,0,0,0,0,0,0,0,0,0,0,0,0,0,0,0,0,0,0,0,0,0,0,0,0,0,0,0,0,0,0,0,0,0,0,0,0,0,0,0,0,0,0,0,0,0,0,0,0,0,0,0,0,0,0,0,0,0,0,0,0,0,0,0,0,0,0,0,0,0,0,0,0,0,0,0,0,0,0,0,0,0,0,0,0,0,0,0,0,0,0,0,0,0,0,0,0,0,0,0,0,0,0],"id":13,"left_children":[1,3,5,7,9,11,13,15,17,19,21,23,25,27,-1,29,-1,31,33,35,37,39,41,43,45,47,49,-1,-1,51,-1,53,55,57,59,61,63,65,67,69,71,-1,73,-1,75,77,-1,-1,79,-1,-1,-1,81,83,85,87,89,91,93,95,-1,97,-1,-1,-1,99,101,-1,-1,-1,103,-1,-1,-1,-1,-1,105,-1,-1,-1,-1,-1,-1,-1,-1,-1,-1,-1,-1,-1,-1,-1,-1,-1,-1,-1,-1,-1,-1,-1,-1,-1,-1,-1,-1,-1,-1],"loss_changes":[3.0827341E1,4.7469234E0,8.771023E0,1.5273103E0,3.2935092E0,3.181899E0,2.5697918E0,1.9564806E0,1.3815327E0,1.392622E0,2.8363209E0,6.185712E-1,1.2451372E0,1.3592911E-1,0E0,1.154074E0,0E0,1.2280369E0,5.9760773E-1,1.5196854E-1,1.3906829E0,1.3455412E0,1.8387947E0,3.1069383E-1,4.5216584E-1,5.073366E-1,1.3997859E-1,0E0,0E0,1.9257963E-3,0E0,7.095542E-1,1.1757174E0,9.187634E-1,7.1387365E-2,2.4660021E-2,5.5177313E-1,1.2076399E0,5.4344893E-2,2.8817022E-1,1.0436177E0,0E0,4.4795282E-2,0E0,2.9334927E-2,4.6539113E-2,0E0,0E0,3.986454E-1,0E0,0E0,0E0,1.1431575E-3,2.4902854E-2,3.0408907E-1,3.016789E-1,2.4666579E0,5.499592E-2,1.1003351E-1,1.1111811E-2,0E0,3.8165748E-3,0E0,0E0,0E0,1.4079466E-2,9.0076506E-1,0E0,0E0,0E0,5.4180548E-3,0E0,0E0,0E0,0E0,0E0,1.08696725E-2,0E0,0E0,0E0,0E0,0E0,0E0,0E0,0E0,0E0,0E0,0E0,0E0,0E0,0E0,0E0,0E0,0E0,0E0,0E0,0E0,0E0,0E0,0E0,0E0,0E0,0E0,0E0,0E0,0E0,0E0],"parents":[2147483647,0,0,1,1,2,2,3,3,4,4,5,5,6,6,7,7,8,8,9,9,10,10,11,11,12,12,13,13,15,15,17,17,18,18,19,19,20,20,21,21,22,22,23,23,24,24,25,25,26,26,29,29,31,31,32,32,33,33,34,34,35,35,36,36,37,37,38,38,39,39,40,40,42,42,44,44,45,45,48,48,52,52,53,53,54,54,55,55,56,56,57,57,58,58,59,59,61,61,65,65,66,66,70,70,76,76],"right_children":[2,4,6,8,10,12,14,16,18,20,22,24,26,28,-1,30,-1,32,34,36,38,40,42,44,46,48,50,-1,-1,52,-1,54,56,58,60,62,64,66,68,70,72,-1,74,-1,76,78,-1,-1,80,-1,-1,-1,82,84,86,88,90,92,94,96,-1,98,-1,-1,-1,100,102,-1,-1,-1,104,-1,-1,-1,-1,-1,106,-1,-1,-1,-1,-1,-1,-1,-1,-1,-1,-1,-1,-1,-1,-1,-1,-1,-1,-1,-1,-1,-1,-1,-1,-1,-1,-1,-1,-1,-1],"split_conditions":[1.25664246E2,6.856771E1,4.4910507E0,-6.756216E1,4.397317E0,1.5787509E1,1.9035198E1,7.43011E1,3.946462E2,1.3885507E1,1.35E0,1.3350018E0,5.474802E0,2.1106224E1,-3.7351109E-3,7.779245E0,5.0290402E-2,3.5E-1,7.5E-1,1.05E0,3.92102E1,2.9648618E2,1.657369E1,1.82886E0,2.3271421E1,2.1149168E2,1.8158052E1,3.1542394E-2,7.9825774E-2,2.2998402E0,2.4960238E-2,2.2767663E0,1.2899276E0,5.6E-1,2.6515167E1,2.4616833E0,6.629402E0,2.0776825E1,4.1939323E1,4.148065E0,2.5657347E1,6.023538E-2,3.3581388E0,2.044091E-2,1.02E0,1.3738347E2,3.26504E-2,6.6293958E-3,8.835597E-5,-4.002258E-3,1.4563384E-2,-8.7128225E-4,9.5E-1,5.2363303E-5,4.25E0,5.817109E-1,3.83E0,3.9866003E2,3.0904493E1,-1.1666013E1,5.415782E-3,7.159087E0,1.5485798E-3,-4.4649974E-3,1.6321782E-2,4.2E-1,9.9E-1,4.4692956E-2,1.5950847E-2,1.6084822E-2,3.95671E1,3.7300173E-2,-3.0092828E-3,-2.6730855E-3,8.416767E-3,2.7390635E-3,-4.3073274E-2,-1.6086911E-3,9.107571E-3,9.504372E-3,5.4994967E-2,-2.1858525E-3,-5.010783E-3,2.4367857E-3,-3.2326865E-3,2.0778362E-2,-4.36663E-3,-2.3130118E-3,-4.792766E-3,-1.9198315E-3,4.8668287E-3,6.337209E-3,-3.4925942E-3,2.8401801E-2,8.5847005E-3,-6.512813E-4,-5.5933963E-3,-2.4587584E-3,-4.142768E-3,8.7993406E-4,-4.5309155E-3,7.132889E-3,2.9873757E-2,-3.195145E-3,-7.295272E-3,-3.3708923E-3,5.634529E-4],"split_indices":[8,8,40,46,40,4,17,16,7,4,47,35,32,25,0,12,0,37,47,27,16,7,17,33,12,7,4,0,0,7,0,53,4,47,16,35,4,12,16,4,4,0,4,0,47,7,0,0,25,0,0,0,27,4,46,4,27,7,16,46,0,17,0,0,0,38,47,0,0,0,16,0,0,0,0,0,35,0,0,0,0,0,0,0,0,0,0,0,0,0,0,0,0,0,0,0,0,0,0,0,0,0,0,0,0,0,0],"split_type":[0,0,0,0,0,0,0,0,0,0,0,0,0,0,0,0,0,0,0,0,0,0,0,0,0,0,0,0,0,0,0,0,0,0,0,0,0,0,0,0,0,0,0,0,0,0,0,0,0,0,0,0,0,0,0,0,0,0,0,0,0,0,0,0,0,0,0,0,0,0,0,0,0,0,0,0,0,0,0,0,0,0,0,0,0,0,0,0,0,0,0,0,0,0,0,0,0,0,0,0,0,0,0,0,0,0,0],"sum_hessian":[1.76E3,1.712E3,4.8E1,1.607E3,1.05E2,3.3E1,1.5E1,1.6E1,1.591E3,8.1E1,2.4E1,1.9E1,1.4E1,1.4E1,1E0,1.4E1,2E0,1.57E3,2.1E1,4.4E1,3.7E1,1.6E1,8E0,1.2E1,7E0,1.1E1,3E0,2E0,1.2E1,1E1,4E0,1.8E1,1.552E3,1.4E1,7E0,3.2E1,1.2E1,3.3E1,4E0,9E0,7E0,6E0,2E0,1E0,1.1E1,4E0,3E0,1E0,1E1,1E0,2E0,1E0,9E0,7E0,1.1E1,5.18E2,1.034E3,5E0,9E0,5E0,2E0,3E1,2E0,8E0,4E0,1.3E1,2E1,2E0,2E0,1E0,8E0,5E0,2E0,1E0,1E0,3E0,8E0,1E0,3E0,1E0,9E0,3E0,6E0,2E0,5E0,1E1,1E0,2.08E2,3.1E2,8.77E2,1.57E2,1E0,4E0,7E0,2E0,2E0,3E0,1.2E1,1.8E1,1E0,1.2E1,1.4E1,6E0,6E0,2E0,6E0,2E0],"tree_param":{"num_deleted":"0","num_feature":"60","num_nodes":"107","size_leaf_vector":"1"}},{"base_weights":[1.4301398E-3,-2.0710932E-2,7.8763497E-1,-3.2245196E-2,2.6337045E-1,5.462769E-1,1.486299E0,-3.4810074E-2,5.059212E-1,1.7146787E-1,7.792587E-1,1.9223343E-1,8.2372963E-1,4.0868036E-3,8.03278E-2,-2.315695E-2,-8.5108854E-2,4.3402992E-2,4.7879428E-2,8.6638E-2,6.3311845E-1,4.979327E-2,2.0538251E-1,-2.5377301E-2,4.1266385E-1,1.154845E-1,9.3535465E-1,-4.403923E-2,6.789217E-2,-8.905129E-2,1.7598012E-2,-2.0262102E-2,7.451584E-3,3.1690288E-1,-9.054194E-3,4.4706995E-3,3.449524E-2,2.8470885E-3,1.1794108E-2,-5.9179716E-2,4.012125E-2,6.35091E-1,-2.4142843E-2,-3.9022022E-3,1.0300434E-2,8.339092E-4,4.942067E-2,-4.8623625E-2,1.2726009E-1,2.6692668E-2,2.866122E-1,-5.3639077E-3,-8.398851E-2,5.567536E-4,-1.7219757E-3,-7.8053355E-2,4.676191E-1,-2.772682E-2,1.0590558E-2,-4.8489906E-4,-3.2905173E-3,4.5012982E-4,2.3746635E-3,3.7470113E-2,1.354895E-2,-3.4734716E-3,2.7959228E-3,-2.9359816E-3,1.8039442E-3,1.7457404E-4,2.5787419E-2,4.293683E-3,-2.7121443E-3,2.1414153E-2,-3.9821677E-3,5.9476076E-3,-4.306099E-3,-6.132618E-4,-4.5717037E-3,5.717117E-3,2.9290257E-2,-2.2214025E-3,8.261451E-3],"categories":[],"categories_nodes":[],"categories_segments":[],"categories_sizes":[],"default_left":[0,0,0,0,0,0,0,0,0,0,0,0,0,0,0,0,0,0,0,0,0,0,0,0,0,0,0,0,0,0,0,0,0,0,0,0,0,0,0,0,0,0,0,0,0,0,0,0,0,0,0,0,0,0,0,0,0,0,0,0,0,0,0,0,0,0,0,0,0,0,0,0,0,0,0,0,0,0,0,0,0,0,0],"id":14,"left_children":[1,3,5,7,9,11,13,15,17,19,21,23,25,-1,-1,27,29,31,-1,33,35,-1,37,39,41,43,45,47,49,51,-1,53,-1,55,57,-1,-1,-1,-1,59,61,63,65,-1,-1,-1,-1,67,69,71,73,-1,75,-1,-1,77,79,81,-1,-1,-1,-1,-1,-1,-1,-1,-1,-1,-1,-1,-1,-1,-1,-1,-1,-1,-1,-1,-1,-1,-1,-1,-1],"loss_changes":[3.1140776E1,5.709898E0,7.4508514E0,2.3269048E0,3.0903625E0,3.5744047E0,1.8955879E0,9.74535E-1,1.629673E0,2.2556915E0,1.0385203E0,8.7389666E-1,1.5521965E0,0E0,0E0,2.577368E0,5.706785E-1,3.6644E-2,0E0,1.1266315E0,2.1618795E-1,0E0,4.678011E-3,2.4514457E-2,8.8975215E-1,8.6153805E-2,8.609047E-1,8.7159276E-1,2.2721725E0,1.9688606E-2,0E0,2.1640093E-3,0E0,9.2939365E-1,1.5846586E-1,0E0,0E0,0E0,0E0,1.6584359E-3,4.900666E-4,4.6660185E-2,1.8400244E-2,0E0,0E0,0E0,0E0,9.2055726E-1,1.3925964E0,1.029685E0,2.1096194E0,0E0,1.1762047E-1,0E0,0E0,3.2800045E-3,3.922937E-1,1.2013179E-1,0E0,0E0,0E0,0E0,0E0,0E0,0E0,0E0,0E0,0E0,0E0,0E0,0E0,0E0,0E0,0E0,0E0,0E0,0E0,0E0,0E0,0E0,0E0,0E0,0E0],"parents":[2147483647,0,0,1,1,2,2,3,3,4,4,5,5,6,6,7,7,8,8,9,9,10,10,11,11,12,12,15,15,16,16,17,17,19,19,20,20,22,22,23,23,24,24,25,25,26,26,27,27,28,28,29,29,31,31,33,33,34,34,39,39,40,40,41,41,42,42,47,47,48,48,49,49,50,50,52,52,55,55,56,56,57,57],"right_children":[2,4,6,8,10,12,14,16,18,20,22,24,26,-1,-1,28,30,32,-1,34,36,-1,38,40,42,44,46,48,50,52,-1,54,-1,56,58,-1,-1,-1,-1,60,62,64,66,-1,-1,-1,-1,68,70,72,74,-1,76,-1,-1,78,80,82,-1,-1,-1,-1,-1,-1,-1,-1,-1,-1,-1,-1,-1,-1,-1,-1,-1,-1,-1,-1,-1,-1,-1,-1,-1],"split_conditions":[1.25664246E2,3.337688E2,9.392003E1,6.870385E1,3.4096508E0,1.4798829E1,1.4986668E2,7.8204436E0,6.7E-1,3.8792595E1,-7.947658E-2,1.3350018E0,4.2E-1,4.0868036E-3,8.03278E-2,3.63E0,3.7895866E1,1.3412788E2,4.7879428E-2,6.4E-1,8.835597E-5,4.979327E-2,1.660906E1,1.793315E0,8.835597E-5,1.8158052E1,1.0797237E0,9.266453E1,6.868205E-2,6.9452963E0,1.7598012E-2,5.340084E0,7.451584E-3,-7.6286693E0,3.7578833E0,4.4706995E-3,3.449524E-2,2.8470885E-3,1.1794108E-2,1.361249E2,7.725891E0,1.67E0,1.4374597E2,-3.9022022E-3,1.0300434E-2,8.339092E-4,4.942067E-2,3.6698751E0,7.2767663E0,9.935061E0,1.2297261E1,-5.3639077E-3,6.9895167E0,5.567536E-4,-1.7219757E-3,2.4612158E1,2.3021345E-1,3.520342E1,1.0590558E-2,-4.8489906E-4,-3.2905173E-3,4.5012982E-4,2.3746635E-3,3.7470113E-2,1.354895E-2,-3.4734716E-3,2.7959228E-3,-2.9359816E-3,1.8039442E-3,1.7457404E-4,2.5787419E-2,4.293683E-3,-2.7121443E-3,2.1414153E-2,-3.9821677E-3,5.9476076E-3,-4.306099E-3,-6.132618E-4,-4.5717037E-3,5.717117E-3,2.9290257E-2,-2.2214025E-3,8.261451E-3],"split_indices":[8,7,25,25,35,4,8,55,27,16,18,35,38,0,0,47,58,7,0,38,25,0,4,49,58,4,39,8,25,49,0,4,0,46,55,0,0,0,0,8,4,38,8,0,0,0,0,46,33,7,54,0,49,0,0,16,59,16,0,0,0,0,0,0,0,0,0,0,0,0,0,0,0,0,0,0,0,0,0,0,0,0,0],"split_type":[0,0,0,0,0,0,0,0,0,0,0,0,0,0,0,0,0,0,0,0,0,0,0,0,0,0,0,0,0,0,0,0,0,0,0,0,0,0,0,0,0,0,0,0,0,0,0,0,0,0,0,0,0,0,0,0,0,0,0,0,0,0,0,0,0,0,0,0,0,0,0,0,0,0,0,0,0,0,0,0,0,0,0],"sum_hessian":[1.787E3,1.739E3,4.8E1,1.672E3,6.7E1,3.7E1,1.1E1,1.665E3,7E0,5.8E1,9E0,1.7E1,2E1,1E0,1E1,1.353E3,3.12E2,4E0,3E0,5E1,8E0,6E0,3E0,9E0,8E0,3E0,1.7E1,1.101E3,2.52E2,3.1E2,2E0,3E0,1E0,1.4E1,3.6E1,1E0,7E0,1E0,2E0,6E0,3E0,5E0,3E0,1E0,2E0,1E0,1.6E1,1.073E3,2.8E1,2.13E2,3.9E1,6.3E1,2.47E2,1E0,2E0,4E0,1E1,3.4E1,2E0,1E0,5E0,1E0,2E0,3E0,2E0,2E0,1E0,9.59E2,1.14E2,2.2E1,6E0,1.23E2,9E1,2.8E1,1.1E1,2E0,2.45E2,1E0,3E0,3E0,7E0,3.2E1,2E0],"tree_param":{"num_deleted":"0","num_feature":"60","num_nodes":"83","size_leaf_vector":"1"}},{"base_weights":[1.4092856E-3,-1.9647187E-2,7.248815E-1,-2.987227E-2,2.959901E-1,4.523147E-1,1.3307163E0,-4.8175536E-2,2.3140145E-2,1.2930988E-1,6.511582E-1,9.601467E-2,5.8566034E-1,4.612131E-1,7.548288E-2,2.506973E-1,-5.1305365E-2,6.489076E-1,-7.5163087E-3,4.7316015E-2,5.763373E-2,-4.444448E-2,8.6860865E-1,3.5106853E-1,-9.988303E-2,3.568992E-3,6.614301E-1,5.883926E-3,2.6824925E-2,3.1954437E-1,-4.2653847E-3,-6.869505E-2,-2.0304892E-2,-7.0727533E-3,5.9313096E-2,2.0281228E-1,-2.1737734E-2,2.1775281E-2,3.390575E-1,8.535717E-4,-3.204566E-3,5.395259E-1,5.813088E-2,1.3704005E-3,2.7885308E-2,-2.0357003E-3,-6.7040655E-3,-6.0079575E-2,4.8628673E-3,-4.456956E-3,6.9959867E-1,2.510241E-2,2.2320487E-1,-7.653141E-2,5.4169325E-3,-2.6195511E-2,6.312667E-1,-7.30382E-3,1.8298062E-2,5.7571743E-2,4.006541E-2,-3.442291E-2,1.4726342E-1,1.0017946E-1,-1.06552646E-1,2.1136684E-2,2.2007234E-3,3.1870946E-2,8.194899E-3,-5.9793E-4,-3.908038E-3,8.364014E-1,4.517952E-1,4.8316046E-4,1.9605277E-2,-2.9658363E-3,-4.460076E-3,2.187039E-2,-1.8929768E-3,-1.9363348E-3,1.4357539E-2,4.3078825E-2,-1.4915698E-3,-5.8512884E-4,2.5010496E-2,-2.0436912E-3,7.7492334E-3,-2.0513115E-3,2.1243447E-2,1.7607997E-3,1.1253777E-2,-2.540976E-3,-7.3531987E-3,1.1624175E-2,4.3367714E-2,2.4452513E-2,2.9124946E-3],"categories":[],"categories_nodes":[],"categories_segments":[],"categories_sizes":[],"default_left":[0,0,0,0,0,0,0,0,0,0,0,0,0,0,0,0,0,0,0,0,0,0,0,0,0,0,0,0,0,0,0,0,0,0,0,0,0,0,0,0,0,0,0,0,0,0,0,0,0,0,0,0,0,0,0,0,0,0,0,0,0,0,0,0,0,0,0,0,0,0,0,0,0,0,0,0,0,0,0,0,0,0,0,0,0,0,0,0,0,0,0,0,0,0,0,0,0],"id":15,"left_children":[1,3,5,7,9,11,13,15,17,19,21,23,25,27,-1,29,31,33,35,-1,37,39,41,43,45,47,49,-1,-1,51,-1,53,55,57,-1,59,61,63,65,-1,-1,67,-1,-1,-1,-1,-1,69,-1,-1,71,-1,73,75,77,79,81,-1,-1,83,-1,85,87,89,91,-1,-1,-1,-1,-1,-1,93,95,-1,-1,-1,-1,-1,-1,-1,-1,-1,-1,-1,-1,-1,-1,-1,-1,-1,-1,-1,-1,-1,-1,-1,-1],"loss_changes":[2.6932314E1,5.553546E0,7.6546173E0,1.6166648E0,3.1125722E0,1.6541653E0,1.637577E0,1.1709135E0,8.215549E0,2.170746E0,2.6100087E0,5.846749E-1,1.1443672E0,4.031819E-2,0E0,3.2798815E-1,6.595278E-1,7.0582666E0,1.2277981E0,0E0,3.559081E-1,7.1370974E-3,6.3053036E-1,3.191166E-1,8.705363E-3,2.9695699E-2,7.212696E-1,0E0,0E0,8.1345916E-2,0E0,4.563179E-1,1.7130029E0,5.719891E-1,0E0,2.2139397E0,8.282922E-1,3.4270212E-1,8.0145895E-2,0E0,0E0,1.8969917E-1,0E0,0E0,0E0,0E0,0E0,1.6755601E-3,0E0,0E0,3.6792278E-1,0E0,3.2081693E-1,1.4956808E-1,1.4373832E0,1.734898E0,6.3473153E-1,0E0,0E0,6.8044984E-1,0E0,4.4375795E-1,1.4287274E0,1.6246107E-1,2.187799E-2,0E0,0E0,0E0,0E0,0E0,0E0,4.1362762E-2,1.1812854E-1,0E0,0E0,0E0,0E0,0E0,0E0,0E0,0E0,0E0,0E0,0E0,0E0,0E0,0E0,0E0,0E0,0E0,0E0,0E0,0E0,0E0,0E0,0E0,0E0],"parents":[2147483647,0,0,1,1,2,2,3,3,4,4,5,5,6,6,7,7,8,8,9,9,10,10,11,11,12,12,13,13,15,15,16,16,17,17,18,18,20,20,21,21,22,22,23,23,24,24,25,25,26,26,29,29,31,31,32,32,33,33,35,35,36,36,37,37,38,38,41,41,47,47,50,50,52,52,53,53,54,54,55,55,56,56,59,59,61,61,62,62,63,63,64,64,71,71,72,72],"right_children":[2,4,6,8,10,12,14,16,18,20,22,24,26,28,-1,30,32,34,36,-1,38,40,42,44,46,48,50,-1,-1,52,-1,54,56,58,-1,60,62,64,66,-1,-1,68,-1,-1,-1,-1,-1,70,-1,-1,72,-1,74,76,78,80,82,-1,-1,84,-1,86,88,90,92,-1,-1,-1,-1,-1,-1,94,96,-1,-1,-1,-1,-1,-1,-1,-1,-1,-1,-1,-1,-1,-1,-1,-1,-1,-1,-1,-1,-1,-1,-1,-1],"split_conditions":[2.1404146E2,1.0091437E2,4.4910507E0,8.82352E1,2.8640952E2,1.8485662E1,3.1254664E-1,3.5E-1,4.4603863E0,-8.410881E1,5.783376E-1,3.1301324E2,3.2579E0,1.9866566E1,7.548288E-2,4.25E0,3.626611E0,2.2886871E1,-5.049133E1,4.7316015E-2,1.6401627E2,1.429991E2,-1.5903827E-2,2.22791E2,1.797807E1,3.9866003E2,-6.756216E1,5.883926E-3,2.6824925E-2,3.8148913E0,-4.2653847E-3,2.391E1,1.7512045E1,3.8120964E0,5.9313096E-2,4.134208E0,3.4479907E2,2.9933019E0,2.0040935E2,8.535717E-4,-3.204566E-3,7.477233E0,5.813088E-2,1.3704005E-3,2.7885308E-2,-2.0357003E-3,-6.7040655E-3,2.1206615E1,4.8628673E-3,-4.456956E-3,1.03E0,2.510241E-2,2.4561123E1,7.672681E0,3.5309944E1,5.41925E0,4.622264E1,-7.30382E-3,1.8298062E-2,3.07559E0,4.006541E-2,1.8790245E1,3.9519699E0,8E-1,2.8594215E0,2.1136684E-2,2.2007234E-3,3.1870946E-2,8.194899E-3,-5.9793E-4,-3.908038E-3,5.1E-1,8.241432E0,4.8316046E-4,1.9605277E-2,-2.9658363E-3,-4.460076E-3,2.187039E-2,-1.8929768E-3,-1.9363348E-3,1.4357539E-2,4.3078825E-2,-1.4915698E-3,-5.8512884E-4,2.5010496E-2,-2.0436912E-3,7.7492334E-3,-2.0513115E-3,2.1243447E-2,1.7607997E-3,1.1253777E-2,-2.540976E-3,-7.3531987E-3,1.1624175E-2,4.3367714E-2,2.4452513E-2,2.9124946E-3],"split_indices":[5,8,40,7,7,4,25,37,4,46,13,7,32,4,0,46,46,13,46,0,8,5,55,5,4,7,46,0,0,13,0,26,25,4,0,49,7,40,5,0,0,17,0,0,0,0,0,4,0,0,37,0,13,56,13,4,7,0,0,55,0,26,13,27,49,0,0,0,0,0,0,37,32,0,0,0,0,0,0,0,0,0,0,0,0,0,0,0,0,0,0,0,0,0,0,0,0],"split_type":[0,0,0,0,0,0,0,0,0,0,0,0,0,0,0,0,0,0,0,0,0,0,0,0,0,0,0,0,0,0,0,0,0,0,0,0,0,0,0,0,0,0,0,0,0,0,0,0,0,0,0,0,0,0,0,0,0,0,0,0,0,0,0,0,0,0,0,0,0,0,0,0,0,0,0,0,0,0,0,0,0,0,0,0,0,0,0,0,0,0,0,0,0,0,0,0,0],"sum_hessian":[1.766E3,1.717E3,4.9E1,1.664E3,5.3E1,3.5E1,1.4E1,1.237E3,4.27E2,3.7E1,1.6E1,1E1,2.5E1,3E0,1.1E1,1.2E1,1.225E3,1.9E1,4.08E2,2E0,3.5E1,4E0,1.2E1,4E0,6E0,3E0,2.2E1,1E0,2E0,1E1,2E0,7.84E2,4.41E2,9E0,1E1,2.5E1,3.83E2,3.2E1,3E0,1E0,3E0,7E0,5E0,2E0,2E0,3E0,3E0,2E0,1E0,1E0,2.1E1,2E0,8E0,7.09E2,7.5E1,4.38E2,3E0,7E0,2E0,2.1E1,4E0,3.57E2,2.6E1,2E1,1.2E1,2E0,1E0,5E0,2E0,1E0,1E0,1.2E1,9E0,4E0,4E0,3.03E2,4.06E2,6E0,6.9E1,4.22E2,1.6E1,2E0,1E0,1.9E1,2E0,3.46E2,1.1E1,1.6E1,1E1,1.4E1,6E0,6E0,6E0,1E0,1.1E1,8E0,1E0],"tree_param":{"num_deleted":"0","num_feature":"60","num_nodes":"97","size_leaf_vector":"1"}},{"base_weights":[1.7821116E-3,-1.6845247E-2,6.9888294E-1,-3.6683004E-2,8.5028835E-2,3.9299598E-1,1.2155662E0,-2.4679894E-2,-7.372406E-2,5.297058E-2,8.1528294E-1,2.6247114E-2,6.934805E-1,4.2853445E-1,1.3536061E0,-4.569068E-2,6.545484E-2,-7.6806284E-2,3.186633E-1,-4.477866E-2,1.5840608E-1,-3.4742707E-3,9.9918514E-1,-3.428169E-2,2.184126E-2,7.4591565E-1,-3.6370456E-3,2.1457055E-3,2.7138492E-2,7.153157E-2,8.806934E-3,-4.7327846E-2,3.58168E-2,3.6973137E-2,4.635922E-1,-7.926529E-2,2.0026455E-2,-2.747754E-3,2.6647503E-2,-5.3187758E-2,1.04824476E-1,1.0654288E-1,5.91633E-1,1.1356078E0,-5.715492E-3,6.655697E-2,-8.127285E-2,3.559344E-1,8.462482E-1,-4.9285352E-2,4.0494266E-1,1.3162236E-1,-3.5387978E-2,9.656022E-1,7.740858E-2,-8.850208E-2,-5.3950693E-2,-6.1370708E-2,5.6872778E-2,2.853133E-1,-6.053149E-2,6.0515508E-2,2.426078E-1,8.182021E-1,2.016821E-2,1.6506081E-2,5.975142E-2,-5.167965E-4,4.4182087E-3,-1.0831792E-1,-3.2564197E-2,2.2283545E-2,7.3776552E-3,8.397939E-3,4.4632096E-2,-2.9355113E-3,1.5129767E-3,2.8854331E-2,-2.7872287E-3,2.2973195E-3,2.844799E-2,1.4110865E-2,-4.1576265E-3,8.970831E-3,5.4347802E-2,-6.4686835E-3,2.6704881E-2,-4.500024E-3,-5.0349644E-4,2.0003919E-2,-3.3788558E-3,-3.5583873E-3,-5.465956E-4,-6.6140383E-3,1.3624124E-2,2.0454176E-2,-2.1499337E-3,6.0635916E-4,-4.0863976E-3,6.0620812E-5,1.425896E-2,1.806593E-2,-1.5472802E-3,5.0184984E-2,2.159823E-2,-6.273107E-3,7.953792E-3,-2.6304892E-3,-7.324473E-3,-1.9904922E-3,-8.9540335E-5],"categories":[],"categories_nodes":[],"categories_segments":[],"categories_sizes":[],"default_left":[0,0,0,0,0,0,0,0,0,0,0,0,0,0,0,0,0,0,0,0,0,0,0,0,0,0,0,0,0,0,0,0,0,0,0,0,0,0,0,0,0,0,0,0,0,0,0,0,0,0,0,0,0,0,0,0,0,0,0,0,0,0,0,0,0,0,0,0,0,0,0,0,0,0,0,0,0,0,0,0,0,0,0,0,0,0,0,0,0,0,0,0,0,0,0,0,0,0,0,0,0,0,0,0,0,0,0,0,0,0,0],"id":16,"left_children":[1,3,5,7,9,11,13,15,17,19,21,23,25,27,29,31,33,35,37,39,41,-1,43,45,-1,47,-1,-1,-1,-1,-1,49,-1,51,53,55,-1,-1,-1,57,59,61,63,65,-1,67,69,71,73,75,77,79,81,83,85,87,89,91,93,95,97,99,101,103,105,-1,-1,-1,-1,107,109,-1,-1,-1,-1,-1,-1,-1,-1,-1,-1,-1,-1,-1,-1,-1,-1,-1,-1,-1,-1,-1,-1,-1,-1,-1,-1,-1,-1,-1,-1,-1,-1,-1,-1,-1,-1,-1,-1,-1,-1],"loss_changes":[2.3449963E1,3.5579758E0,6.9504795E0,6.53088E-1,6.6756763E0,3.3980718E0,1.2668457E0,2.112686E0,4.5986927E-1,2.8516152E0,2.0219588E0,3.8775212E-1,7.3726654E-1,1.5291357E-1,1.0177364E0,1.1617018E0,2.3755217E0,4.5195746E-1,2.6947266E-1,1.8673134E-1,2.9252806E0,0E0,1.6488714E0,7.174863E-2,0E0,3.2483673E-1,0E0,0E0,0E0,0E0,0E0,8.194032E-1,0E0,1.3607447E0,2.6394067E0,7.870102E-2,0E0,0E0,0E0,1.2687525E-1,2.5602967E-1,7.368438E-1,1.796166E0,3.6257744E-2,0E0,9.297423E-3,9.6459985E-3,2.7736902E-2,2.276926E-1,6.7650723E-1,3.4938747E-1,3.196218E0,1.7377081E0,3.7742186E-1,9.190149E-1,2.9649734E-2,6.3334167E-1,6.2473267E-2,4.4387764E-1,1.8013099E-1,8.691665E-3,1.2120702E0,9.853934E-1,2.8289843E-1,1.2110382E-1,0E0,0E0,0E0,0E0,5.052015E-3,1.043574E-3,0E0,0E0,0E0,0E0,0E0,0E0,0E0,0E0,0E0,0E0,0E0,0E0,0E0,0E0,0E0,0E0,0E0,0E0,0E0,0E0,0E0,0E0,0E0,0E0,0E0,0E0,0E0,0E0,0E0,0E0,0E0,0E0,0E0,0E0,0E0,0E0,0E0,0E0,0E0,0E0],"parents":[2147483647,0,0,1,1,2,2,3,3,4,4,5,5,6,6,7,7,8,8,9,9,10,10,11,11,12,12,13,13,14,14,15,15,16,16,17,17,18,18,19,19,20,20,22,22,23,23,25,25,31,31,33,33,34,34,35,35,39,39,40,40,41,41,42,42,43,43,45,45,46,46,47,47,48,48,49,49,50,50,51,51,52,52,53,53,54,54,55,55,56,56,57,57,58,58,59,59,60,60,61,61,62,62,63,63,64,64,69,69,70,70],"right_children":[2,4,6,8,10,12,14,16,18,20,22,24,26,28,30,32,34,36,38,40,42,-1,44,46,-1,48,-1,-1,-1,-1,-1,50,-1,52,54,56,-1,-1,-1,58,60,62,64,66,-1,68,70,72,74,76,78,80,82,84,86,88,90,92,94,96,98,100,102,104,106,-1,-1,-1,-1,108,110,-1,-1,-1,-1,-1,-1,-1,-1,-1,-1,-1,-1,-1,-1,-1,-1,-1,-1,-1,-1,-1,-1,-1,-1,-1,-1,-1,-1,-1,-1,-1,-1,-1,-1,-1,-1,-1,-1,-1,-1],"split_conditions":[1.25664246E2,7.748929E1,6.1673074E0,7.477289E0,3.2989296E1,1.4798829E1,2.2698029E1,3.82E0,3.573919E1,1.3353622E1,3.3581388E0,1.755652E2,7.1456428E0,8.13082E0,1.0639995E1,1.5103967E1,5.5029874E0,3.7895866E1,1.2847995E0,6.2932484E1,7.1972485E0,-3.4742707E-3,4.913919E0,1.1E0,2.184126E-2,2.7745517E2,-3.6370456E-3,2.1457055E-3,2.7138492E-2,7.153157E-2,8.806934E-3,7.3495995E1,3.58168E-2,5.5133743E0,5.581973E0,5.856622E1,2.0026455E-2,-2.747754E-3,2.6647503E-2,2.62E0,-1.6973433E0,1.05E0,6.4371E-2,3.373958E1,-5.715492E-3,3.5E-1,5.857077E0,1.5787509E1,8.835597E-5,3.52E0,1.8485662E1,4.4542074E0,2.73E0,1.1226269E-3,6.4758487E0,3.625597E1,1.2429651E1,1.2476877E1,6.629402E0,8.485624E0,1.26013245E2,3.946462E2,7.2977934E0,9.021802E0,1.8121277E1,1.6506081E-2,5.975142E-2,-5.167965E-4,4.4182087E-3,2.1317098E0,4.950254E0,2.2283545E-2,7.3776552E-3,8.397939E-3,4.4632096E-2,-2.9355113E-3,1.5129767E-3,2.8854331E-2,-2.7872287E-3,2.2973195E-3,2.844799E-2,1.4110865E-2,-4.1576265E-3,8.970831E-3,5.4347802E-2,-6.4686835E-3,2.6704881E-2,-4.500024E-3,-5.0349644E-4,2.0003919E-2,-3.3788558E-3,-3.5583873E-3,-5.465956E-4,-6.6140383E-3,1.3624124E-2,2.0454176E-2,-2.1499337E-3,6.0635916E-4,-4.0863976E-3,6.0620812E-5,1.425896E-2,1.806593E-2,-1.5472802E-3,5.0184984E-2,2.159823E-2,-6.273107E-3,7.953792E-3,-2.6304892E-3,-7.324473E-3,-1.9904922E-3,-8.9540335E-5],"split_indices":[8,5,32,55,13,4,25,27,25,4,4,8,33,4,33,33,4,58,4,25,13,0,4,37,0,7,0,0,0,0,0,8,0,7,4,31,0,0,0,27,55,27,53,13,0,27,39,4,25,47,4,7,37,5,4,8,33,4,4,4,7,7,32,39,8,0,0,0,0,32,13,0,0,0,0,0,0,0,0,0,0,0,0,0,0,0,0,0,0,0,0,0,0,0,0,0,0,0,0,0,0,0,0,0,0,0,0,0,0,0,0],"split_type":[0,0,0,0,0,0,0,0,0,0,0,0,0,0,0,0,0,0,0,0,0,0,0,0,0,0,0,0,0,0,0,0,0,0,0,0,0,0,0,0,0,0,0,0,0,0,0,0,0,0,0,0,0,0,0,0,0,0,0,0,0,0,0,0,0,0,0,0,0,0,0,0,0,0,0,0,0,0,0,0,0,0,0,0,0,0,0,0,0,0,0,0,0,0,0,0,0,0,0,0,0,0,0,0,0,0,0,0,0,0,0],"sum_hessian":[1.804E3,1.758E3,4.6E1,1.472E3,2.86E2,3E1,1.6E1,1.113E3,3.59E2,2.75E2,1.1E1,1.4E1,1.6E1,3E0,1.3E1,9.03E2,2.1E2,3.57E2,2E0,1.43E2,1.32E2,2E0,9E0,1.3E1,1E0,1.5E1,1E0,1E0,2E0,1.2E1,1E0,9.02E2,1E0,1.97E2,1.3E1,3.56E2,1E0,1E0,1E0,1.36E2,7E0,1.19E2,1.3E1,8E0,1E0,4E0,9E0,4E0,1.1E1,8.99E2,3E0,8.5E1,1.12E2,5E0,8E0,2.59E2,9.7E1,1.27E2,9E0,3E0,4E0,9E1,2.9E1,9E0,4E0,1E0,7E0,1E0,3E0,5E0,4E0,2E0,2E0,1E0,1E1,8.04E2,9.5E1,2E0,1E0,7.2E1,1.3E1,1.4E1,9.8E1,1E0,4E0,6E0,2E0,2.54E2,5E0,2E0,9.5E1,1.06E2,2.1E1,5E0,4E0,2E0,1E0,1E0,3E0,7.2E1,1.8E1,2E1,9E0,5E0,4E0,2E0,2E0,3E0,2E0,3E0,1E0],"tree_param":{"num_deleted":"0","num_feature":"60","num_nodes":"111","size_leaf_vector":"1"}},{"base_weights":[3.30683E-3,-1.6246287E-2,7.4412805E-1,-2.289671E-2,3.9190984E-1,3.2628444E-1,1.0529969E0,-4.9566418E-2,1.1929939E-2,-5.8238275E-2,6.0820305E-1,1.0972441E-1,7.4372953E-1,2.0477155E-1,1.1547319E0,2.5666672E-1,-5.3661693E-2,2.9230206E-3,6.1267126E-1,-1.0111148E-1,8.190514E-3,6.541717E-1,-5.4808203E-3,2.4251692E-1,-3.6783647E-2,5.2815504E-2,2.0371769E-2,-3.5461194E-3,1.6015517E-2,5.583257E-1,6.446911E-2,2.4363512E-2,1.7044151E-1,-3.304717E-2,-9.064745E-2,2.779833E-1,-9.992929E-3,9.101542E-1,-6.773123E-3,-2.2192525E-3,-6.1038593E-3,3.6611232E-1,7.676921E-1,4.221155E-1,-4.261055E-2,-5.3674717E-2,2.036346E-3,3.6693066E-3,3.203182E-2,2.8313268E-2,3.3533272E-1,-3.838623E-2,4.3846035E-1,-7.916603E-2,-1.1663167E-1,2.4445193E-2,4.756844E-2,-1.5661122E-2,6.510724E-1,5.0154936E-2,6.4885737E-3,1.9894946E-2,4.3848217E-3,4.0895868E-2,5.3803534E-3,2.804456E-2,7.131733E-3,2.1265915E-3,-7.450942E-3,-2.9630663E-3,-5.038764E-4,-5.855657E-3,3.603493E-3,4.5910752E-3,2.335332E-2,-3.182225E-3,1.6381799E-3,6.658858E-4,3.7699398E-2,-4.056696E-3,-8.959249E-5,-6.747301E-3,-3.5889824E-3,-2.9251194E-3,2.3727281E-2,-2.1298889E-3,2.3568692E-3,8.737518E-3,5.345721E-2],"categories":[],"categories_nodes":[],"categories_segments":[],"categories_sizes":[],"default_left":[0,0,0,0,0,0,0,0,0,0,0,0,0,0,0,0,0,0,0,0,0,0,0,0,0,0,0,0,0,0,0,0,0,0,0,0,0,0,0,0,0,0,0,0,0,0,0,0,0,0,0,0,0,0,0,0,0,0,0,0,0,0,0,0,0,0,0,0,0,0,0,0,0,0,0,0,0,0,0,0,0,0,0,0,0,0,0,0,0],"id":17,"left_children":[1,3,5,7,9,11,13,15,17,19,21,23,25,27,29,31,33,35,37,39,-1,41,-1,43,45,-1,-1,-1,-1,47,-1,-1,49,51,53,55,57,59,-1,-1,-1,61,63,65,67,69,-1,-1,-1,71,73,75,77,79,81,83,-1,85,87,-1,-1,-1,-1,-1,-1,-1,-1,-1,-1,-1,-1,-1,-1,-1,-1,-1,-1,-1,-1,-1,-1,-1,-1,-1,-1,-1,-1,-1,-1],"loss_changes":[2.591192E1,4.7401915E0,5.593132E0,1.5944405E0,2.7616124E0,1.8168352E0,2.0071945E0,1.2327671E0,4.029276E0,1.1176242E-1,6.986551E-1,3.0074823E-1,3.0545497E-1,1.5013057E-1,1.1271496E0,1.7543894E-1,7.2895026E-1,2.6139865E0,2.5714192E0,5.2853823E-3,0E0,3.07549E-1,0E0,4.2765447E-1,1.2659895E-2,0E0,0E0,0E0,0E0,1.9248044E-1,0E0,0E0,2.4829835E-1,1.5725887E0,9.309602E-2,5.610797E0,2.6443698E0,4.500847E-1,0E0,0E0,0E0,2.7054846E-2,3.0982113E-1,1.1392325E-1,4.257746E-2,1.1077169E-3,0E0,0E0,0E0,5.298388E-2,1.17506385E-1,1.1019232E0,9.289681E-1,3.6550164E-2,7.492161E-2,9.611305E-1,0E0,1.182732E0,1.0079873E0,0E0,0E0,0E0,0E0,0E0,0E0,0E0,0E0,0E0,0E0,0E0,0E0,0E0,0E0,0E0,0E0,0E0,0E0,0E0,0E0,0E0,0E0,0E0,0E0,0E0,0E0,0E0,0E0,0E0,0E0],"parents":[2147483647,0,0,1,1,2,2,3,3,4,4,5,5,6,6,7,7,8,8,9,9,10,10,11,11,12,12,13,13,14,14,15,15,16,16,17,17,18,18,19,19,21,21,23,23,24,24,29,29,32,32,33,33,34,34,35,35,36,36,37,37,41,41,42,42,43,43,44,44,45,45,49,49,50,50,51,51,52,52,53,53,54,54,55,55,57,57,58,58],"right_children":[2,4,6,8,10,12,14,16,18,20,22,24,26,28,30,32,34,36,38,40,-1,42,-1,44,46,-1,-1,-1,-1,48,-1,-1,50,52,54,56,58,60,-1,-1,-1,62,64,66,68,70,-1,-1,-1,72,74,76,78,80,82,84,-1,86,88,-1,-1,-1,-1,-1,-1,-1,-1,-1,-1,-1,-1,-1,-1,-1,-1,-1,-1,-1,-1,-1,-1,-1,-1,-1,-1,-1,-1,-1,-1],"split_conditions":[1.25664246E2,2.1404146E2,2.7745517E2,3.5506535E0,1.8158052E1,1.17E0,4.2E-1,3.5E-1,7.6951003E0,3.2093307E2,1.2255446E2,-1.6867052E2,-3.955661E1,1.8158052E1,-1.5903827E-2,3.8148913E0,1.8211533E1,4.242498E0,4.14E0,-1.5225954E0,8.190514E-3,1.7642857E0,-5.4808203E-3,3.1628998E1,1.3296977E1,5.2815504E-2,2.0371769E-2,-3.5461194E-3,1.6015517E-2,1.4095212E1,6.446911E-2,2.4363512E-2,6.5304713E0,1.7687145E1,3.41E0,2.71E0,4.82E0,5.01E0,-6.773123E-3,-2.2192525E-3,-6.1038593E-3,7.483581E2,6.9727077E0,1.2746585E1,1.1069028E1,1.2324238E1,2.036346E-3,3.6693066E-3,3.203182E-2,1.6125327E0,4.11E0,1.2899276E0,1.3478155E0,3.37E0,6.0357098E1,9.170429E1,4.756844E-2,1.3139536E1,3.3206146E1,5.0154936E-2,6.4885737E-3,1.9894946E-2,4.3848217E-3,4.0895868E-2,5.3803534E-3,2.804456E-2,7.131733E-3,2.1265915E-3,-7.450942E-3,-2.9630663E-3,-5.038764E-4,-5.855657E-3,3.603493E-3,4.5910752E-3,2.335332E-2,-3.182225E-3,1.6381799E-3,6.658858E-4,3.7699398E-2,-4.056696E-3,-8.959249E-5,-6.747301E-3,-3.5889824E-3,-2.9251194E-3,2.3727281E-2,-2.1298889E-3,2.3568692E-3,8.737518E-3,5.345721E-2],"split_indices":[8,5,7,4,4,38,38,37,35,5,8,26,46,4,55,13,7,4,46,35,0,59,0,16,4,0,0,0,0,4,0,0,35,5,38,27,46,27,0,0,0,7,40,4,4,4,0,0,0,35,46,4,4,38,13,7,0,4,5,0,0,0,0,0,0,0,0,0,0,0,0,0,0,0,0,0,0,0,0,0,0,0,0,0,0,0,0,0,0],"split_type":[0,0,0,0,0,0,0,0,0,0,0,0,0,0,0,0,0,0,0,0,0,0,0,0,0,0,0,0,0,0,0,0,0,0,0,0,0,0,0,0,0,0,0,0,0,0,0,0,0,0,0,0,0,0,0,0,0,0,0,0,0,0,0,0,0,0,0,0,0,0,0,0,0,0,0,0,0,0,0,0,0,0,0,0,0,0,0,0,0],"sum_hessian":[1.787E3,1.742E3,4.5E1,1.715E3,2.7E1,2E1,2.5E1,9.71E2,7.44E2,9E0,1.8E1,1.4E1,6E0,3E0,2.2E1,1.2E1,9.59E2,7.34E2,1E1,8E0,1E0,1.7E1,1E0,7E0,7E0,2E0,4E0,1E0,2E0,5E0,1.7E1,2E0,1E1,6.17E2,3.42E2,3.2E1,7.02E2,7E0,3E0,3E0,5E0,6E0,1.1E1,4E0,3E0,6E0,1E0,1E0,4E0,6E0,4E0,6.11E2,6E0,2.4E2,1.02E2,2.4E1,8E0,6.97E2,5E0,6E0,1E0,5E0,1E0,1E1,1E0,2E0,2E0,2E0,1E0,5E0,1E0,1E0,5E0,2E0,2E0,4.51E2,1.6E2,3E0,3E0,2.34E2,6E0,7.1E1,3.1E1,2.1E1,3E0,4.88E2,2.09E2,3E0,2E0],"tree_param":{"num_deleted":"0","num_feature":"60","num_nodes":"89","size_leaf_vector":"1"}},{"base_weights":[9.243369E-3,-8.234321E-3,7.052908E-1,-1.5357426E-2,3.7874696E-1,9.319413E-2,9.127867E-1,-2.1584779E-2,1.3998784E-1,2.4780397E-1,4.4152107E-2,-4.4486783E-2,2.9484475E-1,6.744289E-1,1.2538474E0,-2.609854E-2,1.1227652E-1,6.6686384E-2,8.4967107E-1,3.6897337E-1,-7.094885E-2,1.985437E-3,-6.2187392E-2,3.6812174E-1,4.341975E-5,-4.1811116E-2,7.9612505E-1,6.6923045E-2,8.077465E-3,-5.296491E-2,2.2809166E-3,5.423067E-1,5.6183647E-2,4.789188E-1,1.20139215E-2,5.2098554E-2,-2.7957268E-3,-3.1116594E-2,4.7773847E-1,-1.4546259E-1,1.1266182E-2,-3.4287323E-3,-5.9659634E-4,2.08617E-2,5.5196243E-3,2.0557046E-3,-7.2646686E-3,8.3453816E-1,3.5775737E-3,2.2210872E-2,-5.4135807E-2,-1.0998722E-2,3.5126427E-1,3.3665072E-2,-2.8166666E-3,3.0207096E-2,1.9225858E-2,-2.7697382E-3,4.467513E-2,-5.0460227E-2,2.6081833E-1,-4.082388E-3,4.2752014E-3,2.8686726E-2,1.7099945E-1,-1.7106846E-3,-7.91509E-3,1.933541E-2,4.5143988E-2,-3.291439E-3,-7.188898E-4,1.2572216E-3,-3.4140951E-3,5.4379504E-2,1.09700775E-2,-9.941878E-4,1.7195074E-2,-3.2633313E-3,8.682471E-3,-1.3617547E-3,3.858603E-2,1.4608115E-3,9.95706E-3],"categories":[],"categories_nodes":[],"categories_segments":[],"categories_sizes":[],"default_left":[0,0,0,0,0,0,0,0,0,0,0,0,0,0,0,0,0,0,0,0,0,0,0,0,0,0,0,0,0,0,0,0,0,0,0,0,0,0,0,0,0,0,0,0,0,0,0,0,0,0,0,0,0,0,0,0,0,0,0,0,0,0,0,0,0,0,0,0,0,0,0,0,0,0,0,0,0,0,0,0,0,0,0],"id":18,"left_children":[1,3,5,7,9,11,13,15,17,19,-1,21,23,25,27,29,31,33,35,37,39,-1,41,43,-1,45,47,-1,-1,49,51,53,55,57,59,-1,-1,61,63,65,-1,-1,-1,-1,-1,-1,-1,67,-1,-1,69,71,73,-1,-1,-1,75,-1,-1,77,79,-1,-1,-1,81,-1,-1,-1,-1,-1,-1,-1,-1,-1,-1,-1,-1,-1,-1,-1,-1,-1,-1],"loss_changes":[2.1355913E1,4.727715E0,5.376257E0,1.6311388E0,1.8282299E0,3.4627804E-1,1.7557945E0,9.81159E-1,3.324691E0,1.0303786E0,0E0,1.4391879E-2,1.07388794E-1,1.8637228E0,8.928509E-1,1.1948849E0,1.2479774E0,1.3465118E0,1.1031265E0,8.4166646E-1,2.0938711E-1,0E0,1.4287364E-3,4.57114E-3,0E0,4.0298756E-2,4.4128323E-1,0E0,0E0,4.9267745E-1,3.5398898E0,5.084412E-1,9.604485E-1,1.6001197E0,8.5252845E-1,0E0,0E0,3.6446087E-2,3.4357738E-1,4.5823455E-3,0E0,0E0,0E0,0E0,0E0,0E0,0E0,1.7114162E-1,0E0,0E0,3.7282467E-1,1.5255277E0,2.4800107E0,0E0,0E0,0E0,5.9094316E-1,0E0,0E0,1.573368E-1,1.6398566E0,0E0,0E0,0E0,1.4131993E-2,0E0,0E0,0E0,0E0,0E0,0E0,0E0,0E0,0E0,0E0,0E0,0E0,0E0,0E0,0E0,0E0,0E0,0E0],"parents":[2147483647,0,0,1,1,2,2,3,3,4,4,5,5,6,6,7,7,8,8,9,9,11,11,12,12,13,13,14,14,15,15,16,16,17,17,18,18,19,19,20,20,22,22,23,23,25,25,26,26,29,29,30,30,31,31,32,32,33,33,34,34,37,37,38,38,39,39,47,47,50,50,51,51,52,52,56,56,59,59,60,60,64,64],"right_children":[2,4,6,8,10,12,14,16,18,20,-1,22,24,26,28,30,32,34,36,38,40,-1,42,44,-1,46,48,-1,-1,50,52,54,56,58,60,-1,-1,62,64,66,-1,-1,-1,-1,-1,-1,-1,68,-1,-1,70,72,74,-1,-1,-1,76,-1,-1,78,80,-1,-1,-1,82,-1,-1,-1,-1,-1,-1,-1,-1,-1,-1,-1,-1,-1,-1,-1,-1,-1,-1],"split_conditions":[1.25664246E2,2.1404146E2,-1.2252202E-1,3.5420795E1,1.9535977E0,1.4798829E1,6.547255E0,2.900139E2,1.93E0,8.484382E-2,4.4152107E-2,1.3236392E2,1.8732585E2,2.752595E2,1.0639995E1,2.71E0,5.7E-1,-7.130956E1,1.8957266E1,3.2579E0,1.02E0,1.985437E-3,1.9609327E1,1.5787509E1,4.341975E-5,1.1069028E1,9.0074265E1,6.6923045E-2,8.077465E-3,5.2363303E-5,5.84653E1,2.383121E1,6.777788E-1,7.610621E1,6.870385E1,5.2098554E-2,-2.7957268E-3,3.9866003E2,4.133661E1,8.835597E-5,1.1266182E-2,-3.4287323E-3,-5.9659634E-4,2.08617E-2,5.5196243E-3,2.0557046E-3,-7.2646686E-3,4.8E-1,