{"learner":{"attributes":{"scikit_learn":"{\"_estimator_type\": \"regressor\"}"},"feature_names":[],"feature_types":[],"gradient_booster":{"model":{"gbtree_model_param":{"num_parallel_tree":"1","num_trees":"600"},"iteration_indptr":[0,1,2,3,4,5,6,7,8,9,10,11,12,13,14,15,16,17,18,19,20,21,22,23,24,25,26,27,28,29,30,31,32,33,34,35,36,37,38,39,40,41,42,43,44,45,46,47,48,49,50,51,52,53,54,55,56,57,58,59,60,61,62,63,64,65,66,67,68,69,70,71,72,73,74,75,76,77,78,79,80,81,82,83,84,85,86,87,88,89,90,91,92,93,94,95,96,97,98,99,100,101,102,103,104,105,106,107,108,109,110,111,112,113,114,115,116,117,118,119,120,121,122,123,124,125,126,127,128,129,130,131,132,133,134,135,136,137,138,139,140,141,142,143,144,145,146,147,148,149,150,151,152,153,154,155,156,157,158,159,160,161,162,163,164,165,166,167,168,169,170,171,172,173,174,175,176,177,178,179,180,181,182,183,184,185,186,187,188,189,190,191,192,193,194,195,196,197,198,199,200,201,202,203,204,205,206,207,208,209,210,211,212,213,214,215,216,217,218,219,220,221,222,223,224,225,226,227,228,229,230,231,232,233,234,235,236,237,238,239,240,241,242,243,244,245,246,247,248,249,250,251,252,253,254,255,256,257,258,259,260,261,262,263,264,265,266,267,268,269,270,271,272,273,274,275,276,277,278,279,280,281,282,283,284,285,286,287,288,289,290,291,292,293,294,295,296,297,298,299,300,301,302,303,304,305,306,307,308,309,310,311,312,313,314,315,316,317,318,319,320,321,322,323,324,325,326,327,328,329,330,331,332,333,334,335,336,337,338,339,340,341,342,343,344,345,346,347,348,349,350,351,352,353,354,355,356,357,358,359,360,361,362,363,364,365,366,367,368,369,370,371,372,373,374,375,376,377,378,379,380,381,382,383,384,385,386,387,388,389,390,391,392,393,394,395,396,397,398,399,400,401,402,403,404,405,406,407,408,409,410,411,412,413,414,415,416,417,418,419,420,421,422,423,424,425,426,427,428,429,430,431,432,433,434,435,436,437,438,439,440,441,442,443,444,445,446,447,448,449,450,451,452,453,454,455,456,457,458,459,460,461,462,463,464,465,466,467,468,469,470,471,472,473,474,475,476,477,478,479,480,481,482,483,484,485,486,487,488,489,490,491,492,493,494,495,496,497,498,499,500,501,502,503,504,505,506,507,508,509,510,511,512,513,514,515,516,517,518,519,520,521,522,523,524,525,526,527,528,529,530,531,532,533,534,535,536,537,538,539,540,541,542,543,544,545,546,547,548,549,550,551,552,553,554,555,556,557,558,559,560,561,562,563,564,565,566,567,568,569,570,571,572,573,574,575,576,577,578,579,580,581,582,583,584,585,586,587,588,589,590,591,592,593,594,595,596,597,598,599,600],"tree_info":[0,0,0,0,0,0,0,0,0,0,0,0,0,0,0,0,0,0,0,0,0,0,0,0,0,0,0,0,0,0,0,0,0,0,0,0,0,0,0,0,0,0,0,0,0,0,0,0,0,0,0,0,0,0,0,0,0,0,0,0,0,0,0,0,0,0,0,0,0,0,0,0,0,0,0,0,0,0,0,0,0,0,0,0,0,0,0,0,0,0,0,0,0,0,0,0,0,0,0,0,0,0,0,0,0,0,0,0,0,0,0,0,0,0,0,0,0,0,0,0,0,0,0,0,0,0,0,0,0,0,0,0,0,0,0,0,0,0,0,0,0,0,0,0,0,0,0,0,0,0,0,0,0,0,0,0,0,0,0,0,0,0,0,0,0,0,0,0,0,0,0,0,0,0,0,0,0,0,0,0,0,0,0,0,0,0,0,0,0,0,0,0,0,0,0,0,0,0,0,0,0,0,0,0,0,0,0,0,0,0,0,0,0,0,0,0,0,0,0,0,0,0,0,0,0,0,0,0,0,0,0,0,0,0,0,0,0,0,0,0,0,0,0,0,0,0,0,0,0,0,0,0,0,0,0,0,0,0,0,0,0,0,0,0,0,0,0,0,0,0,0,0,0,0,0,0,0,0,0,0,0,0,0,0,0,0,0,0,0,0,0,0,0,0,0,0,0,0,0,0,0,0,0,0,0,0,0,0,0,0,0,0,0,0,0,0,0,0,0,0,0,0,0,0,0,0,0,0,0,0,0,0,0,0,0,0,0,0,0,0,0,0,0,0,0,0,0,0,0,0,0,0,0,0,0,0,0,0,0,0,0,0,0,0,0,0,0,0,0,0,0,0,0,0,0,0,0,0,0,0,0,0,0,0,0,0,0,0,0,0,0,0,0,0,0,0,0,0,0,0,0,0,0,0,0,0,0,0,0,0,0,0,0,0,0,0,0,0,0,0,0,0,0,0,0,0,0,0,0,0,0,0,0,0,0,0,0,0,0,0,0,0,0,0,0,0,0,0,0,0,0,0,0,0,0,0,0,0,0,0,0,0,0,0,0,0,0,0,0,0,0,0,0,0,0,0,0,0,0,0,0,0,0,0,0,0,0,0,0,0,0,0,0,0,0,0,0,0,0,0,0,0,0,0,0,0,0,0,0,0,0,0,0,0,0,0,0,0,0,0,0,0,0,0,0,0,0,0,0,0,0,0,0,0,0,0,0,0,0,0,0,0,0,0,0,0,0,0,0,0,0,0,0,0,0,0,0,0,0,0,0,0,0,0,0,0,0,0,0,0,0,0,0,0,0,0,0,0,0,0,0,0,0,0,0,0,0,0,0,0,0,0,0,0,0,0,0,0,0,0],"trees":[{"base_weights":[9.604118E-6,-6.085071E-7,1.2428613E-3,9.354694E-5,-1.3369555E-4,8.2898594E-5,3.867342E-3,-2.9989342E-5,-2.3523511E-4,1.7026646E-4,-1.5680096E-6,-3.7276998E-6,7.8651536E-4,-8.183059E-5,3.5775622E-4,-2.1526095E-4,-1.5198822E-5,1.0802098E-4,2.7047173E-4,7.241411E-5,-4.6613157E-5,7.568035E-5,-1.4184756E-4,3.0569897E-3,2.6075888E-4,-1.339668E-4,-1.2944193E-5,1.7229348E-4,-3.7119047E-5,3.4962728E-4,1.8910907E-4,-3.2949392E-5,1.2069994E-4,-5.6947643E-5,3.8867077E-4,9.584149E-6,2.3121396E-3,-7.987919E-5,-9.754588E-6,2.0759476E-4,-5.6931685E-6,6.5895077E-4,-8.526583E-6,-1.6344043E-4,3.956653E-4,7.723257E-6,3.164306E-5,-2.9823295E-6,1.3828706E-5,1.9528901E-5,1.0723308E-5,1.34755965E-5,5.3339895E-6,-4.9713994E-6,4.3836203E-6,8.485501E-6,-1.0030203E-6,-1.7148155E-6,-1.084274E-5,1.8765885E-6,6.3013154E-5,-1.6538719E-6,3.4726614E-5,-3.0749638E-6,2.748746E-4,-4.682484E-6,4.7611065E-5,1.7927667E-4,1.3368807E-5,-1.0920629E-5,-6.5255034E-7,-8.993843E-6,4.6087465E-5],"categories":[],"categories_nodes":[],"categories_segments":[],"categories_sizes":[],"default_left":[0,0,0,0,0,0,0,0,0,0,0,0,0,0,0,0,0,0,0,0,0,0,0,0,0,0,0,0,0,0,0,0,0,0,0,0,0,0,0,0,0,0,0,0,0,0,0,0,0,0,0,0,0,0,0,0,0,0,0,0,0,0,0,0,0,0,0,0,0,0,0,0,0],"id":0,"left_children":[1,3,-1,5,7,9,11,13,15,17,19,-1,-1,21,23,25,-1,27,29,31,33,35,37,39,41,43,-1,45,47,49,51,53,55,57,59,61,63,65,-1,-1,-1,67,-1,69,71,-1,-1,-1,-1,-1,-1,-1,-1,-1,-1,-1,-1,-1,-1,-1,-1,-1,-1,-1,-1,-1,-1,-1,-1,-1,-1,-1,-1],"loss_changes":[1.235316E-3,6.1000257E-5,0E0,1.1424595E-4,2.1232525E-5,2.0988038E-5,3.752733E-4,2.011039E-5,1.3337049E-6,8.690564E-6,4.8255542E-6,0E0,0E0,8.34857E-6,3.0097432E-5,2.7775277E-6,0E0,8.066229E-6,3.3794458E-6,2.7919623E-6,4.070727E-6,3.6046276E-5,2.0927682E-6,1.4359888E-5,1.9862056E-5,4.4199096E-6,0E0,4.8207294E-6,1.8962485E-6,1.4106699E-6,1.7341772E-6,1.3959637E-6,2.5973077E-6,3.1800198E-6,6.3797506E-6,6.977565E-6,5.3264223E-5,4.310295E-6,0E0,0E0,0E0,6.779985E-5,0E0,2.1879655E-6,4.7075537E-6,0E0,0E0,0E0,0E0,0E0,0E0,0E0,0E0,0E0,0E0,0E0,0E0,0E0,0E0,0E0,0E0,0E0,0E0,0E0,0E0,0E0,0E0,0E0,0E0,0E0,0E0,0E0,0E0],"parents":[2147483647,0,0,1,1,3,3,4,4,5,5,6,6,7,7,8,8,9,9,10,10,13,13,14,14,15,15,17,17,18,18,19,19,20,20,21,21,22,22,23,23,24,24,25,25,27,27,28,28,29,29,30,30,31,31,32,32,33,33,34,34,35,35,36,36,37,37,41,41,43,43,44,44],"right_children":[2,4,-1,6,8,10,12,14,16,18,20,-1,-1,22,24,26,-1,28,30,32,34,36,38,40,42,44,-1,46,48,50,52,54,56,58,60,62,64,66,-1,-1,-1,68,-1,70,72,-1,-1,-1,-1,-1,-1,-1,-1,-1,-1,-1,-1,-1,-1,-1,-1,-1,-1,-1,-1,-1,-1,-1,-1,-1,-1,-1,-1],"split_conditions":[9.1657627E-1,4.38E0,1.2428613E-3,8.3453876E-1,5.9837658E1,4.2244278E1,6.688533E0,5.2899303E0,7.1742805E1,9.04E0,1.601655E-3,-3.7276998E-6,7.8651536E-4,2.4127965E0,2.102418E0,1.3273277E0,-1.5198822E-5,3.3940113E1,3.1107185E-5,9.79E0,1.5808859E1,5.333371E0,6.8606224E1,2.765613E-3,4.71E0,2.6638868E-1,-1.2944193E-5,2.4857217E-1,4.8754934E-2,2.7092548E1,1.0536237E1,2.8818953E-4,5.43495E1,5.876464E1,4.8E0,5.37E0,3.516E1,5.44E0,-9.754588E-6,2.0759476E-4,-5.6931685E-6,3.325515E-2,-8.526583E-6,6.914146E1,6.545545E1,7.723257E-6,3.164306E-5,-2.9823295E-6,1.3828706E-5,1.9528901E-5,1.0723308E-5,1.34755965E-5,5.3339895E-6,-4.9713994E-6,4.3836203E-6,8.485501E-6,-1.0030203E-6,-1.7148155E-6,-1.084274E-5,1.8765885E-6,6.3013154E-5,-1.6538719E-6,3.4726614E-5,-3.0749638E-6,2.748746E-4,-4.682484E-6,4.7611065E-5,1.7927667E-4,1.3368807E-5,-1.0920629E-5,-6.5255034E-7,-8.993843E-6,4.6087465E-5],"split_indices":[4,37,0,4,13,13,5,49,31,18,4,0,0,49,55,7,0,13,4,18,40,35,31,4,27,4,0,4,4,26,40,4,13,31,27,38,26,37,0,0,0,4,0,13,13,0,0,0,0,0,0,0,0,0,0,0,0,0,0,0,0,0,0,0,0,0,0,0,0,0,0,0,0],"split_type":[0,0,0,0,0,0,0,0,0,0,0,0,0,0,0,0,0,0,0,0,0,0,0,0,0,0,0,0,0,0,0,0,0,0,0,0,0,0,0,0,0,0,0,0,0,0,0,0,0,0,0,0,0,0,0,0,0,0,0,0,0,0,0,0,0,0,0,0,0,0,0,0,0],"sum_hessian":[4.867E3,4.866E3,1E0,2.85E3,2.016E3,2.843E3,7E0,9.98E2,1.018E3,1.397E3,1.446E3,6E0,1E0,8.81E2,1.17E2,7.92E2,2.26E2,8.63E2,5.34E2,5.47E2,8.99E2,2.43E2,6.38E2,3E0,1.14E2,2.78E2,5.14E2,5.98E2,2.65E2,2.69E2,2.65E2,1.72E2,3.75E2,8.79E2,2E1,2.37E2,6E0,2.96E2,3.42E2,2E0,1E0,5.9E1,5.5E1,2.64E2,1.4E1,5.77E2,2.1E1,2.48E2,1.7E1,2.05E2,6.4E1,1.33E2,1.32E2,1.11E2,6.1E1,2.78E2,9.7E1,7.71E2,1.08E2,1.5E1,5E0,2.24E2,1.3E1,4E0,2E0,2.93E2,3E0,6E0,5.3E1,1.93E2,7.1E1,7E0,7E0],"tree_param":{"num_deleted":"0","num_feature":"60","num_nodes":"73","size_leaf_vector":"1"}},{"base_weights":[2.3408065E-6,-7.5226953E-6,1.2117898E-3,8.013074E-5,-1.320905E-4,7.010703E-5,3.6761432E-3,-3.3743105E-5,-2.2735268E-4,1.4581931E-4,-1.2529102E-5,7.6685246E-4,-9.035369E-6,-9.5525655E-5,3.2256948E-4,-1.1740799E-5,-3.1496038E-5,2.4653826E-4,9.680862E-5,6.121009E-5,-5.4507538E-5,-1.5915106E-5,-1.511579E-4,3.1244573E-3,2.2304163E-4,4.929364E-4,-1.2756398E-5,1.6104293E-4,3.3172526E-4,8.242262E-5,2.9080102E-5,-2.662165E-5,1.0734936E-4,-2.1952286E-5,-1.6547772E-4,-4.3185355E-5,5.996355E-4,-4.264178E-6,-9.276889E-6,2.657121E-4,-5.3406407E-6,6.2753394E-4,-1.2726641E-4,5.2523403E-5,4.1431063E-6,1.36039225E-5,1.6651948E-6,1.8696306E-5,1.0193818E-5,8.072844E-6,1.4908205E-6,-4.7538374E-6,5.194336E-6,7.731392E-6,-4.2588155E-7,-1.7267765E-6,3.1316078E-5,3.553798E-5,-8.899072E-6,-3.6158908E-6,1.348599E-5,-7.232253E-6,2.754891E-4,8.9538946E-5,1.13740525E-5,4.3609143E-5,-7.578666E-6],"categories":[],"categories_nodes":[],"categories_segments":[],"categories_sizes":[],"default_left":[0,0,0,0,0,0,0,0,0,0,0,0,0,0,0,0,0,0,0,0,0,0,0,0,0,0,0,0,0,0,0,0,0,0,0,0,0,0,0,0,0,0,0,0,0,0,0,0,0,0,0,0,0,0,0,0,0,0,0,0,0,0,0,0,0,0,0],"id":1,"left_children":[1,3,-1,5,7,9,11,13,15,17,19,-1,-1,21,23,-1,25,27,29,31,33,35,37,39,41,43,-1,45,47,49,-1,51,53,55,57,59,61,-1,-1,-1,-1,63,65,-1,-1,-1,-1,-1,-1,-1,-1,-1,-1,-1,-1,-1,-1,-1,-1,-1,-1,-1,-1,-1,-1,-1,-1],"loss_changes":[1.1749987E-3,5.3665546E-5,0E0,1.037332E-4,1.9010968E-5,1.8008237E-5,3.625665E-4,2.2044715E-5,1.4996513E-6,7.390463E-6,4.2657794E-6,0E0,0E0,3.775459E-6,4.057526E-5,0E0,4.699675E-6,3.5225767E-6,7.0099877E-6,2.029104E-6,3.1682848E-6,5.9346444E-6,1.1210805E-6,3.5946556E-5,2.0484222E-5,2.6565087E-6,0E0,3.49428E-6,1.2456203E-6,4.086356E-6,0E0,1.5554529E-6,1.7981051E-6,5.5686537E-6,2.3067919E-6,3.1006118E-6,5.561486E-5,0E0,0E0,0E0,0E0,3.077172E-5,2.0270945E-6,0E0,0E0,0E0,0E0,0E0,0E0,0E0,0E0,0E0,0E0,0E0,0E0,0E0,0E0,0E0,0E0,0E0,0E0,0E0,0E0,0E0,0E0,0E0,0E0],"parents":[2147483647,0,0,1,1,3,3,4,4,5,5,6,6,7,7,8,8,9,9,10,10,13,13,14,14,16,16,17,17,18,18,19,19,20,20,21,21,22,22,23,23,24,24,25,25,27,27,28,28,29,29,31,31,32,32,33,33,34,34,35,35,36,36,41,41,42,42],"right_children":[2,4,-1,6,8,10,12,14,16,18,20,-1,-1,22,24,-1,26,28,30,32,34,36,38,40,42,44,-1,46,48,50,-1,52,54,56,58,60,62,-1,-1,-1,-1,64,66,-1,-1,-1,-1,-1,-1,-1,-1,-1,-1,-1,-1,-1,-1,-1,-1,-1,-1,-1,-1,-1,-1,-1,-1],"split_conditions":[9.1657627E-1,4.38E0,1.2117898E-3,8.3453876E-1,9.4837654E1,7.850003E1,9.575279E0,5.295523E0,1.0338409E0,6.0395428E-6,1.601655E-3,7.6685246E-4,-9.035369E-6,4.83E0,1.1733967E1,-1.1740799E-5,1.232322E0,2.093E1,2.4857217E-1,3.27E0,4.13E0,3.602E1,8.621659E1,6.633234E-5,1.3724214E1,3.3394775E1,-1.2756398E-5,6.238325E1,5.177261E1,6.4368963E-1,2.9080102E-5,3.254218E-4,1.2864622E1,1.5808859E1,1.8105436E1,5.3634396E0,1.2911022E1,-4.264178E-6,-9.276889E-6,2.657121E-4,-5.3406407E-6,3.8965963E-2,3.83E0,5.2523403E-5,4.1431063E-6,1.36039225E-5,1.6651948E-6,1.8696306E-5,1.0193818E-5,8.072844E-6,1.4908205E-6,-4.7538374E-6,5.194336E-6,7.731392E-6,-4.2588155E-7,-1.7267765E-6,3.1316078E-5,3.553798E-5,-8.899072E-6,-3.6158908E-6,1.348599E-5,-7.232253E-6,2.754891E-4,8.9538946E-5,1.13740525E-5,4.3609143E-5,-7.578666E-6],"split_indices":[4,37,0,4,16,16,7,35,58,4,4,0,0,46,54,0,7,26,4,46,37,26,16,4,40,26,0,16,31,55,0,4,33,40,32,49,59,0,0,0,0,4,47,0,0,0,0,0,0,0,0,0,0,0,0,0,0,0,0,0,0,0,0,0,0,0,0],"split_type":[0,0,0,0,0,0,0,0,0,0,0,0,0,0,0,0,0,0,0,0,0,0,0,0,0,0,0,0,0,0,0,0,0,0,0,0,0,0,0,0,0,0,0,0,0,0,0,0,0,0,0,0,0,0,0,0,0,0,0,0,0,0,0,0,0,0,0],"sum_hessian":[4.914E3,4.913E3,1E0,2.884E3,2.029E3,2.877E3,7E0,9.99E2,1.03E3,1.501E3,1.376E3,1E0,6E0,8.52E2,1.47E2,9.92E2,3.8E1,4.9E2,1.011E3,4.99E2,8.77E2,3.51E2,5.01E2,4E0,1.43E2,1.1E1,2.7E1,2.46E2,2.44E2,9.83E2,2.8E1,1.72E2,3.27E2,6.79E2,1.98E2,3.37E2,1.4E1,1.73E2,3.28E2,2E0,2E0,6.6E1,7.7E1,4E0,7E0,1.31E2,1.15E2,1.82E2,6.2E1,3.92E2,5.91E2,1.13E2,5.9E1,2.32E2,9.5E1,6.67E2,1.2E1,2E0,1.96E2,3.09E2,2.8E1,1.3E1,1E0,1.6E1,5E1,1E0,7.6E1],"tree_param":{"num_deleted":"0","num_feature":"60","num_nodes":"67","size_leaf_vector":"1"}},{"base_weights":[5.6365243E-6,-3.95823E-6,1.181495E-3,8.181941E-5,-1.2132323E-4,7.216239E-5,3.498629E-3,-2.4560166E-5,-2.1263739E-4,1.6197535E-4,5.4471434E-6,7.476812E-4,-1.3701535E-5,-7.442136E-5,3.0232556E-4,-1.1159994E-5,2.201397E-5,1.5253766E-4,2.849181E-5,7.9179066E-5,-4.4802597E-5,7.694981E-5,-1.2272112E-4,1.8605791E-3,1.8862232E-4,4.976533E-4,-1.1976532E-5,2.2959833E-4,1.0076815E-4,-1.2235374E-5,1.2001228E-4,-8.549897E-5,3.2242046E-5,9.108536E-6,1.3219342E-3,-6.6662724E-5,-8.23685E-6,-5.3510516E-6,2.1734173E-4,5.507384E-4,-8.5391475E-6,-1.410011E-5,8.4601E-4,7.74277E-6,1.4313037E-5,3.3890954E-6,1.0217297E-5,-3.824336E-6,6.0622406E-6,9.307371E-6,4.6728155E-7,-2.5609727E-6,-7.452025E-6,4.118183E-6,-9.312948E-6,-1.8830245E-6,3.7832695E-5,2.56855E-4,-4.8334728E-6,9.614963E-7,-8.454695E-6,1.0224587E-4,1.481115E-5,2.1041675E-5,6.0052378E-5],"categories":[],"categories_nodes":[],"categories_segments":[],"categories_sizes":[],"default_left":[0,0,0,0,0,0,0,0,0,0,0,0,0,0,0,0,0,0,0,0,0,0,0,0,0,0,0,0,0,0,0,0,0,0,0,0,0,0,0,0,0,0,0,0,0,0,0,0,0,0,0,0,0,0,0,0,0,0,0,0,0,0,0,0,0],"id":2,"left_children":[1,3,-1,5,7,9,11,13,15,17,19,-1,-1,21,23,-1,25,27,-1,29,31,33,35,37,39,41,-1,43,45,47,49,51,53,55,57,59,-1,-1,-1,61,-1,-1,63,-1,-1,-1,-1,-1,-1,-1,-1,-1,-1,-1,-1,-1,-1,-1,-1,-1,-1,-1,-1,-1,-1],"loss_changes":[1.1166651E-3,4.959135E-5,0E0,9.365477E-5,1.8373321E-5,1.7010101E-5,3.498241E-4,1.65007E-5,2.6569069E-6,4.5706875E-6,6.0427137E-6,0E0,0E0,6.4286683E-6,2.3390967E-5,0E0,5.966046E-6,4.700303E-6,0E0,2.4688134E-6,3.044131E-6,1.7978222E-5,1.5576761E-6,4.4492812E-5,1.649251E-5,4.855746E-6,0E0,1.9673516E-6,2.411965E-6,1.7674113E-6,3.3430229E-6,1.3755057E-6,3.695087E-6,7.1257755E-6,6.0030896E-5,2.528302E-6,0E0,0E0,0E0,2.3352619E-5,0E0,0E0,1.3060035E-6,0E0,0E0,0E0,0E0,0E0,0E0,0E0,0E0,0E0,0E0,0E0,0E0,0E0,0E0,0E0,0E0,0E0,0E0,0E0,0E0,0E0,0E0],"parents":[2147483647,0,0,1,1,3,3,4,4,5,5,6,6,7,7,8,8,9,9,10,10,13,13,14,14,16,16,17,17,19,19,20,20,21,21,22,22,23,23,24,24,25,25,27,27,28,28,29,29,30,30,31,31,32,32,33,33,34,34,35,35,39,39,42,42],"right_children":[2,4,-1,6,8,10,12,14,16,18,20,-1,-1,22,24,-1,26,28,-1,30,32,34,36,38,40,42,-1,44,46,48,50,52,54,56,58,60,-1,-1,-1,62,-1,-1,64,-1,-1,-1,-1,-1,-1,-1,-1,-1,-1,-1,-1,-1,-1,-1,-1,-1,-1,-1,-1,-1,-1],"split_conditions":[9.1657627E-1,4.38E0,1.181495E-3,8.3453876E-1,5.9837658E1,1.0746749E1,9.575279E0,5.234369E0,1.0338409E0,2.4857217E-1,1.601655E-3,7.476812E-4,-1.3701535E-5,2.3058116E0,2.1591334E0,-1.1159994E-5,1.2851261E0,5.535604E-5,2.849181E-5,3.1E0,1.3010868E-2,8.59607E0,3.391E1,2.1533684E1,4.71E0,1.4673299E1,-1.1976532E-5,2.9454591E0,3.3562477E0,2.8818953E-4,1.2365851E1,3.83E0,5.682016E0,5.37E0,2.1432E1,3.8965963E-2,-8.23685E-6,-5.3510516E-6,2.1734173E-4,3.4439262E-2,-8.5391475E-6,-1.410011E-5,2.409382E-1,7.74277E-6,1.4313037E-5,3.3890954E-6,1.0217297E-5,-3.824336E-6,6.0622406E-6,9.307371E-6,4.6728155E-7,-2.5609727E-6,-7.452025E-6,4.118183E-6,-9.312948E-6,-1.8830245E-6,3.7832695E-5,2.56855E-4,-4.8334728E-6,9.614963E-7,-8.454695E-6,1.0224587E-4,1.481115E-5,2.1041675E-5,6.0052378E-5],"split_indices":[4,37,0,4,13,33,7,49,58,4,4,0,0,49,55,0,7,4,0,46,12,53,26,32,27,33,0,46,46,4,33,37,7,38,32,4,0,0,0,4,0,0,4,0,0,0,0,0,0,0,0,0,0,0,0,0,0,0,0,0,0,0,0,0,0],"split_type":[0,0,0,0,0,0,0,0,0,0,0,0,0,0,0,0,0,0,0,0,0,0,0,0,0,0,0,0,0,0,0,0,0,0,0,0,0,0,0,0,0,0,0,0,0,0,0,0,0,0,0,0,0,0,0,0,0,0,0,0,0,0,0,0,0],"sum_hessian":[4.925E3,4.924E3,1E0,2.845E3,2.079E3,2.838E3,7E0,1.01E3,1.069E3,1.209E3,1.629E3,1E0,6E0,8.77E2,1.33E2,1.023E3,4.6E1,1.183E3,2.6E1,6.6E2,9.69E2,2.12E2,6.65E2,8E0,1.25E2,1.6E1,3E1,4.74E2,7.09E2,2.04E2,4.56E2,6.34E2,3.35E2,2.02E2,1E1,2.86E2,3.79E2,5E0,3E0,6.2E1,6.3E1,5E0,1.1E1,2.06E2,2.68E2,5.39E2,1.7E2,1.38E2,6.6E1,2.85E2,1.71E2,4.13E2,2.21E2,2.73E2,6.2E1,1.91E2,1.1E1,2E0,8E0,1.56E2,1.3E2,8E0,5.4E1,6E0,5E0],"tree_param":{"num_deleted":"0","num_feature":"60","num_nodes":"65","size_leaf_vector":"1"}},{"base_weights":[1.1620542E-6,-8.1258195E-6,1.1519577E-3,7.1334915E-5,-1.21276724E-4,6.211063E-5,3.4154449E-3,-3.9843006E-5,-1.9841101E-4,1.5296151E-4,3.5283163E-6,7.2898914E-4,-1.3114326E-5,-7.883976E-5,2.2552435E-4,-1.0269899E-5,-3.3836932E-5,1.4245386E-4,2.8258857E-5,6.77402E-5,-4.1968837E-5,5.806675E-5,-1.19794044E-4,2.2253687E-3,1.4306672E-4,4.706103E-4,-1.18855605E-5,9.0863876E-5,2.1310012E-4,-2.747534E-5,1.1909841E-4,-5.2935706E-5,2.0648728E-4,-3.354613E-5,1.1194373E-3,-5.7263653E-5,-8.213323E-6,1.9336007E-4,-7.912659E-6,4.2571506E-4,-7.7913855E-6,-1.2117872E-5,3.543682E-5,7.1381824E-6,-3.1112436E-6,1.2869267E-5,5.359571E-6,3.2896828E-6,-3.6043728E-6,1.037583E-5,2.2564832E-6,-1.6954909E-6,-1.0190443E-5,2.3876104E-5,-1.4883434E-5,3.8211388E-6,-4.32594E-6,-4.550198E-6,1.9003045E-4,2.444333E-6,-5.9183E-6,1.03302205E-4,5.9866566E-6],"categories":[],"categories_nodes":[],"categories_segments":[],"categories_sizes":[],"default_left":[0,0,0,0,0,0,0,0,0,0,0,0,0,0,0,0,0,0,0,0,0,0,0,0,0,0,0,0,0,0,0,0,0,0,0,0,0,0,0,0,0,0,0,0,0,0,0,0,0,0,0,0,0,0,0,0,0,0,0,0,0,0,0],"id":3,"left_children":[1,3,-1,5,7,9,11,13,15,17,19,-1,-1,21,23,-1,25,27,-1,29,31,33,35,37,39,41,-1,43,45,47,49,51,53,55,57,59,-1,-1,-1,61,-1,-1,-1,-1,-1,-1,-1,-1,-1,-1,-1,-1,-1,-1,-1,-1,-1,-1,-1,-1,-1,-1,-1],"loss_changes":[1.061926E-3,4.461327E-5,0E0,8.970692E-5,1.2849985E-5,1.5476577E-5,3.3229956E-4,1.0335201E-5,1.2015626E-6,4.8572965E-6,5.1709017E-6,0E0,0E0,4.884965E-6,2.0789137E-5,0E0,4.6369973E-6,4.0371197E-6,0E0,3.5926057E-6,2.8338086E-6,1.958183E-5,1.8537812E-6,2.0179537E-5,1.0542109E-5,2.378858E-6,0E0,5.1335837E-6,2.1721098E-6,1.0782621E-6,3.1103018E-6,2.8434906E-6,6.15447E-6,1.0901266E-6,5.2272284E-5,1.8218758E-6,0E0,0E0,0E0,3.1874933E-5,0E0,0E0,0E0,0E0,0E0,0E0,0E0,0E0,0E0,0E0,0E0,0E0,0E0,0E0,0E0,0E0,0E0,0E0,0E0,0E0,0E0,0E0,0E0],"parents":[2147483647,0,0,1,1,3,3,4,4,5,5,6,6,7,7,8,8,9,9,10,10,13,13,14,14,16,16,17,17,19,19,20,20,21,21,22,22,23,23,24,24,25,25,27,27,28,28,29,29,30,30,31,31,32,32,33,33,34,34,35,35,39,39],"right_children":[2,4,-1,6,8,10,12,14,16,18,20,-1,-1,22,24,-1,26,28,-1,30,32,34,36,38,40,42,-1,44,46,48,50,52,54,56,58,60,-1,-1,-1,62,-1,-1,-1,-1,-1,-1,-1,-1,-1,-1,-1,-1,-1,-1,-1,-1,-1,-1,-1,-1,-1,-1,-1],"split_conditions":[2.7497288E1,4.38E0,1.1519577E-3,2.5036161E1,5.9837658E1,1.0525744E1,9.575279E0,5.2899303E0,1.044307E0,7.4571652E0,4.804965E-2,7.2898914E-4,-1.3114326E-5,2.1338203E0,2.102418E0,-1.0269899E-5,1.2851261E0,3.03E0,2.8258857E-5,3.1129315E0,7.1424736E1,2.0579913E0,3.391E1,8.4835604E-2,4.69E0,6.663967E1,-1.18855605E-5,3.3589447E1,1.1655596E1,2.69E0,3.75E0,5.89471E1,8.717825E-1,6.549E1,3.516E1,8.296839E-2,-8.213323E-6,1.9336007E-4,-7.912659E-6,1.0331779E0,-7.7913855E-6,-1.2117872E-5,3.543682E-5,7.1381824E-6,-3.1112436E-6,1.2869267E-5,5.359571E-6,3.2896828E-6,-3.6043728E-6,1.037583E-5,2.2564832E-6,-1.6954909E-6,-1.0190443E-5,2.3876104E-5,-1.4883434E-5,3.8211388E-6,-4.32594E-6,-4.550198E-6,1.9003045E-4,2.444333E-6,-5.9183E-6,1.03302205E-4,5.9866566E-6],"split_indices":[6,37,0,6,13,33,7,49,58,6,6,0,0,49,55,0,7,46,0,46,13,49,26,5,27,13,0,13,59,37,37,31,5,31,26,6,0,0,0,6,0,0,0,0,0,0,0,0,0,0,0,0,0,0,0,0,0,0,0,0,0,0,0],"split_type":[0,0,0,0,0,0,0,0,0,0,0,0,0,0,0,0,0,0,0,0,0,0,0,0,0,0,0,0,0,0,0,0,0,0,0,0,0,0,0,0,0,0,0,0,0,0,0,0,0,0,0,0,0,0,0,0,0,0,0,0,0,0,0],"sum_hessian":[4.961E3,4.96E3,1E0,2.914E3,2.046E3,2.907E3,7E0,9.96E2,1.05E3,1.139E3,1.768E3,1E0,6E0,8.69E2,1.27E2,1.007E3,4.3E1,1.112E3,2.7E1,7.33E2,1.035E3,2E2,6.69E2,4E0,1.23E2,1.2E1,3.1E1,6.44E2,4.68E2,2.57E2,4.76E2,9.92E2,4.3E1,1.85E2,1.5E1,2.79E2,3.9E2,2E0,2E0,6.3E1,6E1,3E0,9E0,4.81E2,1.63E2,3.29E2,1.39E2,8.3E1,1.74E2,2.16E2,2.6E2,8.82E2,1.1E2,2.8E1,1.5E1,6E1,1.25E2,1.1E1,4E0,1.02E2,1.77E2,9E0,5.4E1],"tree_param":{"num_deleted":"0","num_feature":"60","num_nodes":"63","size_leaf_vector":"1"}},{"base_weights":[2.4530877E-6,-6.7150545E-6,1.1231587E-3,6.864291E-5,-1.09687695E-4,5.9251164E-5,3.8477369E-3,-2.2070908E-5,-1.9275039E-4,1.3145595E-4,-5.3903027E-6,7.107644E-4,-1.247015E-5,-7.400787E-5,2.4598237E-4,-1.0028533E-5,2.3469334E-5,8.281728E-5,2.1698118E-4,4.9805654E-5,-4.5064135E-5,-1.3310631E-5,-1.4101349E-4,2.0340914E-3,1.0413079E-4,5.538079E-4,-1.0655296E-5,1.3971682E-4,-2.6215357E-5,1.489625E-5,1.5415203E-4,8.484374E-5,-4.7376798E-5,-5.370542E-5,2.4846813E-4,-3.480033E-5,1.8847429E-3,1.4296174E-4,-8.011198E-6,4.270458E-3,-8.668952E-6,3.979115E-4,-8.804653E-6,-2.43111E-6,4.9553055E-5,6.207259E-6,2.6673859E-5,2.1534574E-6,-6.322972E-6,1.0102393E-5,2.7806882E-6,2.062674E-7,7.0920696E-6,-9.185059E-6,1.3767692E-6,-1.5938962E-6,-6.909077E-6,-3.141553E-6,7.531155E-5,4.08425E-6,-4.8483394E-6,-1.5853041E-6,1.5864722E-4,1.8772318E-5,-5.9201666E-6,2.584615E-4,-5.5850173E-6,1.0598573E-4,5.020385E-6],"categories":[],"categories_nodes":[],"categories_segments":[],"categories_sizes":[],"default_left":[0,0,0,0,0,0,0,0,0,0,0,0,0,0,0,0,0,0,0,0,0,0,0,0,0,0,0,0,0,0,0,0,0,0,0,0,0,0,0,0,0,0,0,0,0,0,0,0,0,0,0,0,0,0,0,0,0,0,0,0,0,0,0,0,0,0,0,0,0],"id":4,"left_children":[1,3,-1,5,7,9,11,13,15,17,19,-1,-1,21,23,-1,25,27,29,31,33,35,37,39,41,43,-1,45,47,-1,49,51,53,55,57,59,61,63,-1,65,-1,67,-1,-1,-1,-1,-1,-1,-1,-1,-1,-1,-1,-1,-1,-1,-1,-1,-1,-1,-1,-1,-1,-1,-1,-1,-1,-1,-1],"loss_changes":[1.00938E-3,3.8030594E-5,0E0,1.0021523E-4,1.5067835E-5,1.3181509E-5,3.0088646E-4,1.4065373E-5,1.8021274E-6,5.5312485E-6,3.2672885E-6,0E0,0E0,3.4388531E-6,4.138614E-5,0E0,4.8856887E-6,5.2893915E-6,2.4104338E-6,2.1287938E-6,2.2150223E-6,1.8216515E-5,2.2159338E-6,5.9980975E-5,1.2665696E-5,3.2091618E-6,0E0,3.3674078E-6,2.040437E-6,0E0,1.2819255E-6,2.111163E-6,1.7003093E-6,1.5518478E-6,9.8831515E-6,3.2014138E-6,1.2444463E-5,1.6243014E-6,0E0,2.420877E-5,0E0,3.8205384E-5,0E0,0E0,0E0,0E0,0E0,0E0,0E0,0E0,0E0,0E0,0E0,0E0,0E0,0E0,0E0,0E0,0E0,0E0,0E0,0E0,0E0,0E0,0E0,0E0,0E0,0E0,0E0],"parents":[2147483647,0,0,1,1,3,3,4,4,5,5,6,6,7,7,8,8,9,9,10,10,13,13,14,14,16,16,17,17,18,18,19,19,20,20,21,21,22,22,23,23,24,24,25,25,27,27,28,28,30,30,31,31,32,32,33,33,34,34,35,35,36,36,37,37,39,39,41,41],"right_children":[2,4,-1,6,8,10,12,14,16,18,20,-1,-1,22,24,-1,26,28,30,32,34,36,38,40,42,44,-1,46,48,-1,50,52,54,56,58,60,62,64,-1,66,-1,68,-1,-1,-1,-1,-1,-1,-1,-1,-1,-1,-1,-1,-1,-1,-1,-1,-1,-1,-1,-1,-1,-1,-1,-1,-1,-1,-1],"split_conditions":[9.1657627E-1,4.38E0,1.1231587E-3,8.3453876E-1,5.9837658E1,4.19931E1,9.575279E0,5.2470484E0,1.044307E0,9.12E0,1.7285977E-3,7.107644E-4,-1.247015E-5,4.64171E-3,2.4768538E0,-1.0028533E-5,1.2851261E0,3.3589447E1,5.9367035E-6,1.27640295E1,1.5723035E1,4.5813035E-2,3.99E0,5.852313E0,1.3888252E1,5.8832437E-1,-1.0655296E-5,2.4857217E-1,1.9060637E1,1.489625E-5,1.874588E0,2.456E1,1.1052946E-4,4.13E0,5.8050805E-1,3.5819595E1,5.3101036E1,2.1043188E1,-8.011198E-6,5.5737186E1,-8.668952E-6,3.8965963E-2,-8.804653E-6,-2.43111E-6,4.9553055E-5,6.207259E-6,2.6673859E-5,2.1534574E-6,-6.322972E-6,1.0102393E-5,2.7806882E-6,2.062674E-7,7.0920696E-6,-9.185059E-6,1.3767692E-6,-1.5938962E-6,-6.909077E-6,-3.141553E-6,7.531155E-5,4.08425E-6,-4.8483394E-6,-1.5853041E-6,1.5864722E-4,1.8772318E-5,-5.9201666E-6,2.584615E-4,-5.5850173E-6,1.0598573E-4,5.020385E-6],"split_indices":[4,37,0,4,13,13,7,35,58,18,4,0,0,4,55,0,7,13,4,33,40,57,47,35,18,7,0,4,32,0,55,26,4,37,4,51,13,32,0,13,0,4,0,0,0,0,0,0,0,0,0,0,0,0,0,0,0,0,0,0,0,0,0,0,0,0,0,0,0],"split_type":[0,0,0,0,0,0,0,0,0,0,0,0,0,0,0,0,0,0,0,0,0,0,0,0,0,0,0,0,0,0,0,0,0,0,0,0,0,0,0,0,0,0,0,0,0,0,0,0,0,0,0,0,0,0,0,0,0,0,0,0,0,0,0,0,0,0,0,0,0],"sum_hessian":[4.9E3,4.899E3,1E0,2.829E3,2.07E3,2.823E3,6E0,1.008E3,1.062E3,1.333E3,1.49E3,1E0,5E0,8.45E2,1.63E2,1.025E3,3.7E1,8.51E2,4.82E2,6.23E2,8.67E2,4.44E2,4.01E2,1.1E1,1.52E2,1.1E1,2.6E1,5.59E2,2.92E2,2.09E2,2.73E2,4.58E2,1.65E2,8.43E2,2.4E1,4.4E2,4E0,2.5E1,3.76E2,5E0,6E0,7.4E1,7.8E1,5E0,6E0,5.39E2,2E1,1.73E2,1.19E2,1.83E2,9E1,1.9E2,2.68E2,5.8E1,1.07E2,6.71E2,1.72E2,2E1,4E0,1.53E2,2.87E2,2E0,2E0,1.3E1,1.2E1,4E0,1E0,1E1,6.4E1],"tree_param":{"num_deleted":"0","num_feature":"60","num_nodes":"69","size_leaf_vector":"1"}},{"base_weights":[-1.6302873E-6,7.203352E-5,-1.046376E-4,6.215906E-5,3.6203049E-3,-1.9177805E-5,-1.8635656E-4,1.2622165E-4,-6.791029E-6,8.875922E-6,6.9299527E-4,-7.7751094E-5,3.2289315E-4,-9.714177E-6,3.7948286E-7,6.893428E-5,2.0554513E-4,3.6028653E-6,-2.1193031E-4,-2.2519225E-5,-1.391398E-4,2.222469E-3,1.6913786E-4,5.100558E-4,-1.0334419E-5,1.3192408E-4,-2.9934523E-5,2.7374265E-4,1.4471744E-4,-1.1294325E-5,2.5519592E-4,1.7309674E-5,-1.2175082E-5,-3.3706703E-5,1.2669459E-4,1.9749266E-4,-7.802311E-6,-6.3757116E-6,4.202041E-3,4.7419983E-4,-1.4279655E-4,5.265695E-5,1.9493207E-6,7.508043E-5,2.4615374E-4,-6.535296E-5,4.889245E-6,1.4527547E-5,3.1532277E-6,1.0004937E-5,6.200934E-5,5.297158E-5,-5.5218665E-5,1.7256418E-4,8.290551E-5,1.8938039E-4,-6.9382986E-5,2.0841382E-5,-9.180664E-6,2.5068317E-4,3.5981939E-6,1.8534093E-3,1.5689078E-4,-9.395277E-6,1.7880843E-4,5.907873E-6,-1.0189602E-5,1.0437942E-5,2.4921448E-5,-3.7223276E-6,1.7055536E-5,-7.0780525E-6,7.934754E-6,1.0162161E-6,7.642009E-6,-1.5222043E-6,-7.730673E-6,6.5092763E-6,5.4487587E-5,1.1442238E-6,2.6280317E-4,-4.3500918E-7,-6.9485723E-6,-8.2946E-6,1.3846546E-4,5.2067713E-5,7.53756E-7,-9.78741E-6,4.9658556E-5],"categories":[],"categories_nodes":[],"categories_segments":[],"categories_sizes":[],"default_left":[0,0,0,0,0,0,0,0,0,0,0,0,0,0,0,0,0,0,0,0,0,0,0,0,0,0,0,0,0,0,0,0,0,0,0,0,0,0,0,0,0,0,0,0,0,0,0,0,0,0,0,0,0,0,0,0,0,0,0,0,0,0,0,0,0,0,0,0,0,0,0,0,0,0,0,0,0,0,0,0,0,0,0,0,0,0,0,0,0],"id":5,"left_children":[1,3,5,7,9,11,13,15,17,-1,-1,19,21,-1,23,25,27,29,31,33,35,37,39,41,-1,43,45,47,49,51,53,-1,-1,55,-1,57,-1,-1,59,61,63,-1,-1,65,67,69,-1,-1,-1,-1,71,73,75,77,-1,79,81,-1,-1,-1,-1,83,85,-1,87,-1,-1,-1,-1,-1,-1,-1,-1,-1,-1,-1,-1,-1,-1,-1,-1,-1,-1,-1,-1,-1,-1,-1,-1],"loss_changes":[3.759805E-5,1.0099766E-4,1.4424721E-5,1.2730999E-5,2.7956167E-4,2.0281723E-5,1.5632213E-6,6.774915E-6,2.9623839E-6,0E0,0E0,2.9263556E-6,4.2850428E-5,0E0,4.749076E-6,5.415843E-6,2.557219E-6,4.961525E-6,1.2648859E-6,1.3126914E-5,2.3585417E-6,5.170737E-5,1.31997E-5,3.2847302E-6,0E0,3.4294244E-6,1.5398982E-6,1.0227704E-6,1.512893E-6,3.531472E-6,8.292336E-6,0E0,0E0,3.6344477E-6,0E0,1.7483324E-6,0E0,0E0,1.9751598E-5,3.034371E-5,1.0346013E-6,0E0,0E0,4.3007058E-6,1.5562973E-6,1.0085882E-6,0E0,0E0,0E0,0E0,2.6795824E-6,1.6531952E-6,1.8249038E-6,2.617841E-6,0E0,5.3025382E-5,1.6583605E-6,0E0,0E0,0E0,0E0,2.4502617E-5,7.2592866E-6,0E0,2.9396358E-6,0E0,0E0,0E0,0E0,0E0,0E0,0E0,0E0,0E0,0E0,0E0,0E0,0E0,0E0,0E0,0E0,0E0,0E0,0E0,0E0,0E0,0E0,0E0,0E0],"parents":[2147483647,0,0,1,1,2,2,3,3,4,4,5,5,6,6,7,7,8,8,11,11,12,12,14,14,15,15,16,16,17,17,18,18,19,19,20,20,21,21,22,22,23,23,25,25,26,26,27,27,28,28,29,29,30,30,33,33,35,35,38,38,39,39,40,40,43,43,44,44,45,45,50,50,51,51,52,52,53,53,55,55,56,56,61,61,62,62,64,64],"right_children":[2,4,6,8,10,12,14,16,18,-1,-1,20,22,-1,24,26,28,30,32,34,36,38,40,42,-1,44,46,48,50,52,54,-1,-1,56,-1,58,-1,-1,60,62,64,-1,-1,66,68,70,-1,-1,-1,-1,72,74,76,78,-1,80,82,-1,-1,-1,-1,84,86,-1,88,-1,-1,-1,-1,-1,-1,-1,-1,-1,-1,-1,-1,-1,-1,-1,-1,-1,-1,-1,-1,-1,-1,-1,-1],"split_conditions":[4.38E0,1.0414724E1,9.4837654E1,7.832281E1,8.3453876E-1,5.2470484E0,1.0338409E0,3.02E0,6.338085E0,8.875922E-6,6.9299527E-4,3.0699475E-3,2.4768538E0,-9.714177E-6,1.2851261E0,6.836092E1,3.1107185E-5,6.9790564E0,4.6646037E0,7.726527E-2,5.589E1,6.839E1,4.77E0,6.617E1,-1.0334419E-5,4.054888E-3,3.000363E0,1.2346648E1,3.48E0,1.0997622E-3,6.0823053E-1,1.7309674E-5,-1.2175082E-5,4.57E0,1.2669459E-4,2.82499E-2,-7.802311E-6,-6.3757116E-6,5.11E0,3.8965963E-2,1.4345371E1,5.265695E-5,1.9493207E-6,1.8553211E-3,2.4857217E-1,3.2642102E-1,4.889245E-6,1.4527547E-5,3.1532277E-6,1.0004937E-5,3.68E0,3.2069065E-4,5.70907E1,7.795408E-1,8.290551E-5,5.19E0,6.908721E1,2.0841382E-5,-9.180664E-6,2.5068317E-4,3.5981939E-6,9.209995E1,2.575E1,-9.395277E-6,1.26684675E1,5.907873E-6,-1.0189602E-5,1.0437942E-5,2.4921448E-5,-3.7223276E-6,1.7055536E-5,-7.0780525E-6,7.934754E-6,1.0162161E-6,7.642009E-6,-1.5222043E-6,-7.730673E-6,6.5092763E-6,5.4487587E-5,1.1442238E-6,2.6280317E-4,-4.3500918E-7,-6.9485723E-6,-8.2946E-6,1.3846546E-4,5.2067713E-5,7.53756E-7,-9.78741E-6,4.9658556E-5],"split_indices":[37,49,16,16,4,35,58,46,7,0,0,4,55,0,7,16,4,49,49,57,31,31,38,31,0,4,35,59,37,4,4,0,0,46,0,12,0,0,27,4,54,0,0,4,4,58,0,0,0,0,46,4,31,58,0,37,31,0,0,0,0,16,26,0,33,0,0,0,0,0,0,0,0,0,0,0,0,0,0,0,0,0,0,0,0,0,0,0,0],"split_type":[0,0,0,0,0,0,0,0,0,0,0,0,0,0,0,0,0,0,0,0,0,0,0,0,0,0,0,0,0,0,0,0,0,0,0,0,0,0,0,0,0,0,0,0,0,0,0,0,0,0,0,0,0,0,0,0,0,0,0,0,0,0,0,0,0,0,0,0,0,0,0,0,0,0,0,0,0,0,0,0,0,0,0,0,0,0,0,0,0],"sum_hessian":[4.953E3,2.888E3,2.065E3,2.881E3,7E0,1.01E3,1.055E3,1.493E3,1.388E3,6E0,1E0,8.63E2,1.47E2,1.012E3,4.3E1,8.68E2,6.25E2,1.322E3,6.6E1,4.55E2,4.08E2,1E1,1.37E2,1.2E1,3.1E1,5.3E2,3.38E2,2.93E2,3.32E2,1.249E3,7.3E1,3E0,6.3E1,4.54E2,1E0,1.9E1,3.89E2,5E0,5E0,6.9E1,6.8E1,5E0,7E0,3.55E2,1.75E2,2.65E2,7.3E1,2.71E2,2.2E1,1.98E2,1.34E2,5.07E2,7.42E2,7E1,3E0,6.2E1,3.92E2,1.2E1,7E0,4E0,1E0,1.2E1,5.7E1,6E1,8E0,3.08E2,4.7E1,1.54E2,2.1E1,2.6E2,5E0,4.3E1,9.1E1,3.83E2,1.24E2,5.95E2,1.47E2,6.8E1,2E0,6.1E1,1E0,2.1E2,1.82E2,4E0,8E0,7E0,5E1,6E0,2E0],"tree_param":{"num_deleted":"0","num_feature":"60","num_nodes":"89","size_leaf_vector":"1"}},{"base_weights":[3.665614E-6,-5.2646137E-6,1.0953841E-3,8.565155E-5,-8.391148E-5,7.9231904E-5,7.397716E-4,-9.358066E-5,1.3249295E-3,1.538785E-4,4.1482268E-5,2.957485E-4,-3.6748381E-6,-5.315069E-5,-1.6434099E-4,6.7567045E-4,-9.34731E-6,1.2558364E-4,2.8689895E-4,9.519327E-5,-3.6090085E-5,-3.1081843E-5,-1.0172296E-5,-1.3032951E-4,-1.1074631E-5,5.931367E-5,1.9786113E-4,3.9369265E-6,1.6390763E-5,-2.6470274E-5,1.2800016E-4,-5.275102E-5,1.2483869E-5,-7.383468E-5,2.7955346E-5,-1.3678856E-4,2.267836E-4,1.15205885E-5,7.666592E-7,1.4400276E-5,4.7402846E-6,-4.128115E-6,6.77388E-6,1.2270829E-5,2.4615126E-6,4.5130037E-6,-3.3938122E-6,1.2483686E-7,-5.7251523E-6,1.1496376E-5,-3.2220673E-6,-3.8872763E-6,-8.892993E-6,-9.0096555E-6,6.860596E-5],"categories":[],"categories_nodes":[],"categories_segments":[],"categories_sizes":[],"default_left":[0,0,0,0,0,0,0,0,0,0,0,0,0,0,0,0,0,0,0,0,0,0,0,0,0,0,0,0,0,0,0,0,0,0,0,0,0,0,0,0,0,0,0,0,0,0,0,0,0,0,0,0,0,0,0],"id":6,"left_children":[1,3,-1,5,7,9,11,13,15,17,19,-1,-1,21,23,-1,-1,25,27,29,31,33,-1,35,-1,37,39,-1,-1,41,43,45,-1,47,49,51,53,-1,-1,-1,-1,-1,-1,-1,-1,-1,-1,-1,-1,-1,-1,-1,-1,-1,-1],"loss_changes":[9.599631E-4,3.5086417E-5,0E0,9.498803E-6,3.5964345E-5,6.3479392E-6,9.302888E-5,7.4694944E-6,3.3422068E-4,2.8131635E-6,6.2490017E-6,0E0,0E0,5.516218E-6,1.8177543E-6,0E0,0E0,2.986696E-6,1.0984513E-6,3.5397716E-6,2.9365183E-6,3.6694466E-6,0E0,1.4103725E-6,0E0,2.4646597E-6,2.7503656E-6,0E0,0E0,1.7280584E-6,6.443639E-6,1.2628733E-6,0E0,2.6171892E-6,1.141703E-5,1.412056E-6,5.3746203E-6,0E0,0E0,0E0,0E0,0E0,0E0,0E0,0E0,0E0,0E0,0E0,0E0,0E0,0E0,0E0,0E0,0E0,0E0],"parents":[2147483647,0,0,1,1,3,3,4,4,5,5,6,6,7,7,8,8,9,9,10,10,13,13,14,14,17,17,18,18,19,19,20,20,21,21,23,23,25,25,26,26,29,29,30,30,31,31,33,33,34,34,35,35,36,36],"right_children":[2,4,-1,6,8,10,12,14,16,18,20,-1,-1,22,24,-1,-1,26,28,30,32,34,-1,36,-1,38,40,-1,-1,42,44,46,-1,48,50,52,54,-1,-1,-1,-1,-1,-1,-1,-1,-1,-1,-1,-1,-1,-1,-1,-1,-1,-1],"split_conditions":[2.7497288E1,8.499783E1,1.0953841E-3,3.576985E1,2.5036161E1,6.856878E1,6.1382243E-6,4.93E0,1.933E1,6.8211734E-1,5.185793E-2,2.957485E-4,-3.6748381E-6,5.682016E0,7.1742805E1,6.7567045E-4,-9.34731E-6,1.8400064E1,1.493E1,2.081E1,6.2855496E0,5.141088E0,-1.0172296E-5,1.8246916E1,-1.1074631E-5,5.064063E1,1.6606812E-3,3.9369265E-6,1.6390763E-5,7.0500495E-3,3.55E0,1.7305271E1,1.2483869E-5,3.2992866E-2,9.4837654E1,9.1076076E-2,1.0799403E2,1.15205885E-5,7.666592E-7,1.4400276E-5,4.7402846E-6,-4.128115E-6,6.77388E-6,1.2270829E-5,2.4615126E-6,4.5130037E-6,-3.3938122E-6,1.2483686E-7,-5.7251523E-6,1.1496376E-5,-3.2220673E-6,-3.8872763E-6,-8.892993E-6,-9.0096555E-6,6.860596E-5],"split_indices":[6,16,0,26,6,16,6,38,26,6,6,0,0,7,31,0,0,26,26,26,6,35,0,6,0,16,6,0,0,6,37,32,0,6,16,7,16,0,0,0,0,0,0,0,0,0,0,0,0,0,0,0,0,0,0],"split_type":[0,0,0,0,0,0,0,0,0,0,0,0,0,0,0,0,0,0,0,0,0,0,0,0,0,0,0,0,0,0,0,0,0,0,0,0,0,0,0,0,0,0,0,0,0,0,0,0,0,0,0,0,0,0,0],"sum_hessian":[4.906E3,4.905E3,1E0,2.275E3,2.63E3,2.254E3,2.1E1,2.613E3,1.7E1,7.56E2,1.498E3,2E0,1.9E1,1.664E3,9.49E2,1E0,1.6E1,6.25E2,1.31E2,8.85E2,6.13E2,1.452E3,2.12E2,5.97E2,3.52E2,3.27E2,2.98E2,2.2E1,1.09E2,1.88E2,6.97E2,5.8E2,3.3E1,8.42E2,6.1E2,5.87E2,1E1,6.6E1,2.61E2,1.58E2,1.4E2,1.4E2,4.8E1,2.79E2,4.18E2,5.5E1,5.25E2,2.93E2,5.49E2,1.91E2,4.19E2,2.42E2,3.45E2,8E0,2E0],"tree_param":{"num_deleted":"0","num_feature":"60","num_nodes":"55","size_leaf_vector":"1"}},{"base_weights":[-1.5932073E-6,6.158949E-5,-8.907617E-5,5.2906125E-5,2.8083378E-3,-4.642973E-6,-1.6144331E-4,1.2502017E-4,7.2063804E-6,-6.7256583E-6,6.5877865E-4,-5.8087815E-5,3.2901758E-4,-1.3350988E-4,-1.01932665E-5,8.147829E-5,2.0207824E-4,7.595533E-5,-4.417366E-5,3.3570864E-6,-5.9919944E-6,2.503359E-3,1.3027352E-4,-7.195028E-6,3.042175E-5,6.743132E-5,2.3155304E-5,1.3079569E-5,7.5223174E-6,-2.038942E-5,1.2320871E-4,-5.891509E-5,1.0943821E-4,-1.3493951E-5,1.3844707E-3,-7.0870506E-6,2.3656164E-4,5.3445256E-4,-8.378989E-6,3.0166993E-4,-9.7487755E-6,8.342572E-6,2.372852E-5,5.4231277E-6,-6.700393E-5,2.3648262E-4,6.9523594E-5,-3.372633E-5,-7.611266E-6,2.5251842E-4,-1.4884335E-4,-3.520401E-5,7.7718956E-4,1.20428645E-4,-5.0560857E-6,1.8823021E-3,2.0857005E-4,7.0227444E-4,-2.6760974E-6,-1.1534053E-6,5.3802373E-6,4.0241613E-7,-7.3632423E-6,1.3442595E-5,-4.825086E-6,-9.69605E-6,4.3244427E-6,-4.5477236E-6,2.4374865E-6,4.0809477E-6,5.23792E-5,1.8599747E-5,-1.4167215E-5,-2.3986006E-6,2.6241241E-5,-7.022452E-6,2.4883938E-4,1.414155E-4,-1.2189338E-5,3.220821E-5,-8.155772E-6,-6.3324806E-6,4.7860136E-5],"categories":[],"categories_nodes":[],"categories_segments":[],"categories_sizes":[],"default_left":[0,0,0,0,0,0,0,0,0,0,0,0,0,0,0,0,0,0,0,0,0,0,0,0,0,0,0,0,0,0,0,0,0,0,0,0,0,0,0,0,0,0,0,0,0,0,0,0,0,0,0,0,0,0,0,0,0,0,0,0,0,0,0,0,0,0,0,0,0,0,0,0,0,0,0,0,0,0,0,0,0,0,0],"id":7,"left_children":[1,3,5,7,9,11,13,15,17,-1,-1,19,21,23,-1,25,27,29,31,33,-1,35,37,-1,39,41,-1,-1,-1,43,45,47,49,51,53,-1,-1,55,-1,57,-1,-1,59,-1,61,63,65,67,-1,69,71,73,75,-1,-1,77,79,81,-1,-1,-1,-1,-1,-1,-1,-1,-1,-1,-1,-1,-1,-1,-1,-1,-1,-1,-1,-1,-1,-1,-1,-1,-1],"loss_changes":[2.7244561E-5,6.811304E-5,1.2629012E-5,9.404723E-6,2.7635536E-4,1.7049086E-5,1.2916771E-6,3.6978E-6,6.177857E-6,0E0,0E0,3.1269465E-6,5.671602E-5,1.1524417E-6,0E0,3.7695177E-6,1.1866796E-6,3.4078676E-6,2.2731713E-6,9.653786E-6,0E0,6.549304E-5,1.4776664E-5,0E0,2.5655008E-6,2.9723235E-6,0E0,0E0,0E0,1.4908412E-6,3.0362826E-6,2.1431033E-6,3.2896237E-6,7.065333E-6,7.850552E-6,0E0,0E0,2.2447923E-5,0E0,2.7411254E-6,0E0,0E0,1.8747667E-6,0E0,1.0975099E-6,1.7612765E-6,1.5453086E-6,3.407519E-6,0E0,7.659444E-6,2.3471066E-6,2.8853565E-6,4.308983E-5,0E0,0E0,2.0802465E-5,7.066945E-6,2.0230746E-6,0E0,0E0,0E0,0E0,0E0,0E0,0E0,0E0,0E0,0E0,0E0,0E0,0E0,0E0,0E0,0E0,0E0,0E0,0E0,0E0,0E0,0E0,0E0,0E0,0E0],"parents":[2147483647,0,0,1,1,2,2,3,3,4,4,5,5,6,6,7,7,8,8,11,11,12,12,13,13,15,15,16,16,17,17,18,18,19,19,21,21,22,22,24,24,25,25,29,29,30,30,31,31,32,32,33,33,34,34,37,37,39,39,42,42,44,44,45,45,46,46,47,47,49,49,50,50,51,51,52,52,55,55,56,56,57,57],"right_children":[2,4,6,8,10,12,14,16,18,-1,-1,20,22,24,-1,26,28,30,32,34,-1,36,38,-1,40,42,-1,-1,-1,44,46,48,50,52,54,-1,-1,56,-1,58,-1,-1,60,-1,62,64,66,68,-1,70,72,74,76,-1,-1,78,80,82,-1,-1,-1,-1,-1,-1,-1,-1,-1,-1,-1,-1,-1,-1,-1,-1,-1,-1,-1,-1,-1,-1,-1,-1,-1],"split_conditions":[4.38E0,8.3453876E-1,5.9412712E1,3.8669167E1,4.37E0,5.2470484E0,5.11E0,3.02E0,1.601655E-3,-6.7256583E-6,6.5877865E-4,4.91E0,2.4768538E0,1.0338409E0,-1.01932665E-5,2.4857217E-1,3.1107185E-5,9.83E0,6.717778E1,5.9126537E1,-5.9919944E-6,6.839E1,1.3888252E1,-7.195028E-6,8.717825E-1,-6.0552573E-1,2.3155304E-5,1.3079569E-5,7.5223174E-6,1.8806047E1,3.57E0,4.07E0,8.8738096E-1,5.37E0,2.1433378E1,-7.0870506E-6,2.3656164E-4,5.6572538E-2,-8.378989E-6,4.86E0,-9.7487755E-6,8.342572E-6,4.571979E-3,5.4231277E-6,2.93E0,2.3426971E1,1.045E1,4.015405E-2,-7.611266E-6,5.1133424E-1,3.96E0,4.1091957E1,5.21E0,1.20428645E-4,-5.0560857E-6,5.11E0,4.33E0,2.2204973E1,-2.6760974E-6,-1.1534053E-6,5.3802373E-6,4.0241613E-7,-7.3632423E-6,1.3442595E-5,-4.825086E-6,-9.69605E-6,4.3244427E-6,-4.5477236E-6,2.4374865E-6,4.0809477E-6,5.23792E-5,1.8599747E-5,-1.4167215E-5,-2.3986006E-6,2.6241241E-5,-7.022452E-6,2.4883938E-4,1.414155E-4,-1.2189338E-5,3.220821E-5,-8.155772E-6,-6.3324806E-6,4.7860136E-5],"split_indices":[37,4,13,13,37,35,37,46,4,0,0,46,55,58,0,4,4,18,13,13,0,31,18,0,5,55,0,0,0,32,37,37,5,38,17,0,0,4,0,47,0,0,4,0,37,32,18,4,0,4,47,51,37,0,0,47,38,32,0,0,0,0,0,0,0,0,0,0,0,0,0,0,0,0,0,0,0,0,0,0,0,0,0],"split_type":[0,0,0,0,0,0,0,0,0,0,0,0,0,0,0,0,0,0,0,0,0,0,0,0,0,0,0,0,0,0,0,0,0,0,0,0,0,0,0,0,0,0,0,0,0,0,0,0,0,0,0,0,0,0,0,0,0,0,0,0,0,0,0,0,0,0,0,0,0,0,0,0,0,0,0,0,0,0,0,0,0,0,0],"sum_hessian":[4.927E3,2.861E3,2.066E3,2.853E3,8E0,9.54E2,1.112E3,1.106E3,1.747E3,7E0,1E0,8.23E2,1.31E2,6.73E2,4.39E2,7.08E2,3.98E2,7.47E2,1E3,4.13E2,4.1E2,1E1,1.21E2,6.33E2,4E1,6.84E2,2.4E1,1.83E2,2.15E2,2.46E2,5.01E2,9.13E2,8.7E1,4.09E2,4E0,5E0,5E0,5.1E1,7E1,1.8E1,2.2E1,2.08E2,4.76E2,6.5E1,1.81E2,1.6E2,3.41E2,7.2E2,1.93E2,5.6E1,3.1E1,3.99E2,1E1,2E0,2E0,9E0,4.2E1,8E0,1E1,3.06E2,1.7E2,9.4E1,8.7E1,1.46E2,1.4E1,2E1,3.21E2,4.25E2,2.95E2,4.7E1,9E0,6E0,2.5E1,3.91E2,8E0,9E0,1E0,6E0,3E0,1.9E1,2.3E1,2E0,6E0],"tree_param":{"num_deleted":"0","num_feature":"60","num_nodes":"83","size_leaf_vector":"1"}},{"base_weights":[4.5490656E-6,-4.021076E-6,1.0681677E-3,6.388436E-5,-9.936178E-5,5.5567463E-5,2.7403713E-3,-4.1006522E-5,-1.5190276E-4,1.4996373E-4,2.046575E-5,6.423092E-4,-6.4314104E-6,-6.171974E-5,4.3690283E-4,-8.078312E-6,5.6891422E-5,1.7717447E-4,2.8263954E-5,9.838511E-5,-8.427046E-6,2.3899006E-4,-7.774243E-5,1.2869819E-3,-7.931351E-6,4.7587478E-4,-9.028229E-6,5.3702122E-5,2.1528872E-4,-2.2524338E-5,9.426393E-6,1.1009368E-5,1.9302861E-4,-5.8286685E-5,3.801954E-5,1.4138807E-4,1.0500896E-3,-2.4096991E-5,-1.331579E-4,1.5328477E-4,-1.3234353E-5,4.4860848E-5,2.4539668E-6,1.7858205E-5,-1.8001338E-6,1.933631E-5,9.638773E-6,-6.304274E-6,4.6592845E-6,3.5093003E-6,-7.4561317E-6,8.526612E-6,2.2199272E-5,-1.2471307E-5,-1.8275322E-6,4.0599657E-6,-3.0441724E-6,2.587601E-5,-3.5504272E-6,6.743998E-5,-3.6187491E-6,-1.7470283E-6,1.2301431E-4,1.7038297E-5,-7.3037004E-6],"categories":[],"categories_nodes":[],"categories_segments":[],"categories_sizes":[],"default_left":[0,0,0,0,0,0,0,0,0,0,0,0,0,0,0,0,0,0,0,0,0,0,0,0,0,0,0,0,0,0,0,0,0,0,0,0,0,0,0,0,0,0,0,0,0,0,0,0,0,0,0,0,0,0,0,0,0,0,0,0,0,0,0,0,0],"id":8,"left_children":[1,3,-1,5,7,9,11,13,15,17,19,-1,-1,21,23,-1,25,27,29,31,33,35,37,39,-1,41,-1,43,45,47,-1,49,51,53,55,57,59,61,63,-1,-1,-1,-1,-1,-1,-1,-1,-1,-1,-1,-1,-1,-1,-1,-1,-1,-1,-1,-1,-1,-1,-1,-1,-1,-1],"loss_changes":[9.127631E-4,3.2279997E-5,0E0,6.466903E-5,6.3527423E-6,9.619252E-6,2.6259452E-4,9.767622E-6,2.2104814E-6,2.6011749E-6,4.7691E-6,0E0,0E0,4.5669403E-6,2.0960295E-5,0E0,4.9609416E-6,3.0144329E-6,1.1844784E-6,4.736325E-6,3.5824587E-6,3.6514466E-6,2.663381E-6,4.773102E-5,0E0,3.1928494E-6,0E0,4.177824E-6,1.820521E-6,1.3418693E-6,0E0,2.8438121E-6,1.4768311E-6,3.0902268E-6,3.425701E-6,3.5518722E-6,1.7740758E-6,1.2397357E-5,2.7492506E-6,0E0,0E0,0E0,0E0,0E0,0E0,0E0,0E0,0E0,0E0,0E0,0E0,0E0,0E0,0E0,0E0,0E0,0E0,0E0,0E0,0E0,0E0,0E0,0E0,0E0,0E0],"parents":[2147483647,0,0,1,1,3,3,4,4,5,5,6,6,7,7,8,8,9,9,10,10,13,13,14,14,16,16,17,17,18,18,19,19,20,20,21,21,22,22,23,23,25,25,27,27,28,28,29,29,31,31,32,32,33,33,34,34,35,35,36,36,37,37,38,38],"right_children":[2,4,-1,6,8,10,12,14,16,18,20,-1,-1,22,24,-1,26,28,30,32,34,36,38,40,-1,42,-1,44,46,48,-1,50,52,54,56,58,60,62,64,-1,-1,-1,-1,-1,-1,-1,-1,-1,-1,-1,-1,-1,-1,-1,-1,-1,-1,-1,-1,-1,-1,-1,-1,-1,-1],"split_conditions":[2.7497288E1,4.38E0,1.0681677E-3,2.5036161E1,5.958647E1,1.6606812E-3,9.575279E0,5.9126537E1,1.0338409E0,4.543377E1,3.631445E1,6.423092E-4,-6.4314104E-6,5.689656E1,1.4E1,-8.078312E-6,1.2851261E0,1.827E1,5.535954E-4,1.3408546E-1,3.4707491E0,2.4141772E0,9.209843E-2,1.1689789E0,-7.931351E-6,6.617E1,-9.028229E-6,5.064063E1,2.56E0,3.97E0,9.426393E-6,5.6657147E-2,7.4571652E0,6.8573216E-3,4.13E0,1.9810707E1,4.5059714E0,7.726527E-2,3.19E0,1.5328477E-4,-1.3234353E-5,4.4860848E-5,2.4539668E-6,1.7858205E-5,-1.8001338E-6,1.933631E-5,9.638773E-6,-6.304274E-6,4.6592845E-6,3.5093003E-6,-7.4561317E-6,8.526612E-6,2.2199272E-5,-1.2471307E-5,-1.8275322E-6,4.0599657E-6,-3.0441724E-6,2.587601E-5,-3.5504272E-6,6.743998E-5,-3.6187491E-6,-1.7470283E-6,1.2301431E-4,1.7038297E-5,-7.3037004E-6],"split_indices":[6,37,0,6,13,6,7,13,58,13,13,0,0,31,18,0,7,26,6,6,46,5,6,6,0,31,0,16,37,46,0,6,6,6,37,17,6,57,46,0,0,0,0,0,0,0,0,0,0,0,0,0,0,0,0,0,0,0,0,0,0,0,0,0,0],"split_type":[0,0,0,0,0,0,0,0,0,0,0,0,0,0,0,0,0,0,0,0,0,0,0,0,0,0,0,0,0,0,0,0,0,0,0,0,0,0,0,0,0,0,0,0,0,0,0,0,0,0,0,0,0,0,0,0,0,0,0,0,0,0,0,0,0],"sum_hessian":[4.985E3,4.984E3,1E0,2.911E3,2.073E3,2.903E3,8E0,9.83E2,1.09E3,7.86E2,2.117E3,1E0,7E0,9.43E2,4E1,1.042E3,4.8E1,6.42E2,1.44E2,5.72E2,1.545E3,4.7E1,8.96E2,1.6E1,2.4E1,1.7E1,3.1E1,1.52E2,4.9E2,1.1E2,3.4E1,2.98E2,2.74E2,7.45E2,8E2,4.3E1,4E0,4.56E2,4.4E2,7E0,9E0,8E0,9E0,3.4E1,1.18E2,5.5E1,4.35E2,5.8E1,5.2E1,2.18E2,8E1,2.53E2,2.1E1,7.5E1,6.7E2,5.57E2,2.43E2,1.5E1,2.8E1,3E0,1E0,4.55E2,1E0,1.1E1,4.29E2],"tree_param":{"num_deleted":"0","num_feature":"60","num_nodes":"65","size_leaf_vector":"1"}},{"base_weights":[1.0717213E-5,2.2020176E-6,1.0414635E-3,-2.2518498E-6,1.2792845E-3,7.815567E-5,-7.240685E-5,6.262515E-4,-1.0319445E-5,7.176518E-5,8.3215546E-4,-2.936643E-5,-1.3752076E-4,1.2742309E-4,2.2158752E-5,2.7785843E-4,-2.5310364E-6,1.0598858E-5,-1.2227432E-4,-1.09378634E-4,-9.951319E-6,1.3871699E-4,-5.53553E-7,1.6667846E-5,1.898335E-5,-1.7582648E-5,1.1732203E-3,5.8229733E-5,-9.062691E-6,-5.1882216E-5,-7.5270104E-6,4.517201E-6,9.917191E-6,2.7390795E-6,-1.2749226E-6,-1.4509554E-6,1.13619E-5,1.0116182E-4,3.0209898E-5,1.4710466E-5,-7.089395E-6,-3.4808356E-6,1.3082493E-4],"categories":[],"categories_nodes":[],"categories_segments":[],"categories_sizes":[],"default_left":[0,0,0,0,0,0,0,0,0,0,0,0,0,0,0,0,0,0,0,0,0,0,0,0,0,0,0,0,0,0,0,0,0,0,0,0,0,0,0,0,0,0,0],"id":9,"left_children":[1,3,-1,5,7,9,11,-1,-1,13,15,17,19,21,23,-1,-1,25,27,29,-1,31,-1,33,-1,35,37,39,-1,41,-1,-1,-1,-1,-1,-1,-1,-1,-1,-1,-1,-1,-1],"loss_changes":[8.671786E-4,2.7822674E-5,0E0,2.750548E-5,2.8661263E-4,1.0887738E-5,7.29375E-6,0E0,0E0,6.220447E-6,7.953276E-5,5.827135E-6,1.7714428E-6,1.6626527E-6,2.3355838E-6,0E0,0E0,3.5995963E-5,5.035484E-6,1.6796066E-6,0E0,2.8144896E-6,0E0,1.8913646E-6,0E0,3.010867E-6,1.1353197E-5,5.564124E-6,0E0,1.4331546E-5,0E0,0E0,0E0,0E0,0E0,0E0,0E0,0E0,0E0,0E0,0E0,0E0,0E0],"parents":[2147483647,0,0,1,1,3,3,4,4,5,5,6,6,9,9,10,10,11,11,12,12,13,13,14,14,17,17,18,18,19,19,21,21,23,23,25,25,26,26,27,27,29,29],"right_children":[2,4,-1,6,8,10,12,-1,-1,14,16,18,20,22,24,-1,-1,26,28,30,-1,32,-1,34,-1,36,38,40,-1,42,-1,-1,-1,-1,-1,-1,-1,-1,-1,-1,-1,-1,-1],"split_conditions":[9.1657627E-1,8.3453876E-1,1.0414635E-3,4.9997837E1,1.933E1,3.576985E1,4.88E0,6.262515E-4,-1.0319445E-5,1.3945143E0,2.0460747E-7,8.9919615E-1,7.1985E1,3.076E1,2.6092055E-1,2.7785843E-4,-2.5310364E-6,7.981133E-1,4.12E0,9.1076076E-2,-9.951319E-6,3.02E0,-5.53553E-7,1.7285977E-3,1.898335E-5,1.0192372E1,3.8965963E-2,2.160213E-1,-9.062691E-6,5.5032287E-2,-7.5270104E-6,4.517201E-6,9.917191E-6,2.7390795E-6,-1.2749226E-6,-1.4509554E-6,1.13619E-5,1.0116182E-4,3.0209898E-5,1.4710466E-5,-7.089395E-6,-3.4808356E-6,1.3082493E-4],"split_indices":[4,4,0,13,26,26,27,0,0,55,4,5,31,26,4,0,0,5,38,7,0,46,0,4,0,53,4,4,0,8,0,0,0,0,0,0,0,0,0,0,0,0,0],"split_type":[0,0,0,0,0,0,0,0,0,0,0,0,0,0,0,0,0,0,0,0,0,0,0,0,0,0,0,0,0,0,0,0,0,0,0,0,0,0,0,0,0,0,0],"sum_hessian":[4.891E3,4.89E3,1E0,4.874E3,1.6E1,2.271E3,2.603E3,1E0,1.5E1,2.253E3,1.8E1,1.568E3,1.035E3,1.061E3,1.192E3,2E0,1.6E1,1.097E3,4.71E2,7.12E2,3.23E2,9.81E2,8E1,1.175E3,1.7E1,1.072E3,2.5E1,1.16E2,3.55E2,2.98E2,4.14E2,5.43E2,4.38E2,6.17E2,5.58E2,1.025E3,4.7E1,9E0,1.6E1,5.3E1,6.3E1,2.97E2,1E0],"tree_param":{"num_deleted":"0","num_feature":"60","num_nodes":"43","size_leaf_vector":"1"}},{"base_weights":[1.4698843E-6,-6.7669043E-6,1.0154269E-3,6.0755232E-5,-7.748155E-5,1.3745773E-4,3.1459997E-5,-1.6202372E-5,-1.3709127E-4,7.426296E-5,1.9539929E-4,-9.948081E-6,4.171224E-5,-5.589012E-5,2.8157147E-4,-7.2784424E-6,6.864936E-5,2.0650288E-4,-1.0603834E-5,2.317623E-4,1.5645804E-6,1.6173546E-5,1.278649E-4,-5.244234E-6,-1.15561525E-4,-7.662037E-6,4.8245664E-4,5.2232866E-4,-8.357226E-6,1.3383376E-4,1.9041456E-5,-4.4053395E-5,8.253714E-6,1.3990788E-5,6.3320026E-6,7.2764815E-5,-6.537159E-5,1.1613997E-4,6.878687E-4,-1.4371884E-5,1.0272291E-3,1.3221936E-5,-1.2417263E-4,1.7715261E-4,3.4563043E-4,3.5766193E-6,5.102665E-5,1.9705198E-5,1.1533301E-6,-9.452052E-7,-1.4482465E-5,2.916145E-6,2.0289368E-5,-5.2115083E-6,2.514163E-6,1.2464401E-5,3.522824E-6,5.3547606E-6,6.209342E-5,2.0927134E-6,-3.776222E-6,1.1648286E-4,5.9603904E-6,-6.5752974E-6,1.5879907E-5,3.0983905E-5,-6.310545E-6],"categories":[],"categories_nodes":[],"categories_segments":[],"categories_sizes":[],"default_left":[0,0,0,0,0,0,0,0,0,0,0,0,0,0,0,0,0,0,0,0,0,0,0,0,0,0,0,0,0,0,0,0,0,0,0,0,0,0,0,0,0,0,0,0,0,0,0,0,0,0,0,0,0,0,0,0,0,0,0,0,0,0,0,0,0,0,0],"id":10,"left_children":[1,3,-1,5,7,9,11,13,15,17,19,-1,21,23,25,-1,27,29,31,33,-1,35,37,39,41,-1,43,45,-1,47,-1,49,-1,-1,-1,51,53,55,57,59,61,-1,63,-1,65,-1,-1,-1,-1,-1,-1,-1,-1,-1,-1,-1,-1,-1,-1,-1,-1,-1,-1,-1,-1,-1,-1],"loss_changes":[8.2508853E-4,2.3549266E-5,0E0,5.6649005E-6,8.797457E-6,2.5376266E-6,4.3242912E-6,1.4067306E-5,2.139639E-6,3.7618208E-6,2.1589312E-6,0E0,3.8483277E-6,3.1726106E-6,1.2302557E-5,0E0,5.32907E-6,1.6085578E-6,1.2119251E-6,1.4648576E-6,0E0,6.2392746E-6,2.546512E-6,5.3770505E-6,1.6100466E-6,0E0,3.8977305E-5,3.7450059E-6,0E0,2.7008718E-6,0E0,1.0630697E-6,0E0,0E0,0E0,3.8143012E-6,2.495018E-6,2.3729244E-6,2.4409885E-6,1.9458414E-6,5.6354484E-6,0E0,1.5708783E-6,0E0,1.2103765E-5,0E0,0E0,0E0,0E0,0E0,0E0,0E0,0E0,0E0,0E0,0E0,0E0,0E0,0E0,0E0,0E0,0E0,0E0,0E0,0E0,0E0,0E0],"parents":[2147483647,0,0,1,1,3,3,4,4,5,5,6,6,7,7,8,8,9,9,10,10,12,12,13,13,14,14,16,16,17,17,18,18,19,19,21,21,22,22,23,23,24,24,26,26,27,27,29,29,31,31,35,35,36,36,37,37,38,38,39,39,40,40,42,42,44,44],"right_children":[2,4,-1,6,8,10,12,14,16,18,20,-1,22,24,26,-1,28,30,32,34,-1,36,38,40,42,-1,44,46,-1,48,-1,50,-1,-1,-1,52,54,56,58,60,62,-1,64,-1,66,-1,-1,-1,-1,-1,-1,-1,-1,-1,-1,-1,-1,-1,-1,-1,-1,-1,-1,-1,-1,-1,-1],"split_conditions":[9.1657627E-1,4.14E0,1.0154269E-3,5.535604E-5,5.958647E1,9.12E0,1.1052946E-4,5.234369E0,1.044307E0,2.7388153E1,2.8472657E0,-9.948081E-6,1.12E1,3.0699475E-3,5.1970564E-2,-7.2784424E-6,1.232322E0,1.8624367E1,1.6942164E-5,2.655E1,1.5645804E-6,3.1E0,4.662193E1,7.803896E-2,9.33E0,-7.662037E-6,2.765613E-3,6.1391383E-1,-8.357226E-6,5.064063E1,1.9041456E-5,1.5895092E-5,8.253714E-6,1.3990788E-5,6.3320026E-6,2.4857217E-1,1.7837547E-1,6.2454015E-4,4.7297537E-1,1.459E1,2.765613E-3,1.3221936E-5,5.9412712E1,1.7715261E-4,4.71E0,3.5766193E-6,5.102665E-5,1.9705198E-5,1.1533301E-6,-9.452052E-7,-1.4482465E-5,2.916145E-6,2.0289368E-5,-5.2115083E-6,2.514163E-6,1.2464401E-5,3.522824E-6,5.3547606E-6,6.209342E-5,2.0927134E-6,-3.776222E-6,1.1648286E-4,5.9603904E-6,-6.5752974E-6,1.5879907E-5,3.0983905E-5,-6.310545E-6],"split_indices":[4,37,0,4,13,18,4,49,58,13,49,0,18,4,5,0,7,26,4,26,0,37,51,5,18,0,4,7,0,16,0,4,0,0,0,4,7,4,4,18,4,0,13,0,27,0,0,0,0,0,0,0,0,0,0,0,0,0,0,0,0,0,0,0,0,0,0],"split_type":[0,0,0,0,0,0,0,0,0,0,0,0,0,0,0,0,0,0,0,0,0,0,0,0,0,0,0,0,0,0,0,0,0,0,0,0,0,0,0,0,0,0,0,0,0,0,0,0,0,0,0,0,0,0,0,0,0,0,0,0,0,0,0,0,0,0,0],"sum_hessian":[4.931E3,4.93E3,1E0,2.522E3,2.408E3,6.96E2,1.826E3,1.188E3,1.22E3,3.34E2,3.62E2,7.7E1,1.749E3,1.049E3,1.39E2,1.172E3,4.8E1,1.3E2,2.04E2,2.96E2,6.6E1,1.35E3,3.99E2,5.68E2,4.81E2,4.4E1,9.5E1,1.6E1,3.2E1,9.3E1,3.7E1,1.72E2,3.2E1,2.02E2,9.4E1,7.97E2,5.53E2,3.92E2,7E0,5.64E2,4E0,1E1,4.71E2,3E0,9.2E1,9E0,7E0,2.7E1,6.6E1,1.57E2,1.5E1,7.65E2,3.2E1,4.14E2,1.39E2,9.9E1,2.93E2,4E0,3E0,2.94E2,2.7E2,1E0,3E0,4.64E2,7E0,5.8E1,3.4E1],"tree_param":{"num_deleted":"0","num_feature":"60","num_nodes":"67","size_leaf_vector":"1"}},{"base_weights":[-1.4665364E-6,-5.71449E-6,9.5709285E-4,6.543115E-5,-6.3674255E-5,6.108041E-4,-8.0383825E-6,1.4854621E-4,2.4773162E-5,-3.8051217E-5,-7.210635E-6,1.2729617E-4,2.6985863E-3,1.7367065E-5,1.9329962E-5,-2.1020738E-5,-1.6472515E-4,1.7443434E-5,1.5801648E-4,2.6862457E-4,9.255582E-7,-1.3381453E-5,2.4917683E-5,3.5571135E-5,-5.1289735E-5,1.6988692E-5,-8.617589E-6,2.3451685E-4,-4.7469144E-5,1.8852188E-4,-1.2541414E-6,4.8561265E-5,-6.598661E-5,-1.9364497E-5,3.1514248E-4,1.827472E-4,-7.378752E-5,4.779649E-6,3.00026E-5,1.0094623E-5,-4.1818594E-6,1.0371085E-5,3.743175E-6,3.7979596E-6,3.5881882E-7,1.1903247E-6,-5.8848264E-6,-2.6967577E-6,7.384349E-6,7.972169E-6,2.5194468E-5,9.95375E-7,7.862384E-5,5.0036004E-5,-3.883684E-6],"categories":[],"categories_nodes":[],"categories_segments":[],"categories_sizes":[],"default_left":[0,0,0,0,0,0,0,0,0,0,0,0,0,0,0,0,0,0,0,0,0,0,0,0,0,0,0,0,0,0,0,0,0,0,0,0,0,0,0,0,0,0,0,0,0,0,0,0,0,0,0,0,0,0,0],"id":11,"left_children":[1,3,5,7,9,-1,-1,11,13,15,-1,17,19,21,-1,23,25,27,29,-1,-1,-1,31,33,35,-1,-1,37,39,41,-1,43,45,47,49,51,53,-1,-1,-1,-1,-1,-1,-1,-1,-1,-1,-1,-1,-1,-1,-1,-1,-1,-1],"loss_changes":[2.0303967E-5,2.0473639E-5,2.7885547E-4,7.5287608E-6,5.6406298E-6,0E0,0E0,3.9322447E-5,4.007505E-6,4.477287E-6,0E0,2.450658E-6,4.2898137E-5,3.167805E-6,0E0,3.1400023E-6,1.0050771E-6,2.2656595E-6,3.1773034E-6,0E0,0E0,0E0,3.0810068E-6,9.820139E-6,6.300268E-6,0E0,0E0,1.8215569E-6,1.1352319E-6,1.0306067E-6,0E0,1.2886537E-6,1.3771871E-6,3.0976328E-6,3.0053689E-6,2.3730523E-5,4.6292375E-6,0E0,0E0,0E0,0E0,0E0,0E0,0E0,0E0,0E0,0E0,0E0,0E0,0E0,0E0,0E0,0E0,0E0,0E0],"parents":[2147483647,0,0,1,1,2,2,3,3,4,4,7,7,8,8,9,9,11,11,12,12,13,13,15,15,16,16,17,17,18,18,22,22,23,23,24,24,27,27,28,28,29,29,31,31,32,32,33,33,34,34,35,35,36,36],"right_children":[2,4,6,8,10,-1,-1,12,14,16,-1,18,20,22,-1,24,26,28,30,-1,-1,-1,32,34,36,-1,-1,38,40,42,-1,44,46,48,50,52,54,-1,-1,-1,-1,-1,-1,-1,-1,-1,-1,-1,-1,-1,-1,-1,-1,-1,-1],"split_conditions":[8.3453876E-1,2.1150805E1,1.933E1,5.535604E-5,5.11E0,6.108041E-4,-8.0383825E-6,3.555E1,3.2379624E-1,5.682016E0,-7.210635E-6,2.65E0,2.053972E1,8.435466E-5,1.9329962E-5,5.689656E1,4.6646037E0,-1.2445983E0,3.1098299E1,2.6862457E-4,9.255582E-7,-1.3381453E-5,2.1413303E1,6.1483374E0,2.3000355E0,1.6988692E-5,-8.617589E-6,2.0460747E-7,-1.0268698E0,2.698663E0,-1.2541414E-6,1.0785693E1,1.6534609E-3,1.189E1,1.4640975E-1,6.996E1,9.86E0,4.779649E-6,3.00026E-5,1.0094623E-5,-4.1818594E-6,1.0371085E-5,3.743175E-6,3.7979596E-6,3.5881882E-7,1.1903247E-6,-5.8848264E-6,-2.6967577E-6,7.384349E-6,7.972169E-6,2.5194468E-5,9.95375E-7,7.862384E-5,5.0036004E-5,-3.883684E-6],"split_indices":[4,56,26,4,27,0,0,26,4,7,0,46,32,4,0,31,49,35,26,0,0,0,17,55,55,0,0,4,49,55,0,59,4,18,4,31,18,0,0,0,0,0,0,0,0,0,0,0,0,0,0,0,0,0,0],"split_type":[0,0,0,0,0,0,0,0,0,0,0,0,0,0,0,0,0,0,0,0,0,0,0,0,0,0,0,0,0,0,0,0,0,0,0,0,0,0,0,0,0,0,0,0,0,0,0,0,0,0,0,0,0,0,0],"sum_hessian":[4.984E3,4.963E3,2.1E1,2.228E3,2.735E3,1E0,2E1,7.31E2,1.497E3,2.076E3,6.59E2,7.26E2,5E0,1.468E3,2.9E1,1.831E3,2.45E2,1.59E2,5.67E2,2E0,3E0,3.7E1,1.431E3,6.38E2,1.193E3,3E0,2.42E2,3.6E1,1.23E2,4.86E2,8.1E1,1.136E3,2.95E2,5.34E2,1.04E2,1.04E2,1.089E3,2.7E1,9E0,1.5E1,1.08E2,4.16E2,7E1,6.83E2,4.53E2,1.08E2,1.87E2,4.43E2,9.1E1,5.8E1,4.6E1,9.4E1,1E1,3E0,1.086E3],"tree_param":{"num_deleted":"0","num_feature":"60","num_nodes":"55","size_leaf_vector":"1"}},{"base_weights":[1.0133554E-5,-1.3279574E-6,9.4350474E-4,8.1184815E-5,-5.014736E-5,1.25794485E-2,-5.613359E-6,6.904028E-5,8.275772E-4,-1.6411219E-5,-1.2211251E-4,1.0571842E-3,-8.896672E-6,7.942499E-6,4.6461166E-5,-2.3945493E-6,2.495756E-3,1.9693198E-5,-7.5698386E-5,-5.057856E-6,-9.177842E-6,-6.895858E-6,7.929014E-5,2.1527839E-4,-8.7584685E-6,1.8121284E-6,5.982598E-4,8.389073E-5,-1.15917275E-4,5.439027E-5,-7.067173E-5,1.5895431E-4,6.1650935E-6,-4.748613E-6,1.3770789E-3,1.3040344E-4,1.7773119E-3,5.950565E-5,6.9985667E-4,-8.072893E-6,-6.913732E-5,3.9539004E-6,-8.487091E-6,-4.0898567E-6,1.5056425E-5,9.970431E-6,1.5471132E-6,-1.9254131E-7,3.295904E-5,-8.123026E-7,1.4926854E-5,2.2909441E-4,-9.013032E-6,-7.135999E-7,3.4368564E-5,1.2418527E-4,-3.990169E-6,5.1431866E-6,-6.229089E-6,9.398497E-6,5.7454337E-5,2.9168634E-6,-6.448874E-6],"categories":[],"categories_nodes":[],"categories_segments":[],"categories_sizes":[],"default_left":[0,0,0,0,0,0,0,0,0,0,0,0,0,0,0,0,0,0,0,0,0,0,0,0,0,0,0,0,0,0,0,0,0,0,0,0,0,0,0,0,0,0,0,0,0,0,0,0,0,0,0,0,0,0,0,0,0,0,0,0,0,0,0],"id":12,"left_children":[1,3,5,7,9,11,-1,13,15,17,19,-1,-1,-1,21,-1,23,25,27,-1,-1,29,31,-1,-1,33,35,37,39,41,43,45,47,49,51,53,55,57,59,-1,61,-1,-1,-1,-1,-1,-1,-1,-1,-1,-1,-1,-1,-1,-1,-1,-1,-1,-1,-1,-1,-1,-1],"loss_changes":[5.2912786E-5,1.9690002E-5,7.3850644E-4,1.6413214E-5,7.453851E-6,5.500482E-4,0E0,3.6203955E-6,4.2472206E-5,4.4794765E-6,1.243272E-6,0E0,0E0,0E0,2.5071672E-6,0E0,4.9092923E-5,1.3458267E-5,5.0931735E-6,0E0,0E0,2.1379265E-6,5.160365E-6,0E0,0E0,1.1402297E-5,2.1281685E-5,2.3616142E-6,1.3373719E-6,1.5572172E-6,1.1331936E-6,2.189573E-6,3.0308145E-6,4.391507E-6,3.077179E-5,2.3466175E-6,1.46286075E-5,1.249975E-6,1.163736E-6,0E0,2.4027474E-6,0E0,0E0,0E0,0E0,0E0,0E0,0E0,0E0,0E0,0E0,0E0,0E0,0E0,0E0,0E0,0E0,0E0,0E0,0E0,0E0,0E0,0E0],"parents":[2147483647,0,0,1,1,2,2,3,3,4,4,5,5,7,7,8,8,9,9,10,10,14,14,16,16,17,17,18,18,21,21,22,22,25,25,26,26,27,27,28,28,29,29,30,30,31,31,32,32,33,33,34,34,35,35,36,36,37,37,38,38,40,40],"right_children":[2,4,6,8,10,12,-1,14,16,18,20,-1,-1,-1,22,-1,24,26,28,-1,-1,30,32,-1,-1,34,36,38,40,42,44,46,48,50,52,54,56,58,60,-1,62,-1,-1,-1,-1,-1,-1,-1,-1,-1,-1,-1,-1,-1,-1,-1,-1,-1,-1,-1,-1,-1,-1],"split_conditions":[9.851915E0,2.4768538E0,2.0521198E1,5.2470484E0,4.7814674E0,1.0996305E1,-5.613359E-6,-6.0552573E-1,6.908721E1,5.958647E1,7.23791E1,1.0571842E-3,-8.896672E-6,7.942499E-6,3.02E0,-2.3945493E-6,1.481E1,5.9126537E1,4.13E0,-5.057856E-6,-9.177842E-6,3.3364124E1,3.74E0,2.1527839E-4,-8.7584685E-6,5.37E0,4.91E0,1.5908588E1,6.582274E1,3.06E0,3.39E0,4.54091E-3,5.6513944E0,3.0541822E-1,4.939555E1,4.52803E0,1.3888252E1,5.682016E0,1.2674691E-1,-8.072893E-6,1.3273277E0,3.9539004E-6,-8.487091E-6,-4.0898567E-6,1.5056425E-5,9.970431E-6,1.5471132E-6,-1.9254131E-7,3.295904E-5,-8.123026E-7,1.4926854E-5,2.2909441E-4,-9.013032E-6,-7.135999E-7,3.4368564E-5,1.2418527E-4,-3.990169E-6,5.1431866E-6,-6.229089E-6,9.398497E-6,5.7454337E-5,2.9168634E-6,-6.448874E-6],"split_indices":[35,55,26,35,46,7,0,55,31,13,31,0,0,0,27,0,18,13,37,0,0,13,37,0,0,38,37,40,13,37,38,7,49,12,13,46,18,7,7,0,7,0,0,0,0,0,0,0,0,0,0,0,0,0,0,0,0,0,0,0,0,0,0],"split_type":[0,0,0,0,0,0,0,0,0,0,0,0,0,0,0,0,0,0,0,0,0,0,0,0,0,0,0,0,0,0,0,0,0,0,0,0,0,0,0,0,0,0,0,0,0,0,0,0,0,0,0,0,0,0,0,0,0,0,0,0,0,0,0],"sum_hessian":[4.945E3,4.886E3,5.9E1,1.816E3,3.07E3,4E0,5.5E1,1.788E3,2.8E1,2.091E3,9.79E2,2E0,2E0,3.58E2,1.43E3,1.9E1,9E0,1.3E3,7.91E2,7.32E2,2.47E2,5.45E2,8.85E2,5E0,4E0,1.262E3,3.8E1,1.59E2,6.32E2,2.78E2,2.67E2,4.23E2,4.62E2,1.257E3,5E0,2.8E1,1E1,1.54E2,5E0,3.19E2,3.13E2,2.51E2,2.7E1,2.6E2,7E0,3.21E2,1.02E2,4.56E2,6E0,1.212E3,4.5E1,1E0,4E0,2.3E1,5E0,7E0,3E0,1.25E2,2.9E1,3E0,2E0,1E2,2.13E2],"tree_param":{"num_deleted":"0","num_feature":"60","num_nodes":"63","size_leaf_vector":"1"}},{"base_weights":[-2.0529937E-7,-8.018981E-6,9.638125E-4,8.151186E-5,-4.9322218E-5,4.4362823E-5,1.2628044E-4,-2.55596E-5,-6.181452E-6,9.267516E-5,-4.1425817E-5,1.6999552E-4,5.832347E-7,1.6822606E-6,-9.55853E-5,1.2532341E-4,-2.552754E-5,-6.046449E-5,9.319224E-6,-3.5749272E-6,1.7845078E-4,-2.42843E-5,1.2357564E-4,6.0551964E-5,-1.4611035E-4,1.1064392E-4,1.7876546E-5,-3.4914294E-6,9.226794E-6,-3.6719216E-6,1.5183136E-5,1.1673934E-5,7.0111346E-6,2.4001389E-5,-7.461141E-5,1.5698968E-4,8.56054E-5,1.7651066E-4,-1.0547894E-4,-7.796964E-6,6.338969E-5,3.900986E-6,1.2299805E-5,4.064744E-6,-1.9135857E-6,-4.174264E-6,2.1573902E-5,9.783434E-6,-6.3647394E-6,-9.3623197E-7,2.0684189E-5,9.421782E-6,-8.319365E-6,4.875677E-5,-7.835558E-6],"categories":[],"categories_nodes":[],"categories_segments":[],"categories_sizes":[],"default_left":[0,0,0,0,0,0,0,0,0,0,0,0,0,0,0,0,0,0,0,0,0,0,0,0,0,0,0,0,0,0,0,0,0,0,0,0,0,0,0,0,0,0,0,0,0,0,0,0,0,0,0,0,0,0,0],"id":13,"left_children":[1,3,-1,5,7,9,11,13,-1,15,17,19,-1,21,23,25,27,29,-1,-1,31,33,35,37,39,41,-1,-1,-1,-1,-1,-1,-1,43,45,-1,47,49,51,-1,53,-1,-1,-1,-1,-1,-1,-1,-1,-1,-1,-1,-1,-1,-1],"loss_changes":[7.434647E-4,1.8249528E-5,0E0,2.5855225E-6,5.9596923E-6,3.5392256E-6,3.535386E-6,4.8836946E-6,0E0,2.1102733E-6,1.3471289E-6,1.0561671E-6,0E0,5.8395403E-6,5.665148E-6,1.4193588E-6,1.1203033E-6,1.3686875E-6,0E0,0E0,1.0064468E-6,3.6979409E-6,3.683781E-5,3.4070981E-6,1.1259517E-6,1.7647731E-6,0E0,0E0,0E0,0E0,0E0,0E0,0E0,2.7753258E-6,3.3817983E-6,0E0,7.5467374E-6,4.82342E-6,1.338189E-6,0E0,5.1697148E-6,0E0,0E0,0E0,0E0,0E0,0E0,0E0,0E0,0E0,0E0,0E0,0E0,0E0,0E0],"parents":[2147483647,0,0,1,1,3,3,4,4,5,5,6,6,7,7,9,9,10,10,11,11,13,13,14,14,15,15,16,16,17,17,20,20,21,21,22,22,23,23,24,24,25,25,33,33,34,34,36,36,37,37,38,38,40,40],"right_children":[2,4,-1,6,8,10,12,14,-1,16,18,20,-1,22,24,26,28,30,-1,-1,32,34,36,38,40,42,-1,-1,-1,-1,-1,-1,-1,44,46,-1,48,50,52,-1,54,-1,-1,-1,-1,-1,-1,-1,-1,-1,-1,-1,-1,-1,-1],"split_conditions":[9.1657627E-1,7.832281E1,9.638125E-4,3.02E0,5.03E0,6.89371E1,3.89E0,1.3273277E0,-6.181452E-6,2.84E0,4.8754934E-2,2.31E0,5.832347E-7,1.1463168E-2,4.12E0,2.409382E-1,3.8464016E-3,2.356E1,9.319224E-6,-3.5749272E-6,2.0460747E-7,1.7285977E-3,2.765613E-3,2.3192312E-1,2.3665083E1,2.74E0,1.7876546E-5,-3.4914294E-6,9.226794E-6,-3.6719216E-6,1.5183136E-5,1.1673934E-5,7.0111346E-6,1.234268E1,3.6507833E-1,1.5698968E-4,3.3394775E1,5.770274E0,3.42E0,-7.796964E-6,4.24E0,3.900986E-6,1.2299805E-5,4.064744E-6,-1.9135857E-6,-4.174264E-6,2.1573902E-5,9.783434E-6,-6.3647394E-6,-9.3623197E-7,2.0684189E-5,9.421782E-6,-8.319365E-6,4.875677E-5,-7.835558E-6],"split_indices":[4,16,0,46,27,16,37,7,0,37,4,37,0,12,27,4,4,26,0,0,4,4,4,4,32,38,0,0,0,0,0,0,0,33,4,0,26,35,27,0,37,0,0,0,0,0,0,0,0,0,0,0,0,0,0],"split_type":[0,0,0,0,0,0,0,0,0,0,0,0,0,0,0,0,0,0,0,0,0,0,0,0,0,0,0,0,0,0,0,0,0,0,0,0,0,0,0,0,0,0,0,0,0,0,0,0,0,0,0,0,0,0,0],"sum_hessian":[4.934E3,4.933E3,1E0,1.557E3,3.376E3,8.52E2,7.05E2,2.559E3,8.17E2,5.45E2,3.07E2,5.1E2,1.95E2,1.843E3,7.16E2,4.27E2,1.18E2,2.84E2,2.3E1,1.7E1,4.93E2,1.52E3,3.23E2,1.75E2,5.41E2,4.03E2,2.4E1,9.8E1,2E1,2.75E2,9E0,2E2,2.93E2,7.76E2,7.44E2,3E0,3.2E2,1.03E2,7.2E1,5.17E2,2.4E1,3.26E2,7.7E1,4.04E2,3.72E2,7.32E2,1.2E1,2.11E2,1.09E2,5.7E1,4.6E1,1.2E1,6E1,4E0,2E1],"tree_param":{"num_deleted":"0","num_feature":"60","num_nodes":"55","size_leaf_vector":"1"}},{"base_weights":[6.30357E-6,-1.2582781E-6,9.397172E-4,-5.342141E-6,1.1889014E-3,5.676039E-5,-6.131816E-5,-8.003661E-6,5.6931237E-4,5.109441E-5,4.0942666E-4,-1.7709204E-5,-1.1122956E-4,9.1080954E-5,7.900398E-6,3.7658943E-3,1.2530676E-7,2.8687584E-5,-8.689921E-5,-8.855756E-5,-8.050295E-6,7.772081E-5,1.1869947E-5,5.3320735E-5,-5.3895696E-5,-1.6035992E-6,2.521287E-4,1.9182948E-5,6.2746624E-4,-1.0079615E-4,6.663331E-5,-3.4153774E-5,-6.0577663E-6,8.333892E-7,5.282051E-6,-2.1407918E-6,4.02313E-6,-3.6111182E-6,5.2892997E-6,2.197906E-6,-8.894024E-6,1.5857905E-4,-6.1712794E-6,-2.5850022E-6,-7.4185787E-6,2.9233914E-5,-5.394964E-6,-2.3852624E-6,1.0552521E-4],"categories":[],"categories_nodes":[],"categories_segments":[],"categories_sizes":[],"default_left":[0,0,0,0,0,0,0,0,0,0,0,0,0,0,0,0,0,0,0,0,0,0,0,0,0,0,0,0,0,0,0,0,0,0,0,0,0,0,0,0,0,0,0,0,0,0,0,0,0],"id":14,"left_children":[1,3,-1,5,7,9,11,-1,-1,13,15,17,19,21,23,25,-1,27,29,31,-1,33,-1,35,37,-1,-1,39,41,43,45,47,-1,-1,-1,-1,-1,-1,-1,-1,-1,-1,-1,-1,-1,-1,-1,-1,-1],"loss_changes":[7.0626516E-4,2.4162782E-5,0E0,1.7224836E-5,2.3567396E-4,4.672852E-6,5.6702083E-6,0E0,0E0,3.994246E-6,5.052574E-5,4.471083E-6,1.3569042E-6,2.3292996E-6,3.1268416E-6,1.9556868E-5,0E0,4.7344015E-6,1.199417E-6,1.4802322E-6,0E0,1.8767232E-6,0E0,1.6786319E-6,1.3889168E-6,0E0,0E0,4.0210534E-6,2.5226069E-5,1.1905777E-6,4.312625E-6,9.255612E-6,0E0,0E0,0E0,0E0,0E0,0E0,0E0,0E0,0E0,0E0,0E0,0E0,0E0,0E0,0E0,0E0,0E0],"parents":[2147483647,0,0,1,1,3,3,4,4,5,5,6,6,9,9,10,10,11,11,12,12,13,13,14,14,15,15,17,17,18,18,19,19,21,21,23,23,24,24,27,27,28,28,29,29,30,30,31,31],"right_children":[2,4,-1,6,8,10,12,-1,-1,14,16,18,20,22,24,26,-1,28,30,32,-1,34,-1,36,38,-1,-1,40,42,44,46,48,-1,-1,-1,-1,-1,-1,-1,-1,-1,-1,-1,-1,-1,-1,-1,-1,-1],"split_conditions":[9.1657627E-1,8.3453876E-1,9.397172E-4,5.050662E1,4.735679E1,7.0806625E1,4.77E0,-8.003661E-6,5.6931237E-4,3.917861E1,2.0460747E-7,2.4852643E-5,7.1742805E1,6.430679E-2,1.7285977E-3,4.8876343E1,1.2530676E-7,4.76E0,7.1424736E1,9.1076076E-2,-8.050295E-6,2.58E0,1.1869947E-5,3.11E0,4.879969E0,-1.6035992E-6,2.521287E-4,2.2372602E-1,1.2319592E1,5.70907E1,8.795343E-1,4.5813035E-2,-6.0577663E-6,8.333892E-7,5.282051E-6,-2.1407918E-6,4.02313E-6,-3.6111182E-6,5.2892997E-6,2.197906E-6,-8.894024E-6,1.5857905E-4,-6.1712794E-6,-2.5850022E-6,-7.4185787E-6,2.9233914E-5,-5.394964E-6,-2.3852624E-6,1.0552521E-4],"split_indices":[4,4,0,13,51,31,27,0,0,13,4,58,31,4,4,13,0,27,13,7,0,38,0,38,55,0,0,4,33,31,7,57,0,0,0,0,0,0,0,0,0,0,0,0,0,0,0,0,0],"split_type":[0,0,0,0,0,0,0,0,0,0,0,0,0,0,0,0,0,0,0,0,0,0,0,0,0,0,0,0,0,0,0,0,0,0,0,0,0,0,0,0,0,0,0,0,0,0,0,0,0],"sum_hessian":[4.97E3,4.969E3,1E0,4.953E3,1.6E1,2.348E3,2.605E3,1.5E1,1E0,2.312E3,3.6E1,1.391E3,1.214E3,1.2E3,1.112E3,3E0,3.3E1,8.33E2,5.58E2,8.36E2,3.78E2,1.101E3,9.9E1,6.41E2,4.71E2,1E0,2E0,8.21E2,1.2E1,5.12E2,4.6E1,3.14E2,5.22E2,3.46E2,7.55E2,1.41E2,5E2,4.23E2,4.8E1,7.3E2,9.1E1,2E0,1E1,2.53E2,2.59E2,1.1E1,3.5E1,3.13E2,1E0],"tree_param":{"num_deleted":"0","num_feature":"60","num_nodes":"49","size_leaf_vector":"1"}},{"base_weights":[4.0883606E-6,-3.3947683E-6,9.1622426E-4,6.843312E-5,-4.4871096E-5,6.228858E-5,5.602367E-4,-4.7935478E-6,-1.0587884E-4,1.1210353E-4,3.1017113E-5,-4.5947672E-6,1.9707903E-3,9.242261E-6,-1.2507603E-4,-6.795826E-5,-6.4524525E-6,1.3743457E-4,-1.432336E-6,2.4437255E-5,1.8239976E-5,1.7920091E-4,-6.7567557E-6,-1.7919418E-5,7.98312E-5,5.6675244E-6,-7.950192E-6,-7.628662E-5,1.8919903E-4,1.2738693E-4,1.486244E-4,-1.5354773E-5,2.9761371E-5,7.4805744E-6,-2.7527009E-5,2.2730757E-4,1.1373917E-5,-4.1754265E-6,2.2280784E-4,9.0514324E-5,-2.7949552E-6,2.5985312E-6,8.530228E-6,4.342924E-6,1.9594522E-8,1.160973E-6,-3.0354956E-6,5.6886815E-6,6.1319515E-5,9.893135E-6,-2.9554215E-6,-8.3394883E-7,6.5441905E-5],"categories":[],"categories_nodes":[],"categories_segments":[],"categories_sizes":[],"default_left":[0,0,0,0,0,0,0,0,0,0,0,0,0,0,0,0,0,0,0,0,0,0,0,0,0,0,0,0,0,0,0,0,0,0,0,0,0,0,0,0,0,0,0,0,0,0,0,0,0,0,0,0,0],"id":15,"left_children":[1,3,-1,5,7,9,11,13,15,17,19,-1,21,23,25,27,-1,29,-1,31,-1,-1,-1,33,35,-1,-1,37,39,41,-1,-1,43,-1,45,47,49,-1,51,-1,-1,-1,-1,-1,-1,-1,-1,-1,-1,-1,-1,-1,-1],"loss_changes":[6.715481E-4,1.4592001E-5,0E0,5.3833755E-6,7.5913435E-6,2.7569213E-6,2.0418185E-5,3.166647E-6,1.0728209E-6,2.4390702E-6,2.3849875E-6,0E0,2.4265692E-5,3.2225184E-6,1.6035251E-6,1.0188892E-6,0E0,1.6114522E-5,0E0,1.8978166E-6,0E0,0E0,0E0,1.9581341E-6,4.712168E-6,0E0,0E0,1.0014223E-6,6.0610755E-6,1.875017E-6,0E0,0E0,1.7674319E-6,0E0,1.936228E-6,1.6648079E-5,4.217829E-6,0E0,2.882819E-6,0E0,0E0,0E0,0E0,0E0,0E0,0E0,0E0,0E0,0E0,0E0,0E0,0E0,0E0],"parents":[2147483647,0,0,1,1,3,3,4,4,5,5,6,6,7,7,8,8,9,9,10,10,12,12,13,13,14,14,15,15,17,17,19,19,23,23,24,24,27,27,28,28,29,29,32,32,34,34,35,35,36,36,38,38],"right_children":[2,4,-1,6,8,10,12,14,16,18,20,-1,22,24,26,28,-1,30,-1,32,-1,-1,-1,34,36,-1,-1,38,40,42,-1,-1,44,-1,46,48,50,-1,52,-1,-1,-1,-1,-1,-1,-1,-1,-1,-1,-1,-1,-1,-1],"split_conditions":[9.1657627E-1,2.4768538E0,9.1622426E-4,5.28E0,4.77E0,5.535604E-5,1.3418307E1,5.952285E0,1.3379479E1,4.56E0,2.4857217E-1,-4.5947672E-6,5.4642212E1,5.2899303E0,3.53E0,1.4263266E1,-6.4524525E-6,3.3848633E1,-1.432336E-6,7.2114206E-5,1.8239976E-5,1.7920091E-4,-6.7567557E-6,1.7527256E1,5.9837658E1,5.6675244E-6,-7.950192E-6,8.34458E0,1.4380779E1,2.916086E0,1.486244E-4,-1.5354773E-5,9.485925E0,7.4805744E-6,1.601655E-3,4.64E0,4.11E0,-4.1754265E-6,3.549828E-1,9.0514324E-5,-2.7949552E-6,2.5985312E-6,8.530228E-6,4.342924E-6,1.9594522E-8,1.160973E-6,-3.0354956E-6,5.6886815E-6,6.1319515E-5,9.893135E-6,-2.9554215E-6,-8.3394883E-7,6.5441905E-5],"split_indices":[4,55,0,47,47,4,40,7,59,27,4,0,13,49,27,40,0,26,0,4,0,0,0,17,13,0,0,53,40,46,0,0,33,0,4,47,37,0,5,0,0,0,0,0,0,0,0,0,0,0,0,0,0],"split_type":[0,0,0,0,0,0,0,0,0,0,0,0,0,0,0,0,0,0,0,0,0,0,0,0,0,0,0,0,0,0,0,0,0,0,0,0,0,0,0,0,0,0,0,0,0,0,0,0,0,0,0,0,0],"sum_hessian":[4.897E3,4.896E3,1E0,1.792E3,3.104E3,1.771E3,2.1E1,1.874E3,1.23E3,6.82E2,1.089E3,1.5E1,6E0,1.679E3,1.95E2,4.68E2,7.62E2,5.78E2,1.04E2,1.069E3,2E1,3E0,3E0,1.213E3,4.66E2,2.4E1,1.71E2,4.54E2,1.4E1,5.77E2,1E0,1.6E1,1.053E3,6.5E1,1.148E3,1.47E2,3.19E2,4.44E2,1E1,1E0,1.3E1,2.11E2,3.66E2,3.57E2,6.96E2,4.54E2,6.94E2,1.33E2,1.4E1,8.7E1,2.32E2,9E0,1E0],"tree_param":{"num_deleted":"0","num_feature":"60","num_nodes":"53","size_leaf_vector":"1"}},{"base_weights":[1.830803E-7,-7.081112E-6,8.933187E-4,4.921313E-5,-5.6983416E-5,4.3610544E-5,5.599932E-4,-4.023096E-5,-7.3477545E-6,3.8709986E-5,1.7035192E-5,2.4131693E-4,-1.0417074E-6,-9.695246E-6,-8.798065E-5,9.206843E-5,9.814468E-6,-4.5990975E-5,1.1556914E-4,4.2601674E-5,-6.0036054E-6,1.107302E-4,-2.459288E-6,-1.2050318E-5,1.5775346E-5,-5.1884686E-5,2.5556355E-5,1.4559059E-4,7.77747E-5,1.9703196E-4,-1.069931E-4,2.8658576E-6,7.707209E-6,5.0539793E-6,4.9843198E-8,4.878627E-8,-4.2534944E-6,9.759268E-6,-4.9494715E-6,2.5363905E-5,-1.7462519E-6,5.2630317E-6,-8.596174E-6],"categories":[],"categories_nodes":[],"categories_segments":[],"categories_sizes":[],"default_left":[0,0,0,0,0,0,0,0,0,0,0,0,0,0,0,0,0,0,0,0,0,0,0,0,0,0,0,0,0,0,0,0,0,0,0,0,0,0,0,0,0,0,0],"id":16,"left_children":[1,3,-1,5,7,9,11,13,-1,15,-1,-1,-1,17,19,21,23,25,27,29,-1,31,-1,-1,33,35,-1,-1,37,39,41,-1,-1,-1,-1,-1,-1,-1,-1,-1,-1,-1,-1],"loss_changes":[6.3866103E-4,1.382132E-5,0E0,6.5918034E-6,3.924987E-6,3.3179645E-6,6.20508E-5,3.2069026E-6,0E0,3.4712748E-6,0E0,0E0,0E0,6.1113483E-6,3.6006309E-6,2.0905632E-6,2.1896558E-6,3.4479185E-6,3.1689633E-5,3.948415E-6,0E0,1.6120575E-6,0E0,0E0,1.8013927E-6,1.8104001E-6,0E0,0E0,6.2247645E-6,6.0626735E-6,1.2171059E-6,0E0,0E0,0E0,0E0,0E0,0E0,0E0,0E0,0E0,0E0,0E0,0E0],"parents":[2147483647,0,0,1,1,3,3,4,4,5,5,6,6,7,7,9,9,13,13,14,14,15,15,16,16,17,17,18,18,19,19,21,21,24,24,25,25,28,28,29,29,30,30],"right_children":[2,4,-1,6,8,10,12,14,-1,16,-1,-1,-1,18,20,22,24,26,28,30,-1,32,-1,-1,34,36,-1,-1,38,40,42,-1,-1,-1,-1,-1,-1,-1,-1,-1,-1,-1,-1],"split_conditions":[9.1657627E-1,5.0348446E1,8.933187E-4,3.576985E1,7.154E1,2.4857217E-1,2.0460747E-7,1.3273277E0,-7.3477545E-6,5.535604E-5,1.7035192E-5,2.4131693E-4,-1.0417074E-6,8.024218E-2,4.12E0,6.180464E1,8.435466E-5,3.2379624E-1,2.765613E-3,2.3192312E-1,-6.0036054E-6,9.04E0,-2.459288E-6,-1.2050318E-5,-4.6252164E-1,7.223654E-4,2.5556355E-5,1.4559059E-4,3.3394775E1,2.1042444E1,3.53E0,2.8658576E-6,7.707209E-6,5.0539793E-6,4.9843198E-8,4.878627E-8,-4.2534944E-6,9.759268E-6,-4.9494715E-6,2.5363905E-5,-1.7462519E-6,5.2630317E-6,-8.596174E-6],"split_indices":[4,13,0,26,31,4,4,7,0,4,0,0,0,5,27,31,4,4,4,4,0,18,0,0,55,4,0,0,26,39,27,0,0,0,0,0,0,0,0,0,0,0,0],"split_type":[0,0,0,0,0,0,0,0,0,0,0,0,0,0,0,0,0,0,0,0,0,0,0,0,0,0,0,0,0,0,0,0,0,0,0,0,0,0,0,0,0,0,0],"sum_hessian":[4.919E3,4.918E3,1E0,2.311E3,2.607E3,2.287E3,2.4E1,2.199E3,4.08E2,2.251E3,3.6E1,2E0,2.2E1,1.342E3,8.57E2,7.9E2,1.461E3,1.041E3,3.01E2,1.69E2,6.88E2,6.98E2,9.2E1,3.3E1,1.428E3,1.031E3,1E1,3E0,2.98E2,8.3E1,8.6E1,3.14E2,3.84E2,2.1E2,1.218E3,3.98E2,6.33E2,1.79E2,1.19E2,3.5E1,4.8E1,2E1,6.6E1],"tree_param":{"num_deleted":"0","num_feature":"60","num_nodes":"43","size_leaf_vector":"1"}},{"base_weights":[7.014798E-7,-6.3968755E-6,8.7098574E-4,5.065571E-5,-5.619845E-5,4.5383884E-5,5.915908E-4,-3.6682108E-5,-5.548905E-6,9.085137E-5,1.5602907E-5,2.3327302E-4,-2.453457E-6,-4.7744875E-6,-9.770305E-5,-1.7833167E-5,1.1131632E-4,5.516009E-5,-3.8601665E-5,-1.9771418E-5,5.102527E-4,9.684359E-6,-6.218312E-6,1.243537E-5,-6.3195104E-5,9.730357E-5,1.4060201E-5,-3.8751077E-6,8.9342E-5,-5.0368773E-5,7.880842E-6,-3.140573E-5,2.4573688E-4,1.051087E-3,-4.4487633E-6,1.117275E-4,-8.375058E-5,-7.474409E-6,2.135891E-6,6.332038E-6,2.2862848E-6,1.0525034E-5,1.8134855E-6,-3.155955E-6,4.6635428E-6,-2.3578853E-6,4.895311E-6,6.4927613E-6,4.3342705E-5,8.849621E-5,2.4213585E-5,-6.99556E-6,1.7617755E-5,1.1167017E-5,-6.63602E-6],"categories":[],"categories_nodes":[],"categories_segments":[],"categories_sizes":[],"default_left":[0,0,0,0,0,0,0,0,0,0,0,0,0,0,0,0,0,0,0,0,0,0,0,0,0,0,0,0,0,0,0,0,0,0,0,0,0,0,0,0,0,0,0,0,0,0,0,0,0,0,0,0,0,0,0],"id":17,"left_children":[1,3,-1,5,7,9,11,13,-1,15,17,-1,-1,19,21,23,25,27,29,31,33,35,-1,-1,37,39,-1,-1,41,43,-1,45,47,49,-1,51,53,-1,-1,-1,-1,-1,-1,-1,-1,-1,-1,-1,-1,-1,-1,-1,-1,-1,-1],"loss_changes":[6.0709135E-4,1.3947989E-5,0E0,6.4978767E-6,2.798035E-6,3.0682504E-6,5.7648158E-5,3.7650948E-6,0E0,1.997114E-6,2.9418002E-6,0E0,0E0,9.827072E-6,1.902431E-6,1.7447011E-6,1.7699867E-6,3.602901E-6,1.3448064E-6,3.8257294E-6,1.1760511E-5,1.2774318E-6,0E0,0E0,1.1305506E-6,1.0519011E-6,0E0,0E0,4.049801E-6,1.0076915E-6,0E0,2.4183655E-6,3.6301908E-6,6.8843856E-6,0E0,3.924576E-6,1.0823147E-6,0E0,0E0,0E0,0E0,0E0,0E0,0E0,0E0,0E0,0E0,0E0,0E0,0E0,0E0,0E0,0E0,0E0,0E0],"parents":[2147483647,0,0,1,1,3,3,4,4,5,5,6,6,7,7,9,9,10,10,13,13,14,14,15,15,16,16,17,17,18,18,19,19,20,20,21,21,24,24,25,25,28,28,29,29,31,31,32,32,33,33,35,35,36,36],"right_children":[2,4,-1,6,8,10,12,14,-1,16,18,-1,-1,20,22,24,26,28,30,32,34,36,-1,-1,38,40,-1,-1,42,44,-1,46,48,50,-1,52,54,-1,-1,-1,-1,-1,-1,-1,-1,-1,-1,-1,-1,-1,-1,-1,-1,-1,-1],"split_conditions":[9.1657627E-1,4.9997837E1,8.7098574E-4,3.569995E1,3.4924088E1,3.535945E1,2.0460747E-7,8.9919615E-1,-5.548905E-6,7.0092163E0,1.7285977E-3,2.3327302E-4,-2.453457E-6,7.981133E-1,4.12E0,-1.0268698E0,6.430679E-2,2.081E1,2.0951831E-1,7.6144905E0,6.584E1,2.160213E-1,-6.218312E-6,1.243537E-5,3.8464016E-3,1.916483E1,1.4060201E-5,-3.8751077E-6,3.4E0,4.879969E0,7.880842E-6,6.8606224E1,1.9667096E-1,1.6264374E0,-4.4487633E-6,6.736796E0,6.6419153E0,-7.474409E-6,2.135891E-6,6.332038E-6,2.2862848E-6,1.0525034E-5,1.8134855E-6,-3.155955E-6,4.6635428E-6,-2.3578853E-6,4.895311E-6,6.4927613E-6,4.3342705E-5,8.849621E-5,2.4213585E-5,-6.99556E-6,1.7617755E-5,1.1167017E-5,-6.63602E-6],"split_indices":[4,13,0,26,26,13,4,5,0,18,4,0,0,5,27,55,4,26,4,35,31,4,0,0,4,32,0,0,37,55,0,31,4,7,0,35,35,0,0,0,0,0,0,0,0,0,0,0,0,0,0,0,0,0,0],"split_type":[0,0,0,0,0,0,0,0,0,0,0,0,0,0,0,0,0,0,0,0,0,0,0,0,0,0,0,0,0,0,0,0,0,0,0,0,0,0,0,0,0,0,0,0,0,0,0,0,0,0,0,0,0,0,0],"sum_hessian":[4.908E3,4.907E3,1E0,2.287E3,2.62E3,2.266E3,2.1E1,1.933E3,6.87E2,8.96E2,1.37E3,2E0,1.9E1,1.27E3,6.63E2,1.42E2,7.54E2,7.92E2,5.78E2,1.235E3,3.5E1,1.32E2,5.31E2,2E1,1.22E2,6.98E2,5.6E1,1.62E2,6.3E2,5.46E2,3.2E1,1.184E3,5.1E1,1.8E1,1.7E1,6.3E1,6.9E1,6.7E1,5.5E1,4.44E2,2.54E2,1.91E2,4.39E2,5.02E2,4.4E1,1.056E3,1.28E2,4.4E1,7E0,7E0,1.1E1,3.1E1,3.2E1,9E0,6E1],"tree_param":{"num_deleted":"0","num_feature":"60","num_nodes":"55","size_leaf_vector":"1"}},{"base_weights":[-9.13584E-7,-4.989576E-6,1.174944E-3,2.8055347E-5,-7.6512624E-5,5.556591E-4,-7.0384845E-6,8.3703584E-5,-3.9526182E-7,-3.0785206E-5,-1.03374055E-4,5.536371E-5,6.906123E-6,-4.0334867E-6,4.7152716E-4,-4.52458E-5,9.997652E-4,-5.497555E-6,8.208233E-5,1.4495057E-5,6.57825E-6,4.8979564E-5,-3.1338262E-5,-1.6755788E-6,1.1977985E-3,1.4999513E-7,-8.291408E-5,1.2977692E-4,1.7625537E-6,-5.719128E-6,6.405273E-4,5.2544863E-5,-1.0126764E-5,4.1976848E-5,1.3444921E-3,-3.992433E-6,-1.2940018E-7,8.523117E-7,1.03955055E-4,-5.097573E-6,6.7771894E-6,6.1520106E-5,-3.872643E-6,5.713255E-6,-7.666153E-7,-4.840453E-7,4.211578E-6,1.3304404E-4,9.3677954E-7,1.6345062E-6,-6.0348643E-6],"categories":[],"categories_nodes":[],"categories_segments":[],"categories_sizes":[],"default_left":[0,0,0,0,0,0,0,0,0,0,0,0,0,0,0,0,0,0,0,0,0,0,0,0,0,0,0,0,0,0,0,0,0,0,0,0,0,0,0,0,0,0,0,0,0,0,0,0,0,0,0],"id":18,"left_children":[1,3,5,7,9,-1,-1,11,13,15,17,19,-1,21,23,25,27,-1,29,31,-1,33,35,-1,37,-1,39,-1,-1,-1,41,43,-1,45,47,-1,49,-1,-1,-1,-1,-1,-1,-1,-1,-1,-1,-1,-1,-1,-1],"loss_changes":[2.358637E-5,1.1592621E-5,2.2385428E-4,5.3117583E-6,1.9006884E-6,0E0,0E0,1.7427765E-6,3.8152702E-6,8.6141E-6,1.1995044E-6,2.3275477E-6,0E0,3.1932937E-6,6.2756576E-6,1.0324936E-6,1.2221671E-5,0E0,3.8035691E-6,4.040528E-6,0E0,6.7476435E-6,2.2043068E-6,0E0,7.24876E-6,0E0,1.3404972E-6,0E0,0E0,0E0,3.906963E-6,1.7445401E-6,0E0,1.6313545E-6,6.9309904E-6,0E0,3.5137875E-6,0E0,0E0,0E0,0E0,0E0,0E0,0E0,0E0,0E0,0E0,0E0,0E0,0E0,0E0],"parents":[2147483647,0,0,1,1,2,2,3,3,4,4,7,7,8,8,9,9,10,10,11,11,13,13,14,14,15,15,16,16,18,18,19,19,21,21,22,22,24,24,26,26,30,30,31,31,33,33,34,34,36,36],"right_children":[2,4,6,8,10,-1,-1,12,14,16,18,20,-1,22,24,26,28,-1,30,32,-1,34,36,-1,38,-1,40,-1,-1,-1,42,44,-1,46,48,-1,50,-1,-1,-1,-1,-1,-1,-1,-1,-1,-1,-1,-1,-1,-1],"split_conditions":[8.3453876E-1,4.69E0,1.933E1,3.8669167E1,3.8464016E-3,5.556591E-4,-7.0384845E-6,9.04E0,4.68E0,7.5638495E-2,5.8050805E-1,4.571979E-3,6.906123E-6,1.601655E-3,1.3588674E1,6.885178E1,5.5737186E1,-5.497555E-6,1.5184622E1,1.8885715E-3,6.57825E-6,3.5241795E1,1.2333821E-1,-1.6755788E-6,1.343E1,1.4999513E-7,3.017211E-3,1.2977692E-4,1.7625537E-6,-5.719128E-6,6.287468E-1,6.3019295E1,-1.0126764E-5,1.045E1,4.9997837E1,-3.992433E-6,5.5649667E0,8.523117E-7,1.03955055E-4,-5.097573E-6,6.7771894E-6,6.1520106E-5,-3.872643E-6,5.713255E-6,-7.666153E-7,-4.840453E-7,4.211578E-6,1.3304404E-4,9.3677954E-7,1.6345062E-6,-6.0348643E-6],"split_indices":[4,27,26,13,4,0,0,18,27,8,4,4,0,4,54,31,13,0,54,4,0,26,7,0,18,0,4,0,0,0,4,16,0,18,13,0,7,0,0,0,0,0,0,0,0,0,0,0,0,0,0],"split_type":[0,0,0,0,0,0,0,0,0,0,0,0,0,0,0,0,0,0,0,0,0,0,0,0,0,0,0,0,0,0,0,0,0,0,0,0,0,0,0,0,0,0,0,0,0,0,0,0,0,0,0],"sum_hessian":[4.919E3,4.903E3,1.6E1,3.354E3,1.549E3,1E0,1.5E1,1.134E3,2.22E3,5.74E2,9.75E2,7.47E2,3.87E2,2.204E3,1.6E1,5.67E2,7E0,9.42E2,3.3E1,4.87E2,2.6E2,7.49E2,1.455E3,1E1,6E0,2.49E2,3.18E2,2E0,5E0,2.5E1,8E0,4.15E2,7.2E1,7.46E2,3E0,5.69E2,8.86E2,3E0,3E0,2.93E2,2.5E1,4E0,4E0,2.17E2,1.98E2,3.36E2,4.1E2,1E0,2E0,6.97E2,1.89E2],"tree_param":{"num_deleted":"0","num_feature":"60","num_nodes":"51","size_leaf_vector":"1"}},{"base_weights":[-8.95015E-7,-4.874444E-6,9.2919706E-4,4.4463417E-5,-4.9192688E-5,5.417677E-4,-5.393922E-6,4.110654E-5,4.1048334E-4,-2.4773024E-5,-5.269588E-6,7.840844E-5,9.121832E-6,1.2971794E-4,8.5785805E-6,9.232301E-6,-6.1371655E-5,2.9658248E-5,1.2737862E-4,-4.5658682E-5,3.8953604E-5,-3.1623716E-5,1.8100327E-4,-7.290576E-5,1.565496E-4,-1.3834297E-5,5.29768E-6,7.0014125E-6,-2.7762023E-6,-1.5021701E-5,-6.5789004E-6,7.073489E-6,-7.027475E-6,2.0946794E-4,-1.9562528E-6,1.2674893E-4,1.4031265E-4,2.472753E-5,-1.0580616E-4,-6.0748534E-6,4.1570078E-4,1.3559181E-6,-9.407139E-6,-1.7017422E-6,1.0686845E-5,-6.964298E-6,6.7833724E-7,-1.7176881E-6,9.231986E-5,-5.0133544E-6,1.4321538E-5,4.3215578E-6,-4.694059E-6,-5.987276E-6,5.210502E-6,1.1276413E-5,6.313191E-5],"categories":[],"categories_nodes":[],"categories_segments":[],"categories_sizes":[],"default_left":[0,0,0,0,0,0,0,0,0,0,0,0,0,0,0,0,0,0,0,0,0,0,0,0,0,0,0,0,0,0,0,0,0,0,0,0,0,0,0,0,0,0,0,0,0,0,0,0,0,0,0,0,0,0,0,0,0],"id":19,"left_children":[1,3,5,7,9,-1,-1,11,13,15,-1,17,19,-1,-1,21,23,25,27,29,31,33,35,37,39,41,-1,-1,-1,43,-1,-1,45,47,-1,-1,49,51,53,-1,55,-1,-1,-1,-1,-1,-1,-1,-1,-1,-1,-1,-1,-1,-1,-1,-1],"loss_changes":[1.8244218E-5,1.0733859E-5,2.1691096E-4,2.8373565E-6,3.5463186E-6,0E0,0E0,2.7469723E-6,1.0511703E-5,2.245732E-6,0E0,2.5339277E-6,2.0298205E-6,0E0,0E0,6.5744575E-6,2.1956666E-6,1.7734269E-6,1.2340097E-6,1.150975E-6,3.7908922E-6,1.3772377E-6,1.6885557E-5,2.6558728E-6,3.2209755E-6,2.439295E-6,0E0,0E0,0E0,1.4164866E-6,0E0,0E0,1.5163004E-6,9.243165E-6,0E0,0E0,6.2859626E-6,1.537699E-6,1.821667E-6,0E0,3.4197178E-6,0E0,0E0,0E0,0E0,0E0,0E0,0E0,0E0,0E0,0E0,0E0,0E0,0E0,0E0,0E0,0E0],"parents":[2147483647,0,0,1,1,2,2,3,3,4,4,7,7,8,8,9,9,11,11,12,12,15,15,16,16,17,17,18,18,19,19,20,20,21,21,22,22,23,23,24,24,25,25,29,29,32,32,33,33,36,36,37,37,38,38,40,40],"right_children":[2,4,6,8,10,-1,-1,12,14,16,-1,18,20,-1,-1,22,24,26,28,30,32,34,36,38,40,42,-1,-1,-1,44,-1,-1,46,48,-1,-1,50,52,54,-1,56,-1,-1,-1,-1,-1,-1,-1,-1,-1,-1,-1,-1,-1,-1,-1,-1],"split_conditions":[8.3453876E-1,8.534845E1,1.933E1,5.4086366E0,5.03E0,5.417677E-4,-5.393922E-6,1.6111685E1,2.0460747E-7,6.724327E-2,-5.269588E-6,2.77E0,9.79E0,1.2971794E-4,8.5785805E-6,8.024218E-2,2.3665083E1,4.571979E-3,3.047E1,3.17E0,3.66E0,1.1405789E1,2.765613E-3,4.12E0,3.286593E1,1.8885715E-3,5.29768E-6,7.0014125E-6,-2.7762023E-6,2.149E1,-6.5789004E-6,7.073489E-6,1.1243327E1,5.770274E0,-1.9562528E-6,1.2674893E-4,9.3170876E1,2.2372602E-1,1.0105454E0,-6.0748534E-6,3.9287215E-1,1.3559181E-6,-9.407139E-6,-1.7017422E-6,1.0686845E-5,-6.964298E-6,6.7833724E-7,-1.7176881E-6,9.231986E-5,-5.0133544E-6,1.4321538E-5,4.3215578E-6,-4.694059E-6,-5.987276E-6,5.210502E-6,1.1276413E-5,6.313191E-5],"split_indices":[4,16,26,35,38,0,0,56,4,4,0,46,18,0,0,5,39,4,26,37,37,54,4,38,26,4,0,0,0,26,0,0,18,35,0,0,16,4,58,0,4,0,0,0,0,0,0,0,0,0,0,0,0,0,0,0,0],"split_type":[0,0,0,0,0,0,0,0,0,0,0,0,0,0,0,0,0,0,0,0,0,0,0,0,0,0,0,0,0,0,0,0,0,0,0,0,0,0,0,0,0,0,0,0,0,0,0,0,0,0,0,0,0,0,0,0,0],"sum_hessian":[4.927E3,4.907E3,2E1,2.322E3,2.585E3,1E0,1.9E1,2.302E3,2E1,1.803E3,7.82E2,1.062E3,1.24E3,1E0,1.9E1,9.35E2,8.68E2,5.33E2,5.29E2,4.37E2,8.03E2,7.56E2,1.79E2,8.25E2,4.3E1,3.4E2,1.93E2,4.95E2,3.4E1,3.23E2,1.14E2,2.48E2,5.55E2,2.2E1,7.34E2,2E0,1.77E2,2.08E2,6.17E2,2.1E1,2.2E1,2.76E2,6.4E1,2.99E2,2.4E1,7.4E1,4.81E2,2E1,2E0,6.7E1,1.1E2,1.37E2,7.1E1,5.79E2,3.8E1,1.9E1,3E0],"tree_param":{"num_deleted":"0","num_feature":"60","num_nodes":"57","size_leaf_vector":"1"}},{"base_weights":[2.2010838E-6,-1.8209937E-6,1.1012232E-3,5.687118E-5,-3.5800087E-5,5.2822346E-4,-3.8438825E-6,4.9217153E-5,5.078388E-4,-9.246775E-6,-4.653366E-6,9.489963E-5,2.1098449E-5,-4.094681E-6,2.1398396E-3,1.907178E-5,-7.4912015E-5,7.485849E-5,8.964998E-6,-2.1610442E-6,4.9563503E-5,1.7784564E-4,-8.323084E-6,3.3358097E-6,9.404368E-4,3.4199467E-5,-5.0942763E-6,4.9532605E-6,-2.8214252E-5,7.925453E-5,-2.4956569E-6,-7.930927E-6,3.036483E-4,1.9829862E-3,3.3317902E-4,1.4383745E-4,-3.548657E-6,-7.372349E-6,4.5775405E-6,3.668858E-6,8.8231754E-5,-7.236157E-7,2.2420016E-5,9.119426E-6,4.8146805E-5,1.1237329E-4,-3.3212352E-6,-6.0200177E-6,3.7486923E-5,1.8177551E-6,3.243154E-5],"categories":[],"categories_nodes":[],"categories_segments":[],"categories_sizes":[],"default_left":[0,0,0,0,0,0,0,0,0,0,0,0,0,0,0,0,0,0,0,0,0,0,0,0,0,0,0,0,0,0,0,0,0,0,0,0,0,0,0,0,0,0,0,0,0,0,0,0,0,0,0],"id":20,"left_children":[1,3,5,7,9,-1,-1,11,13,15,-1,17,19,-1,21,23,25,27,-1,-1,29,-1,-1,31,33,35,-1,-1,37,39,-1,41,43,45,47,49,-1,-1,-1,-1,-1,-1,-1,-1,-1,-1,-1,-1,-1,-1,-1],"loss_changes":[2.1820862E-5,9.812032E-6,2.01488E-4,6.201907E-6,4.737437E-6,0E0,0E0,2.2780423E-6,2.9048553E-5,3.9622587E-6,0E0,1.1300172E-6,2.0160808E-6,0E0,2.6737667E-5,2.1585238E-5,1.8929672E-6,1.3700837E-6,0E0,0E0,2.257525E-6,0E0,0E0,4.959297E-6,1.5166714E-5,1.4861653E-6,0E0,0E0,1.5128899E-6,5.695011E-6,0E0,4.2243496E-6,4.0614623E-6,5.027534E-6,3.302296E-6,3.3945698E-6,0E0,0E0,0E0,0E0,0E0,0E0,0E0,0E0,0E0,0E0,0E0,0E0,0E0,0E0,0E0],"parents":[2147483647,0,0,1,1,2,2,3,3,4,4,7,7,8,8,9,9,11,11,12,12,14,14,15,15,16,16,17,17,20,20,23,23,24,24,25,25,28,28,29,29,31,31,32,32,33,33,34,34,35,35],"right_children":[2,4,6,8,10,-1,-1,12,14,16,-1,18,20,-1,22,24,26,28,-1,-1,30,-1,-1,32,34,36,-1,-1,38,40,-1,42,44,46,48,50,-1,-1,-1,-1,-1,-1,-1,-1,-1,-1,-1,-1,-1,-1,-1],"split_conditions":[8.3453876E-1,2.4768538E0,1.933E1,5.2470484E0,3.3619987E1,5.2822346E-4,-3.8438825E-6,9.518807E0,7.044987E1,8.9919615E-1,-4.653366E-6,1.41553935E-2,3.03E0,-4.094681E-6,3.587E1,7.981133E-1,4E0,1.8885715E-3,8.964998E-6,-2.1610442E-6,3.0699475E-3,1.7784564E-4,-8.323084E-6,7.6144905E0,3.8965963E-2,2.160213E-1,-5.0942763E-6,4.9532605E-6,3.8464016E-3,7.803896E-2,-2.4956569E-6,6.8606224E1,1.9667096E-1,8.5369325E-1,2.1042444E1,4.45E0,-3.548657E-6,-7.372349E-6,4.5775405E-6,3.668858E-6,8.8231754E-5,-7.236157E-7,2.2420016E-5,9.119426E-6,4.8146805E-5,1.1237329E-4,-3.3212352E-6,-6.0200177E-6,3.7486923E-5,1.8177551E-6,3.243154E-5],"split_indices":[4,55,26,35,26,0,0,33,31,5,0,4,27,0,26,5,27,4,0,0,4,0,0,35,4,4,0,0,4,5,0,31,4,8,39,47,0,0,0,0,0,0,0,0,0,0,0,0,0,0,0],"split_type":[0,0,0,0,0,0,0,0,0,0,0,0,0,0,0,0,0,0,0,0,0,0,0,0,0,0,0,0,0,0,0,0,0,0,0,0,0,0,0,0,0,0,0,0,0,0,0,0,0,0,0],"sum_hessian":[4.935E3,4.918E3,1.7E1,1.803E3,3.115E3,1E0,1.6E1,1.774E3,2.9E1,2.129E3,9.86E2,6.75E2,1.099E3,2.2E1,7E0,1.488E3,6.41E2,5.47E2,1.28E2,3.37E2,7.62E2,4E0,3E0,1.464E3,2.4E1,1.27E2,5.14E2,4.43E2,1.04E2,5.87E2,1.75E2,1.412E3,5.2E1,8E0,1.6E1,6.2E1,6.5E1,5.2E1,5.2E1,5.86E2,1E0,1.393E3,1.9E1,4.5E1,7E0,7E0,1E0,8E0,8E0,5.2E1,1E1],"tree_param":{"num_deleted":"0","num_feature":"60","num_nodes":"51","size_leaf_vector":"1"}},{"base_weights":[8.526031E-6,-1.8774048E-6,7.9822616E-4,3.352345E-5,-5.010905E-5,9.017722E-3,-3.2914486E-6,2.9665054E-5,5.604477E-4,-2.7672413E-5,-5.4233465E-6,9.097573E-4,-5.9888257E-6,5.0172435E-5,-1.908914E-5,-3.7118368E-6,2.4793483E-3,-1.35458595E-5,-5.574859E-6,4.5936453E-5,2.0542867E-4,-4.795309E-6,-8.186201E-6,-1.8126059E-6,1.5586558E-4,-2.7403564E-6,5.2431875E-5,4.342726E-5,1.2202885E-4,-9.040725E-6,5.2058775E-5,1.1716562E-3,3.827334E-5,3.6032234E-6,7.5497786E-7,-1.4450153E-6,3.5162252E-6,-1.9635104E-6,1.19783625E-4,1.3720464E-6,5.2876578E-5],"categories":[],"categories_nodes":[],"categories_segments":[],"categories_sizes":[],"default_left":[0,0,0,0,0,0,0,0,0,0,0,0,0,0,0,0,0,0,0,0,0,0,0,0,0,0,0,0,0,0,0,0,0,0,0,0,0,0,0,0,0],"id":21,"left_children":[1,3,5,7,9,11,-1,13,15,17,-1,-1,-1,19,21,-1,23,25,-1,27,-1,29,-1,-1,-1,-1,31,33,-1,35,-1,37,39,-1,-1,-1,-1,-1,-1,-1,-1],"loss_changes":[3.9806055E-5,8.168373E-6,4.4802573E-4,5.59265E-6,2.6484418E-6,5.0533144E-4,0E0,2.7404672E-6,2.4541983E-5,1.732093E-6,0E0,0E0,0E0,3.2973312E-5,1.6779326E-6,0E0,8.137311E-6,3.416669E-6,0E0,1.1478629E-5,0E0,3.295443E-6,0E0,0E0,0E0,0E0,7.609051E-6,1.5621447E-6,0E0,1.1652386E-6,0E0,8.98724E-6,5.2485916E-6,0E0,0E0,0E0,0E0,0E0,0E0,0E0,0E0],"parents":[2147483647,0,0,1,1,2,2,3,3,4,4,5,5,7,7,8,8,9,9,13,13,14,14,16,16,17,17,19,19,21,21,26,26,27,27,29,29,31,31,32,32],"right_children":[2,4,6,8,10,12,-1,14,16,18,-1,-1,-1,20,22,-1,24,26,-1,28,-1,30,-1,-1,-1,-1,32,34,-1,36,-1,38,40,-1,-1,-1,-1,-1,-1,-1,-1],"split_conditions":[9.851915E0,1.2727415E1,2.0521198E1,5.29E0,5.11E0,1.0996305E1,-3.2914486E-6,3.603418E1,4.4617624E0,5.952285E0,-5.4233465E-6,9.097573E-4,-5.9888257E-6,5.31E0,3.7730086E-1,-3.7118368E-6,6.1382243E-6,1.3508114E-1,-5.574859E-6,2.1031895E1,2.0542867E-4,3.3257654E0,-8.186201E-6,-1.8126059E-6,1.5586558E-4,-2.7403564E-6,1.392513E-1,1.3588628E0,1.2202885E-4,4.9792233E0,5.2058775E-5,5.5199978E1,5.1E0,3.6032234E-6,7.5497786E-7,-1.4450153E-6,3.5162252E-6,-1.9635104E-6,1.19783625E-4,1.3720464E-6,5.2876578E-5],"split_indices":[35,33,26,47,47,7,0,51,35,7,0,0,0,38,8,0,5,5,0,56,0,7,0,0,0,0,7,55,0,35,0,13,47,0,0,0,0,0,0,0,0],"split_type":[0,0,0,0,0,0,0,0,0,0,0,0,0,0,0,0,0,0,0,0,0,0,0,0,0,0,0,0,0,0,0,0,0,0,0,0,0,0,0,0,0],"sum_hessian":[4.844E3,4.782E3,6.2E1,2.758E3,2.024E3,5E0,5.7E1,2.739E3,1.9E1,1.463E3,5.61E2,2E0,3E0,1.928E3,8.11E2,1.5E1,4E0,1.253E3,2.1E2,1.927E3,1E0,7.39E2,7.2E1,1E0,3E0,7.71E2,4.82E2,1.926E3,1E0,7.37E2,2E0,5E0,4.77E2,9.57E2,9.69E2,5.9E2,1.47E2,3E0,2E0,4.73E2,4E0],"tree_param":{"num_deleted":"0","num_feature":"60","num_nodes":"41","size_leaf_vector":"1"}},{"base_weights":[1.0227234E-5,3.42519E-6,8.268741E-4,-4.076071E-7,1.0955709E-3,4.1684467E-5,-4.3448163E-5,4.9227395E-4,-3.3320375E-6,1.9096988E-5,9.892415E-5,-3.845957E-6,-4.271534E-6,5.4817057E-5,-5.117063E-5,1.0861423E-4,-7.692056E-6,-3.77016E-5,2.0683387E-4,2.9021512E-5,1.337204E-4,1.0220801E-4,-7.810039E-5,9.5973846E-5,5.597408E-4,2.7221364E-5,-3.0349404E-6,1.0861679E-3,1.0905637E-4,3.4824213E-6,-2.9371724E-6,8.88709E-6,1.5239403E-6,7.474049E-6,-1.0679182E-5,-4.9613814E-6,5.1975635E-6,6.7909E-6,1.9080599E-6,8.396402E-6,5.1425788E-5,-1.408718E-7,5.2256895E-5,-8.307487E-6,1.7048877E-4,-4.206982E-6,2.0407379E-5],"categories":[],"categories_nodes":[],"categories_segments":[],"categories_sizes":[],"default_left":[0,0,0,0,0,0,0,0,0,0,0,0,0,0,0,0,0,0,0,0,0,0,0,0,0,0,0,0,0,0,0,0,0,0,0,0,0,0,0,0,0,0,0,0,0,0,0],"id":22,"left_children":[1,3,-1,5,7,9,11,-1,-1,13,15,17,-1,19,21,23,-1,25,27,29,31,33,35,37,39,41,-1,43,45,-1,-1,-1,-1,-1,-1,-1,-1,-1,-1,-1,-1,-1,-1,-1,-1,-1,-1],"loss_changes":[5.465251E-4,2.034846E-5,0E0,8.779333E-6,1.7353326E-4,3.1657164E-6,3.983263E-6,0E0,0E0,4.415322E-6,1.7140851E-6,8.80955E-6,0E0,2.3693428E-6,2.4573394E-6,3.7554928E-6,0E0,1.5902543E-6,1.4583968E-5,3.141837E-6,1.2989512E-6,1.3605552E-6,1.9526703E-6,1.4943926E-6,3.1333798E-6,8.533925E-6,0E0,5.0034738E-5,8.990742E-6,0E0,0E0,0E0,0E0,0E0,0E0,0E0,0E0,0E0,0E0,0E0,0E0,0E0,0E0,0E0,0E0,0E0,0E0],"parents":[2147483647,0,0,1,1,3,3,4,4,5,5,6,6,9,9,10,10,11,11,13,13,14,14,15,15,17,17,18,18,19,19,20,20,21,21,22,22,23,23,24,24,25,25,27,27,28,28],"right_children":[2,4,-1,6,8,10,12,-1,-1,14,16,18,-1,20,22,24,-1,26,28,30,32,34,36,38,40,42,-1,44,46,-1,-1,-1,-1,-1,-1,-1,-1,-1,-1,-1,-1,-1,-1,-1,-1,-1,-1],"split_conditions":[9.1657627E-1,8.3453876E-1,8.268741E-4,4.11E0,1.933E1,3.61E0,9.4837654E1,4.9227395E-4,-3.3320375E-6,3.08E0,5.682016E0,5.2470484E0,-4.271534E-6,2.96E0,5.9367035E-6,7.726527E-2,-7.692056E-6,2.2596254E0,2.4768538E0,1.9060637E1,2.1359028E1,2.0487053E1,8.6114936E-2,3.83E0,4.19E0,2.2234614E0,-3.0349404E-6,6.908721E1,5.4007397E0,3.4824213E-6,-2.9371724E-6,8.88709E-6,1.5239403E-6,7.474049E-6,-1.0679182E-5,-4.9613814E-6,5.1975635E-6,6.7909E-6,1.9080599E-6,8.396402E-6,5.1425788E-5,-1.408718E-7,5.2256895E-5,-8.307487E-6,1.7048877E-4,-4.206982E-6,2.0407379E-5],"split_indices":[4,4,0,37,26,27,16,0,0,37,7,35,0,27,4,57,0,35,55,32,32,32,4,37,47,35,0,31,55,0,0,0,0,0,0,0,0,0,0,0,0,0,0,0,0,0,0],"split_type":[0,0,0,0,0,0,0,0,0,0,0,0,0,0,0,0,0,0,0,0,0,0,0,0,0,0,0,0,0,0,0,0,0,0,0,0,0,0,0,0,0,0,0,0,0,0,0],"sum_hessian":[4.861E3,4.86E3,1E0,4.844E3,1.6E1,2.449E3,2.395E3,1E0,1.5E1,1.757E3,6.92E2,1.233E3,1.162E3,1.165E3,5.92E2,6.67E2,2.5E1,1.063E3,1.7E2,8.79E2,2.86E2,8.8E1,5.04E2,6.5E2,1.7E1,2.78E2,7.85E2,1.6E1,1.54E2,6.01E2,2.78E2,2E2,8.6E1,7.7E1,1.1E1,4.52E2,5.2E1,3.84E2,2.66E2,1E1,7E0,2.71E2,7E0,1.1E1,5E0,9.4E1,6E1],"tree_param":{"num_deleted":"0","num_feature":"60","num_nodes":"47","size_leaf_vector":"1"}},{"base_weights":[-2.3033322E-6,-8.887732E-6,8.062022E-4,2.9516314E-5,-4.6836176E-5,6.211176E-6,8.288929E-5,-1.4414605E-5,-8.053409E-5,4.0749837E-5,-7.0904105E-5,1.1133371E-4,-7.543876E-6,-3.691573E-5,1.3472568E-4,-4.3902905E-6,9.7028475E-5,3.368987E-5,1.4170239E-5,3.6162448E-6,-9.059188E-5,7.1039626E-6,1.6159686E-6,-3.2927162E-6,1.3122329E-4,1.7079465E-5,-3.1839086E-6,4.5159337E-4,-1.9252735E-5,4.2692045E-4,-2.5682943E-6,1.3004882E-5,1.3025802E-4,-7.391563E-6,-8.092796E-7,-5.9198896E-6,2.3287366E-4,-1.1939373E-7,5.413838E-4,8.4439415E-4,-7.906738E-6,-1.0596979E-4,3.2091193E-4,4.432803E-5,1.0993473E-6,5.800415E-6,-4.6990976E-7,1.1072052E-5,2.936426E-6,1.8544115E-5,-4.852592E-6,1.9898653E-4,-3.8394633E-6,5.626685E-5,-8.710967E-6,3.0084837E-5,-6.864407E-6,1.4969702E-6,1.1253746E-4],"categories":[],"categories_nodes":[],"categories_segments":[],"categories_sizes":[],"default_left":[0,0,0,0,0,0,0,0,0,0,0,0,0,0,0,0,0,0,0,0,0,0,0,0,0,0,0,0,0,0,0,0,0,0,0,0,0,0,0,0,0,0,0,0,0,0,0,0,0,0,0,0,0,0,0,0,0,0,0],"id":23,"left_children":[1,3,-1,5,7,9,11,13,15,17,19,21,23,25,27,-1,29,31,-1,-1,33,-1,-1,-1,35,37,-1,39,41,43,-1,45,47,-1,-1,-1,49,-1,51,53,-1,55,57,-1,-1,-1,-1,-1,-1,-1,-1,-1,-1,-1,-1,-1,-1,-1,-1],"loss_changes":[5.2033045E-4,7.139599E-6,0E0,3.0282952E-6,2.690856E-6,4.520115E-6,1.9043564E-6,4.2232446E-6,1.5682717E-6,1.9982476E-6,1.4869784E-6,1.3631256E-6,1.448942E-6,1.5805196E-6,8.0591735E-6,0E0,2.3717262E-6,2.2754687E-6,0E0,0E0,1.9652512E-6,0E0,0E0,0E0,1.3723977E-6,3.7063653E-6,0E0,1.3066618E-5,3.337792E-6,2.7723627E-6,0E0,2.170228E-6,1.2979724E-6,0E0,0E0,0E0,1.7662319E-6,0E0,2.7937012E-5,9.63974E-6,0E0,2.077271E-6,1.2847795E-5,0E0,0E0,0E0,0E0,0E0,0E0,0E0,0E0,0E0,0E0,0E0,0E0,0E0,0E0,0E0,0E0],"parents":[2147483647,0,0,1,1,3,3,4,4,5,5,6,6,7,7,8,8,9,9,10,10,11,11,12,12,13,13,14,14,16,16,17,17,20,20,24,24,25,25,27,27,28,28,29,29,31,31,32,32,36,36,38,38,39,39,41,41,42,42],"right_children":[2,4,-1,6,8,10,12,14,16,18,20,22,24,26,28,-1,30,32,-1,-1,34,-1,-1,-1,36,38,-1,40,42,44,-1,46,48,-1,-1,-1,50,-1,52,54,-1,56,58,-1,-1,-1,-1,-1,-1,-1,-1,-1,-1,-1,-1,-1,-1,-1,-1],"split_conditions":[9.1657627E-1,4.07E0,8.062022E-4,3.51E0,5.9837658E1,3.1E0,1.2394538E-5,5.295523E0,1.044307E0,2.4857217E-1,2.7148012E-6,5.598362E1,9.18756E-4,2.556982E0,1.3442373E1,-4.3902905E-6,4.56E0,2.081E1,1.4170239E-5,3.6162448E-6,4.571979E-3,7.1039626E-6,1.6159686E-6,-3.2927162E-6,3.69E0,5.37E0,-3.1839086E-6,6.1382243E-6,5.9126537E1,7.103773E-4,-2.5682943E-6,-1.1355857E0,2.82E0,-7.391563E-6,-8.092796E-7,-5.9198896E-6,4.22E0,-1.1939373E-7,1.5404419E1,2.1605148E1,-7.906738E-6,2.5117058E1,5.02E0,4.432803E-5,1.0993473E-6,5.800415E-6,-4.6990976E-7,1.1072052E-5,2.936426E-6,1.8544115E-5,-4.852592E-6,1.9898653E-4,-3.8394633E-6,5.626685E-5,-8.710967E-6,3.0084837E-5,-6.864407E-6,1.4969702E-6,1.1253746E-4],"split_indices":[4,37,0,46,13,37,58,35,58,4,4,31,8,35,40,0,37,26,0,0,4,0,0,0,47,38,0,58,13,8,0,55,37,0,0,0,47,0,18,17,0,26,47,0,0,0,0,0,0,0,0,0,0,0,0,0,0,0,0],"split_type":[0,0,0,0,0,0,0,0,0,0,0,0,0,0,0,0,0,0,0,0,0,0,0,0,0,0,0,0,0,0,0,0,0,0,0,0,0,0,0,0,0,0,0,0,0,0,0,0,0,0,0,0,0,0,0,0,0,0,0],"sum_hessian":[4.898E3,4.897E3,1E0,2.434E3,2.463E3,1.695E3,7.39E2,1.256E3,1.207E3,1.171E3,5.24E2,5.62E2,1.77E2,1.092E3,1.64E2,1.16E3,4.7E1,1.139E3,3.2E1,6.3E1,4.61E2,4.04E2,1.58E2,1.25E2,5.2E1,3.62E2,7.3E2,5.3E1,1.11E2,1.4E1,3.3E1,9.39E2,2E2,2.6E2,2.01E2,1.5E1,3.7E1,3.5E2,1.2E1,3.2E1,2.1E1,8.9E1,2.2E1,6E0,8E0,1.67E2,7.72E2,8.7E1,1.13E2,2.6E1,1.1E1,1E0,1.1E1,2.5E1,7E0,3E0,8.6E1,2E1,2E0],"tree_param":{"num_deleted":"0","num_feature":"60","num_nodes":"59","size_leaf_vector":"1"}},{"base_weights":[5.628594E-6,-7.765113E-7,7.8604714E-4,3.9864546E-5,-3.4605844E-5,3.6621863E-5,9.359427E-4,-1.2374914E-5,-3.688039E-6,6.3102393E-6,2.6868272E-5,1.9401185E-4,-1.9495178E-6,1.852725E-5,-6.7565954E-5,2.3699686E-5,1.3362841E-5,-1.6691239E-6,7.1307574E-4,4.6472498E-5,-4.9597515E-6,-9.681727E-6,4.926503E-5,-1.682857E-5,2.285041E-4,1.364866E-3,2.863478E-4,1.7687473E-4,-6.49167E-5,1.2081144E-6,-3.6307586E-6,5.3588765E-6,-3.1054867E-7,-1.2717122E-6,9.538689E-6,8.542778E-5,6.545277E-6,9.375385E-5,-6.2162553E-6,-2.6784944E-6,5.4420863E-5,3.5220125E-7,2.6658352E-5,1.3457562E-5,-5.508677E-6],"categories":[],"categories_nodes":[],"categories_segments":[],"categories_sizes":[],"default_left":[0,0,0,0,0,0,0,0,0,0,0,0,0,0,0,0,0,0,0,0,0,0,0,0,0,0,0,0,0,0,0,0,0,0,0,0,0,0,0,0,0,0,0,0,0],"id":24,"left_children":[1,3,-1,5,7,9,11,13,-1,-1,15,-1,-1,17,19,21,-1,23,25,27,-1,29,31,33,35,37,39,41,43,-1,-1,-1,-1,-1,-1,-1,-1,-1,-1,-1,-1,-1,-1,-1,-1],"loss_changes":[4.941435E-4,6.749192E-6,0E0,6.4454334E-6,2.331024E-6,1.9389665E-6,2.311521E-5,2.9176954E-6,0E0,0E0,1.5216198E-6,0E0,0E0,1.5389205E-5,2.2192658E-6,1.6910769E-6,0E0,3.7269267E-6,8.231424E-6,1.9578856E-6,0E0,1.8334861E-6,3.6053755E-6,1.7949835E-6,9.310101E-6,9.350737E-6,5.5110586E-6,3.7478255E-6,1.1333301E-6,0E0,0E0,0E0,0E0,0E0,0E0,0E0,0E0,0E0,0E0,0E0,0E0,0E0,0E0,0E0,0E0],"parents":[2147483647,0,0,1,1,3,3,4,4,5,5,6,6,7,7,10,10,13,13,14,14,15,15,17,17,18,18,19,19,21,21,22,22,23,23,24,24,25,25,26,26,27,27,28,28],"right_children":[2,4,-1,6,8,10,12,14,-1,-1,16,-1,-1,18,20,22,-1,24,26,28,-1,30,32,34,36,38,40,42,44,-1,-1,-1,-1,-1,-1,-1,-1,-1,-1,-1,-1,-1,-1,-1,-1],"split_conditions":[9.1657627E-1,8.4395546E1,7.8604714E-4,3.602E1,1.45081415E1,-1.1355857E0,2.0460747E-7,8.9919615E-1,-3.688039E-6,6.3102393E-6,2.4857217E-1,1.9401185E-4,-1.9495178E-6,7.981133E-1,4.12E0,3.03E0,1.3362841E-5,4.9425066E-2,3.8965963E-2,2.160213E-1,-4.9597515E-6,1.9060637E1,3.74E0,7.474671E0,4.64171E-3,9.4837654E1,3.3542308E-1,4.45E0,6.6419153E0,1.2081144E-6,-3.6307586E-6,5.3588765E-6,-3.1054867E-7,-1.2717122E-6,9.538689E-6,8.542778E-5,6.545277E-6,9.375385E-5,-6.2162553E-6,-2.6784944E-6,5.4420863E-5,3.5220125E-7,2.6658352E-5,1.3457562E-5,-5.508677E-6],"split_indices":[4,16,0,26,18,55,4,5,0,0,4,0,0,5,27,27,0,25,4,4,0,32,37,35,4,16,4,47,35,0,0,0,0,0,0,0,0,0,0,0,0,0,0,0,0],"split_type":[0,0,0,0,0,0,0,0,0,0,0,0,0,0,0,0,0,0,0,0,0,0,0,0,0,0,0,0,0,0,0,0,0,0,0,0,0,0,0,0,0,0,0,0,0],"sum_hessian":[4.908E3,4.907E3,1E0,2.229E3,2.678E3,2.222E3,7E0,1.709E3,9.69E2,2.17E2,2.005E3,1E0,6E0,1.096E3,6.13E2,1.98E3,2.5E1,1.066E3,3E1,1.33E2,4.8E2,8.59E2,1.121E3,1.001E3,6.5E1,1.1E1,1.9E1,6.1E1,7.2E1,5.59E2,3E2,5.48E2,5.73E2,9.62E2,3.9E1,3E0,6.2E1,8E0,3E0,1.4E1,5E0,4.2E1,1.9E1,8E0,6.4E1],"tree_param":{"num_deleted":"0","num_feature":"60","num_nodes":"45","size_leaf_vector":"1"}},{"base_weights":[-1.365262E-6,-5.013652E-6,1.1085146E-3,2.6995165E-5,-4.7414534E-5,4.8007732E-4,-4.8895317E-6,2.351497E-5,4.422345E-4,-2.06536E-5,-3.9654938E-6,5.8411275E-5,-4.4768426E-6,-3.4477184E-6,1.9020954E-3,3.6115267E-5,-4.0243962E-5,3.1323E-5,1.0753406E-4,2.6780155E-5,-4.014908E-5,-3.0649528E-6,1.4495586E-4,2.4560699E-5,8.525124E-5,-6.156903E-5,1.6643153E-5,5.7333284E-5,-2.864299E-6,6.6612506E-6,-1.7781425E-6,4.1828425E-5,-5.2336795E-6,-2.5623206E-6,1.5861519E-4,7.358246E-5,-5.543913E-6,9.452648E-5,-3.7600716E-6,2.1749442E-4,-1.2535145E-6,2.360676E-6,1.465284E-5,-1.3652193E-6,3.2970759E-6,1.889291E-5,-9.004822E-7,5.8215716E-7,2.2757673E-5,2.5707239E-5,-4.999989E-6,2.1019832E-6,1.8711868E-5],"categories":[],"categories_nodes":[],"categories_segments":[],"categories_sizes":[],"default_left":[0,0,0,0,0,0,0,0,0,0,0,0,0,0,0,0,0,0,0,0,0,0,0,0,0,0,0,0,0,0,0,0,0,0,0,0,0,0,0,0,0,0,0,0,0,0,0,0,0,0,0,0,0],"id":25,"left_children":[1,3,5,7,9,-1,-1,11,13,15,-1,17,19,-1,21,23,25,27,29,31,33,-1,-1,35,-1,37,39,41,-1,-1,-1,43,-1,-1,45,47,-1,49,-1,51,-1,-1,-1,-1,-1,-1,-1,-1,-1,-1,-1,-1,-1],"loss_changes":[1.9774114E-5,6.606783E-6,1.6486195E-4,3.998349E-6,1.7856937E-6,0E0,0E0,2.6884454E-6,1.7295246E-5,1.2692733E-6,0E0,1.6266795E-6,1.704806E-6,0E0,1.1922997E-5,5.6081976E-6,1.0297515E-6,1.8263377E-6,1.6039262E-6,1.6165718E-6,1.5830359E-6,0E0,0E0,1.9468798E-6,0E0,1.3200581E-6,1.9491947E-6,1.4460688E-6,0E0,0E0,0E0,1.2220486E-6,0E0,0E0,1.4783079E-6,5.0760636E-6,0E0,4.132753E-6,0E0,1.0843187E-6,0E0,0E0,0E0,0E0,0E0,0E0,0E0,0E0,0E0,0E0,0E0,0E0,0E0],"parents":[2147483647,0,0,1,1,2,2,3,3,4,4,7,7,8,8,9,9,11,11,12,12,14,14,15,15,16,16,17,17,18,18,19,19,20,20,23,23,25,25,26,26,27,27,31,31,34,34,35,35,37,37,39,39],"right_children":[2,4,6,8,10,-1,-1,12,14,16,-1,18,20,-1,22,24,26,28,30,32,34,-1,-1,36,-1,38,40,42,-1,-1,-1,44,-1,-1,46,48,-1,50,-1,52,-1,-1,-1,-1,-1,-1,-1,-1,-1,-1,-1,-1,-1],"split_conditions":[2.5036161E1,1.2727415E1,1.933E1,5.29E0,4.85E0,4.8007732E-4,-4.8895317E-6,5.737112E0,4.4617624E0,2.0466457E1,-3.9654938E-6,3.02E0,5.185793E-2,-3.4477184E-6,2.1681144E-4,6.921E1,6.582274E1,3.958E1,6.07671E1,5.16E0,1.2646848E1,-3.0649528E-6,1.4495586E-4,8.710096E0,8.525124E-5,2.004783E1,4.06E0,7.4571652E0,-2.864299E-6,6.6612506E-6,-1.7781425E-6,3.28E0,-5.2336795E-6,-2.5623206E-6,2.1043188E1,4.2246157E-1,-5.543913E-6,1.3608918E1,-3.7600716E-6,7.5506517E-3,-1.2535145E-6,2.360676E-6,1.465284E-5,-1.3652193E-6,3.2970759E-6,1.889291E-5,-9.004822E-7,5.8215716E-7,2.2757673E-5,2.5707239E-5,-4.999989E-6,2.1019832E-6,1.8711868E-5],"split_indices":[6,33,26,47,47,0,0,53,35,32,0,46,6,0,7,31,13,31,31,46,33,0,0,6,0,17,27,6,0,0,0,46,0,0,17,8,0,40,0,12,0,0,0,0,0,0,0,0,0,0,0,0,0],"split_type":[0,0,0,0,0,0,0,0,0,0,0,0,0,0,0,0,0,0,0,0,0,0,0,0,0,0,0,0,0,0,0,0,0,0,0,0,0,0,0,0,0,0,0,0,0,0,0,0,0,0,0,0,0],"sum_hessian":[4.881E3,4.866E3,1.5E1,2.773E3,2.093E3,1E0,1.4E1,2.751E3,2.2E1,1.139E3,9.54E2,1.224E3,1.527E3,1.7E1,5E0,2.92E2,8.47E2,7.9E2,4.34E2,8.14E2,7.13E2,2E0,3E0,2.91E2,1E0,6.16E2,2.31E2,6.11E2,1.79E2,3.68E2,6.6E1,7.31E2,8.3E1,6.76E2,3.7E1,2.14E2,7.7E1,4.9E1,5.67E2,3.9E1,1.92E2,5.87E2,2.4E1,1.89E2,5.42E2,1.6E1,2.1E1,1.85E2,2.9E1,1.5E1,3.4E1,1.9E1,2E1],"tree_param":{"num_deleted":"0","num_feature":"60","num_nodes":"53","size_leaf_vector":"1"}},{"base_weights":[1.0315595E-5,4.045053E-6,7.6651823E-4,3.939243E-7,1.1157892E-3,3.212216E-5,-4.1447685E-5,4.6807536E-4,-2.901295E-6,5.418078E-5,-5.1797174E-6,-2.3896035E-5,-4.406446E-6,4.6615587E-5,1.9226081E-3,9.6343596E-5,-4.0071613E-5,1.4387926E-5,-5.22225E-5,5.8245012E-5,-1.3773532E-6,1.308781E-4,6.1741034E-6,-9.930323E-6,6.679341E-6,-2.6881041E-6,1.253573E-4,-9.885711E-6,3.757734E-4,1.0496278E-5,-8.4084E-5,2.656622E-6,9.791712E-5,9.3952195E-7,2.1835036E-5,-2.2156833E-6,3.9842557E-6,7.0661474E-5,1.9912738E-6,4.8832153E-6,-4.8861716E-6,-4.9309024E-6,1.09431085E-5],"categories":[],"categories_nodes":[],"categories_segments":[],"categories_sizes":[],"default_left":[0,0,0,0,0,0,0,0,0,0,0,0,0,0,0,0,0,0,0,0,0,0,0,0,0,0,0,0,0,0,0,0,0,0,0,0,0,0,0,0,0,0,0],"id":26,"left_children":[1,3,-1,5,7,9,11,-1,-1,13,15,17,-1,19,21,23,25,27,29,31,-1,-1,-1,-1,-1,-1,33,35,37,39,41,-1,-1,-1,-1,-1,-1,-1,-1,-1,-1,-1,-1],"loss_changes":[4.6959985E-4,1.9840543E-5,0E0,6.470533E-6,1.5540638E-4,2.2811598E-6,1.7201316E-6,0E0,0E0,2.4533565E-5,3.6560139E-6,1.658874E-6,0E0,1.4988507E-6,8.428946E-6,2.9265427E-6,1.7461053E-6,5.714378E-6,1.7574007E-6,1.4477242E-5,0E0,0E0,0E0,0E0,0E0,0E0,1.9493486E-6,1.8876964E-6,1.4233494E-5,2.811234E-6,2.588552E-6,0E0,0E0,0E0,0E0,0E0,0E0,0E0,0E0,0E0,0E0,0E0,0E0],"parents":[2147483647,0,0,1,1,3,3,4,4,5,5,6,6,9,9,10,10,11,11,13,13,14,14,15,15,16,16,17,17,18,18,19,19,26,26,27,27,28,28,29,29,30,30],"right_children":[2,4,-1,6,8,10,12,-1,-1,14,16,18,-1,20,22,24,26,28,30,32,-1,-1,-1,-1,-1,-1,34,36,38,40,42,-1,-1,-1,-1,-1,-1,-1,-1,-1,-1,-1,-1],"split_conditions":[9.1657627E-1,8.3453876E-1,7.6651823E-4,1.2727415E1,1.933E1,3.0358692E-3,4.97E0,4.6807536E-4,-2.901295E-6,8.024218E-2,3.3589447E1,5.833785E-2,-4.406446E-6,3.80888E1,2.765613E-3,3.8464016E-3,1.2597793E1,7.108198E-1,5.7572376E1,5.37E0,-1.3773532E-6,1.308781E-4,6.1741034E-6,-9.930323E-6,6.679341E-6,-2.6881041E-6,1.343973E1,1.6385598E-2,8.9919615E-1,6.338085E0,5.53201E-1,2.656622E-6,9.791712E-5,9.3952195E-7,2.1835036E-5,-2.2156833E-6,3.9842557E-6,7.0661474E-5,1.9912738E-6,4.8832153E-6,-4.8861716E-6,-4.9309024E-6,1.09431085E-5],"split_indices":[4,4,0,33,26,4,46,0,0,5,13,4,0,51,4,4,33,5,31,38,0,0,0,0,0,0,54,5,5,7,4,0,0,0,0,0,0,0,0,0,0,0,0],"split_type":[0,0,0,0,0,0,0,0,0,0,0,0,0,0,0,0,0,0,0,0,0,0,0,0,0,0,0,0,0,0,0,0,0,0,0,0,0,0,0,0,0,0,0],"sum_hessian":[4.888E3,4.887E3,1E0,4.872E3,1.5E1,2.771E3,2.101E3,1E0,1.4E1,1.741E3,1.03E3,1.528E3,5.73E2,1.735E3,6E0,2.63E2,7.67E2,6.5E2,8.78E2,1.5E3,2.35E2,4E0,2E0,2.9E1,2.34E2,7.09E2,5.8E1,6.1E2,4E1,2.96E2,5.82E2,1.497E3,3E0,4.4E1,1.4E1,4.41E2,1.69E2,9E0,3.1E1,1.64E2,1.32E2,5.56E2,2.6E1],"tree_param":{"num_deleted":"0","num_feature":"60","num_nodes":"43","size_leaf_vector":"1"}},{"base_weights":[5.8110277E-6,-3.0111957E-7,7.473553E-4,4.202804E-5,-2.4584451E-5,3.4978042E-5,5.1710015E-4,-3.683141E-6,-3.390356E-6,7.187762E-5,1.2353018E-5,-2.417537E-6,2.0588029E-3,1.3056565E-4,-1.0192366E-5,9.294735E-5,-1.3558217E-6,-1.291151E-5,2.0509915E-5,1.5216968E-4,-1.3422482E-5,2.7081353E-6,1.8663121E-4,-3.4737626E-5,1.5802763E-5,7.5564414E-5,2.1954073E-4,1.5871621E-5,1.3045379E-5,3.9153506E-6,-4.6990343E-5,1.19792785E-4,-2.4569687E-5,4.478932E-6,-1.7085113E-5,1.590365E-5,4.009154E-7,-2.73376E-7,3.253531E-6,1.3936933E-7,-3.6143883E-6,1.0775327E-5,-1.6065817E-6,3.8689964E-6,-2.541762E-6],"categories":[],"categories_nodes":[],"categories_segments":[],"categories_sizes":[],"default_left":[0,0,0,0,0,0,0,0,0,0,0,0,0,0,0,0,0,0,0,0,0,0,0,0,0,0,0,0,0,0,0,0,0,0,0,0,0,0,0,0,0,0,0,0,0],"id":27,"left_children":[1,3,-1,5,7,9,11,13,-1,15,17,-1,19,21,23,25,-1,-1,27,-1,-1,-1,-1,29,31,33,35,37,-1,-1,39,41,43,-1,-1,-1,-1,-1,-1,-1,-1,-1,-1,-1,-1],"loss_changes":[4.4666717E-4,5.0274302E-6,0E0,5.953643E-6,2.8075501E-6,1.4667853E-6,2.276523E-5,1.832932E-6,0E0,1.3958197E-6,2.4132632E-6,0E0,1.6856739E-5,2.6492997E-5,1.2766636E-6,1.1959223E-6,0E0,0E0,1.1777958E-6,0E0,0E0,0E0,0E0,1.4289515E-6,4.083722E-6,2.872577E-6,1.3730071E-6,1.0932647E-6,0E0,0E0,1.1700433E-6,3.9621455E-6,1.8810453E-6,0E0,0E0,0E0,0E0,0E0,0E0,0E0,0E0,0E0,0E0,0E0,0E0],"parents":[2147483647,0,0,1,1,3,3,4,4,5,5,6,6,7,7,9,9,10,10,12,12,13,13,14,14,15,15,18,18,23,23,24,24,25,25,26,26,27,27,30,30,31,31,32,32],"right_children":[2,4,-1,6,8,10,12,14,-1,16,18,-1,20,22,24,26,-1,-1,28,-1,-1,